437 300
plane -0.26701 -0.090507 0.028705 0.62999 0.1837 -0.13615 0.26444 -0.69059 -0.26389 -0.047328 -0.0275 0.053471 -0.10595 -0.10727 -0.010981 0.33146 -0.11641 0.085788 0.080023 0.043567 0.12589 -0.15951 -0.17428 -0.27667 -0.097527 0.093452 -0.022563 0.083673 0.54554 0.1446 -0.095527 -0.096151 0.19533 0.28477 0.28308 -0.23681 -0.14627 -0.41371 -0.16106 -0.21915 -0.35401 0.34114 0.15189 0.21486 0.11896 -0.11302 -0.26794 0.10215 -0.38081 0.069068 0.083289 0.043156 -0.44143 -0.12834 -0.088947 -0.11261 0.15097 -0.16372 -0.030594 0.15969 0.013209 0.4225 0.18234 -0.065823 -0.21971 0.21741 -0.35105 -0.22069 0.24035 0.21059 -0.078867 0.33601 -0.050802 -0.19244 -0.076171 0.1751 0.14113 0.11308 -0.052856 0.002099 0.18846 -0.29872 -0.14993 -0.02169 0.018458 0.26897 -0.23533 0.060483 0.073513 0.063572 -0.076882 0.1585 0.34892 -0.30346 0.035523 -0.14678 -0.030703 -0.029379 0.24739 0.064876 -0.28993 0.091887 0.047132 -0.13394 -0.091675 -0.2048 -0.12279 0.001997 0.038326 -0.012099 -0.43518 0.17751 0.043364 0.066648 0.052856 -0.47076 -0.020265 -0.18952 0.19013 -0.042442 -0.2396 0.13741 -0.16761 -0.11048 0.48134 0.23401 -0.042171 -0.40569 -0.28055 -0.08619 -0.20401 -0.39111 0.1841 0.085238 -0.3052 0.1165 0.48321 0.23196 -0.27366 0.09515 -0.24296 -0.2441 0.34101 -0.2257 -0.22069 -0.007068 0.125 0.4197 0.095298 0.35373 -0.18327 -0.076344 -0.072332 -0.12758 0.030664 -0.23629 -0.48594 0.15844 -0.23573 0.12679 0.095485 -0.20585 0.3165 0.20744 0.050773 -0.031198 -0.091175 0.13822 0.31981 -0.18246 -0.086335 -0.070317 0.50976 -0.033149 0.082223 -0.34943 0.074202 0.3101 0.055146 -0.061938 -0.012305 0.0032254 -0.019841 0.20775 -0.22594 0.10927 0.10601 -0.057952 0.16116 0.23974 -0.12316 0.10715 0.053796 -0.084808 0.2568 0.0031013 -0.2984 0.33339 0.017636 -0.086036 0.064826 0.38663 0.045125 -0.10365 0.15753 -0.57623 -0.3477 -0.089485 -0.086963 0.21547 -0.059713 0.054162 0.3239 0.12359 0.32158 0.13063 0.11906 0.13566 0.15652 -0.3237 -0.036332 -0.31777 -0.17898 0.15816 -0.21975 -0.38567 -0.26374 -0.17669 0.13825 -0.18915 -0.45738 -0.36138 -0.26194 0.056779 -0.10874 0.097212 0.04231 0.10329 0.22936 -0.24578 -0.034467 -0.306 -0.34904 0.32328 0.19243 -0.29928 -0.2018 0.063302 -0.12506 0.1088 -0.215 -0.12285 -0.52739 -0.063068 0.078968 0.020154 -0.20168 0.26044 0.74718 0.58792 -0.25085 0.13101 0.26607 0.22553 -0.023581 -0.12204 -0.35984 0.18009 0.023176 -0.22932 0.50216 -0.11613 -0.030088 -0.071811 0.14228 0.20101 0.10881 -0.3307 0.013738 0.20146 -0.23297 0.074273 -0.053493 -0.14173 -0.35649 -0.031801 0.29315 -0.052142 -0.085908 0.33097 -0.25471 0.16716 -0.014646 0.43925 0.21867 -0.17718 0.019318 -0.027587 0.20904 0.38404
stupid -0.25819 9.4222E-4 -0.12035 -0.03864 0.23097 -0.36365 0.25943 -0.28502 -0.1956 0.0033949 -0.23078 0.11015 0.027177 -0.14664 0.41516 -0.36306 -0.35137 0.019333 -0.23416 -0.01776 0.050227 0.023456 0.1899 -0.068454 -0.038656 -0.18002 -0.24379 0.063061 -0.087579 0.081093 -0.35022 0.32115 0.0063752 0.15604 0.1433 0.20966 0.017459 -0.079615 0.010015 0.32565 -0.045891 -0.28902 -0.19889 -0.11454 0.031806 -0.11888 -0.1692 0.44158 0.014549 0.29458 0.10005 -0.17728 -0.07995 0.20078 0.12566 -0.19862 -0.088199 0.27771 0.15555 -0.10275 -0.12054 0.0086803 0.0016355 -0.30323 0.27606 -0.15746 -0.099952 0.071493 -0.10393 0.32085 -0.52361 0.051171 -0.017803 -0.31979 -0.38508 -0.22295 -0.17482 -0.075035 0.10641 -0.049289 -0.19932 -0.36261 0.027192 0.21402 -0.23121 0.32456 0.091436 0.096977 -0.15103 0.2278 -0.30412 -0.19207 -0.083184 0.047007 -0.01797 -0.11581 0.27236 0.20231 -0.054552 -0.079444 -0.39626 -0.0037034 -0.055285 -0.15103 -0.22828 -0.076538 0.22085 -0.10968 0.14447 0.33797 -0.30348 0.1286 -0.26233 -0.063711 0.034514 0.23202 0.046386 0.015445 0.21263 -0.011233 0.05069 -0.10684 0.13545 -0.12461 0.25365 0.022797 -0.20533 0.17173 0.016233 0.48862 0.0063314 0.17879 0.076405 0.2509 0.23132 -0.18867 -0.09702 0.098558 0.12202 -0.20267 0.14012 -0.26546 -0.045928 0.29273 -0.12784 0.10122 0.1857 0.63667 0.23 0.38803 -0.40291 -0.36617 0.058429 0.29342 0.033193 0.15716 0.10706 -0.073613 0.0023553 -0.036893 -0.14623 0.40256 0.14936 0.18372 -0.19569 0.12962 0.13768 -0.0089677 0.040299 -0.30131 0.010299 -0.055015 0.20717 -0.082564 -0.09374 0.19062 0.15586 0.25271 -0.088028 0.39532 0.077814 -0.2307 0.050887 -0.17029 0.13133 -0.0087048 -0.068131 0.24881 0.12795 -0.22719 -0.055967 0.12423 -0.19459 0.10926 0.082347 -0.1213 0.17965 -0.18722 -0.37443 -0.16694 0.041717 0.13546 0.14352 -0.074356 0.25734 0.072216 0.11354 -0.017499 -0.057552 -0.30089 0.10511 0.40791 0.43992 0.17073 0.51655 0.30599 -0.012515 0.19898 0.43919 -0.61784 0.092426 0.17948 -0.19199 0.29286 9.5576E-4 0.097015 -0.099792 -0.20403 -0.11552 -0.25963 0.23568 0.062166 0.10153 0.058604 0.35114 0.5501 0.28282 -0.17404 0.18078 -0.78358 -0.047319 -0.10644 -0.2631 0.20094 0.35023 -0.53906 -0.27637 -0.14044 -0.15037 0.067689 -0.26495 0.0018503 0.10846 -0.19657 -0.042015 0.093101 -0.32091 -0.12172 0.21083 0.021465 -0.31158 -0.019221 -0.011929 -0.074271 -0.15977 0.22917 -0.074384 0.080394 -0.079605 0.10435 0.19037 0.2768 -0.015002 -0.66256 0.14758 0.041336 0.19038 0.087781 -0.038137 -0.033504 0.19044 -0.41418 0.13044 0.10011 -0.048039 0.25093 0.16272 0.23569 0.13954 -0.077075 -0.30944 0.063259 0.12933 0.059084 0.13644 -0.27674 -0.38761 -0.17236 0.064855 0.076613
egg -0.22711 -0.26691 0.030018 0.16388 0.042519 -0.59809 -0.128 -0.050346 -0.011854 0.2432 0.041036 0.11404 0.14954 -0.017901 0.11738 -0.24867 -0.24171 0.3488 0.16725 -0.38438 0.13039 0.25122 0.11033 -0.28228 0.49584 -0.41159 0.20617 -0.29447 0.44457 0.034574 -0.1173 0.27255 0.0080764 0.55438 0.031854 0.030753 0.48193 0.34163 0.088102 0.16012 -0.31727 -0.015443 -0.25998 -0.30572 0.39376 0.16065 -0.51425 0.031065 0.0791 0.29144 -0.12766 0.098865 -0.29377 -0.092603 0.1358 -0.25489 -0.013293 0.40605 0.37016 0.076913 0.039305 0.60246 0.14798 -0.20846 0.098521 -0.09693 -0.065811 0.039177 -0.18206 0.16523 -0.25224 0.49007 0.015664 0.0016936 0.092106 -0.55539 -0.1761 -0.41331 0.45768 -0.036214 -0.041869 -0.054572 0.25172 -0.23934 -0.4033 0.10838 -0.19364 -0.16064 -0.14676 0.31156 -0.085423 -0.044893 0.26333 -0.060249 -0.057658 0.22833 -0.16992 -0.020031 0.46002 0.24575 -0.092779 -0.09593 -0.099527 -0.12996 0.0052896 -0.6665 0.28243 0.1648 0.51199 -0.42289 -0.38794 -0.46738 -0.39313 -0.10211 0.011194 -0.058667 0.20099 0.29703 -0.56275 0.060596 -0.09756 -0.11816 -0.16039 0.13228 0.47002 0.22807 -0.033854 -0.055327 -0.20804 -0.10738 -0.080305 0.012091 -0.11156 -0.044222 -0.049831 0.36907 0.21654 -0.092836 -0.11454 0.095421 0.1415 -0.0052777 -0.21035 0.26249 -0.23811 0.34645 -0.0069177 0.18124 -0.012562 -0.050183 0.26589 -0.2426 -0.12558 0.11358 -0.16863 -0.023352 0.15668 -0.15052 0.51063 0.097867 -0.32547 0.19022 0.014199 0.35548 0.17416 -0.11298 -0.14595 0.36874 -0.11299 0.3217 -0.085996 0.1248 -0.3467 -0.33072 -0.18375 0.020553 0.054272 -0.20747 0.11601 0.16003 0.10905 -0.10955 0.16403 0.19761 -0.28277 -0.14512 0.51354 0.3424 0.29697 -0.36234 -0.27144 -0.15887 -0.035695 0.094674 -0.047232 -0.5396 0.11362 -0.23707 -0.54818 -0.30944 -0.071586 -0.075672 -0.053299 -0.067989 0.56268 0.028854 -0.14091 -0.15628 0.11552 -0.14511 0.099743 0.52091 0.33963 0.17476 -0.067617 0.34102 0.10909 -0.016653 0.30664 0.032339 -0.28881 -0.15503 -0.47841 0.094763 -0.28061 0.19359 -0.40707 0.030123 -0.10737 -0.043419 -0.31426 -0.10807 -0.29564 -0.041559 -0.054245 -0.24513 0.0031239 0.21256 0.030295 -0.52337 -0.053376 0.36645 0.19126 -0.018053 -0.044366 0.14869 -0.043521 0.10914 0.15387 0.37483 -0.13658 0.25068 -0.11149 -0.52634 0.15652 -0.15383 -0.10032 0.316 0.14119 0.38058 0.018122 -0.024875 0.083208 0.10107 0.079032 0.47458 -0.13392 -0.0048095 -0.038481 -0.35972 0.13732 0.2956 -0.047396 -0.15038 0.17805 0.27742 0.052557 -0.41916 0.017173 -0.36107 0.13661 0.0079132 -0.080903 -0.089292 0.26289 -0.056468 0.52146 -0.34003 0.10605 0.35259 0.60571 -0.52947 -0.088887 0.472 0.41326 0.38309 0.015857 -0.4747 0.14172 -0.12681
year -0.0030298 -0.21954 -0.15416 0.071836 -0.19626 -0.10207 0.19952 -0.27987 0.064733 0.25108 0.022869 -0.45259 -0.20046 -0.093278 0.21881 0.2294 0.087617 -0.21572 0.16683 0.052819 -0.32012 0.095198 0.082318 0.32391 0.065842 -0.071514 -0.086129 -0.25044 -0.063664 0.18904 -0.057807 0.013176 -0.24573 0.12505 -0.22254 -0.018238 -5.098E-4 0.11505 0.1819 -0.069751 -0.0076025 -0.15277 0.17295 -0.11122 0.0056869 -0.042612 -0.12514 -0.25999 -0.066267 0.29739 0.092461 0.14048 0.098116 0.057489 0.12699 0.11559 -0.14491 -0.30893 0.12631 0.10419 -0.10416 0.16316 0.14268 -0.0015702 -0.12839 -0.14006 -0.17684 -0.048497 -0.31958 0.20772 0.29162 -0.078559 0.24811 0.38971 0.27452 0.075724 0.01935 -0.22955 0.19049 -0.062957 -0.11069 -0.11736 0.13853 0.10862 -0.045516 0.13948 0.30837 0.046578 -0.17163 -0.074315 -0.025955 -0.071683 0.13389 -0.12267 -0.082234 0.0053261 -0.037708 -0.031911 -0.19435 0.037204 -0.089549 0.036846 0.15004 -0.01864 0.19087 -0.10709 0.19189 0.29953 0.048242 -0.12674 -0.064593 0.11139 -0.094787 0.28518 0.12748 -0.16925 0.063486 0.11021 -0.08865 -0.0092294 0.10955 0.15067 0.032112 0.042487 -0.038848 -0.34322 0.15204 -0.088081 -0.13269 0.14547 0.081989 0.088356 0.10423 0.19501 0.042598 0.23905 -0.21534 -0.22533 -0.0114 -0.049731 -0.20791 0.12922 -0.09237 0.16393 -0.29415 0.13351 -0.35717 -0.065415 0.089689 0.20364 -0.08793 -0.063279 0.021543 -0.046872 0.042055 0.10644 0.20036 0.46357 0.23769 -0.094668 -0.1622 0.072998 0.19865 0.10738 0.060182 -0.091387 0.021282 0.1845 -0.37985 0.095471 0.0297 0.015516 -0.25495 -0.0088137 0.0042875 0.067751 -0.14866 0.0055727 0.27289 0.20153 -0.060645 -0.27013 -0.056886 -0.061352 0.011022 -0.12256 -6.0818E-4 0.025104 -0.0041952 0.37343 -0.01577 -0.025646 -0.10583 -0.10826 -0.14121 -0.21466 -0.18756 0.16516 0.042794 -0.11953 -0.13648 -0.024159 -0.062125 0.0092075 0.1609 -0.16038 0.064362 -0.11204 -0.098188 -0.0067122 0.030716 0.02089 0.13409 -0.069301 0.035003 0.14055 -0.085183 0.26214 0.22093 -0.13878 -0.33517 -0.17302 0.061087 -0.024828 0.072652 0.056238 0.19363 0.086601 0.15535 -0.35423 -0.049592 -0.12682 -0.052384 0.024079 -0.10999 0.12047 -0.0074819 -0.21959 -0.17227 0.18778 0.0667 -0.0074207 -0.13272 -0.12124 0.18776 -0.039384 0.030942 0.19793 0.02583 0.0052737 -0.091649 -0.038761 0.24142 0.021752 0.16861 -0.11275 0.013775 0.16071 0.068778 0.16356 -0.30946 0.076698 -0.066349 -0.035088 0.037369 0.0086347 0.13782 -0.15639 0.0031817 -0.11947 0.29258 -0.17977 -0.022568 -0.5718 -0.20358 0.012007 -0.028434 -0.15424 0.081755 0.12711 0.037963 0.22877 0.2061 -0.41928 -0.11204 0.010842 -0.15618 0.14842 -0.23036 -0.083656 0.19339 -0.090148 0.12167 0.22594 0.32646 0.067789 0.19145 -0.012957 -0.18159 -0.085499
psychiatry -0.17446 -0.27976 -0.1695 0.34234 -0.017943 0.51433 0.44329 0.059382 -0.3773 0.38491 0.65341 -0.53046 -0.12703 -0.060699 -0.064025 0.025518 0.14217 -0.23989 -0.061569 -0.16626 -0.46738 0.34402 0.10434 -0.28647 0.30775 -0.33122 0.22467 0.1577 0.46096 -0.056796 -0.21353 -0.22823 -0.15586 0.19642 0.39387 -0.36261 0.15464 -0.60006 0.015729 -0.0045969 0.46689 -0.05747 -0.14736 0.26121 -0.1077 0.12689 0.35613 -0.048665 0.33986 -0.095085 -0.10379 -0.32456 -0.0030062 0.17707 -0.094107 -0.17004 0.11753 -0.014652 0.28534 0.036912 -0.34501 -0.0057526 -0.41956 0.23192 0.02861 -0.22319 -0.075123 -0.32775 0.1583 -0.039002 8.8136E-4 0.47328 0.49887 0.05452 0.23861 -0.31043 -0.13458 -0.017262 0.035293 -0.2898 -0.51634 -0.0041866 -0.228 -0.10305 0.18633 0.46823 -0.13287 0.035974 0.62858 0.096804 0.14444 0.01741 0.0079076 0.019622 -0.044539 -0.054574 -0.17251 -0.11717 0.017462 0.43627 -0.20688 0.37145 0.10211 0.56577 -0.30387 0.31762 0.14342 -0.046391 0.49254 0.43069 -0.065739 0.35539 0.0082666 -0.10751 -0.26715 0.31387 -0.31616 0.035847 -0.1457 -0.14958 0.17174 0.1314 -0.32913 0.18625 0.21313 -0.56103 -0.084217 -0.15267 0.064609 -0.21795 -0.16458 0.20115 -0.060637 0.17083 0.35585 -0.092101 0.30118 0.52712 -0.29219 -0.051297 -0.57052 -0.29332 0.23371 -0.46755 -0.3103 -0.64465 -0.52835 -0.32544 0.87216 0.34559 -0.30082 -0.54654 0.39032 0.16429 0.043387 -0.43063 0.33062 0.28489 0.072694 -0.33473 -0.1282 -0.069509 0.45863 0.1118 -0.33957 0.23332 0.046643 0.1428 0.12949 0.15725 -0.23062 -0.018272 -0.60427 0.31164 -0.41172 -0.21778 0.23769 -0.13451 0.273 0.23504 0.088227 -0.13363 0.065129 -0.25612 -0.42908 0.038533 -0.36342 0.23665 0.19107 0.062206 0.079469 -0.10388 -0.24026 -0.062315 -0.073512 0.43674 -0.0027005 0.18324 0.37778 0.13493 -0.11207 -0.20771 -0.1082 -0.11454 -0.54651 0.31253 0.19574 0.0878 -0.071332 -0.30118 0.6038 0.19814 0.23983 0.1751 -0.06948 0.41814 -0.0061697 0.62232 0.23733 -0.3542 -0.22191 0.055228 0.14146 0.26924 0.51566 -0.093041 0.18841 -0.3667 -0.13093 0.31432 -0.54746 -0.11261 -0.11173 -0.48812 0.23051 0.52206 -0.14036 -0.084222 -0.23441 -0.23399 -0.29813 0.2479 0.0062924 -0.054433 0.20688 -0.30765 0.12762 -0.12218 -0.36684 0.51484 -0.20331 0.025835 0.048097 0.11127 0.20893 0.10773 -0.4604 -0.15334 0.31879 7.6723E-4 -0.39089 -0.047092 -0.41811 -0.074396 0.42144 -0.28378 0.098247 0.39449 0.29458 -0.051088 0.21663 -0.11095 -0.3137 -0.22192 0.17085 0.064613 0.29446 -0.22477 0.031607 -0.18678 0.10223 -0.32805 0.18493 0.27012 -0.01092 -0.16193 0.20842 -0.18953 0.21819 0.085182 -0.14199 -0.16442 0.15581 -0.034882 0.025665 -0.35317 0.26237 -0.1141 -0.12783 0.41485
asylum -0.30013 -0.067018 -0.42261 0.27521 0.26285 0.069986 0.26346 -0.34206 0.17605 0.47405 0.014498 0.18789 0.19765 -0.30139 -0.31986 0.13336 0.013235 -0.20077 0.029114 -0.009744 -0.089024 -0.18467 0.004521 0.049449 0.051451 -0.0072511 0.21263 0.059314 -0.32516 0.13505 -0.015203 -0.26554 0.16371 0.50233 0.33861 -0.1106 0.3643 0.014626 -0.21507 0.22136 -0.051695 0.40112 0.084177 0.12884 -0.035137 -0.39851 -0.013073 -0.21323 0.078352 0.21869 -0.17217 0.11424 0.090406 -0.18825 0.18457 -0.20446 -0.080056 -0.12442 0.051711 -0.096967 -0.7345 0.31362 -0.37832 0.22591 -0.12313 0.10119 0.035668 -0.6609 -0.40302 -0.12672 0.07007 0.28459 0.36979 0.085467 -0.23197 -0.34777 0.089259 -0.54438 -0.18043 0.01961 -0.15156 0.22519 0.18559 -0.20366 0.22545 0.16189 -0.055597 -0.21602 0.19216 -0.052378 0.020414 0.34485 0.15475 0.19122 0.11477 -0.5342 0.098352 -0.43844 0.19207 0.62254 -0.39805 -0.22777 -0.14486 0.31852 -0.064851 0.13588 -0.089244 -0.5071 0.40295 0.19969 -0.23742 0.0036488 0.029387 -0.11714 0.15283 0.30568 0.069106 -0.075329 0.52538 -0.21333 0.059608 0.18959 -0.36598 -0.14708 0.33594 -0.025142 -0.22313 -0.048086 -5.4449E-4 0.15482 0.18023 -0.19657 0.039752 -0.015987 0.30706 -0.061709 0.022371 0.15983 -0.30072 -0.15653 -0.54775 -0.15985 -0.029952 0.13967 -0.043182 -0.55336 -0.060277 0.092573 0.32863 0.12564 0.096138 -0.40294 0.0054501 -0.49901 -0.12022 -0.047164 0.26427 0.092562 -0.37946 0.18324 -0.43861 0.27862 0.40935 0.16783 -0.28981 0.024237 -0.054584 0.44039 -0.011514 0.0695 -0.42512 -0.10806 -0.18509 -0.16231 -0.13937 -0.31062 -0.029065 -0.039895 -0.27384 0.094977 0.27493 -0.23186 -0.054587 -0.27587 0.14297 -0.1236 -0.25763 0.16513 -0.29344 -0.018883 0.053363 -0.083257 -0.31719 -0.052935 -0.28452 -0.04909 -0.22865 0.003123 0.19289 0.21799 -0.12742 0.01533 0.15867 0.19829 -0.3482 0.072121 -0.16075 0.2366 0.53117 -0.21483 0.45617 0.47587 -9.0154E-5 0.3357 -0.059108 0.38791 -0.19245 0.32918 -0.24676 -0.0099367 0.06192 0.0051837 -5.7364E-4 0.011095 0.029166 -0.2145 -0.20286 0.17995 0.1105 -0.11483 -0.25123 0.12044 -0.56558 -0.094401 0.15881 0.46284 -0.13839 0.22748 0.3204 -0.0099743 0.097552 -0.34081 -0.34322 -0.30341 0.025916 -0.18903 0.064149 0.068868 -0.5799 0.097257 -0.22907 0.22146 0.035727 -0.14232 0.10948 0.43214 -0.17149 -0.11359 0.30847 0.48588 -0.54369 0.19655 -0.38342 0.47417 -0.12514 -0.12197 0.26543 0.15751 0.1805 -0.04007 0.028489 0.36994 -0.024813 -0.24734 -0.22465 -0.25917 0.1778 -0.5214 0.040666 -0.022968 0.090139 -0.1157 0.01417 -0.067043 0.12015 0.24907 0.21226 0.16315 0.1633 -0.06221 0.15697 -0.25438 0.094412 0.17411 0.338 -0.24825 0.31936 -0.61281 -0.23982 0.053959
manslaughter -0.061814 0.21263 -0.7652 -0.0065227 0.020716 -0.56605 0.24742 -0.37201 0.04903 0.26797 0.071801 0.22768 -0.14891 -0.50288 -0.32695 0.47447 0.070752 -0.12521 -0.10702 0.22657 -0.36307 0.33199 0.040531 -0.30984 0.16434 0.071069 -0.34923 0.20183 -0.078818 0.56191 -0.28527 0.017817 -0.32591 0.18357 0.031013 0.10945 -0.048153 0.11222 -0.1518 0.076094 -0.42357 0.050728 -0.56491 -0.02864 0.065818 -0.33053 -0.11536 0.12193 -0.43705 0.38416 0.27401 -0.35429 -0.13081 0.21093 0.22021 0.27714 -0.35292 -0.10726 -0.025192 -0.079069 -0.062659 0.23166 0.25603 -0.28999 -0.16448 -0.20231 -0.17798 0.19589 -0.073787 0.059508 -0.26798 0.60991 0.08584 -0.28435 -0.28004 -0.20779 -0.32811 -0.82995 -0.1912 -0.010002 -0.040973 -0.23462 -0.042399 -0.033814 -0.28939 0.049283 -0.062162 -0.42063 -0.15125 -0.21276 0.20495 -0.098825 0.051644 0.019319 0.28668 0.12818 -0.24416 -0.37375 -0.060759 0.39864 -0.16183 0.35482 -0.18821 -0.085769 0.060246 0.362 0.14681 -0.19785 0.41936 0.096674 -0.40784 0.32547 -0.22328 0.22715 -0.16283 0.45687 -0.62348 -0.076012 0.39215 0.029613 -0.29838 0.069499 -0.22936 0.16803 0.33018 -0.12388 -0.23137 0.23454 -0.30099 -0.062018 -0.15481 -0.25055 -0.6314 -0.1876 -0.079952 -0.31087 -0.52733 0.30181 -0.19565 -0.0084209 -0.23678 0.048033 -0.43673 0.11419 -0.19684 -0.29174 -0.0067104 0.2807 0.38472 0.32033 -0.20004 -0.25293 -0.23694 -0.11741 -0.36301 -0.13016 0.17476 -0.34675 -0.081333 0.18384 -0.047037 0.52916 0.2715 0.19893 -0.16474 -0.033178 0.058694 0.20943 0.32211 -0.46414 0.019648 0.11334 0.24101 0.085642 0.31806 0.010627 0.0026453 0.081606 -0.15177 0.25453 0.15288 -0.61045 -0.16144 0.089184 0.082706 0.44196 -0.33643 0.17532 -0.26792 0.28879 0.55734 -0.26531 -0.30728 -0.18912 -0.0040854 -0.0043678 0.17582 0.10429 0.06642 -0.088425 -0.017798 -0.31387 -0.42536 -0.22235 -0.048581 -0.29089 -0.4865 0.1132 -0.2626 -0.53315 0.33497 0.33833 0.074499 0.79363 -0.076282 -0.24961 -0.15636 0.31829 0.41741 -0.29602 -0.10207 -0.15314 0.03177 0.065701 -0.04149 0.63389 0.12656 0.01246 0.0065421 -0.42267 -0.32283 0.086461 0.35317 -0.34867 -0.47418 -0.34817 0.49924 0.20017 0.091539 -0.16851 0.61058 0.44609 0.16295 0.2093 0.0021862 -0.41409 -0.14056 0.26881 0.19467 0.39047 -0.51826 -0.21406 -0.47676 -0.21738 -0.13308 0.45897 0.067189 0.15789 0.2176 0.16792 -0.41294 -0.13033 -0.34298 0.42355 0.025751 -0.13747 -0.25164 0.45549 0.4453 -0.64362 0.63936 0.26918 -0.52872 -0.084516 0.24817 -0.22574 0.89217 -0.42575 0.078249 -0.63577 0.25631 -0.18921 0.35308 -0.089642 -0.15749 0.23158 0.022947 0.23481 0.24872 0.26204 0.056901 -0.03403 -0.33289 0.023097 -0.15505 -0.48226 0.1675 -0.51065 -0.072871 0.19057
music -0.23265 0.020471 0.29754 -0.2294 -0.20382 -0.056681 0.33399 -0.4666 -0.19729 0.51767 0.10905 -0.33692 0.4386 -0.12965 0.09233 -0.2097 -0.08342 0.36972 0.49814 -0.34029 -0.37217 0.14411 -0.21319 0.17946 -0.083382 -0.2951 -0.14014 -0.033933 0.064108 -0.027791 -0.2258 -0.047959 -0.12397 -0.015502 0.19961 0.19452 0.072545 -0.11256 -0.10428 -0.047804 0.22894 0.19212 0.070255 0.087512 0.24328 -0.10486 -0.17633 0.014686 -0.23879 0.037059 -0.06196 0.3699 0.01927 0.091852 0.13081 -0.15858 0.068609 -0.091458 0.25729 -0.056332 0.10834 0.38266 0.13965 0.16877 -0.048621 0.033247 0.15875 -0.21929 -0.19267 0.17915 0.10825 -0.13925 0.10415 -0.017569 -0.30061 0.31168 0.0088627 0.24697 -0.040684 0.014018 -0.10793 -0.073244 -0.039916 -0.38089 0.12108 0.099627 -0.22285 0.060002 -0.096764 -0.13415 -0.21582 -0.15514 -0.0078601 0.079551 -0.031521 0.36298 -0.24881 -0.10515 0.25655 0.20371 -0.33447 0.093563 0.14068 -0.1664 -0.15516 -0.19219 0.32458 0.031543 0.23942 0.052085 0.071878 0.43074 -0.1209 0.15683 0.23459 0.18576 0.066882 0.33408 0.04353 -0.2233 0.20688 0.13673 -0.028352 0.088769 -0.03082 0.0048168 -0.036782 -0.19164 -0.15817 0.32587 -0.048429 0.60562 0.040769 0.13683 0.027788 0.097625 0.090752 -0.12157 -0.021576 0.10276 -0.23554 -0.24985 0.11382 -0.080568 -0.095499 -0.060939 0.17284 0.021328 0.25202 0.3224 -0.21665 -0.084413 -0.067854 -0.062863 0.072715 0.1257 0.045872 0.030233 0.15983 -0.057016 -0.0093081 -0.19145 0.24841 0.081478 -0.040873 0.29609 0.25216 -0.10515 0.23428 -0.22282 -0.2607 0.36166 0.088688 0.3138 -0.055778 0.25622 0.022224 -0.03437 0.29104 0.05034 0.057833 -0.084191 0.027519 -0.29737 -0.19341 0.53596 0.17201 -0.16523 0.20696 -0.2327 -0.19759 0.060705 0.12482 -0.2951 0.019383 -0.23287 0.28409 0.1267 -0.21474 0.0018928 0.16417 0.1487 0.34215 0.29676 0.052416 -0.040892 -0.31917 0.1642 -0.020147 -0.35611 -0.073442 -0.012501 0.66418 0.1715 0.072484 0.0202 0.23828 0.65358 0.071755 -0.38661 -0.10227 0.14577 0.034164 -0.0040164 -0.0017929 0.30596 0.1172 -0.5266 -0.13113 -0.08199 -0.046041 -0.068451 0.22447 -0.15629 0.087408 0.020573 0.01274 0.084508 -0.012745 0.11855 -0.26157 0.029438 0.42782 0.14839 0.17529 -0.015842 0.049634 0.1733 -0.21368 -0.24009 0.023866 -0.24333 0.1359 0.028444 -0.31136 0.040864 -0.33914 0.0052439 -0.1031 -0.1527 0.18698 -0.065605 -0.30697 -0.085946 0.087979 0.080058 -0.0096177 0.057185 -0.090382 -0.13845 0.049147 0.041447 0.054443 -0.078431 -0.030621 -0.2065 0.20919 -0.015462 0.095281 0.0013949 0.087623 -0.16512 -0.031992 0.028633 -0.048501 -0.12492 0.16609 0.029985 -0.11192 0.1248 0.24668 -0.39829 -0.008045 -0.17783 -0.1434 -0.48216 0.059298 -0.19281 -0.38434 0.14949
record -0.38031 -0.063529 -0.093074 0.12366 -0.088639 -0.20176 0.043923 -0.073627 -0.38343 0.45009 -0.10296 -0.82149 -0.12113 0.11385 0.25768 0.14055 0.065245 -0.14486 0.21537 -0.020553 0.012642 -0.088024 -0.01498 0.24638 -0.044046 -0.12215 0.021671 -0.12486 -0.11645 0.11174 0.18367 0.23198 -0.16822 0.091624 -0.29011 0.0531 -0.17317 -0.16351 0.013702 -0.22543 -0.14612 0.14714 -0.13494 0.023698 0.263 0.11801 -0.06711 -0.045221 -0.1675 0.02925 -0.0010463 0.49865 -0.041119 0.21757 0.20901 -0.18693 -0.11653 -0.11933 0.37358 -0.029862 -0.077301 0.31101 0.088182 0.25586 0.084883 -0.38657 -0.22254 -0.2378 -0.32721 -0.028461 -0.14716 0.2129 0.099609 -0.19761 0.0073138 -9.8316E-4 0.41644 0.033276 -0.030903 0.16854 -0.15248 0.36401 -0.1082 0.060434 0.055551 -0.091235 0.059888 0.12695 0.05551 -0.054713 -0.15979 0.0070565 0.0066022 -0.26515 0.15679 0.20073 0.11781 0.0097713 -0.13347 0.16988 0.16647 0.13513 0.13014 -0.35356 0.3067 -0.022657 -0.093275 0.2564 -0.095997 0.28304 0.22556 -0.10001 -0.0093814 0.1517 -0.081602 -0.067258 0.016085 0.26133 -0.43188 -0.056427 0.18689 0.19711 -0.33807 0.1063 -0.041934 0.06753 0.0060444 0.32624 -0.038314 -0.069406 -0.2169 0.11392 0.063992 0.10128 -0.11364 0.14837 -0.24211 -0.19493 -0.12871 -0.12467 -0.15921 0.11626 0.37016 -0.12119 0.19985 0.15597 -0.19959 -0.16389 0.31889 0.12161 0.22416 0.022538 0.24743 -0.17425 0.040513 0.078905 0.07053 0.045106 0.11388 0.22713 -0.27967 -0.14194 0.20255 -0.1768 0.28653 -0.047395 0.28678 -0.12495 0.19636 -0.027008 -0.14124 0.10289 0.20472 -0.27476 -0.039863 -0.090133 0.12329 -0.23781 0.31006 -0.17736 0.062288 -0.040628 -0.15782 -0.5925 -5.736E-4 0.026659 0.042332 -0.049557 -0.18879 -0.080684 -0.0031998 -0.054834 0.0096268 -0.10238 -0.38396 -0.095705 0.38301 0.075143 -0.065171 -0.28483 0.15581 0.14675 0.52697 0.044754 0.35591 -0.17698 0.33674 0.28202 -0.14341 -0.13873 0.28643 -0.04534 0.28231 -0.15712 0.017314 0.047335 -0.12234 0.59108 0.034233 -0.40697 0.19254 0.041737 -0.095152 0.28687 -0.21676 0.032066 0.19619 -0.24311 -0.19949 0.084372 -0.2381 0.0038695 0.11147 0.056939 0.0073164 0.12193 0.0095019 -0.032088 -0.15088 0.20804 -0.021285 0.11626 0.14095 0.2184 0.18182 -0.024204 -0.040393 0.025024 0.020443 0.36146 -0.22702 0.3018 -0.30179 0.16223 0.016911 -0.1825 -0.072242 0.049564 0.26908 0.054261 -0.12084 0.075718 0.029646 0.015071 0.35107 0.27878 -0.29036 -0.27606 -0.012776 -0.47905 0.21684 0.13297 -0.15137 -0.75406 -0.054485 0.16764 0.11096 0.05949 0.042245 0.033848 0.025066 0.3876 0.012511 -0.11421 0.097041 0.18251 -0.0054314 0.295 -0.061997 0.02341 0.2074 -0.12538 0.040367 0.19591 -0.055802 -0.39314 -0.15551 -0.16515 -0.41527 0.11468
energy -0.10363 -0.22018 -0.013526 0.087467 0.25926 -0.65592 -0.014711 -0.56958 -0.37867 0.20127 -0.27338 0.13629 -0.52861 -0.097746 -0.10834 -0.010792 -0.11551 -0.14143 -0.056976 -0.12429 0.0035619 0.4872 -0.087261 0.30301 -0.21957 -0.65979 0.15682 -0.25909 -0.083457 -0.050772 -0.20662 -0.0030588 0.14247 0.6506 0.098574 -0.11496 0.22832 -0.11993 0.11621 0.28005 -0.1798 0.14125 -0.066108 -0.085301 -0.45096 0.059196 -0.076036 -0.11275 -0.17031 -0.067298 0.16802 0.59987 -0.10845 -4.6877E-4 -0.22736 -0.029652 -0.69639 -0.16864 0.15788 0.20101 0.036499 0.52906 -0.18744 0.52195 0.028046 -0.26143 -0.2142 -0.16295 0.44114 -0.0038339 -0.023425 0.26634 0.083504 -0.18342 0.32074 -0.032223 0.10661 -0.17977 0.043724 -0.29278 0.023363 0.045783 0.17035 0.22934 -0.14254 0.015015 -0.51145 -0.082861 -0.23597 -0.035953 0.11623 0.038807 0.33986 -0.19952 0.14155 0.24042 0.08437 -0.029319 0.50227 0.18068 0.0081332 -0.35956 0.045329 -0.059232 -0.10714 0.0043703 0.091719 0.11147 0.33673 0.11194 -0.14 0.18403 -0.39409 -0.20947 0.03108 0.072836 0.21199 -0.034497 -0.30116 -0.18354 0.018215 0.10832 -0.011445 -0.34208 0.24506 0.19517 -0.086873 0.1195 -0.26082 0.34947 -0.051442 0.11627 0.15643 0.098582 -0.21118 -0.20554 -0.23359 -0.19968 -0.51636 0.38215 -0.12957 -0.032475 0.15093 -0.48083 -0.056578 0.032653 0.050609 -0.030783 0.17711 0.39237 -0.26978 -0.29051 -0.016845 -0.3284 0.16911 -0.16311 -0.051737 0.24337 -0.039338 -0.022122 -0.45736 0.5305 -0.19402 0.066243 -0.25492 0.032852 -0.11723 0.065742 -0.1327 0.12447 -0.14387 -0.12911 0.046426 -0.22475 0.016318 0.12701 0.0048421 -0.13907 0.30811 0.13728 -0.18066 -0.12806 0.30812 -0.045733 -0.28539 -0.30172 -0.093849 -0.15332 0.35994 -0.09573 0.34659 0.22866 -0.14227 -0.13359 -0.037665 -0.47447 0.232 -0.014903 -0.039884 0.029094 0.17672 0.085111 -0.16078 -0.09428 0.0029683 -0.043493 0.040364 0.033262 0.1528 -0.23059 -0.036692 0.036382 0.40792 0.096241 -0.083624 0.37103 0.1018 -0.1809 0.5026 -0.24065 -0.21125 -0.44222 -0.074538 0.25467 0.0030389 0.0046428 0.16932 -0.18715 -0.1118 0.33311 0.0081126 0.17349 0.18062 0.010656 0.12055 0.10927 0.12646 -0.055438 0.40595 0.32977 0.22825 -0.099486 0.21154 0.34832 0.33196 -0.1311 -0.32521 -0.14903 0.42542 -0.079276 -0.63142 -0.11826 -0.25921 -0.13414 -0.37344 -0.75311 -0.59966 0.047687 0.33917 0.20595 -0.091775 -0.137 -0.11487 0.26842 0.2405 6.2941E-4 0.0044938 -0.059934 -0.02804 -0.090734 -0.17914 0.20964 -0.1504 0.2788 0.18091 -0.28945 0.14423 -0.16278 -0.14953 -0.04423 -0.039996 -0.019621 -0.46923 -0.10034 -0.21206 -0.22093 0.19457 0.089102 -0.09506 0.4668 -0.19952 -0.39557 -0.23208 -0.16786 0.14302 -0.057156 0.1566 0.16161 0.051653 0.035164
announcement -0.01664 -0.39101 -0.056582 -0.06726 -0.05467 -0.30481 -0.0058117 -0.093789 -0.17437 0.47804 0.014066 -0.11501 -0.072012 0.13103 0.11738 -0.065089 -0.043176 -0.023161 0.26236 -0.083314 0.0049916 0.1579 0.21774 0.15947 0.15801 -0.0098748 0.051666 0.081614 -0.48613 0.14574 -0.31673 -1.2517E-5 -0.012004 -0.17664 0.16347 -0.23984 -0.067316 -0.15004 -0.10163 -0.067966 -0.013087 0.040039 0.13317 -0.28934 -0.061439 -0.15146 -0.20833 0.15175 0.018867 0.12275 -0.099328 0.12647 0.2811 -0.059965 -0.039218 0.12816 -0.048083 -0.23918 -0.034703 -0.22808 -0.14301 0.16368 -0.039199 0.017601 -0.011549 -0.11108 -0.077909 0.059388 0.090318 0.025137 0.3577 -0.057943 -0.26513 0.26012 0.26242 -0.071958 -0.11721 0.033888 -0.14061 -0.012526 -0.22525 -0.29864 0.24167 0.24617 -0.12282 0.20633 -0.27361 -0.13242 -0.016889 0.092877 -0.45411 0.065496 0.15996 9.811E-4 0.17239 0.017637 0.11359 -0.15635 -0.008898 -0.090451 -0.38138 0.25346 -0.028129 -0.22402 0.095605 -0.39636 0.33525 0.094499 0.021888 0.13865 -0.56648 -0.024079 -0.1182 0.23215 0.080757 -0.027337 -0.0092987 0.062873 0.068707 -0.14616 0.11268 -0.026537 -0.075185 -0.073174 -0.187 -0.014127 -0.11764 -0.090346 -0.021504 0.063502 0.20742 0.14987 -0.24449 0.14876 0.29213 0.3046 -0.070875 -0.1238 0.012729 -0.065072 -0.14944 -0.26996 0.15098 -0.040384 0.07247 -0.030327 0.0084931 -0.20524 0.052206 0.071065 -0.052036 -0.19453 0.1144 -0.18991 -0.33811 -0.18125 -0.17893 0.046155 -0.029129 -0.17328 -0.20272 -0.23816 -0.068322 -0.11384 -0.10688 -0.048835 0.17299 -0.0095192 0.25595 -0.11933 0.39915 0.014172 -0.085227 0.12049 0.015406 0.10215 -0.17702 0.017584 0.25668 0.024379 -0.054492 -0.26525 0.15718 -0.4155 0.066007 0.091509 0.1575 0.16283 0.1369 0.018209 0.24652 0.21896 0.22208 -0.004927 0.015102 0.11473 0.39644 -0.2338 -0.071546 -0.15486 0.43316 0.2781 0.29231 0.18994 -0.071077 -0.1826 -0.11894 0.41779 -0.01029 -0.31131 -0.19192 0.18013 0.17722 -0.12938 0.2149 0.1456 0.091425 0.19303 0.36532 0.0053184 -0.41897 -0.23039 0.084724 0.15955 -0.046524 -0.29126 0.12746 -0.024267 -0.03807 -0.47861 0.17352 -0.13898 0.088659 -0.1427 0.19411 0.13766 -0.12155 -0.14238 0.18978 0.097476 0.13372 0.085909 0.10882 0.16351 -0.30421 -0.2521 -0.18588 -0.001602 0.13504 0.01822 -0.056419 -0.15406 -0.017108 0.078731 -0.20351 0.092701 0.33871 0.11525 0.020094 0.29387 -0.13949 -0.10279 0.026131 0.26927 -0.21846 0.12189 0.087681 0.34273 0.1541 -0.32601 0.55458 0.080286 0.11694 -0.39256 0.188 -0.062398 0.046968 0.041752 0.050314 -0.24261 -0.0055782 0.16228 0.12504 -0.24287 -0.011962 0.2209 -0.17841 0.061961 -0.17077 0.005601 0.16599 0.055631 0.27205 0.056447 0.24579 0.2403 -0.19559 -0.012684 0.21679 -0.20677
mile -0.35794 0.10002 -0.42178 -0.13916 -0.14709 -0.25974 0.14207 -0.060387 0.10416 -0.47438 -0.17388 -0.20862 -0.4478 0.19902 0.23053 -0.0027699 0.035462 -0.1674 -0.095427 0.080734 0.29268 -0.37369 0.21072 -0.28598 0.071945 -0.11816 0.42675 -0.35649 -0.17044 -0.019905 -0.30826 0.075729 0.033845 0.61 0.41464 0.071686 -0.26239 0.27868 0.1498 0.44923 0.1483 -0.12271 -0.11193 -0.5319 0.16557 -0.30977 -0.2545 -0.35243 -0.035188 0.25095 -0.0067166 0.32873 0.38437 -0.11588 0.039147 -0.24475 -0.48593 0.020588 0.77678 0.16296 0.53573 0.12267 0.16463 0.36977 0.047647 0.064292 -0.42079 -0.096595 -0.76504 0.56843 -0.0077699 0.22326 0.059317 -0.16283 0.057723 -0.26813 0.37487 0.40103 -0.042166 -0.033227 0.10422 -0.20825 0.31153 0.016206 -0.25037 -0.051458 0.32386 0.3534 -0.30361 0.34151 -0.31674 -0.12255 -0.02169 -0.24907 -0.09698 -0.09385 -0.3516 -0.29112 0.031538 0.32521 -0.30481 -0.15558 -0.11502 -0.25922 -0.4206 -0.12833 -0.30613 0.021238 0.04266 0.32044 0.45678 0.067311 -0.2049 -0.15886 -0.19474 -0.21242 -0.43838 -0.14833 -0.51876 0.2714 -0.12954 0.032415 -0.021659 0.011811 0.11497 -0.54069 0.15306 -0.18558 -0.20833 0.26874 0.079412 -0.050049 0.25274 0.16332 0.11714 -0.080659 0.02463 -0.65329 0.1714 0.29349 -0.11532 0.1938 0.17028 -0.33392 0.14293 0.0063842 0.22873 0.42185 0.33823 0.82374 0.059995 0.0016315 0.32108 -0.061685 0.0024714 0.095939 -0.55151 0.54628 0.45792 0.34562 0.095478 -0.51437 -0.089062 -0.27069 0.070967 -0.045042 0.33862 0.18181 0.47659 0.26071 0.049031 0.083993 0.20092 -0.02823 0.1179 -0.46261 -0.10506 -0.0064789 -0.25422 -0.17552 -0.55955 -0.78061 -0.11066 -0.042653 -0.42555 0.25792 -0.34097 -0.1767 -0.16549 0.31958 0.061236 -0.082417 0.1321 0.079521 0.20818 -0.43044 -0.08456 0.0015754 0.028751 0.17318 -0.19405 0.38682 0.33944 -0.2205 0.23268 0.33948 -0.10443 -0.17396 -0.24844 -0.13666 0.65227 0.20751 -0.28669 0.33791 0.4145 0.64131 -0.2202 -0.089286 0.33126 -0.52932 -0.17435 -0.19942 0.038713 -0.022649 -0.061111 -0.13171 0.21223 -0.29978 -0.21156 -0.43284 -0.30854 -0.42922 -0.22443 -0.12285 -0.38489 0.31873 -0.045116 0.031807 0.088761 -0.1718 0.31566 0.19208 0.20083 -0.099409 0.0087719 0.16348 -0.14741 0.19594 0.019792 0.2017 -0.49033 -0.4239 -0.13437 0.34837 0.19891 0.17028 -0.38398 -0.4778 -0.12144 0.13831 -0.44383 0.19073 -0.11917 -0.023055 0.065391 -0.54998 -0.58031 -0.53921 -0.33126 -0.23616 -0.30036 -0.15555 0.15835 -0.83582 0.0039032 0.50876 0.3818 -0.69197 0.13456 0.2488 0.41212 0.23185 0.27439 -0.39222 -0.14556 0.42155 0.22459 0.19145 -0.080909 -0.16856 0.34834 -0.28375 0.31452 -0.13633 0.53336 -0.15583 -0.33989 -0.049577 0.11276 -0.4261
airport -0.57773 -0.27844 -0.48965 0.24765 0.48307 -0.65896 0.25931 -0.38029 -0.52593 0.47548 0.19442 -0.30171 0.15036 0.0731 0.35097 0.52597 -0.010339 -0.024219 0.15432 0.44518 0.066 -0.36844 -0.092476 0.19189 0.049425 0.12336 0.33797 0.38677 -0.1093 0.67908 -0.44264 -0.28308 0.23485 0.2216 0.048724 -0.069698 -0.33295 0.30274 -0.16889 0.009021 -0.298 0.32604 -0.2582 -0.32747 0.11075 -0.017063 -0.020545 0.036383 -0.091181 0.27875 -0.2757 0.091404 -0.15706 -0.14741 0.49443 0.034769 -0.29306 0.21446 -0.16748 0.067932 0.15611 0.27263 0.45579 0.29995 -0.41703 -0.25913 -0.057092 -0.41096 -0.3685 0.12955 -0.31903 0.44665 -0.22416 0.2898 0.54594 -0.16279 0.048484 0.13815 0.083494 -0.37728 0.065328 -0.39708 0.31755 0.18265 0.23385 0.22331 -0.15748 0.11812 0.09265 -0.27806 -0.13941 0.13351 0.26054 -0.34287 -0.075446 -0.29096 0.27893 -0.15238 -0.10318 0.55043 -0.49863 -0.11392 -0.23372 -0.17522 -0.52045 -0.12729 -0.45481 -0.21903 -0.26737 -0.051811 -0.48033 0.09517 -0.23549 0.33213 -0.23561 0.084531 -0.27024 -0.61832 0.24981 -0.16482 -0.033573 -0.024022 -0.018803 0.1671 0.24823 -0.0057542 0.052066 -0.2464 0.097024 -0.10633 -0.058897 -0.49776 0.19424 0.079211 -0.35846 0.19885 0.28147 -0.11952 -0.28557 -0.078335 -0.5885 -0.068847 0.21709 0.035693 -0.24302 0.0010186 0.26382 0.16505 0.060755 0.084372 -0.0053116 -0.012675 -0.16302 -0.28046 -0.11798 -0.34372 -0.26274 0.26555 0.21548 0.051501 -0.10882 -0.36517 0.11772 0.048255 -0.34317 -0.089093 -0.25202 -0.045965 0.058606 0.2718 -0.011283 -0.064195 0.10845 0.19131 0.14742 -0.13185 0.2688 -0.011711 0.18297 0.064592 0.014104 0.58695 -0.18532 -0.22051 -0.28074 0.36784 -0.39505 0.047656 -0.19426 -0.020159 0.2914 0.033726 -0.20012 0.053 0.37553 -0.18671 0.056184 0.17556 0.27186 -0.095807 -0.3413 0.5669 -0.24298 0.1165 -0.67373 -0.17899 -0.37662 0.38538 0.098099 -0.030875 0.14163 0.029717 0.43969 0.15619 0.30521 -0.025868 -0.027189 -0.15609 -0.10064 0.24896 0.37215 -0.18188 -0.25842 -0.052069 -0.38742 -0.23379 -0.20803 -0.38857 -0.12145 -0.15574 -0.4388 -0.14962 -0.29711 0.18933 -0.18768 0.18709 -0.14019 -0.0067963 0.13416 -0.0023339 -0.10615 -0.18849 0.18326 0.11535 0.19085 0.13502 0.25912 0.0064502 -0.39702 -0.19648 -0.3268 -0.19723 -0.17389 0.088345 -0.0055164 -0.20028 -0.10393 0.17695 -0.27836 -0.064068 -0.36366 0.10676 -0.23025 0.24947 0.19195 -0.0054272 0.25318 -0.22447 -0.40569 -0.0013767 0.7649 -0.21668 0.35057 -0.30518 -0.038284 0.40115 0.31187 -0.52366 -0.11041 0.14429 0.15051 0.066044 0.13083 0.10919 -0.14971 0.025797 0.30446 0.12999 -0.003135 0.58751 0.047033 -0.11612 -0.16294 0.00145 0.1093 -0.51261 -0.39501 -0.1077 0.1111 0.15925
population -0.40974 -0.1357 -0.0070135 0.41812 -0.18647 -0.024835 0.0744 -0.031635 -0.040164 -0.09369 0.26305 -0.07172 -0.24558 0.092406 -0.25543 -0.078377 0.49547 -0.29584 0.03597 -0.015567 0.19554 0.010034 0.40921 0.16715 1.0685 -0.19091 0.44415 -0.37032 -0.21403 -0.15213 -0.42706 -0.0025287 -0.19889 0.56487 0.024364 -0.37713 -0.13221 -0.06805 -0.25071 0.3503 -0.39753 0.40698 -0.24796 0.061188 0.27926 -0.30843 0.14139 0.48394 0.0034973 0.43164 -0.15952 0.6336 0.2152 0.1758 -0.15697 -0.064845 -0.37552 -0.44376 0.46786 -0.25313 -0.014148 0.12734 0.43989 -0.079539 -0.11521 -0.51203 -0.45983 -0.24238 -0.24724 0.44921 0.14662 -0.0010107 0.54443 0.2156 -0.059386 -0.080843 -0.13285 -0.15942 0.15776 -0.09871 -0.0040341 0.14942 0.46315 -0.154 0.032688 -0.14127 -0.29949 -0.40357 0.12001 0.11611 -0.30708 0.24154 0.30071 -0.22659 -0.28242 -0.18495 0.33838 -0.29665 -0.22611 0.82148 0.047936 0.048909 -0.57427 -0.44805 -0.099105 -0.16164 0.2017 -0.11378 -0.53493 -0.36088 0.17123 0.38904 0.094149 -0.61671 -0.0021859 0.34697 -0.12788 -0.46288 -0.30346 -0.2833 -0.080735 0.68546 -0.11424 -0.23581 -0.085419 -0.20754 0.049468 -0.025429 -0.39034 0.029294 -0.080645 -0.27431 -0.1963 0.12634 0.56195 0.06361 -0.24684 0.091781 0.41797 -0.19222 -0.18948 0.21734 -0.099857 -0.34584 -0.32806 -0.10127 0.12575 -0.015528 0.20231 0.67925 -0.02497 0.085354 0.054747 -0.30802 0.10017 -0.21748 0.0583 0.21236 -0.045352 -0.16093 0.095724 -0.073437 -0.048236 0.14893 -0.17044 -0.11374 0.40491 0.062389 -0.16271 -0.044029 -0.052059 0.2882 -0.58884 -0.21704 -0.23172 -0.21706 0.13335 -0.018736 -0.053073 0.063629 -0.12125 -0.031179 0.48009 0.26189 0.090413 -0.071818 -0.3992 -0.30014 -0.020011 -0.054298 0.41618 -0.063663 0.14488 -0.40306 0.1061 -0.38683 -0.091309 0.42475 -0.14442 -0.20577 0.075081 0.060929 0.16938 0.63815 0.15609 0.10507 0.11122 -0.1998 0.40693 -0.6119 -0.05884 0.25804 0.063407 0.57154 0.35641 0.067244 0.12843 0.078162 0.48758 -0.10992 0.372 0.041409 0.14388 -0.11357 -0.19954 0.25849 -0.063772 -0.045767 -0.25407 0.20064 0.035766 0.043761 -0.12384 -0.11776 -0.013238 0.31401 0.30872 0.52784 -0.21084 0.20072 0.31893 0.11314 -0.19556 -0.092192 0.28203 0.18346 -0.18661 -0.35184 -0.13154 0.26132 -0.21739 -0.50162 -0.30096 0.49558 0.37077 0.21261 -0.19291 -0.17874 0.18273 0.22926 -0.39246 0.27161 0.18792 0.36939 -0.11226 -0.32953 -0.3104 0.037294 -0.28444 -0.12296 -0.3386 0.15907 0.27352 -0.27426 0.10186 0.16088 0.19771 -0.18802 -0.11668 -0.09614 0.033819 -0.5311 0.22189 -0.18108 -0.083471 0.059657 0.4719 -0.29641 -0.038096 -0.044102 0.37399 -0.24889 -0.082507 0.29761 -0.12053 -0.040118 0.2701 -0.24727 0.020719 -0.11366
planning 0.013603 -0.53167 0.099873 0.20766 -0.12719 -0.13069 0.19259 -0.24204 -0.29066 0.36319 0.19923 -0.38858 -0.0017773 0.28089 0.074345 0.050961 0.070821 -0.21202 -0.12309 0.18287 -0.29635 0.28839 0.090946 -0.11058 0.012618 0.090684 -0.058419 0.069179 -0.48288 0.12185 -0.082741 -0.32951 -0.03809 -0.12857 0.088492 -0.19907 0.034706 0.11336 0.035186 0.2758 0.20784 0.20461 0.29351 -0.087019 0.097817 -0.39653 -0.37047 0.18482 -0.0085113 0.036186 -0.19354 0.43639 0.14621 0.03951 -0.11294 0.036845 -0.019171 -0.10277 0.11198 0.1377 -0.12918 -0.038324 -0.0013606 -0.10523 -0.1975 0.080861 0.19167 -0.13681 -0.094607 -0.0065159 -0.10849 0.01317 -0.26164 0.52481 0.2994 -0.058142 -0.039499 -0.16582 0.087367 -0.13688 -0.023923 -0.191 -0.0093812 0.024237 0.28776 0.1316 -0.23444 -0.13393 0.10403 0.32458 -0.44998 -0.21907 0.12696 -0.020753 0.33621 -0.32208 -0.30167 0.11414 -0.058187 0.14728 -0.27655 -0.10978 -0.037246 -0.059819 -0.30575 -0.070068 -0.0026109 -0.23309 0.24334 -0.032359 -0.41542 -0.056955 -0.3345 -0.24194 -0.072386 0.10766 0.023304 0.090426 -0.038972 -0.14999 0.050692 0.10335 0.012621 -0.16321 0.40054 -0.038719 -0.098266 0.063194 -0.31222 0.099846 -0.26976 0.0028053 0.2565 0.14136 0.055879 -0.055561 -0.1779 -0.010625 -0.10326 -0.057106 -0.38961 -0.22452 -0.027603 -0.099681 -0.1129 0.13612 -0.050131 0.021285 0.23283 0.059991 -0.29306 -0.27693 -0.03977 -0.051542 -0.037648 0.046936 -0.13296 0.0053874 0.14641 0.12603 -0.14713 -0.034992 0.22743 0.16756 -0.012066 0.34402 -0.17651 0.50496 0.058935 -0.026647 -0.19974 -0.22676 -0.18969 -0.0042668 -0.25201 -0.077874 0.17015 -0.048703 -0.02187 -0.091967 0.19036 -0.020147 -0.0028165 -0.13157 -0.092764 0.10961 0.026379 0.30716 -0.051514 0.093362 0.38775 -0.21227 -0.097448 0.09797 0.098195 -0.042653 0.046868 0.050445 0.026152 -0.23086 0.1921 0.072207 -0.078855 -0.21237 -0.27778 -0.10823 -0.22057 0.23118 0.31675 -0.21909 -0.10924 -0.046065 0.08752 0.15971 -0.022144 0.16153 0.077522 -0.33034 0.36954 -0.28668 0.057275 -0.051617 -0.28896 0.051576 0.0049044 -0.24234 0.089607 -0.026139 -0.070374 -0.12985 -0.074636 0.042332 0.31985 -0.32374 -0.14228 0.1582 0.11684 -0.16776 -0.080258 -0.067662 0.05306 0.013195 -0.28599 -0.19134 0.11246 -0.2902 -0.019096 -0.078596 0.28389 0.12084 0.058382 -0.29417 -0.39598 -0.16419 -0.15305 0.11593 -0.029527 0.062262 0.026232 -0.18186 -0.12839 -0.31721 -0.028275 0.12716 0.037499 -0.15567 0.053275 -0.17355 -0.16856 -0.046267 0.11595 -0.038968 -0.14896 0.17037 0.089277 0.030004 0.25478 0.18653 -0.087041 -0.10314 -0.21669 -0.27169 0.036172 0.049229 -0.24969 0.29415 0.22922 0.13818 -0.10257 0.44284 -0.018033 -0.18882 0.19621 0.13638 0.30756 -0.23999 -0.0089902 -0.29229 0.19685 -0.056765
canyon -0.72953 0.048537 -0.27095 0.40289 -0.11734 -0.044916 -0.034002 -0.011603 -0.1466 -0.31843 0.10307 0.087804 -0.37766 -0.044704 0.2312 -0.075173 0.0766 0.16469 -0.18014 0.31093 -0.034444 0.39444 -0.0018248 -0.22762 -0.11049 0.0053168 -0.10671 -0.12532 0.14198 -0.12186 -0.066428 0.19894 -0.21467 0.37435 0.24704 -0.2 -0.17594 0.11267 -0.024461 0.060129 -0.17279 0.24414 -0.20828 -0.32028 0.12674 -0.19869 -0.093688 -0.12066 -0.011427 0.19722 -0.090489 0.65095 -0.3452 0.17372 0.071002 0.23731 -0.018693 0.28428 0.099234 -0.044741 0.19955 0.67946 -0.038651 0.50973 0.11415 -0.15151 -0.048805 -0.20615 -0.17599 0.24044 0.15695 -0.059378 -0.069798 -0.12143 -0.078574 0.026075 0.065817 0.31503 0.18789 0.14823 0.23931 -0.43561 -0.27959 -0.0064071 -0.19295 0.048055 -1.3852E-4 0.19506 0.55292 -0.26139 -0.71123 0.020284 0.11647 -0.32541 -0.074055 0.28584 -0.028732 -0.37624 0.25921 -0.33885 -0.1118 0.24098 -0.39564 0.063171 -0.17277 -0.022856 0.18375 -0.013724 0.21317 -0.21626 -0.2007 0.22411 -0.104 -0.067757 0.1123 -0.23058 -0.11375 -0.24752 -0.52846 0.28711 0.1002 -0.062789 0.17473 -0.012626 0.01851 0.35147 -0.16126 -0.12078 0.059662 0.045636 -0.059536 -0.32995 -0.14339 0.18531 -0.23612 0.0263 0.20368 0.0036348 0.37665 -0.06047 0.009381 -0.11229 0.1929 -0.17623 -0.30881 -0.05934 0.70334 0.54022 -0.0088738 0.39227 -0.05145 -0.50181 0.14473 0.39939 0.17305 0.25481 0.21168 0.50098 0.55582 -0.023596 -0.088661 -0.019122 0.1115 0.026372 -0.29174 0.24646 0.18833 0.33952 0.19837 -0.12305 0.013088 -0.2678 -0.19912 -0.23538 -0.1476 -0.17615 -0.01655 -0.31752 -0.17315 -0.21497 0.036879 -0.53397 0.099659 0.091795 -0.62948 0.2981 -0.063038 -0.15129 -0.21994 -0.20763 0.046583 -0.16486 0.023853 -0.023779 0.1117 -0.36369 -0.25647 0.27182 0.176 0.023992 0.5485 0.73034 0.16892 -0.0086971 -0.18249 0.067297 -0.59075 -0.40375 0.14379 -0.15477 -0.10805 0.14263 -0.24293 0.18405 0.28581 0.078972 0.11559 0.0589 0.094386 -0.38227 0.12444 -0.03854 0.1836 -0.37322 -0.5115 -0.01295 -0.44352 0.57729 0.040046 0.16302 -0.043559 0.21604 -0.040036 0.021477 0.077782 0.091852 -0.20853 0.026367 0.1069 0.22574 -0.36643 0.15598 0.23707 0.49531 -0.19325 0.07974 0.054883 0.077168 -0.21713 -0.16952 -0.36643 -0.20986 -0.19031 0.11608 -0.087492 0.090563 -0.092652 -0.22581 0.26171 0.16209 -0.15977 0.24536 -0.11559 0.089658 0.087139 0.088335 -0.40521 -0.23992 0.014888 0.040888 0.40908 0.06992 -0.40367 -0.70208 0.083696 -0.067423 0.42133 -0.19692 -0.12592 -0.2871 0.21207 0.4923 0.34886 -0.21487 -0.26715 0.073802 0.33654 -0.10736 -0.11426 -0.064621 0.23172 -0.31774 0.10913 0.45252 0.031503 0.34224 -0.02841 0.1179 -0.050207 -0.40192
delay -0.27407 0.023552 0.087361 -0.035264 0.30165 -0.34011 0.14403 -0.42438 -0.38787 0.75154 0.21261 -0.017081 -0.29076 0.38966 -0.041102 -0.16277 0.11979 -0.30778 0.20661 -0.15141 0.10067 -0.048547 -0.050744 -0.25743 -0.060898 -0.014662 -0.16049 -0.032164 -0.19683 -0.052879 -0.56011 -0.18251 -0.12498 0.42336 -0.012056 -0.073391 -0.30973 -0.18853 -0.17813 -0.062174 -0.18232 0.12641 -0.18288 0.054455 -0.22703 -0.42273 -0.48424 -0.26684 -0.26236 0.36341 0.16665 0.077836 0.043053 -0.31075 0.048984 -0.0065095 -0.022384 0.19907 -0.066425 -0.19918 -0.091246 -0.15769 -0.03851 -0.12978 0.025835 0.12348 0.013428 -0.20876 -0.1519 0.18028 0.078158 0.17864 -0.14663 0.39941 -0.0055685 -0.43918 -0.28369 0.056909 -0.081579 0.10641 -0.079675 -0.15357 0.023866 0.23673 -0.014936 0.09594 0.03683 -0.16515 0.059982 0.0097856 -0.1256 0.06893 0.14184 -0.086739 0.28266 0.027849 -0.13108 0.023946 -0.17595 -0.056376 -0.013912 0.22455 -0.4147 0.32349 -0.014551 -0.57983 0.019998 -0.14792 0.21371 -0.17842 -0.27497 -0.086079 0.039213 -0.29931 -0.11247 0.022593 -0.016356 -0.088002 0.036182 0.054974 0.073668 0.12348 -0.26719 0.0846 0.16785 -0.096067 0.11623 0.12121 -0.28906 -0.082823 -0.019874 0.23139 -0.21704 0.19801 -0.065711 0.086822 -0.11494 -0.17218 -0.072795 0.0026077 -0.057019 0.050712 -0.18024 0.21798 -0.017607 -0.28638 -0.11546 -0.018625 -0.054338 0.19248 0.02681 -0.074238 -0.13035 -0.511 -0.19761 -0.17114 0.18555 0.18733 -0.080147 -0.14737 0.068316 0.058405 0.38848 0.30341 -0.043791 0.2846 0.042016 0.085208 0.46065 -0.10132 0.11268 -0.0093504 0.11432 0.018495 0.33046 -0.22617 0.0072183 0.11667 -3.8364E-4 0.10401 -0.015902 -0.31149 -0.1673 -0.18343 -0.20185 0.056087 0.073986 0.13006 0.08836 -0.0067564 0.017126 0.20553 0.20616 0.21513 -0.087722 -0.2665 0.29007 0.019077 -0.18464 -0.096289 0.30083 0.2292 0.38045 0.079298 -0.0016018 0.13979 0.069552 0.2374 0.30665 0.11402 -0.15932 0.15179 0.016656 0.13699 0.19521 -0.17592 0.2742 0.0076733 0.3341 -0.29715 -0.47599 -0.35994 0.16638 0.19663 -0.014485 -0.37318 0.039623 -0.090576 -0.23547 -0.11514 0.20298 -0.01816 0.058622 -0.14426 0.2661 0.051208 -0.098197 -0.24657 0.36493 -0.0035777 0.11951 0.4162 -0.13292 0.021083 0.21908 -0.10409 -0.31382 0.15459 0.17721 0.30399 0.015446 0.12792 -0.31555 0.12432 -0.11648 0.12769 -0.085591 0.27046 -0.09392 -0.090057 -0.41884 0.11798 0.15685 -0.18213 -0.13653 0.020176 -0.29904 0.048514 0.041821 -0.051935 0.12975 0.091382 0.10035 -0.21192 0.16902 -0.010907 0.15216 0.1537 -0.12839 -0.089547 0.06802 -0.077105 0.15269 -0.15801 -0.1325 0.092554 0.26633 0.31622 -0.0032977 0.17917 0.059968 0.04161 0.15564 -0.02958 0.19131 0.29173 0.044794 -0.29464 0.035754 -0.088367
size -0.39856 -0.35269 0.08364 0.22589 -0.055543 -0.21316 -0.28823 0.13623 -0.15765 -0.065687 -0.021856 0.089961 -0.39315 0.31318 -0.17699 -0.26225 0.086532 -0.28985 0.40345 -0.025 -0.11849 0.16299 0.18381 -0.11047 0.099842 -0.42647 0.11484 -0.42082 0.027605 0.060754 -0.25799 0.0067506 -0.26634 0.38028 -0.1569 -0.029348 0.082051 -0.066833 0.15509 -0.009412 -0.13411 0.17396 -0.16938 -0.35237 -0.092934 -0.26264 -0.20211 0.028928 0.47171 0.014551 -0.068456 0.5982 -0.13841 -0.27305 -0.26382 0.16701 -0.26631 0.0074699 -0.012655 -0.11867 -0.29973 0.26136 0.17429 0.44036 -0.15794 -0.32754 -0.13735 -0.1599 -0.11806 0.23117 0.04237 0.083217 0.11686 -0.28966 -0.080366 -0.33359 0.050384 -0.043452 -0.19178 -0.20069 -0.065133 -0.17492 0.37532 -0.16432 -0.11704 0.0027839 -0.029361 0.20051 -0.28661 0.099775 -0.37442 0.09761 0.33015 -0.20413 -0.21697 -0.20651 -0.44102 -0.075982 -0.052881 0.12814 0.093188 0.0075019 0.08498 -0.24443 -0.0091594 -0.42724 -0.0068962 -0.17743 0.32729 -0.13581 -0.33994 -0.22272 0.0066084 0.10967 0.0027047 -0.096692 -0.42364 -0.30142 -0.28575 0.18579 0.161 0.18456 0.044247 -0.047897 0.21165 -0.075101 0.47548 -0.11931 -0.10628 0.02066 -0.15884 -0.088337 0.16249 0.19011 -0.028748 -0.37382 0.16698 0.19964 0.12254 -0.38883 0.2599 0.074724 -0.19883 -0.11025 -0.12802 0.13193 -0.16415 0.25378 0.053983 0.29691 0.13589 0.11917 0.17705 -0.063643 -0.013327 -0.039951 0.096938 0.30428 0.31156 -0.27799 0.11191 -0.010931 0.0063539 -0.069451 -0.003167 -0.11377 -0.21967 0.49082 0.12854 -0.18674 -0.17502 0.54063 0.045058 -0.20571 -0.053223 -0.2852 -0.018724 -0.33577 0.27923 -0.0097476 -0.3067 0.09237 0.053662 -0.25621 -0.4286 0.21263 -0.36379 -0.0086856 -0.033394 -0.30436 -0.17952 0.089798 0.014284 -0.23623 0.1388 -0.74245 0.1196 -0.21174 -0.25796 -0.28183 -0.30537 0.040704 0.38836 0.066003 0.19684 0.33283 -0.059666 0.50885 0.11982 -0.19362 0.062428 0.32402 -0.034616 0.16825 0.39469 -0.016868 -0.17877 0.10469 0.011599 -0.077553 -0.0080486 -0.3597 -0.045378 0.051057 0.40941 0.1861 -0.42158 0.11394 -0.069641 0.12733 -0.011561 0.060867 0.33159 -0.23024 0.15904 0.090973 0.070048 0.13296 -0.26007 -0.037881 0.086464 0.2069 -0.27335 0.081398 0.29033 -0.21624 -0.54904 0.27474 0.26789 0.42901 -0.45845 -0.42621 -0.18798 -0.26047 0.0042497 -0.080319 -0.52534 -0.033064 0.2822 -0.41951 0.049817 0.30542 0.16031 0.28775 0.14664 -0.043431 -0.31477 -0.25972 -0.386 -0.1046 0.10255 -0.4121 0.6428 -0.087427 -0.19948 0.30309 -0.42387 0.042801 -0.054778 -0.10906 -0.45836 -0.43538 -0.036575 -0.035823 -0.043255 0.21584 0.092218 -0.083398 0.21437 0.22988 0.0051972 -0.11111 -0.27857 0.019285 0.25428 0.25813 0.077081 -0.25886 0.23393 0.036725
peace -0.14334 0.34332 0.0086819 -0.1957 0.043851 -0.2927 0.12408 -0.40124 -0.38965 0.42774 0.069878 -0.34192 -0.15974 -0.43832 -0.047807 -0.11083 0.1104 0.041575 0.26352 -0.0194 -0.033532 -0.3306 0.09933 -0.27129 -0.31599 0.20479 -0.10144 0.0034784 -0.29978 0.51693 0.013766 0.15862 0.17977 0.036809 0.34675 0.12483 0.052599 -0.18841 -0.44716 0.4992 0.11714 0.19691 -0.15727 0.16127 -0.14615 0.034515 0.29431 0.16089 -0.10013 0.35068 0.51619 0.32938 0.08381 -0.040415 -0.060294 -0.07731 0.028771 0.031483 -0.027023 -0.01882 -0.21788 -0.025171 0.079198 0.11111 -0.23786 -0.12012 0.062567 -0.39427 -0.10786 0.21027 -0.014414 -0.12161 0.059337 0.07988 0.14364 1.8869E-4 0.25467 -0.30365 -0.034232 -0.25426 -0.38035 -0.13834 0.62699 -0.10426 -0.46172 0.04431 0.16676 -0.09091 0.030581 -0.22338 -0.46984 0.15079 0.38893 0.017672 0.014629 -0.12012 -0.074929 -0.018129 0.30731 0.60652 -0.21947 -0.056271 -0.1249 0.074368 -0.14972 -0.12624 0.34764 -0.30927 0.0052867 -0.036744 -0.17476 0.081729 -0.20956 0.13138 -0.058205 0.37137 0.13102 -0.14281 -0.38614 -0.20853 0.072092 0.23734 0.053279 0.27427 0.19289 -0.084721 0.012445 -0.10192 -0.16175 -0.19722 0.21259 0.34563 -0.50222 -0.1051 -0.0057248 0.27506 -0.42249 0.33894 -0.057332 -0.49673 0.027831 -0.13652 -0.13464 -0.041158 -0.062118 -0.017269 0.25811 -0.093227 0.5165 0.13039 -0.5135 -0.2951 -0.02457 -0.19847 -0.19879 -0.21608 -0.028716 -0.028166 -0.023566 0.24475 0.007252 0.13163 0.45065 0.49672 -0.21046 -0.18249 0.034328 0.36646 0.21243 0.26125 0.29803 -0.28146 -0.09288 -0.041815 -0.25571 -0.073913 -0.065124 0.13507 -0.12613 -0.24395 -0.080517 -0.10992 0.095894 0.12781 -0.021215 -0.20508 -0.13067 0.15869 -0.1101 -0.091109 -0.34491 -0.059844 0.044879 0.32235 -0.14092 -0.14283 0.18091 -0.26535 -0.067729 0.085559 0.16384 0.14559 -0.21394 -0.048599 -0.23696 0.0066314 -0.2734 -0.072584 0.014845 -0.35708 -0.21936 -0.033095 0.28242 0.031655 -0.062113 0.085368 0.28649 0.13967 0.15347 -0.086592 0.26247 0.026721 -0.13806 0.025393 -0.21651 -0.31674 0.26749 0.31556 -0.22332 0.03681 -0.20282 -0.28875 0.26667 -0.11312 0.25937 0.26661 -0.0052118 0.1886 0.40165 0.23436 -0.33406 -0.031544 -0.018065 -0.09816 0.25841 -0.17967 0.31573 0.44952 0.12539 0.41882 -0.34712 0.35976 0.055182 0.24285 0.14425 0.13535 -0.13231 -0.31817 0.42963 0.12781 -0.38165 0.1305 0.26194 -0.13825 0.13204 0.0069285 0.086552 0.23856 0.11602 0.042129 -0.2041 0.10537 0.1351 -0.11088 0.11595 0.24328 -0.22874 -0.1247 -0.068703 -0.47181 -0.075302 0.1825 -0.19426 -0.28326 -0.3835 -0.27903 -0.22445 0.12447 0.134 -0.033443 0.21826 -0.31333 0.017345 0.35179 0.10707 -0.21746 -0.20401 -0.52058 -0.52355 0.17676
science -0.03859 -0.057107 -0.28856 -0.077904 -0.051494 0.17165 -0.062527 -0.0011779 -0.51888 0.33038 0.69033 -0.68092 -0.31052 -0.1794 -0.24538 -0.36198 -0.011398 -0.46153 0.1818 -0.0056187 -0.53425 0.14216 0.22274 0.1369 -8.242E-5 -0.017802 0.1538 -0.11838 0.26503 -0.18235 -0.08197 0.082771 0.2416 0.23165 0.26731 -0.16561 -0.037018 -0.21975 0.20147 0.082649 -0.0061681 -0.0076844 0.21449 0.35108 0.096501 0.14164 0.082867 0.2386 0.082191 0.1237 -0.056623 0.026799 0.058237 0.1237 0.14763 -0.17343 0.063027 0.19955 0.34243 0.098133 -0.013607 0.25665 -0.19503 0.18795 -0.076489 -0.25362 -0.3509 -0.16379 -0.23842 0.28369 -0.084168 -0.093929 0.090391 0.26835 0.089846 0.21825 0.0081867 0.11377 -0.18596 -0.52035 0.066762 -0.11595 0.22082 -0.48184 -0.14604 0.17843 -0.070421 0.05601 0.19534 -0.020494 0.024077 -0.055384 0.40233 0.043244 0.26477 0.27263 0.2856 0.13981 0.20604 -0.11261 -0.14056 0.048056 0.074104 0.050609 -0.56194 0.08915 -0.036825 -0.034256 0.46913 -0.037683 -0.049479 0.26812 -0.1703 0.29785 -0.089991 0.22051 0.036407 0.070917 0.067686 0.27795 0.36404 -0.10216 -0.15738 -0.25005 0.29533 -0.32886 -0.24873 -0.060148 -0.0074988 0.48317 0.075806 0.089459 -0.029559 -0.030936 0.18528 0.097542 0.012612 0.5291 0.091646 0.22321 -0.056183 -0.34919 -0.025872 -0.24154 -0.3991 0.25607 -0.10136 -0.4856 0.26639 0.36242 -0.26082 0.36315 -0.16555 -0.11084 0.35699 0.029419 0.29849 0.035731 0.23932 -0.21518 0.12924 -0.067653 0.20756 0.27477 -0.21718 0.19367 0.12121 0.035677 0.30185 -0.11942 -0.036559 -0.066623 -0.2779 0.035001 0.042237 -0.1831 -0.13597 0.16048 0.096156 -0.055364 0.17248 -0.12286 0.091214 -0.024739 -0.1455 0.088763 -0.16253 -0.048262 0.055095 -0.14921 -0.25032 -0.069818 0.086341 0.12846 0.01179 0.32157 -0.11175 0.012844 -0.11242 0.26204 0.021084 0.27791 -0.12276 -0.19263 -0.040097 0.17928 -0.24394 0.11996 -0.048067 -0.21617 0.067298 0.45108 0.50371 0.11087 0.081869 0.29497 -0.070266 0.50664 0.040844 -0.48442 -0.29649 -0.070601 0.15533 0.20159 0.12589 -0.2044 0.17662 -0.090859 0.035388 0.059059 -0.18932 0.074397 0.091623 -0.59577 0.14967 0.37807 0.088706 -0.1509 0.12721 0.075948 0.06432 0.11525 0.17069 -0.47279 0.15992 -0.16412 -0.16076 -0.36908 0.11182 0.31629 -0.21511 -0.26048 0.18835 0.13786 0.31906 -0.58047 -0.69747 0.33175 0.29478 -0.02086 -0.0015446 -0.22391 -0.29359 -0.03997 0.38432 0.16338 0.090775 -0.095141 0.069409 0.20109 0.016358 -0.13079 -0.12852 0.10465 0.20983 0.0039535 0.21328 0.087925 -0.25265 -0.19045 0.18497 -0.44975 0.097708 0.13797 0.15531 0.28686 0.31252 0.36391 -0.02389 0.063253 -0.04633 -0.35625 -0.29907 0.01341 0.22358 -0.043109 0.22836 0.32854 -0.03236 -0.040294
dawn -0.093976 0.1509 0.016159 0.23377 0.068082 -0.47341 -0.08414 -0.24404 -0.44423 -0.012087 0.27782 -0.17422 -0.24446 0.30349 0.19155 -0.084478 0.14282 0.0039173 0.016371 -0.024032 -0.11634 0.13414 -0.182 0.063887 -0.27562 0.09018 0.097385 -0.030444 0.030306 0.21519 0.22676 0.21843 -7.9809E-4 0.35026 0.12861 0.10821 -0.064684 -0.013531 -0.16996 -0.20398 -0.077231 -0.14623 -0.17138 -0.19215 -0.17407 0.29724 0.19329 0.1322 -0.3482 0.24923 0.2596 -0.33135 -0.10902 0.25979 0.38176 -0.11756 0.10467 0.29687 0.081285 -0.28165 0.16549 0.26772 0.30315 0.075893 0.077891 0.52493 0.33113 -0.05915 -0.16261 -0.028221 0.57999 -3.9817E-4 -0.020425 -0.055697 0.091282 0.15116 0.25521 0.1091 0.033341 -0.23349 -0.0048854 -0.4372 0.059333 -0.04089 0.11277 0.39262 -0.32427 -0.20952 0.1719 0.096845 -0.11454 0.19339 0.23934 -0.23742 0.23863 -0.064377 -0.019618 -0.15269 0.38975 0.30251 -0.14868 0.16395 -0.083484 -0.01745 -0.26458 -0.14481 0.015809 0.12005 0.031739 -0.27149 -0.24842 -0.44476 0.16524 -0.12624 -0.30956 -0.12566 -0.041525 0.35748 -0.46965 -0.11255 0.36659 0.31348 0.21176 -5.055E-4 -0.041522 0.065935 -0.0021766 -0.3209 -0.32461 0.059555 0.082312 -0.1056 -0.047653 0.33835 -0.14071 0.089166 -0.27254 -0.01195 0.16847 -0.18478 -0.30118 -0.083559 0.10164 -0.28367 -0.16177 -0.071946 0.21548 0.19895 -0.14977 0.22241 -0.3354 -0.24606 -0.21574 0.019052 -0.12627 -0.23781 -0.25239 0.11843 0.11542 -0.083229 0.097621 -0.14612 0.27496 0.046445 0.11041 0.13254 0.18645 -0.094829 -0.17508 -0.10401 0.023995 -0.21509 -0.062507 0.035612 0.0047161 0.048182 0.20142 -0.19364 0.138 0.015646 -0.24694 -0.23324 -0.085217 0.028793 -0.19084 0.28483 0.13106 -0.037784 -0.24979 0.068165 -0.15973 -0.094646 0.32115 -0.18042 0.2038 -0.37701 0.06795 0.050759 -0.22503 -0.056548 0.16054 0.28454 0.39653 0.056445 -0.1096 -0.060208 -0.45511 -0.15688 0.033612 -0.49075 -0.1529 0.63953 0.16155 0.11393 -0.033882 0.19723 0.11804 -0.158 0.51844 -0.012196 0.056849 -0.32657 -0.052081 -0.12972 -0.21417 -0.1581 0.065812 0.0042635 0.088351 -0.35812 -0.12671 -0.13882 0.094966 -0.56859 0.11987 0.078032 -0.019437 0.21748 0.12023 -0.1422 0.15213 0.34782 0.10135 0.0080094 0.30427 -0.21711 -0.065343 0.28369 -0.063512 0.20286 -0.20516 -0.043416 0.021345 0.16584 0.052602 -0.0039672 -0.15288 0.15842 0.39818 0.37617 0.14983 0.10991 0.042447 7.6347E-4 0.096346 0.45926 0.13148 0.063857 -0.10272 0.028668 0.21123 0.042423 -0.066852 -0.13845 -0.18072 0.30628 -0.058345 0.015203 -0.32859 0.16794 0.028886 -0.053842 0.080483 -0.30298 -0.37233 -0.13364 -0.19961 0.24256 0.071799 -0.13547 0.53958 -0.11719 -0.0054619 0.2719 0.40703 -0.059006 -0.040916 -0.038991 0.10819 0.093776
brother -0.2185 -0.13716 -0.1981 -0.018532 0.2829 -0.10746 0.17054 -0.1872 0.12229 0.059492 -0.23755 -0.18797 0.40402 -0.16987 0.010693 -0.022961 -0.075959 0.14502 0.087185 0.19622 -0.22036 0.0011271 -0.054841 0.30839 -0.36722 0.22478 -0.14301 0.19182 -0.018903 0.27298 0.18336 -0.28364 -0.042878 0.16927 -0.062736 -0.017887 -0.026577 -0.052412 0.15143 0.096542 0.0014682 -0.18174 -0.0069643 -0.37958 0.2914 -0.016187 0.15744 -0.092802 0.0095194 0.21279 -0.055825 -0.18941 0.14093 -0.038079 0.088054 -0.046106 0.021939 -0.29776 -0.26042 -0.29697 -0.093791 -0.19043 -0.31364 -0.29561 -0.012884 0.25414 0.18802 -0.083896 -0.51738 0.32119 -0.42941 0.27034 0.30625 -0.12369 -0.21615 -0.085092 0.17936 -0.14935 -0.011993 -0.037724 0.22158 -0.23362 0.075702 -0.25304 -0.094632 -0.13563 0.060371 0.2962 -0.047753 -0.1698 -0.12014 -0.12208 -0.10999 0.029951 0.013054 -0.02734 -0.026599 -0.026538 0.041062 -0.042854 -0.34086 0.019689 0.09006 0.0064715 0.20893 0.042488 0.39621 0.16317 -0.23659 0.35146 -0.10293 0.36387 0.034155 0.028311 0.22151 0.21897 0.16584 0.022983 -0.11336 -0.095425 0.14259 -0.051133 0.058895 -0.15903 -0.0051211 -0.077043 0.093757 -0.11067 -0.27355 0.33721 -0.21055 -0.18921 -0.23965 0.16594 0.28413 0.3652 -0.34844 0.085225 7.0364E-4 -0.30813 0.13963 -0.11906 -0.16147 0.23777 -0.14804 -0.089009 -0.41217 0.053677 0.1338 0.28577 -0.13074 -0.23657 -0.040623 -0.16689 -0.11119 0.077537 -0.22875 -0.023053 -0.32594 0.17802 -0.036877 0.49961 0.30925 0.15015 -0.14859 0.0092047 -0.046729 0.44081 0.33527 -0.4319 -0.26331 0.12952 -0.0015667 -0.17911 -0.45958 0.042918 -0.18664 0.034542 0.0094508 -0.35572 -0.073234 -0.25111 0.13478 -0.20455 -0.21353 0.12746 -0.27752 0.27963 0.046503 0.15887 -0.12825 0.22829 0.27218 -0.1734 0.28761 -0.21938 0.043007 0.034987 0.20325 -0.20573 0.03569 -0.0056985 -0.21927 0.050168 -0.047686 -0.17923 -0.35406 -0.056104 -0.07717 -0.16189 0.2124 0.18057 0.51969 0.020535 0.12208 0.10068 -0.14166 0.20988 0.29334 -0.091641 -0.035921 0.0098281 -0.053352 0.056555 -0.040291 0.18315 0.02739 -0.043801 -0.2418 -0.23601 -0.30548 -0.29858 -0.18799 -0.064555 -0.13701 0.23233 0.034256 -0.17795 -0.21314 -0.28519 -0.061838 -0.082099 0.073035 0.028692 -0.12084 0.11264 -0.29102 0.024216 0.086982 0.13019 -0.50128 0.25216 -0.10295 0.061794 -0.18813 0.057671 -0.038275 -0.37373 0.23177 -0.23167 -0.17318 -0.37172 -0.14617 0.30401 -0.20545 0.16142 -0.12584 0.40771 0.017492 0.063833 0.34469 0.23986 0.10317 -0.50811 -0.21415 -0.26169 -0.08198 0.086434 -0.16986 -0.083681 0.12715 0.33363 0.026164 -0.32262 -0.2954 0.11531 -0.22239 -0.013999 2.8823E-5 0.12984 -0.13877 -0.078289 0.15859 0.26652 0.41876 -0.078372 0.15081 -0.032371 -0.44599 -0.10406
wine -0.47161 -0.10538 0.088223 -0.082876 0.14728 -0.015801 -0.033565 -0.016442 -0.25086 -0.080234 0.10957 -0.087349 0.026063 0.05949 -0.34052 0.02364 -0.37102 0.21876 0.07035 -0.097158 -0.15871 0.032108 -0.042692 0.42837 -0.071382 -0.29894 0.24607 -0.17638 0.14699 -0.35423 0.24145 -0.12939 0.27424 0.042372 0.17122 0.64764 -0.077443 0.24872 -0.12355 0.3831 -0.059704 -0.3607 -0.069478 0.30915 0.6971 0.0047267 0.15671 0.0062395 -0.10434 0.23962 0.053242 0.039024 -0.44339 0.1193 0.15256 0.026014 -0.2053 0.012639 -0.019217 0.20721 0.072149 0.56316 0.61605 0.54309 -0.19572 -0.1028 0.025069 -0.43119 0.086058 0.21739 -0.010213 0.11531 0.06296 -0.37192 0.14864 0.15169 -0.018893 -0.012609 0.035972 -0.22059 -0.095202 0.014475 -0.082516 -0.01096 -0.026517 0.25056 -0.020942 -0.30194 -0.0041889 0.08063 -0.35149 0.16143 0.38509 -0.21124 -0.21673 0.35191 -0.26822 -0.10788 0.35379 0.4382 -0.29338 -0.50436 0.25428 0.04123 -0.32317 -0.2481 -0.12277 -0.051622 0.60877 -0.38901 -0.3015 0.25911 -0.44647 0.11125 0.18328 -0.0025427 -0.15528 0.14591 -0.086437 0.046666 0.46787 0.32085 0.086327 0.15442 0.090163 0.20514 0.30874 0.015974 0.30607 0.36014 -0.062136 0.30617 -0.23084 0.071719 -0.035693 0.2397 -0.36842 0.011521 0.1726 -0.16395 -0.27126 -0.12608 -0.16237 -0.14986 -0.40816 0.25696 -0.13421 0.34777 -0.63097 0.33566 -0.33001 -0.06624 -0.22532 -0.089646 -0.036803 -0.10236 -0.043232 0.33585 0.087297 0.15238 -0.58198 0.26871 0.28695 -0.012843 -0.0061592 0.050803 -0.10654 0.30178 -0.26511 -0.016815 -0.50128 0.024187 -0.59334 0.13729 -0.49445 0.25686 0.49121 0.32382 0.026612 0.023924 0.53639 0.23795 0.036137 -0.25084 -0.13182 -0.23125 0.25943 0.041121 0.036309 -0.25011 -0.14347 0.22168 -0.19739 -0.046302 0.16413 0.057757 0.42607 -0.15265 -0.31379 0.36715 0.098438 -0.22372 0.22495 0.012405 -0.063213 0.012253 -0.1613 -0.14316 -0.17646 -0.33225 0.31647 -0.087578 0.27673 0.40972 -0.23423 0.21295 0.15008 0.13573 0.037414 0.054129 0.17848 -0.43055 -0.018071 -0.30231 0.11145 0.50519 -0.087818 -0.127 -0.36411 0.32025 0.1281 -0.10563 0.1038 0.26613 -0.24802 -0.074143 -0.21175 -0.04613 -0.30762 -0.32554 0.096486 0.039178 0.10168 0.18251 0.088726 -0.060001 -0.24455 0.051363 0.30393 0.25565 0.1737 0.050969 0.081594 0.62365 -0.21579 0.088383 0.39317 0.14586 -0.27892 0.18145 -0.38048 -0.035478 0.44202 0.11995 0.50671 0.17968 -0.44068 0.37633 -0.18853 -0.16315 5.2329E-4 0.43963 -0.12788 -0.5096 -0.031922 -0.069172 0.35207 -0.44666 0.18647 -0.06082 0.28241 0.040317 -0.0049598 -0.543 -0.22864 -0.0516 0.074366 0.001279 0.088719 0.25425 -0.073584 -0.22543 0.078296 0.14046 0.058055 0.35689 0.42472 -0.53254 -0.50645 -0.26922
object -0.17506 0.096468 -0.12381 0.025869 0.22965 -0.05815 -0.1486 -0.12433 -0.1952 0.63067 0.17185 -0.37595 -0.31694 -0.086691 -0.078888 0.26774 -0.54246 0.21397 0.077525 0.10273 -0.053416 0.27087 -0.10808 -0.1475 -0.097298 -0.14095 0.3856 -0.031717 0.23468 0.19566 -0.30344 -0.082776 0.09225 0.1835 0.11987 0.0054474 -2.936E-4 -0.4124 0.023213 -0.18228 -0.080996 -0.06405 0.42086 -0.051002 0.24595 -0.10685 -0.18299 -0.082792 0.26509 0.1188 -0.19025 0.097047 -0.53742 -0.30393 -0.13691 0.071289 -0.35875 0.175 0.21698 0.22077 0.023428 0.3062 -0.069197 0.20813 -0.088712 -0.0086752 -0.059758 -0.31289 0.13575 0.16447 -0.042804 0.201 0.029037 -0.53952 -0.033647 -0.32919 -0.17802 -0.067704 0.23242 0.13753 -0.16117 0.16841 0.15793 -0.036879 -0.62862 0.071665 0.099106 0.0087321 -0.24899 -0.057105 0.12715 -0.0069976 -0.038076 -0.19033 -0.45446 -0.10755 0.080398 -0.18135 0.13686 0.18201 -0.26183 -0.065807 -0.29932 -0.06079 -0.14795 -0.39396 -0.0092846 0.002679 0.34408 -0.12091 -0.4561 0.093995 -0.30988 0.14262 0.032414 -0.16029 -0.18222 -0.25319 -0.078645 -0.071494 -0.0089976 -0.086881 -0.020669 -0.016106 0.23669 -0.15047 -0.093164 -0.10808 -0.22755 0.13404 -0.20024 0.007593 0.13665 0.19234 -0.14583 0.11553 0.2854 -0.0067945 -0.24241 -0.13138 -0.19709 0.14091 0.26334 -0.13944 -0.21008 0.018122 0.03422 0.53896 0.079208 0.28427 -0.22701 -0.15899 -0.28607 -0.09938 -0.21913 0.090209 -0.19937 -0.17747 -0.061082 0.1687 7.566E-4 0.3361 0.188 0.3609 -0.22863 -0.0014487 -0.19306 0.19402 0.27156 -0.056409 7.3007E-4 0.25508 0.16099 0.0088009 -0.087075 -0.011331 -0.099063 -0.12281 0.41985 -0.14953 -0.080409 0.10881 -0.17009 0.12031 0.074193 0.20983 0.24589 0.3926 -0.02982 -0.076295 -0.12573 0.16806 0.051571 -0.15566 3.851E-4 -0.19133 0.017726 0.017001 -0.20641 0.035172 -0.0082963 0.28923 0.094006 0.20898 0.24407 -0.23623 0.044483 0.11006 0.0014952 -0.31091 0.064033 0.1822 -0.14501 -0.10049 0.16978 0.3752 0.037208 0.17891 0.33067 -0.20899 -0.20044 -0.11896 -0.13981 0.38227 -0.098273 -0.069544 -0.24198 -0.14813 0.075955 0.15941 -0.013374 0.26987 0.31841 0.014661 0.14094 -0.045285 0.21885 -0.12325 -0.045821 -0.1535 -0.082535 -0.16375 0.065717 0.20412 0.17802 0.22859 -0.11934 0.33424 0.18097 0.24188 -0.20092 -0.21345 0.25932 0.037639 0.062953 -0.025967 -0.55304 0.33677 0.74451 0.30304 -0.053782 0.381 0.33621 0.05606 -0.28952 -0.084487 -0.12992 0.022927 -0.041493 0.14335 0.06357 -0.01738 -0.50575 -0.12678 0.10353 0.26189 0.014046 0.11659 -0.17521 -0.10182 -0.26257 -0.39716 -0.075293 0.33144 0.18367 0.10048 0.1142 -0.27962 -0.15686 0.03862 -0.14313 -0.13674 0.13967 0.057164 0.26856 -0.026578 -0.018893 0.0059278 0.15589 -0.10036
attitude -0.0072448 0.085688 -0.29082 0.17138 0.29428 -0.024221 0.14652 -0.31591 -0.37267 0.25952 0.14297 -0.41106 -0.0070646 -0.16435 0.0011708 0.10986 0.07468 0.012978 0.14794 -0.079953 -0.16643 0.14506 0.16301 0.059163 0.029807 -0.39789 0.066442 0.25139 0.032831 0.20218 -0.4155 0.25857 0.073322 -0.23606 -0.084532 0.0033099 -0.057511 -0.28855 -0.21817 0.34582 0.041814 -0.029346 -4.6875E-4 0.32614 0.093201 0.23465 -0.038583 0.36331 -0.17332 0.37545 -0.15232 0.1087 -0.058826 0.14963 -0.097714 0.20522 0.27247 -0.16674 0.062265 -0.25145 -0.18579 0.27185 0.054667 -0.12304 -1.8413E-4 -0.27566 -0.16089 -0.026453 0.020812 -0.070889 -0.12498 0.17344 -0.0058893 -0.25481 -0.053346 -0.56552 -0.24297 0.011949 -0.20552 -0.02846 0.025969 -0.17412 0.055795 0.13855 -0.17595 -0.0427 -0.27112 0.29698 -0.13552 0.28253 -0.013358 -0.18662 -0.23224 -0.11655 -0.2541 -0.29501 0.14869 -0.12286 0.11106 0.14178 -0.36143 -0.14975 0.06343 0.13237 0.011767 0.032939 0.22249 0.29641 0.22367 -0.010481 -0.27379 0.057462 0.01548 0.11031 0.30253 0.046457 -0.078892 0.079178 0.0012752 -0.047619 0.20225 -0.14206 0.053658 -0.1177 0.14789 0.055666 -0.12982 -0.10479 -0.13041 0.36218 0.042707 -0.0051153 0.24315 0.1197 0.17837 0.046107 0.17715 0.16727 -0.13303 -0.062449 -0.027297 -0.011534 0.021152 0.1095 -0.035382 -0.32956 0.13369 0.36254 0.43375 0.29786 -0.2446 -0.18589 0.0066242 -0.047415 -0.050849 0.087209 -0.098056 0.029434 -0.15536 -0.12597 -0.13393 0.2919 0.14595 0.31981 -0.2972 -0.31402 -0.14737 0.16158 0.48708 -0.064882 -0.024171 -0.186 -0.30579 0.076187 -0.12148 -0.25028 0.017867 -0.1651 0.018084 0.12321 0.098293 -0.2683 -0.066761 -0.11707 -0.034733 -0.13073 -0.23453 -0.24207 -0.18013 -0.11537 -0.1676 0.084787 -0.42635 0.085421 0.085268 -0.054662 0.54933 0.070927 -0.17229 0.0032679 0.28934 0.31179 0.20013 -0.2409 0.025964 -0.063078 -0.13011 -0.029929 0.055479 -0.33914 -0.42412 -0.047111 0.33038 0.016822 0.20388 0.28861 0.34627 0.20224 0.51378 -0.18314 -0.26994 -0.17144 -0.25921 0.013715 -0.40566 -0.2186 0.01672 -0.48249 -0.061838 -0.17908 0.040085 0.13681 -0.041991 -0.013295 -0.13 0.30832 0.17447 0.11468 0.12015 -0.54298 0.14124 -0.038092 -0.28082 0.20163 0.078115 -0.48225 -0.17785 0.26062 -0.088408 0.097541 -0.25273 0.19085 0.0071305 -0.11489 0.18574 -0.21352 -0.42978 -0.029748 0.51583 -0.27069 0.051126 0.25096 0.15526 -0.044396 -0.067453 0.056898 -0.074464 0.13504 -0.095359 0.0463 -0.2728 0.12207 -0.11774 0.20319 -0.055377 -0.24724 0.0019228 0.19352 0.024277 0.018226 0.10742 -0.37329 0.12735 -0.031145 3.6822E-4 0.23651 -0.090113 0.31017 0.066107 -0.18197 -0.10882 -0.34822 0.01512 -0.14549 0.1204 0.0049566 -0.15507 -0.23799 -0.37957 0.21318
treatment -0.16959 -0.037701 -0.14219 0.56652 0.064142 0.13366 0.22915 0.03777 -0.63328 0.51398 0.24556 -0.043682 0.068792 0.0058775 0.085506 0.0087695 -0.15745 0.068741 0.054387 -0.27106 -0.35153 0.54153 0.29813 -0.058266 0.42775 -0.42255 0.34042 -0.17867 0.14866 0.27531 -0.41159 -0.015583 -0.16587 0.4934 0.3963 -0.29591 -0.14058 -0.047803 0.031207 0.2195 0.0041914 -0.064704 0.0010094 -0.034936 -0.050288 0.088911 -0.30902 0.046473 0.10819 0.14486 -0.11052 -0.042985 0.0028215 -0.062643 -0.21165 0.23834 0.084814 -0.16674 -0.070011 0.10423 -0.37939 -0.053943 0.13196 0.33385 0.012569 -0.013842 -0.21396 -0.23605 0.065752 -0.014069 -0.024026 0.14411 0.28733 0.10519 0.046188 -0.3056 -0.1529 -0.017073 0.20422 -0.3406 0.056445 0.079928 0.19381 0.24253 -0.060661 0.35721 -0.073737 -0.19918 0.24844 0.083385 0.14355 0.47712 0.061494 0.070628 -0.010841 -0.33131 -0.18746 -0.48579 0.15793 0.074792 -0.31211 0.12111 0.26447 0.26162 -0.11338 -0.083611 0.23014 -0.16782 0.18277 0.087198 -0.23661 -0.21802 -0.3115 -0.11633 -0.12993 0.28685 -0.089657 -0.1328 0.30477 -0.027754 -0.026528 -0.1045 -0.2022 0.17998 0.24368 0.060707 -0.16866 0.025397 0.098966 -0.045379 -0.072495 0.030375 -0.18717 0.28704 0.41315 -0.21203 0.0040146 -0.083989 -0.050112 -0.025687 -0.20087 -0.53109 0.15632 0.07505 0.24082 -0.21985 -0.11227 -0.26138 0.23751 0.31048 0.29049 -0.64336 -0.2702 -0.010182 -0.084685 -0.17513 -0.021763 0.33653 -0.15676 -0.055451 0.029667 0.40479 0.12083 0.035292 -0.19207 0.26161 -0.12798 0.28076 -0.012537 -0.016322 -0.61208 -0.23087 -0.24743 -0.17691 -0.02585 -0.39757 0.14411 0.085454 -0.01857 -0.22631 0.23716 -0.06843 -0.19982 -0.50449 -0.22894 0.052218 -0.11483 0.079318 -0.18099 -0.07644 0.14223 -0.058385 -0.30034 -0.1794 0.14292 -0.16001 0.33072 0.16495 0.048764 0.0066552 -0.21931 0.095719 -0.0024333 -0.16601 -0.16213 0.27506 -0.025993 -0.20507 0.078905 0.15505 0.37698 0.065623 0.24105 0.16521 -0.059096 0.13346 -0.074329 -0.10881 0.016998 -0.20911 -0.33963 -0.14757 -0.11346 0.0037721 -0.28615 -0.1936 -0.26685 -0.14315 -0.14067 0.014705 -0.10261 0.10919 -0.086899 -0.13764 0.43349 0.33332 -0.19211 0.015193 0.14505 -0.11347 0.22087 0.042054 0.20534 -0.020939 0.20318 -0.37754 0.10802 -0.20524 0.23611 0.20843 -0.15826 -0.04773 -0.089324 0.050195 0.17242 0.2012 -0.25748 -0.046898 -0.30971 0.13279 -0.17099 -0.10615 -0.30681 -0.087477 -0.024004 -0.11756 0.12152 -0.0065763 0.014841 -0.082937 -0.18744 0.096398 -0.28656 0.043213 0.19095 -0.127 0.15614 -0.0099831 0.16443 0.024233 -0.16516 -0.14207 0.038419 0.030135 -0.17926 0.078441 0.19646 0.20273 0.30318 -0.1858 -0.0733 -0.47771 -0.28242 -0.037127 0.34515 -0.027022 0.061518 -0.098532 -0.37983 0.25619
flight -0.46778 -0.085467 -0.0034138 0.30771 0.60697 -0.59662 0.51266 -0.17899 -0.48448 0.37181 0.25522 -0.48436 -0.22308 0.17853 0.22349 0.69474 0.15604 -0.031648 0.28511 0.15994 -0.081461 -0.17306 -0.019954 0.10287 -0.086801 0.046373 0.21566 0.2012 0.30116 0.0095178 -0.18273 -0.19458 0.45999 0.52852 0.15245 0.049528 -0.36473 -0.22793 -0.22929 0.031484 -0.11082 0.28961 0.11464 0.10851 0.28665 0.17846 0.021363 0.10376 -0.29615 0.023056 0.016865 0.18691 -0.014906 -0.079809 0.02472 -0.062188 0.44116 -0.26381 -0.32404 -0.092589 0.15518 0.050137 0.034518 -0.020836 -0.27805 -0.12737 -0.13787 -0.34981 -0.2692 -0.058623 0.011293 0.35199 0.014129 -0.033606 0.47659 0.099402 0.049878 -0.072989 0.19472 0.37355 0.5042 -0.73854 -0.24784 -0.13688 0.081882 0.036279 -0.1138 -0.084721 0.1409 0.2322 -0.0054663 0.22219 0.44353 0.1006 0.13787 -0.10781 0.19161 -0.053628 -0.067513 0.17705 -0.20452 -0.16641 -0.12393 -0.52548 0.03239 -0.35086 -0.087756 -0.0079378 0.18497 -0.028654 -0.15528 0.091961 -0.178 0.057758 -0.029384 -0.25077 0.14446 -0.34619 0.021494 -0.19384 0.075364 -0.22103 -0.013335 0.030824 0.31319 -0.013478 0.14224 -0.083031 -0.088802 -0.065335 -0.27856 -0.22834 -0.11669 -0.35912 0.0031389 0.0020948 0.2629 0.056718 0.13706 -0.1009 -0.37884 -0.035412 0.1132 -0.31268 -0.21638 0.26607 0.14456 0.19663 -0.092224 -0.068081 -0.18315 -0.099944 0.13262 -0.03378 -0.069422 0.10263 -0.3112 0.045775 0.33021 0.046185 0.10726 -0.03669 0.28199 0.099902 0.21914 0.1904 -0.097424 -0.13665 0.060116 0.26049 -0.10064 -0.13455 -0.040776 0.15768 0.083412 -0.44154 -0.18283 -0.32609 0.088759 0.44369 -0.2573 -0.015127 -0.070939 -0.025335 -0.57525 -0.022667 -0.051953 -0.047992 -0.031877 0.05403 0.025933 -0.11095 -0.16485 -0.2221 -0.075114 0.096476 -0.14254 0.184 0.0079721 -0.43809 0.010776 0.22659 -0.040536 -0.18065 0.002647 -0.090858 -0.062012 0.033846 -0.4444 0.17556 0.09666 0.32674 0.25159 0.14054 0.36409 0.014173 0.27481 0.077584 0.20501 -0.11472 -0.25022 -0.33124 -0.26554 -0.089658 -0.24278 -0.19482 -0.15727 -0.13505 0.065465 -0.08663 -0.35365 -0.27755 0.17235 -0.15555 -0.37538 0.026686 0.087794 0.27619 0.25578 -0.14641 0.090211 -0.015808 -0.24517 0.43956 0.21885 -0.17637 0.20685 -0.13645 -0.009323 0.013012 0.10947 0.15614 -0.45001 0.084266 0.17255 0.18785 -0.12432 0.62031 0.5095 0.067119 -0.11475 0.43464 -0.041567 -0.18111 0.02606 0.10975 0.14492 0.096848 0.11524 -0.42372 0.092478 0.12062 0.12449 0.091364 0.2479 0.28941 0.48911 -0.38933 -0.20968 0.038168 0.031375 0.10961 0.20175 -0.20724 -0.028094 0.094712 -0.22118 0.028166 0.14522 0.0078232 0.071971 0.019191 -0.45965 0.14005 0.33988 0.11025 0.059264 -0.32794 0.083694 -0.15459
forest -0.1971 -0.29686 0.013737 -0.0075976 0.053259 -0.051388 -0.25022 -0.22547 -0.39726 0.080534 0.36986 0.13745 -0.26421 -0.2852 0.2985 -0.10939 0.17281 0.20428 -0.27996 0.502 -0.10416 0.17965 0.13072 0.016128 -0.11054 0.041425 -0.18633 -0.24002 0.2088 -0.053117 0.3195 0.3039 -0.068437 0.32481 0.26587 0.023645 -0.19717 -0.15512 -0.1515 0.12436 -0.072267 -0.082703 -0.24307 -0.15611 -0.12366 0.1017 -0.097576 -0.01515 -0.0087775 -0.01136 0.10331 0.074962 -0.61928 0.15186 0.14647 0.29433 -0.24998 0.19522 0.21219 0.22784 0.17914 0.58566 0.18682 0.54146 -0.14463 -0.051914 -0.29097 -0.30139 -0.26781 0.57784 0.035882 -0.083937 -0.17275 -0.055961 0.07723 -0.20753 -0.023044 -0.15035 0.15556 -0.17154 0.11855 -0.052768 0.17335 0.34506 -0.093202 -0.13274 -0.6538 -0.062261 0.25843 -0.078814 -0.27067 0.20442 0.60126 -0.028922 0.25218 0.12864 -0.20759 -0.16081 0.18878 0.12374 -0.24346 -0.059227 -0.11106 -0.36015 -0.44103 0.39139 -0.073043 -0.031321 0.11614 -0.25672 -0.18954 0.31566 -0.17163 0.057567 0.18757 0.12375 0.45732 0.11812 -0.49307 -0.029173 -0.13377 0.11764 -0.12656 -0.24986 0.25353 0.023477 -0.1492 0.013618 -0.044392 -0.058344 -0.33369 -0.53743 -0.30653 -0.056568 -0.088335 -0.075541 -0.31323 0.27604 0.14408 -0.16528 -0.021519 0.11161 0.021333 -0.32195 -0.28667 -0.30711 0.20469 -0.037537 0.0086848 0.010342 -0.10439 -0.26508 -0.0076147 -0.21835 0.04044 0.14439 -0.026008 0.099038 0.39743 0.19928 -0.35399 0.39506 0.17941 -0.053901 0.063641 -0.031714 -0.005846 0.24686 0.29806 -0.19788 -0.23611 -0.16174 -0.51385 -0.22035 -0.44501 -0.29104 -0.3046 0.014749 0.01562 0.12755 0.04349 0.077083 0.27045 0.029756 -0.40373 0.29625 0.33147 -0.3054 -0.046027 -0.11253 0.086051 -0.17999 -0.032989 -0.1365 0.22879 -0.21129 -0.11615 0.29401 -0.29566 0.0038356 0.19454 0.42996 0.16442 0.084481 -0.29571 -0.19781 -0.11359 -0.015249 0.047888 -0.22126 -0.011977 0.0082448 0.0077123 0.20509 0.062114 0.032127 0.19392 0.17505 0.32739 -0.049146 0.38456 -0.46093 0.014127 -0.20307 -0.38101 0.42481 -0.19674 -0.15312 -0.4018 0.040983 -0.049418 0.046906 0.19867 -0.20148 0.090394 -0.12238 -0.16413 -0.010063 0.19122 0.17802 -0.2659 -0.33613 0.052709 -0.19334 0.15895 0.25329 0.46985 0.34679 -0.011781 0.095225 -0.21086 -0.223 0.020185 0.087978 0.062967 0.059973 -0.40787 -0.25479 0.23172 0.0092243 -0.45825 0.0445 -0.26536 0.20285 -0.4065 0.18991 -0.095007 -0.015011 -0.18229 -0.090389 0.0095375 -0.23016 0.133 -0.50728 0.27381 8.328E-4 0.056516 -0.37267 -0.05312 0.026249 0.23657 0.054456 0.22097 -0.097827 0.13421 0.11229 0.74491 -0.02445 -0.032383 0.029325 -0.043506 -0.3167 0.24467 0.35985 0.49395 0.065289 0.11201 -0.11406 -0.073486 -0.0054877
abuse -0.29018 -0.29373 -0.10894 0.60199 0.016037 -0.019016 0.17242 -0.056329 -0.15376 0.19439 0.24973 0.17477 -0.28046 -0.25853 -0.10206 -0.011315 -0.025482 -0.16782 -0.28744 0.061443 -0.1469 0.41514 -0.14063 -0.36326 0.23781 0.13613 -0.022314 -0.15355 -0.21227 -0.02438 -0.38747 0.035737 -0.16229 0.25739 0.44053 0.078926 0.0088356 -0.32521 0.0098202 0.20426 -0.13986 -0.10313 -0.15845 -0.21236 -0.35418 -0.048775 -0.23111 0.25442 0.26626 0.28418 0.012012 0.12943 -0.19463 -0.054187 -0.16133 0.034325 0.026217 -0.36092 -0.2576 -0.094123 -0.22324 0.2223 0.23775 -0.22322 0.38578 -0.16917 0.03354 -0.0164 -0.029914 0.17971 -0.32594 0.59019 0.38369 -0.1767 -0.071276 -0.076124 -0.28605 -0.37831 0.17305 -0.1699 -0.33592 0.011171 -0.069874 0.18734 0.014113 0.454 0.15674 -0.42808 -0.11205 -0.046617 0.66061 0.052829 0.091594 -0.050485 -0.055431 -0.034657 -0.12585 -0.43207 -0.083924 0.17295 -0.42173 -0.092771 0.22793 -0.19409 -0.29801 0.39602 0.27649 -0.2334 0.58383 0.26979 -0.32907 -0.12485 -0.19444 0.10778 -0.31608 0.45544 -0.36582 -0.0062325 0.17041 -0.26357 0.044295 0.11489 -0.311 0.15133 0.16114 -0.14758 -0.12801 0.3266 0.32775 -0.0059726 -0.0096502 -0.1002 -0.15516 0.24225 0.36567 -0.004339 0.0076117 0.26012 -0.24026 -0.20779 -0.35205 -0.042531 0.0014859 0.31175 0.033275 -0.27965 -0.088662 -0.23623 0.44979 0.35439 -0.35056 -0.34948 -0.17246 -0.20536 0.089682 0.099692 -0.10071 -0.38799 -0.22912 0.11322 -0.086982 0.63631 0.10833 0.22294 -0.064518 -0.15081 -0.11415 0.29486 0.15493 -0.095108 -0.32972 -0.10372 -0.2579 0.34496 -0.088798 -0.25358 0.29434 -0.054306 0.36617 0.46992 -0.10568 -0.12372 0.01034 -0.25789 -0.0066834 0.22259 0.0069003 0.22909 -0.16802 0.11428 0.13066 0.29725 -0.11393 -0.23199 0.02738 0.0027357 0.58186 -0.10479 0.017271 0.013953 0.27749 0.27125 0.059936 -0.066118 -0.17265 0.047084 0.10655 0.081034 -0.13937 -0.20343 0.12726 0.27361 0.02835 0.15355 0.62494 0.20555 0.11155 0.34302 0.44995 -0.45465 -0.083465 0.019242 0.23776 -0.25836 -0.076059 -0.18606 -0.10941 -0.30879 -0.2425 -0.045301 -0.28446 -0.096503 -0.072223 0.0068898 0.14326 0.058867 -0.11218 -0.1762 -0.05588 -0.158 -0.027193 0.28682 0.555 0.25979 0.17703 0.037891 -0.41443 -0.21159 -0.050478 0.4759 -0.081975 0.19746 -0.21668 0.13815 0.0934 0.32593 -0.2172 -0.16325 -0.050796 -0.19107 -0.44658 -0.036809 -0.12913 0.14232 0.090694 -0.041355 -0.27714 0.047606 0.2159 0.10961 0.43954 0.022298 -0.20974 0.048764 -0.021211 -0.23227 0.055464 -0.15648 -0.10311 -0.095925 -0.02503 -0.28353 0.04444 0.052649 0.061574 0.054919 -0.039521 -0.22047 0.029362 -0.39595 -0.028597 -0.31961 -0.13325 0.031197 -0.14933 -0.16945 -0.07601 -0.18837 -0.35952 0.34634
criterion -0.26274 0.1199 -0.28021 -0.28991 0.17891 0.20967 0.21821 0.15881 -0.35451 0.32276 0.066846 -0.60561 -0.25525 -0.090077 -0.1993 0.16468 -0.077354 -0.1635 -0.16195 0.082114 -0.31328 0.39536 0.60673 -0.24399 -0.013976 -0.34777 0.48821 -0.21588 -0.018885 -0.14006 0.039851 -0.038499 -0.036281 -0.050649 -0.026541 -0.10685 0.095361 -0.29331 0.066866 0.010658 -0.29507 0.098027 -3.3834E-4 0.081528 0.22174 -0.36113 -0.16935 0.35344 -0.24687 0.16088 -0.30797 0.44065 -0.37141 -0.1348 -0.033812 0.26058 -0.36051 0.14772 0.14635 0.29686 0.20807 0.26582 0.1573 0.2928 -0.31565 -0.19928 -0.1259 -0.15313 0.26873 0.2752 -0.01483 -0.25261 0.22852 -0.31613 0.14853 -0.29568 0.0041678 0.086312 -0.090243 -0.0534 -0.30437 -0.43884 0.15275 0.004405 -0.6635 -0.19646 0.011647 -0.03123 -0.21625 -0.21793 -0.062533 0.2389 0.29639 -0.11136 0.029621 -0.088724 0.18077 0.12159 0.11703 0.209 0.030653 -0.27336 -0.20471 -0.15156 0.28328 -0.11864 0.38867 0.28067 0.26076 0.070433 -0.13659 0.12042 0.12627 0.099636 0.23269 -0.19297 -0.28904 -0.24932 0.24489 0.034227 0.070169 -0.027626 -0.082216 0.011405 0.29711 0.064116 0.084518 -0.3579 -0.37678 0.14574 -0.23455 0.24652 -0.20826 0.069554 0.11396 0.42688 0.17648 0.15848 -0.44971 0.014488 -0.18785 -0.13613 0.02291 -0.075189 0.081416 -0.010279 -0.1377 0.077161 0.39839 -0.045199 0.41628 -0.022517 -0.075843 -0.37993 -0.55378 -0.12148 0.23179 0.25368 -0.45458 -0.31071 -0.20498 -0.089864 0.23129 -0.055026 -0.0016745 0.28403 0.10131 -0.082052 -0.16071 0.015683 -0.075926 0.037759 -0.21341 0.11545 -0.17405 -0.31845 0.32285 0.043553 0.065113 -0.14658 -0.055434 0.066545 0.17834 -0.045442 -0.19234 0.19459 -0.13225 0.62856 -0.16941 0.077848 -0.25785 0.24503 -0.046707 0.12173 0.013952 -0.13135 -0.085811 0.27687 -0.33214 -0.08981 -0.33636 -0.02702 -0.14229 -0.019443 -0.36392 -0.26576 -0.05205 0.018313 0.16617 0.17179 0.50013 0.44096 0.096748 0.095047 -0.15028 0.16787 0.072279 0.15494 0.32899 -0.13743 -0.28682 -0.2899 -0.35109 -0.086254 0.57752 -0.14432 -0.087622 0.033714 -0.21293 -0.20543 0.19938 0.18562 0.070543 0.14505 0.19691 -0.1601 0.23196 -0.15474 0.4322 -0.49694 0.12296 0.25363 -0.16649 -0.072583 0.45893 -0.27637 -0.42407 -0.084717 0.26746 0.61543 -0.074931 -0.21812 -0.083094 0.30061 -0.17725 0.19848 -0.6004 0.13556 0.23377 0.58936 -0.13688 -0.053978 -0.013043 0.0518 0.18235 0.15873 -0.40263 0.26014 -0.08734 -0.2079 0.12961 0.095635 -0.28974 -0.071615 0.01135 -0.11457 0.0696 0.28567 -0.038039 0.022567 0.21757 -0.36666 0.067556 0.16171 0.13966 -0.17128 0.14646 -0.26075 -0.2205 0.088461 -0.38187 0.10889 -0.0064186 0.12828 -0.047521 0.16965 0.099797 -0.024824 0.039543 0.16768
sea 0.15365 -0.011374 -0.27825 0.33776 0.30761 -0.50433 0.20818 -0.18884 -0.37814 -0.073474 0.17966 0.022232 -0.70045 0.035214 0.45249 -0.0075456 -0.10405 0.21294 0.27992 0.0053188 -0.070449 -0.10831 -0.095325 -0.055923 0.091504 -0.025823 0.18771 -0.036012 0.10912 0.10259 -0.079413 0.065126 -0.26174 0.5395 0.25657 -0.032246 0.19732 -0.076051 -0.018296 0.15198 -0.52244 0.028354 0.20135 -0.035931 0.03921 0.1828 -0.11019 0.12806 -0.18871 -0.10057 -0.03657 0.10196 -0.059607 0.15492 0.15567 0.032375 -0.35751 -0.025689 -0.13116 0.060528 -0.022049 0.44538 0.37245 0.26833 0.0044483 -0.58724 -0.3244 -0.24368 -0.11925 0.44871 0.033963 0.17173 0.020088 0.12571 -0.15076 -0.15208 -0.19954 -0.11449 0.15569 1.9604E-4 0.71857 0.16378 -0.058912 -0.25435 -0.12392 0.20148 -0.39572 0.24342 0.44766 -0.13582 -0.25844 0.26701 0.17309 -0.06707 0.092422 -0.12572 -0.4475 0.29428 0.33114 0.47814 0.046503 -0.11834 -0.050596 0.065199 -0.17494 0.039772 -0.18357 -0.070028 -0.081609 -0.14792 0.084689 -0.15677 0.33572 0.022125 -0.085137 -0.021979 0.028803 -0.10434 -0.42829 0.0036104 0.27201 0.29527 0.019088 -0.073511 -0.13452 0.33057 -0.321 0.058441 0.090873 -0.10634 0.20594 -0.33946 0.016337 -0.18909 -0.21378 -0.11328 -0.13281 -0.030741 0.10742 -0.42908 -0.44691 -0.18672 -0.12481 -0.18565 -0.54993 0.10944 0.32923 0.67037 -0.24463 0.24863 -0.13344 -0.35077 -0.1066 -0.11605 0.004438 -0.24533 0.26892 0.27407 0.51159 -0.058218 -0.16296 0.10971 -0.0013053 0.15202 -0.2042 0.06235 0.24359 0.35459 0.19957 0.30532 -0.28034 -0.26231 0.11742 -0.26537 -0.26092 -0.075385 -0.0043277 0.15291 -0.043103 0.042629 -0.064039 0.29903 -0.075631 0.03059 -0.3514 0.3681 0.24405 -0.19992 -0.25883 0.17433 0.089687 -0.34028 0.17085 -0.15341 -0.047445 -0.71809 -0.26841 0.0067999 -0.35249 0.004929 0.34421 -0.021574 0.071792 -0.087595 0.062063 -0.12775 -0.29035 -0.39088 -0.19836 -0.23792 -0.127 0.45128 0.045027 0.1691 -0.022951 0.33622 0.17538 0.015112 0.13377 -0.25046 0.015686 -0.14563 -0.17888 -0.016689 -0.17168 -0.23669 0.12894 -0.065987 -0.053291 0.22393 -0.2551 0.30671 -0.15147 -0.0047962 0.15224 0.052137 -0.38599 0.040798 0.078412 0.040346 -0.20741 0.13695 0.03923 0.166 -0.13922 -0.25568 0.071728 -0.18636 0.16201 0.069306 0.025546 0.21481 -0.11844 0.21423 0.26189 -0.28903 -0.32416 -0.21857 0.44948 -0.014149 -0.20212 0.021101 -0.28038 0.091909 -0.29373 0.022756 -0.36172 0.027923 -0.0038512 -0.25815 0.42222 0.014679 0.16108 -0.042423 0.32253 0.18216 0.031471 -0.34386 0.065688 0.10494 -0.1988 0.31202 0.19355 -0.096755 -0.11398 0.020251 -0.17322 -0.20733 -0.038236 0.14025 0.13248 -0.051494 -0.15576 0.58012 0.45645 0.24491 0.11259 -0.45898 -0.13367 0.15759
dollar -0.073575 -0.13454 0.30156 0.2499 -0.18605 -0.50856 -0.080369 -0.15805 -0.11275 -0.062142 0.10493 0.21129 -0.19815 0.0034532 0.051169 0.46852 0.3419 0.2696 0.10674 -0.56838 -0.5123 0.46978 -0.038686 0.23919 -0.26726 0.063118 0.19437 -0.4762 -0.034231 0.21366 -0.31805 0.13731 0.40537 0.13015 0.10367 -0.263 0.23418 -0.18553 -0.087763 0.20979 -0.19767 0.13159 0.36801 0.0051252 -0.45692 -0.21837 -0.33038 -0.3306 0.31506 0.30593 -0.26376 -0.03493 0.14877 -0.096068 0.18593 0.048835 -0.38638 0.039279 0.059263 -0.09341 -0.14368 0.86219 0.36453 0.16331 -0.23136 -0.52138 -0.28166 -0.25112 -0.13636 0.37487 0.12122 0.091533 -0.2466 -0.28966 0.14397 -0.18548 -0.2331 -0.17928 -0.3101 -0.18475 0.066326 0.35001 0.41852 0.04133 -0.41437 0.059132 0.15424 0.56375 -0.33149 0.12605 -0.20348 -0.093508 -0.27847 -0.063982 -0.058566 0.085058 0.043985 -0.11525 -0.09013 -0.099505 0.060938 0.020396 0.074321 -0.35577 -0.3808 -0.28601 -0.1314 0.21825 0.12235 0.014558 -0.1083 0.34298 -0.51046 -0.074317 -0.44935 -0.19821 -0.30773 -0.40169 -0.12512 0.17048 0.098693 0.07394 -0.12821 0.13894 -0.29455 -0.053187 0.012405 0.07857 -0.43344 -0.10845 -0.10755 0.53738 -0.091991 0.12852 0.10198 -0.30963 0.18572 -0.069927 0.29954 0.045274 0.035013 -0.33623 -0.17484 0.079241 -0.40856 0.014822 -0.12574 0.064428 0.12373 0.41712 0.085913 -0.42746 0.3747 -0.33216 -0.087364 -0.012056 0.14917 0.11023 -0.024994 0.20387 -0.35618 -0.21917 0.36986 0.31852 0.15876 0.10034 -0.17228 0.041675 -0.47503 -0.0099691 0.20508 0.01987 -0.45865 -0.024288 0.12789 -0.30876 0.088991 0.0065627 0.31859 0.17233 0.44001 -0.23134 0.33506 -0.35537 -0.24679 -0.30015 -0.2488 -0.18422 0.39506 -0.014654 -0.034624 0.39705 -0.15795 -0.10989 0.10434 -0.06315 -0.06806 -0.10003 -0.032183 -0.4018 0.019255 -0.061939 0.17423 0.10622 0.0013827 0.16232 0.12249 0.016706 0.056675 -0.20705 -0.21537 0.16397 0.066985 0.18934 0.069294 0.35495 -0.28444 -0.024289 0.094904 -0.19007 -0.21514 0.031018 0.29872 0.16559 -0.28468 -0.28791 -0.1019 -0.064522 -0.15502 -0.046379 0.016616 -0.41874 -0.12687 0.063203 0.37877 0.19188 0.19701 0.32003 0.16299 0.18179 0.18574 0.098829 0.085116 -0.03024 -0.06136 -0.055642 -0.010328 0.42477 -0.0046975 0.37608 -0.51407 -0.1816 -0.31478 -0.047772 0.13311 -0.10116 0.19997 0.076488 -0.14552 -0.27533 -0.18468 -0.0082222 0.10217 -0.05376 0.34457 0.25634 -0.35715 0.091136 -0.11078 -0.16539 0.11934 0.055257 0.18605 -0.41128 0.067279 0.47186 0.26782 -0.50133 0.16438 -0.10598 0.04693 -0.019758 -0.045739 -0.56717 -0.010948 0.084826 -0.080653 -0.10048 -0.011907 0.14914 -0.10825 0.1277 -0.094414 0.14992 0.016259 -0.15664 0.16763 0.045709 0.0705 -0.22651
example -0.039963 -0.0094133 -0.16043 0.057143 -0.030416 -0.043364 -0.033406 0.051054 -0.19847 0.10587 0.091597 -0.17917 0.0090379 0.094286 0.13276 -0.047655 -0.24923 -0.030029 -0.13426 -0.079237 -0.066014 0.20873 0.35932 -0.050629 0.18128 -0.35194 0.13808 -0.0016518 0.068033 -0.024719 0.019414 0.09888 0.088049 0.11933 -0.09715 -0.01024 0.035076 -0.20971 -0.096328 -0.086742 0.093461 0.13979 -0.021903 -0.10766 0.060934 -0.089 -0.063078 0.12527 -0.069631 0.25927 -0.10957 0.21269 -0.30463 0.10398 -0.0070825 0.080799 -0.13389 0.060885 0.18629 0.098261 -0.1524 0.072132 0.23406 0.21613 -0.16569 -0.22004 0.14985 -0.31259 0.086731 0.11407 0.0050408 0.0041807 0.14396 -0.23573 -0.16811 -0.18314 -0.061495 0.094617 0.20338 -0.11745 0.072662 -0.023168 -0.061798 0.071045 -0.20026 0.1463 0.047549 0.080951 -0.045597 -0.013156 -0.038546 0.1277 0.15872 -0.25615 0.095864 -0.064041 -0.044853 -0.095493 -0.024955 0.019994 -0.051892 0.075264 0.064221 -0.063872 -0.12748 -0.045429 0.12161 0.0097012 0.20954 0.036004 0.13269 0.0049625 -0.311 -0.0044912 -0.038129 -0.18492 -0.10587 -0.16318 0.17384 0.25752 -0.040865 0.1362 0.032364 -0.19579 0.25279 -0.045077 -0.14909 0.084484 -0.22558 0.097172 0.005289 0.091637 -0.15502 0.095238 0.034766 0.03373 0.02695 -0.015339 -0.20569 0.0074322 -0.049727 -0.0018773 -0.081265 0.020838 -0.10089 -0.12221 0.0021499 0.063644 -0.069964 0.27352 -0.010537 -0.11201 -0.18305 0.10979 0.0052685 0.068991 -0.11664 0.15933 -0.20603 -0.023683 -0.14831 0.024111 0.13918 0.23262 0.084093 -0.040367 -0.15351 0.11061 0.080568 -0.09778 -0.034991 0.027542 -0.11571 0.059181 -0.030886 0.032869 0.1332 -0.022788 0.15795 -0.029357 0.037792 -0.010493 0.031195 -0.068032 -0.25 0.067847 0.069085 0.28281 0.20511 0.030654 -0.071144 0.27606 0.12041 -0.28816 0.18595 -0.174 0.089471 -0.10233 -0.25811 -0.073024 -0.026191 0.10245 0.10475 -0.012728 0.11841 0.016356 -0.086814 0.029518 -0.17509 -0.16494 0.11964 0.21352 -0.0041347 0.19279 0.16826 -0.09559 -0.01917 0.20586 0.17225 -0.18104 -0.20229 0.067595 -0.082444 0.19602 -0.023251 -0.030263 -0.020095 0.0039538 -0.096409 0.080166 -0.10266 0.081659 0.087839 0.1348 0.19838 0.037016 -0.051804 -0.00349 0.24902 -0.14607 0.19646 0.059989 -0.13607 0.020502 0.23589 -0.051091 -0.043134 0.12121 0.0094183 0.01665 -0.11584 -0.039906 -0.045792 0.11074 0.22961 -0.026874 0.1267 0.10482 0.25612 0.047783 -0.17517 0.022627 -0.015906 -0.043963 -0.12669 -0.10442 0.026308 0.0893 -0.21843 0.098094 -0.054646 -0.015829 -0.10903 0.035119 0.028219 0.08688 0.044741 0.2015 -0.2019 -0.12744 0.059697 -0.18826 0.043301 0.13625 -0.18326 0.029139 -0.15115 0.033332 -0.045122 0.16479 -0.024317 -0.06519 0.0030962 -0.014546 0.39234 0.061136 0.18155 -0.11133 -0.15679 0.12392
journal -0.43339 -0.043133 -0.083199 -0.026367 -0.12479 0.071799 0.35971 -0.01811 -0.23511 0.59451 0.46003 -0.30629 -0.49365 0.35523 -0.23862 0.17487 0.216 -0.25747 0.19736 -0.034557 -0.01198 -0.08072 -0.052456 0.02341 0.27292 -0.30686 0.36426 0.31777 0.13505 0.04506 0.19395 0.23017 -0.030216 0.5286 0.12512 0.17447 0.27578 -0.33898 0.24881 0.32626 0.17172 -0.16361 -0.20331 0.14997 0.50431 0.12368 0.098664 0.26294 -0.33219 0.21386 -0.47706 -0.3016 -0.1185 0.28697 0.24221 -0.12569 0.28659 0.29074 0.0087004 0.28037 -0.30162 0.5627 -0.10194 0.3054 -0.23267 -0.27842 0.20267 0.0097312 -0.26697 -0.070329 -0.24236 -0.27893 -0.027906 0.14028 0.14925 -0.10192 -0.013279 0.10066 -0.34004 -0.41282 0.14382 -0.063827 0.19726 -0.20046 0.13149 0.48793 -0.27834 0.13052 0.29499 0.0044585 0.16668 -0.025631 0.41704 0.039486 0.13931 -0.05348 0.20751 0.030635 -0.0033757 -0.065596 -0.097092 0.33144 -0.10258 0.21541 0.26858 -0.15515 0.14074 0.14345 0.52947 -0.047247 -0.037221 0.36969 -0.35179 0.17587 0.085986 0.073358 -0.083699 0.42326 -0.44039 -0.15168 0.013138 -0.14133 -0.14627 0.096995 -0.18403 0.060339 -0.32249 -0.37014 -0.25306 -0.21043 0.0085443 0.23253 0.33881 0.3347 0.18628 0.096148 -6.6519E-4 -0.012515 -0.07479 -0.20892 -0.0012665 -0.31191 0.14418 -0.079927 -0.019799 0.093452 -0.57068 -0.24346 0.24375 0.64766 -0.35825 -0.15838 0.13759 -0.056373 0.27562 0.13635 0.34424 0.15631 -0.1048 0.2004 0.11358 0.22921 8.2623E-4 -0.18347 -0.22378 0.088463 0.09924 0.18554 0.18559 0.18468 0.24813 0.38422 -0.34523 0.38514 -0.41021 -0.19716 0.16547 0.10026 0.48472 -0.055082 -0.17365 0.013512 0.35634 -0.57565 0.24604 0.15831 -0.25265 0.052774 -0.404 -0.18563 0.098771 0.088115 -0.10218 0.020806 0.12575 0.011364 -0.027129 0.35434 0.077624 0.21463 -0.08261 -0.036963 -0.21269 -0.014764 -0.31664 -0.28222 -0.42893 -0.077693 0.36811 -0.19594 0.093019 0.23117 -0.064512 -0.25792 -0.19341 0.12802 0.39576 0.14293 0.19256 -0.24935 -0.159 0.21345 0.21698 0.3247 0.20792 0.29447 0.052327 0.017877 -0.037264 -0.097227 -0.22603 -0.1685 0.32586 -0.20186 0.18259 -0.11644 -0.51329 -0.0076887 0.51675 0.087084 -0.28371 -0.19914 0.27544 0.52401 0.17168 -0.074002 0.16555 -0.12667 0.083585 0.23134 -0.31643 -0.12607 0.090602 0.30867 0.15315 -0.088221 0.12493 0.085712 0.35444 0.31065 -0.15505 0.034411 0.074833 -0.092636 0.19312 -0.36372 0.14461 0.19869 -0.082048 -0.1861 0.44428 -0.38243 0.039232 0.099576 -0.0077561 -0.22784 -0.0010699 -0.029741 -0.014535 -0.13831 -0.013605 -0.33822 0.12318 0.25335 -0.0023883 0.25655 -0.016418 -0.099891 -0.17638 0.56988 0.23426 0.2368 -0.15143 0.37062 0.070399 0.19935 0.016093 -0.0069166 -0.32682 -0.23806
laundering 0.072165 -0.2055 -0.19089 0.45452 0.27692 -0.58392 0.41035 -0.12017 0.0028443 -0.057048 0.020645 0.40426 -0.29145 -0.14 -0.064681 0.28084 -0.12236 -0.013523 -0.14024 -0.067804 -0.53053 0.18261 0.0072618 -0.082846 0.056009 0.54034 -0.058948 0.0071523 -0.35612 0.48829 -0.1187 -0.027253 -0.12339 0.22125 -0.029449 -0.058291 -0.23607 -0.044458 -0.12772 0.12988 -0.096833 0.16892 0.23789 -0.26235 -0.2177 -0.7424 -0.22841 0.14172 0.28771 0.34825 -0.66918 -0.24352 -0.073917 -0.028372 0.029992 -0.2727 -0.14415 0.27011 -0.13301 0.12742 0.41923 0.19132 0.15829 -0.053812 -0.083302 -0.21049 -0.18962 -0.34033 -0.2391 -0.18175 -0.36452 0.62388 -0.025339 -0.12912 0.30818 0.11191 -0.31499 -0.37878 -0.087253 0.37496 -0.24599 0.1447 0.27917 -0.18995 -0.14942 0.13785 0.21693 0.093377 -0.15349 -0.15877 0.021347 0.1052 0.39957 -0.20585 0.30366 0.13025 -0.08411 -0.20619 -0.3196 0.30758 -0.46319 0.009976 0.24269 -0.28062 -0.2169 0.5176 0.11062 -0.027259 0.38831 0.3395 -0.32777 0.18713 -0.82501 -0.07866 -0.46848 0.043321 -0.053373 -0.51201 0.26178 -0.34121 -0.15002 -0.20743 -0.30342 -0.22354 0.48717 0.3716 -0.55317 -0.17651 0.068301 -0.038774 -0.018931 -0.13885 -0.26005 -0.25367 0.052045 -0.38927 -0.2733 0.38922 -0.02071 -0.23717 -0.017316 -0.11 -0.18319 0.132 -0.087695 0.16398 -0.054483 0.17815 0.16978 0.23585 -0.23052 -0.34835 -0.15755 -0.2207 -0.22641 -0.31828 0.19384 0.14335 -0.57443 -0.030082 -0.30693 0.21355 0.205 0.2867 -0.30486 0.2189 -0.16553 -0.090342 -0.011413 0.30021 -0.14196 -0.244 -0.26145 0.15551 -0.63182 -0.25876 0.24395 -0.19236 0.3358 0.15089 0.20341 -0.14697 -0.014598 -0.15581 0.021559 0.47621 -0.35985 -0.09133 -0.48858 0.469 -0.13041 0.51443 -0.064162 -0.049191 0.073464 0.18409 0.35528 0.010702 -0.024808 0.098268 0.27721 0.088767 0.25081 -0.46653 -0.037608 0.31339 0.05696 0.27827 -0.13506 -0.31712 0.0085187 -0.0060453 0.35295 0.70093 -0.22665 -0.13426 0.20186 0.48851 0.4503 -0.39941 0.138 0.24342 0.06378 0.037384 0.053895 0.079095 -0.091837 -0.12729 -0.39851 0.076972 0.19572 -0.19993 0.065934 0.042173 -0.19387 0.34015 0.066593 0.22071 -0.060833 0.080286 0.27486 0.26319 0.36239 0.16737 0.41223 -0.10267 -0.41994 -0.06749 0.0055497 0.78078 -0.55391 -0.36064 -0.149 -0.27793 -0.52433 0.096881 0.14819 0.64783 -0.35945 -0.23467 -0.52568 0.064261 -0.024404 0.32177 0.36863 -0.042467 -0.34789 0.12678 0.22262 -0.13331 0.29134 0.16088 -0.081229 0.087085 -0.2754 -0.071003 0.13528 -0.3107 -0.34564 -0.11153 0.088305 -0.16426 -0.74177 -0.35772 -0.17731 0.10655 0.19407 -0.13416 0.21473 -0.33491 0.60529 -0.10219 -0.035977 0.088421 0.078048 -0.39671 0.42678 -0.11424 0.17792 -0.06699
hotel -0.31809 -0.40667 -0.3739 0.36798 0.0044904 -0.28054 -0.0053176 -0.077112 -0.1565 0.16204 0.093746 0.09117 0.051785 -0.036161 0.2207 0.35042 -0.08713 0.095875 -0.016578 -0.14601 -0.34133 -0.13477 -0.18221 0.18077 -0.17384 -0.13578 0.19006 0.030714 -0.058059 0.057384 -0.06475 -0.1045 0.31921 0.14084 0.10196 0.13688 -0.09951 0.17172 -0.22436 0.17315 -0.11687 0.19392 -0.0027349 -0.65358 -0.05694 -0.071961 0.082727 0.28647 -0.20677 0.036542 -0.29182 -0.12941 -0.032225 0.25922 0.0014858 -0.10141 -0.1287 -0.18395 -0.069789 -0.025688 -0.21339 0.12889 0.037716 0.38139 -0.5683 -0.010639 -0.10811 -0.29784 -0.33541 -0.23426 0.13341 -0.039469 -0.15637 -0.15507 -0.019607 0.15469 0.076467 -0.11391 0.02499 -0.15572 -0.018014 -0.14159 0.14305 -0.16672 0.14909 0.050704 0.21619 0.14408 0.18724 0.0085716 -0.2024 -0.084103 0.10021 -0.20676 -0.012882 -0.33395 -0.040621 -0.063076 0.25617 0.37893 -0.3052 -0.088006 -0.18764 0.14742 -0.31631 -0.011127 -0.034984 -0.30891 0.23449 -0.041911 0.029459 0.17102 -0.29804 -0.2393 -0.46317 -0.017602 0.064113 -0.32925 -0.083944 -0.04761 -0.15141 0.15338 0.18429 0.089829 -0.039471 -0.16402 -0.075275 0.16549 -0.0028309 0.15986 -0.28428 0.10607 0.035 -0.13294 -0.14181 0.33698 0.077837 -0.061453 -0.39959 -0.16434 -0.10969 -0.16098 0.22708 -0.27051 0.0088111 -0.086006 -0.097815 0.14265 0.080732 0.53503 0.11388 -0.20476 -0.18649 -0.18182 -0.19024 -0.30342 -0.17062 -0.016241 0.26333 0.19344 -0.26282 0.13214 0.27702 -0.04711 -0.38669 0.18995 -0.11989 0.14175 0.20162 -0.19843 4.2574E-4 -0.097201 -0.26113 0.1377 -0.27926 -0.29703 0.017684 0.054275 -0.14488 0.060582 0.47486 0.084186 0.20281 -0.065399 -0.53015 0.28671 0.036575 -0.011104 -0.28207 -0.31668 -0.14347 -0.29903 -0.044696 -0.098965 0.097694 -0.22792 0.12838 0.12353 0.14392 -0.14242 0.24926 0.41933 -0.16375 0.37873 -0.2091 -0.0022713 -0.147 -0.049833 -0.046932 -0.32182 -0.076054 -0.12309 0.046886 0.1907 0.057135 0.076017 -0.065201 0.18162 -0.25013 0.074702 0.1984 -0.15841 -0.088862 0.35989 0.2326 0.081586 -0.36704 0.25376 -0.21654 -0.27205 -0.23213 -0.22315 -0.15601 0.14991 -0.2716 0.0086838 -0.21911 0.13386 0.075344 -0.0090638 0.013435 -0.1194 0.020864 -0.1854 0.47194 -0.099224 0.053724 -0.20528 -0.23229 -0.24889 -0.11489 0.15584 0.12294 -0.15123 -0.28091 -0.20339 0.20573 -0.08129 -0.098595 0.0017559 -0.35042 -0.13804 0.024286 0.31744 0.17361 0.62896 -0.14699 -0.25247 -0.19402 -0.50043 0.23066 -0.052396 -0.22206 -0.44587 0.044024 -0.13184 0.18447 -0.34776 0.47931 0.17436 0.16267 0.018132 -0.25982 -0.096124 -0.35156 0.20723 0.013598 0.24919 -0.30266 0.3088 0.0031708 -0.054891 0.04424 0.25381 0.26845 -0.20244 0.086258 7.4417E-4 0.37209 -0.13144
term -0.17826 0.0092096 -0.25572 0.018271 -0.06524 -0.056351 0.019277 0.22459 -0.053386 0.27847 0.19662 -0.063407 0.014021 0.006034 0.099191 0.0016392 -0.10723 0.0010125 -0.13225 -0.31934 -0.2469 0.24859 0.06993 -0.026232 0.029599 -0.22639 -0.12466 -0.25668 0.1179 0.068144 -0.23062 -0.094308 0.357 0.15155 0.14598 0.35503 0.0041573 -0.3038 -0.19938 -0.23883 -0.04904 -0.090412 -0.47108 0.40103 -0.19498 -0.27035 0.28132 -0.08379 -0.1026 0.48982 0.029566 0.11179 -0.40953 -0.022277 0.24037 0.30328 -0.095501 -0.0016477 0.23439 0.14443 0.052532 0.28509 -0.37464 0.26189 -0.18819 0.001892 0.16125 -0.28878 0.21899 0.25028 -0.23958 -0.081095 0.29147 0.3308 -0.0078623 -0.10313 0.038718 -0.20901 -0.012718 -0.40138 -0.052391 -0.26476 0.33066 0.35655 -0.14626 0.15809 0.079111 -0.085609 -0.31786 0.035703 0.25574 0.006467 0.26779 -0.079678 0.084978 0.22729 0.0042034 -0.38012 -0.1058 0.13008 -0.016078 0.30879 -0.053042 0.1186 -0.27972 -0.10924 0.079748 0.3741 0.3124 -0.067578 -0.12436 0.058447 -0.027898 -0.051266 0.11678 -0.035756 -0.33319 -0.20595 0.15453 -0.067804 -0.040808 -0.11192 -0.22589 0.050841 0.076301 -0.20314 -0.18551 0.026772 0.012157 -0.11365 0.22315 0.2988 -0.19202 0.039742 0.10875 0.10405 -0.51548 0.064563 0.36196 0.11755 0.063 -0.052419 0.087771 -0.039718 -0.064939 0.011205 -0.34439 0.22693 0.28381 0.1753 0.14661 -0.033207 0.21756 -0.06608 -0.19374 0.25604 0.25668 0.45818 -0.5126 0.049007 -0.14886 -0.15243 0.36448 0.3623 -0.08734 0.58918 0.30339 0.25611 -0.082859 0.30033 0.20053 -0.22642 0.042165 -0.089422 0.13474 -0.0074142 -0.090104 -0.090922 0.0078473 0.19468 0.13944 -0.18378 0.049353 -0.019436 -0.14332 -0.19562 -0.27021 0.2723 0.21336 0.30248 -0.062869 0.40881 -0.34886 -0.20606 0.27443 -0.081663 -0.090663 -0.00583 -0.19896 0.05281 -0.1464 0.32278 0.030408 0.020437 -0.26568 0.083719 -0.28719 0.034313 0.00147 -0.54381 -0.29804 0.48104 0.041266 0.20774 0.11269 0.30482 0.018628 -0.2296 0.035538 0.066027 0.003605 -0.095538 -0.066051 0.12932 0.05218 0.10067 0.2291 -0.38011 -0.099233 -0.049092 -0.041077 0.070032 0.065204 0.29892 0.22422 -0.069446 0.33993 0.12389 0.22314 -0.15824 0.18602 0.34511 -0.015594 0.17363 0.093543 -0.14485 -0.29649 -0.016066 0.0091065 0.19161 0.037947 -0.25177 0.038475 -0.14715 0.054596 -0.20047 0.11304 0.075315 0.42337 0.20155 -0.12832 -0.030939 -0.16281 -0.27733 0.44309 0.064191 -0.16593 0.11128 -0.16897 -0.098957 0.57211 -0.15731 0.2246 -0.24871 0.2612 -0.010834 -0.022671 0.23372 -0.20522 0.10783 -0.091278 -0.044568 0.1499 0.21066 -0.11048 -0.044098 0.065877 -0.15745 0.16046 0.34671 0.13851 -0.022395 0.10191 0.09683 0.34684 -0.17924 0.19877 -0.11017 -0.31999 -0.052927
