418 100
plane 0.51024 0.80268 0.13463 -0.68274 0.34493 -0.35101 0.14765 -0.45201 0.36116 -0.17931 0.67155 0.28885 -3.152 0.37609 0.45345 -0.43921 0.82776 0.25782 -0.21001 -0.1728 -1.0583 -1.5234 0.53931 -0.42707 0.57312 0.27553 -0.27147 -0.060981 0.050027 0.70603 0.15352 -0.43292 0.18506 -0.61713 -0.16209 0.35256 0.056157 0.67158 -0.20046 0.025272 0.30315 0.88112 -0.19026 -0.50575 1.2012 0.046989 1.2998 -0.54165 0.031408 0.59511 0.22744 0.99771 0.36889 -0.20103 -0.54855 0.046776 0.36615 -0.21453 0.022512 0.045516 0.72832 0.67255 0.66824 -0.056344 -0.52754 -0.34715 -0.39268 -0.266 0.0057715 -0.031559 -0.21764 0.25767 0.33666 -0.27282 0.22819 -0.20238 -0.7508 -0.10013 1.5154 -0.46055 1.2142 -0.22663 0.35819 0.47946 0.32141 -0.057474 -0.10961 -0.29028 -0.39545 -0.26244 0.24715 0.15912 -0.47546 0.32058 -0.52057 0.20248 -0.36212 0.46865 -0.51741 -0.32568
stupid 0.44987 -0.18696 0.39637 0.91716 -0.17937 0.17439 0.431 0.16776 -0.044401 0.77066 -0.056592 -0.58132 -4.3626 -0.27474 0.52926 -0.060656 -0.29354 -0.075113 -0.0073105 -0.45053 -0.30103 0.097404 -0.20537 0.02929 0.89349 0.36944 -0.11573 -0.45368 -0.29655 -0.053148 -0.050945 -0.18666 -0.42012 -0.50267 -0.38616 0.33654 -0.30314 0.75429 0.083164 -0.077278 -0.51771 0.10216 -0.11594 -0.14914 -0.27892 -0.01925 0.28719 0.59496 -0.26178 0.34247 -0.20982 0.73558 0.072253 -0.66206 0.68141 0.42132 -0.98179 -0.14065 -0.041834 -0.091467 0.044978 0.30837 0.6291 0.19303 -0.3594 -0.27723 -0.29803 0.7696 0.080043 0.47986 -0.67698 0.53488 -0.43694 -0.26392 0.06526 0.38045 0.27173 -0.067139 -0.45864 -0.29369 1.8953 0.54154 -0.086615 -0.52302 0.14205 0.15989 0.01804 -0.41172 -0.35447 -0.47809 -0.60178 0.11272 -0.23414 0.4677 0.5119 0.58019 -0.38587 -0.31069 0.12887 0.019732
egg 0.21389 0.1084 -0.24707 0.57776 0.44121 0.46844 0.26947 -0.065413 0.091404 0.0145 0.33326 0.48553 -2.844 -0.38085 -0.92268 0.36452 1.2497 -0.43029 -1.5647E-4 -0.19035 0.23102 0.55025 -0.68114 0.29053 0.33378 0.12476 -0.092495 -0.55379 0.56637 0.56936 0.5028 0.48336 -0.085052 -1.4455 -0.048281 -0.57172 0.18319 0.33472 0.16334 1.0856 0.33876 -0.043409 -0.40389 0.22792 0.24415 -0.032615 0.42385 0.95817 0.47526 -0.17253 -0.26481 0.39578 0.11744 -0.52046 0.24289 -0.013141 0.96344 -0.0078005 -0.21084 0.13501 -0.95795 -1.0101 0.17822 0.32852 -0.47218 -0.59394 0.2813 0.021818 -0.60357 -0.070153 0.37665 -0.7483 0.055994 0.54685 -0.031629 0.35664 -0.25327 -0.21022 0.68887 0.59449 1.5136 0.62194 -0.99061 0.49072 -0.1212 -0.4132 0.44733 -0.22828 -0.51408 -0.26523 -0.80345 0.17859 -0.085131 -1.0294 0.84355 -0.043586 -0.69308 0.62341 -0.44687 0.20279
year -0.11875 -0.16336 0.39977 -0.16373 0.30635 0.11967 0.023323 0.58507 -0.49838 -0.1269 -0.53369 -0.4613 -4.5384 0.40858 0.39018 0.4618 -0.30656 0.33153 -0.70341 0.015387 -0.19385 -0.036458 0.26966 -0.084315 0.063855 0.19791 -0.069054 -0.90893 0.41266 -0.56836 0.13396 0.050256 -0.020354 0.36804 0.48152 0.76248 1.0306 0.12738 0.18518 -0.45402 -0.66237 -0.19069 0.025602 -0.025887 -0.37777 -0.37265 -0.35171 -0.57472 -0.030836 0.29533 -0.11449 -0.12763 0.37365 0.39702 0.61664 0.42974 0.060933 0.085524 -0.1392 -0.0096087 -0.23161 -0.11534 0.35827 -0.15196 -0.074248 0.34132 -0.62195 -0.44537 0.036822 -0.44349 0.32233 -0.24644 0.57874 0.5301 0.17805 0.20024 -0.095681 0.0070018 0.078048 -0.014016 2.442 -0.6497 0.59625 0.52919 0.081527 -0.081759 -0.30842 0.34468 -0.052239 -0.21424 0.011086 0.45669 0.15838 -0.12706 0.34743 -0.3303 0.073878 0.31655 0.23856 -0.55283
psychiatry -0.075371 -0.88768 0.60594 0.64305 0.067756 -0.044747 0.46783 -0.0769 -0.16763 -0.78456 -0.51785 0.16168 -0.68072 0.18203 0.46304 -0.82521 0.42379 0.31856 -0.083825 -0.34343 0.67951 -0.19469 0.060879 -0.070314 -0.6548 1.0993 -0.30283 0.45208 -0.36557 0.40819 0.064464 -0.92024 -0.14815 -0.13667 -0.27618 0.20183 -0.25827 0.98224 -0.38367 0.11388 0.93358 -0.30963 0.31262 -0.73852 -0.13207 0.96233 -0.87755 0.24099 0.087165 -0.080569 1.2682 0.51918 -0.636 0.58916 0.050222 -0.19739 -0.24213 -0.41346 -0.32536 0.68198 -0.069013 0.11707 -0.1872 -0.14001 -0.32638 0.01589 0.079002 -0.1722 0.094075 -0.042984 -0.14246 0.65135 0.95459 0.0037543 0.28629 0.37927 -0.031413 -0.099791 0.023671 -1.1191 -0.6124 0.87463 0.5264 1.0867 -0.58513 -0.4113 0.34618 -0.20228 0.11206 0.10462 -0.43612 0.18567 0.83788 0.12406 -0.21699 -0.025768 0.60694 0.13345 0.42889 0.48936
asylum 0.11356 0.096677 -0.9011 0.40929 0.29647 -0.677 0.75722 0.24971 0.029425 -0.43628 1.0182 -0.17917 -1.6017 0.34386 1.0528 -1.1697 -0.27594 -0.46746 -0.34445 0.22467 0.16041 -0.47821 0.91092 -0.30196 0.21498 0.39368 0.73586 0.039289 -0.022214 -0.16768 0.46004 -0.60852 0.24717 -0.51961 -0.11688 -0.026237 -0.028246 -0.30541 -0.41488 -0.23934 -0.12435 -0.64747 1.0338 -1.4549 0.42853 1.0121 -0.64692 -0.21196 0.64014 0.075624 0.54973 -0.10108 -0.36705 0.026775 -1.3493 -0.32333 -0.13998 0.52828 0.2489 0.93297 0.43257 1.1457 -0.49668 0.12279 0.28375 0.4163 0.46584 0.59275 0.50981 0.3592 -0.37911 0.36849 0.26322 -0.0038693 0.96062 -0.3187 -0.24698 0.07569 0.4591 -0.036542 1.4822 0.3306 1.7165 0.95286 0.44107 -0.25605 -0.20072 -0.089423 0.47466 -0.027274 -0.95727 -0.44547 0.19988 -0.11835 -0.051274 0.37252 0.49971 -0.19069 0.59172 -0.17944
manslaughter 0.027672 -0.054017 -0.36386 -0.41565 0.043466 -0.9322 0.31996 -0.39335 0.23548 -0.40465 0.54425 -0.64535 -1.1995 -1.078 1.0675 -1.2626 -0.10539 1.0737 -0.05953 0.57039 0.05868 -0.66379 0.58347 0.51359 -0.17718 1.955 -0.058312 -0.67872 -0.86576 0.87981 1.1756 -0.026047 0.35982 -0.65999 -0.78429 0.56008 -0.63716 -0.74186 0.45518 -0.037577 0.71609 1.0353 -0.39102 -0.4551 -0.44006 -0.26072 0.06193 0.71402 0.20145 0.23979 0.74143 -0.39703 -0.11379 0.60519 0.73523 0.59792 0.75879 0.19851 -0.7783 1.8952 -0.15476 0.41349 -0.24677 -0.13345 0.42062 0.82026 0.66938 -0.11128 0.35962 0.62074 0.60716 -0.58281 -0.61964 0.012477 0.41313 1.2763 -0.46679 -0.16949 0.23291 0.78494 -0.378 -0.080065 0.30423 0.99638 -0.41915 -0.62007 0.0042072 -0.66583 0.2891 0.99548 0.047472 -0.65855 0.56054 0.052682 -0.87612 0.17388 0.46781 0.18867 -0.035855 -0.62965
music -0.80649 -0.39268 -0.39776 -0.39031 0.26532 0.36703 0.45464 -0.1371 0.28113 -0.99545 -0.4268 0.23418 -3.8661 -0.19619 -0.12919 -0.23208 -0.38263 0.32635 0.50494 0.039873 -0.23272 0.39732 0.49643 0.53726 0.59497 -0.45148 -0.65235 -0.39041 0.40713 -0.26468 -1.1703 -1.199 -1.5723 0.072412 0.81403 -0.0731 0.24124 -0.57585 -0.36444 -0.56238 -0.51142 -0.035958 0.35462 -0.5079 0.8288 -0.17275 0.0044448 -0.15759 -1.3288 -0.47055 -0.50211 -0.096437 -0.15263 0.82826 -0.024668 -0.1949 -0.41108 0.0013853 0.61286 -0.28698 -0.080492 -0.58412 -0.08937 0.18781 -0.3638 -0.27821 -0.82205 0.63795 -0.55649 0.44869 0.030783 0.070808 -0.41416 -0.11074 -0.064304 -0.41294 0.081669 0.39343 -0.075498 -0.19167 1.6983 -0.084906 0.19374 0.091055 -0.48926 0.059096 -0.013657 0.71465 0.82827 -0.28252 0.58285 0.59391 -0.039595 -0.29785 -0.56135 0.49681 0.74645 -0.22187 0.11207 -0.37571
record -0.35847 0.52768 1.0673 -0.98614 0.3069 0.24031 -0.066825 -0.32988 0.054025 -0.77147 0.33667 -0.015681 -3.1767 -0.14892 0.014169 0.19811 -0.13765 0.61746 0.13338 -0.30616 0.057918 0.036011 1.0064 -0.42168 -0.11076 -0.94697 -0.097973 -0.72621 -0.011368 0.20731 0.64408 -0.54796 -0.44772 -0.028341 0.90496 0.24213 0.44405 -0.5565 -0.074873 -0.64536 -0.71533 0.11425 -0.50944 -0.41563 -0.085546 -0.41318 -0.064158 -0.02482 -0.057198 0.058778 -0.12815 0.70904 0.072961 0.8246 0.62066 0.13225 0.0073422 0.26714 -0.13098 -0.37322 -0.33887 0.15535 0.02212 0.061413 0.44833 0.83619 0.32718 0.46495 -0.34298 -0.65092 -0.21751 0.1865 -0.27223 0.79418 -0.22276 -0.32544 -0.11262 -0.59425 0.10619 0.53828 1.0556 -0.086081 0.43869 -0.0023104 -0.41649 0.29056 0.45088 -0.0098423 0.28612 -0.43077 -0.52535 -0.085321 0.046509 -1.1015 0.019293 0.14018 0.63434 0.48194 0.067135 -0.2652
energy -0.12716 0.34951 0.39044 -0.65118 0.044022 0.28834 -0.12658 -0.55655 0.14792 -0.56067 0.14982 -0.67142 -3.3335 7.0817E-4 -0.40554 -0.065648 0.27462 -0.43903 0.3423 -0.60294 -0.81039 0.10016 0.38846 0.23227 -0.38159 0.74008 -0.55974 1.3199 0.32117 -0.089986 -0.78254 -0.90061 -1.3088 0.098958 1.093 0.016589 0.47814 0.65902 -0.11759 -0.17945 -0.43176 0.60317 0.21617 -0.6077 0.20478 0.46601 -0.21223 1.0534 -0.11147 0.37061 0.1937 -0.40662 0.38674 0.67047 -0.67351 0.0096162 0.56735 -0.28278 -0.058458 -0.3376 -0.36815 -0.17567 -0.32605 0.43101 0.8487 -0.084874 0.25252 0.047702 0.19326 -0.54234 0.093273 0.79347 -0.59077 0.76191 0.35748 -0.46389 7.5301E-4 0.25234 0.19989 0.20087 1.0287 0.010285 0.34942 -0.22155 -0.14212 0.067016 0.93598 -0.033664 -0.9931 0.40183 -0.076492 0.66948 1.0235 0.74172 -0.29208 -1.1427 -0.41621 -0.64203 -0.099489 -0.10616
announcement 0.63157 0.89805 0.27485 -0.40033 0.22152 0.19698 0.77814 0.32959 -0.42947 0.064322 0.58747 -0.56942 -2.4967 0.076386 0.54604 -0.3313 -0.029095 0.67938 0.12419 -0.19506 -0.39408 -0.09488 0.3385 0.97495 -0.33315 0.23883 0.59227 -0.71574 -0.3286 0.2338 -0.1037 0.39455 -0.79007 -0.58114 0.65683 -0.13276 0.35352 7.1887E-4 -0.23726 -0.38365 0.32049 -0.66222 0.64859 0.14454 -0.41954 0.13182 -0.30011 -1.4854 -0.40189 0.41453 1.1505 0.06351 -0.10297 -0.094794 0.3102 0.49233 0.53265 -0.1641 0.26848 -0.66746 0.076839 0.46755 0.69649 0.49622 0.16815 -0.28561 0.38542 0.22648 -0.10944 -0.49004 0.51339 -0.045309 0.13495 0.13372 0.16587 -0.050092 -0.42109 0.2889 0.34941 0.33839 1.8035 0.0029579 0.58913 0.58563 -0.13115 0.043941 0.043373 0.16926 0.70934 -0.79824 -0.68544 0.80352 0.26523 0.2015 -0.099847 0.22229 -0.16157 -0.13271 0.35562 -0.88372
mile 0.23437 -0.11458 0.3771 -1.1004 0.47905 0.25033 -0.26224 0.61344 -0.81246 0.083378 0.81448 0.027504 -2.3451 0.12691 -0.66335 -0.90662 0.060717 -0.11402 -0.54831 0.72506 0.1175 -0.28819 -0.46484 -0.12405 -0.2157 -0.28751 -0.93994 -0.071055 0.61737 0.75715 0.61062 -0.28071 0.41586 0.25893 -0.21585 0.26475 -0.097938 0.0076513 -0.59143 0.15065 -0.52423 0.96805 -0.18401 0.03902 -0.067648 -0.41301 0.27858 0.26063 0.45711 0.33834 -0.0091482 -0.002416 -0.026626 0.36952 -0.56277 -0.63726 0.60393 0.10028 -0.1151 -0.41288 0.71253 0.53188 -0.75426 0.047506 0.87028 -3.3009E-4 0.056509 0.40186 -0.12253 -0.29517 -0.12286 0.15378 0.42412 0.3965 0.6024 0.26117 0.75668 0.17012 0.069602 -1.0559 1.968 -0.19167 -0.82887 -0.31613 -0.16485 0.15518 -0.097039 -0.20543 0.224 -0.1872 1.1794 -0.29214 -0.75279 -0.70045 -0.037511 -0.040477 0.285 -0.022868 -0.30941 0.17856
airport -0.1982 0.66496 0.81727 -0.48052 0.84116 -0.50576 -0.88566 0.88625 0.45689 -0.91481 -0.13018 0.20731 -2.7832 0.62787 0.83656 -1.0976 0.28821 -0.36657 -0.69259 -1.5025 -0.1306 -1.0246 -0.40363 -0.8524 0.51367 -0.1355 -0.43489 0.34892 -0.4066 0.34963 0.015944 -0.0019037 -0.25554 -0.65618 0.416 -0.75807 -0.82371 0.77812 0.91787 -0.1509 -0.50809 0.52377 0.39581 0.051415 0.62267 0.34729 0.69394 -0.55814 -0.49264 0.67307 -0.35367 0.25779 0.075745 0.29829 0.041736 -0.58485 0.67041 -0.72891 -0.18403 0.67285 1.8694 -0.14361 0.77048 -0.49564 -0.93516 -0.33211 -0.014694 -1.1899 -0.47466 -0.6787 -0.5133 0.36827 0.14467 -0.55616 0.28112 -0.95855 -1.1744 0.89963 0.12411 -0.79565 1.2134 -0.87735 0.33781 1.2565 0.15377 0.32293 0.22686 0.45929 1.4346 0.25721 0.11711 -0.045393 -0.004103 -0.18098 0.012641 -0.50387 -0.7862 -0.82381 -0.59607 0.55688
population 0.0039878 -0.53312 0.040222 0.3568 0.41621 0.40975 -0.33891 0.18892 -0.25539 -0.60799 0.19748 -0.37543 -2.5665 0.43449 -0.40809 1.2557 0.73618 0.0044336 -0.10051 -0.7174 0.81402 -1.1564 -0.050555 -0.11685 0.16495 0.6573 -0.60973 0.016284 -0.024105 0.93838 0.34391 -0.84301 0.13798 0.15476 0.27795 -0.67849 0.36449 0.35624 1.0978 -0.7225 0.25873 -0.43181 0.060019 -0.66697 0.48849 -0.0021194 -0.080384 0.22278 0.53205 0.03836 0.019572 0.29672 0.53974 0.89799 -0.30639 1.3011 -0.54502 -0.19554 -0.96022 -0.07053 -0.81339 1.2303 -0.42989 0.22376 0.79895 1.1104 -0.34277 0.55894 0.34939 -0.8526 0.077862 0.076087 -0.31133 0.36274 -0.14063 0.42218 -0.62908 0.34415 1.0121 0.13094 0.44837 -0.012198 -0.11327 0.30904 0.098698 -0.81305 0.15652 -0.41548 -0.53161 0.14254 -0.70124 -0.29123 1.0961 -0.031805 0.31255 0.28972 0.91757 0.17603 1.0674 -0.51102
planning 0.44757 0.5206 0.5507 0.019717 -0.4196 0.431 0.77499 -0.38031 0.096234 -0.43539 -0.39139 -0.60343 -3.0344 1.085 0.014716 0.10957 -0.39727 0.28534 -0.98839 -0.036266 -0.1497 -0.48544 -0.29786 0.14152 -0.21707 0.38655 0.41319 0.19332 -0.40078 -0.27671 -0.055808 0.3109 -0.14004 -0.71011 0.84703 0.30731 0.12874 0.21392 0.14249 -0.097055 -0.2566 0.40963 0.49319 -0.22634 0.59386 0.52012 -0.49624 -0.23389 -0.69775 0.40879 0.66886 -0.48483 -0.30686 -0.3158 -0.19858 -0.24538 -0.12438 -0.20255 0.15291 -0.19869 -0.56312 0.14448 0.38455 -0.3148 0.53122 0.033045 0.29862 -0.62119 0.1563 -0.26219 -0.98711 0.87996 0.19772 1.2466 0.4321 -0.14521 -0.43104 0.1289 0.1442 -0.29188 1.1926 0.17609 0.33459 0.36506 -0.16504 -1.0833 0.046581 0.54976 0.40653 0.20059 -0.35023 0.83098 -0.29141 0.27812 -0.32942 -0.31612 -0.034483 0.55461 -0.62858 -1.0072
canyon -0.771 0.1054 0.31282 0.10273 0.26395 0.043589 0.22772 0.8527 -0.11722 -0.01713 -0.12157 0.55662 -1.1468 0.23739 0.41662 0.10385 0.51892 -0.84384 0.082022 0.44107 0.22551 -1.208 -0.19432 -0.55336 -0.059857 0.78198 -0.43158 0.044937 0.79916 -0.14684 -0.16819 0.24881 0.68319 -0.25395 0.18766 -0.37317 -0.22965 -0.23888 -0.07275 -0.12482 0.34996 0.74155 -0.33944 -0.12575 -0.11437 0.48336 -0.029301 0.64169 0.42264 -0.61667 0.81984 -0.3595 -0.56019 -0.35115 -0.40385 -1.0104 0.45526 -0.51413 0.16953 0.17635 0.47448 0.81512 -1.5062 -0.78642 0.45162 -0.44565 0.26144 -0.066394 0.082792 -0.94859 0.28883 -0.15087 0.12503 -0.28348 -0.44101 -0.40235 0.2582 0.60402 0.77288 0.016662 1.5793 -0.24441 0.37767 0.81048 0.9175 0.24877 0.39515 -0.70046 -0.035225 0.179 -0.24623 -0.3009 -0.052017 -1.2088 0.39309 -0.24961 0.10324 -0.62607 -0.43973 0.78083
delay 0.63593 0.41059 0.22363 -0.49028 -0.28394 -0.083698 0.49627 0.46259 -0.17282 0.93986 0.99505 -0.66668 -2.0895 -0.71909 -0.1228 -0.69456 -0.0016542 0.24444 0.10183 -0.81232 -0.73788 0.011958 -0.74913 0.19233 0.57616 0.26841 -0.36779 -0.036652 -0.26349 0.98475 -0.0084521 0.32442 -0.21513 0.39687 0.13669 0.42736 -0.58427 -0.20548 0.30447 0.20503 -0.64021 0.82078 0.11644 -0.22695 0.065419 -0.070593 -0.2465 -0.69398 0.020995 0.46403 0.37172 0.39011 -0.42094 0.11591 -0.27249 0.35767 -0.25431 -0.16415 -0.11548 -0.1562 0.49988 0.77027 0.16546 0.70031 0.58602 0.10892 0.22305 0.0045098 -0.68556 -0.44823 0.2395 0.46212 -0.19984 0.036772 1.057 -0.082916 0.0075703 0.17302 0.11425 -0.3415 1.456 -0.68844 0.89366 0.46577 -0.18513 -0.41815 0.22667 -0.53497 0.82635 -0.39231 -0.81321 0.29099 0.13525 -0.11685 -0.46158 -0.48171 -0.031297 0.50977 -0.92704 -0.33926
size 0.39016 -1.1383 0.43592 0.17681 0.28306 0.44876 -0.068153 0.23817 -0.0064988 0.45462 0.38635 -0.086247 -2.528 0.60991 0.027584 0.13665 0.6447 -0.0063379 0.11072 -0.1183 -0.50161 -0.10382 -0.95969 0.37251 -0.44292 -0.33455 -0.22603 0.039914 0.35815 -0.10842 0.38479 0.62694 -0.38759 0.10933 0.73234 -0.17481 -0.080809 0.39278 -0.33035 -0.41069 -0.45536 -0.73971 -0.21071 0.19484 1.4639 -0.38961 0.35055 -0.89165 0.72587 -0.030153 -0.50994 0.030918 -0.81739 0.23838 -0.15399 1.2213 0.91617 0.098475 0.24292 0.44106 -0.36511 1.341 0.53908 -0.1608 -0.36281 0.031573 -0.082791 -0.32873 1.087 -0.85118 -0.6268 -0.86138 -1.0098 -0.17924 -0.28884 -0.44423 -0.57702 0.41515 -0.20128 -0.052113 1.6252 -0.061777 -1.1209 -1.517 -0.28674 0.63853 0.4339 -0.60692 -0.34702 1.5051 -0.07724 -0.27958 0.84379 -0.9452 -0.36921 -1.1256 -0.34368 -0.36993 0.73415 -0.41385
peace 0.11297 0.59695 -0.97865 0.62799 -0.14021 -0.11548 0.29203 0.57075 0.14755 0.21611 0.39778 -0.60892 -3.5693 0.039271 0.478 0.25691 -0.33069 -0.33728 -0.24848 0.060196 -0.38074 -0.452 0.25813 -0.055967 0.62789 0.12018 0.2845 0.83109 0.45516 -0.20786 -0.56286 -0.4194 -0.095409 0.16789 0.23056 0.40953 0.11328 0.34862 0.3299 -0.53841 -0.2267 -0.17443 -0.26738 0.076303 0.92394 0.17954 0.18707 -0.42093 0.29396 0.33402 -0.19421 -0.52514 0.63165 -0.67015 -0.50775 -0.11904 0.3682 0.17425 0.41114 -0.32927 0.28245 -0.2964 -0.4757 -0.12323 0.05874 -0.38239 -0.10331 -0.40595 -1.1453 0.58495 -0.4222 -1.0348 -0.56983 0.46562 0.8688 -0.066892 0.29408 -0.16938 0.42924 0.29608 0.11596 0.064834 1.2114 -0.033499 -0.04411 -0.28946 0.0090148 0.19723 0.069142 0.91097 0.67919 -0.32494 0.29279 -0.23884 -0.4183 -0.59397 0.44578 0.62279 0.075386 -0.14528
science 0.26402 -0.57078 -0.14539 3.7459E-4 -0.12319 0.10106 0.77347 -0.38386 -0.0070995 0.23014 -0.03836 -0.50789 -3.5111 -0.078244 0.31994 -0.031654 -0.38533 -0.57232 0.012006 -0.37506 -0.21144 -0.065226 -0.1429 0.93324 -0.36857 0.34778 -0.79837 0.21005 0.53575 0.087552 -0.20737 -0.56897 -0.42749 -0.11371 0.17212 0.24163 0.33279 1.396 1.0833 -0.26656 -0.23202 -0.78218 -0.41918 -0.74971 0.36172 0.6566 -0.21515 0.64685 0.089814 -0.72581 0.67363 0.11311 -0.39759 0.23654 0.18428 -0.52433 0.46203 -0.83533 -0.37352 -0.84963 -0.67642 -0.29966 0.49618 -0.24393 -0.57639 0.45302 0.034281 -0.0911 0.22369 -0.70258 -0.039621 0.44898 0.074453 0.34614 0.22651 -0.76039 0.61861 0.28681 -0.22709 -0.1183 0.59049 0.7784 0.63368 0.36571 0.54787 -0.45923 -0.16873 -0.13825 0.058715 0.03369 -0.20084 1.0263 0.42438 -0.030114 0.13095 -0.011472 1.007 0.010442 0.028377 0.038963
dawn -0.48672 0.59044 -0.40162 -0.057668 -0.52025 -0.55598 0.49674 0.089666 -0.14564 0.40639 0.29056 -0.14146 -2.2443 -0.77268 -0.15423 0.59698 0.30076 0.092547 0.10049 0.64893 -0.59212 -0.031386 -0.19543 -0.19753 0.57333 0.067677 0.69657 -0.036846 0.39344 0.2558 0.059412 0.018729 0.08906 0.11918 -0.0085789 0.57244 -0.1542 -0.34439 -0.25119 0.51404 -0.63408 -0.6386 0.6765 -0.36977 -0.62484 0.48477 -0.099602 -0.65207 0.47787 0.075047 -0.32486 -0.40615 0.17127 -0.16087 -0.65426 -1.2758 0.21458 0.080573 0.33241 -0.081647 -0.06631 -0.13961 -0.034224 -0.62496 -0.12945 -0.30526 0.29674 -0.11145 0.52228 -0.065517 0.47092 0.13641 -0.39774 -0.1697 0.44434 0.12041 -0.38931 0.32532 0.67329 -0.01558 1.7105 0.020711 1.155 0.36582 -0.071413 -0.555 0.49811 0.52429 -0.13528 -0.8331 0.60476 0.050283 0.11783 -0.035748 0.047457 0.36373 0.8444 -0.44649 -0.24544 -0.2341
brother 0.63425 -0.070393 -0.050012 -0.2628 0.073017 -0.50852 0.23904 1.0705 0.028761 0.03914 -0.50864 0.72539 -3.7924 0.21221 0.32738 0.35042 -0.043385 -0.39822 -0.24719 -0.040822 0.25695 -0.095792 0.17773 -0.3774 -0.10119 -0.63299 0.44487 -0.21572 -0.56229 -0.70965 -0.1142 -0.36687 0.12889 -0.34833 -0.38958 0.87743 0.51018 -0.20672 -0.3015 -0.095647 -0.61505 0.45301 0.057569 0.068532 -0.080606 0.12054 0.51479 0.23132 0.19314 -0.4058 -0.48894 -0.29441 0.29713 -0.16118 0.17199 0.32293 -0.27607 1.1412 -0.027587 -0.17618 0.060821 -0.50116 0.42876 -0.52418 0.25437 -0.028003 -0.71112 0.14761 -0.13176 -0.14904 -0.0012663 -0.53475 -0.22453 -0.062711 0.47113 0.33716 0.26125 -0.18706 -0.20026 0.56544 1.2248 0.98469 -0.17599 0.40685 -0.38124 -0.19894 -0.26642 0.50732 0.59573 0.25153 0.064897 -0.30826 -0.080407 0.54668 0.19601 -0.047212 -0.18137 0.1119 -0.091781 -0.27597
wine -1.1918 -0.66004 -0.023445 0.19216 -0.1305 -0.23139 0.16118 -0.46741 0.69691 -0.62701 -1.2569 -0.4548 -2.5769 -0.31521 -0.24983 0.53553 0.13372 0.47875 0.40769 0.394 0.093988 -0.74267 0.52233 -0.062254 0.20693 0.85411 -0.43203 -0.79722 0.80631 0.36486 -0.75847 0.082149 -1.0899 0.40949 0.67884 -0.29383 0.049117 0.25551 0.16887 0.54607 -0.48087 0.13065 0.030712 0.20393 0.35618 -0.1259 0.037466 0.75374 0.14136 -0.070589 -0.21674 -0.70704 -0.37224 0.27872 0.08404 -0.02976 0.81403 -0.60358 0.32273 -0.15378 -0.22923 -0.18245 -0.17995 -0.22795 0.61321 -0.50914 -0.019946 -0.47076 0.064508 0.26249 0.26792 -0.62146 0.036885 0.35661 0.24727 0.15733 0.17055 -0.65189 0.27964 0.75511 2.1639 0.78567 -0.89603 -0.48546 0.91951 0.071579 0.14329 0.79064 -0.44921 0.60647 -0.61124 -0.11013 -0.60841 0.27668 -1.1516 -0.34714 0.20562 -0.27085 -0.75475 0.075467
object 0.69042 -0.29021 -0.47068 0.93635 0.27545 0.81428 0.18456 -0.71892 -0.21074 -0.29157 1.1082 0.13035 -2.0165 -0.35093 -0.050393 -0.6275 0.68455 0.61003 -0.050468 -0.41951 0.36665 0.79175 -0.24196 0.53907 0.24216 1.1621 -0.28437 0.55147 0.11408 1.0936 0.55527 0.27095 0.23573 -0.63641 0.47036 -0.25216 0.9892 0.1863 0.58722 -0.16365 0.34884 0.38635 0.4586 -0.44887 0.373 0.10204 0.3569 0.26416 -0.50878 0.26255 1.1008 0.99421 -0.50636 -0.48377 -0.26941 0.47279 0.14653 0.091136 0.10413 0.085836 -0.69847 0.34845 -0.74358 -0.11798 -0.074786 0.20299 0.24265 -0.6424 0.037612 -0.2297 -0.97994 -0.90327 -0.53592 -0.97681 -0.28113 -0.92338 0.22506 0.1326 0.0053105 -0.79562 0.4888 0.23507 -0.11011 -0.19899 0.27331 0.097101 -0.13317 1.7949E-4 -0.18125 0.6011 0.25133 0.47626 -0.24806 -0.16761 -0.64853 0.55332 0.15564 -1.0355 0.45893 0.086746
attitude 0.46076 -0.8489 0.16974 0.40333 0.55735 1.4847 0.23727 0.27161 -0.21596 0.55329 0.31509 -0.89132 -3.1776 -0.66183 0.079664 0.26345 0.084501 -0.14656 -0.43593 -0.6554 0.69776 -0.31089 -0.33177 -0.28519 -0.051623 0.96032 0.39384 0.6092 -0.96699 -0.40456 -0.97032 -1.1127 -0.48274 0.14385 -0.0084647 0.82981 0.19879 -0.32809 -0.25923 -0.10751 -0.37469 -0.045693 0.55256 -0.13262 0.23828 0.09911 0.45949 0.49387 -0.14803 0.092084 0.5477 0.74435 0.21122 -0.038825 0.42703 0.39527 -0.45006 -0.53066 -0.64225 0.11142 0.1658 0.56178 0.70294 1.3219 0.092521 -0.32307 0.14042 -0.56857 0.41225 0.36638 0.0029285 0.51646 -0.68004 -0.23625 0.49988 -0.057833 1.3351 0.12643 -0.5552 0.30286 0.46362 -0.041364 -0.34478 -0.71027 -0.85201 0.67657 -0.15555 0.89908 -0.95524 0.097169 -0.10496 -0.017744 0.56984 0.86331 0.038245 -0.035931 -0.016879 -0.52845 -0.32362 -0.3869
treatment -0.54389 -0.29714 -0.73157 -0.15255 0.44416 -0.59622 0.050188 -0.24692 0.094584 -0.10505 0.40468 -0.14837 -2.4859 -0.19043 0.62925 0.35479 0.07876 -0.3683 0.10334 -0.25948 -0.12624 0.19448 0.17529 0.92596 0.11937 0.97533 -0.074677 0.49346 -0.45879 0.73845 0.23014 -0.8359 -0.72888 -0.515 0.08769 0.13784 0.13816 -0.43377 0.090622 0.85848 -0.069361 -0.69249 0.58463 0.32812 0.75301 0.60934 -0.11905 0.1258 0.11191 -0.11507 0.55655 -0.1359 -0.77775 0.71972 0.073159 1.0798 -0.076402 0.33004 0.25908 0.35423 -0.24268 1.1933 -0.28591 0.40677 0.77255 0.35036 0.95776 -0.83336 0.68351 0.64885 -0.19205 0.4266 1.1323 0.64206 1.4048 -0.24542 0.083362 -0.26041 0.27441 -0.3923 1.2135 0.21519 0.93863 -0.094334 -0.40966 -0.32534 -0.65197 -0.43159 0.063001 -0.07029 -0.77627 -0.73892 0.31877 -0.25158 0.0032025 -0.93478 -0.17749 0.061996 0.33299 0.25588
flight 0.24154 0.52802 0.2104 -0.84436 0.35335 -0.34378 0.11245 0.10319 0.15893 0.028021 0.57265 0.15235 -2.9205 0.38788 0.61903 -0.055681 0.47579 0.47197 -0.27068 -0.60496 -1.1766 -1.0527 0.42055 -0.38046 0.49691 0.111 -0.25902 -0.075999 -0.41112 0.24493 -0.44429 -0.044753 -0.16889 -0.12417 0.30427 0.38993 0.22299 0.31317 0.045619 0.19553 -0.28174 0.70545 0.39683 -0.30806 0.94105 0.39789 0.64337 -1.1392 0.46979 0.71418 0.19361 0.13685 -0.22736 0.35347 -0.24625 0.26179 0.46017 -0.36056 0.11724 -0.12602 1.0881 0.31204 0.53272 0.4187 -0.48034 0.11047 -0.81975 -1.0848 -0.0028562 -0.23981 -0.18529 0.30807 -0.2323 -0.30965 1.0894 -0.35962 -0.21058 0.062088 0.83815 -0.54961 1.5611 -0.31935 0.5881 0.89088 0.35812 -0.29284 0.046158 0.020048 0.5972 0.053041 0.15525 0.48072 -0.43539 0.39914 -0.34885 -0.41527 -0.20266 0.53678 -0.64956 -0.25494
forest -0.99363 0.31857 0.30956 0.83556 -0.31555 0.52939 0.11546 -0.15251 -0.76201 0.033634 0.054184 0.77984 -2.4764 0.090408 0.10006 0.25959 0.79772 -0.2664 0.069471 -0.76565 0.35365 -0.75333 -0.31391 -0.058868 0.28565 0.31898 -0.26483 0.25762 0.52632 0.3155 0.041253 0.023222 -0.50987 -0.38562 0.34167 -0.0037515 0.059026 0.070896 -0.063014 0.71868 0.59703 0.32542 0.17348 -0.4283 0.20097 0.63804 0.44106 0.998 0.76905 -0.075849 0.47563 -0.21333 0.4341 -0.1632 -0.53189 -0.57613 0.64583 0.28699 0.04949 -0.22309 0.13053 0.49594 -1.2195 -0.4748 -0.37305 0.1158 -0.14446 0.36238 0.52265 -0.42311 0.41959 -0.15469 0.57583 0.34438 -0.18276 -0.095137 -0.25537 0.72049 -5.4883E-4 -0.3519 1.4245 -0.34844 0.5968 0.93194 0.48431 -0.32866 0.39846 -0.38625 0.30664 0.20046 -0.59463 -0.18869 -0.388 -0.74826 0.58084 0.057262 0.70869 -0.38117 -0.6951 0.67334
abuse 0.55379 -0.048251 -1.0515 -0.047314 -0.39618 -0.60948 0.49819 0.25453 0.77139 0.21181 0.32981 -0.39404 -3.3533 -0.11926 0.37695 -0.85695 -0.36466 -0.23281 -0.18488 -0.19613 0.32503 0.20096 -0.080096 0.13494 -0.32748 -0.1394 -0.51083 0.039311 -0.32767 0.52315 0.22226 -0.24444 -0.93311 0.31218 0.18072 0.14137 -0.30145 0.08982 0.6157 0.11354 0.47789 -0.24948 0.57933 -0.36208 0.077132 0.1245 -0.18142 0.85257 0.099789 -0.42504 0.9735 -0.10381 -0.56438 0.32916 -0.038961 0.64415 -0.18365 1.4936 -0.84992 0.49447 -0.57554 1.2494 0.051077 0.11703 0.1234 0.79676 0.70487 0.86073 -0.37763 -0.005723 -0.16226 -0.7969 0.30451 0.25147 0.19087 0.84023 -0.1687 -1.1126 -0.039833 -0.56831 -0.080429 0.40778 1.4253 -0.12288 0.26813 0.038261 0.070047 -0.8885 -0.14903 0.24991 -0.84019 -0.42982 -0.153 0.053914 -0.068543 0.16065 -0.012499 -0.8548 0.57617 -0.46684
criterion -0.28747 -0.66922 0.37642 0.21828 0.42268 -0.097418 -0.61828 0.027107 -0.34885 -0.8754 0.50176 0.29056 -0.40586 -0.45529 0.45409 0.26867 -0.075883 0.56018 0.18796 0.48521 0.46164 0.32666 0.18612 -0.15772 -0.93204 1.1515 0.51422 -0.040569 -0.20285 -0.01693 0.34332 0.5751 -0.2291 0.2429 -0.050041 0.31765 0.11073 -0.43483 0.16001 0.33631 0.223 -0.37145 0.27152 -0.39428 -0.095538 0.53567 -0.89673 -0.97611 0.30365 0.11488 0.40159 -0.33206 -1.1462 -0.10499 -0.91431 -0.2777 -0.024521 -0.16722 -0.3844 0.41058 0.24812 0.069466 -0.62877 -0.25236 0.16699 -0.039239 0.59007 -0.054073 -0.0097647 0.076495 -0.71001 -0.058509 -0.76934 0.14969 0.19229 -0.26029 -0.51851 0.1378 -0.64987 0.078301 0.4422 0.054103 0.23453 -0.18077 0.28291 0.0087783 0.30343 -0.68064 0.70171 -0.88665 -0.11465 0.69141 0.34171 -0.21758 -0.01058 -0.15589 1.0187 -0.88022 -0.17363 0.75883
sea -0.87762 0.05357 -0.51477 0.070233 0.13302 0.93336 0.47789 0.58573 -0.38198 -0.43859 0.70215 0.0060691 -1.6827 -0.22409 -0.16569 0.0074868 0.67278 0.36547 0.35775 -0.34882 0.10502 0.48525 0.044982 0.05879 -0.061628 -3.227 0.24368 -0.43805 0.38062 -0.010087 -0.33496 -0.3109 0.55811 0.19296 -0.46439 -0.3969 0.24429 0.33524 -0.24136 0.19653 -0.21098 -0.49046 0.26456 -0.36324 1.1074 0.31403 0.73668 0.3129 0.30424 -0.18188 0.30437 0.1003 0.20025 -0.37301 -0.4794 0.43476 0.43668 -0.40425 0.60373 0.90883 -0.093614 0.37595 -0.88794 -0.024 1.8083 -0.15309 -0.93453 0.10344 -0.18267 -0.75203 -0.27886 -0.12877 0.52187 -0.16197 0.46617 0.14011 -0.20618 -0.13583 0.92574 -0.81166 1.729 0.31936 0.56673 0.19791 0.39451 0.086078 0.67999 -0.2521 -0.60089 0.038507 -0.39659 -0.0073277 -0.14597 0.066271 0.048022 0.11837 0.044719 -0.45285 -0.14774 0.10802
dollar -0.45598 0.071744 5.7585E-5 0.64367 -0.65795 -0.62272 0.61092 -0.07654 -0.11358 -0.24685 -0.042436 0.52521 -2.6849 0.73326 -0.06173 0.88526 -0.27746 0.85331 0.49014 -0.32577 0.006839 -0.69997 0.13287 -0.49774 -0.17298 0.34771 -0.76867 0.47226 0.038953 -0.34371 0.76564 0.2359 0.30321 0.69934 1.3827 -0.47501 -0.28397 0.65221 -0.28535 -0.41344 -0.6905 0.65807 -0.36241 -0.82932 0.13709 -0.84479 -0.13357 0.5645 0.72394 1.1347 -0.23752 -0.042836 -0.94377 0.6707 -0.15584 0.65782 0.26438 -0.099062 -0.0052209 0.086399 -0.40406 -0.44741 -0.052052 0.82154 0.50241 -0.6794 0.37135 0.31789 0.10454 -0.2944 -0.56742 -0.05945 0.65703 -0.054066 -0.35167 -0.40207 -0.26376 -0.19631 1.0616 0.42883 1.4377 -0.12057 -0.30968 -0.32506 -0.79448 0.143 -0.029342 -0.02496 -0.7975 -0.5113 0.63952 -0.12114 0.16023 -0.067312 0.0090617 0.017223 -0.58329 0.13951 0.081721 -0.28099
example 0.68984 -0.46388 0.56052 0.4182 0.21482 0.21244 0.34434 0.10698 -0.33133 -0.24809 -0.11032 -0.57451 -3.1016 -0.55978 0.30134 -0.25946 0.43669 -0.29005 0.31052 -0.2886 0.26694 0.65132 0.13758 0.070683 -0.22608 0.86054 0.1627 0.40458 -0.17262 0.26038 0.025989 -0.1063 -0.63252 0.37761 0.27686 0.42176 0.32467 0.13093 0.010853 -0.24087 0.37956 -0.1569 -0.048138 -0.024592 0.17897 -0.15381 1.797E-5 -0.05102 -0.26403 -0.076033 0.067978 0.46859 -0.63954 -0.50575 -0.053804 0.0030929 -0.64267 -0.43533 -0.12669 -0.57592 0.17294 0.42169 0.12596 0.34623 0.073416 0.57046 0.17954 -0.12115 -0.019531 0.28374 -0.19537 -0.21515 0.38308 0.0087749 0.63523 -0.33899 0.060841 0.20342 -0.56404 0.42037 0.75512 0.51284 0.62114 -0.58442 0.10477 -0.29614 0.063534 0.48708 -0.27748 0.15724 0.46112 0.45157 -0.28963 -0.27109 -0.031384 0.083785 -0.1314 -1.4575E-4 0.099165 -0.20435
journal 0.24643 -0.88772 -0.71771 -0.32936 0.38645 -0.18736 0.46911 -0.38529 0.49892 -0.37265 -0.68514 -0.39087 -2.3563 -0.20586 0.33238 0.28022 -0.48782 0.42108 0.087512 -0.031809 0.41172 -1.7712 0.095048 0.36926 -0.70858 0.042129 -0.7648 -0.23762 0.51262 0.16693 -0.16443 -0.43614 -1.0975 0.14088 1.4976 -0.38599 -0.58937 0.5694 0.5349 -0.32941 0.44361 -0.42842 -0.029162 0.24358 0.19041 0.50387 -0.47864 0.10238 0.029082 -0.094217 0.99822 0.3916 -0.65383 0.21153 0.016472 -0.72495 0.2753 -1.0455 -0.065545 -0.59205 0.33615 -0.13697 0.41214 -0.33974 -0.44098 0.13408 0.75502 0.18742 0.43396 -0.67078 0.16694 0.29099 0.68939 -0.040594 -0.20906 -0.49433 -0.078462 -0.23067 -0.3258 -0.14567 0.42698 0.45318 0.68777 0.46848 -0.21332 0.13304 0.61682 0.28059 0.48083 -0.12939 -0.7846 0.020523 0.91098 -0.4736 0.13199 0.34112 0.61487 0.58414 -0.18655 0.34273
laundering -0.87078 -0.19962 -0.079923 0.067904 -0.37996 -1.0417 -0.41181 -0.49541 0.36825 -0.8133 0.388 -0.36767 -1.014 -0.39148 1.2023 -0.79239 -0.39281 0.73749 -0.038298 0.16336 -0.74416 -0.11554 0.7757 1.116 -0.27763 1.1928 -0.18178 0.50147 -0.74562 -0.078115 0.76685 0.37185 0.47293 -0.059346 0.22594 -0.3621 -0.4396 0.98191 0.26364 0.41821 0.90119 1.2882 0.62091 -0.1267 0.87305 -0.71 -0.77597 0.69799 0.30744 0.25965 -0.42981 -0.50315 -0.61035 1.2059 -0.26397 0.69667 -0.16581 0.11062 -1.093 0.24526 -0.5144 0.10585 0.32128 0.30847 0.13556 -0.69241 0.83156 -0.049502 -0.6291 -0.7033 -0.76571 -0.24245 0.023042 0.61063 0.29679 0.61538 -0.59166 -0.03006 0.38038 0.67285 -0.58232 0.24757 0.49141 0.42478 -0.66054 -0.13115 0.3361 -0.20051 -0.25624 -0.29514 0.41574 0.147 0.0080859 0.16199 0.0915 -0.12881 -0.16961 -0.83856 0.11891 -0.62121
hotel -0.75578 0.54448 0.73298 -0.48596 0.11817 -0.30365 -0.42409 -0.081362 0.4375 -0.65128 -0.71528 0.54627 -2.4559 0.10684 0.50327 0.34512 0.18445 -0.385 -0.46007 -0.13927 0.27244 -0.79858 -0.13548 -0.9502 0.35319 -1.7302 -0.056992 -0.35212 0.36047 0.15754 0.041986 -0.46019 0.42165 -0.83255 0.94315 -0.56509 -0.049247 0.33256 -0.30951 0.17207 -1.0808 0.61067 0.23904 -0.12501 0.37194 0.44978 0.15987 -0.5429 -0.18509 -0.033593 0.11712 -0.62326 -0.83341 0.3273 -0.96515 0.0055887 -0.11171 -0.76118 0.029546 0.29818 1.1558 0.22781 -0.36665 -0.3818 0.14971 -0.59008 -0.0086011 -0.8743 0.24854 0.61554 -0.38291 -0.2362 0.64404 0.53 -0.026472 -0.72684 -0.88675 0.37219 1.0203 0.77819 1.5778 -0.43869 -0.21488 0.30076 0.66776 -0.77235 0.69839 -0.093043 0.79013 0.22847 0.036627 -0.060498 0.14198 -0.17985 -0.8851 0.58672 0.25192 -0.83679 -0.62809 0.10165
term 0.21316 -0.42455 0.37677 0.4403 0.31602 -0.080405 -0.11303 -0.17768 -0.61089 0.12662 0.016868 -0.67272 -3.0381 0.045816 0.30925 0.38193 -0.32119 0.74444 -0.20094 -0.67748 0.15048 0.13122 0.053779 0.34309 -0.11928 0.54159 -0.15614 -0.027111 0.0085546 -0.59803 0.54991 0.22361 -0.62988 0.23882 0.1832 0.18656 -0.11766 0.65099 0.97084 -0.77269 -0.45423 -0.24203 0.78561 -0.48016 -0.039513 -0.061877 -0.4347 0.25209 -0.45156 0.081422 0.40014 1.0395 -0.64124 -0.10064 -0.32393 0.36823 0.030651 -0.39279 -0.98615 -0.074661 -0.10797 0.13364 -0.23065 0.42876 0.75737 0.17845 0.061623 -0.2915 0.69326 -0.23372 -0.62655 -0.50298 0.22243 0.19651 1.1595 0.34429 0.29342 -0.16001 0.36912 -0.26425 0.70122 -0.016113 0.46039 -0.062869 0.40374 -0.38317 -0.59715 0.33095 -0.017386 -0.22307 -0.11559 0.35418 -0.37435 -0.27286 0.30855 -0.25564 0.042397 0.69357 -0.24407 -0.49364
listing -0.361 0.31741 -0.6525 0.34775 0.6592 -0.23369 0.52417 -1.0104 -0.093526 -0.50086 -0.17598 -0.085641 -1.6587 0.53363 0.35076 -0.082805 0.29871 1.1625 -0.028868 -0.40988 0.29749 -0.75677 -0.14464 -0.20256 -0.70638 1.0253 -0.073821 0.15758 0.36694 0.34919 -0.28325 0.34157 -0.66874 -0.84876 0.75949 -0.30232 0.30455 0.15796 -0.688 -0.373 0.28433 0.81416 0.86988 -0.34348 0.2856 -0.064491 0.036611 -0.59173 -0.44458 0.41724 -0.28004 -0.37349 -0.89323 0.64485 -0.63103 0.50735 -0.2943 -0.46744 0.26812 0.27969 0.12669 -0.084499 0.63173 -0.76645 0.63075 1.075 0.096697 0.15628 0.24421 -0.043816 0.21235 0.32231 0.64486 0.1813 -0.33801 0.43143 -0.40453 -0.081858 0.39739 -0.20371 1.1972 0.46974 -0.50702 -0.14271 -0.48282 -0.36979 0.36656 0.14598 0.61129 0.375 -0.056528 0.73166 -0.054217 -0.78316 0.34864 0.41138 0.73309 0.26087 -0.12845 0.2228
chemistry -0.088508 0.05946 0.8095 -0.54013 -0.074073 -0.82268 0.53759 -0.38878 -0.91246 0.38424 -0.26991 -0.77901 -2.8462 -0.2368 -0.10257 0.091204 -0.17289 -0.10939 -0.57206 -0.17159 0.020915 1.7653 -0.56123 0.75297 -0.25283 0.50087 -0.54156 1.3488 0.74791 0.48466 0.10293 -0.67583 -0.37528 0.0082275 -0.71704 0.52987 0.22009 0.42139 0.97568 0.073888 -0.81243 -1.0598 -0.29465 -1.1306 -0.7092 0.1276 -0.10555 0.043153 -0.23303 -0.9186 -0.52384 0.70953 0.084522 -0.23923 0.50366 -0.89663 0.59313 -0.99877 -0.082717 0.049288 -0.9289 -0.1645 0.22651 0.91243 -1.0375 0.081814 -0.15365 0.042642 1.0392 -0.42931 0.10807 1.2628 0.20306 0.19536 0.73894 -0.8094 0.11677 -0.26027 -0.45889 0.61734 0.92622 0.88316 1.2501 -0.1375 0.11744 -0.43017 -0.18575 -0.24634 0.0059173 0.15084 0.85971 0.68231 0.16965 0.53395 0.24832 -0.051105 0.91801 0.85231 -0.42202 0.37704
seafood -0.54767 -0.20676 -0.015492 -0.11607 0.087146 -0.016599 -0.20625 0.42982 0.50076 -0.18955 -0.57657 -0.36106 -1.4873 -0.27714 0.13455 0.41858 0.81718 -0.062944 0.021826 0.11964 0.48587 0.3634 -0.63026 -0.69437 0.60505 0.59959 0.060918 -0.53242 0.49561 0.082294 -0.54166 -0.10836 -0.020235 -0.79533 -0.24013 -0.99474 0.77282 0.44574 0.86001 0.85881 -0.3611 0.019143 0.27285 0.28314 0.83536 1.0662 -0.092814 0.46962 0.5688 -0.074625 -0.20129 -0.53798 -0.66049 1.3152 -0.069354 -0.02871 0.20878 -0.81253 0.71098 0.40251 -0.15626 0.24626 -0.76398 0.77287 0.35472 -0.794 0.10965 -1.3897 -0.76224 0.17223 -0.094428 -0.38725 0.60468 0.062035 0.75158 0.022083 -1.2253 0.30003 0.774 0.028662 0.94276 0.66105 -1.1519 0.097225 -0.34198 0.54374 0.26565 -0.31778 -0.12599 -0.42335 -0.64787 0.24818 -0.17336 -0.048432 -0.12996 0.8365 -0.12824 0.1191 -1.6183 0.44914
mind 0.0022259 0.10365 -0.31681 0.45078 0.0010253 0.68275 0.40242 -0.48504 0.16781 0.41906 0.43427 -0.0093563 -4.6502 -0.33312 -0.28587 0.34413 0.27236 -0.25865 0.10238 -0.31162 0.3823 -0.54246 -0.21568 0.6628 -0.61378 0.5495 -0.032308 0.34521 0.46392 0.13738 -0.63191 -0.094018 -0.14689 0.14029 0.086303 0.52286 -0.28505 0.045076 -0.40519 -0.022022 -0.61189 0.71022 0.90035 -0.2583 0.34865 -0.090963 0.35492 0.781 -0.31107 0.37024 -0.22217 -0.055853 0.79853 -0.094471 -0.049716 -0.099768 -0.14919 0.15896 0.14189 0.069083 0.051632 -0.35081 -0.075464 0.091507 -0.19387 -0.41046 0.046108 0.079025 -0.20126 0.58801 -0.66483 0.67176 -0.53062 -0.10515 0.15803 -0.36633 0.5578 -0.16528 -0.84974 -0.24262 1.2188 0.30316 -0.30529 -0.14617 0.031609 0.061858 -0.48628 -0.16921 -0.19665 0.3683 0.56002 0.14278 0.40675 0.32818 -0.45069 0.059518 0.74829 0.13976 0.068176 -0.33257
sex 0.026366 -0.62647 -0.7451 -0.24003 -0.32402 -0.68552 0.78358 -0.42911 0.30485 0.29553 -0.31511 -0.14738 -3.8439 -0.22366 -0.29323 -0.5208 0.16928 -0.64458 -0.63004 -0.0089546 -0.14692 0.66675 -0.24781 0.6009 -0.12149 -0.12784 -0.38948 -0.31468 -0.39188 0.021776 -0.21913 -0.7545 -0.46289 0.70427 0.25028 -0.2678 -0.75077 -0.51246 0.15778 -0.08135 -0.86089 0.09486 0.45821 0.4854 0.85195 0.2142 0.59347 0.92128 -0.27616 -0.65925 0.3257 -0.25976 -1.2074 0.22541 0.50719 0.61782 0.37302 0.38533 -0.38649 0.80292 -0.097527 0.13846 -0.91033 -0.077698 -0.44187 -0.15586 0.50314 0.84408 0.66862 0.81242 -0.61412 0.15691 0.24115 -0.10529 -0.12165 0.15954 -0.66287 -0.61774 0.81526 -0.28717 1.0295 -0.15049 -0.42839 -0.038089 0.31738 -0.68941 -0.35293 0.26406 -1.1832 0.17415 0.25712 0.091191 -0.68002 0.97504 -0.31097 0.54037 0.77487 0.23163 0.41079 -1.0764
food -0.52348 -0.39926 0.24898 -0.039715 0.067344 -0.34445 0.34888 0.60016 0.94921 -0.64628 -1.1042 -0.44242 -4.2723 0.47759 -0.54165 0.55117 0.26203 -0.47045 -0.37717 -0.5985 -0.10843 0.32041 -0.40699 0.004276 0.5429 0.42808 -0.16087 -0.13919 0.58994 0.1809 -0.88564 -0.047295 -0.97389 -0.0083825 0.085801 -0.68881 0.41937 0.73735 0.69426 0.97459 -0.43348 0.33125 0.065084 -0.13284 0.99607 0.82727 0.065382 0.80963 -0.095502 0.049895 -0.77063 -0.24953 -0.76081 0.91922 0.20773 0.41041 0.71853 -0.22399 0.2767 -0.44373 -0.35005 -0.15431 0.013649 0.38956 0.32611 -0.84561 0.27346 -0.486 -0.17267 -0.081096 -0.30867 -0.20255 0.33779 0.27343 0.46227 -0.24736 -1.2959 -0.23204 0.66324 0.27273 1.4338 0.73959 -0.44582 -0.37129 0.28817 0.27981 -0.20058 -0.155 -0.11982 -0.093805 -0.31183 -0.055695 -0.055606 0.52088 0.067107 0.43624 -0.032742 -0.023053 -0.019998 0.2467
precedent 0.47186 0.12727 -0.28865 0.31609 0.83775 0.62858 -0.37361 -1.2019 0.89695 0.1715 0.14405 -0.5112 -0.87774 -0.71885 0.47879 -0.0077865 -0.033493 0.4498 -0.38815 0.26177 0.30005 -0.21391 0.85282 -0.21939 -0.47604 0.69632 0.46582 0.083462 -0.24694 0.26009 0.76453 0.51252 0.60865 0.23693 -0.17096 -0.44615 -0.26719 -0.2097 0.38187 -0.73583 0.26281 0.079796 0.56742 -0.68605 0.18658 0.062844 -0.56942 -0.20904 -0.021092 -0.34225 0.43167 0.018704 -0.3564 -0.35136 -0.18855 0.23108 0.078688 0.012049 -0.24046 0.15919 0.95801 0.92338 0.14032 0.066707 0.11091 0.69532 1.5959 0.039493 -0.23617 -0.50569 -0.54973 -0.097322 -0.40601 0.66303 -0.034623 -0.18688 -0.29167 -0.28521 -0.5603 0.58658 0.6756 0.32394 0.81161 -0.22978 0.29605 -0.0064037 0.016863 -0.72697 -0.10168 -0.31859 0.49516 0.43236 -0.18937 -0.22713 -0.36197 -0.41907 0.071441 0.47626 -0.76175 -0.0088791
series 0.48406 -0.36268 -0.017022 -0.6695 -0.33549 -0.18635 -0.33793 0.054792 -0.0060684 -0.061121 0.49606 0.61178 -3.0908 0.060382 0.49041 -0.060617 0.14953 0.5403 0.24528 0.73725 -0.62705 0.12013 0.5481 0.077314 -0.57364 -0.71073 -0.49338 -0.18986 0.67505 0.068371 -0.27915 -0.27769 -0.10768 0.086902 0.64537 0.10235 1.0138 -0.56772 -0.53924 0.10386 -0.57612 -1.1367 -0.066617 -0.1291 0.053032 0.0052611 -0.48045 -0.58397 0.72051 -0.59111 -0.38296 0.11035 -0.077593 0.3167 -0.42322 -0.77324 0.42071 -0.3319 -0.15647 -0.5238 0.68635 0.023958 0.062882 -0.57591 0.71181 0.5036 0.77232 0.12485 1.0289 -0.079113 -0.53294 -0.3768 -0.90332 0.55635 0.14947 -0.12986 -0.13538 0.53829 -0.52425 -1.0071 2.0441 0.46464 0.34897 0.25141 0.47032 -0.27799 0.52193 0.36015 0.0030834 -0.29952 -0.15454 0.83709 -0.46818 0.38127 0.3095 -0.33272 0.4297 0.34976 -0.87492 0.50829
kilometer 0.18431 -0.53609 1.2746 -0.64205 0.011953 0.41983 -0.067609 -0.17005 -1.0259 0.25488 0.4505 0.48736 0.031565 0.23194 -0.71386 0.14187 0.33806 0.44564 -0.24843 0.20447 -0.79942 -0.64324 -0.63455 -0.48542 0.1657 0.50885 -1.0808 -0.19537 -0.4831 0.40201 0.74776 0.054355 0.58859 -0.11669 0.50036 -0.82555 -0.20477 0.24058 -0.049751 -0.58042 -1.2182 1.2073 -1.2801 0.22973 -0.74933 0.024377 -0.36364 0.19324 0.71683 0.31544 0.51888 0.081118 -0.2432 -0.32731 -0.80833 -0.14583 0.19141 0.55237 -0.40526 0.152 0.70549 0.39555 -0.98555 0.65689 0.07442 0.047609 -0.11457 -0.36546 -0.10487 -0.36535 -0.53678 0.65248 0.23768 -0.44361 0.22889 -0.64872 -0.64338 0.27011 0.49201 -1.134 0.31761 0.015684 -0.23354 -0.32478 0.26823 -0.88079 0.66436 -1.1456 0.12035 0.0010984 0.40813 0.12173 -0.079277 -0.052227 0.12974 0.69857 -0.30372 0.21652 0.85144 -0.018681
grocery -0.16623 -0.72213 0.69091 -0.92145 0.18287 0.14079 0.33398 0.90704 0.62774 -1.0722 -1.0706 0.28374 -2.5431 0.43976 -0.21224 0.72247 -0.27602 0.84493 -0.44724 -0.67672 0.20045 -0.58752 -0.49945 -0.42556 0.10197 0.52575 -0.1977 0.61114 0.2307 -0.32188 0.086771 0.25775 -0.12922 0.20353 -0.29727 0.077486 0.53667 0.74845 0.14379 1.07 0.58586 0.98574 -0.084624 0.38276 0.32803 0.58291 -0.74044 0.077024 -0.30818 0.90883 -0.3183 -0.11747 -1.4622 0.34707 -0.6563 0.047825 0.53465 -0.4935 -0.27268 0.64473 0.11607 0.1733 0.59288 -0.67525 0.019129 0.017776 0.87179 -0.4628 -0.24534 -0.40024 -0.89477 -0.11479 -0.089964 -0.48709 0.14674 0.37128 -0.63305 -0.95772 0.63974 -0.15721 1.5178 0.39569 -0.76557 -0.87718 -0.0081913 0.56088 -0.31982 -0.14366 0.22487 -0.067676 -0.58098 -0.12256 0.18354 -0.27915 0.29951 0.72288 -0.26987 -0.16558 -0.066149 0.46778
wizard 0.15217 0.017807 -0.422 0.98138 -0.17341 0.31186 -0.16605 -0.74269 -0.83917 -0.73876 -0.11279 0.56227 -2.0168 0.050805 0.49715 0.22575 -0.13768 0.074269 0.39512 -0.096949 -0.28857 -0.45233 0.18185 -0.16357 0.32697 0.33694 0.52818 0.5631 -0.06962 -0.056078 0.03818 -0.50651 0.22437 -0.8036 -0.81031 0.75054 0.042869 -0.13193 -0.61757 0.066439 -0.043626 -0.42095 -0.2237 0.085815 0.1243 0.22625 -0.33286 -0.14127 0.19483 -0.3012 -0.13394 0.1008 -0.42968 0.42031 -0.50474 -0.9358 0.32876 0.14076 -0.60612 0.3411 0.46547 -0.32376 0.71939 -0.01479 -1.0383 -0.71047 -0.34358 0.023323 0.40063 0.06716 -0.50768 -0.72139 -0.26492 -0.015224 -0.25112 -0.40945 -0.71532 0.34554 -0.80073 -0.5859 0.79381 0.28868 0.13597 0.4891 -0.042064 0.25793 -0.64602 -0.68581 0.58513 -0.25295 0.54823 -0.54991 -0.41298 -0.3912 -0.38458 0.28972 0.24645 0.31269 -0.18681 -0.11822
information 0.96466 0.43222 -1.0495 -0.24552 0.70153 -0.14668 0.62931 -0.67248 0.020947 -0.2286 -0.13107 -0.36892 -3.0934 -0.28014 0.17389 -0.45059 -0.12679 0.07572 0.62175 -0.16141 -0.085177 -0.52509 -0.11936 1.235 -0.71922 1.0469 0.24011 0.66439 0.25787 0.75177 -0.53439 0.28813 -0.98769 -0.72121 1.1024 0.029745 0.40184 0.70289 0.51802 -0.094157 -0.42056 0.42756 0.10459 0.018823 0.51009 0.29404 0.30563 0.054907 -0.55401 0.069684 0.53714 -0.23729 -0.82493 0.83722 -0.22817 0.60093 -0.018293 -0.35473 -0.55581 -0.47701 0.23995 0.12677 -0.038626 0.85735 0.74081 0.59841 0.20154 -0.164 -0.13871 -0.13149 -0.105 0.16725 0.61723 -0.28323 0.28249 -0.65567 -0.6505 -0.2397 -0.055196 -0.65438 0.50408 0.75488 0.89283 -0.029423 0.29422 -0.076404 0.2628 -0.36528 0.32592 0.37258 -0.31485 0.6433 0.31956 -0.09729 -0.14928 0.27644 0.31702 -0.17704 0.60857 -0.028058
brandy -0.68616 -0.55552 0.13736 0.02167 -0.93954 -0.048885 0.41882 0.048523 0.12804 -0.32838 -0.38158 0.13459 -1.4391 -0.84433 -0.017742 -0.0076464 0.5808 -0.22402 0.18412 0.63667 -0.0066325 -0.4667 0.27163 -0.33134 -0.080304 0.14754 -0.25119 -0.73585 -0.04059 -0.24578 -0.64588 0.79594 -0.37517 0.013194 -0.42573 0.25269 -0.70279 -0.76476 -0.047988 0.49347 0.53585 -0.063832 0.037916 -0.13119 -0.23792 -0.22398 0.40471 -0.39898 -0.20215 -0.29772 -0.37478 -0.43337 -0.43525 0.35224 -0.38824 -0.55695 -0.3717 -0.15983 -0.58871 -0.0045571 -0.16045 -0.4055 -0.14613 0.025089 0.33417 -0.44835 -0.74502 0.29502 -0.35136 0.36497 0.029073 -0.020665 0.11033 -0.46501 -0.38748 -0.00331 0.38584 -0.028179 0.43783 0.6983 1.498 0.31284 -0.19957 -0.39855 -0.79303 -0.25137 0.73973 0.54615 -0.2548 0.16457 0.43911 -0.19521 0.048081 -0.32702 -0.69812 0.38873 -0.58716 0.022519 0.13228 0.24251
interview 0.51893 0.86328 0.11859 -1.0095 -0.46604 -0.35432 0.46137 -0.12146 -0.34593 -0.64969 0.41436 -0.4007 -3.0407 0.070447 0.38116 -0.38886 -0.21245 -0.1496 -0.46359 0.27339 -0.076101 -0.1782 -0.16284 0.58497 -0.29037 0.041813 0.16746 -0.63048 -0.79542 -0.24302 -0.12204 0.12174 -1.2378 -0.27393 0.82206 0.14109 0.08372 -0.081648 -0.10302 -0.54552 -0.39727 -1.0182 9.9165E-4 0.869 0.46086 0.010664 -0.28902 -0.46568 0.025536 -0.2035 0.61364 -0.3979 -0.7015 0.006519 -0.09667 -0.34706 0.0026153 -0.29716 0.0050116 -0.44363 0.2666 -0.70461 1.1506 -0.12897 -0.39656 0.048939 0.18687 -0.6097 0.34485 0.038643 -0.24891 0.25491 0.93852 -0.59473 0.15291 -0.32273 0.46034 0.64705 0.033922 -0.0064469 1.3503 0.43089 0.58191 0.43734 -0.56797 0.12389 0.36852 0.76002 0.023003 -0.23854 -0.11564 0.018332 -0.034259 -0.22909 -0.10288 0.89639 0.56586 0.29439 -0.051858 -0.31596
prominence -0.36309 -0.027064 0.044134 0.14662 1.2247 0.10737 -0.73224 -0.44788 -0.17742 -0.78154 0.32278 -0.56089 -0.53759 -0.61776 -0.16177 -0.069513 0.14107 0.001829 0.038772 -0.75505 -0.027743 0.25696 0.26701 0.49631 0.061767 1.449 0.24947 0.53075 0.0023276 0.23776 0.52604 0.23038 0.76656 0.066129 0.13221 -0.35765 0.17952 -0.47272 0.39298 0.018411 1.0406 -0.53092 -0.23531 0.68789 -0.092678 0.5037 -0.29034 0.37941 0.16961 0.20857 0.71302 0.60736 -0.32056 0.68088 -0.76246 0.054113 0.64312 0.16526 -0.39781 -0.3056 0.21473 -0.48778 -1.2564 -0.055554 -0.31926 0.4174 0.4135 0.43864 0.28949 -0.18717 0.15821 -0.41723 0.22681 0.45852 -0.061861 0.081501 0.071773 -0.15889 0.37266 0.29252 -0.49784 -0.71109 0.70589 0.40884 -0.53878 0.2706 0.60204 -0.73758 0.082243 -0.28327 -0.11528 0.49338 0.49959 0.33069 -0.20858 0.17567 -0.22496 -0.31604 0.022678 0.47924
bed 0.07052 -0.099901 0.94344 0.028017 -0.36033 0.14091 0.1383 -0.24338 0.23837 0.074618 -0.36834 1.1012 -4.0662 -0.42891 -1.5285 0.10046 0.12558 -0.25066 -1.6481 -0.26307 -0.51895 -0.33283 -0.25337 0.43555 0.74388 0.25006 -0.38582 -0.72868 -0.36771 -0.36895 -0.32534 -0.38464 -0.39752 0.15912 0.27882 -0.36204 -0.25804 -0.29747 0.18737 0.69895 -1.0987 -0.14167 0.29056 -0.9153 0.76726 -0.23415 0.68102 0.5545 0.0432 0.94561 -0.73197 0.20847 -0.010906 -1.09 -1.2809 0.085822 0.56119 0.26943 0.2669 0.59709 -0.18421 -0.20762 -0.1279 -0.7759 -0.018144 -0.50238 0.40006 -0.22383 0.59582 0.77185 -0.43169 0.34536 -0.049457 -0.073739 -0.41356 0.5019 0.10294 -0.37088 0.0078216 0.47859 1.8149 0.35622 -0.69518 -0.59015 0.72719 -0.22031 0.44164 0.010539 0.495 0.44882 0.5218 0.26424 0.63154 0.62223 -0.71196 -0.41144 0.41271 0.95588 0.14736 0.32198
furnace -0.58914 0.95394 -0.16608 -0.3249 0.2809 0.16011 -1.3806 0.027588 0.38475 -0.767 0.56565 -0.17946 -0.70553 0.42619 -0.31762 -0.040621 1.0925 -0.06209 1.0605 0.56516 -1.1622 0.21707 0.29127 -0.50764 0.204 1.9453 0.12743 0.3683 -0.079138 0.95579 -0.78972 0.16928 -0.0079164 -0.54227 -0.30863 0.2198 -0.25922 0.24985 0.16135 -0.15872 0.17716 0.020719 0.43815 0.30097 0.19674 -0.20985 0.079058 0.72201 -0.11983 -0.62242 0.52764 0.41424 -0.42562 -0.032738 -0.55514 0.21131 0.085407 -0.32879 -0.020562 0.12953 -0.23636 0.45757 -0.39551 -0.48989 1.1275 -0.77925 0.30399 -0.2923 1.2779 -0.28316 1.0373 0.29392 0.41806 0.66019 -0.24608 -0.14319 0.46852 -0.26094 -0.35544 0.28996 1.4231 0.50097 0.10137 -0.22397 -0.046416 -0.069973 0.17817 -0.6836 0.55979 0.0093211 0.31282 -0.81406 0.65008 0.34161 0.097468 0.28303 0.13665 0.0013438 -0.22369 0.72926
evidence 0.65308 0.61905 -0.63085 0.45467 0.01458 0.13912 0.03342 -0.61737 -6.4407E-4 0.6445 1.0619 -0.86091 -2.9621 -0.59191 0.64014 -0.72874 -0.1153 -0.60651 0.39207 -0.020024 -0.3799 0.036135 0.30424 1.2477 -0.98355 0.90737 0.059372 -0.17212 0.032692 0.39935 0.89793 0.078938 -0.55222 -0.34506 -0.065241 0.39074 -0.14519 0.028377 0.13133 0.32775 0.66701 -0.17621 -0.21699 -0.7392 0.4454 0.37916 0.40366 -0.041839 -0.19723 -0.23892 0.45644 0.079593 -0.34837 -0.30498 -0.40501 0.49452 0.27122 0.45573 -0.63512 -0.13747 -0.38422 -0.15686 -0.47006 0.17194 0.36155 1.1284 0.73444 -0.54032 -0.2375 -0.58366 -0.26183 -0.30517 0.18431 -0.11057 0.38854 -0.0047216 -0.95181 -0.29712 -0.17655 0.65474 0.28483 1.1278 0.93718 0.15775 -0.012102 0.017225 0.42924 -0.14008 -0.39322 0.48284 -0.3085 0.99676 0.43077 -0.73754 -0.7976 0.29271 0.82297 -0.34575 0.80878 -0.13885
sprint -0.23805 0.064486 0.32997 -0.61287 -0.32386 0.057549 -0.21858 0.35826 0.67103 0.17102 1.1987 0.038715 -1.9757 -0.38841 0.056912 -0.12177 -0.75712 0.90377 -0.32644 0.22607 -0.63217 -0.31934 -0.10722 -0.30769 0.073139 0.28619 0.1067 -0.28221 -0.93333 0.23697 0.11998 -0.21134 0.15758 -0.57969 0.29006 0.30818 0.33986 -0.1926 0.24512 0.13541 -0.38807 1.1392 -0.4244 -0.3394 0.21188 0.063699 0.022163 -0.24162 0.47627 0.5429 0.086066 -0.24668 -0.54772 0.23834 -0.10257 0.72007 -0.080975 -0.80746 -0.65997 -0.53444 0.43743 -0.10463 0.46284 -0.13761 1.026 0.131 0.1012 0.71081 0.11015 -0.61242 0.24416 0.36307 -1.0666 0.3375 -0.63015 -0.42451 0.99072 0.52042 0.79359 -0.66665 1.5586 0.01196 0.038087 0.21917 -0.10025 -0.1658 -0.23517 -0.43862 -0.057329 -1.0278 -0.46106 -0.32677 -0.38506 -0.32318 0.60651 -0.53263 -0.4084 -0.16518 -0.6018 0.40283
emergency 0.81361 1.1688 0.029778 0.34639 0.68064 -0.67422 0.88103 0.14143 0.60142 -0.98477 0.15457 -0.1808 -2.3005 -0.084937 0.62253 0.0089899 -0.028266 0.26062 0.28274 -0.73841 -1.1612 -0.26131 -0.26775 0.75506 0.71341 0.74843 -0.17635 0.50976 -0.14795 0.78876 -0.12733 -0.058956 -0.75551 0.04616 0.54895 -0.090919 -0.28935 0.70199 0.35571 0.55089 -0.032282 0.3561 0.42486 -0.42071 0.083668 0.13437 0.55043 0.16267 -0.32719 0.57039 0.81775 0.31262 -0.3473 0.14028 -0.5737 0.78701 0.1633 0.065934 -0.2656 0.085501 -0.27081 1.0039 -0.26409 0.42953 0.18222 -0.44407 0.59485 -0.57052 0.44155 -0.82292 0.61227 0.61955 0.4454 0.18018 1.0183 -0.25859 -0.069066 0.084268 0.021627 -0.6985 1.1565 -0.0074101 0.60603 0.072948 -0.21393 -0.80284 -0.18553 -0.061716 0.67087 0.19327 -0.17125 -0.26944 -0.37375 0.097655 -0.029242 -0.22247 -0.55453 0.39364 -0.36031 0.5241
institution 0.077596 -0.21561 -0.022868 0.574 0.40805 0.50852 0.45678 -0.050775 0.2794 -0.6971 -0.14295 -0.30627 -1.5235 0.061663 0.80219 -0.27607 -0.022267 0.020129 -0.29177 -0.32929 0.75241 0.1208 -9.6666E-4 0.30627 -0.16431 1.0421 0.16882 -0.20994 -0.14571 0.41555 0.41913 0.13918 0.14366 -0.16113 0.026951 -0.048799 0.51875 1.0257 0.98864 -0.49509 0.75425 -0.051665 0.034353 -1.2084 -0.18533 0.29537 -0.20139 -0.20571 0.083379 -0.37446 1.0252 0.15058 -0.59715 -0.33525 -0.7906 0.41552 0.0052155 -0.4641 -0.63031 0.73739 0.18804 0.50423 -0.25791 0.049813 -0.049157 0.26162 0.11925 0.14243 -0.045305 0.25857 -0.2854 -0.5487 0.45347 0.51264 -0.10724 -0.35474 0.55638 -0.18121 0.087289 -0.090629 0.11223 0.064595 0.18976 0.14881 0.083035 -0.59194 0.64797 -0.52497 -0.11364 0.8985 -0.21929 -0.036747 0.81301 -0.50734 -0.33198 0.27112 0.57547 -0.42622 0.1983 -0.71821
bird -0.11238 -0.49034 -0.26097 0.63001 0.042858 0.42864 0.31756 -0.34231 0.057541 0.44172 0.46618 0.34296 -2.9155 0.19832 -0.45936 0.68703 0.67264 0.43576 0.32299 -0.73672 -0.47123 -0.38087 -0.5526 -0.66799 0.80174 -0.4161 -0.58047 -0.2097 0.33359 0.1372 0.10804 -0.54631 -0.11763 -1.31 0.26932 0.72803 0.37516 -0.28613 -0.070153 -0.15954 -0.27348 0.095536 -0.78694 -0.1106 0.44591 -0.38101 -0.17622 1.2189 0.451 0.021996 0.44701 0.38076 0.15196 0.11625 0.20393 0.025805 0.35659 0.46756 0.44046 -0.20421 -0.18618 0.47012 0.080268 -0.63013 -0.56562 -0.045196 -0.5159 0.3388 0.22078 -0.33672 -0.10366 -0.093779 -0.33928 -0.33244 -0.67975 0.12475 -0.67174 -0.27125 0.045692 0.043127 1.2194 0.083889 0.026587 0.2453 0.10248 0.2659 -0.26998 -0.45351 -0.23942 -0.45153 -0.54178 -0.99943 -0.84941 -0.39388 0.87535 -0.027054 0.37479 0.57165 -0.023002 -0.076172
warning 0.7813 0.83272 -0.76246 0.018916 0.58245 -0.44368 0.75564 -0.39185 -0.18235 0.19299 0.34482 -0.30095 -2.637 -0.1872 0.56177 -0.24936 0.71209 0.4393 1.0314 -0.84919 -1.1243 -0.6495 -0.37869 -0.18525 0.77242 0.76983 -0.20878 -0.091234 0.2671 0.91186 -0.13074 0.18002 -0.92769 -0.022944 0.16711 0.0068446 -0.49665 0.17439 0.83931 -0.51143 -0.19854 -0.37518 0.46254 -0.5824 0.0090525 0.072955 0.094952 0.072297 -0.76292 0.47631 0.036176 -0.14066 -0.22647 -0.58039 0.45745 0.15829 -0.14255 0.11681 -0.29128 -0.38309 -0.38563 1.2713 -0.33305 1.063 0.4295 -0.36212 0.33966 -0.66707 0.44141 -0.86006 0.097839 -0.24302 0.1409 -0.78311 0.076079 0.29831 0.22149 -0.47325 -0.19368 -0.32111 0.86066 -0.5025 0.9364 0.31667 0.55224 -0.1227 0.43437 -0.010482 0.48543 -0.22099 -0.62141 -0.12854 -0.26434 -0.080211 -0.22061 -0.087763 -0.56362 -0.1309 -0.14527 -0.18634
implement 0.81141 0.1107 0.7108 0.26556 0.017392 0.45954 0.49087 -1.0185 -0.025204 -0.086344 -0.21808 -0.59405 -1.3736 0.1485 0.061936 -1.0177 -0.83157 0.074867 0.52168 -0.33945 0.090131 0.39789 0.14412 0.65425 -0.25673 1.218 0.87577 0.64435 0.30274 -0.15697 0.62149 0.93758 -0.24071 0.4795 -0.073306 -0.62521 0.16695 0.14251 0.67567 0.34813 1.0166 -0.20648 0.27199 -0.20184 0.89203 -0.11032 -0.57149 0.25602 -0.31272 -0.32605 0.61877 -0.20025 -0.22642 0.28665 -0.76679 -0.20858 -0.26031 -0.28864 -0.25419 -0.11792 0.16676 0.30623 0.16532 0.36201 0.63057 0.33248 0.47451 -0.11995 -0.52963 -0.31746 -0.40733 0.84881 0.13534 1.0169 0.44422 0.059513 0.16043 -0.10218 0.0013495 -0.72974 0.32948 0.47767 0.14017 -0.22736 -0.50854 -0.5661 -0.28395 -0.66239 -0.20982 0.26318 -0.31106 0.46976 0.42455 -0.32534 0.81108 -0.60542 -0.51916 -0.087055 -0.33428 -0.10916
train 0.78224 0.21289 -0.3775 -1.0542 0.071538 0.65285 -0.050393 0.014292 -0.33518 0.20516 -0.057545 0.5878 -3.4255 -0.39355 -0.19521 0.16188 0.033833 -0.24486 -0.67231 -0.30219 -0.12911 -1.0401 0.38679 -0.55795 0.5645 -0.43825 -0.73374 0.50109 -0.13601 1.4848 0.11157 -0.32571 -0.70612 0.045017 0.57258 -0.13414 -0.13751 0.025518 1.1558 -0.12307 0.20635 1.179 -0.0029565 -0.5666 0.88233 -0.20549 0.50556 -0.28319 -0.3604 -0.47111 0.3152 0.31712 -0.14541 -0.31394 -0.67899 0.086945 0.50997 0.50802 0.18457 0.11322 0.71866 0.151 0.25895 0.36208 -0.60227 -0.63969 -0.1312 0.50847 -0.26322 0.38793 0.8696 0.10897 0.79938 0.84588 -0.40655 0.27099 0.18998 -0.37842 0.49805 -1.3854 1.5588 -0.74115 -0.14511 0.097982 0.30477 0.56467 -0.97327 -0.5575 1.1909 -0.4191 0.82096 0.32119 -0.53355 0.54771 -0.043914 0.30235 -0.56655 0.11961 0.062425 -0.29144
area 0.06992 0.21775 0.027294 -0.47754 0.49616 0.093931 0.023745 0.37881 0.21825 -0.19036 -0.24183 0.29445 -2.9579 0.54206 0.72614 0.057968 0.26683 -0.88287 0.21118 -0.63872 0.20363 -0.20542 -0.39749 -0.10105 -0.34313 -0.58664 -0.65316 0.15742 -0.028899 0.75513 -0.092442 0.26531 -0.096591 -0.085556 0.72717 -0.58472 0.43714 0.39299 0.15336 -0.22347 -0.45843 0.63088 -0.096743 -0.23753 0.29559 0.45596 0.072663 0.07062 -0.24403 -0.11557 0.3597 -0.029068 -0.34929 0.629 -0.60925 0.52176 -0.64325 -0.43247 0.24133 -0.087746 0.46134 0.90295 -0.69709 0.44416 0.54204 -0.2567 0.12143 -1.4997 0.68572 -0.89862 0.30697 0.1763 0.43548 0.25362 -0.04929 0.26161 -0.31097 0.22696 -0.22964 -0.80854 0.94609 -0.62178 -0.080347 -0.23953 0.85243 -0.52117 0.49914 -0.12955 1.017 0.3677 -0.42195 0.16855 0.25269 -0.58057 -0.56144 0.38893 0.36267 -0.33841 -0.39449 0.22287
image 0.75544 -0.19163 -0.73613 0.2769 1.1513 0.15508 0.20759 -0.70041 0.54147 0.058823 0.12098 0.18817 -2.7358 -0.054139 0.012869 0.37833 0.57792 -0.27354 -0.033901 0.057349 -0.43505 0.44592 -0.064096 0.01747 -0.55097 0.17728 0.02065 0.63343 0.29824 0.70521 -0.24577 0.0032611 -0.5177 -0.75706 1.0973 -0.096455 -0.52795 -0.65383 0.64531 -0.44848 0.061192 -0.60889 -0.23372 0.15447 0.69329 -0.202 0.28014 -0.12558 -0.12021 -0.43403 0.47809 0.24044 -0.15099 -0.42835 0.47217 0.01633 -0.33366 -0.15896 -0.94767 -0.37506 0.67677 -0.028864 0.37892 0.12614 0.3537 0.28717 0.061299 -0.4368 0.067692 0.2411 -0.12718 0.032851 0.091417 -0.23654 -0.33456 -0.16194 -0.33125 0.51186 -0.34434 -0.026805 1.1524 0.032551 0.83085 -0.054025 -0.17715 -0.37331 0.72108 0.31554 -0.69195 0.26612 0.22939 0.74744 0.68738 -1.2933 1.08 0.36911 0.7182 -0.71973 -0.16205 -0.13957
murder 0.058727 0.51806 -0.97537 0.02891 -0.6243 -0.80141 0.94078 0.079138 0.28295 0.084838 0.2729 0.43112 -3.3097 -0.64612 0.94724 -1.276 0.085424 0.24053 -0.090246 0.37682 0.50377 -0.16727 -0.43634 0.79191 -0.09729 0.54214 -0.55206 -0.84027 0.077847 0.6837 1.1186 -0.56142 0.30009 0.32795 -0.39643 0.42437 -0.6447 -0.4564 0.07489 -0.23755 0.78352 0.55191 -0.11615 -0.68536 0.61856 -0.095951 0.27508 0.58267 -0.16041 -0.1808 -0.36999 -0.1306 -0.45373 0.46749 0.035406 -0.30694 0.21789 0.54617 -0.5664 1.2019 -0.43834 0.79213 0.41814 -0.18312 -0.21929 0.001977 0.59829 -0.11006 -0.27832 -0.20906 -0.71619 -0.65597 -0.15741 0.68639 0.65662 0.41705 -0.46163 0.15909 -0.12689 0.18589 0.94594 0.52737 0.48843 0.21322 0.11671 0.090563 0.097085 0.14199 -0.1004 -8.5223E-4 0.14101 -0.12081 -0.33813 -0.085522 -0.16573 1.1516 0.18635 0.49627 0.25826 -0.34994
journey 0.17651 -0.48154 0.13685 -0.7543 -0.15222 0.58128 0.36721 0.13618 -0.020621 -0.46892 0.47356 -0.3656 -3.1806 0.20661 -0.48333 0.3252 0.30191 0.18436 -0.39613 0.42564 0.032283 -0.88672 0.4704 0.22287 -0.20866 0.53821 -0.13126 0.27878 0.016887 0.59379 -1.0659 0.30221 -0.13736 -0.11917 0.15189 0.56007 0.55235 -0.31747 -0.84659 -0.099497 0.24395 0.18291 0.51296 -0.23179 0.31801 0.57985 -0.18704 -0.56169 0.5252 0.33387 0.66648 -0.17911 -0.15737 -0.48686 -0.5551 -0.52693 0.48034 0.14459 0.056307 -0.50209 0.97178 0.10092 -0.26894 -0.29081 0.23297 0.068405 -0.28384 -0.17268 -0.27475 0.27674 -0.45179 0.071829 -0.26289 0.46786 1.4288 -0.65922 0.13356 -0.030292 0.097473 -0.96156 1.1919 -0.017033 0.73795 0.6476 0.15682 0.067986 -0.063329 0.23309 0.4085 -0.024554 0.76648 0.19595 -0.033612 -0.47395 0.40507 0.0014516 0.41647 0.20933 0.246 -0.80009
minister 1.0614 0.80488 0.38709 -0.22801 -1.2021 -0.26158 0.018384 -0.68197 0.27423 -1.0274 -0.92712 -0.76273 -2.4368 -0.27832 0.81904 -0.80819 0.16563 -0.31802 -0.01647 -0.21979 0.065283 -0.40191 0.60251 0.29571 0.57962 0.61152 0.94429 -0.3497 -0.14519 0.31876 0.83542 -0.10784 -0.9202 0.73107 0.66645 -0.84236 0.27968 0.95852 0.80328 -0.63045 0.024053 0.58001 0.22725 0.42441 0.23123 -0.098798 0.78991 -0.46313 -0.45391 -0.33955 0.33582 -0.80861 0.25224 0.033583 -1.8088 0.34055 0.27404 -0.35282 -0.9955 -0.16625 -0.7605 0.43132 0.1364 -0.19627 0.37208 0.010658 0.17485 -0.41956 0.15316 -0.387 -0.75948 -0.6192 0.62408 0.13975 0.45091 -0.15209 -0.1716 0.89681 0.08453 0.25165 0.24568 0.83447 1.0638 0.77221 -1.0409 -0.017713 0.85294 0.37439 -0.081245 -0.071895 -0.081391 -0.63123 0.38714 0.43723 -0.31719 -0.1419 0.64399 0.31768 0.23454 0.14497
planet 0.44112 -0.36118 -0.075298 -0.21305 0.43285 0.21523 0.1405 -0.6624 0.77562 -0.20809 0.41551 0.52001 -2.989 -0.2693 -0.23256 0.76537 0.24795 -0.83317 0.98234 0.17572 -0.063156 0.10367 -0.66396 -0.45039 0.41212 -0.26826 -0.33204 0.22084 0.21115 0.0063636 -0.086278 -0.61643 0.33791 -0.87485 0.28288 -0.33488 1.3203 0.64691 -0.12824 -0.18832 -0.83 -0.0023638 -0.7267 -0.63779 0.52354 0.31216 -0.41675 0.0035125 0.51994 0.41629 0.26791 -0.019547 0.58696 -0.16026 0.048321 0.29982 0.16329 0.25791 0.22021 -0.36669 -0.13222 0.25013 -0.93898 -0.23959 -0.024638 -0.1637 -0.41216 -0.21083 -0.07438 -0.056283 -0.18121 -0.064958 -0.87232 -0.079549 0.47696 -0.73259 -0.15373 1.1768 -0.077666 -0.14717 0.84667 -0.73273 -0.034211 0.50148 -0.094629 -0.14088 -0.040798 -0.097539 -0.22095 0.31872 0.46286 0.67254 0.65991 -0.30482 -0.076105 1.0465 0.41883 -0.27847 0.14332 -0.4166
article 1.0421 -0.29026 -0.44046 -0.1723 0.31321 -0.399 0.30354 -0.99572 0.020506 -0.12787 -0.047041 -0.46415 -3.0778 0.26839 0.26725 0.0031446 0.45965 -0.062336 0.051751 0.22303 0.20994 -0.64422 0.0067458 0.54324 -0.86668 0.35061 -0.21702 -0.1388 0.61592 -0.11238 0.28924 0.13702 -1.4566 0.020816 0.88242 -0.13183 -0.12456 0.12056 0.18391 -0.64561 0.26626 -0.62938 0.18104 0.77368 0.54755 0.066117 -0.5515 0.30758 0.059241 -0.6124 0.67193 0.19873 -0.87031 -0.54198 -0.097346 0.017319 -0.42145 -0.76575 -0.2414 -0.89721 0.36225 -0.49222 0.5673 -0.14874 0.58647 0.76675 0.49459 0.16624 -0.27874 0.013307 -0.12568 0.083018 1.202 -0.25858 0.0070154 -0.28398 -0.19473 0.27728 -0.34465 -0.38094 0.96251 0.74668 0.65512 0.080522 -0.15819 0.20073 0.35585 0.23502 0.16621 -0.45837 -0.65831 0.37008 0.19888 -0.91187 0.19312 0.36783 0.35024 0.50255 0.1191 -0.13205
anxiety -0.44334 -0.27479 0.28576 0.039774 -0.04312 0.066961 0.39149 -0.63803 -0.62107 -0.1477 0.49117 -0.8932 -2.6857 0.33576 0.07561 -0.29945 -0.074665 -0.56722 -0.56247 -1.29 -0.21882 -0.16904 -0.46474 0.0046239 -0.42955 1.4564 -0.16971 0.38869 0.16758 0.28795 -0.72692 -1.4162 -0.53406 -0.12504 -0.22143 0.31074 -0.17663 -0.18837 -0.35047 0.24918 -0.3379 -0.5142 0.19186 -1.0167 -0.10153 0.52852 -0.34569 1.2439 -0.31839 0.38251 1.2895 0.099903 -0.5679 -0.021907 0.74106 0.15646 0.18121 0.87617 0.38062 0.54008 -0.58083 1.2528 -0.31918 0.089168 0.38929 0.14819 0.70627 0.21775 -0.16638 0.036276 -0.40086 0.50265 -0.36734 -1.1038 0.17984 0.11408 0.19205 -1.1501 -0.27975 -0.82319 0.75153 0.39616 0.88493 -0.093579 0.36486 -0.78843 -0.5983 0.021871 0.62837 -0.68321 -0.44472 0.11682 1.9236 0.99285 -0.69033 -0.24513 -0.52973 0.20734 0.24202 0.054093
month -0.54815 -0.38291 -0.22119 -0.096662 0.43915 -0.42093 0.40941 0.29568 -0.20454 0.18338 -0.53616 -0.0638 -3.8406 0.60054 -0.076323 0.49218 -0.52569 0.65379 -0.42083 -0.23017 -0.31744 -0.18719 -0.098679 0.21503 0.0053381 0.47342 -0.53499 -0.72109 0.12778 0.32452 -0.065108 0.18202 0.14648 0.50935 0.35881 0.47542 0.67901 0.25724 -0.025075 0.11435 -1.0072 0.10147 0.5582 0.2306 -0.30004 -0.63096 -0.77868 -0.66019 0.10197 0.96922 0.086421 0.083091 -0.26172 0.29452 0.37461 0.40141 0.40641 -0.063653 0.14841 -0.38756 -0.40823 -0.0097535 0.15268 -0.3802 0.47285 0.42262 -0.11018 -0.52083 -0.17062 -0.13238 0.22356 -0.1342 1.0228 0.3546 1.0306 0.617 -0.11811 -0.065471 0.29166 -0.24113 1.8836 -0.78194 0.436 0.25541 -0.56696 -0.54908 -0.17377 0.29671 0.058101 -0.48125 -0.54513 0.41431 0.32986 -0.25354 0.75016 -0.32254 -0.19629 0.73084 0.1202 -0.55579
carnivore -0.69987 -0.40791 -0.52622 -0.025935 0.028969 -0.083616 -0.17609 0.028414 0.38356 -0.43752 -0.092466 -0.24101 -0.3258 0.18583 0.30837 0.46944 0.49809 0.076758 0.18707 0.2634 0.53579 0.30748 -0.22403 -0.63738 -0.053654 1.1703 -0.31022 0.038371 -0.35768 0.29869 0.47749 -0.0067427 0.087777 -0.3951 -0.78932 -0.15132 0.17389 0.68058 0.65794 0.36678 0.50814 -0.49686 0.58109 -0.015021 0.45311 0.6278 -0.48719 0.39941 0.4439 0.19444 0.5046 0.2161 -0.43616 -0.085785 -0.43767 0.029377 0.21062 0.24086 -0.18016 0.5571 0.18776 0.44019 -0.37879 0.7594 -0.31188 -0.31977 0.64536 0.2591 -0.16844 -0.020724 0.45159 -0.35526 -0.28747 0.37815 0.38913 0.20127 0.077009 0.23439 0.63866 -0.40087 -0.10058 0.46979 -0.30235 0.62577 0.70304 0.1144 -0.17328 -0.47424 0.224 0.13232 0.020041 0.071161 0.48925 0.0086951 -0.0069833 1.264 -0.47185 -0.083826 0.28688 0.30533
party -0.69214 0.74713 -0.29137 -0.31438 0.53377 0.40082 0.35565 0.30129 -0.39706 -0.26594 -1.1345 -0.1386 -3.51 0.35953 0.35378 -0.29305 -0.72153 -0.020597 -0.96693 0.24714 0.12036 0.44139 -0.17967 0.0096317 0.43414 -1.299 0.58742 -0.57427 0.30821 -0.41701 -0.45144 -0.10197 -0.11037 0.11331 0.62089 0.15257 0.11019 0.37536 0.073617 -0.22383 -0.52646 0.3171 0.46967 0.20264 0.39314 -0.1117 -0.20808 0.063881 -0.5547 -0.16742 -0.16205 -0.7313 0.20507 -0.15035 -0.52932 -0.09715 0.29915 0.27345 -0.38769 -0.092257 -0.11636 0.20489 0.011863 0.50119 -0.68616 -1.0568 0.45181 0.27485 0.11616 0.26096 0.32838 -0.66116 -0.32301 0.50512 0.12473 0.7796 0.032255 0.53096 1.2614 0.27856 2.4551 -0.10557 0.084093 -0.29309 0.026986 -0.45904 -0.069639 0.62163 0.18571 -0.1057 -0.30708 0.57012 -0.030054 0.018981 -0.77051 0.21024 0.049588 0.00387 -0.18825 -0.69311
production -0.085319 0.19301 -0.20133 -0.90711 0.10973 0.35838 -0.15042 -0.98237 -0.33054 -0.74467 0.12712 0.22815 -2.4792 0.15344 0.54483 0.23476 -0.014235 0.38909 -0.058411 -0.53448 -0.4552 0.30351 0.69836 -0.15987 -0.15222 0.74729 -0.46153 0.34697 0.1617 0.40876 -0.3563 -0.099951 -1.1179 -0.11265 0.67207 0.053489 0.51157 0.27188 0.091285 -0.33598 0.38652 0.087021 0.13921 0.17684 0.28902 0.88257 -0.075042 -0.77574 -0.35941 -0.41926 0.20123 0.42676 -0.70575 1.2637 -0.070775 -0.56931 0.42616 -0.30536 -0.18049 -0.40579 -0.70699 -0.20432 0.67158 0.44861 0.86805 -0.26449 0.068235 0.060097 0.11348 -0.057178 0.22008 0.6092 -0.058852 0.75544 0.082297 0.31038 -0.35839 -0.092414 0.45886 -0.23177 1.241 0.29501 0.47206 0.1836 -0.68092 -0.7025 0.86407 -0.072812 0.33274 0.32764 -0.10789 0.46491 0.39533 -0.43727 0.38482 -0.012115 0.59699 -0.26145 -0.19273 -0.53709
importance 0.56346 -0.62351 0.75993 0.58668 0.38145 0.69546 -0.45387 -0.27307 -0.30898 -0.27742 0.7815 -1.3581 -2.6304 -0.040112 0.034692 0.47897 -0.57708 -0.43637 0.0076823 -0.28041 0.83483 0.095084 -0.48042 0.47747 -0.86772 1.2414 0.14909 0.8143 0.2887 0.029427 -0.26278 -0.47457 -0.86473 0.1624 0.56242 0.036648 0.0035425 -0.11712 0.5382 -0.76644 0.40993 -0.18267 0.84833 0.27279 0.57214 0.44255 0.18407 0.32096 0.43784 -0.41728 1.1529 -0.25753 -0.84533 -0.084197 -0.47758 0.12828 -0.21973 -0.44145 -0.46139 -0.6662 0.01695 -0.19461 0.041185 -0.22646 0.8878 1.0417 0.22229 0.14753 0.267 -0.55605 -0.18073 0.32492 -0.058581 0.057011 0.55933 -0.27597 -0.37541 -0.18696 -0.1242 0.066471 -0.52644 -0.25887 0.29107 -0.20612 -0.40498 0.083953 0.47059 -0.31191 0.67968 0.38176 -0.15586 0.61392 0.19451 -0.024227 -0.18059 0.4759 -0.097749 0.14324 0.22083 0.15646
inmate 0.012629 0.4066 -0.36537 0.56904 0.29455 -0.58107 0.70527 -0.21463 0.16212 -0.43348 0.021387 0.79706 -1.1952 -0.21089 1.0261 -0.64163 0.21174 0.44266 -0.23639 0.23519 0.11164 0.029881 0.32909 -0.56309 -0.41613 1.0693 -0.27681 -0.53271 -0.65829 0.80283 1.468 0.11964 0.18864 0.14597 -0.23153 -0.48363 -0.17409 0.17774 0.12189 -0.59335 1.3018 0.6021 -0.29607 -0.76742 0.039099 -0.0053474 -0.078032 0.27839 -0.015793 0.27875 0.13843 0.4541 0.10965 0.53521 -0.83698 0.64213 0.29049 0.2562 0.0020157 1.2853 -0.53918 0.43527 -0.077945 -0.37028 0.28537 0.66439 0.31004 0.10396 0.21719 -0.22244 0.22413 -0.16409 1.0313 -0.52688 0.77298 1.163 -0.16123 -0.24918 -0.068527 -0.07396 0.33002 0.16323 0.22676 0.95514 -0.21785 -0.43539 -0.68043 0.013034 0.35382 0.26334 0.36275 0.33234 0.31004 -0.36555 1.574 0.42377 1.0121 1.6198 0.53003 -0.070933
psychology 0.17185 -1.1779 0.25567 -0.04935 0.1196 -0.22703 1.0389 -0.97225 -0.2909 0.36796 0.07204 -0.73313 -2.6858 -0.17072 0.17718 -0.55881 -0.79378 0.0029585 -0.49392 -0.18116 0.23182 -0.31322 -0.42057 0.68599 -1.2097 1.0372 -0.75755 0.53277 0.12672 -0.064863 0.2784 -0.64315 0.074883 -0.13337 -0.0080959 0.66501 0.34388 0.81724 0.64789 0.17169 0.02168 -0.48086 0.45766 -0.73591 -0.26749 0.33395 -0.48527 0.68773 -0.63409 -0.31537 0.36801 0.41299 -0.50034 -0.094625 0.44693 -0.017423 0.14209 -0.77366 -0.45394 -0.12732 -0.6954 -0.18258 0.01632 -0.088453 -0.49124 0.65133 -0.062742 0.10513 0.22854 -0.17289 -0.5462 0.35791 0.27425 -0.2926 0.66391 -0.78946 0.9521 -0.26478 -0.39195 -0.70681 0.44694 1.026 0.62425 0.25939 0.52625 -0.50095 -0.30112 0.017116 0.061462 -0.21469 -0.017106 0.89855 0.7868 0.18268 -0.53483 -5.5341E-4 1.1618 0.24806 -0.0094382 0.72294
medal -0.53499 0.45545 0.52127 -0.10547 0.11222 0.33451 0.80847 0.80422 0.42606 -0.18233 0.76028 -0.78318 -2.4808 -0.20113 0.80632 0.30527 0.11876 0.012169 -0.35264 0.83692 0.3617 0.48401 0.86714 -0.24293 -0.40813 0.74747 -0.17322 -0.19437 0.030989 0.19258 0.75836 -0.54614 0.43997 -0.32511 0.72161 0.33474 0.7926 -0.28131 -0.10683 -0.16066 -0.18783 -0.41101 -0.44506 -0.13539 0.42646 -1.0301 0.40795 -0.47965 0.3591 0.70674 0.31244 -0.40774 0.076091 -0.022211 0.41007 0.16748 1.2689 -0.47345 -0.81473 0.0027927 -0.41956 -0.0080588 0.23974 0.011522 0.39714 0.90958 -0.32611 -0.11076 0.41292 -0.68508 0.066252 -0.98341 0.19272 0.33843 -0.15166 -0.2954 0.63435 -0.39047 0.7669 -0.67695 1.3386 0.27952 0.33071 0.75865 0.30117 0.61468 0.39098 -0.4853 -0.21461 -0.81073 0.0051713 -0.91879 -0.78782 -1.5495 -0.32503 -0.38342 -0.2963 0.081546 0.32913 0.035239
company 0.01527 0.095225 -0.15225 -0.18799 0.22067 -0.063579 -0.066133 -0.79549 0.63164 -0.6824 -0.54458 0.0067793 -3.6902 0.085973 0.6531 0.2601 0.076483 0.18059 0.10652 -0.31836 0.010259 -0.15396 0.073932 0.39257 -0.27483 0.26847 0.16912 0.72712 -0.01816 0.2289 0.076163 0.43023 -0.78208 -0.38075 0.97694 -0.048401 0.85857 0.69076 -0.25291 -0.26258 0.49861 0.97712 -0.49893 0.19413 0.041012 0.77029 0.26317 -0.25077 -0.1565 0.029886 -0.40778 -0.15242 -0.68478 0.84292 -0.83478 0.24705 -0.11596 -0.73352 -0.4201 -0.075723 -0.36029 -0.64388 0.45403 0.22391 0.75057 -0.15878 -0.13331 -0.04232 0.16114 0.068479 0.12449 0.019481 0.43899 0.38442 0.20321 0.16491 -0.17105 0.05909 0.0025033 -0.21236 1.2616 -0.12573 -0.13571 0.29451 0.044903 -0.71897 -0.058631 0.35958 -0.12448 0.08556 -0.21384 0.25503 0.19911 -0.13377 0.17081 -0.72485 0.10775 -0.72409 -0.81431 -0.20615
live -0.03275 0.48704 0.042684 -0.37137 -0.60766 0.47647 0.22029 0.31982 0.16969 -0.0094892 -0.046378 -0.19105 -4.1024 -0.15726 -0.61075 -1.0067 -0.11923 0.54518 0.1178 0.16764 -0.02517 0.097796 0.37057 0.081051 0.39208 -1.0767 -0.0017161 -0.462 -0.58759 0.45928 -0.72278 -0.30173 -0.23606 -0.051808 1.0104 -0.24315 0.0908 -0.50156 -0.54286 0.16529 -0.8209 -0.43973 0.24518 0.48561 0.40847 -0.1276 -0.49451 -0.14774 0.19933 -0.32064 0.069724 -0.6324 0.11071 0.6175 0.33115 -0.26975 -0.48681 0.021413 -0.10304 -0.45825 0.6209 -0.43464 -0.78484 0.029528 -0.32185 -0.25335 -0.39239 0.36606 -0.47938 0.074815 0.46232 0.11091 0.012514 0.1332 -0.22966 -0.39228 -0.29458 0.43279 0.53148 -0.31293 1.25 -0.4755 0.18214 0.2462 0.94673 0.0018502 0.57747 0.29225 0.27171 0.15988 -0.13099 -0.22478 0.33548 -0.14758 -0.44511 1.1266 0.89774 -0.5759 0.17018 -0.55402
holy 0.3313 0.52808 0.041074 0.48692 -0.39114 -0.40899 0.6986 0.74712 -0.021828 0.13741 -0.11452 0.10864 -3.3949 0.13112 -0.10478 0.1636 0.43573 -0.71287 0.42588 -0.72464 -0.58201 -0.04089 0.015761 -0.60668 0.96081 0.42773 -0.22859 0.089956 0.5156 0.53899 -0.8159 0.067115 0.037044 -0.23582 -1.1656 0.40482 -0.43852 0.48852 -0.40823 -0.89413 -0.47486 -0.67321 -0.28848 0.072965 -0.16493 0.18408 0.45571 0.85683 0.41589 0.24435 0.197 0.52273 -0.2371 -0.22383 0.51291 -0.892 0.62648 0.22707 0.26774 0.19784 0.41166 -0.75549 0.18926 -0.66911 -0.046766 0.45552 0.082595 0.054441 0.19607 -0.0033097 0.26249 -0.20335 -0.048246 0.27912 -0.021908 0.13988 0.024187 0.046051 -0.1915 0.26165 1.9667 -0.42205 0.11613 -0.021212 -0.20651 0.4874 -0.57826 -0.23237 0.0089782 -0.12961 0.12171 -0.10502 0.54686 0.15395 -0.37944 0.49001 0.044918 0.11381 1.1505 -0.44686
ticket -0.97493 0.90987 -0.30217 -0.073119 -0.055096 0.037594 0.73743 0.43125 -0.028802 0.16212 0.090509 0.050324 -2.6729 0.85899 0.51973 0.029401 -0.026467 0.81458 -0.34714 -0.58613 -0.28126 -0.053981 0.56707 -0.0048069 -0.28409 -0.65391 0.59826 -0.49304 0.064853 -0.19875 0.41305 0.15267 -0.62785 -0.73019 1.0974 -0.037038 -0.062778 -0.022992 -0.24877 -3.601E-4 -0.55575 0.77224 0.078236 -0.67293 0.46156 -0.75061 -0.21442 -0.52701 0.046186 1.0868 0.7284 0.23448 -0.58679 0.9561 -0.47403 0.12575 0.835 0.036467 -0.33495 -0.509 0.84595 0.4376 1.0888 1.0616 -0.13371 -0.14668 -0.079263 -0.035409 0.054057 -0.12817 0.38655 -0.030534 0.28815 -0.11275 -0.047655 -0.50706 -0.5805 -0.018498 0.57212 -0.15899 2.1796 -0.69775 0.23882 -0.30938 0.53291 -0.12233 -0.31518 -0.63428 0.42287 -0.15936 -0.22585 -0.090771 -0.10602 0.25067 -0.78622 0.60126 -0.45662 -0.43674 -0.099783 -0.25044
victory -0.61543 0.59446 0.71189 0.070479 -0.086479 0.60129 0.28824 0.80672 -0.36925 -0.20923 0.2639 -0.11602 -2.8678 -0.084491 0.68728 -0.071176 0.12336 0.22259 -0.49578 0.087056 0.071379 0.19383 0.38974 -0.3896 -0.44026 0.83645 0.51775 -0.03358 0.13243 0.26934 0.065527 0.14634 -0.3663 0.83621 0.91874 0.021668 -0.25889 -0.33587 -0.47564 -0.55609 0.34456 -0.014755 -0.019184 0.23691 0.26785 -0.26212 0.32108 0.16769 0.93232 0.26204 0.10436 -0.11257 0.52001 0.090388 0.1088 -0.080526 1.0499 -0.44093 -0.11376 -0.0093372 0.95703 0.019666 -0.78288 0.18155 0.28041 0.54607 0.84965 -0.5306 -0.19609 -0.30547 0.2357 -1.0913 -0.62808 0.77924 0.57488 -0.35336 0.43371 0.32179 0.15521 -0.29696 0.93597 -0.2077 1.0574 1.0706 0.15705 0.54179 -0.27919 0.10679 -0.43808 -0.22978 0.078128 -0.33272 -0.31457 -0.88472 -0.2046 -0.36587 -0.1214 0.17336 -0.020345 -0.12038
football 0.25477 -0.26592 0.42544 -0.38675 0.027901 0.50314 0.13932 0.74539 -0.075927 0.030731 0.1979 -0.56357 -3.9767 0.61991 0.69852 -0.68295 -0.53594 0.30956 -0.11265 -0.046013 0.098476 0.35614 -0.10788 -0.57272 -0.50376 0.16518 0.08142 -0.49881 -0.2662 -0.77741 -0.55313 -0.082069 -0.62633 -0.0027851 1.2818 0.20191 0.86714 -0.39481 0.67155 0.30639 -0.1804 -0.38368 -0.24575 0.14991 0.21785 -0.28418 0.40533 0.77702 0.54459 -0.61177 0.070084 0.53843 0.008463 0.064899 0.041191 1.2276 0.68715 -0.39992 -0.34001 -0.26301 -0.1571 -0.10432 -0.75034 -0.73341 -0.37218 -0.085802 8.4305E-5 0.82947 0.45134 -0.44748 0.010964 -0.50794 0.62429 0.6428 -0.80315 0.17841 0.56759 -0.033822 -0.70755 -0.064459 1.3281 -0.66152 0.15058 0.58858 0.8196 1.0758 0.1027 0.050231 0.46102 -0.65701 -0.81545 0.0060307 -0.89832 0.33829 -0.37761 0.10909 0.78015 0.45428 -0.021525 0.28155
rook 0.13845 0.21528 -0.41109 0.5076 0.13349 -0.26152 -0.90746 -0.83964 0.25769 -0.38502 -0.013336 0.40841 -0.90619 0.21062 -0.20314 0.39751 0.98048 -0.16541 0.2341 0.67673 0.019292 0.066535 0.76446 0.12956 0.96165 0.86128 -0.061995 -0.15336 0.20359 -0.63601 0.024998 0.40864 -0.041259 -0.975 0.13192 -0.050833 -0.27723 -0.26233 0.39258 -0.6681 -0.35428 -0.10355 -0.35465 0.32924 0.052068 0.14942 -0.033085 0.10069 0.13127 0.27805 0.27839 -0.43875 0.38104 -0.13856 -0.55595 -1.1709 0.15461 0.31746 -0.35324 0.25913 -0.94239 0.37929 -0.82959 0.46641 -0.42532 -1.0988 0.13695 0.0091199 0.1691 -0.47652 -0.72691 -0.22804 0.70003 0.5647 -0.25813 -0.20597 0.79662 -0.44511 0.20036 0.12162 0.55285 0.21994 -0.10777 -0.26361 -0.19957 0.10958 -0.42548 -1.7815 0.011523 -0.35096 0.40875 -0.097069 0.49994 0.21703 0.14593 -0.038005 -0.24193 0.60823 0.041494 0.98551
stroke -0.2869 -0.32927 -0.20022 -1.07 0.23704 -0.43914 -0.16457 -0.30758 -0.063945 0.45773 0.80206 0.75872 -2.3216 -0.48971 0.19313 0.069035 0.34593 -0.491 0.49672 -0.35061 -0.14806 0.22639 -0.12441 0.33047 -0.22937 0.95646 -1.093 -0.090464 -0.44031 0.15423 0.48292 -0.95198 0.5088 0.80747 0.70842 0.12745 -0.20941 -0.92422 0.4026 0.065511 -0.31326 -0.33418 0.066308 0.0041366 0.20631 0.092027 0.3269 0.98577 0.54736 -0.087578 1.0057 0.24304 -0.36666 0.095024 0.90605 0.28758 -0.095377 0.92484 0.29138 0.12179 -0.47817 0.9993 -0.10796 0.19852 0.46351 -0.35611 0.3837 -0.44101 0.52655 0.34837 0.1837 0.11742 0.55529 -0.097977 0.59389 0.31841 0.68685 -0.84181 0.10918 -0.21085 0.49913 0.2255 -5.1898E-4 0.50668 -0.12102 -0.27776 -0.43941 -0.097669 -0.15812 0.28386 0.19219 -0.99666 0.39165 -0.1741 0.2066 -0.10332 -0.37784 0.71753 -0.22067 0.2429
environment 0.45374 -0.31943 0.1138 -0.07755 0.55509 0.74739 0.32757 -0.72896 0.11995 -0.45424 -0.38176 -0.4744 -2.716 0.052365 0.37579 -0.010138 0.14597 -0.101 -0.008595 -0.66427 0.033563 0.66696 -0.21049 0.5173 0.42129 1.4064 0.20163 1.1927 -0.0018481 0.34115 -0.7573 -0.91892 -0.57318 0.42551 -0.1347 -0.63856 0.69869 1.0717 0.42569 -0.35804 0.44087 0.11075 0.62506 -0.5245 0.54976 0.60715 -0.20344 0.49528 -0.46638 -0.16354 1.1137 -0.7096 0.13134 0.15268 -0.7511 0.6321 0.20357 -0.47394 0.031922 -0.61404 -0.22963 0.50508 -0.12087 0.12429 0.077491 0.12219 0.055493 -0.45835 0.0059358 -0.34526 -0.31725 0.5019 0.48709 0.46206 0.075552 0.17493 -0.27581 0.72937 -0.49672 0.11287 0.41009 0.071542 0.80047 0.32998 0.4153 -0.28281 0.72661 0.20475 -0.53344 0.88674 -0.6662 0.17218 0.74506 -0.25368 0.7164 -0.57097 0.74346 -0.28656 -0.32641 0.093485
coffee -0.89151 -0.55583 0.035948 -0.30019 0.12458 -0.71549 -0.011076 0.02878 0.40062 -0.71867 -0.50641 -0.74818 -3.1815 -0.26529 -0.7744 0.56166 0.77724 -0.40936 -0.075461 -0.48165 -0.41374 -0.2718 -0.54018 -0.049809 0.19899 0.40551 -0.42845 0.12253 0.76638 -0.22508 -0.41267 0.14536 -1.3634 0.087769 0.36076 -0.57022 0.11906 -0.38899 0.70341 1.2708 -0.28771 0.20985 -0.77581 0.015292 0.0634 0.32631 -0.42149 1.0718 -0.34936 -0.10539 -0.52336 -0.12147 -0.37711 0.086385 -0.56204 0.13867 0.97167 -0.82118 0.3425 0.084028 -0.10554 -1.0096 -0.19721 -0.065308 0.40853 -0.79217 0.30307 -0.65662 -0.39433 0.20754 -0.032868 -0.67855 -0.12488 0.13734 0.093559 -0.27372 0.10497 0.16356 0.32139 0.39211 2.3035 0.32851 -0.53784 0.18686 0.57077 -0.38816 -0.33003 0.36714 0.26017 0.22057 -0.26268 -0.03745 0.34163 0.14558 -0.82128 -0.30182 -0.47741 -0.46915 -0.44183 0.34075
baby -0.30842 -0.21582 0.05482 0.23163 -0.20716 0.19743 0.8541 0.1755 0.11867 -0.26259 -0.74225 0.75729 -3.927 0.051296 0.38467 0.37186 0.41585 -0.17985 -0.49053 -0.73206 -0.45208 -0.77553 0.22563 0.70006 0.401 -1.0812 -0.30872 -0.032332 -0.4976 -0.76884 -0.47034 -0.33386 -0.01112 0.25758 -0.0098082 0.63753 0.2368 -0.49129 0.10195 0.36776 -1.3157 0.0042158 0.47348 0.41323 0.30933 0.038963 0.38752 -0.30629 0.45688 0.11572 -0.47009 -0.55005 0.54619 -0.58514 0.64255 0.2909 0.18965 1.335 -0.050942 0.66742 0.019893 0.31083 -0.035832 -0.065659 -0.039058 0.036477 -0.77274 -0.29395 -0.059236 0.17227 1.1526 0.13975 -0.12944 -0.15685 -0.14734 0.15499 -0.54882 -0.055003 0.58075 0.45022 1.2253 0.25121 -0.38145 -0.13215 -0.29165 0.16617 -0.17763 0.51559 -0.038628 0.62394 0.78921 -0.15709 -0.13248 0.076236 0.50394 0.10731 -0.55627 0.73129 0.12407 0.43679
personnel 0.92761 0.25387 -0.71638 -0.29453 0.37957 0.15136 0.40847 -0.076965 0.29444 -0.80796 -0.055368 -0.02654 -1.8587 0.35882 0.1584 -0.44212 0.139 0.257 -0.12619 0.071889 -0.15758 -0.30628 0.198 -0.45587 -0.12984 0.66943 -0.061359 0.79501 -0.38368 0.54832 0.39667 -0.36172 -0.69202 -0.32372 0.81311 -0.39201 0.13099 0.69289 0.43894 -0.10427 1.2038 0.12352 -0.25638 0.93176 -0.37764 -0.3337 0.59397 -0.48812 0.22874 -0.27106 0.8495 1.0382 -0.18025 0.68381 -1.3297 0.78215 -0.27008 -0.36644 -1.016 0.58523 0.093973 0.28709 0.38831 0.31699 0.77018 0.24034 0.35386 -0.43704 -0.45291 -0.76156 0.32887 0.57973 0.18164 0.75375 0.33992 -0.36228 -0.40671 0.54606 -0.32367 0.051055 -0.3139 -0.01658 0.66807 0.69978 -0.29231 -0.42488 0.81631 -0.25193 1.0709 0.59582 -0.72834 0.59167 -0.013677 0.40185 -0.029092 -0.79676 -0.117 0.58158 0.10832 0.30022
family 0.10379 0.22437 0.21384 -0.2026 0.46925 -0.44591 0.15549 1.1192 0.37532 -0.44362 -0.28997 -0.35704 -4.4785 0.67226 0.40493 0.61869 -0.0028759 -0.47934 -0.90432 0.77798 0.29781 -0.27024 -0.18429 -0.064262 -0.10921 -0.38541 0.21842 -0.19989 0.18177 -0.10554 -0.89808 -0.556 0.15361 -0.16827 0.55591 0.26926 0.90201 0.38997 0.21522 -0.066098 -0.056082 0.010531 0.23071 -0.21535 0.42982 0.50231 0.41334 -0.045819 -0.32464 -0.22165 -0.38122 -0.55162 -0.12111 0.031578 -0.59135 0.16597 -0.24476 0.48064 0.48632 0.24137 8.4491E-4 -0.30503 -0.20469 0.021148 -0.32072 -0.099797 -0.58271 0.221 -0.20643 0.091959 0.60886 -0.95775 0.16516 0.53266 0.85224 0.4155 -0.63501 -0.092307 -0.10131 -0.060565 1.0355 0.16319 0.064408 0.19495 0.45584 -0.13626 -0.084541 0.74229 0.41349 0.055341 -0.0053552 -0.28939 0.16948 0.78523 0.51043 0.2284 -0.080989 0.22922 -0.84265 -0.15491
hypertension -0.10273 -0.59797 -0.36402 0.03091 0.50092 -0.64726 -0.52774 -0.030721 -0.079041 -0.74122 -0.094882 -1.0002 -0.93272 -0.12004 0.36021 -0.2116 1.1743 -0.30664 0.46488 -0.63416 0.45955 0.61036 0.25467 0.58331 -0.29865 1.4273 -0.3408 1.1563 -0.012974 0.30054 0.19377 -0.7126 0.47687 0.38401 -0.26134 -0.80403 -0.67173 -0.51585 -0.062718 1.1395 0.55232 -0.2269 0.61101 0.055136 0.46472 -0.017327 0.0019945 0.50457 0.033116 -0.35187 1.0696 -0.64843 -0.99165 0.0039751 0.59641 -0.454 0.019748 0.4069 -0.37565 0.17198 -0.69837 0.89149 0.094126 0.55745 -0.19977 -0.15849 0.81983 -0.36455 0.33527 -0.11336 0.34893 -0.04273 0.18893 -0.0059151 0.24856 -0.35837 0.41906 -0.33767 0.3089 -0.43477 -0.50094 0.26003 0.71936 0.19236 0.17769 -0.28595 0.27359 -0.40286 0.034338 -0.26701 0.2063 -0.24954 1.1436 -0.11057 -0.10885 -0.25114 -0.12113 -0.094208 0.0246 0.78885
president 0.56758 0.84279 0.27786 0.39377 -0.51126 0.21537 -0.10053 0.3396 -0.17131 -0.93754 0.15924 -0.62512 -3.4008 -0.090885 1.1401 -0.14684 -0.75394 -0.43252 -0.17358 0.30056 -0.069405 -0.37433 0.048017 -0.84528 0.42243 0.1454 1.3799 -0.43898 -0.14752 -0.24869 1.2964 -0.22155 -0.82606 0.6902 0.56214 -0.36259 -0.015934 1.0403 0.56435 -0.76225 0.067032 0.036913 0.48929 -0.087027 -0.012226 -0.42952 0.17935 -0.14913 -0.30334 -0.51135 0.0056783 -0.16729 0.52464 0.1378 -1.3823 0.36325 -0.14601 -0.79509 -0.7354 -0.5625 -0.35191 -0.066776 0.31836 -0.0031676 0.59614 -0.1415 0.036002 0.032773 -0.33364 -0.43731 0.0053498 -1.115 0.81843 -0.41848 0.31409 -0.26615 0.08751 0.29621 0.28507 0.010137 0.80242 0.69332 0.79324 0.73351 -0.61644 -0.13141 -0.31985 0.41005 -0.61678 -0.45496 -0.17993 -0.85528 0.28475 -0.23807 -0.083679 -0.26082 -0.16083 0.77849 -0.034289 -0.36731
atmosphere -0.23197 0.69151 0.14548 -0.14614 0.3943 1.3612 -0.40422 -0.42115 -0.59433 -0.67793 0.11673 0.14448 -2.1888 0.010013 0.031008 -0.45411 0.39078 -0.27311 -0.11984 0.14158 0.086534 0.7393 0.3797 -0.65225 -0.19508 1.0359 -0.54074 0.62172 -0.059977 -0.065797 -0.87938 -0.36925 -0.3283 -0.44592 0.27206 -0.058766 0.51655 -0.12635 -0.06585 -0.33725 0.34076 -0.082723 0.4053 -0.22494 0.19408 0.10673 -0.071346 0.87622 -0.29745 0.2196 0.61763 0.20735 0.27435 0.29575 -0.14264 0.50305 0.44083 -0.35779 0.98719 -0.37895 0.43002 0.24275 -0.58715 0.087663 0.2382 0.070412 0.015964 -0.39846 -0.27883 0.36704 0.35141 -0.57736 -0.25644 0.44805 0.46468 -0.047281 0.14286 0.22634 -0.12651 0.69102 1.3211 -0.91965 0.22328 0.21609 0.83865 0.51694 0.81028 -0.53485 -0.013198 -0.24785 0.13892 0.58883 0.57401 -0.16423 -0.71001 0.10721 0.37856 -0.67868 -0.3514 -0.66114
practice 0.11947 0.070834 0.38327 -0.52403 0.28063 0.7132 1.2122 0.48892 -0.64889 0.39377 0.072164 -0.77989 -3.5608 0.51881 0.20144 -0.80395 -1.2283 -0.051185 -0.48233 -0.64272 -0.40703 0.81634 -0.056787 0.11051 -0.12168 0.77582 -0.52222 -0.1169 -0.69105 -0.37625 -0.41181 -0.037514 -0.31206 -0.0093787 -0.25091 1.0478 0.8528 -0.15412 0.58684 0.70548 -0.67084 -0.195 0.074193 0.82566 0.54782 0.083881 0.36904 0.4885 -0.17506 -0.16847 0.51445 -0.071788 0.11488 0.29934 -0.070483 0.31428 0.42406 -0.83338 0.2491 0.13344 -0.12706 -0.37287 0.22468 -0.56743 -0.33027 0.2115 0.63754 -0.48596 0.61135 -0.49191 0.16913 0.54174 -0.28307 0.17054 0.54018 -0.52571 0.76548 -0.016786 0.20116 -0.56671 1.2755 -0.14362 0.25246 0.047475 0.26248 -0.1079 -0.12051 -0.15797 0.82172 -0.16743 0.33979 0.31691 -0.24315 0.056054 -0.55102 -0.35659 0.29286 0.46238 0.25306 0.38085
movie 0.2776 0.53001 -0.21525 -0.2254 0.032686 -0.3885 0.35882 0.45953 0.089 -0.006116 0.15315 -0.15374 -3.8604 0.18651 0.50978 0.090245 0.5001 0.18834 -0.057911 0.65613 -0.42004 0.30399 0.38018 -0.051438 0.48149 -0.40848 -0.10245 -1.1955 0.68593 -0.42784 0.03117 -0.35418 -0.2639 0.19771 0.08449 0.36377 0.63633 -0.68291 -0.36335 0.20951 -0.97661 -1.0431 0.46363 -0.52 0.3286 1.0514 -0.19876 -0.53024 0.29045 -0.48049 -0.93234 -0.057019 -0.91269 0.58978 -0.61868 -1.0769 0.24388 0.24038 -0.12941 -0.73296 0.069504 -0.26031 0.3012 -0.11458 -0.35393 -0.60379 0.075812 0.043787 0.72008 0.48055 -0.17756 0.040541 -0.27668 -0.40617 0.27338 0.29407 -0.92204 0.23837 -0.37834 0.21127 2.0283 0.17322 0.1549 -0.21561 0.79182 -0.2894 -0.051073 -0.34314 -0.3869 -0.98645 1.1111 0.6083 -1.0064 0.2969 0.6814 0.87983 1.106 -0.3149 -0.33626 -0.66167
popcorn -0.39367 0.26005 0.15352 -0.1031 -0.25151 -0.12696 0.11856 0.59618 0.40202 -0.71865 -0.3813 0.2805 -1.9365 -0.42992 -0.88806 0.69318 0.54524 -0.058177 -0.023708 0.6082 -0.54589 0.069667 -0.011893 0.62399 -0.076644 0.53601 -0.1323 -0.52438 0.38001 -0.15951 -0.38723 0.53879 -0.69611 -0.086661 0.16003 -0.26995 0.03483 -0.42965 0.58045 0.92302 -0.77681 -0.35456 -1.3477 -0.17793 0.54029 0.65326 -0.0059276 0.46109 0.18837 0.45472 -0.7749 -0.14055 -0.41171 0.42805 0.20908 -0.69157 0.81584 -0.19823 0.7592 -0.11401 -0.89457 -0.47146 0.4477 0.64153 0.013707 -0.96431 0.74025 0.14325 0.17843 -0.066485 -0.030632 -0.64985 -0.57564 -0.59688 -0.19597 0.49112 -0.76623 -0.71913 0.48274 0.81021 1.1763 0.081486 -0.86545 -0.34644 0.58135 -0.13921 0.0011092 -0.62472 -0.42418 0.10044 -0.4763 0.24686 -0.39746 0.34666 -0.17685 0.92572 -0.39812 -0.16577 -0.2763 0.085496
recommendation 0.17255 0.76334 -0.32316 0.051624 0.33528 -0.70565 0.41585 -0.936 -0.59649 -0.42305 -0.43988 0.14807 -1.8575 -0.38374 -0.014636 0.50458 0.64412 0.3796 -0.038726 0.049226 -0.095722 -0.24674 0.012 0.56556 -0.51553 1.4515 0.28915 0.10967 0.74935 -0.4782 0.50132 0.78406 -0.69116 0.011976 0.22437 -0.65747 0.70072 -0.22445 -0.3001 -0.18273 0.81878 0.017752 0.53599 0.13821 -0.056677 0.58148 -0.11723 -0.17387 -0.048705 0.1099 0.83894 -0.087646 -1.4963 -0.21092 -0.67978 0.16791 0.73063 -0.61834 -0.28488 0.12088 -0.078986 -0.43128 0.087782 0.84685 0.16105 0.60455 0.23028 -0.39641 0.022863 -0.15249 0.1928 -0.3582 0.037071 -0.40774 -0.12638 -0.32976 0.23729 -0.41305 -0.52237 0.069305 0.66108 0.57598 0.40712 -0.061481 0.072163 -0.099209 -0.20395 -0.33089 0.52618 -0.54448 0.10356 0.70046 -0.17786 -0.032383 -0.16119 -0.56162 0.27994 0.39592 0.035457 -0.03165
focus -0.083057 -0.050719 0.74785 -0.23267 -0.0062339 0.80457 0.2594 -0.29815 0.30084 -0.043793 0.62612 -1.3731 -3.4184 0.55807 -0.34284 -0.089052 -0.28056 -0.25184 -0.21474 -0.40932 -0.30791 0.27778 7.5022E-5 0.69572 -0.91204 0.45406 0.075664 0.76191 -0.037062 -0.45609 -0.48335 -0.51761 -0.18788 0.31082 1.2492 0.25894 -0.12908 -0.10436 0.21215 -0.16845 -0.5512 -0.0077165 0.28438 -0.25008 0.46388 -0.32589 0.014942 -0.17675 -0.62601 0.17042 0.16747 -0.33968 0.50078 -0.16421 0.042392 -0.13722 -0.42539 -0.34273 -0.24982 -0.27554 0.0032729 -0.062551 0.5549 -0.022073 0.29708 -0.14796 0.52917 -0.36192 0.0068588 -0.52963 -0.48396 0.95785 -0.57374 0.12052 0.055272 -0.36854 0.44122 0.40873 -0.035055 -0.1691 0.031908 -0.090858 0.47761 0.043268 0.20156 -0.40967 0.42153 0.037732 -0.15487 0.18332 0.21807 0.23727 0.54639 0.16307 0.42453 0.015628 0.24721 -0.26893 -0.21888 0.27235
attempt 0.15843 0.55057 0.87428 -0.43133 0.14281 0.12768 0.34366 -0.46875 0.15628 0.14343 0.10815 -1.104 -2.8452 -0.12227 -1.1094 -0.76215 0.046245 0.27969 -0.84637 -0.21956 0.11972 0.13835 -0.54605 -0.60509 -0.14837 0.62883 -0.32952 0.16807 -0.29712 0.79286 1.3796 0.2725 -0.26337 0.074972 0.23826 0.61959 0.3977 -0.47373 0.28168 -0.30765 0.83777 0.19535 -0.17867 0.037473 0.91097 -0.026433 0.17084 0.22165 -0.43278 -0.3631 -0.48336 0.85136 0.63339 0.31145 0.3208 -0.26255 0.16971 0.28972 -0.23617 0.41031 -0.1026 0.65147 0.33668 -0.3131 0.17193 -0.045723 0.36974 -0.074048 -0.76383 0.080052 -1.2913 -0.40874 -0.40638 0.581 0.42354 -0.13337 0.27551 -0.031854 -0.21019 0.14097 1.509 0.78837 0.11931 0.008253 0.17807 -0.080958 0.062576 -0.22151 -0.14609 -0.33116 0.018873 -0.16688 0.0041245 -0.99126 0.15157 -0.24297 -0.84255 0.553 0.60092 -0.089763
approach 0.7946 -0.52558 0.21016 -0.24533 0.042196 0.58326 -0.067177 -0.88991 -0.20648 0.078807 0.165 -0.56546 -2.91 0.17128 -0.21976 0.068749 -0.21869 -0.06079 0.015955 -0.56965 0.43552 -0.051107 -0.1959 0.28235 -0.79075 1.1853 0.12332 0.90078 -0.72498 0.23616 0.35276 -0.12259 -0.34524 0.046293 0.54636 0.066547 0.31888 0.4281 0.14104 -0.18467 0.38098 0.12287 1.4398 -0.029012 0.69563 0.53593 0.039026 0.36545 -0.22879 -0.49941 0.5136 0.17028 -0.15428 0.029822 -0.39477 -0.13232 -0.10588 -0.57234 0.20934 -0.078532 0.85302 0.43592 -0.39397 0.26769 0.51672 0.51752 0.65037 -0.51462 0.21687 0.053901 -0.51652 0.016956 -0.18833 0.40916 0.27458 -0.60944 0.60331 0.077325 -0.21433 -0.34148 0.61342 0.60986 0.026311 -0.15533 -0.2136 -0.56437 0.011594 0.266 -0.27878 0.068156 0.083023 0.45883 -0.30578 -0.053345 0.47137 -0.3164 -0.19596 -0.25113 -0.090583 -0.059801
number 0.1844 0.25706 -0.06333 0.1348 0.42694 -0.025103 0.5865 0.48731 0.19022 0.50514 -0.24202 -0.037518 -3.7625 -0.46311 -0.31222 0.10044 0.44293 -0.011424 0.062565 -1.0238 0.067995 -0.10374 0.49532 0.15888 -0.59887 -0.32792 -0.36997 -1.0023 0.56162 -0.21197 0.73628 -0.11478 -0.57319 -0.53354 0.80182 -0.050337 0.63192 -0.046174 0.1406 -0.43479 -0.46241 0.7252 0.28871 -0.10508 -0.47582 -0.67578 0.18388 -0.79816 0.49535 0.51344 -0.12924 0.25812 -0.073788 0.26275 0.37982 1.2217 -0.22035 0.066543 -0.39669 0.17413 -0.14708 -0.019318 -0.043038 0.66491 -0.25127 0.46345 -0.46976 -0.07626 0.26083 -0.53236 0.13933 0.31897 -0.29225 -0.46465 0.33317 -0.24243 -0.47312 0.15432 -0.13379 0.0891 1.2714 0.097569 0.32551 -0.94924 -0.2932 -0.23089 -0.64312 0.022179 0.28208 -0.071889 0.24561 0.17894 -0.478 -0.16024 0.23769 0.0092127 -0.32297 0.066975 0.34056 -0.10015
property -0.28049 -0.39393 -0.026519 0.25424 0.45729 -0.55278 0.31526 -0.95848 0.34194 0.13229 -0.4951 -0.0037479 -2.4214 0.9477 0.66289 -0.54008 0.30405 0.13314 -0.090182 -0.16205 0.46897 -0.45827 0.39874 -0.19088 -0.47615 0.75189 0.10972 0.33424 0.60223 0.69399 2.553E-4 0.33303 0.090073 -0.25408 1.0339 -0.16139 0.47512 1.2289 -0.10598 -0.60263 0.22304 1.3858 1.1981 -0.86504 0.42634 0.34985 0.39211 -0.046904 0.091117 0.54044 0.3126 0.40288 -0.75359 0.93472 -0.91464 0.047248 -0.26683 -0.43517 -0.28591 0.20378 -0.11756 0.25927 -0.26622 -0.074108 0.69833 0.27767 -0.053145 -0.44551 0.35306 0.024577 0.21073 -0.065653 0.92652 0.93292 -0.14263 0.42123 -1.2183 -0.086249 -0.15597 -0.071149 0.67665 0.0061359 0.21949 -0.14519 -0.10744 -0.37254 0.93728 0.30337 0.17221 0.58961 -0.38668 -0.20691 -0.055942 -0.15904 0.46358 0.097261 1.0716 -0.82562 -0.47609 0.14664
fingerprint 0.14799 0.33043 -0.64386 1.03 0.76156 -0.74617 -0.19622 -0.53473 0.64519 -0.42424 0.1082 0.3599 -0.87347 -0.12621 -0.069045 -0.079526 -0.36996 0.79633 0.21842 -0.15939 -1.0651 1.1024 -0.2042 0.50387 0.095731 1.2999 0.08999 0.1451 0.010651 1.3986 0.12798 0.30737 0.82958 -0.91826 0.30715 -0.37006 -0.077278 -0.18201 0.25101 -0.15958 0.89656 -0.28536 -0.21302 -0.23948 0.23138 0.28538 0.42065 0.18518 -0.32565 0.75446 1.0021 0.49734 -0.80577 -0.22244 1.0013 0.5792 -0.20225 0.23222 -1.003 -0.18492 0.46994 0.6426 0.20139 -0.04101 -0.32244 0.66181 0.17616 -0.58386 0.22126 -0.26012 0.10331 -0.12681 -0.76831 0.23455 -0.38233 -0.27485 -0.051959 0.66876 -0.51465 1.0119 0.69628 0.45742 0.14451 0.15472 -0.4732 -0.37259 -0.13152 0.022582 0.013525 -0.17695 -0.21551 -0.15429 0.48799 -0.24615 0.31939 -0.58711 -0.2053 -0.30954 -0.6264 0.082107
reservation -0.52231 0.77896 -0.34986 0.39579 0.18181 0.10249 0.55156 -0.20962 -0.40461 -0.87999 -0.56173 -0.064208 -1.2923 0.33583 -0.060864 -0.12214 -0.41981 0.46598 0.065901 -0.63765 -0.46596 -0.25865 0.17043 -0.23594 -0.62578 1.0649 0.69671 -0.5402 0.54385 0.46661 0.44733 0.28211 -0.32611 -0.27428 0.23476 -0.44481 0.09823 0.583 0.44325 0.31834 0.23105 1.5045 0.83887 0.055916 0.38612 0.18018 0.26385 -0.33378 0.76816 0.37709 0.64207 0.17064 -0.84708 0.12396 -0.96019 0.28206 0.44843 -0.54196 -0.60717 0.48619 0.86841 0.4787 -0.27042 0.76608 -0.2698 0.23369 0.30138 -0.31716 0.037188 -0.32519 0.72317 -0.079793 0.05263 -0.40093 0.55296 -0.18523 -0.52619 -0.09337 0.20037 0.0093062 0.77945 0.26923 0.38247 -0.30905 -0.095624 -0.41191 0.018183 -0.63826 0.32362 -0.017692 -0.61201 0.080814 -0.32512 0.26437 -0.62071 0.43857 0.089457 0.10698 -0.87796 -0.011401
block -0.11913 0.44076 0.040752 -0.58778 0.26662 -0.054911 0.50472 -0.12632 -0.10834 0.10753 0.266 0.086459 -3.1079 -0.30546 0.37255 -0.16112 0.19471 -0.36951 -0.27692 -1.1169 -0.4558 0.54871 -0.44719 0.017827 -0.026483 -1.093 0.40788 -0.49582 0.76601 0.88431 0.56778 -0.12025 0.26075 -0.46167 -0.22419 -0.18303 -0.31471 -0.047965 0.25907 -0.22003 -1.0476 0.65086 -0.47978 -0.36461 0.037855 -0.4499 -0.27696 0.21198 -0.046616 -0.36128 -0.12818 -0.075724 0.66047 0.28988 -0.48662 -0.21135 -0.92457 0.42461 -0.11518 -0.15709 0.25392 -0.0033019 -0.0080821 0.79873 -0.65105 -0.46823 0.10714 -0.13712 -0.31129 -0.03685 -0.33387 -0.075165 -0.40525 0.31909 0.026268 0.305 0.46943 -0.24797 0.066156 0.41325 0.92157 0.20392 -0.18265 -0.45535 0.0049493 -0.6388 0.24855 -5.676E-4 0.59056 0.18934 -0.72997 0.018781 -0.24973 -1.0378 0.59687 -0.32328 -0.24632 -0.16658 -0.17293 0.37851
fear 9.0785E-4 0.28405 0.42823 0.39295 -0.48502 1.0292 0.1997 -0.18785 -0.22478 0.95785 0.68612 -1.039 -3.877 -0.090553 0.12824 0.074366 0.78186 -0.37542 -0.069064 -0.051576 0.087365 0.02659 0.57565 -0.23112 0.12001 0.73906 0.71967 0.28013 0.19474 0.6513 0.094381 -0.54173 -0.19701 0.28966 0.16613 -0.099508 -0.43875 -0.12597 -0.67508 -0.10662 0.38943 0.17759 0.11939 -0.48693 0.82399 0.90242 0.11719 0.43762 0.7807 -0.12605 0.47198 0.050736 0.30641 -0.19202 -0.032207 -0.37783 -0.27776 0.64246 -0.54506 -0.32253 -0.26636 0.80077 -0.6371 -0.62924 0.084399 -0.24167 0.7345 -0.0265 -0.10218 0.01445 -0.13582 -0.4524 -0.97597 -0.3585 0.99543 -0.36203 -0.090062 -0.96116 -1.0205 0.016728 0.57772 -0.21227 0.46773 1.1325E-4 0.5221 -0.19518 -0.16759 0.60985 -0.10855 -0.17437 -0.0064177 0.085196 0.52147 0.80009 -0.20795 0.11228 -0.38592 -0.3102 0.81278 0.35173
surface -0.14616 -0.47495 -0.67244 -0.39565 0.58412 1.2775 -0.577 -0.65898 -0.20578 -0.015462 0.78575 0.43867 -2.0561 -0.71662 -0.50961 0.38926 0.18689 0.17441 0.007314 1.0614 -0.5428 -0.13617 0.66369 0.73875 -0.64155 0.58434 0.25569 0.82102 0.052168 0.77338 0.099736 -0.59577 0.090335 -0.62257 0.33056 -0.025283 -0.77081 0.18492 -0.21359 -0.12931 -0.27218 -0.05859 -0.069291 -0.3239 0.82929 0.040691 0.24817 -0.5115 -0.58705 -0.0068028 0.75173 0.37021 -0.33311 0.12382 0.05923 -0.30499 0.87294 -0.046102 0.83264 -0.70783 0.020049 0.25333 -0.50711 -0.035216 1.3621 -0.068489 0.97514 -0.38433 0.18449 -0.69101 -0.31763 0.23534 -0.49405 -0.44744 -1.0602 -0.42291 -0.1558 0.19482 0.18483 0.29454 1.3146 -0.61988 0.27314 0.35108 0.91645 -0.026212 0.16593 -0.12823 -0.42098 -0.025408 -0.34654 0.17879 0.68943 -0.80031 0.94338 -0.29893 -0.4562 -0.46439 0.0038245 -0.096644
issue 0.36494 -0.30162 -0.734 -0.34802 0.23887 -0.15311 0.24482 -0.20875 -0.1518 -0.52865 0.26113 -0.75639 -3.4073 0.063112 0.68491 -0.17722 0.015004 0.18309 0.54232 -0.31038 -0.017268 0.46448 -0.036627 1.1051 -0.54997 0.58701 0.46248 -0.44234 0.39693 -0.23467 0.18868 -0.078258 -0.23974 -0.015458 0.83925 -0.3176 -0.23309 0.39462 0.80312 -0.35933 -0.2058 -0.32611 0.65255 -0.18274 0.34458 -0.046315 -0.23049 -0.36874 -0.07217 0.58086 0.41649 0.27903 -0.11946 -0.50937 -0.26856 0.12865 -0.104 0.0013602 -0.8707 -0.43806 -0.07176 0.99973 0.76456 0.50937 0.32026 0.15549 0.80254 -0.64982 -0.41779 -0.60938 -0.31658 -0.13159 -0.1401 -0.75909 0.46511 -0.18242 -0.74772 0.46684 -0.15793 -0.14539 1.093 -0.48473 0.85128 -0.73506 -0.37631 -0.049676 0.27377 0.46567 -0.011907 -0.050716 -1.0132 0.33024 0.45818 -0.48846 0.090646 0.29671 0.17706 0.13141 -0.37533 -0.39118
metal 0.071963 -0.77258 -0.85705 0.087538 0.52495 0.3949 -0.10825 0.14394 0.4068 -0.15985 0.39562 0.36509 -2.1011 -0.16699 0.096718 0.31335 0.57904 0.13319 1.1342 0.28387 -0.83145 0.52515 0.61074 0.44095 0.37169 -0.83815 -0.61358 0.68364 0.39552 -0.57866 0.18686 -0.82626 0.40168 0.09706 0.91008 -0.25974 0.2205 0.0062304 -0.34118 -0.28072 -0.72475 -0.42144 -1.1926 0.57794 0.34545 0.045665 -0.17424 0.53015 -0.37653 -0.53166 0.38912 0.89319 -0.34603 0.14568 -0.18194 -0.87968 -0.17804 0.47753 0.8499 0.63671 -0.37196 0.26834 -0.40927 -0.08611 0.071192 0.028431 0.19789 0.24741 0.53781 -0.060426 -0.090677 -0.65857 -0.91043 0.55922 0.048333 0.22154 0.25208 0.19427 0.27978 -0.18409 1.822 0.29857 -0.064033 0.2347 -0.38358 -0.28057 0.27165 0.0060071 0.56674 0.74421 -0.32241 -0.14145 -0.043369 -0.73199 -0.85613 0.12562 0.40955 -0.22336 -0.3079 0.1683
index 0.061378 -0.31143 0.21943 -0.071777 0.99586 -0.04659 0.35331 -1.2067 0.15607 -0.09538 -0.69912 -0.016505 -1.525 0.17429 -0.036791 -0.027634 0.22519 -0.22362 -0.35743 -1.5356 -0.054803 0.66122 0.47177 0.64346 -0.037706 0.82426 -0.44268 0.5855 1.3787 0.6603 0.082013 0.10043 0.77376 -0.2628 1.4021 -0.58564 -0.33333 -0.1828 1.1136 -0.34307 -0.28503 -0.42725 0.55827 -0.19458 0.33271 -0.23282 0.21623 -0.41989 0.47608 0.04724 -0.34385 -0.62691 0.08613 0.44731 -0.02447 -0.17843 -0.10914 -0.3993 -0.57567 -0.87124 -0.64559 -1.0229 -0.22855 0.41451 0.24501 0.13732 1.1723 0.12533 -0.068811 -0.88813 0.083494 0.024725 -0.47452 -0.19963 -0.79657 -0.72803 -0.21741 -0.017203 0.16882 -0.12908 0.90632 -0.42794 0.8992 -0.26787 -1.1673 -0.42236 0.77181 0.7159 -0.072429 -0.47905 -0.22847 0.0049808 0.86555 -0.026418 0.2353 -0.43228 0.21655 -0.6228 -0.096063 0.63621
isolation -0.47218 -0.38353 0.31673 0.0071672 0.61994 0.56531 -0.43403 -0.50349 0.014586 -0.68018 0.65694 -0.12028 -1.2995 -0.27804 0.16654 -0.63846 0.049256 -0.20542 -0.17173 -0.088591 -0.43449 0.065555 0.327 0.35612 -0.50924 1.0042 0.16239 0.69853 0.037682 0.18925 0.16786 -0.86387 0.025077 -0.22691 -0.32246 -0.091094 -0.37342 -0.1683 0.028977 0.075324 0.48902 -0.058512 0.50406 -0.79433 0.38335 0.35827 -0.49339 0.67706 0.16936 0.19924 1.1513 -0.08854 -0.11708 -0.41631 -1.1541 0.60573 0.44651 0.36119 0.24172 0.5941 0.77944 1.0847 -0.73763 -0.11132 -0.6871 0.12364 0.14954 0.031474 -0.0080402 0.54434 0.3327 -0.14319 -1.1131 0.14394 0.32289 -0.76663 0.21402 -0.020256 -0.13828 0.21215 0.18579 -0.37385 0.49695 0.33135 0.4803 -0.89606 0.40928 -0.51516 0.28426 -0.14614 -0.048188 0.094319 0.93298 0.2864 0.41106 -0.09915 -0.03301 0.16661 0.66634 -0.71663
impartiality 0.49514 -0.35893 0.30177 0.12699 0.29236 0.70464 -0.47357 0.24322 0.32803 -0.36602 -0.084948 -0.65931 0.014531 -1.2117 0.052919 -0.41454 0.27086 0.12537 0.18873 0.54338 -0.6718 0.18058 0.09801 0.74318 -0.15173 1.7251 0.67714 0.24816 -0.18886 0.46244 -0.35011 0.66975 -0.092334 -0.41385 -0.75988 -0.84782 -0.02305 0.83099 0.30583 -0.47823 0.69737 -0.44679 0.97805 -0.29996 0.38507 -0.029594 -0.071918 -0.17664 0.55581 0.85439 1.1631 0.42912 -0.79333 0.20877 -0.66298 0.082359 -0.02758 -0.40231 -0.81086 0.24825 0.029814 0.49549 -0.26437 0.41657 -0.07989 0.93962 0.28203 0.39889 0.46 0.51987 0.51877 -0.38181 -0.020245 -0.15066 1.0215 0.34102 0.56604 -0.16431 -0.20076 0.42733 0.052903 -0.084229 0.33717 0.55211 -0.71375 -0.1167 0.4923 -0.89362 -0.020573 0.043031 0.3605 -0.34352 -0.7105 -0.16058 -0.1629 -0.15239 0.44025 -0.41345 0.071909 0.36496
drink -0.80105 -0.18053 0.09278 -0.49373 0.0276 -0.22454 0.20882 -0.014676 0.46991 -0.23977 -0.8066 -0.62107 -3.8305 -0.23667 -0.92765 0.14888 0.39247 0.25806 0.30424 0.14904 0.2425 -0.18166 -0.086602 -0.5465 0.38822 0.52307 0.20855 -0.78272 0.22366 -0.40832 -0.48042 -0.098256 -1.3672 0.86064 -0.57827 -0.44024 -0.037593 -0.36436 0.50872 0.80448 -1.1456 0.68293 -0.091131 -0.32573 0.094556 -0.23126 -0.062552 1.1464 -0.51665 0.30361 0.1805 -0.77067 0.022121 0.36125 0.20444 -0.21607 0.90931 0.13096 -0.41845 0.090017 -0.48926 -0.051844 0.1229 0.71419 0.45671 -0.85378 0.5721 -0.072417 -0.29637 0.56054 0.16447 -0.59121 -0.47602 0.31558 0.029821 0.32248 0.60208 -0.66776 0.71907 0.53919 1.7586 -0.0021946 -0.85645 -0.29012 0.81349 -0.2959 -0.22305 0.069094 -0.81927 1.2691 -0.72617 0.40263 -0.21205 0.3675 -1.0915 -0.54995 -0.75739 -0.31441 -0.12208 0.45298
baseball -0.019128 -0.12723 0.18446 -0.25409 0.57588 0.010046 1.0013 0.8729 -0.7178 -0.34332 0.762 0.24169 -3.2267 0.45723 0.71001 -0.42344 -0.93541 0.44359 0.20561 -0.13789 0.018565 0.18148 -0.17193 -0.78754 -0.4814 0.38075 -0.12325 0.11946 -0.060056 -1.1893 -0.29944 0.064037 0.56915 -0.054201 0.71676 -0.049437 0.96414 -0.38405 0.54611 -0.11956 -0.71143 -0.38176 -0.69738 0.2286 0.078379 -0.035075 0.0038019 0.35844 0.29825 -0.47974 -0.05653 0.23836 0.14909 0.44458 0.1329 1.0083 0.56434 -1.0845 -0.27538 0.25831 0.043714 -0.14362 -0.70069 -1.1283 -0.19203 0.044103 0.36307 1.0156 0.10757 -0.96499 0.13193 -0.52029 -0.28978 -0.22878 -0.38933 0.048603 0.24577 0.18698 -0.91987 -0.15241 1.4867 -0.73608 -0.23962 0.31068 0.68204 1.0643 -0.58231 -0.067818 0.3298 -0.13742 -0.19548 0.2755 -1.0163 0.68265 -0.35766 -0.052019 0.67715 0.85811 -0.15723 0.69761
jaguar -0.51678 -0.33267 -0.26635 -0.1286 0.19849 -0.43285 -1.0939 -0.040886 0.33435 -0.60905 0.75193 0.93169 -1.1216 -0.84128 0.68333 -0.73177 0.25466 0.85039 0.30489 0.099511 0.19401 -0.59284 -0.41482 -0.59503 -0.29167 -0.19414 -0.20833 0.70136 -0.63648 -1.0718 -0.022348 -0.38375 0.40112 0.45618 0.78203 0.091596 0.17034 -0.17014 -0.56626 0.02844 0.17839 0.46936 0.65477 -0.44971 0.17757 0.637 0.2698 0.42263 0.47047 -0.64655 0.80143 -0.02594 -0.38856 -0.13548 0.19837 -0.26294 0.6913 0.10384 -0.27276 0.081586 0.19077 0.41314 0.2606 -0.26648 -0.40229 0.21174 -0.20548 -0.17977 0.35045 -0.091016 0.75994 -0.080222 -0.44137 0.43625 -0.21037 -0.10691 -0.071103 0.92586 0.091165 0.40002 0.89016 0.18292 -0.23675 0.8843 0.11348 -0.48826 -0.47482 -0.35928 -0.83539 0.59087 0.666 0.60193 -0.18375 0.37778 0.20937 -0.021336 -0.10114 -0.68787 -0.81296 0.10317
