418 25
plane -0.78018 0.2765 0.76025 -0.34177 -0.87158 -0.3736 0.83085 -0.56774 0.56767 1.0145 0.5708 0.083554 -3.0585 0.69962 0.51057 0.99142 0.97757 -0.071177 0.088923 -0.52892 0.096149 -0.76292 1.1033 -1.5847 -0.14656
stupid 0.8054 0.3752 0.29165 -0.070452 0.66602 0.55511 1.8189 -0.49055 -0.48745 0.53093 -1.1575 0.72485 -4.209 -0.94167 0.67888 0.31063 0.60433 -0.59481 0.013999 -0.24454 0.91369 1.077 0.38138 -0.35204 -0.8
egg -0.072229 -0.0242 0.44673 0.77842 0.24787 -0.070283 1.0338 -1.6119 0.14722 0.35222 1.2073 -0.31844 -2.7634 -1.0656 -0.14464 -0.5286 1.6228 -0.63097 -0.34263 0.54261 -0.46197 0.66344 0.14254 0.37344 0.9752
year -0.049064 0.68725 0.67187 -1.0373 0.096446 -0.37432 1.8354 0.087708 -0.72008 -0.15958 -0.13232 0.51415 -4.5565 1.4328 0.30352 -0.73738 0.45681 -0.94921 -0.40911 -0.067633 -0.79604 0.202 -0.35874 0.13302 -0.26809
psychiatry -0.76008 0.24249 -0.83436 -0.27871 0.70484 -0.8141 -0.19344 -1.6177 1.7103 -0.35276 -0.78967 -0.055217 -0.72587 -0.32369 1.0952 -0.88585 0.28581 1.3601 0.98554 -0.2013 0.48661 -0.13407 -1.3223 -0.94867 0.26294
asylum -0.32808 0.45464 -0.51258 0.11326 -0.18101 -1.5532 0.79917 -0.99266 0.43576 -0.7064 0.31423 -0.12513 -1.9069 0.48203 1.2717 -0.017081 -0.30357 0.52304 0.86564 -0.57347 -0.54873 0.18304 -0.3922 -1.4267 0.96252
manslaughter -0.67493 0.26877 -0.59582 0.76899 0.68828 -1.438 -0.9407 -1.9839 0.4342 0.40584 0.41737 0.91517 -0.66751 -0.41399 1.5425 -0.35064 -0.079308 1.4108 -0.003106 -1.8048 -0.23373 1.3873 0.90519 -1.6655 -0.28129
music -0.12396 0.048617 0.48153 -0.044051 0.76683 -0.30726 2.2605 0.66417 0.18612 -0.72291 -0.27666 0.75348 -4.0836 -0.046326 -0.49996 0.65501 -0.56711 0.048527 -0.20459 0.50941 -0.59832 -0.92848 -0.015113 -0.31311 0.85532
record 1.0977 0.39901 0.49718 -0.46284 0.52958 -0.001205 0.36909 0.0049868 0.38203 -1.0841 0.46041 -0.33117 -3.4869 0.79319 0.26638 0.043072 -0.76477 0.026681 -0.56201 -0.54023 -0.98459 0.21062 0.9158 -0.63914 -0.36684
energy -0.08622 0.52333 -1.5107 0.22578 0.50692 0.94346 0.60476 -1.2285 0.9568 0.19934 0.22979 -0.0063357 -3.7762 0.67079 0.73114 -0.1609 0.14456 0.6768 1.1837 0.052627 -0.88414 -0.78712 -0.12453 0.40372 -0.071607
announcement 0.13289 0.77555 0.24956 -1.0376 0.22179 -1.48 1.429 -0.45546 -0.034781 -1.1392 0.33141 0.62982 -2.4781 1.1116 0.82712 0.52484 -0.044938 -0.31746 -0.75875 -0.43091 -0.53631 -0.92149 -0.035693 -0.11844 -0.60715
mile -0.75964 0.29633 0.51165 -0.14243 -0.69665 0.47609 -0.24159 -0.12763 0.21763 -0.23377 -0.26548 -0.16978 -2.9436 1.5711 -0.075107 0.31115 -0.035129 -0.16115 -0.1381 0.49362 -0.59036 0.1503 1.5586 -0.17029 -0.48762
airport -2.0865 -0.0021981 0.8493 -1.4564 -0.83844 -0.80157 0.44099 0.37413 1.4009 0.40926 -0.10263 0.77931 -2.8374 0.57789 0.70094 -0.98445 0.20104 0.36623 -1.0395 -0.27583 -0.16308 -1.4543 0.42966 -1.1305 -0.25316
population 0.15489 -0.6874 -1.1111 -0.32439 0.48294 0.14924 0.41798 -1.7646 -0.27948 0.79891 0.94002 -0.69646 -2.5699 1.3938 -0.22057 0.14518 0.045054 0.47482 0.62298 0.094696 0.40249 0.063464 -0.25484 -1.2978 -0.33056
planning -0.40464 1.7978 -0.34637 -0.60925 0.31692 0.33788 0.64328 -0.95858 0.69976 -0.26265 0.25876 0.27305 -3.4456 0.49767 0.74642 0.73714 0.28769 0.18447 -0.9008 -0.90461 -0.5464 -0.53576 -1.6219 0.11456 -0.11253
canyon -1.8445 -0.88523 0.43519 -0.29078 -1.6552 0.40017 0.20376 -0.77043 1.5526 0.040683 0.64642 -0.26266 -1.8823 0.48322 1.0473 -0.65988 0.37752 0.11695 0.74188 0.99648 -0.52918 -0.16812 0.24575 -1.1364 0.30619
delay 0.030905 1.5039 -0.40771 -0.3653 -0.27626 -0.21757 0.76909 -0.26816 0.91924 0.9113 -0.056098 0.55443 -2.1606 1.1343 1.2673 0.14045 -0.042135 0.057864 -0.17226 -1.0697 -0.73739 -0.31588 0.70798 0.30249 -0.46682
size -0.10061 -0.69059 -0.28486 -0.2898 0.9934 0.56343 -0.72958 -0.83288 -0.46303 0.96382 0.92356 -0.26157 -3.2733 0.54048 -2.0638 -1.1897 0.82134 -0.84098 -0.81587 0.49731 -0.22988 0.38718 -0.34138 0.19463 -0.8887
peace -0.73268 0.40219 -1.1994 1.2416 -0.734 -0.68884 1.096 0.39164 0.067835 0.31151 -0.38445 0.63368 -3.4681 0.89032 -0.18536 -0.19432 0.15087 0.10051 0.077423 0.23775 -0.29824 0.055027 -0.84333 0.086071 0.067199
science 1.0617 -0.05314 -0.31337 -0.36208 0.72722 -0.29104 1.4991 -1.032 1.4928 0.0038715 -0.72914 0.078129 -3.4414 0.26925 1.3873 0.050016 0.43955 0.68662 0.032735 0.095913 -0.31252 -0.33002 -1.31 -0.056665 0.02522
dawn -0.80183 -0.043305 1.1452 0.28363 -0.70641 -0.85742 1.4387 0.46315 0.53926 -0.70008 -0.050296 0.77347 -2.2662 0.51561 0.25736 0.34492 -0.018313 0.43251 -0.24514 0.27584 -1.0757 0.46107 -0.22659 -0.092231 0.38777
brother -0.74632 0.67652 0.95797 0.14361 0.02808 -0.51116 1.0101 0.65478 -0.60427 -0.36362 -0.68061 -0.31691 -4.0293 -0.73709 0.33912 -0.54796 0.38303 -0.69526 -0.32052 -0.16578 0.65092 0.6075 -0.11483 -0.10159 -0.32912
wine -1.5527 0.26848 -0.2768 0.37951 0.33574 0.69394 1.2349 -1.059 0.20216 0.43683 0.89749 -0.19191 -3.0246 -0.13259 -0.071543 -0.5227 0.99669 -0.49429 0.10851 0.48231 -0.78908 -0.53168 -0.19046 0.43022 1.299
object 0.10567 -0.68283 -0.74108 0.80032 0.61994 0.097366 0.72822 -1.3103 0.98119 0.35352 0.020669 1.0605 -2.2122 0.71153 -0.34974 0.85447 0.76645 1.147 0.79374 -0.057022 0.31962 -0.2023 0.0057292 -0.34474 -0.78543
attitude -0.36223 -0.027063 -1.4238 0.80281 0.92081 0.97581 1.1442 -0.53118 0.25115 -0.058917 -1.2199 0.94521 -3.4487 0.33893 0.5053 0.93912 -0.061308 -0.26167 0.60989 0.15358 0.93667 0.8644 0.087997 0.5971 -1.068
treatment -1.0536 0.33993 -1.6533 0.72677 1.6151 -0.246 0.73138 -1.3175 0.83556 0.43208 1.1173 0.11189 -2.4085 -0.030988 0.91793 -0.50125 0.3393 -0.07191 0.60641 -1.1049 -0.59203 0.46091 -0.18504 0.2209 -0.033183
flight -1.1435 1.302 0.72238 -0.5658 -0.48178 -0.17799 1.0438 0.052354 0.97581 0.72873 0.15061 0.19489 -3.0023 1.2624 0.93297 0.24992 0.98489 -0.39419 -0.15732 -0.044425 -0.70758 -1.1183 0.27942 -0.34993 -0.48337
forest -1.2358 -0.58127 0.20145 0.01657 -1.3504 0.309 1.0203 -0.77423 1.0512 -0.19254 0.35637 -0.074358 -2.7841 0.45832 0.7889 -0.55732 0.33944 0.22775 0.61578 0.55322 -0.51753 -0.18762 0.18907 -1.116 0.46897
abuse 0.69742 0.16452 -1.6094 0.66614 0.70988 -1.1078 0.38544 -1.191 -0.25564 0.61885 0.33449 -0.25693 -2.8569 0.044045 0.78354 0.72343 -0.17458 0.12872 -0.26133 -1.0536 0.60174 0.57456 -0.26378 -1.4532 -0.19243
criterion -0.31427 -0.070929 0.127 -0.31781 -0.11347 -0.39468 0.20124 -1.6139 1.2297 -1.4566 0.41684 0.26096 -0.80146 0.17051 0.25387 0.29984 0.33446 1.0161 0.88303 1.0574 -1.0696 -0.36877 -0.40563 -0.01621 -0.50958
sea -0.87888 -0.45589 -0.70022 0.35085 0.40533 0.66593 0.54857 2.2484 -0.62101 -0.72507 0.70883 -2.5225 -2.678 0.3586 1.1555 0.095962 0.049287 0.3197 0.6117 -0.64003 0.20542 -0.38524 0.64532 0.071871 0.21468
dollar 0.14885 1.3896 -0.54101 0.0012239 0.3918 0.16785 -0.31935 -0.89263 -0.49567 0.60636 1.6029 0.15576 -3.0895 0.034594 -0.38798 -0.97624 0.94158 -0.62517 -7.581E-4 0.30885 -0.66535 0.02978 0.63801 -0.25222 -0.50492
example 0.15773 -0.17057 -0.54851 0.17185 0.58238 -0.34551 1.1905 -0.73965 0.17331 -0.43943 -0.50311 0.70757 -3.2831 0.30243 0.22886 0.16294 0.118 0.26068 0.44564 -0.075968 0.19754 0.21364 -0.90991 -0.16503 -0.96921
journal 0.192 -0.53238 -0.70217 -0.49817 0.71078 -0.59814 0.52404 -0.66242 1.409 -0.5317 0.084092 0.45868 -2.4257 0.44608 1.0815 0.046997 0.23852 0.63951 -1.0278 0.4284 -0.23869 -1.4947 -0.90024 -1.0559 0.050882
laundering 0.12197 1.7067 -0.90219 0.56119 0.86748 -1.2397 -1.5884 -2.0379 0.82578 0.96171 1.3739 0.32537 -1.3039 -0.56644 0.75882 -0.72938 0.095058 0.52321 0.76914 -0.30839 -0.010484 0.44564 0.24812 -1.2923 0.015197
hotel -1.2049 -0.010029 1.1292 -0.73684 -0.45351 0.44823 -0.22873 0.60026 1.2216 -0.12273 0.5131 -1.3497 -3.2883 -0.032707 0.54292 -0.36136 0.44847 -0.010088 -0.58958 -4.5213E-4 -0.89499 -1.156 -0.76906 -0.63056 1.1159
term 0.61771 0.3739 -0.77382 -0.27248 1.0254 -0.31929 0.93986 -1.0396 0.16334 0.04233 -0.33293 0.018901 -3.1898 0.77697 1.0026 0.0014738 0.83815 0.40291 -0.051713 -0.51847 -0.18106 0.54238 -0.53615 -0.093255 -0.89179
listing -1.1111 0.98197 0.037785 -0.88295 1.159 -0.51048 -0.010419 -1.408 0.4414 -0.52084 0.13582 0.23195 -2.3784 -0.12766 0.068483 -0.40129 0.61015 0.074348 -0.23294 0.19533 -0.28445 -1.975 -0.61133 -0.6152 -0.8275
chemistry 1.5397 0.27348 0.45948 -0.43167 0.20495 -0.73522 2.022 -0.85632 0.37749 -0.95348 -1.0684 0.40367 -2.3306 -0.052566 0.9735 -0.17996 -0.79145 0.05898 0.33139 0.03811 -1.348 1.4302 -0.98787 0.31152 -0.50851
seafood -1.515 0.44778 0.0069712 0.2293 -0.095535 0.7874 0.58813 -1.0071 1.5128 0.44195 0.53646 -0.76598 -1.8967 -0.73126 0.54951 -0.61083 1.569 -1.0431 0.32259 0.9227 -0.31085 0.12378 -1.4423 -0.17166 1.4415
mind -0.41932 0.58975 -0.36475 0.9978 0.10197 0.50026 1.5425 -0.31276 0.010214 0.1499 -0.88329 0.92256 -4.5349 0.092406 -0.073591 0.52982 0.11561 0.18291 0.42629 -0.63786 0.422 -0.0012904 0.10989 0.73449 -0.49331
sex 0.0503 -0.05268 -0.55407 0.31106 1.526 0.15042 1.2881 -0.411 -0.52727 0.45512 -0.13251 0.47001 -3.809 -0.92741 -0.4144 0.82699 0.40495 -0.45086 -0.3581 -0.45239 0.24179 0.16939 -0.32176 -0.88043 0.72078
food -0.57889 0.52137 -0.17892 0.2232 0.61681 0.17616 1.6829 -1.35 0.027486 0.95868 0.22251 -0.82603 -4.3866 -0.5528 0.20004 -0.44304 1.3508 -1.0176 0.069551 0.023407 -0.21827 -0.57156 -0.74594 0.26706 0.96434
precedent 0.48261 -0.36506 -0.54825 0.11833 0.34324 -0.62072 -0.32377 -1.4571 0.64756 -0.72877 0.20576 0.28004 -1.2095 0.7296 0.73321 1.0961 0.13099 0.42562 0.58255 -0.22884 -0.52651 0.040574 0.13734 -0.23364 -1.1002
series 0.92672 -0.32089 0.66654 -0.92206 0.20394 0.42145 0.80555 0.44452 0.57988 -1.4519 0.774 0.26852 -3.7033 0.48775 0.6695 0.25405 0.16402 0.37019 0.67946 0.99714 -1.5487 -0.44727 0.11548 -0.14978 0.071856
kilometer -0.20714 0.28266 0.30994 -0.74818 -0.54641 1.5818 -1.6332 -0.98743 0.36127 0.94366 0.82173 0.0043983 -0.42315 0.2211 0.16654 0.4947 -0.18517 0.86474 -0.56278 0.18627 -1.9273 -0.045855 -0.019094 -0.0097654 -0.60575
grocery -1.2291 0.67193 0.81968 -0.55962 0.64987 -0.23923 0.20782 -2.0777 0.78294 0.51877 0.3087 -1.1231 -3.0215 -0.50361 0.070556 -0.23037 1.5671 -1.1096 0.12854 -0.24093 -0.0389 -1.2149 0.022977 -0.074897 0.04697
wizard -0.2236 -0.48088 0.69064 0.022771 -0.054135 -0.66571 0.53658 -0.65694 0.70708 -1.3259 -0.3878 0.57249 -2.1129 -0.76939 0.016473 -0.13886 0.081741 0.63686 0.42114 0.70923 -0.34309 0.41596 -0.18356 -0.28353 0.58355
information 0.4918 0.52183 -1.1841 -0.031988 1.1468 -0.61078 0.48485 -1.1636 0.73446 0.076003 0.12772 0.4865 -3.4833 0.52375 0.41481 0.10604 0.70972 0.55721 0.14742 -0.46564 -0.071301 -1.9889 -1.0767 -0.14101 -0.81463
brandy -1.0597 0.34058 1.0723 0.9583 -0.63059 0.0098676 0.32187 -0.28001 -0.1769 -0.97315 0.28541 0.58453 -1.9927 -1.0449 0.0057619 0.025218 0.32623 0.0054962 0.29508 1.124 0.23524 0.0022354 0.10881 -0.23603 0.36379
interview 0.078416 0.46919 0.56728 -0.5375 0.37002 -0.79376 0.82569 0.36328 0.56977 -1.289 -0.066335 1.198 -3.3791 0.040102 0.92138 0.090137 0.36844 0.12377 -1.756 -0.0884 -0.3344 -0.42635 -1.1469 -0.61544 -0.52891
prominence -0.37542 0.097501 -0.65622 0.10704 0.029132 -0.45118 -0.78958 -2.2322 0.44914 -0.93445 0.15793 0.36792 -0.48588 0.83514 0.080165 0.27661 0.12081 0.55358 1.0957 0.064257 -1.0697 0.069995 0.29235 -0.48967 -0.40049
bed -1.484 0.11743 0.72771 0.048489 -0.16798 0.86244 0.7347 -0.76939 -0.96579 1.0975 -0.69561 0.64173 -4.4456 -0.51614 -0.0029086 1.2684 0.8625 0.24513 -1.1563 -0.46915 -0.92404 -0.0053103 0.66881 1.0567 0.77345
furnace -1.626 0.15637 -0.62248 0.31605 0.26054 0.63128 -0.19196 -1.2285 1.3818 0.091452 1.0473 0.77786 -1.3753 -0.45099 1.4768 0.14515 0.25258 0.76328 1.2531 0.64408 -0.72366 0.069299 0.98608 -0.53677 -0.52518
evidence 1.3007 -0.032035 -0.45467 1.0222 0.39229 -1.2317 0.80072 -1.5502 0.32392 -0.24696 0.38067 0.70492 -2.9274 0.60224 0.48733 0.15481 0.31612 1.4726 0.43527 -0.93128 0.1641 -0.069377 -0.51402 -0.52445 -0.99686
sprint 0.40738 1.1427 0.033639 -1.2048 0.1317 0.13471 -0.34016 -0.5691 0.98055 -0.11029 0.53348 0.27349 -2.6229 -0.24274 0.97387 0.60786 0.26322 -0.41259 0.12972 0.46928 -0.75678 -0.40177 1.4032 -0.80227 -0.53121
emergency -0.83754 0.99636 -0.70111 0.11938 0.72917 -0.87375 0.84223 -0.68137 1.4834 0.88594 0.49115 -0.10321 -2.6692 0.62307 1.2237 -0.31577 0.85985 0.33571 0.2418 -0.71039 -0.20675 -0.70661 0.66552 -0.77788 -0.53182
institution -0.49557 -0.11024 -0.77477 -0.26145 0.39861 -0.67689 0.009218 -1.7167 1.1564 -0.052192 -0.48823 -0.064733 -1.946 0.99279 0.65595 0.21315 0.29022 0.73854 0.66655 0.1985 0.40789 0.16204 -1.1509 -0.89139 -0.22833
bird 0.43391 -0.44957 0.65529 0.28899 0.14295 0.12896 1.102 -0.238 0.38853 0.36487 0.71158 -0.13885 -2.898 -0.50509 0.19177 0.56232 0.36701 -0.38876 -0.2738 0.094411 -0.37963 0.8162 0.46483 -0.69508 0.025595
warning -0.099137 0.10153 -0.46559 0.027695 -0.072956 -0.28469 1.5805 -0.62235 0.59372 0.85857 0.36744 0.71115 -2.3219 0.8548 1.0495 -0.25723 0.25519 0.3756 0.13757 -0.68583 0.23521 -0.97998 0.81818 -0.63454 -0.72891
implement 0.47519 0.83396 -1.5712 0.070612 -0.17732 -0.64655 -0.4435 -1.7865 1.0997 -0.50349 -0.10193 0.32427 -2.2742 -0.08089 0.48855 -0.10579 0.27249 -0.0086907 1.0166 -1.3014 -0.40083 -0.50342 -0.44155 0.11124 -0.82624
train -0.99887 0.44495 -0.90842 -0.18867 -0.64942 0.2939 0.61332 -0.1519 -0.07813 0.46827 -0.090214 0.29597 -3.2356 0.45682 -0.1452 1.124 -0.27694 -1.0079 -1.1148 0.14782 0.19862 -1.8446 1.4947 -1.0519 -0.13289
area -0.52372 -0.17462 -0.038048 -1.095 -0.13997 0.66898 0.20273 -0.14805 1.758 0.87627 -0.23923 -0.9038 -3.4318 0.89561 0.87332 -0.29592 0.1631 -0.46984 0.06339 -0.20494 -0.17281 -1.0875 -0.30689 -0.84126 -0.1119
image 0.09753 -0.96854 -0.56535 0.3204 1.0762 -0.44437 0.90777 -0.11638 0.87341 -0.28158 0.45719 0.83624 -2.98 -0.040632 -0.11357 1.0126 0.14352 0.57437 -0.465 0.38184 -0.53745 -1.1987 -0.33628 -0.47722 -1.4574
murder 0.18125 0.74656 -0.084818 0.86394 0.2318 -1.2856 0.78695 -0.81527 0.38392 0.051618 0.47008 1.0076 -3.0479 0.19185 0.58728 -0.12266 0.62548 0.58827 -0.16961 -1.0959 0.70014 0.95623 0.16208 -1.8257 0.6491
journey -1.0931 0.42743 -0.11446 0.42125 -0.13853 -0.066658 1.4771 -0.59375 0.38953 -0.96555 -0.42614 0.68997 -3.0848 1.6027 0.24151 0.72437 -0.022684 0.53408 0.17275 -0.33544 -0.8773 -0.77474 -0.62317 0.078069 0.20836
minister 0.24457 0.30446 -0.92686 -0.60462 -0.61918 -2.2499 -0.68821 -0.4177 1.0301 -0.20824 0.54045 0.68638 -3.2516 0.45942 0.82105 -0.8939 0.34903 1.2814 -0.22988 0.018926 0.72977 0.11609 -1.6987 -1.6358 -0.33012
planet -0.45529 -0.59278 0.23134 0.017081 -0.11757 0.41222 1.2899 0.31093 0.99927 0.20068 -0.23758 -0.030888 -2.9237 0.43096 -0.15791 0.76762 0.20029 0.14692 1.0772 0.24134 -0.68047 0.15319 -0.95711 -0.51118 0.20121
article 0.71413 -0.07927 -0.81779 -0.21223 1.1148 -0.83868 0.98505 -0.70813 0.24217 -1.0348 0.22033 0.79515 -3.2253 0.0088076 0.99242 -0.029411 0.61368 0.75281 -1.2186 -0.1642 -0.037136 -1.3195 -1.1906 -0.4946 -0.85904
anxiety -0.05302 0.61279 -1.0605 1.1521 1.1899 0.44493 1.9866 -1.4467 0.13338 0.67476 -0.36666 0.21676 -2.0155 0.25993 1.8211 0.56621 -0.24998 0.66013 1.3563 -1.8315 -0.24397 0.22622 -0.0026287 0.3481 0.15078
month -0.33309 1.3413 0.28396 -0.7477 0.55314 -0.57133 1.2026 -0.13058 -0.12514 0.27723 0.0053992 0.39273 -3.6606 1.5906 -0.075937 -0.34245 0.71415 -0.66325 -0.4484 -0.39419 -0.99257 -0.076361 -0.22238 0.96051 -0.12478
carnivore -1.1978 0.317 -0.6109 0.27764 -0.057371 -0.15547 0.070487 -1.9855 0.69012 -0.25236 -0.46528 -0.4069 -0.21825 -0.20242 0.3328 0.39763 0.69096 0.27496 0.68486 0.43766 0.38516 0.59442 -0.58407 -0.98793 0.89756
party -0.64897 0.80791 0.43385 -0.73439 0.39676 -0.44083 1.1245 0.30037 -0.057512 -0.36687 -0.26248 -0.47836 -4.0891 0.46561 -0.0012253 0.12624 0.25075 -0.92117 -0.92689 0.55071 -0.27665 -0.28464 0.16253 -0.24037 1.041
production -0.37065 0.50901 -0.4587 -0.27951 1.4272 -0.17332 0.45895 -1.0554 1.239 -0.56755 0.67448 0.31857 -2.9553 0.46743 0.83642 0.022859 0.071213 0.5204 0.075554 0.22049 -0.77794 -0.95728 -0.35215 -0.4053 0.052743
importance 0.44245 0.26024 -1.444 1.0414 0.67378 0.11531 0.35038 -1.5709 0.37415 -0.7939 -0.71423 0.42322 -2.9867 0.81959 0.7194 0.47554 -0.20199 0.759 0.3555 -0.082767 -0.18989 -0.54715 -1.4019 -0.41433 -1.3694
inmate -0.38967 0.82373 -0.046952 -0.014897 0.33037 -1.6802 -0.42736 -1.3462 0.35579 0.050399 0.85293 0.25159 -1.0539 1.1272 0.73043 -0.036994 0.6904 0.38469 0.35617 -0.64238 0.51373 1.0576 -0.11529 -2.1205 -0.22187
psychology 0.86323 0.35818 -0.38873 -0.24438 1.0956 -0.48653 1.7754 -1.7969 1.5264 -0.43848 -1.3736 0.16888 -2.3834 0.038427 1.5948 0.059544 -0.038365 0.87258 0.33168 -0.75044 -0.19815 -0.043848 -1.2624 0.3537 -0.37557
medal -0.25248 0.020386 -0.1834 -1.4024 -0.2583 -0.7637 0.303 -0.61736 -0.23546 -0.9325 0.83512 0.38267 -2.8256 1.2889 -0.094504 -0.16878 0.24167 -0.44211 0.05517 0.16486 -1.983 1.2381 0.15336 -0.57145 -0.5653
company -0.59534 0.62914 -0.46982 -0.752 0.90666 -0.32571 0.055783 -0.87559 1.1399 -0.018093 0.76986 -0.15807 -4.3625 0.0025395 0.5667 -0.40575 0.72547 -0.10433 0.53457 0.073103 0.19399 -1.2752 -0.89798 -0.36093 -0.64684
live 0.19819 0.17226 0.28588 -0.45673 -0.88396 0.026332 1.1668 0.73735 0.1921 -0.63913 -0.53035 0.07423 -4.2908 0.084804 -0.016509 0.059192 -0.75657 -0.047736 -0.82864 -0.098278 -0.94328 -1.0522 0.074826 -0.54022 1.0861
holy -0.064079 -0.087544 0.50071 0.4721 -0.22463 -0.5082 1.9836 -0.5673 -0.97368 0.056753 -0.52095 0.57671 -3.2437 0.10997 0.46286 -0.43817 0.67169 0.56568 -0.27988 0.40626 -0.044098 1.0259 0.57633 0.18016 0.37878
ticket 0.062201 0.94027 0.34471 -1.1989 -0.049979 -0.78381 0.297 -0.17941 0.19341 -0.12472 0.85619 -0.33366 -3.3142 0.47723 0.59393 0.51301 0.90766 -0.94448 -0.6782 0.048608 -1.455 -0.97721 0.69094 0.047153 -0.42506
victory -0.33667 0.26043 -0.98974 -0.12434 -0.64006 -0.16331 0.73544 -0.3845 0.061984 -0.91966 0.42205 0.69927 -3.0502 2.0262 0.34115 -0.69715 -0.29105 -0.056913 0.32436 0.086477 -1.3593 0.73402 0.37553 -0.58872 -0.12099
football 0.36491 0.46657 -0.64874 -1.6317 -0.10499 0.29539 1.102 -0.37133 -0.37283 -0.80927 0.18891 0.31195 -4.1618 0.65512 1.4357 -0.0057378 -0.3075 -1.2917 -0.39751 0.65063 -0.83692 0.68736 0.19409 -1.3879 -0.064282
rook 0.1909 -0.09598 0.23171 0.26181 -0.78093 0.16601 -1.2186 -1.0607 -0.074432 -0.39302 0.61912 0.90392 -1.5719 -1.1608 0.040101 0.46674 1.0613 1.0409 0.011134 1.5591 -0.74554 0.69411 0.32268 0.61719 0.25019
stroke -0.89162 0.50267 -0.58845 0.83129 0.75045 0.82863 0.16385 -0.18421 0.66733 0.97968 0.80131 1.2829 -2.0291 0.46702 0.23689 0.091546 0.39669 -0.2654 0.64231 -1.1927 -0.23851 1.1636 0.47847 -0.70804 -0.2361
environment -0.49569 -0.41488 -1.8865 -0.038236 0.56192 -0.14628 0.7953 -1.5559 1.448 0.19922 -0.8142 -0.014186 -3.0206 0.59221 0.70599 -0.18695 -0.028734 0.33799 1.143 -0.1505 -0.26006 -0.90097 -1.0793 -0.63975 -0.27055
coffee -1.4532 0.25594 0.081679 0.49081 -0.059128 0.63656 1.4566 -1.0607 0.47903 0.47616 0.85016 -0.40645 -3.5843 -0.5237 0.46344 -0.50906 1.2432 -0.54121 0.19375 0.35703 -0.9885 -0.69335 -0.33998 0.71827 1.0704
baby -1.0867 -0.22204 0.62527 0.51658 -0.23692 0.088442 1.3136 0.96315 -0.75152 0.031206 -0.5404 -0.015579 -4.1346 -0.85891 -0.45414 -0.22803 0.45413 -0.94962 -0.59009 0.30835 0.070023 0.42793 0.22402 0.64159 0.17796
personnel -0.13732 0.58597 -1.5846 -0.5094 0.64969 -0.67747 -0.70337 -1.3541 1.2088 0.036693 1.0129 -0.16013 -2.1295 0.79117 0.945 0.60435 -0.0012028 0.095744 -0.4526 -0.022752 0.43615 -0.52097 -0.55893 -1.3116 -0.66884
family -1.193 0.63069 0.16883 -0.31611 0.017884 -0.2507 1.581 0.3686 -0.2395 -0.024608 -0.32768 -0.22614 -4.3783 0.51803 -0.0087989 0.078987 0.13064 -0.8887 -0.0063441 0.22619 0.29186 -0.27092 -1.041 -0.62446 -0.070521
hypertension -0.53285 0.095675 -1.484 0.7611 0.6293 -0.27515 -0.31378 -1.6824 1.614 0.42896 0.11232 0.15531 -0.69099 -0.13243 0.33091 -0.26935 0.52771 0.64981 1.8248 -0.77911 -0.31612 0.24278 0.22443 -0.51747 0.21902
president 0.054015 0.58403 -0.76076 -0.26207 -0.4303 -1.9441 -0.038309 0.1142 0.12165 -0.49982 0.39953 0.25797 -3.9561 0.79547 0.66688 -1.0589 -0.085653 0.52288 -0.28687 -0.51194 0.91145 0.64121 -0.83504 -1.7532 -0.6522
atmosphere -1.2105 -0.58128 -0.39473 -0.22265 -0.21346 1.1648 1.2281 -1.13 0.090425 -0.89459 -0.3213 0.62551 -2.2913 1.5274 0.8487 0.57916 0.10048 -0.14837 0.55882 0.17816 -1.0764 -0.20202 -0.26282 -0.22259 0.087225
practice -0.44753 0.80032 0.13544 -0.94277 0.56708 0.043979 1.4177 -0.9603 0.58066 -0.37223 -0.8775 0.28349 -3.813 0.84227 1.4341 0.31213 -0.020446 -0.72407 -0.39439 -0.51446 -1.1881 0.71159 0.24874 0.45442 0.10933
movie 0.3569 -0.24292 1.5525 -0.40293 0.053246 -0.38882 2.1696 0.54185 0.12384 -0.88946 -0.18272 0.64263 -3.8322 0.12828 0.38866 0.9754 0.56106 -0.048216 -0.47214 0.58174 -0.67981 0.26981 -0.50217 -0.41104 0.59677
popcorn -0.37117 0.03578 1.1238 0.61373 0.0043704 0.86226 0.82344 -1.2047 0.2734 0.46723 0.94496 0.073322 -2.1073 -1.1291 -0.45669 0.10537 1.3289 -0.68446 -0.24716 0.52814 -0.94329 -0.24865 0.27032 0.51633 1.0385
recommendation -0.013503 0.43642 -0.25845 0.071346 0.74923 -1.3209 0.3611 -1.6464 0.14587 -0.95065 0.14048 0.56951 -1.7893 0.10711 0.57122 -0.076055 1.0241 0.31651 0.24158 0.22741 -0.49102 -1.1253 -0.93196 0.6843 -0.82864
focus 0.1471 0.30418 -0.84213 -0.34126 0.21771 0.4279 0.73271 -0.30792 0.89662 -0.30465 -0.69495 0.73101 -3.4954 0.44722 0.26445 0.59682 -0.48216 0.093294 0.10923 -0.94678 -0.63106 -0.41301 -0.4478 0.21738 -0.9197
attempt 0.37815 0.57048 -0.79538 0.31784 -0.10711 -0.25075 0.99725 -1.4061 0.37041 -0.56089 0.30841 0.13537 -2.6386 0.62926 -0.42588 0.50877 0.65752 -0.56212 -0.72762 -1.8115 0.0041007 0.87084 0.044765 -0.62067 -0.25846
approach -0.39944 0.23216 -1.2511 0.26454 0.70555 0.38172 0.52478 -1.315 1.42 -0.8832 -0.71189 0.42691 -3.3203 0.57982 0.4729 0.54371 0.024185 0.036453 0.6554 -0.73591 0.21184 -0.24694 -0.69976 -0.28018 -1.1084
number 0.7548 0.38527 0.50353 -0.50312 0.56016 -0.62298 1.1399 0.11933 -0.2211 0.40726 -0.27499 0.32698 -3.7177 0.46682 -0.10974 -0.014302 0.54302 -0.82472 -0.22679 0.027811 0.011661 -0.34571 0.43042 0.24929 -1.5389
property -0.99023 0.60563 -0.97374 -0.65746 0.7884 -0.34 -0.57709 -1.1496 1.1212 0.54285 0.51668 -0.70563 -3.2609 0.76602 0.40077 -0.65909 0.64794 -0.058352 0.61927 0.15989 -0.056795 -1.3188 -0.78759 -0.94494 -0.63496
fingerprint -0.099179 0.10519 -0.30965 0.12963 1.22 -1.2081 -0.18735 -1.569 1.3449 0.1466 0.71138 0.42875 -0.96628 -0.83745 -0.3916 0.8916 0.41571 0.62126 0.48806 0.20948 -0.7283 -0.4144 0.63798 -0.33698 -1.8544
reservation -0.74958 0.87603 -0.29455 -0.51218 4.8753E-5 -0.90922 -0.13196 -1.6877 1.2144 0.1182 0.31329 -0.47984 -1.7287 0.27515 0.78019 0.012994 0.72985 -0.49794 0.37538 -0.076204 -0.5873 -0.88671 -0.079694 -0.21956 -0.61284
block 0.61813 0.5528 0.65432 -0.16348 0.24476 0.043704 0.26188 0.12667 1.1355 0.17805 -0.48857 -0.48619 -3.2372 -0.63836 0.02493 -0.14411 -0.46086 -0.63145 -0.48336 -0.81235 -0.22577 0.099162 0.79813 0.20056 -0.73943
fear 0.34901 0.30926 -0.80943 1.495 -0.66837 0.40203 1.7135 -0.63232 0.13892 0.22926 -0.32921 0.75148 -3.5653 0.7832 -0.090396 0.6436 -0.4382 0.82941 1.3351 -1.0171 0.0089844 0.70354 0.026537 -0.50671 -0.3056
surface -0.015414 -0.90767 -0.45266 0.27464 0.26835 0.91728 0.27808 -0.88951 0.90925 -0.19725 0.67634 0.315 -2.489 0.38926 -0.26323 0.7872 -0.068603 0.80118 0.56234 0.057238 -0.88525 -1.3044 1.0491 -0.34563 -0.6948
issue 0.3767 0.036902 -0.79194 -0.57057 0.81508 -1.1586 1.0273 -0.5722 0.71527 0.18877 0.19066 0.76303 -3.3568 1.0388 0.32555 0.38413 0.295 0.32963 -0.0042901 -0.33228 -0.36448 -0.42907 -0.26176 -0.28143 -1.1288
metal -0.11999 -0.59397 0.42321 0.29157 0.99295 0.60924 0.44724 0.63153 1.2962 -0.065906 0.74179 -0.13605 -2.7622 -0.45079 -0.26134 0.43079 0.28857 0.22759 0.64831 0.76777 -1.2814 0.61641 0.16085 -0.51656 0.67761
index -0.39524 -0.037391 -1.0813 -0.75443 0.94623 -0.53692 0.58089 -0.67166 0.88663 -0.23919 1.0938 1.2916 -1.5735 0.93824 0.067288 -0.74187 -0.28634 0.69427 0.10291 0.17739 -0.82952 -0.82187 0.93884 0.44779 -0.91307
isolation -0.52422 -0.36967 -0.48764 0.59838 -0.01564 0.25758 0.35374 -1.6747 1.3083 0.078391 -0.40499 0.18512 -1.2813 0.50691 0.34579 0.60174 -0.42635 0.68504 1.3413 -0.29609 -0.66524 -0.041233 -9.2473E-4 -0.44162 -0.044988
impartiality -0.028694 -0.28588 -0.53234 0.34171 -0.10929 -1.1227 -0.66993 -2.1911 0.45165 -0.59429 -0.20799 0.37233 -0.63725 0.24256 0.68112 0.8137 0.16558 1.1959 1.2778 0.8412 -0.30955 0.55852 -0.92952 -0.50297 -1.2571
drink -0.51113 0.86922 -0.23396 0.8121 -0.42391 1.0289 0.97995 -1.3474 -0.083882 0.26585 0.42442 -0.47899 -4.2023 -0.73773 -0.1499 0.038463 1.2547 -0.83254 0.33043 -0.029497 -0.49897 0.0027387 0.37012 1.1378 1.39
baseball -0.070516 0.46753 -0.22447 -1.7477 -0.050901 0.20102 1.0091 -0.22699 -0.39081 -0.94605 0.25075 0.23913 -3.4864 0.41357 1.0345 -0.24952 -0.24406 -1.4358 0.61731 0.96213 -1.1882 0.90854 0.70926 -0.9778 -0.28085
jaguar -1.2864 -0.18008 0.014414 -0.31554 -0.20919 0.18908 -0.53628 0.28988 0.6918 -0.37733 0.93087 0.084913 -1.3987 -0.75409 0.31788 0.075082 0.43872 -0.082971 0.92061 1.22 -0.55541 0.13445 0.33652 -1.2 0.13688
trading 0.30735 0.90917 -1.0988 -0.55566 0.99176 0.43623 0.25994 -1.2506 1.3359 -0.60753 0.97802 0.42525 -2.3355 0.13444 0.82069 -1.0943 -0.10821 -0.4343 0.40453 -0.17488 -0.86908 -1.0034 0.28212 -0.33575 -1.0822
viewer 0.16054 0.28222 0.1672 -0.66606 1.1687 -1.1144 0.56407 -0.62369 0.44665 -0.56792 0.48494 0.70028 -1.0938 -0.001963 0.082059 0.87998 -0.007756 0.19979 0.53683 -0.037182 -0.21106 -1.0587 -0.20472 -0.71725 -1.4543
hundred 1.3838 1.1095 1.1909 1.0366 -0.63845 0.21534 0.80287 -1.6736 -1.8894 -0.1857 0.17353 0.31943 -2.2039 1.6455 -1.474 -0.69844 -0.16714 -0.30451 0.28336 0.22085 -0.75796 0.34829 0.51926 -0.36635 -0.67551
woman -0.92527 -0.33879 -0.32138 0.14676 0.5227 -0.15349 1.2166 -0.22389 -0.08656 0.2851 0.18474 0.42797 -4.3978 0.26168 -0.43044 -0.001192 0.66894 -0.081109 0.56346 -0.37477 1.1786 0.77134 -0.52764 -1.2592 -0.45112
queen -1.1266 -0.52064 0.45565 0.21079 -0.05081 -0.65158 1.1395 0.69897 -0.20612 -0.71803 -0.02811 0.10977 -3.3089 -0.49299 -0.51375 0.10363 -0.11764 -0.084972 0.02558 0.6859 -0.29196 0.4594 -0.39955 -0.40371 0.31828
fuck 0.74518 0.7348 -0.020373 0.34902 -0.29078 0.45424 1.2227 0.15057 -0.99808 0.65385 -1.0576 0.28582 -4.7812 -0.7976 0.73035 0.39461 0.44303 -0.83495 -0.39321 0.28025 0.90931 0.7758 1.1363 -0.082386 0.35282
skin -0.81855 -1.102 -0.66876 0.51283 1.1193 0.63559 0.90198 -0.61028 0.44752 0.53835 0.2097 -0.031888 -3.5957 -0.66386 -0.52565 0.044554 0.60478 -0.39467 1.1067 0.4632 -0.67326 0.81605 0.84178 0.75124 -0.69854
tournament -0.086043 1.0358 -0.11648 -2.0632 0.039338 -0.074712 0.53555 -0.60583 0.5107 -0.64996 0.083796 0.32845 -2.9359 1.439 1.4053 0.1695 -0.13406 -1.1011 -0.28855 0.78415 -1.8627 0.41571 0.53336 -0.24969 0.1384
cell 0.47007 0.388 0.093162 0.048549 1.0121 -0.77647 0.020338 -0.14499 1.2761 0.78329 0.41125 -0.67536 -3.2504 -0.70306 0.32486 0.52044 0.45257 0.785 0.68881 -0.23234 -0.40368 -0.52781 1.3631 0.3028 -0.76831
summer -1.0702 0.23028 0.55416 -1.0257 0.0012615 0.53725 1.8315 -0.36579 -0.41772 -0.48867 -0.51964 -0.1569 -4.0585 0.82679 0.11115 -0.049177 0.2369 -0.78166 -0.2976 0.41776 -1.2415 -0.31545 0.37366 0.36325 0.82808
crew -0.40761 0.56232 0.58998 -0.74213 0.32249 -0.064689 0.60493 0.071398 0.65156 -0.54184 -0.43139 -0.24028 -3.1141 -0.22272 -0.30135 0.2514 -0.51362 -0.93567 -0.074588 0.46373 -0.3515 0.038489 0.13908 -0.55788 0.62643
defeat 0.45461 0.59428 -1.3458 0.35014 -1.3023 -0.014742 0.53543 -0.48284 -0.14332 -0.72658 0.087479 0.87203 -2.8073 1.6718 0.92307 -0.40073 -0.43494 -0.19341 1.2153 -0.95911 -1.0643 1.1185 0.49803 -0.86405 -0.34051
library -0.6088 0.2401 1.1209 -0.97103 0.33849 -0.14734 0.8554 -1.1502 1.5633 0.42122 -0.54686 -0.026583 -3.2927 0.10451 1.1827 0.025003 0.62688 0.047821 -0.4244 -0.27338 -0.14824 -1.2728 -0.7221 -0.39266 -0.13844
government 0.88242 0.5105 -1.4473 -0.41412 0.11322 -1.3965 0.32364 -1.4395 1.0118 0.64873 0.5213 -0.46679 -4.0729 0.72555 0.46628 -0.88781 -0.17716 0.59876 0.80908 -0.81167 0.65514 0.18001 -0.51455 -1.542 -0.74876
world 0.10301 0.095666 -0.14789 -0.22383 -0.14775 -0.11599 1.8513 0.24886 -0.41877 -0.20384 -0.08509 0.33246 -4.6946 0.84096 -0.46666 -0.031128 -0.19539 -0.037349 0.58949 0.13941 -0.57667 -0.44426 -0.43085 -0.52875 0.25855
potato -0.41654 -0.56071 0.72333 1.0435 0.0098203 0.46871 0.93296 -1.2629 0.074417 -0.061837 0.9251 -0.25308 -2.183 -1.3639 -0.30995 -0.98977 1.6252 -1.0291 -0.047819 0.64689 0.062647 0.54722 -0.36114 0.15535 1.0872
astronomer -1.2583 -0.45327 0.41569 -0.61275 -0.29158 -0.87214 0.23582 -0.81682 0.67712 -0.68058 0.17243 0.71853 -0.37433 0.11863 0.66451 0.45419 1.3096 0.32957 0.83756 -0.13049 0.8987 1.0936 -1.6933 -1.8161 -0.64065
morality 0.35734 -0.35235 -1.7206 0.72077 -0.056735 -1.0739 0.23736 -2.0735 0.72829 -0.22614 -0.58186 0.011241 -2.2512 0.40021 0.43118 0.64381 -0.28383 1.3639 1.3632 0.36633 0.22297 0.60132 -1.0229 -0.095622 -0.40239
nurse -1.8807 0.52109 -0.31206 -0.96905 1.7377 -0.84559 0.35492 -0.35636 1.7203 0.38231 -0.67006 -0.018609 -2.576 -0.26098 1.3146 -1.0013 1.358 0.10618 0.16397 -0.84839 1.0924 -0.031186 -0.71847 -0.44975 -0.16675
prejudice 0.19219 -0.52428 -0.60611 0.74202 -0.27259 -0.38301 0.68387 -1.492 0.14933 -0.29354 -0.46414 0.89524 -1.4721 0.0138 0.46899 0.51441 -0.63868 0.87031 1.2359 0.30235 -0.1549 1.0868 -1.0018 -0.9944 -0.3297
man 0.37013 -0.39648 -0.021712 -0.6301 -0.3189 0.34329 0.10968 0.4879 -0.48663 0.36837 -0.39179 0.25414 -4.9282 0.067597 0.37147 0.36817 1.1655 0.092116 -0.87735 -0.74562 0.40903 1.5672 -0.23879 0.24755 0.76386
deployment -1.0211 1.1147 -1.0721 -0.61195 0.83321 -1.3184 0.053697 -1.7346 1.2504 0.1096 0.37794 0.24424 -1.5651 0.65375 0.49397 0.3763 0.14453 0.42064 0.22097 0.077665 -0.6249 -0.31635 -0.01561 -0.66835 -0.41097
bread -0.54251 0.69509 0.19869 1.209 -0.2548 0.52836 0.65335 -2.016 0.14886 0.66374 0.99783 -0.54864 -3.4646 -0.9705 -0.17878 -0.75594 1.3963 -0.87496 0.080796 0.83884 -0.10375 0.73724 -0.19575 0.69461 1.3188
television 0.48661 -0.12028 0.80882 -0.7546 1.0861 -0.36793 0.87632 -0.054371 0.57323 -0.95945 -0.057027 -0.46498 -2.8162 0.26891 1.0248 1.258 0.31958 0.44023 0.81824 0.21617 -0.45851 -0.65749 -0.34485 -1.0209 0.046954
lover -1.3269 -0.19782 -0.53048 0.61666 0.77645 -0.11965 1.048 0.0047631 -0.059899 -0.42239 -0.18236 0.57142 -2.9387 0.025678 -0.72185 0.88545 0.31259 -0.16574 0.54852 0.37673 0.52556 0.39429 -0.75236 0.14828 0.25743
change 0.58258 0.14119 -1.3805 0.57462 -0.094997 -0.082241 1.2487 -0.70836 0.30149 -0.20702 -0.7235 0.36913 -4.8349 0.31208 -0.035617 1.0737 -0.13748 -0.2176 -0.46466 -0.27022 0.28159 -0.57681 0.47307 0.39258 -0.96505
health -0.50245 0.73513 -2.0223 0.035111 1.2962 -0.48859 0.94489 -1.1285 1.0489 0.30981 0.20555 -0.40283 -3.898 0.61878 1.01 -1.4251 0.0042893 0.38252 0.77385 -0.4758 -0.19673 -0.66318 -0.99531 -0.14017 0.049816
computation 0.22223 -0.81031 -0.094902 0.241 0.45203 -1.1066 -0.099075 -1.7276 1.4545 -0.19043 -0.21916 0.13057 -0.58195 0.50937 0.50261 0.81679 0.53839 0.92705 1.1781 0.67655 -0.94339 0.28936 -0.46278 -0.026584 -0.64791
virtuoso -1.2108 -0.33436 -0.61504 0.50273 0.95308 -0.88071 -0.27972 0.064918 0.81274 -1.406 0.90665 -0.068347 -0.57137 -0.24928 0.52392 0.8412 0.39548 0.99338 1.2998 0.038499 -0.6008 1.0612 -0.64588 -0.7516 0.081888
century 0.12805 0.11777 0.74531 -0.93701 0.12774 -0.37271 0.30059 -0.39525 0.8827 0.32765 0.36761 0.79594 -2.2213 0.82495 0.15023 -0.56024 0.45108 0.58326 -0.062037 -0.24392 -0.89827 0.17705 -1.4081 -1.2875 -0.47334
discovery 0.30333 -0.18557 0.22997 -0.04398 0.39067 -0.31597 1.0208 -0.38249 0.87981 -0.98861 0.18321 -0.38279 -2.2564 0.38643 0.82667 0.55304 0.41598 1.1723 0.7877 0.20574 -0.65314 -0.87853 -0.80778 -0.63552 0.56722
report 0.95412 0.59762 -0.38881 -0.83836 0.51753 -0.94863 0.91122 -0.1358 1.1279 0.3341 0.61023 0.59064 -3.2193 0.79375 1.2071 -0.57892 0.27949 0.089292 -0.39262 -0.91735 0.0055364 -0.7611 -0.19957 -0.79463 -1.111
madhouse -1.204 0.54102 0.21925 -0.23976 -0.16422 -0.63978 0.44597 -1.6632 0.2634 -1.4576 -0.75923 0.18962 -0.36476 0.013235 0.77797 -0.080124 0.0081318 0.68259 0.51974 0.88624 -0.094473 -0.24047 0.065085 -0.68779 0.77794
entity 0.33487 0.084839 -0.44968 0.33098 0.93753 -0.80391 0.26276 -1.6618 1.2747 -0.25319 -0.23366 0.43151 -1.4538 0.53683 -0.1472 0.79418 0.23737 1.4026 1.4191 0.28977 0.1823 0.050221 -0.80085 -0.35397 -0.46009
opera 0.46767 -0.54076 0.92327 -1.117 0.42825 -0.63797 0.55532 -0.032336 1.0112 0.20036 0.51912 -0.6746 -1.6164 -1.0834 -0.053733 0.20527 0.66058 0.31626 0.33236 0.84701 -0.62287 -0.93264 0.031972 -1.1226 0.77645
sign -0.26924 0.51545 -0.91191 -0.20117 -0.23665 -0.35892 0.71568 0.16932 0.35335 -0.26247 0.76418 0.82352 -3.8282 0.24998 0.30874 -0.11953 0.20245 -1.1689 0.0096826 -0.88083 -0.47961 -0.079361 0.048311 -0.49473 -1.3135
recognition -0.2516 0.4862 -1.3628 -0.11246 1.4446 -1.4187 0.30214 -1.2861 -0.11051 -0.87132 0.24044 0.69452 -2.4729 0.55287 0.1056 0.41815 0.20093 0.23043 0.66521 -0.50364 -0.77357 0.29722 -0.71611 0.12023 -0.85582
office -0.37218 0.3608 0.39346 -1.0362 0.81756 -0.43873 0.46278 -0.47501 1.3921 0.47833 0.14137 -0.093291 -3.7895 0.29779 0.87511 -0.51239 0.65852 0.0068109 -0.42191 -0.5459 -0.22178 -1.1347 -0.23231 -0.51381 -0.45113
lad -0.50005 0.089373 0.10497 -0.77656 -0.37367 0.064899 0.025618 -0.49963 -0.99429 -0.79975 -0.35068 0.1615 -2.8498 0.29299 1.2087 0.10233 0.86635 -1.1834 -0.54754 0.20518 0.33417 1.1092 -0.2803 0.3077 -0.36084
radio 0.11562 0.29237 0.83486 -0.599 0.34397 -0.23309 0.75921 1.6835 0.85734 -0.79879 -0.32701 -0.12806 -3.3658 -0.27957 0.53944 1.0725 -0.2187 0.47216 -0.21452 0.47889 -0.48938 -1.4445 -0.12242 -0.87303 1.1629
smile -0.88075 -0.50382 -0.097049 0.95281 -0.035997 -0.11954 2.1483 0.59957 -0.99255 0.29326 -0.76538 0.57648 -3.5782 -0.15105 -1.3077 0.59286 -0.15195 -0.7065 0.061206 -0.46788 0.11152 0.11719 0.11827 0.90536 -0.55984
arrangement -0.70034 -0.40301 0.04346 0.16959 0.64057 -0.66278 0.34112 -1.6022 0.28406 -0.38021 0.44133 0.2071 -1.4938 0.21403 -0.11345 1.1959 1.0616 0.29687 0.11339 0.60763 -1.175 -0.265 -0.77049 0.57232 0.08773
credibility 0.43964 0.39361 -1.3351 0.35349 0.93559 -0.72126 -0.39934 -1.3462 -0.098291 -0.39144 -0.14602 0.75897 -2.1536 0.75612 0.43046 0.10466 -0.19946 0.68117 1.4967 -0.48999 -0.16699 0.16593 0.29807 -0.055924 -1.3883
communication 0.20469 0.15653 -1.5333 0.38426 1.4282 0.12648 0.79333 -0.89857 1.1614 -0.12111 -0.78533 0.13451 -2.9013 0.86054 0.7249 1.1661 -0.29593 0.98818 0.85813 0.1963 0.12287 -0.99097 -0.79253 -0.14445 -0.99817
stock 0.24188 0.40537 -0.75352 -1.0695 0.64625 0.27389 0.23556 -0.25658 1.0853 0.18162 1.5661 -0.15852 -2.8116 0.17453 0.18868 -0.70996 0.706 -0.7507 -0.023459 0.31018 -1.1884 -1.121 0.21977 0.22828 -1.2559
credit 0.09236 0.91442 -0.71938 -0.50271 1.0294 -0.65355 0.26971 -0.50147 0.47565 0.14347 0.48482 0.37926 -3.3688 -0.1232 0.78149 -0.6654 0.41455 -0.66418 -0.27723 -0.5802 -0.24605 -1.1122 0.099784 0.076329 -1.7523
citizen -0.065904 0.27623 -0.5953 -1.0202 0.7246 -1.0743 0.2368 -0.31714 0.90969 -0.23317 -0.28804 0.5759 -2.2862 0.69425 -0.10743 -0.41437 0.46724 0.15196 1.0184 -0.0022542 0.1203 0.15347 -0.70907 -1.5789 -0.44364
terror 1.2578 -0.47745 0.32095 0.61364 0.4404 -9.8262E-4 0.6009 0.22764 0.49802 -0.34116 0.066899 -1.2499 -1.8738 0.31721 0.93223 0.7515 -0.20688 1.0058 0.21184 -0.46021 -0.055135 0.32931 0.068041 -1.1621 1.0398
law 0.45172 0.70815 -0.76791 -0.28859 0.32705 -1.1796 0.24026 -0.39279 1.4483 0.62776 -0.33727 0.19194 -3.7848 0.84125 1.0309 -0.39745 0.29014 0.49724 0.083555 -0.36794 0.47478 0.42281 -0.73168 -0.4265 -0.75567
liability -0.099503 0.44319 -1.9964 -0.19288 1.3531 -0.36297 -0.49402 -1.7516 0.38248 -0.056867 0.38835 0.23905 -1.4387 0.27852 1.4559 -0.010874 0.47979 0.17088 0.93711 -0.345 0.31003 0.45018 -0.062785 -0.45152 -1.0554
equipment -0.60023 0.3163 -0.54617 -0.94291 1.5048 0.025173 -0.013535 -1.6075 1.5414 0.2412 0.81287 -0.037091 -2.988 -0.16533 1.1279 0.12839 0.84407 -0.29944 1.2786 0.12377 -0.90577 -1.0356 0.057225 -0.21485 -0.15569
film 0.5823 -0.40719 0.69944 -0.061546 0.45053 -0.15719 0.8819 1.0939 0.62225 0.088411 0.66427 0.51389 -2.9291 0.29542 -0.21149 1.2703 0.42958 0.42229 -2.2545 0.80729 -1.1177 0.42304 -1.7791 -0.87308 0.56131
admission -0.1559 1.5708 0.063084 -0.3939 0.72379 -0.96311 -0.038224 -1.7426 0.72666 -0.092243 0.38884 -0.22515 -1.9096 1.3259 0.44532 -0.50917 0.82956 -0.090641 -0.24239 -0.33367 -0.89436 -1.0054 -0.21688 0.22004 -0.3428
tool 0.22528 0.17734 -0.57141 -0.15419 1.8078 -0.045923 0.14167 -1.0757 1.5232 -0.46237 0.54471 0.58237 -3.128 -0.60557 0.18259 0.31132 0.81572 0.37257 0.67567 0.073139 -0.34448 -0.83604 -0.023676 0.25268 -0.57089
professor 1.0673 0.18894 0.97994 -0.22408 0.67828 -0.94217 0.34808 -0.50797 1.2924 -1.4571 -0.82725 -1.3532 -3.0887 -0.87634 1.6132 -0.82801 0.072625 1.0131 -0.36931 -0.83961 0.80907 0.73352 -0.99917 0.22042 -0.20788
governor -0.23185 0.2752 -0.53742 -0.47857 -1.2105 -1.6734 -0.029131 -0.54353 0.84371 -0.32614 0.36875 0.38754 -2.583 0.48916 1.9977 -1.7776 0.35834 0.35463 -0.0089788 -0.30614 1.1109 0.80887 -0.093031 -1.4902 -0.84929
student 0.21425 0.76572 -0.047929 -1.4637 0.99642 -0.46683 0.56335 -0.58812 1.0889 0.24792 -0.47263 -0.17876 -3.5099 0.82986 0.97985 -0.46292 0.74787 -0.29517 -0.14853 -0.23281 0.20884 -0.042099 -1.3691 -0.88508 -0.77564
fruit -0.3288 -0.49127 -0.47608 1.3312 -0.067061 1.0428 1.0195 -1.6965 0.27334 -0.095812 1.0791 -0.56471 -2.9795 -0.75665 -0.044144 0.19052 1.2488 -0.17216 0.26007 0.95064 -0.76755 0.31512 -0.37559 0.5481 1.3045
media 0.85783 0.3401 -0.29508 -0.87335 0.91494 0.42477 -0.02236 0.86821 0.4935 -0.083462 0.55476 -1.2756 -3.6082 0.20236 0.76068 0.67758 0.15436 0.76924 0.30804 -0.43321 -0.068844 -1.1287 -0.81264 -0.61444 -0.69361
racket -0.17542 0.16429 -0.3518 -0.20316 0.31948 -0.082232 -0.45014 -1.5252 0.72166 -0.15848 0.29695 0.36791 -1.118 -0.050175 0.90011 0.71278 0.64487 -0.46703 0.208 0.51474 -0.70811 0.84303 0.66192 -0.71741 -0.07833
boy -0.39395 0.18228 0.57959 0.035584 0.079776 0.028341 1.1156 0.98787 -0.21269 0.017782 -0.51169 0.18686 -4.155 -0.67477 -0.12243 0.069242 0.44182 -0.92067 -0.4669 0.42704 0.55231 1.0787 0.096916 -0.082215 0.21739
preservation -0.86205 0.57342 -1.0567 -0.010837 0.44463 -0.82081 -0.002817 -1.8608 1.5422 -0.54444 -0.1144 0.13582 -1.6865 0.76326 0.082091 0.051398 0.18207 1.2047 1.1225 0.66111 -0.54042 0.28927 -1.1157 -0.67995 0.58993
vodka -0.34517 -0.56034 0.15346 1.1864 -0.18675 1.1655 0.22648 -1.0115 0.45489 -0.099799 0.84994 -1.9672 -2.9221 -0.70905 0.025492 -0.20753 0.49021 -0.19344 0.52645 0.58441 -0.63003 0.40708 0.54748 0.80355 0.90574
oil -0.74406 -0.12197 -1.1932 0.40197 0.094102 0.20723 0.13227 -1.5163 1.5318 0.9262 1.7082 -0.41657 -3.5008 -0.19936 0.36292 -1.4258 0.49176 0.24035 0.95371 0.34344 -0.50404 -0.19422 0.34 -0.15036 0.16709
victim -0.3302 0.39131 -0.056473 0.60325 0.41837 -1.3298 0.92277 -0.28367 0.39373 0.56484 0.1669 0.81044 -2.6575 0.85648 0.53042 0.14943 0.52884 0.76632 0.50953 -1.2923 0.95364 0.94117 0.1657 -1.9756 -0.20042
row -0.11254 0.41332 0.77718 -0.61973 -0.1845 -0.52448 0.89422 -0.89887 -0.13761 0.3095 0.33202 0.26548 -3.1196 0.83213 0.49303 -0.078695 0.051165 -0.30044 -0.43576 -0.23731 -0.79378 0.3081 0.94702 -0.64205 0.091295
possibility -0.1365 0.55589 -0.65534 0.77298 -0.58263 0.29311 0.92304 -1.175 -0.03989 -0.9616 -0.45731 0.77605 -2.376 1.2769 0.87577 0.38992 -0.017925 0.50519 0.47229 -0.72547 -0.29643 0.062799 -0.45565 0.10678 -1.1724
consumer 0.079133 0.51259 -1.5736 -0.65451 1.5172 -0.58529 0.21077 -1.295 1.1036 -0.2071 0.52267 -0.26789 -2.6784 0.79995 0.24236 -0.65716 -0.063595 0.61245 0.78399 0.065506 -0.28864 -0.90356 -0.58053 -0.73179 -1.24
direction 0.72475 -0.27871 0.43116 -0.16562 -0.62973 -0.80308 1.1262 0.89189 -1.4394 -0.58827 0.25364 -1.0848 -3.2614 -0.18073 -0.99919 0.96233 -0.94941 -0.034687 -0.58669 0.027297 -0.33792 -0.6465 -0.030839 -0.93865 0.097939
keyboard 0.57393 -0.53942 0.77009 -0.16778 0.9381 -0.001276 0.66496 -0.42071 1.731 0.78613 0.41524 0.50323 -2.4549 -1.3706 0.082175 1.2592 0.58155 0.090811 0.6537 0.34955 -1.1984 -0.1279 0.64511 0.086183 -1.2747
rooster 0.27239 0.21997 0.86125 0.4304 -0.20327 -0.17415 -0.24628 -1.1184 -0.2673 0.248 0.57664 0.94299 -1.4334 -0.52111 -0.027183 1.1346 1.1901 1.3327 -0.56923 1.5163 -1.0988 0.64721 0.41206 0.29861 1.2884
chance 0.36328 0.1269 -0.64457 0.15719 -0.1903 0.19015 0.73801 -0.26004 -0.29243 -1.5073 0.18171 -0.89314 -3.8858 0.57362 -0.26139 0.15957 -0.43473 -0.35002 -1.3865 -0.50309 -0.77255 -0.24452 0.38115 0.66513 -0.87657
nature -1.2603 -1.2661 -1.0679 0.42772 0.27031 0.26002 1.6008 -0.78178 0.73091 -0.34473 -0.27118 0.235 -3.0754 0.27753 -0.33418 0.62884 -0.22896 0.37795 0.31456 0.5967 0.36381 -0.78298 -0.62332 -0.6558 -0.14843
rabbi -1.0711 -0.429 -0.22081 1.048 -1.745 -0.70999 -0.80007 0.56151 0.045309 0.58028 -0.26462 0.70064 -0.99874 0.99168 0.37534 -0.65904 0.84624 0.8828 0.042928 -0.17526 1.1075 0.13506 -1.5433 -0.38505 -1.1596
doctor -0.54472 0.1992 0.59301 0.51037 0.46898 -0.65652 0.93621 0.50443 -0.079907 -0.55784 0.48313 -0.60283 -3.1161 -0.28731 1.3933 -0.30561 1.0375 0.70975 0.31673 -0.79539 0.45404 0.13155 -0.17916 -0.02783 0.10395
investor -0.53185 0.86328 -1.2447 -0.71063 0.76283 -0.010568 -0.1616 -0.42146 1.5926 -0.54179 1.3013 -0.059606 -1.6941 0.1543 0.44445 -0.54325 0.20233 -0.60958 0.40897 -0.36858 -0.11086 -0.3052 -1.5587 -1.2032 -1.3066
quarrel -0.95617 0.96237 -0.1218 1.1903 -0.6733 -0.32526 -0.10463 -1.5426 0.84117 -0.19862 -1.0795 0.98986 -1.3756 1.1244 -0.22068 1.2324 -0.022046 0.23407 1.4605 -0.26793 0.048798 0.67619 -0.25258 0.25545 -0.092401
chord -0.25036 -0.10689 0.99334 0.61732 -0.12584 -0.73992 0.26898 -0.28157 1.0698 -1.187 0.16856 0.71824 -1.4281 -0.24579 -0.02163 0.83862 -0.70871 -0.128 0.3182 0.88928 -1.1646 0.44532 0.17656 0.25143 -1.5391
accommodation -1.4551 0.64544 -0.42749 -1.0186 0.016288 0.067462 -0.4377 -2.0939 0.52287 -0.18212 0.4767 -0.89555 -1.6972 0.54306 0.72067 -0.073638 1.0257 -0.79186 0.52134 -0.11015 -0.58362 -1.7219 -1.3884 -0.14043 -0.47657
luxury -2.0582 -0.20961 -0.78877 -0.72719 0.62494 0.44258 -0.019477 -0.97971 0.83844 -0.31905 0.64333 -0.53535 -3.0613 2.015E-4 -0.73019 -0.1855 0.71406 -0.34416 0.62761 1.041 -1.0278 -1.2179 -0.70151 -0.85815 -0.22628
cock -1.3654 -0.22443 -0.20974 0.52126 1.4635 -0.0044692 0.75457 -0.68789 -0.52 0.62069 0.24871 0.70429 -2.5898 -1.4007 -0.17947 0.36433 0.63599 -1.179 -0.003569 -0.0098727 0.27318 1.5117 1.0856 -1.072 0.27626
defeating -0.19324 0.44665 -0.28954 -0.12564 -0.88266 -0.11763 -0.42819 -0.99013 -0.28547 -0.90384 -0.20096 0.73461 -1.4888 1.3314 0.78375 -0.17238 -0.20235 0.31784 0.76953 -0.046986 -1.2256 0.66528 -0.14049 -1.1934 -0.79646
territory -0.69615 -0.76051 -1.0081 -0.028927 -0.42233 -0.18387 0.27675 -1.4413 0.84935 0.25935 -0.0033836 0.36111 -1.949 0.9912 0.4452 -0.24129 0.86476 0.08639 0.99894 -0.18223 -0.14802 -0.97334 -0.10871 -0.90703 -0.4155
reason 0.43525 0.41565 -0.0049016 0.33494 -0.093569 0.0231 1.8699 -0.57324 -0.61937 0.11542 -0.90317 0.59846 -4.3689 0.15006 0.03712 0.52517 0.052408 -0.22282 0.57383 -0.55142 0.65294 0.43788 0.37033 0.12756 -0.73918
nation -0.11377 0.6454 -1.4799 -1.0928 -0.2791 -0.48068 0.69938 0.0034788 0.0053465 -0.57373 -0.010571 0.81794 -3.5598 1.021 0.040092 -0.29658 -0.7458 -0.64169 0.63449 1.0388 -0.31272 0.93257 0.49821 -1.1479 0.69721
concert -0.69028 -0.1175 0.6476 -0.83772 -0.76543 -0.93428 1.3704 0.61049 0.13713 -1.2742 0.12978 0.66949 -3.4958 0.82824 0.13105 1.0862 -0.46217 -0.31943 -1.9206 0.88199 -1.0497 -0.71429 -0.071072 -0.71567 0.64192
discipline -0.31194 0.37849 -1.9469 1.1802 0.54486 -0.03023 0.11965 -1.3242 0.68506 -0.77587 -0.51893 0.11428 -2.6325 0.80827 0.63085 0.71129 -0.55682 0.86553 0.81266 -0.3067 -0.21657 0.55126 -0.82165 0.19825 -0.37015
fighting -0.3286 1.1874 -0.20121 0.53896 -0.30103 -0.0038795 1.4943 -0.18801 -0.11949 0.46841 -0.53027 0.97315 -3.1748 0.41732 0.082693 -0.14431 -0.9059 -0.55655 0.19184 -0.67453 -0.020831 1.1033 -0.36247 -0.63041 0.32451
bank -0.026332 1.2378 -0.19281 -1.1141 0.10783 -0.056344 -0.59693 -0.14492 1.1163 1.1818 0.8562 0.65737 -3.4613 0.10235 0.26078 -0.42548 0.42242 0.22929 -0.55839 0.16926 -0.78357 -0.78385 -0.64772 -0.62314 -0.44248
constellation -1.2931 -0.13567 -0.012294 0.36315 0.026039 0.017445 0.12396 -1.2948 0.94178 -0.79176 -0.078841 -0.059195 -0.80336 0.66268 -0.35172 0.37298 -0.19156 0.91432 1.567 1.5696 -0.59304 0.3294 -0.17921 -0.63426 -0.51405
championship 0.16254 0.83574 -0.30493 -1.9583 -0.016777 -0.28387 0.51855 -0.37081 0.11591 -1.0386 0.13317 0.58977 -3.3008 1.5863 1.0426 -0.38608 -0.57138 -0.85511 0.073823 1.0661 -1.8046 0.8845 1.02 -0.83135 -0.1549
exhibit -0.99767 -0.38783 0.50702 -0.59322 0.45617 -0.40336 0.48477 -1.0507 0.8696 -0.973 0.34604 0.55468 -2.0366 0.80548 -0.081843 0.6543 0.0097701 0.95631 0.352 0.098357 -0.48242 -0.80302 -0.8328 -0.38295 -0.031142
proton -1.123 -0.13228 0.39534 -0.18598 -0.0037262 -0.096828 -0.43554 -0.52583 1.9751 -0.56129 0.29722 -0.020902 -0.61443 -0.8899 0.80399 0.2127 0.64975 0.092766 0.7495 0.011862 -0.32403 0.36892 -0.40236 -1.1223 -0.99274
alcohol 0.42611 0.29293 -0.38085 1.2675 0.85491 1.2881 0.43514 -0.68569 -0.57152 0.67542 0.86435 -1.9571 -3.2627 -0.032704 0.8325 0.38405 0.78145 0.52618 1.263 -0.46579 0.058284 0.0051324 0.001359 0.54815 1.1439
forecast -0.87618 -0.24266 -0.65217 -1.0789 0.09256 0.49521 1.2009 -1.509 0.65934 -0.45711 -0.078082 0.70377 -1.977 2.1192 1.4387 -1.3098 -0.015472 1.186 -0.35977 0.034761 -0.39007 -1.7148 1.2939 0.87099 -0.73652
hike -1.4879 0.63054 -0.87044 -0.22942 0.10395 -0.14745 0.066342 -1.9226 1.0278 0.059297 0.44663 -0.36631 -2.2702 0.84212 0.75615 -0.62202 0.46054 -0.39296 -0.22406 -0.53873 -0.38268 -0.52204 1.0011 -0.040843 -0.1621
tiger -0.70271 -0.34338 0.44368 -0.38403 -0.54616 0.29011 0.79173 0.010238 0.5598 -0.42032 0.56748 0.7805 -2.6554 -0.071329 -0.22077 -0.65655 0.62697 -0.32502 0.40505 0.81096 -0.28692 0.71314 0.62474 -1.0801 0.095829
flood -0.35889 0.30527 -0.53548 0.18221 -0.37523 -0.65582 0.86075 -0.91601 0.97777 0.73919 -0.28466 -0.37097 -2.4136 1.3699 0.66725 0.079177 0.26515 0.55756 0.3792 -0.58052 -0.47434 -0.6693 1.1623 -0.44129 -0.42913
eye -0.67636 -0.54391 0.15273 0.57319 0.53586 0.14114 1.1512 -0.53719 0.36041 0.63842 0.28331 0.56992 -3.6842 -0.35542 -0.32836 0.0021551 0.53962 0.1237 0.12282 -0.13858 -0.32917 0.66759 1.1642 0.2496 -0.68096
deposit -0.097638 1.7068 -1.0267 -0.31475 0.46628 -0.66833 -0.55758 -1.6315 0.55916 0.65232 1.2441 -0.44549 -2.0115 0.082515 0.72488 -0.073093 0.83164 -1.1039 0.11666 -0.43326 -1.0591 -0.95225 0.7214 0.6768 -1.1747
animal -0.26053 -0.85728 -0.43679 0.66746 1.1192 -0.088358 1.0284 0.049655 0.11789 -0.070189 0.64676 -1.9001 -3.1175 -0.76012 0.41025 0.26773 0.3638 0.14643 0.59874 -0.21139 0.25921 0.52024 -0.050446 -1.1284 0.75255
ministry -0.59123 0.75626 -0.91686 -0.348 0.54458 -1.721 0.57579 -1.2653 1.1478 0.045229 0.089326 0.055433 -2.6878 1.0753 0.34448 -0.36751 0.030357 1.0591 0.62604 -0.065884 0.24878 -0.35596 -1.2423 -1.141 0.51773
cup -0.43276 0.70402 -0.40561 -0.56102 -0.8788 0.33048 0.65207 0.13081 0.51278 0.28088 1.0997 -0.050476 -3.3871 0.68888 0.6138 -0.65682 0.069657 -0.92257 -0.17655 0.7402 -1.9753 1.0162 0.28158 0.079949 0.45805
shower -1.6493 0.33315 0.81582 0.36654 0.47834 0.73602 1.3234 -0.88784 0.38742 0.52625 -0.25308 -0.0075584 -3.4699 -0.3966 0.039903 0.73243 0.91272 -0.52122 -0.75293 -0.58501 -0.52482 -0.06315 1.3302 0.90403 0.36702
activity 0.26629 0.22224 -0.12799 -0.24051 1.0014 0.12435 1.4421 -1.2576 0.70346 0.19643 -0.027655 0.14116 -2.3319 0.80499 0.87292 1.1571 0.31641 0.72357 0.068052 -0.22435 -0.83789 -0.7995 -0.30457 -0.15689 0.30397
jewel -0.87495 -0.63069 0.19737 0.15194 -0.18024 -0.38188 -0.060082 -0.53834 0.56123 -0.69085 -0.099687 0.8087 -1.8139 -0.087758 -0.75907 -0.21736 0.71668 0.48464 0.74711 1.435 -0.13972 -0.16911 0.25148 0.31898 -0.25131
association -0.40133 0.60497 -1.3705 -1.0968 0.89791 -0.87314 0.15051 -1.178 1.415 -0.31907 0.82929 -0.092699 -2.6039 0.8947 0.59798 0.1012 -0.079719 -0.17341 -0.22757 0.18623 0.48201 -0.13017 -1.005 -1.4492 0.07773
industry 0.19169 0.789 -1.0771 -0.85667 1.4101 -0.49755 0.33435 -1.3821 1.2286 -0.21661 0.52323 0.12149 -3.6278 0.37498 0.43706 -0.36848 -0.077401 0.15951 0.9638 0.27568 -0.095748 -0.82426 -0.77179 -0.85374 0.20003
aluminum -0.64977 -0.98456 -0.019763 -0.11411 0.70749 0.89607 -1.2598 -1.1827 1.9779 -0.059171 1.0359 0.38727 -2.3329 -0.51776 -0.31348 -0.44755 0.9429 0.66294 0.58673 0.53631 -1.5752 0.38745 1.1847 0.036608 -0.63405
sun -1.1781 -0.35374 0.219 0.081354 -0.83705 0.30849 1.0904 0.085322 0.42959 0.49294 -0.1423 0.21403 -3.6561 0.86748 -0.23746 -0.18236 0.24201 0.027676 -0.11062 0.18458 -0.8138 -0.31656 0.39529 0.37694 0.25795
automobile -0.82781 -0.023622 -1.046 -0.46495 0.61599 -0.24979 -0.5883 -1.2093 1.3118 0.43447 0.80025 -0.24348 -1.5352 -0.30239 0.24175 0.67163 0.68115 0.64836 0.58096 0.83504 0.14769 -0.5682 0.040567 -1.5068 -0.018912
secretary -0.9918 -0.041245 -0.89953 -0.63889 1.004 -1.99 -0.27581 -0.47726 1.0371 -0.44987 0.45169 0.19663 -2.5932 -0.37752 1.3058 -1.3922 0.61322 0.26571 -0.43595 -0.4456 0.8442 0.6377 -0.78348 -1.3954 -1.024
memorabilia -0.4372 -0.042231 0.34919 -0.81717 0.72558 -0.96435 -0.42764 -1.5202 -0.091811 -1.1442 1.1914 0.41455 -0.92475 -0.14182 0.088556 0.23856 0.19274 -0.78032 0.57639 0.95345 -1.1198 -0.56274 -0.36089 -0.84925 -0.70368
dividend 0.32835 1.316 -1.6083 0.032229 1.1932 -0.43368 -0.91222 -2.1963 0.95994 -0.89847 1.7921 0.393 -1.193 1.4952 0.12569 -1.4048 0.36447 -0.060717 0.078767 -0.18996 -1.0006 -0.39557 0.32356 0.55795 -0.74781
currency 0.73797 0.64275 -2.1316 -0.49477 0.31747 -0.45115 -0.23721 -1.7193 0.8941 -0.16557 1.0934 0.10743 -2.3738 0.62146 0.13866 -0.54536 0.24405 0.12542 1.7765 0.66329 -0.46942 -0.56253 0.30438 -0.52522 -0.89622
magician -0.66493 0.2305 0.0026877 -0.55718 0.10123 -0.71809 0.85147 -0.19009 0.33592 -1.3497 0.045508 1.0742 -1.3962 -0.14917 0.15653 0.7643 0.31878 0.28319 0.7587 0.32947 0.084855 0.71776 -0.32152 -0.80462 -0.17123
galaxy 0.78238 -0.052063 0.23779 -0.91649 0.41402 0.067346 -0.020779 0.70216 0.61628 -0.012463 1.5493 -0.26191 -2.5662 -1.0274 -0.44794 0.077731 0.13272 -0.072139 0.089588 0.60526 -1.6325 -1.1864 0.54677 -0.40111 -0.53244
cemetery -1.3229 -0.10508 0.61585 0.36196 -0.56728 -0.76695 0.43648 -1.7676 1.0901 0.043104 -0.39666 -0.13846 -1.6331 1.1929 0.37785 0.061713 0.54087 0.82385 0.4764 0.10221 0.53809 -0.53569 0.099709 -1.1748 0.63068
equality 0.035683 0.10591 -2.275 -0.26367 0.038389 -1.8802 0.52356 -1.2997 -0.27021 -0.027215 -0.33207 0.10262 -2.8059 0.80172 0.38156 -0.38888 -1.2207 0.27261 0.74181 -0.12535 -0.57255 0.7847 -0.89328 -1.1242 -0.28084
situation 0.20758 -0.3579 -1.3373 0.48495 0.11136 0.3553 0.80489 -0.91231 0.13179 -0.12294 -0.8598 0.88757 -3.6638 1.0854 1.2492 1.3837 0.015618 0.36669 -0.25027 -0.73518 0.98846 0.077183 0.029517 -0.31768 -0.65884
star -0.14569 -0.33235 0.44624 -0.33247 0.10822 -0.097219 0.84523 0.76985 0.1333 -1.0654 0.51522 -0.014975 -3.6039 0.17606 -0.11014 0.075945 -0.087831 0.051184 -0.9232 0.78566 -0.44164 -0.012372 -0.16316 -1.1104 0.013351
valor 0.91307 -0.49712 -0.88539 1.3666 1.3789 0.2925 -0.80331 0.68008 0.16828 -0.51131 0.47617 -2.7912 -1.6077 1.3763 -0.24942 -0.24642 -0.63933 0.24053 0.44415 -1.4278 -0.26409 0.29009 0.098786 0.39324 -0.7811
closet -1.2369 -0.31759 1.1683 -0.015657 0.60603 0.36791 0.075143 -0.34639 -0.21636 0.13016 0.38982 -0.8991 -2.9882 -0.71589 -8.4309E-4 1.1873 0.87645 -0.32658 0.76489 -0.24593 -0.12749 -0.59738 0.61684 -0.33274 -0.079446
maker -0.43872 0.030299 0.19345 0.060171 0.52164 -0.53776 0.60875 -0.67476 1.245 -0.18047 1.2552 0.63211 -2.5223 -0.59997 0.21945 0.29041 0.41229 0.050141 0.49238 0.93093 -0.63953 -0.59169 -0.10802 0.38917 0.44622
withdrawal -0.57985 1.0064 -0.84216 0.14897 0.44998 -0.96207 0.78374 -1.7116 -0.11968 0.41019 0.16272 0.39562 -1.1581 0.26689 1.7623 0.47171 -0.044168 0.41044 0.58766 -0.85859 -0.52973 0.50783 0.46932 -0.30077 0.69229
team -0.065841 0.3378 -1.3493 -1.2673 -0.33221 0.26351 0.56304 1.1205 -0.47447 -0.64588 -0.16753 0.39804 -4.2418 4.0181E-4 0.036998 -0.056309 -0.38204 -1.2962 -0.69765 1.0583 -0.34017 -0.1907 0.28882 -1.0833 -0.45183
people 0.61531 0.40895 -0.34224 0.21094 -0.046403 0.29744 1.9485 -0.91247 -0.85772 0.57293 -0.99537 -0.15858 -5.4328 0.11578 -0.27031 0.35207 0.16624 -0.91364 0.6933 -0.65035 0.77353 -0.087782 -0.43228 -0.99982 -0.68077
hill -1.223 -0.2588 0.86705 -0.041346 -0.89586 0.36802 0.62996 -0.32414 1.289 -0.86554 0.18163 0.26591 -3.5542 0.35045 1.1798 -0.79317 -0.16949 0.24211 -0.045336 0.31585 0.081719 0.19739 0.19631 -0.68027 0.55595
operation -0.54109 0.5741 -0.57693 -0.036518 -0.019905 -0.97052 0.73598 -0.43268 1.1314 0.063698 0.0088908 0.38698 -2.0966 0.63184 0.012098 0.348 0.4621 0.43213 0.16721 -0.83999 -0.77431 0.16605 0.28832 -0.95008 0.07306
antecedent -0.1307 0.2333 -0.39111 0.29063 -0.059528 -0.82614 -0.67409 -1.9376 0.86241 -0.86086 -0.29802 0.49836 0.35549 0.60452 0.71954 0.91576 0.77204 0.72338 1.2233 0.093389 -0.61856 0.34849 -0.21185 -0.3672 -1.081
insurance -0.25173 1.056 -1.542 -0.51559 0.89596 -0.90224 -0.11666 -1.6683 0.698 0.6527 0.97024 -0.54357 -3.5071 0.0069129 1.3926 -0.72959 0.64351 -0.28472 0.76864 -0.22345 0.3157 -1.0991 7.7201E-5 -0.51475 -1.0273
calculation 0.53135 0.20584 -0.67915 0.30343 0.57561 -0.039734 -0.2814 -1.7915 1.0578 -0.51117 -0.12863 0.61971 -0.75219 0.09225 1.2131 0.28706 0.66979 0.15487 0.36676 0.091365 -0.30386 0.11862 -0.42824 0.37619 -1.3731
country -0.29159 -0.036755 -0.14379 -0.62533 -0.28054 -0.083234 1.0597 -0.56264 0.12039 -0.29531 -0.57192 -0.49519 -4.5127 0.5549 -0.071129 -0.13111 -0.26254 -0.16039 0.70769 0.24018 -0.27281 0.3087 -0.47999 -1.4149 0.68254
bishop -0.9889 -0.012449 0.50763 0.37419 -1.0733 -1.4867 -0.35368 -0.66159 0.45383 -1.1239 -0.32917 1.0699 -2.4951 0.19582 0.77374 -1.3985 0.23133 0.70723 -0.29601 0.60908 0.65756 0.99049 -0.52265 -0.76815 -0.15327
woodland -1.4716 -0.95666 0.38171 -0.39494 -0.82537 0.19845 0.29661 -1.3024 1.3398 -0.36794 -0.37316 -0.50545 -1.5268 0.6153 -0.025078 -0.39571 0.9846 0.11322 0.80323 1.0407 0.09289 -0.13204 -0.45272 -1.3336 0.13389
jazz -0.3683 0.39771 0.63003 -0.38611 -0.034299 0.42418 0.59003 0.71601 1.1398 -1.0238 0.10067 0.072932 -2.582 -0.12678 0.45861 0.30199 -0.2411 -0.22438 0.16215 1.0123 -1.2409 0.14673 -0.43204 -0.7678 0.98386
seven 0.5507 0.081573 1.2306 0.36635 0.014562 0.65614 0.086013 -0.56938 -1.0733 0.53579 0.6313 -0.142 -2.7966 1.1222 -0.97642 -1.1067 0.26899 -0.097969 0.30446 0.39045 -0.38703 0.39214 -0.65531 -1.2124 -0.31083
project -0.084052 0.58241 -0.038155 -0.73745 0.77664 -0.67025 0.92218 0.14225 1.1166 -0.51766 -0.088515 0.61233 -3.6445 0.46657 0.46029 0.059236 0.30448 0.56702 -0.13842 0.27891 -1.1585 -1.0403 -1.0103 0.32949 0.24068
mother -1.1538 0.35302 0.42336 0.6585 0.41522 -0.59161 1.6598 0.032121 -0.42962 0.18534 -0.30366 0.21844 -3.8577 0.24523 -0.32361 -0.31029 0.70883 -0.083037 -0.051809 -0.053355 0.99868 0.81361 -0.39237 -0.33642 -0.021506
graveyard -0.66115 0.5396 0.87926 0.20061 -0.0098598 -0.39693 0.44774 -1.8603 0.66259 0.1202 -0.31524 0.16606 -1.2456 0.64806 0.40058 0.4325 0.82124 0.60019 0.42475 0.042574 -0.26984 -0.012677 0.19675 -0.59095 0.97976
school 0.4197 0.83014 0.91493 -1.3778 -0.12329 0.1171 0.95063 -0.85382 -0.53673 0.86703 -1.0506 0.14156 -4.975 0.37153 0.9452 0.47062 0.86184 0.29855 -0.71778 0.16511 -0.49729 0.21393 -0.33587 0.24956 0.63315
wood -1.6271 -0.62147 0.98301 0.44003 0.19346 0.5323 -0.31182 -1.1735 1.386 -0.38906 0.85322 0.32084 -3.6003 -0.47036 -0.057344 -0.9375 0.65189 0.32345 0.28916 0.99608 -0.43312 0.14749 0.67016 0.013988 -0.18005
avenue -1.4376 -0.63247 0.90774 -0.36011 -0.77198 -0.4269 0.35534 -0.44098 1.6875 -0.7878 -0.31059 0.063427 -2.4775 0.70641 0.46791 -0.3948 -0.38839 0.4151 -0.19935 0.80687 -0.28734 -0.80055 0.34331 -0.97641 0.33429
five 0.73489 0.63602 0.89234 0.093863 0.1124 0.19014 1.1951 -0.85785 -0.67707 0.051665 0.65802 0.23454 -3.5641 1.0263 -0.25591 -0.59235 0.28596 -0.19829 -0.18109 0.10542 -0.86139 -0.029104 0.075991 -0.55291 -0.48586
crane -0.69355 -0.52492 -0.1626 0.33457 -0.30077 0.18382 -0.93005 -0.44468 1.5364 -0.20548 0.68731 0.47208 -1.8196 -0.0094053 0.90944 0.62229 0.4854 -0.1254 -0.80357 0.51708 0.15167 0.38866 0.93531 -0.98399 -0.44054
glass -1.2814 -0.95294 0.39054 0.60138 0.28437 0.59541 0.017491 -0.88652 0.57054 0.2209 1.3647 0.072451 -3.6594 -0.30684 -0.50944 0.096838 1.0556 0.53654 0.43363 0.60488 -1.2055 -0.27969 0.64039 0.20063 0.16412
oracle 0.29591 0.8001 -0.71289 -0.85395 0.36841 -1.0489 -0.75234 -0.69711 1.8072 -0.56191 -0.028073 0.32804 -2.2842 -0.49053 1.0814 -1.0009 0.55341 1.3455 0.89514 0.80019 -0.16545 -1.5003 -0.34439 -0.21738 -0.53062
organism -0.23676 0.286 0.44692 1.256 1.0535 -0.13675 0.48399 -2.1429 0.84116 -0.016362 0.085002 -0.027766 -0.58884 0.20288 -0.43508 0.98931 0.99866 1.5866 1.4334 -0.64319 0.38254 0.75684 -0.98943 -0.62996 0.46047
marathon -0.1607 0.1784 0.55381 -0.82617 -0.24095 -0.46688 1.4813 -0.38537 0.15211 -0.059913 0.42239 0.58194 -2.4475 1.1615 1.0293 0.81128 0.1301 -0.049618 -0.55765 -0.19738 -0.86723 -0.23766 -0.061403 -1.1277 1.2273
lobster -1.4758 0.25232 0.29259 0.53532 -0.46968 0.55172 0.47623 -1.5129 0.44069 0.41953 1.1481 -0.24055 -1.8436 -0.79224 -0.018235 -0.44726 1.5498 -1.1453 0.02583 0.59613 -0.31142 0.74057 -0.29679 -0.37789 1.195
telephone 0.38636 -0.29188 0.1246 0.47142 0.51511 -0.74059 -0.036255 -0.76984 1.2766 -0.061934 0.057687 -0.19251 -1.9878 -0.71271 0.21256 0.84423 0.30333 0.48365 -0.76182 0.71125 0.052083 -0.93371 0.74989 -0.64642 -1.1996
collection -1.0826 -1.0122 0.22032 -0.60044 0.93554 -0.332 0.53833 -0.73363 0.58597 -1.0759 1.1716 0.48004 -3.335 0.16017 -0.77717 0.18975 0.27008 0.018947 -0.4762 1.5122 -1.1511 -1.2743 -0.29135 0.015646 -0.15152
girl -0.73444 -0.19645 0.76037 0.021577 0.38145 -0.22441 2.0073 0.41696 -0.63872 0.16142 -0.86844 0.28189 -4.7386 -0.63718 -0.62301 0.32055 0.54842 -1.0435 -0.32701 0.35739 0.95395 0.70886 0.15756 -0.22283 -0.15027
recess -0.19417 0.64427 1.7191 -0.53778 -0.33367 -0.77626 0.81347 -1.7482 0.56654 -0.039408 -0.15309 -0.26858 -1.6325 0.34308 1.2053 0.2717 0.72522 -0.25363 0.13503 -0.075703 -0.75023 0.63171 0.27886 -0.20089 0.51353
volunteer -0.81145 1.535 -0.72402 -0.80595 0.31644 -1.1262 0.51381 -0.8419 0.84618 -0.37772 -0.20876 -0.7291 -2.6209 0.53409 -0.035106 0.10548 0.7378 -0.83612 0.096548 -0.89759 -0.13627 -0.67006 -1.3462 -0.99549 -1.4389E-4
museum -1.0137 -0.26668 0.61696 -0.75504 -0.075663 -0.32455 0.26232 -0.33476 1.5423 0.12081 0.96513 0.25466 -2.6535 0.55346 0.5531 0.071713 0.78768 0.70474 -0.060583 0.64945 -0.92032 -0.73755 -1.7038 -1.1444 0.71032
laboratory -0.11981 0.03471 0.70394 0.27829 0.65764 -0.55969 0.62799 -1.9614 2.2756 -0.48317 0.2408 0.22661 -1.4432 -0.066898 1.3915 -0.21886 0.74095 1.3489 0.46351 0.6564 0.11357 -0.32741 -1.0219 -0.73266 0.77075
proximity 0.032098 0.21458 -0.23461 0.20673 0.32546 -0.53825 -0.34977 -1.7814 1.1816 -0.15134 -0.68438 0.1195 -0.87911 0.36729 -0.020176 0.69867 0.601 0.91849 1.4717 -0.13261 -0.36812 -0.85493 -0.17368 -0.38017 -1.119
senate 0.17754 0.59287 -0.94757 -0.61351 -0.094876 -2.3163 -0.15025 -1.1977 1.1795 -0.31568 0.26612 -0.49292 -2.8688 1.1434 1.1142 -1.9637 -0.7465 0.12042 -0.56744 -1.1927 0.41475 0.86363 0.48722 -1.3135 -1.0943
thunderstorm -1.4159 0.14842 -0.74948 -0.18106 -0.58638 0.13657 1.4063 -1.1079 0.53711 -0.25171 -0.30035 0.87529 -1.1953 1.6729 1.5116 -0.24496 0.31132 0.98433 -0.054796 -0.32779 -0.23939 -0.74001 1.8311 -0.086264 -0.39806
internet 1.703 0.13539 0.056406 -0.58239 1.4774 0.57477 -0.14621 0.54993 0.49684 0.68495 -0.010889 -1.4862 -3.3963 -0.67324 0.39851 0.75673 0.0599 0.55717 -0.29095 -0.79471 -0.18411 -0.90142 -0.23709 0.013075 -0.1746
tableware -1.8565 -0.22824 0.3002 0.01821 0.090055 -1.2736 -0.70268 -1.5549 0.50861 -0.64847 0.97561 -0.18543 -0.083262 1.0148 0.030794 0.46737 1.2181 0.72109 0.61096 0.78539 -1.3349 0.0021653 -0.21088 -0.14283 0.042712
string -0.046156 -0.57989 0.23066 0.58491 0.2578 0.56853 0.20769 -1.0997 0.80818 -0.3341 0.84871 0.36806 -2.4485 -0.081071 -0.1346 0.93238 0.53641 -0.11016 -0.25996 1.2115 -0.96236 0.48049 0.89976 -0.20087 -0.33992
scientist 0.14838 0.22764 0.016228 -0.14803 0.5 -0.83569 1.087 -0.55348 1.3212 -0.7332 -0.051223 0.23698 -2.1168 -0.385 0.82947 0.17521 0.45097 1.2251 1.345 -0.22415 0.69732 0.20924 -1.264 -0.68929 0.33601
book 0.21621 0.056781 0.82955 -0.1424 0.82832 -0.87341 1.699 -0.25702 0.65303 -0.82435 0.26496 0.4612 -4.0463 -0.044556 0.15648 -0.083655 0.72399 0.20802 -0.27561 -0.024987 -0.83992 -0.92536 -0.95454 0.42348 -0.14709
effort -8.6684E-5 -0.055258 -1.5417 0.16641 0.07874 -0.14459 1.1276 -0.94318 -0.02795 -0.48691 -0.62685 -0.38121 -3.4236 1.4392 0.72258 0.9351 0.36755 -0.49611 -0.21289 -1.1213 -0.67334 0.85057 -0.26841 0.73567 -1.3647
video 0.65635 0.041117 0.93452 -0.14115 0.98254 -0.51396 1.1953 1.9252 0.19419 -0.91384 0.59072 -3.708E-4 -3.5803 -0.71096 -0.002007 0.44468 0.0013177 0.41788 -0.89997 -0.32894 -0.44435 -0.81892 0.0025267 -0.94815 0.44134
life -0.11048 0.13274 -0.34893 0.48077 0.17184 0.21367 1.9979 -0.065145 -0.45437 -0.0089287 -0.91636 0.49681 -5.0971 0.38244 -0.085692 0.54055 -0.12858 -0.079061 0.4292 -0.12321 -0.13697 -0.19238 -0.25163 0.45215 0.051584
disaster -0.25799 0.42507 -0.89655 0.22206 0.37386 -0.66189 1.5387 -0.90677 0.14646 0.20265 0.47902 0.13128 -2.086 1.2454 1.4632 0.13339 0.16467 0.80583 0.77946 -0.61299 -0.27352 -0.30188 -0.022256 -0.781 0.44243
conclusion 0.37221 0.027775 0.17774 0.37449 0.23547 0.20308 0.59759 -0.45507 -0.10775 -0.85677 -0.50924 -0.39345 -2.0953 1.0111 0.95108 1.2698 0.70764 0.52301 -0.13891 -0.24353 0.11205 -0.24858 0.058205 0.32416 -0.90638
weapon 0.52747 0.093043 -1.0653 0.68004 0.83772 -0.48629 0.87067 -0.88055 1.0775 -0.051602 0.7376 0.87468 -2.5418 0.51549 -0.081719 0.44538 0.78283 0.76784 1.5036 -0.12892 -0.2794 0.81951 0.3986 -0.5576 0.011649
ecology -0.278 -0.43171 -0.52068 -0.10049 0.32056 -0.12998 0.58934 -1.6767 1.7759 -0.49172 -0.56231 0.626 -0.98392 0.12827 0.29952 -0.18238 0.30297 1.2459 1.5117 0.78033 -0.30146 -1.2898 -0.50748 0.063478 0.23631
mammal -0.52117 -0.26212 -0.50579 0.38753 0.67031 -0.47955 0.3047 -1.9035 0.47304 0.35847 0.8658 -0.19002 -1.0258 0.78217 0.47991 0.92792 1.3223 1.0553 1.423 0.79161 0.40113 0.80452 -0.39031 -1.354 -0.014329
interest 0.33421 0.81189 -1.2303 0.042751 0.4985 0.13588 0.27642 -1.063 -0.093177 -0.22147 0.11067 0.6576 -3.4571 0.97454 0.64487 0.11746 -0.22356 -0.24567 0.46003 -0.89123 -0.28525 -0.22284 -0.31284 -0.31953 -1.7437
similarity 0.71093 -0.33523 -0.1534 0.49687 -0.44409 -0.3776 0.30119 -1.609 0.039044 -0.38611 -0.3111 0.50985 -0.88976 0.69921 0.42862 0.70064 0.92552 0.32456 0.96471 0.86708 -0.44616 0.44892 0.10357 -0.28574 -2.0053
street -0.73473 0.12072 0.60764 -0.50474 -0.057365 0.52869 0.59001 -0.23753 1.1406 -0.13324 0.26812 0.072847 -3.9193 0.37957 0.57559 -0.034995 0.10252 0.021756 -0.30837 0.43004 0.0025237 -0.50404 0.2305 -1.4497 0.58924
news 0.98081 0.18142 -0.223 -1.0914 0.080287 -0.89499 1.1066 0.41286 0.70293 0.070491 0.70502 0.37292 -3.7254 0.3145 0.25519 -1.1225 -0.49039 0.18106 -0.50766 -0.1814 -0.12572 -1.1442 -0.80693 -1.6843 -0.023435
feline -1.377 -0.21411 -0.57395 0.4543 0.79808 -0.23453 0.29175 -1.4333 0.12208 -0.10415 -0.17831 -0.20086 -0.7565 -0.44067 0.0038216 0.15978 1.2785 0.30731 1.0184 0.71848 -0.25077 0.60717 -0.75206 -0.70815 -0.029107
yen 1.5404 0.68009 -0.7697 -0.0093613 -1.645 -0.054344 -0.91199 0.24024 0.88197 1.1239 0.05192 -0.19964 -1.4549 0.69419 -0.5024 -0.054818 -0.177 -0.53837 -0.91971 1.204 -0.01729 0.61159 0.8478 -0.036607 -0.18341
substance 0.53158 -0.16308 -1.2182 0.94209 0.73107 -0.078219 0.47418 -1.7535 0.37631 -0.0453 0.23737 0.34932 -2.0642 0.12944 0.44381 0.88174 0.53592 0.62758 1.3317 -0.28399 0.1973 0.43979 -0.61005 -0.802 0.19985
center -0.9898 0.45616 0.20209 -0.91719 0.32848 -0.17475 0.13352 -0.18361 1.7751 -0.23812 0.4281 -0.17363 -3.6586 0.72237 1.3436 -0.86164 -0.059613 0.030823 0.034329 0.069817 -0.27297 -1.0345 -0.34128 -0.70196 0.31149
shore -0.55908 -0.086327 0.8485 -0.76414 -1.0985 0.27208 0.4592 0.20877 -0.61155 -0.90601 0.084103 -0.76595 -2.596 0.32398 1.6049 0.82075 0.21189 -0.013986 0.51264 0.55889 -0.33038 0.065299 0.27143 -0.88064 0.5537
start 0.12451 1.3797 0.54486 -0.90407 -0.11113 1.1818 1.1898 -0.5814 0.35164 0.20501 -0.56733 0.67764 -4.277 0.035894 0.078868 0.47072 -0.37612 -0.68964 -1.1399 -1.3196 -0.62336 -0.095528 0.013147 0.33991 -0.088342
war 1.0727 -0.69577 -0.83886 -0.71605 0.26884 -0.21411 0.42006 -0.51205 0.37047 0.20152 0.22003 0.75065 -3.484 0.60434 0.26727 -0.42824 0.60961 1.3392 -0.70076 -0.85184 -0.13652 1.0762 -0.43406 -0.69758 1.1292
monk -0.97423 -0.27561 0.19539 0.39988 -0.64078 -0.63488 0.12623 -0.68611 0.53977 -0.79335 0.34553 0.68593 -1.3445 -0.39159 0.34809 -0.35124 0.50181 0.24666 0.364 0.61609 0.052053 1.081 -0.37712 -0.5624 0.38126
mouth -0.69247 0.015485 0.087218 1.4157 0.62665 0.21719 1.2109 -1.0223 -0.0068606 1.0524 -0.1609 0.86278 -3.7374 -0.78063 -0.067139 0.26446 0.47769 -0.37711 0.13732 -0.60395 0.74122 1.3343 1.5674 0.37091 0.13666
money 0.36412 1.7364 -0.69661 0.28056 0.7324 0.25299 0.30951 -0.73403 -0.27963 0.40459 -0.042116 0.10481 -4.9592 -0.33304 -0.16283 -0.31812 0.44274 -0.7354 0.23874 0.032485 0.12587 -0.082511 0.39956 0.32139 0.12204
drought -0.1753 0.47473 -1.1669 -0.044409 9.836E-4 -0.031966 0.78979 -1.742 0.56003 0.27529 0.076177 0.58241 -1.8867 1.7757 1.2365 -0.55746 -0.17939 0.79385 0.647 -0.25666 -0.23645 0.86846 1.1631 -0.64173 0.57083
infrastructure -0.3467 0.5053 -1.7332 -0.74816 0.94667 -0.11938 -0.48473 -1.6215 1.8853 0.2743 0.050221 -0.29516 -2.7064 0.67689 0.98935 -0.52086 -0.14711 0.73039 1.412 -0.10702 -0.48088 -1.1918 -0.68958 -0.34127 -0.59217
cabbage -0.46952 -0.1275 0.29704 0.65984 -0.15543 0.44988 0.1835 -2.1946 0.20906 -0.074544 0.8326 0.018483 -1.5443 -1.4071 0.081866 -1.3665 1.5884 -0.5601 0.49011 1.0187 -0.037679 1.2917 -0.2397 0.29283 1.2735
software 0.79026 0.41678 -0.77838 -0.61136 1.7716 -0.42429 -0.25127 -0.34978 1.9081 -0.35821 0.78927 -0.083754 -3.1851 -0.76268 0.90984 0.17074 0.54154 0.61035 0.67438 -0.079299 -0.65108 -1.8111 -0.87757 -0.09028 -0.54683
competition -0.42616 0.68456 -0.42486 -1.0445 0.65392 -0.64909 1.0303 -0.95995 -0.080272 -0.6091 0.35253 0.34164 -3.2817 0.50453 -0.014525 0.18588 -0.38786 -0.99975 -0.27666 0.39596 -1.7502 -0.41077 -0.19023 0.14068 -0.19534
type 0.44911 -0.19895 -0.47703 0.21622 0.83392 0.71772 1.0674 -0.23235 0.7977 0.16973 -0.42782 0.6522 -3.873 -0.33917 -0.17546 1.2659 0.68699 -0.3905 -0.2384 0.49339 0.43594 0.2894 0.11263 0.089456 -0.50848
troops -0.49636 0.86669 -1.1403 0.12706 -0.96902 -1.4843 -0.029406 -1.284 0.16681 0.85798 0.98511 -0.36174 -2.4473 1.5218 -0.62531 -0.1019 0.27115 -0.39281 0.31868 -0.67893 -0.24913 0.36148 -0.33714 -2.3578 0.39376
preparation -0.47533 0.5493 -0.77679 -0.039401 0.34422 0.10036 0.8401 -1.5547 0.64049 -0.85527 -0.35209 0.34139 -2.0821 1.3975 1.5267 0.22491 0.090029 0.32507 -0.29568 -0.47797 -1.0864 -0.37597 -1.1424 0.68845 -0.22538
artifact 0.062463 0.13863 0.021982 -0.35253 -0.43969 -1.6691 0.7941 -1.4288 0.054469 -1.243 0.26319 0.54081 -0.26041 0.45617 0.081151 0.47814 -0.092621 0.76948 0.52685 0.4289 -1.2461 0.22173 -0.77251 -0.72692 0.50546
loss 0.24671 0.99246 -1.5556 0.20034 0.91439 0.50028 0.84454 -0.684 -0.29875 -0.9612 0.85357 0.64011 -3.1084 0.81039 1.5754 -0.92283 0.30871 -0.24315 0.70829 -0.46015 -0.80015 0.57047 0.19038 0.26216 0.0022954
critic -0.4289 0.33289 -0.0067034 0.19129 0.90465 -0.85537 0.85195 -0.91444 0.54043 -1.2586 -0.10757 0.49727 -1.59 0.5901 0.38801 0.76791 0.24996 0.56246 0.92536 -0.20582 0.72061 0.50086 -1.051 -1.0309 -0.362
problem 0.40826 0.22986 -0.67249 0.03622 0.67598 0.39157 0.63765 -0.18226 0.031355 0.84481 -0.69796 0.25498 -3.9326 -0.015464 0.24994 0.52536 0.68442 0.18851 -0.086282 -0.76257 0.80465 0.50118 -0.68287 0.54065 -0.38386
children -0.54012 0.29523 -0.12819 0.42327 0.62131 -0.7132 1.1946 -1.1596 -0.32248 0.43576 0.072544 -0.16153 -4.0564 0.71535 -0.59013 -0.60998 0.44938 0.017733 1.0783 -0.93363 0.21728 -0.0163 -1.2319 -1.5189 0.44527
price -0.16597 -0.099239 -0.62957 -0.54359 0.55599 -0.13882 -0.037024 -0.6688 0.57253 -0.050613 1.4419 0.38681 -3.9252 -0.031542 0.031401 -0.88154 0.59285 -0.38049 0.30764 0.4031 -0.88438 -1.0556 0.52858 0.6113 -1.2371
weather -0.86476 -0.6975 -0.69574 -1.2633 -0.19891 1.0855 1.8611 -1.1699 0.14969 0.4091 -0.93497 0.25987 -3.6783 1.2144 1.5095 -0.38407 0.19425 -0.095738 -0.18508 0.48539 -0.045575 -0.71927 1.2073 0.026715 0.090112
season 0.34853 0.58149 0.36469 -1.1334 -0.31172 0.20243 1.7893 -0.15265 -0.38154 -1.1523 0.26419 0.95886 -3.8735 1.2624 0.93331 -0.29367 -0.58902 -0.72573 -0.54558 0.20116 -1.7377 0.66936 0.39875 -0.12239 0.24632
payment 0.27243 1.3669 -1.0873 -0.33487 1.0594 -0.77925 -0.36124 -1.6268 1.0376 0.48642 0.72632 -0.19856 -2.6572 0.55573 0.90584 -0.11715 0.79777 -0.35359 0.0021507 -0.40626 -0.7723 -1.2112 -0.076866 0.69664 -1.6307
cash -0.056558 1.6766 -0.85286 0.18798 0.56699 -0.040491 -0.36681 -0.66798 0.36081 -0.097409 0.69991 -0.075201 -3.7188 -0.29108 0.3492 -0.22962 0.36835 -0.88929 -0.26674 0.15708 -0.56601 -0.73956 0.58979 0.23132 -0.38886
decoration -1.614 -1.1426 0.579 -0.25499 1.1458 -0.030739 0.295 -1.8839 0.68038 -0.63396 0.71556 -0.43337 -1.5129 0.29207 -0.69577 0.68399 0.87673 -0.018728 0.14083 0.3781 -1.0992 -0.96204 -0.1153 0.183 0.11058
plan 0.47415 0.93673 -0.62139 -0.013054 0.98956 0.45873 -0.02254 0.6956 0.44207 -0.44703 0.33811 -0.92783 -3.6716 0.84413 1.1669 0.50926 0.73615 0.10636 -0.24516 -1.0525 0.44059 -0.86163 -0.39066 -0.075361 0.029276
hardware 0.19878 -0.03186 -0.35014 -0.5472 1.1613 0.077226 -0.5525 -0.85385 1.7623 -0.32793 0.76682 -0.24279 -2.574 -0.29117 0.6446 0.068349 0.59431 0.52836 0.79835 0.41996 -0.84007 -0.92828 -0.14918 -0.11805 -0.39702
lesson 0.25962 0.67099 0.28522 -0.10329 0.59555 -0.45997 1.7116 -1.1149 0.40632 -0.36304 -1.128 0.35799 -3.176 0.85513 0.9055 0.40828 0.52988 0.33936 0.30941 -0.38919 -0.43815 0.094147 -0.53048 0.77977 -0.053277
benchmark 0.99856 0.48441 -0.45289 -0.93801 0.70782 -0.5487 -0.33672 -1.5596 0.95432 -0.40632 0.3413 0.20252 -0.99511 0.62013 1.1995 -0.073589 0.23617 0.30325 0.45532 -0.0082352 -1.1576 -0.50487 0.44165 -0.19527 -1.1935
coast -0.97155 0.44429 -0.0019093 -0.90812 -1.0419 -0.15623 1.1648 -0.51379 0.83099 0.095714 -0.24973 0.0069141 -3.2694 1.1377 0.45167 -0.46217 -0.075027 -0.27762 0.53229 0.81999 -0.39714 -0.7852 0.48658 -1.6485 0.79693
moon -1.5614 -0.84828 0.31193 0.7102 -0.6069 0.50347 1.4074 0.39947 0.73327 -0.61967 0.1485 0.4568 -3.1965 1.0384 -0.47579 0.43282 0.018295 0.37629 0.35424 0.1624 -0.38514 -0.23476 0.080238 -0.014818 -0.2909
phone 0.45656 0.15849 0.98567 -0.36313 0.45298 -0.053306 0.96311 0.14971 0.35909 1.459 -0.42194 0.37889 -4.2793 -1.0524 0.17216 1.0459 1.045 -0.64617 -0.67133 -0.49426 0.31562 -1.182 1.157 0.30366 -1.4771
motto 0.087266 0.21535 -0.6124 0.016703 0.32943 -0.08886 0.85494 -0.33972 0.19009 0.11103 -0.62368 0.70473 -1.8093 0.13946 -0.31212 0.97795 0.20209 0.093548 0.47816 0.4115 0.3825 0.7136 -0.58763 -0.17922 0.39957
registration 0.10636 1.4226 -0.13465 -1.3288 0.97336 -1.5896 0.44763 -1.6955 0.95796 0.14265 0.25534 -0.21139 -2.3683 1.0491 0.83126 -0.28494 0.17999 -0.31483 -0.70956 -0.5811 -1.0879 -1.1718 0.40903 0.11772 -0.695
word 1.3154 0.01605 -0.25464 0.19656 0.40621 -0.2143 0.88449 -0.40434 -1.2489 0.36182 -0.56618 1.1953 -4.1326 -0.28547 0.15874 1.0733 1.2445 1.1519 -0.28804 0.41741 -0.15655 0.40259 -0.44434 0.45828 0.18119
card 0.039415 0.63271 0.20633 -0.76623 0.87258 -0.85393 0.46235 -0.26158 0.46674 0.12795 1.1621 0.098398 -3.7103 -0.17918 0.36354 -0.27543 0.79691 -0.89668 -0.004304 0.3979 -1.1066 -0.74447 0.30077 0.58384 -1.1483
love -0.62645 -0.082389 0.070538 0.5782 -0.87199 -0.14816 2.2315 0.98573 -1.3154 -0.34921 -0.8847 0.14585 -4.97 -0.73369 -0.94359 0.035859 -0.026733 -0.77538 -0.30014 0.48853 -0.16678 -0.016651 -0.53164 0.64236 -0.10922
gender 1.025 -0.30384 -1.5098 0.048974 0.91538 -0.56796 0.62533 -1.1212 0.84753 0.53517 -0.43525 0.078657 -2.7177 -0.20464 0.19241 0.60738 -0.27327 0.2462 0.93345 0.12844 -0.28704 0.83641 -0.92829 -0.59884 -1.4022
secret -0.18686 -0.18357 -0.5355 0.6649 0.36851 -0.32196 1.2771 -0.11098 0.35045 -0.37998 0.3921 -0.058012 -3.4555 0.083302 -0.2407 0.68952 0.28579 -0.018641 -0.73326 0.60466 -0.16078 -0.51722 -0.7165 -0.57778 -0.59571
smart 0.32104 -0.04158 -0.47873 -0.87091 1.1265 0.81793 0.54055 0.057428 0.6856 0.16536 -0.5444 0.43131 -3.7364 -0.60232 -0.45848 0.12748 0.72405 -0.50445 0.59921 0.036702 0.15486 0.0065473 -0.39474 0.055227 -0.91791
gem -0.71529 -0.014765 -0.19538 0.12238 0.022291 -0.19404 0.13754 -0.35706 0.49886 -0.2339 0.11989 0.53922 -2.0589 0.11246 -0.41988 0.019264 1.1612 -0.020705 0.27651 0.82821 -0.75664 0.24558 -0.2765 0.48652 -0.078857
gain 0.16408 1.3916 -2.1526 -0.44628 0.6561 -0.24538 0.57157 -0.18246 -1.3587 -0.018022 -0.24923 0.46927 -3.1759 -0.12932 -2.002 -0.20477 -0.61072 -0.99265 0.41046 -0.5422 -0.63564 -1.6596 0.89198 0.6938 -1.0034
slave -0.71726 0.5021 -0.1154 0.13547 0.79538 -0.66041 0.42637 -0.84302 0.21016 -0.11911 -0.06058 0.082716 -2.5585 0.3011 -0.53725 0.20972 0.27189 0.27568 0.59719 0.30618 0.10155 0.96094 -0.15206 -1.0062 0.32763
rock 0.021641 -0.54484 0.78102 -0.10052 0.10482 0.53319 1.0586 0.90491 0.2594 -0.73547 -0.12972 -0.59679 -3.4979 -0.61679 -0.15259 0.072474 -0.45453 -0.14681 0.09392 0.32735 -0.68834 -0.020972 0.21344 -0.63178 1.3292
computer 0.64005 -0.019514 0.70148 -0.66123 1.1723 -0.58859 0.25917 -0.81541 1.1708 1.1413 -0.15405 -0.11369 -3.8414 -0.87233 0.47489 1.1541 0.97678 1.1107 -0.14572 -0.52013 -0.52234 -0.92349 0.34651 0.061939 -0.57375
noon -0.79973 0.11251 0.14799 -0.74081 -0.46882 -0.9898 1.1337 -0.277 0.16776 0.47492 -0.86068 -0.22625 -1.9034 1.5163 0.94462 0.26708 0.66173 -0.19778 -1.5087 -0.38321 -0.82767 -0.32191 0.24099 0.85459 0.17818
physics 1.4935 0.44228 0.48654 -0.44536 0.50994 -0.46115 1.6229 -1.3646 1.206 0.22601 -1.2854 0.019358 -2.4566 0.094007 1.8988 -0.22355 0.78471 0.58585 0.13607 -0.22157 -0.71725 0.18248 -0.57719 0.70767 -0.39477
ear -0.84017 -0.34902 0.37742 1.1326 0.71168 -0.19998 0.91513 -1.0366 0.16378 0.99508 0.19178 0.97192 -3.0419 -0.88342 -0.44333 0.56899 0.26431 0.18634 0.24186 -0.29616 -0.45502 0.9024 2.0054 0.5642 -0.47548
eat -0.36896 0.75151 0.20904 0.81553 -0.78291 0.74906 1.4803 -1.4017 -0.041383 0.56439 -0.24758 -0.54959 -4.3121 -1.2073 -0.32702 -0.27267 1.2368 -1.5692 0.065546 -0.65893 0.006824 0.65933 0.13181 0.91552 1.3376
place -0.59005 -0.24546 -0.59806 0.31855 -0.47449 0.47358 0.99477 -0.93444 0.03918 -0.25484 -0.11622 -0.23261 -4.4788 1.1608 0.41289 0.72762 0.46278 -0.46184 -1.2963 0.32268 0.15074 -0.80969 0.1233 -0.58189 0.042734
architecture -0.89621 -1.0202 -0.16677 -0.97225 1.0081 -0.3454 0.36644 -1.0694 1.4478 -0.64512 -0.26017 0.051208 -2.3068 0.31428 0.31519 -0.16259 0.25467 0.84949 0.63325 0.74338 -0.5333 -1.2662 -1.723 -0.78539 0.084575
wealth -0.21389 0.80859 -1.8045 0.76215 0.74447 0.036011 -0.10929 -1.4758 0.084436 -0.24519 0.64896 0.42719 -3.3672 1.1688 -0.23186 -0.74663 -0.06922 0.99715 1.8187 0.42498 -0.311 -0.14493 -1.1669 0.24423 -0.52695
observation -0.46039 -0.38951 -0.48842 0.21164 0.78992 0.027539 0.74276 -1.4676 0.94423 -0.5862 -0.71756 1.0142 -1.5361 1.0918 1.2188 0.26095 0.80916 0.80744 0.34901 0.30413 0.44943 -0.61904 -0.09681 0.034519 -0.8274
tennis -0.19257 0.01095 0.026421 -1.3744 -0.41477 0.57898 0.068704 -0.15461 0.08917 -1.0976 0.55959 -0.13588 -2.9936 0.18661 1.0769 0.61615 -0.22304 -0.56159 -0.31318 1.1077 -1.5308 0.54875 0.53085 -1.0322 0.10249
liquid -0.47182 0.098669 -0.28168 0.7745 0.14224 1.1362 0.47901 -1.1118 1.1785 0.086896 0.49625 -0.082378 -2.345 -0.59574 0.16881 0.028936 1.016 0.2815 1.1467 0.8477 -1.3118 -0.096071 0.37522 0.49462 0.25134
culture 0.073361 -0.45021 -1.4036 -0.17344 0.84177 -0.47145 0.89695 -0.93037 1.1681 -0.32269 -0.25864 0.02087 -3.353 0.44208 0.23228 0.62659 -0.31849 0.54112 0.2016 0.84425 -0.15095 -0.44968 -1.5111 -1.3417 0.47757
travel -1.0292 0.53358 -0.69766 -0.90567 0.16384 -0.040463 0.95461 -0.34259 1.223 0.29905 0.55117 -0.62352 -3.4763 0.51118 0.21495 0.23169 0.44493 -0.58685 0.56776 -0.074479 -1.172 -1.7135 -0.65754 -0.57164 -0.032276
board -0.16652 0.30027 0.19867 -1.0643 0.68399 -0.96375 0.32791 -1.0025 1.3435 -0.0060249 0.26751 0.016999 -3.6942 0.2734 0.88535 -0.22802 0.27255 -0.26603 -0.1279 -0.14586 -0.45182 -0.32843 0.26817 -0.33413 -0.7987
cucumber -0.93892 -0.53106 -0.076851 1.2284 -0.42073 0.57278 0.27791 -2.0537 0.16232 -0.17612 0.91642 -0.28016 -1.4326 -1.5892 0.27062 -0.82859 1.2586 -0.47312 0.44714 0.62342 -0.12856 0.83153 -0.042993 0.41788 0.39497
fauna -1.1746 -0.61444 0.23948 0.27011 0.42823 0.073187 -0.20766 0.19405 0.65664 -0.72724 -0.29684 -1.0254 -0.37818 0.0069722 0.090387 0.81679 0.23608 0.82723 0.99485 0.92096 0.029376 0.26641 -1.4133 -1.0636 0.55988
disability -0.17911 1.0145 -2.1825 0.070417 1.1977 -1.084 0.21923 -1.6372 0.36883 0.16746 0.36974 -0.46239 -2.1125 0.49087 0.721 -0.079282 -0.05004 0.34756 0.82493 -0.3889 -0.04691 0.37742 -0.64269 -0.97696 -0.55133
fertility -0.8871 -0.60075 -1.7417 0.58891 1.5689 -0.77733 0.24481 -2.2602 0.48556 0.1467 0.61497 -0.32876 -0.91738 0.38505 0.20451 -0.60649 0.55984 0.13421 1.0778 0.10934 -0.32619 1.0364 -0.25218 -0.81561 -0.74714
possession 0.86343 0.53181 -0.55458 0.59396 0.44716 0.29524 0.22137 -1.2443 -0.23126 -0.29248 0.82914 0.75973 -2.112 1.3219 0.73803 0.51982 0.17048 0.21635 0.18236 -0.031842 -0.77387 1.1233 0.39219 -0.97484 -0.015569
minority 0.17041 -0.010221 -1.1118 -0.57022 0.77135 -0.65613 0.1979 -1.503 0.69135 0.14101 -0.50741 -0.26189 -2.1437 0.78689 -0.57355 -0.28322 -0.1922 0.087288 1.0993 0.052166 0.43548 0.81539 -0.98577 -1.6688 -0.95474
experience -0.35416 0.36956 -0.6985 -0.038743 0.69223 0.10849 1.5483 -0.81797 0.45789 -0.83751 -0.29549 0.20554 -3.8542 1.0813 0.71903 0.56091 0.2817 0.36544 0.5926 -0.24785 -0.67315 -0.92027 -0.99232 0.12664 -0.20588
space -0.12652 -0.20984 0.38375 0.07187 0.20943 0.12853 1.2015 -0.34914 1.0489 0.12132 0.3571 -0.13697 -3.6583 0.38281 0.10288 0.76794 0.67795 0.41236 0.73498 0.098431 -0.84465 -0.8725 0.27275 -0.51599 -0.0059605
drug 0.28978 1.3323 -0.67482 0.46996 1.3972 -0.75157 0.63263 -1.3423 0.69094 0.67559 0.80144 -0.22046 -3.2244 -0.2003 0.69808 0.14591 0.93824 0.5433 1.0799 -0.45467 0.48967 0.73018 -0.30742 -0.95858 0.99144
basketball 0.066368 0.57345 0.16899 -1.969 -0.0072772 0.14001 0.9645 -0.3025 -0.077204 -0.63413 -0.58434 0.17605 -3.9959 0.77214 1.342 -0.11867 -0.13202 -1.2326 0.25301 0.951 -0.77778 1.0606 0.81207 -0.9795 -0.063052
theater -0.67783 0.84071 1.1449 -0.57392 -0.097405 -0.17978 0.76139 0.050902 1.4727 0.18589 0.41217 0.58969 -2.4114 0.45513 0.75485 0.31837 0.18229 0.1426 -0.43981 0.2288 -1.2793 -0.44207 -0.82055 -0.48601 0.78879
day -0.95101 0.5056 0.36139 -0.40337 -0.040042 -0.15647 2.2782 0.245 -0.48452 -0.19628 -0.51955 0.21754 -4.7039 0.95037 -0.098481 -0.57552 0.072248 -0.95375 -0.69446 -0.054825 -0.86766 0.025728 -0.26051 0.75546 0.42688
group 0.11129 0.6306 -0.074805 -1.1556 0.78955 -0.63466 1.0367 0.1188 1.1456 0.15979 -0.059199 0.19634 -3.7104 0.46262 0.18596 0.23934 0.13873 -0.56876 -0.1202 0.13505 -0.021764 -0.47038 -1.1854 -1.1123 -0.73961
combination -0.36368 -0.87976 -0.75381 0.53834 0.99464 0.62851 1.4312 -1.2058 0.22101 -0.42248 0.20433 0.70196 -2.208 0.22046 0.63754 0.16538 1.1112 0.17013 0.69447 0.61127 -0.60041 0.60046 0.072322 0.65927 -0.23118
midday -0.57495 1.2764 0.055441 -0.40779 -0.3859 -0.79144 0.88288 -1.8739 0.31384 -0.90197 -0.27964 0.30407 -1.0547 1.1804 0.52473 -0.68097 0.43392 -0.42609 -0.82813 -0.29581 -1.2487 -0.92012 0.66226 0.35953 0.39563
development -0.058118 0.50429 -1.2562 -0.96226 1.3925 -0.59478 0.33611 -1.1901 1.8139 -0.5984 0.083529 0.20095 -3.6619 0.72713 1.1768 -0.37622 -0.27431 0.87562 0.59003 -0.12279 -0.70333 -1.2093 -1.3537 -0.55473 -0.40593
crisis 1.2107 0.12682 -1.0471 -0.19106 0.77752 0.31322 -0.16564 0.19516 0.064629 0.079563 0.46262 -1.37 -2.7507 1.7949 1.3574 0.38251 -0.041704 1.6982 0.77676 -0.6373 0.46695 -0.42882 -0.11097 -1.0148 0.49615
king -0.74501 -0.11992 0.37329 0.36847 -0.4472 -0.2288 0.70118 0.82872 0.39486 -0.58347 0.41488 0.37074 -3.6906 -0.20101 0.11472 -0.34661 0.36208 0.095679 -0.01765 0.68498 -0.049013 0.54049 -0.21005 -0.65397 0.64556
kind 0.20354 -0.45301 -0.54178 0.072517 0.41574 0.71988 1.3012 -0.80372 -0.96136 -0.21787 -0.087248 1.0484 -4.2982 -0.30819 -0.082869 0.78115 1.0618 0.64097 -0.36095 0.26494 0.18451 0.45621 -0.86244 0.38107 0.061228
archive 0.17484 0.01293 0.23473 -0.14225 0.94223 -1.3538 0.65635 -0.98528 0.78312 -0.64515 0.16416 0.4696 -1.7585 -0.2966 -0.31469 0.27331 0.18576 0.78674 -0.026987 0.22819 -0.45131 -1.7979 -0.41366 -0.38449 -0.24475
history 1.2712 0.24266 0.22238 -0.661 0.44286 -0.59389 1.6355 -0.30264 0.28732 -0.59472 0.046785 0.60496 -3.8291 0.9782 1.1357 0.011575 0.12622 0.45198 0.23513 0.040956 -0.88458 0.21585 -0.5444 -0.55018 -0.14772
water -0.66758 -0.16968 -0.36817 0.77823 -0.51841 0.93325 0.5601 -1.1858 0.43399 1.4617 0.8187 0.18549 -4.4468 -0.20591 0.40578 0.20704 1.0087 0.57129 0.59376 0.43941 -0.86935 -0.12808 0.85803 0.21108 0.88503
voyage -0.69881 -0.61599 -0.88222 0.57265 -0.33576 -0.092678 0.14884 -0.95017 0.33915 -1.098 0.47909 -0.077778 -1.3422 0.84641 0.25204 0.80547 0.38996 0.44044 -1.5495 0.95 -0.43458 -1.3602 -0.02137 -0.53272 1.1446
market -0.27552 0.13176 -0.61282 -0.77099 0.71741 0.2533 0.38421 -1.1204 1.5134 0.32889 0.71474 -0.27177 -3.4825 0.818 0.56597 -1.1894 0.36898 -0.2746 0.21305 -0.02425 -0.37505 -1.1264 -0.38505 -0.35887 -0.19138
boxing -0.47076 0.83181 0.047423 -1.1713 0.13728 -0.35083 0.62999 -0.21038 0.059682 -1.1859 -0.039461 0.41186 -2.7615 0.48979 1.3765 -0.09866 -0.07085 -0.98388 0.043213 0.39685 -1.2347 1.3472 0.27594 -1.0529 0.21739
departure -1.3275 0.40689 0.51282 -0.3949 -0.27463 -0.84811 0.555 -0.69609 1.1193 -0.79889 0.21945 0.88429 -1.5049 1.6544 0.81929 -0.49381 0.09149 0.79584 -0.41422 -0.68975 -0.59165 -0.86699 0.16518 -0.6059 -0.83867
sugar -0.6873 0.27574 -0.13835 1.3248 -0.132 0.86084 0.92762 -1.1578 0.39807 0.02993 0.45128 -0.3393 -3.166 -1.1154 0.089156 -1.0004 0.93169 -0.6172 0.63264 0.73008 -0.4503 0.46175 0.014796 0.89114 0.63748
soap -0.89655 -0.19711 0.14378 0.6917 0.6595 -0.19966 0.74334 -1.6392 0.86459 0.27642 0.79486 0.018857 -2.5648 -1.063 -0.23786 0.094868 1.0411 -0.055264 0.7299 0.83133 -0.97339 0.55343 0.31196 0.11686 0.59513
game 1.146 0.3291 0.26878 -1.3945 -0.30044 0.77901 1.3537 0.37393 0.50478 -0.44266 -0.048706 0.51396 -4.3136 0.39805 1.197 0.10287 -0.17618 -1.2881 -0.59801 0.26131 -1.2619 0.39202 0.59309 -0.55232 0.005087
death 0.021377 0.10369 0.053792 0.99278 0.053254 -0.63449 1.5244 -0.24008 -0.040619 0.37077 0.32772 0.71652 -3.6274 0.85833 0.44822 -0.096083 0.11771 0.84481 0.12627 -1.0624 0.056151 0.73269 0.14332 -0.97436 0.46834
arrival -1.3882 0.33849 0.56847 -0.57953 -0.12622 -0.75668 0.70719 -0.50252 0.48306 -0.88159 0.48956 0.50989 -1.8898 1.4854 -0.17346 -0.55082 0.34314 0.087086 -0.59344 -0.40218 -0.96215 -0.91896 0.084195 -0.25777 -0.77012
line 0.2625 0.56149 0.4283 -0.35375 0.70123 0.2052 1.0226 0.77316 0.97054 0.65725 -0.047574 0.70734 -3.4172 -0.204 -0.0078348 0.0043737 0.11747 -0.76009 -0.18576 0.043231 -0.32108 -0.76099 0.68667 0.080376 -0.48391
recovery -0.73156 0.77397 -0.95337 -0.018058 0.81584 -0.333 1.0044 -0.83449 0.49942 -0.25963 0.56834 0.52429 -2.3512 0.77519 1.0998 -0.3134 -0.42855 0.36951 0.48299 -0.82982 -0.97619 -0.28493 0.27964 0.0029837 -0.33896
gin -0.13827 0.84106 0.31615 0.58972 -1.1705 0.38282 -0.24213 0.32136 1.4666 0.74764 -0.28767 -0.10821 -2.2929 -0.10291 0.32041 -0.074921 1.1987 -0.26918 0.58489 0.48286 -0.46362 0.71247 -0.18199 1.1457 0.67709
percent 1.0257 0.11909 -0.54103 -0.18733 0.48207 0.3991 -0.22819 -1.6844 -0.70233 0.59587 0.76629 0.32074 -2.6 1.2831 -0.29921 -1.2115 0.20082 0.32212 0.22543 -0.62832 -0.45105 -0.38168 0.57428 -0.30858 -1.4616
network 0.52544 0.81763 -0.33526 -1.0847 1.344 -0.76054 0.35901 -0.14561 1.2388 0.063683 -0.085714 -0.1045 -3.5311 0.0064582 0.44381 0.58359 -0.050973 0.25245 0.57172 0.22875 -0.27951 -1.2484 -0.36148 -0.60921 -0.61318
paper 0.78052 -0.050375 1.0391 -0.1448 0.73381 0.50163 0.84352 -1.1211 1.391 0.63465 -0.1379 0.28662 -3.6391 -0.088148 0.62694 -0.085246 0.95852 -0.46673 -0.45236 -0.061201 -1.0018 -0.12376 -0.20326 0.69677 -0.82542
car -0.55861 -0.19584 -0.33839 0.18527 -0.044554 0.48783 0.33814 -0.47216 0.46317 0.8176 0.5452 -0.03216 -4.3912 -0.25148 0.67953 1.1567 0.57753 -0.48108 -1.1966 0.32942 0.1282 -1.1236 1.3015 -0.89643 -0.59816
buck -0.76919 0.99815 0.33462 0.30604 0.034029 -0.15992 -0.17963 -0.53002 0.30408 -0.79236 0.036277 1.0622 -2.6877 -0.67014 0.40562 -0.73315 0.40035 -0.49936 0.37086 0.17168 0.21834 0.934 0.82506 -0.29316 0.2364
marriage 0.029032 0.56997 -1.0951 0.21896 0.68386 -1.6019 0.92536 -1.4094 -0.38657 -0.06219 0.2385 -0.22562 -3.5007 0.68119 0.3034 -0.26107 -0.48653 0.073913 -0.094756 -0.66383 -0.11447 1.0597 -1.0942 -1.0357 -0.51715
cat -0.96419 -0.60978 0.67449 0.35113 0.41317 -0.21241 1.3796 0.12854 0.31567 0.66325 0.3391 -0.18934 -3.325 -1.1491 -0.4129 0.2195 0.8706 -0.50616 -0.12781 -0.066965 0.065761 0.43927 0.1758 -0.56058 0.13529
stove -1.1385 0.48355 0.21015 0.19532 0.16212 0.66885 -0.49122 -1.8571 1.3467 0.57731 0.53089 0.31027 -2.3991 -0.68225 0.69375 -0.019559 0.90989 0.3082 0.43127 0.76193 -0.51412 0.12335 1.0189 0.29627 0.69401
zoo -0.33417 -0.52638 0.23105 -0.87647 -1.0736 0.73586 -0.24548 -0.22544 -0.035488 0.1636 -0.14659 -0.1216 -2.7046 -0.18441 0.66654 0.33022 1.1479 0.50548 -0.22611 1.2703 -0.16856 0.062595 -0.48855 -0.54168 1.5889
hospital -0.90342 0.53519 1.0333 -0.2792 0.057767 0.15684 -0.48963 0.21286 1.031 0.3346 -0.26448 -1.645 -3.2922 0.45737 1.2615 -1.172 0.41038 0.47128 -0.0024217 -1.5922 0.77377 -0.30659 -0.40507 -0.59231 0.75835
profit 0.33699 0.9628 -1.3644 -0.22394 0.83754 0.68249 -0.46133 -1.151 0.95138 0.074896 1.2346 0.36728 -2.5562 0.92982 0.12063 -0.71052 0.045221 -0.0043831 0.16646 -0.42677 -0.67384 -0.73415 0.20015 0.076349 -1.2594
lawyer -0.44757 1.0142 -0.62754 -0.48634 0.7227 -1.2941 -0.056867 -0.28733 0.92806 -0.061267 0.45459 0.34367 -2.7176 -0.070489 1.1715 -0.37456 0.60346 -0.1534 0.11887 -0.66412 1.2274 0.61725 -0.67004 -1.3515 -0.71955
earning -0.32667 1.8062 -0.58551 -0.23373 0.67922 0.87887 -0.33005 -2.2684 -0.20769 -1.1981 0.050019 0.38279 -2.4886 0.099341 -0.76891 -0.48832 -0.47216 0.15682 0.0045006 -0.18966 -1.2247 -0.58734 -0.48268 -0.092771 -0.38996
soccer 0.0025172 0.58249 -0.0070613 -1.8605 0.028006 0.42926 1.06 -0.044973 -0.28636 -0.44594 -0.23084 0.18168 -3.3407 0.27448 1.0538 -0.039381 -0.39573 -1.1292 0.20709 0.69372 -1.1251 0.61584 0.34841 -1.2667 0.19981
butter -0.42623 -0.45425 -0.038127 1.5023 -0.59333 0.98628 0.99925 -1.8484 0.32456 0.23692 1.2231 -0.34113 -2.9649 -1.7663 0.15566 -0.64441 1.3621 -0.80118 0.14193 0.86598 -0.62134 0.62804 0.03288 1.0072 0.82952
racism 1.2755 -0.19087 -1.3696 0.15472 -0.068193 -0.37585 0.39942 -1.5433 -0.3439 0.66334 0.17628 0.8756 -2.6203 -0.29276 0.92678 0.33463 -1.1112 0.40286 0.82162 -0.16697 -0.027688 1.2758 -0.29911 -1.4842 -0.30319
cognition -0.11369 -0.24245 -0.4521 0.67704 0.091902 -0.88948 0.15067 -1.6098 0.7882 -0.41148 -0.28396 0.35086 -0.36088 0.027458 0.78 0.82636 -0.055378 1.4066 1.7081 -0.30538 -0.60973 -0.19636 -1.1683 -0.68024 -0.51788
confidence -0.37794 -0.036546 -1.9492 0.76045 0.7576 0.25729 0.73112 -0.90964 -0.16742 -0.22379 -0.29637 1.0456 -3.3675 0.82277 0.0039079 0.49529 -0.52095 0.25253 1.3451 -0.22508 -0.24644 0.64715 0.091362 0.42448 -1.328
match 0.39304 0.0012018 -0.96841 -1.1391 -0.71713 0.4382 0.14696 0.079529 -0.052263 -0.66014 0.39686 0.51126 -3.5505 1.4328 0.85057 0.99775 -0.32376 -0.90502 -1.9819 0.4701 -1.4068 0.50179 0.49189 -0.83705 -0.33304
clothes -1.0323 -0.16899 0.61906 -0.48984 0.78803 0.56856 0.64321 -1.9082 -0.76225 0.65583 -0.085353 -0.50772 -4.1939 -0.73514 -0.82979 0.31707 0.7666 -1.5069 0.04832 0.19709 -0.46408 -0.048761 0.58434 0.31618 -0.62349
performance -0.061537 -0.22383 0.26648 -0.64877 1.0662 -0.12977 1.1463 0.099069 0.5093 -1.6321 -0.019711 0.58263 -3.5154 0.66394 0.51503 0.53479 -0.53347 -0.0050854 -0.56047 0.23826 -1.2561 0.18834 -0.21685 -0.3822 -0.45664
round -0.74681 0.40575 0.76244 -0.49926 -0.067388 0.67975 0.25426 -0.41372 0.15444 -0.17953 -0.17474 0.29889 -3.9994 0.72436 0.14442 -0.0068141 0.21504 -0.74715 -0.62657 0.19542 -1.0239 0.33997 1.563 -0.33633 0.046848
serial 0.58845 0.096251 0.67547 -0.015608 0.76739 -0.33002 0.4872 0.05692 0.84321 -0.020728 0.093589 0.32229 -1.7307 -0.4808 0.11393 1.1647 0.48655 0.61585 0.56172 0.0074751 -0.38579 0.72764 -1.0173 -1.5582 0.071038
investigation 0.5565 0.74708 -0.32931 0.075809 0.83848 -1.5591 0.34291 -1.1781 1.013 0.15798 0.7788 0.8793 -2.2681 0.83536 1.5905 0.11925 -0.081991 1.1456 -0.31702 -1.1209 0.11796 -0.2441 0.073901 -1.6147 -0.13144
challenge 0.046472 0.42678 -1.0405 -0.31575 0.308 -0.4735 1.2032 -0.75976 0.40875 -0.81808 0.65437 0.40482 -3.2824 0.40562 0.50117 0.44032 -0.28772 -0.62183 -0.038707 -0.14409 -1.1582 -0.24926 0.051763 -0.088845 0.1383
depression -0.26086 0.18504 -1.3976 1.0507 0.97944 0.28233 1.6328 -1.4032 -0.016414 0.42086 0.028725 0.18108 -2.2882 0.37371 1.3366 0.69498 -0.39557 0.75736 0.87149 -1.7083 -0.45252 0.38055 -0.15442 -0.1626 0.60674
clinic -0.78379 0.22237 -0.30971 -0.8156 0.89582 -0.49408 0.29767 -1.1992 1.0901 0.5633 0.6672 -0.059163 -2.024 0.10973 1.617 -0.30029 1.0123 0.033589 -0.062365 -0.45495 -0.52941 -0.56282 -0.58658 -0.34523 0.54336
category 0.66355 0.19507 -0.20995 -1.3405 1.7192 -1.4081 0.30174 -0.94646 -0.16171 -0.47036 -0.027881 0.6978 -2.6065 -0.033603 -0.39961 0.14165 0.022065 -0.24609 0.56907 0.43877 -0.73273 -0.092723 -0.41601 -0.54296 -0.32174
landscape -1.8917 -1.5962 -0.31649 -0.26197 0.96816 0.29182 1.1507 -1.1017 1.662 -0.57897 -0.07397 0.061387 -1.9396 0.2926 0.19016 0.24979 0.1798 0.51112 0.66866 0.46851 -0.68125 -1.3236 -0.87234 -0.71788 -0.35313
