437 300
plane 0.5997 -0.2785 -0.1339 -0.3176 0.0192 0.0883 -0.0627 -0.106 0.1327 -0.4372 0.1083 0.2448 0.0559 -0.2427 0.0988 -0.1611 -0.0618 -0.142 0.0801 0.1168 -0.0059 -0.1042 -0.1773 0.3644 -0.3057 -0.0108 0.0234 0.0011 0.3132 -0.0877 0.08 -0.1337 0.2193 0.0121 0.1378 0.2083 -0.3232 0.1143 -0.2181 -0.1199 -0.191 -0.2993 0.0278 -0.0911 0.3395 -0.1046 0.5373 0.2575 0.0516 -0.1013 0.4179 -0.0656 0.1666 0.2109 0.2772 -0.3539 0.2674 -0.5871 0.0418 0.1294 0.5814 -0.2883 -0.0671 -0.6096 0.4761 -0.4801 -0.1077 -0.2096 0.2138 -0.1979 -0.0646 -0.0334 0.0356 0.1934 -0.0841 -0.1388 -0.2519 -0.1779 0.0925 -0.1383 0.0719 0.1009 -0.1614 -0.4245 -0.0653 0.1213 0.201 0.1914 -0.0871 0.3836 -0.0716 0.2929 -0.0358 -0.0915 0.2434 -0.239 0.2415 0.0409 0.4466 0.5249 0.1465 -0.1097 -0.1471 0.0233 -0.3475 0.3371 0.0956 0.2499 0.1351 0.0413 -0.0273 -0.2184 -0.1386 -0.2342 -0.3186 -0.0166 0.3242 -0.5303 -0.1598 -0.0335 -0.0888 -0.0401 -0.0937 0.2327 -0.1477 -0.048 0.3291 0.0329 -0.1289 0.0754 -0.2909 -0.0619 -0.4143 0.2089 0.1122 -0.0915 -0.0367 -0.6164 0.4109 -0.2841 -0.0805 0.3602 -0.3168 0.0566 0.3512 -0.3097 -0.1003 -0.4425 -0.1117 0.1469 -0.0386 -0.4662 0.0981 0.2095 -0.5431 0.2527 0.1325 -0.1108 0.2055 -0.1616 0.6354 -0.0239 -0.1711 0.1945 0.3438 0.2302 0.0762 -0.0724 0.2331 0.1978 -0.0161 0.2434 0.1772 0.5385 0.0297 -0.0495 -0.1683 -0.0581 -0.1579 -0.3268 0.0328 0.1225 -0.0906 -0.2049 0.1525 0.534 0.0769 -0.2034 0.1042 -0.053 0.1014 0.3934 0.0246 0.0279 0.3623 0.2294 -0.2004 0.2222 0.343 0.1985 -0.3778 0.6206 0.8648 0.3462 0.4308 -0.3629 -0.0956 -0.3403 -0.2907 0.1823 -0.2853 0.6729 0.2222 -0.4249 0.3118 -0.0108 -0.1325 -0.5126 0.0788 -0.046 -0.0932 0.4999 -0.4822 0.0107 0.2193 0.1558 0.4079 0.279 -0.336 -0.3017 -0.1721 0.2844 0.1233 -0.2162 0.0256 -0.5946 -0.0212 -0.4344 0.2497 -0.1006 -0.1411 0.2406 0.1651 -0.1469 0.0486 -0.0856 0.3154 -0.1286 -0.043 -0.1162 0.2262 -0.1021 0.1588 -0.1386 -0.0965 -0.0837 0.4372 0.2747 -0.1349 -0.2185 0.1999 -0.0625 -0.1623 -0.1678 0.0983 0.1645 -0.1013 0.0626 0.091 -0.1518 0.2859 0.0048 0.1324 -0.1582 -0.1699 -0.031 0.0248 -0.0248 -0.0944 -0.1999 0.1867 -0.1246 -0.208 0.1308 0.3755 -0.035 0.039 0.1368 0.2288 0.0842 0.3201 0.0016 0.3869 -0.1583 0.3398 0.277 -0.2542 -0.0929 -0.0849 0.5024
stupid 0.1715 0.1417 0.2173 -0.2352 0.0015 -0.3144 -0.0778 0.1297 0.0902 -0.2155 0.3902 0.1627 0.0243 -0.0774 0.0272 -0.1431 0.1027 3.0E-4 0.1195 0.1096 -0.1551 0.2808 0.1381 -0.0612 -0.0033 -0.212 -0.0585 -0.0506 -0.0853 0.5583 0.0344 0.1107 0.0493 -0.1849 0.0983 0.0256 -0.0262 -0.1875 0.007 0.0065 -0.0243 0.1189 -0.0642 0.0993 0.3929 -0.1016 0.4455 -0.19 0.1294 -0.6059 0.023 -0.0893 0.0844 0.0156 0.3176 -0.1407 -0.0654 0.1387 0.0054 -0.1995 0.0716 0.2506 -0.0085 -0.0511 0.2054 0.0981 0.2717 -0.0997 -0.2478 -0.1761 0.0206 -0.0634 -0.0868 0.3817 -0.1176 -0.1923 -0.6455 -0.5105 0.4172 0.1562 0.1981 -0.2989 -0.059 0.0999 -0.1936 0.0825 -0.0625 0.0284 -0.2417 0.3353 -0.0176 -0.0366 -0.015 -0.1387 -0.1569 -0.2296 0.1256 -0.4007 -0.1831 0.001 -0.2223 0.007 -0.0724 -0.0767 0.086 -0.0066 0.0158 -0.1912 -0.0201 0.0133 -0.1263 0.0208 0.014 0.0627 -0.6061 0.2975 -0.1011 0.0297 -0.0131 -0.2685 -0.0392 0.4104 0.2195 0.1074 0.3949 -0.1777 0.1838 0.06 0.222 0.0211 0.2616 0.1719 0.1742 -0.0827 -0.2016 -0.1315 0.2034 -0.3297 0.1112 -0.4684 -0.0989 -0.4147 0.1166 0.3843 -0.2957 -0.1737 0.0477 0.0581 -0.0016 -0.1886 -0.0111 0.0199 -0.1149 -0.0745 0.1343 0.1233 0.1248 -0.3256 0.0914 -0.148 0.1039 -0.2689 -0.0287 0.1748 0.0937 -0.2474 0.3836 -0.0651 0.0822 -0.1026 -0.2222 0.2889 0.0283 -0.1109 -0.0843 3.0E-4 -0.3202 0.1955 0.106 -0.1158 -0.3722 0.0263 0.101 0.0568 -0.0184 0.2925 0.3135 -0.2823 -0.3009 0.0542 -0.0226 0.1751 -0.091 9.0E-4 0.1168 0.2822 0.0312 0.0288 -0.7573 0.0359 0.1586 -0.1259 0.0864 0.0616 -0.1873 0.0715 0.0522 -0.0518 0.0718 -0.2866 -0.0259 0.4968 -0.1175 0.0177 0.0986 -0.0726 0.1216 0.3178 0.0695 0.2193 -0.0974 0.5353 -0.0486 -0.157 0.0642 0.3244 -0.0894 0.146 0.0664 0.2344 0.2059 -0.0376 -0.1453 0.4122 -0.1474 -0.6977 -0.0013 -0.0072 0.1675 0.1718 -0.1811 -0.0781 -0.0871 0.24 -0.3744 0.1464 0.236 -0.1119 0.2942 0.0464 0.05 0.1579 0.1936 -0.3247 0.1259 0.1248 -0.2702 0.2262 -0.0181 0.024 0.0457 0.0921 -0.1616 -0.2388 -0.3708 0.0131 0.1325 0.1123 -0.2225 -0.1343 0.0335 0.0936 -0.119 0.2887 -0.2318 0.0949 0.0841 0.1271 0.1003 -0.2845 0.1128 0.0799 -0.1078 -0.0887 -0.0245 -0.3917 -0.0488 0.0865 0.1271 0.1849 0.088 0.1152 -0.0138 0.0561 -0.2151 -0.2174 0.0656 0.1567 -0.2289 -0.0488
egg 0.5002 -0.0937 -0.3256 0.2931 -0.1472 -0.4976 -0.4804 0.1263 0.1068 0.1634 -0.0376 0.2603 0.412 0.3531 -0.053 0.0716 -0.2629 -0.0605 -0.0863 -0.091 -0.059 0.1091 0.0212 0.5445 0.0939 -0.2032 -0.2325 0.398 0.2649 -0.128 0.0572 0.3452 -0.1492 5.0E-4 -0.2599 -0.2694 0.0392 -0.0556 -0.2397 0.0124 -0.2961 -0.2073 0.5092 0.121 0.0277 0.2941 0.0352 -0.5 -0.3421 -0.3964 -0.0683 0.2524 0.4817 -0.545 0.0957 0.1185 0.6033 -0.3127 -0.3661 -0.3698 0.3822 -0.4201 -0.0113 -0.7481 -0.2579 0.2943 -0.0012 0.1701 0.3423 0.0669 0.2323 0.181 0.0657 -0.1034 -0.1366 0.3371 -0.2568 0.1008 0.0708 0.018 0.2608 0.1743 0.0887 0.0535 -0.5869 0.1781 -0.1917 -0.4642 0.0084 -0.1978 -0.5124 0.2209 0.4629 0.1624 -0.0612 -0.0046 0.262 -0.4929 -0.0646 0.0715 -0.4561 0.2263 -0.231 0.0304 0.3019 -0.1616 0.3869 -0.2489 0.302 -0.1518 0.1289 -0.2747 -0.2784 0.3407 -0.4972 0.2876 -0.1546 -0.0573 -0.1137 0.2807 -0.1374 0.0534 0.2033 0.0585 0.4243 -0.0731 -0.1764 0.0221 -0.0463 -0.2489 -0.1013 0.0919 0.0614 -0.2205 0.0757 -0.0586 0.261 -0.2163 0.1486 -0.3048 0.3242 0.3157 0.1274 0.0989 -0.0758 -0.347 -0.0898 -0.0448 0.3459 -0.0455 -0.3014 0.3759 -0.1976 0.7095 0.0505 -0.073 -0.0959 -0.2993 0.0759 0.3647 0.5769 -0.4506 0.6144 0.0967 0.199 0.2669 -0.2856 0.3513 0.2751 -0.303 -0.5262 0.2948 0.3599 -0.4791 -0.4109 -0.5053 0.1981 -0.0485 -0.1853 0.0814 0.195 0.0021 -0.1431 0.031 -0.0101 0.2303 -0.3738 0.0122 0.5679 -0.0901 -0.3693 -0.0448 0.0073 0.1347 -0.1273 -0.2822 -0.0715 0.298 0.2157 0.251 -0.2128 -0.3814 0.157 0.0933 -0.4216 0.1416 0.1959 0.3453 0.4656 0.4757 -0.0183 0.6024 -0.2091 -0.0083 0.1491 -0.1839 -0.2514 0.0492 -0.2757 0.0599 -0.2477 0.3676 0.3317 -0.3036 0.1811 -0.2759 0.2516 -0.5762 0.0872 -0.0017 0.3229 0.1094 -0.3403 -0.0834 0.0044 -0.6297 -0.1973 0.0112 -0.1225 -0.1421 0.2214 -0.1173 0.5744 -0.0545 0.0354 0.4259 0.4107 0.1984 -0.1952 0.371 0.0588 0.1489 -0.531 0.4158 -0.0101 -0.1053 0.2312 0.4016 -0.0548 -0.0563 -0.0103 -0.3672 -0.5004 0.1051 -0.314 0.2701 0.0291 -0.1812 -0.0043 -0.3778 0.2193 -0.0065 0.0696 -0.1046 -0.4403 -0.3689 0.2392 0.5077 -0.0133 0.2943 -0.1384 0.1386 -0.5226 0.1056 -0.2426 -0.0101 -0.254 0.1485 2.0E-4 0.0128 0.2351 0.1442 0.1215 -0.1689 -0.142 0.4073 -0.0176 -0.0354 0.1772 0.0384
year -0.1294 -0.0941 0.2359 -0.194 -0.0028 -0.1205 0.1229 0.3131 0.1424 0.0586 -0.2389 0.0896 -0.0052 -0.0752 0.1755 0.0804 0.1274 0.0426 0.1631 0.1537 -0.0592 -0.1579 0.1185 -0.0068 -0.0409 0.1353 -0.072 -0.2638 0.1142 -0.0296 -0.0065 -0.1224 -0.3112 -0.3148 -0.1259 -0.057 -0.1367 -0.0615 -0.0365 -0.1622 -0.1239 0.2208 0.2459 -0.2488 -0.0346 -0.2593 0.1858 0.0429 -0.0118 -0.0082 -0.1093 -0.2642 0.1838 -0.1378 -0.1076 0.1951 -0.0928 -0.3334 0.1746 -0.1861 -0.1567 0.0548 -0.2548 0.0075 -0.0233 -0.2313 -0.0284 -0.044 -0.1087 0.03 -0.2161 0.1505 -0.0065 -0.0808 -0.167 0.4405 -0.473 0.1077 -0.2768 -0.0164 0.0264 -0.0287 -0.0277 -0.0236 0.2343 -0.1129 0.0661 0.0763 0.2769 -0.321 0.0252 0.3665 0.1945 0.1552 -0.191 0.1357 0.3546 -0.2198 0.0112 -0.2231 0.1166 0.1915 0.0347 0.0912 -0.0922 -0.0066 -0.0506 -0.1424 -0.251 0.0671 0.0958 0.1487 0.0538 0.2066 -0.2868 -0.0881 -0.4102 0.0553 0.2503 -0.2002 -0.0131 -0.0725 -0.3342 0.0652 -0.0104 -0.0459 0.0554 -0.0571 0.0527 0.0586 -0.1913 -0.0362 0.0164 -0.12 -0.0942 0.0935 -0.3211 0.1541 -0.017 -0.3275 0.1227 0.1022 -0.3213 0.1171 0.0433 0.1198 0.1363 0.1422 -0.2884 0.0316 -0.3241 0.0206 -0.0831 -0.143 0.1356 0.0304 0.2523 -0.1267 -0.3832 -0.1147 0.7933 0.0951 0.1291 -0.4017 -0.0016 0.0448 -0.0329 -0.0541 0.0727 0.3606 0.0938 -0.1164 0.0052 0.0991 -0.0762 -0.1261 -0.1108 -0.0179 -0.2324 0.016 -0.1381 0.1613 0.0735 0.0383 -0.0952 -0.0507 -0.0807 0.0411 0.2059 -0.001 -0.1386 -0.041 -0.145 0.0039 -0.1167 -0.1217 0.1322 -0.0491 0.0569 0.0087 -0.0113 -0.0037 -0.0745 -0.227 -0.1408 -0.1231 0.011 0.2421 0.0777 0.393 0.0146 0.465 0.0464 -0.0732 -0.0185 -0.0476 0.119 0.0829 0.0605 0.0013 -0.0912 0.386 0.0929 0.0854 0.173 0.1034 0.0955 0.014 0.0522 0.2181 -0.3153 -0.3118 -0.3106 -0.0461 -0.0676 -0.2566 -0.1049 0.0757 -0.0502 0.0484 -0.0097 -0.0447 0.0407 0.117 -0.688 0.3028 -0.0924 -0.0918 0.1215 0.1435 -0.0384 -0.2562 -0.0105 0.0975 -0.1767 -0.0172 -0.2085 0.1944 -0.0159 0.1434 -0.0857 0.08 -0.0039 0.219 0.0912 0.0348 0.1424 -0.1421 -0.136 0.0271 -0.0624 0.1924 -0.0511 -0.3467 -0.1202 0.0708 0.1291 -0.0781 -0.0048 0.0748 0.3682 -0.0535 -0.0987 0.1138 -0.2121 0.0836 -0.0677 0.0376 0.2859 0.3099 -0.098 -0.0189 0.2303 -0.4678 -0.0958 -0.0702 0.0422 0.3351 -0.3197 -0.0771
psychiatry -0.2799 0.4961 0.0612 -0.3738 0.02 -0.0963 -0.0509 0.3439 -0.2402 -0.4445 -0.318 0.8247 0.2946 -0.12 -0.5736 0.6392 0.3541 0.2629 0.1801 0.3652 0.6303 0.0282 -0.3458 -0.7028 -0.1764 -0.0048 -0.0524 0.3775 -0.2558 -0.376 0.1435 -0.06 0.1518 -0.2601 -0.195 0.4652 -0.8042 -0.1679 0.0084 -0.1898 0.2376 -0.3651 -0.1458 -0.2253 -0.0807 -0.0272 -0.1867 -0.2296 -0.0982 0.3013 -0.5015 -0.0808 0.9722 -0.1568 0.1664 0.1056 -0.1328 -0.3878 0.6156 0.2577 -0.0161 -0.104 -0.4703 0.2747 0.0487 -0.0743 0.2667 -0.7038 0.1048 0.1842 0.2759 0.1797 -0.0699 -0.1631 0.4975 -0.0154 -0.2919 0.2423 -0.0308 0.3116 0.2092 0.1133 -0.3278 -0.1261 0.0022 -0.1679 -0.281 -0.2997 -0.3996 -0.4623 0.0024 0.0289 0.3677 0.2298 -0.2044 -0.198 0.2808 -0.0699 -0.2003 -0.1802 -0.0086 -0.2049 0.5161 -0.1916 0.0129 0.375 0.1331 -0.3189 -0.1337 -0.0941 -0.1586 -0.4319 -0.1858 0.0299 -0.6082 -0.2348 0.13 0.2615 -0.0188 -0.1162 -0.1408 -0.508 0.1647 -0.0336 -0.1623 0.0435 -0.1298 -0.1127 -0.0054 0.0813 -0.3981 0.1225 -0.5767 0.4095 -0.2256 0.1072 -0.2347 -0.0229 -0.2151 -0.6522 -0.5413 0.4105 0.1562 -0.0163 -0.0963 0.2778 0.0943 -0.1599 0.1432 0.0418 -0.3651 -0.231 -0.1186 -0.2883 0.0855 0.1923 0.0867 -0.0317 -0.2917 0.065 0.6599 -0.2996 -0.6162 0.429 -0.5709 0.0988 0.4767 0.2591 0.8263 0.1746 -0.5127 0.4608 -0.1844 0.1579 0.0143 -0.2031 0.0117 -0.1788 0.4179 -0.2106 -0.09 0.154 0.1943 -0.1923 -0.2101 0.14 -0.13 0.2508 -0.2799 0.2931 0.0942 -0.093 -0.4437 0.3023 0.4179 0.3449 -0.3282 -0.0163 0.2593 -1.0E-4 0.1697 0.426 -0.2097 0.2224 -0.5662 0.2873 0.2711 -0.0207 0.0872 -0.0219 -0.4474 0.4462 0.392 -0.3182 0.4885 -0.3203 0.1406 -0.3883 -0.0901 -0.1644 0.5346 0.356 0.1964 -0.3008 -0.1898 0.1351 0.0259 0.4911 -0.2567 0.311 -0.3844 0.4239 0.1095 0.8002 -0.5906 -0.3742 0.1089 0.0263 0.2306 -0.0278 0.5546 0.2071 0.0298 -0.2871 0.0282 0.1797 0.3048 0.1398 0.2083 -0.4978 -0.1024 0.2721 -0.2465 0.3079 0.6536 0.0487 -0.0172 -0.082 -0.0334 -0.577 0.1132 -0.0706 0.2295 0.3331 -0.0439 -0.3317 0.513 -0.1496 -0.805 0.4481 -0.2426 0.1543 -0.2629 0.0288 -0.0945 0.2982 -0.2491 0.3411 -0.0933 0.0964 -0.1783 -0.0757 0.1807 0.0986 0.0736 0.4041 0.4321 -0.3317 0.0943 0.1508 -0.0547 -0.1331 -0.3571 0.1308 0.3097 0.5722 -0.0356 -0.0155 -0.0957 0.5178
asylum 0.285 -0.1157 -0.3108 -0.441 0.0465 -0.0646 -0.2691 -0.0456 -0.0405 -0.6932 -0.0059 0.6196 -0.4868 -0.122 -0.2017 -0.0223 0.0619 0.5421 -0.025 -0.4815 -0.1239 0.2225 0.4974 -0.403 0.07 0.0806 0.091 0.2105 0.1078 -0.0623 0.5448 -0.1581 -0.3732 0.0403 -0.0368 0.712 -0.567 0.0397 0.1759 0.2627 -0.1572 -0.0591 -0.2118 -0.1223 0.0828 -0.3671 0.1253 0.0855 -0.3964 -0.0681 -0.0513 0.1306 0.4085 -0.3353 0.1113 -0.3919 -0.126 -0.1167 0.4173 0.4856 -0.2182 -0.0606 -0.0167 -0.2379 -0.2218 -0.1778 -0.0668 -0.3177 -0.0502 0.3333 -0.0217 -0.0269 -0.0903 0.1198 0.615 0.0504 -0.0346 -0.4125 0.1194 0.0733 0.0466 -0.5174 -0.3507 0.0363 0.0295 0.1345 0.098 -0.0225 0.6205 -0.4561 0.1787 0.3149 0.479 -0.233 0.0149 -0.1628 0.2723 -0.1784 0.2953 -0.1525 -0.714 -0.1719 0.3116 -0.1472 -0.3306 -0.1798 -0.1985 -0.3394 0.3806 0.1115 -0.012 -0.352 -0.6767 0.5696 -0.5337 0.1535 0.5398 -0.1294 0.0893 0.4607 0.1649 -0.9441 -0.0971 0.1814 -0.041 -0.4999 -0.0701 0.0693 0.1286 -0.1158 0.2222 0.4335 -0.5528 0.3485 0.1858 -0.5817 -0.2879 -0.4975 0.2382 -0.4205 0.2386 0.3504 -0.0676 -0.2448 -0.1094 0.5302 -0.1316 -0.1381 -0.2318 0.3928 0.4179 0.3438 -0.1536 -0.4401 0.0764 0.0326 -9.0E-4 0.2763 -0.1774 -0.1573 0.5048 -0.299 0.2755 -0.3041 -0.127 0.3046 0.108 0.3471 0.4733 0.2753 -0.4789 0.3689 -0.4004 -0.1657 0.1671 -0.3481 0.3409 0.0926 0.0031 -0.1025 -0.0502 -0.3316 -0.5242 -0.3668 0.0786 0.4168 0.0796 0.305 -0.0398 -0.0996 0.0026 -0.0096 -0.2252 0.346 -0.1844 0.2912 0.0066 -0.5956 0.5139 0.3363 0.1111 0.1629 0.1496 -0.063 -0.0791 0.4086 0.4208 0.1259 -0.105 -0.4562 -0.0864 0.6929 0.43 0.1664 -0.3388 -0.5825 0.4444 -0.5732 0.673 0.1954 0.1157 0.3439 0.5127 -0.019 -0.0999 0.059 1.0769 0.3586 -0.1542 -0.3355 0.2298 0.5821 -0.0332 0.6245 0.0104 -0.753 -0.1 0.0466 0.6471 0.1321 0.3748 -0.3183 -0.4855 -0.2769 -0.0972 -0.1584 0.4673 -0.5981 -0.1732 -0.1366 -0.3417 -0.2807 -0.0756 -0.0473 -0.092 0.2394 0.2632 -0.1079 0.2211 -0.2216 -0.0855 0.1406 -0.1632 -0.1723 -0.0674 0.0821 0.0467 -0.38 -0.2499 0.4471 0.363 0.2763 -0.2824 0.442 0.5248 0.6431 -0.2019 0.385 -0.6015 -0.3363 0.0235 0.3835 0.0061 0.4991 -0.2078 -0.6336 0.0657 -0.194 0.3758 0.1987 0.0027 -0.0375 -0.3545 0.0378 0.4257 0.5 -0.1992 -0.0529 -0.0949 0.0705
manslaughter 0.5358 -0.1235 -0.267 -0.5104 0.4773 0.0757 -0.0601 0.3732 -0.4129 -0.188 0.2378 0.7481 -0.033 0.3187 -0.2776 -0.1156 -0.3238 0.0912 -0.2611 -0.0297 -0.3485 -0.1304 -0.4265 -0.339 0.2143 0.3281 -0.0833 0.1154 0.4578 -0.0709 -0.0243 0.1564 -0.2484 0.7185 0.3542 -0.0574 0.1727 -0.3423 0.4536 -0.2098 0.4762 0.3494 0.1028 -0.4207 -0.1506 0.3921 -0.0549 0.1607 0.1389 -0.2742 -0.0019 -0.1966 0.7846 0.4117 0.376 0.0493 0.3089 0.3262 0.6049 0.1523 0.0504 0.3062 -0.3243 -0.1666 0.2682 -0.5507 0.4371 -0.2841 -0.1976 0.166 -0.1195 0.1938 -0.3851 -0.1652 0.1847 0.3974 -0.3241 0.0034 0.1032 -0.3941 -0.1647 0.5078 0.1011 -0.0983 0.3993 0.3538 -0.0909 0.1382 0.0935 0.2928 0.0109 0.3671 -0.1051 0.4305 -0.0089 -0.0934 0.3617 -0.2034 -0.1033 0.0789 -0.0595 0.0471 0.0839 -0.0591 -0.0709 -0.0413 -0.0505 0.4569 0.1425 -0.0547 0.1045 -0.0293 -0.4495 0.653 -0.6899 -0.1111 0.7627 0.121 -0.4178 -0.0778 0.461 -0.1004 -0.0368 -0.0857 -0.0381 0.5153 -0.0707 0.2337 0.3244 -0.2885 0.0017 -0.0215 -0.1801 0.1005 -0.1082 0.2447 -0.3753 0.8576 -0.0785 -0.5952 0.3379 0.1317 0.4873 0.0851 -0.0526 0.2096 0.2779 -0.0105 0.2523 0.4158 0.3205 0.1524 -0.6765 0.1189 0.1441 0.0872 -0.5888 -0.7547 0.2534 -0.8042 0.8831 -0.2162 0.2437 -0.1561 -0.0575 -0.2423 -0.0045 0.0481 -0.0095 0.5218 -0.6021 -0.0288 -0.1832 -0.2062 -0.2379 0.1882 -0.2897 0.0937 -0.3659 -0.445 0.0807 -0.072 -0.3108 -0.2226 0.0108 -0.0265 -0.9719 -0.0766 -0.4899 0.1454 -0.1902 -0.3215 -0.4337 0.6645 -0.1204 0.0405 -0.3355 -0.0043 -0.4865 0.1369 0.2361 0.3523 0.1676 0.1955 0.2367 0.2835 0.6027 -0.0438 0.0552 0.3597 -0.0651 0.5037 -0.2373 -0.1082 -0.0922 -0.4722 0.1314 -0.1172 0.003 0.3274 0.1808 0.301 0.4107 -0.6798 0.0472 0.2584 0.3595 0.3108 0.6101 -0.2306 0.1422 -0.6152 -0.1708 0.5593 -0.2216 -0.9879 -0.2127 -0.6847 -0.4237 0.3234 -0.1751 -0.1866 0.0293 0.0487 0.3342 0.3413 0.4343 0.0181 -0.0305 0.3827 0.1596 -0.3122 -0.132 -0.5071 0.7917 -0.1574 0.0386 0.1283 0.2688 -0.3233 -0.2555 0.3014 -0.2404 0.3694 0.4319 0.7531 0.0672 0.1714 -0.8515 -0.0663 0.0073 0.3555 -0.0201 -0.4023 0.041 0.3617 0.0176 -0.207 0.2973 -0.3865 -0.0554 0.3585 0.1218 0.0649 0.2602 -0.3468 0.1194 0.2859 0.4155 -0.277 0.1193 -0.0186 0.1104 0.1055 -0.0551 0.2991 0.4351 0.2244 0.0304 -0.1238
music -0.2929 -0.1177 0.2537 -0.1439 0.0504 0.0327 -0.11 0.4029 -0.0129 0.1725 0.2082 0.3906 -0.1499 0.1059 0.1798 0.1438 0.0673 -0.0805 0.0889 0.1684 0.4224 0.3692 0.1028 -0.2744 -0.0361 0.1311 -0.014 0.0573 0.4354 -0.0621 -0.1505 0.0918 0.008 -0.328 -0.0606 -0.06 0.2476 0.4299 -0.0454 0.5248 0.0639 -0.3122 -0.238 0.1302 -0.0744 0.2517 -0.1345 0.3227 0.1877 0.028 -0.2911 0.0913 0.4296 0.0616 -0.1945 0.1807 0.2727 -0.3199 -0.2195 -0.0425 -0.0969 -0.2284 -0.3368 0.0572 0.2336 -0.0847 -0.1627 -0.0452 -0.2273 -0.0281 0.016 -0.0964 0.0068 -0.0669 -0.0929 -0.1617 -0.3347 -0.3042 0.1497 0.0925 0.1428 -0.1919 -0.1211 -0.0696 -0.0557 0.3285 0.0542 -0.0866 0.0342 0.0291 -0.2794 0.2617 -0.2835 0.0361 0.2013 -0.1546 0.2617 -0.331 -0.1656 -0.2923 -0.2279 -0.2731 -0.0278 -0.1069 0.2362 -0.0588 -0.0991 0.2084 0.0705 -0.1601 -0.1695 -0.2078 -0.0399 0.3408 -0.3557 -0.2124 0.0501 -0.0712 -0.1168 0.3532 -0.0754 -0.2917 -0.1822 -0.2614 -0.3391 0.024 0.1412 0.0452 0.0308 -0.1531 0.3162 0.0366 -0.198 0.0715 -0.1084 -0.1054 0.0676 -0.1495 0.0667 -0.2729 0.0146 0.2135 0.2482 0.0647 0.0167 -0.1018 -0.1017 0.1619 0.0917 -0.2863 0.3596 -0.2491 -0.0944 0.278 0.1007 0.2824 0.0965 0.3148 -0.2995 -0.5067 0.548 -0.0722 -0.0219 0.0195 -0.0182 -0.5137 0.1627 -0.2237 -4.0E-4 0.1079 -0.0089 0.1651 0.2335 0.1196 0.3656 -0.3738 0.1086 0.0225 0.2416 0.2282 0.0497 0.0845 0.304 0.0227 0.0442 -0.1269 -0.2324 0.21 -0.0452 0.2125 0.195 0.0607 -0.4344 0.2683 0.0538 -0.0625 -0.0756 -0.1214 -0.0347 0.2378 -0.154 -0.0522 0.3314 -0.4043 -0.0168 -0.3112 0.0908 0.0495 -0.1166 -0.009 0.0317 0.5996 -0.2107 0.4099 -0.3365 -0.2237 0.1199 0.0177 0.059 0.0693 0.1404 0.353 -0.0527 0.1737 -0.0901 -0.0315 0.0277 -0.0529 0.015 0.4342 -0.1302 -0.4162 0.2789 0.1595 -0.1413 -0.4174 -0.2472 0.3838 -0.1611 0.2034 -0.3206 -0.3129 0.0508 -0.0295 -0.0107 0.0264 0.312 0.1235 -0.2122 0.0329 -0.4198 0.3317 -0.1182 -0.0529 0.0869 0.0352 -0.194 -0.1462 -0.3138 0.1956 0.2936 -0.05 0.2502 -0.0247 0.0202 -0.0728 -0.126 0.2454 0.0813 0.0641 0.2145 0.0283 0.2009 0.0948 -5.0E-4 0.2212 -0.3847 0.051 -0.1214 -0.3525 0.1939 0.1841 -0.0041 0.3657 0.4872 0.3894 -0.0557 -0.2136 -0.1601 0.0433 0.0614 -0.2291 -0.142 -0.0935 -0.1509 0.4341 -0.2932 -0.1574 -0.0852 -0.0657
record -0.101 0.0202 0.0036 -0.2905 0.3177 0.2601 -0.217 -0.0876 0.1714 0.2274 -0.1812 0.1887 -0.1192 -0.1041 -0.01 -0.2217 -0.1444 -0.0064 0.0484 0.1851 0.07 0.3442 0.1084 -0.2212 0.0536 0.0488 -0.0909 -0.4234 0.066 -0.1312 -0.2018 0.1932 -0.1038 -0.0677 -0.2944 0.061 -0.1654 -0.0509 0.0355 0.1478 0.101 -0.0432 -0.2058 -0.0943 -0.4191 0.2396 0.4157 0.264 -0.0041 0.115 -0.0044 0.1135 -0.0744 -0.1769 -0.4585 0.1434 0.0772 -0.2426 0.1041 -0.1156 -0.3197 -0.107 -0.0047 -0.3529 -0.2036 0.1693 0.2334 -0.0432 -0.2626 0.182 -0.1605 -0.0073 -0.1814 -0.1219 -0.3243 0.0127 -0.2734 -0.2052 0.2084 0.1683 0.1823 -0.1983 -0.154 0.3659 -0.1476 0.1137 -0.1004 0.2397 -0.1523 0.1443 -0.3174 0.072 0.0423 0.0282 -0.0906 -0.028 0.1102 0.0342 -0.2074 -0.1206 -0.2183 -0.5012 -0.0982 0.1853 -0.1896 -0.0362 -0.2479 0.4159 -0.0168 0.0864 -0.097 0.1681 0.1042 -0.1681 -0.4344 -0.2707 -0.1039 -0.2603 0.1254 -0.0652 -0.1036 -0.089 -0.1002 -0.1854 -0.0123 0.2094 0.338 -0.0913 0.1153 -0.0177 0.2343 0.0457 -0.0013 0.1852 0.2557 0.3926 -0.2156 0.0495 -0.1458 -0.2469 0.0041 -0.1382 -0.1274 0.0026 -0.0788 0.0651 -0.0672 0.2047 0.2169 -0.1637 0.1191 -0.2663 0.1317 0.1238 0.4471 -0.0842 0.1353 -0.1336 -0.2409 -0.0684 0.6238 0.1157 -0.1593 0.0816 -0.2305 -0.1832 -0.1649 -0.1403 0.0669 0.0192 0.1669 -0.1662 0.1057 -0.0115 -0.3515 -0.2557 0.2328 0.1741 0.1475 -0.2834 0.1171 0.1438 -0.1573 0.0526 -0.2986 -0.1914 -0.2227 -0.1488 0.1991 0.193 0.0434 0.0774 0.075 0.1306 -0.1024 0.1629 0.3124 -0.2586 0.3235 -0.2028 -0.0581 0.0688 -0.0826 -0.2905 -0.204 0.0062 0.354 0.2021 -0.1442 0.1255 0.042 0.5552 0.1989 -0.2202 -0.1202 -0.3296 0.0075 0.4008 -0.1353 0.3569 -0.1244 0.4305 0.1628 0.2082 -0.2257 -0.164 0.1517 0.2638 -0.0878 0.4531 -0.0762 0.3944 0.1713 0.0295 -0.0822 -0.2493 -0.1023 -0.1039 0.0593 -0.0823 0.2145 0.0743 0.4777 0.2762 0.0344 0.1424 0.2123 -0.2031 0.1042 -0.0286 -0.0958 -0.1336 -0.1356 0.0333 0.2493 -0.146 -0.3511 0.1484 -0.0078 0.3929 0.0624 -0.0034 0.082 -0.0843 0.0973 -0.0028 -0.2807 0.1075 0.2147 -0.0749 0.0161 0.0618 0.0057 -0.3945 -0.1304 0.1471 -0.0643 0.2412 0.1663 0.0145 0.3837 -0.0934 -0.0777 0.0377 -0.3416 0.3622 -0.0749 -0.3479 0.222 -0.0653 -0.2051 0.0368 0.255 -0.178 -0.2015 0.0943 0.2778 0.2345 -0.3682 0.2326
energy 0.3915 0.1295 0.0111 0.1814 0.3173 -0.2111 -0.4772 0.7508 -0.1337 0.2239 8.0E-4 0.1694 -0.0227 -0.1032 -0.3429 0.1184 0.1084 0.0541 -0.3006 0.032 -0.2916 0.275 -0.3965 -0.2966 0.0309 0.2781 0.1453 0.0289 0.2663 -0.105 -0.1662 -0.0788 -0.2309 -0.3362 0.2582 0.0339 0.0724 0.2131 -0.032 0.1534 -0.1125 -0.3213 0.0309 -0.0208 0.0661 0.15 -0.5025 -0.1362 0.3549 -0.0222 -0.032 0.1809 0.3087 -0.1216 0.1122 0.3425 0.243 -0.3369 0.16 -0.3678 -0.2725 -0.1544 0.1787 -0.2511 -0.1506 0.1335 0.0158 0.2134 0.0883 0.1055 0.2347 -0.1977 0.2778 0.2554 0.2968 0.545 -0.3001 -0.2291 0.1898 -0.3361 0.283 0.4073 -0.2972 0.2478 0.0665 -0.178 -0.1103 -0.0722 0.0577 0.2605 -0.1231 0.2615 -0.2472 -0.145 -0.3212 0.0101 0.2988 -0.1147 0.4144 -0.2144 -0.0699 0.4251 -0.0189 -0.1095 0.088 -0.2144 -0.0093 0.1135 0.2161 -0.0399 0.2102 0.073 0.1071 0.1203 -0.4847 -0.3137 0.2682 0.108 0.2307 -0.3193 -0.0745 -0.1735 0.1452 0.0724 -0.197 0.0403 -0.0063 0.046 0.0874 -0.116 0.3182 0.3101 0.086 0.1324 0.4335 0.0239 -0.0797 -0.469 0.1321 -0.1346 -0.2459 -0.0781 0.1236 0.154 -0.0246 0.1309 -0.2256 -0.121 -0.0731 0.012 0.0159 0.2244 -0.1162 -0.548 -0.045 0.0732 0.5074 0.0948 -0.6652 0.2993 0.4399 -0.0202 0.19 0.3448 0.2544 0.1026 0.0163 -0.2037 0.1167 -0.0841 -0.127 -0.1127 0.0198 0.0364 0.5177 -0.3776 -0.4958 -0.1333 0.0449 0.5163 0.252 0.3207 0.1994 0.443 -0.0218 0.2349 0.1742 -0.0782 -0.4185 0.3187 0.0814 0.0616 -0.346 -0.1471 0.283 -0.4851 0.097 0.0666 0.2756 0.2084 0.015 0.1274 0.3252 0.2168 -0.1027 -0.4985 0.1719 -0.3301 0.2453 -0.2925 -0.0523 0.6065 0.0329 -0.2798 0.0158 0.104 -0.0127 -0.0951 0.2496 0.13 0.2414 0.3536 -0.0367 -0.3255 0.0963 0.086 -0.0915 0.2266 -0.0947 0.033 0.0166 -0.2296 0.2135 0.2426 0.2621 -0.633 -0.1702 0.0366 0.3788 0.0199 0.0053 -0.0415 0.565 -0.1611 0.2848 -0.1271 0.2489 0.1856 -0.3868 0.5649 0.0217 -0.0017 0.0745 -0.1415 -0.5279 -0.1561 -0.1114 0.2128 -0.0906 0.1125 -0.1252 -0.09 0.2002 0.041 0.1645 0.1583 -0.1376 0.1785 0.1437 -0.1056 -0.1781 -0.1738 -0.0202 0.14 0.3188 0.0585 -0.171 -0.0903 0.3747 0.1224 0.1618 0.0659 -0.1271 -0.272 0.2679 -0.0395 -0.0832 0.0967 0.2107 0.072 0.3517 -0.0026 0.209 0.1067 0.1102 0.4223 0.1368 -0.0898 -0.0067 -0.4316
announcement 0.1473 0.0637 -0.2776 0.0597 0.0139 -0.0426 0.5355 0.1053 -0.5283 0.1159 -0.1754 0.1674 -0.0046 0.1664 0.0516 0.4699 0.0487 0.1471 0.2708 -0.0724 -0.1615 0.1544 0.3192 -0.2388 0.0363 0.2188 0.1009 0.1108 0.1333 -0.0712 0.2021 0.2605 -0.0718 0.2411 0.2003 0.3663 -0.2694 -0.3277 -0.1395 0.1232 0.012 0.0425 -0.3219 0.0492 -0.1041 0.0763 0.5202 -0.2871 -0.1474 -0.2094 -0.4647 -0.3014 0.102 -0.27 0.2256 -0.0316 0.2601 -0.2992 0.254 0.0564 0.1252 0.1694 0.0403 -0.004 -0.1924 0.1311 -0.4443 0.0077 -0.0997 -0.3295 -0.2108 0.0327 -0.0273 0.1853 -0.0599 0.1003 -0.3005 -0.2265 -0.0078 0.1207 -0.2174 -0.5898 0.3799 -0.5176 -0.0437 -0.029 0.1123 0.1912 -0.0154 -0.0889 -0.0179 0.2564 -0.1592 -0.0111 0.1026 -0.0035 0.1114 -0.3038 -0.4069 0.0537 0.2578 0.0689 0.0206 0.0064 -0.1093 -0.194 -0.1452 0.2535 0.0213 -0.3139 -0.1717 0.0069 0.174 -0.4131 -0.2934 -0.1054 -0.044 -0.3687 -0.3852 0.2374 -0.066 0.0925 -0.4372 -0.47 0.1246 0.1363 0.3687 0.1643 0.1957 0.0417 -0.1138 0.1821 0.4847 -1.0804 -0.0355 0.0298 0.1886 0.0339 0.0111 -0.1902 -0.1167 -0.0734 0.0811 0.1454 0.0135 0.2409 0.1202 -0.2807 0.1574 0.1393 0.2398 0.104 -0.0435 0.2995 0.193 0.0539 0.3781 -0.1622 -0.1717 -0.2256 0.7541 -0.0713 -0.1557 0.2495 0.1474 0.2328 0.285 0.0424 0.001 -0.0954 0.455 -0.2318 -0.1033 0.061 -0.2319 0.1003 0.3931 -0.1393 -0.0428 -0.0898 0.1011 -0.008 -0.1841 0.2835 -0.0991 -0.2503 0.0777 -0.0339 -0.034 -0.0123 -0.0857 -0.4238 0.0631 0.2596 -0.2811 -0.2235 0.3551 0.2123 -0.1448 0.0994 0.3704 -0.3033 0.259 -0.2235 -0.157 -0.3437 -0.1454 -0.1694 -0.0791 -0.203 0.0667 0.6381 -0.0372 0.0712 0.0333 0.3456 0.1268 -0.2513 0.1851 -0.15 -0.0942 0.5878 0.0797 -0.0348 0.1266 -0.1779 -0.2234 -0.1259 -0.2021 -0.0605 -0.1221 -0.2384 0.1661 -0.0987 0.0655 -0.5047 -0.2673 -0.1595 0.0785 0.0863 -9.0E-4 -0.0056 0.1717 0.0353 -0.4108 -0.0598 0.1218 -0.098 0.1871 -0.04 0.3065 -0.45 0.0196 0.2865 -0.0116 -0.2718 0.3061 0.1602 -0.3674 0.005 -0.2488 -0.0933 0.1577 -0.0985 0.2963 -0.1834 0.0522 0.1845 0.0505 -0.2305 0.0735 -0.0585 0.0844 -0.2344 0.2969 -0.1885 0.0501 0.0774 0.0334 -0.0098 0.288 0.1791 0.0943 0.5065 0.2018 -0.3392 -0.1138 0.1474 -0.0253 0.0605 -0.1857 -0.1701 0.0352 -0.5676 -0.1037 -0.0515 -0.1874 0.1835 -0.0931 0.034
mile 0.2043 0.4006 -0.0567 0.1251 -0.1316 0.2088 0.303 -0.1047 0.4326 0.0583 -0.0745 0.2608 0.3955 0.0434 -0.0619 -0.386 -0.0925 0.1273 0.3806 0.0423 -0.1327 -0.1304 0.0286 0.2483 -0.1431 -0.2824 0.0698 0.1118 -0.09 -0.3659 -0.0979 0.339 -0.2124 0.0015 0.0134 -0.2266 -0.2316 0.1493 -0.2135 -0.3471 0.0966 0.0428 -0.0794 -0.1602 0.0705 0.082 -0.2315 0.0238 0.087 0.2032 0.0211 -0.0959 0.3563 0.0659 0.3331 -0.2322 0.1827 -0.6892 0.1965 1.0E-4 0.0078 0.2588 0.1235 -0.3193 -0.1251 0.1545 0.3894 -0.0527 0.0235 -0.2718 0.0252 -0.1765 0.4885 0.0824 -0.0623 0.4292 -0.5672 -0.0749 -0.3265 -0.0589 -0.0604 -0.0386 0.1092 -0.0578 0.0854 0.1912 -2.0E-4 -0.3576 -0.239 0.2028 0.0673 0.1476 0.2464 0.2529 0.1874 0.1134 0.4074 -0.7414 0.0988 -0.3624 0.2968 0.274 -0.0903 0.0236 -0.1445 -0.164 -0.2481 0.1079 -0.1657 0.1959 0.1283 0.5249 0.1357 -0.0458 -0.0654 0.1547 -0.448 -0.0812 0.0052 -0.1341 0.0649 -0.313 -0.4062 0.1052 -0.0849 -0.2635 -0.0719 -0.1701 0.0501 0.2165 -0.0622 -0.1261 0.2615 0.1981 0.059 -0.2365 -0.0038 -0.2835 0.0021 -0.6965 0.0948 -0.185 0.3394 0.1524 -0.152 -0.1224 -0.2574 0.0648 0.1255 -0.2917 0.3195 -0.2928 -0.2716 0.104 -0.1935 0.0767 -0.2318 -0.4316 -0.0813 -0.0201 0.8936 0.067 0.215 -0.2511 -0.3099 0.0839 0.1188 -0.3248 0.0692 0.2125 -0.2648 -0.4048 -0.0793 -0.1338 0.2526 0.0517 -0.164 0.1359 -0.299 -0.1118 -0.6816 -0.0518 -0.4802 0.1184 0.0988 -0.3807 0.4029 -0.117 0.0626 0.204 0.3564 0.5931 -0.0534 0.1147 0.2277 0.2392 0.5686 -0.2494 -0.252 -0.388 -0.3051 0.0408 -0.1024 0.0248 0.0596 -0.2884 0.231 -0.0132 -0.2683 0.3522 0.4539 0.5119 -0.0757 -0.1878 -0.3147 0.1591 0.1892 -0.3533 0.0711 -0.0789 0.2374 0.4466 0.1087 0.0501 0.4641 0.2531 0.401 0.193 0.2742 0.313 0.1642 -0.0548 -0.0123 -0.0317 0.093 -0.3754 0.0541 0.1514 0.3093 -0.2123 -0.1947 0.1489 0.1299 0.3715 -0.107 -0.447 0.2518 0.001 0.2656 0.1531 0.2185 -0.3246 -0.0463 0.048 0.0307 0.17 -0.066 -0.1476 0.1987 0.6818 -0.1041 -0.0478 0.3208 -0.077 -0.109 0.2581 -0.1636 0.0476 -0.0127 -0.0758 -0.2836 0.5414 0.248 0.049 0.1677 -0.1546 0.4484 0.1459 -0.3437 0.0252 0.2357 -0.4258 -0.3503 0.1302 -0.0049 0.3865 0.2747 0.4289 -0.3333 0.0158 0.2683 -0.1488 0.3353 0.1401 -0.0421 -0.1214 -0.0337 0.4803 -0.0195 -0.4633
airport 0.413 -0.4409 0.3206 -0.1573 -0.0109 0.1989 -0.0439 -0.0352 -0.0889 -0.2161 0.1258 0.3665 0.238 -0.0992 0.0426 -0.2508 0.3297 -0.0053 0.1482 -0.1646 0.1925 -0.1164 0.0345 0.3118 -0.2712 -0.3064 -0.2019 -0.1244 0.1139 -0.1793 0.1445 -0.1974 0.0416 0.4156 0.24 0.1508 -0.32 -0.2135 -0.2395 -0.3377 -0.1999 -0.1961 -0.4506 -0.276 0.5953 -0.0347 0.0368 0.0015 0.4026 0.1987 0.4625 -0.0853 0.4145 -0.0688 0.2961 -0.0441 -0.0119 -0.4328 0.1609 0.2621 -0.0032 0.0474 0.0451 -0.2843 0.2658 -0.5503 0.1837 0.3369 0.1311 -0.1092 -0.0795 -0.0198 0.3074 -0.0088 0.2152 -0.0528 -0.1745 0.0028 -0.1738 -0.2053 0.0825 -0.0213 0.0836 -0.2754 0.0682 0.2958 0.0272 0.3522 0.028 -0.3264 0.1876 0.2124 -0.1102 0.1457 -0.0434 0.0701 0.2126 -0.0759 0.0805 0.3315 0.1146 0.058 0.0255 -0.0099 -0.3102 0.17 0.0095 0.0764 -0.0811 0.0919 -0.0442 -0.3233 -0.0742 -0.2495 -0.4184 0.3043 0.1296 -0.3218 -0.0261 0.1774 0.0057 0.0388 0.1226 0.1836 0.229 0.1505 0.0238 -0.0082 -0.0365 -0.0257 -0.4453 -0.1291 0.125 -0.0012 0.2701 -0.1782 -0.2688 -0.4097 0.2341 -0.2985 -0.1511 0.2486 -0.2684 -0.0338 0.2777 -0.3847 -0.1332 -0.2424 0.5001 -0.1452 0.2715 -0.3954 -0.3198 0.1554 -0.4673 -0.121 -0.2159 0.2643 0.506 -0.2883 0.6463 0.1654 -0.0978 0.0261 0.2468 0.2059 0.0458 -0.2576 0.6368 -0.2794 -0.1143 0.1682 -0.3653 0.4056 -0.1658 0.1329 0.3268 0.4025 -0.0839 -0.0239 -0.0526 0.035 -0.1728 -0.2278 0.077 -0.0809 0.1982 0.0566 -0.1023 -0.0596 0.158 0.1244 -0.3588 -0.0662 0.0426 0.4379 0.5358 0.0768 0.2866 0.4472 -0.1067 0.2615 0.7024 0.2808 0.0419 0.0898 0.1611 -0.1355 -0.0497 -0.2623 -0.0466 0.6451 -0.043 -0.1638 0.2029 0.3125 0.1638 -0.3645 0.15 -0.2526 -0.3655 0.5061 0.0769 0.3128 0.3181 0.0912 0.2773 0.3437 -0.0924 -0.0865 0.0749 0.0742 0.1773 -0.3256 0.3342 -0.6519 0.2142 -0.6732 0.6636 0.7118 0.2289 0.277 0.402 0.252 -0.2226 0.2713 0.2297 -0.1556 -0.0867 0.1652 -0.0492 -0.3633 -0.0707 -0.1865 0.0543 0.3523 0.3731 0.1918 -0.2177 0.2236 0.0609 -0.3639 -0.0084 -0.218 -3.0E-4 0.2593 -0.1773 0.0529 -0.2436 -0.6862 0.6536 0.057 -0.0081 0.3626 -0.1403 0.2755 -0.0409 0.1341 -0.1501 -0.227 0.3511 0.1611 -0.2575 0.3132 0.3181 0.2586 -0.1544 0.1931 0.0074 -0.235 0.0618 0.0849 0.0129 0.3694 0.1118 0.4625 -0.0799 0.0114 -0.0358 0.3908
population 0.0402 0.1801 0.1773 -0.4448 0.1678 -0.02 -0.6512 0.1958 0.1054 -0.0581 -0.4123 0.3297 -0.299 -0.0516 -0.1096 0.2708 -0.3882 0.2255 0.1053 -0.2062 -0.2091 0.1207 0.3392 0.2164 -0.1579 -0.4385 -0.1543 0.0732 0.135 -0.3641 0.0898 0.023 -0.061 -0.4247 -0.107 -0.028 -0.3669 0.1531 -0.3277 -0.1685 -0.1028 -0.2857 0.1149 0.3868 -0.3116 -0.1993 0.3325 -0.0334 0.335 0.1856 -0.4448 -0.0619 0.3482 -0.0864 0.0094 -0.3574 -0.016 0.1634 0.3666 0.0529 0.4152 0.1816 0.0114 -0.2857 -0.2459 0.018 0.5334 0.2715 0.0325 0.2458 0.0831 -0.1957 0.1967 -0.4244 0.1465 0.1592 -0.3442 0.2713 -0.1374 0.2688 0.1381 0.3981 -0.1182 -0.1795 -0.4464 0.204 -0.0462 -0.0079 -0.3345 -0.2944 0.1364 0.1173 0.0399 -0.1005 0.2044 -0.0142 0.2648 0.051 0.3208 0.0663 -0.0884 -0.0346 0.2263 0.1242 -0.3594 -0.0323 -0.4197 -0.0668 0.0961 -0.2723 0.2047 -0.1991 -0.1608 0.0812 -0.0031 -0.1235 0.2136 0.013 -0.2738 -0.1085 -0.2786 0.2747 0.0849 -0.0186 -0.1601 -0.0401 0.199 0.2418 -0.2041 -0.1605 -0.021 -0.0191 0.1488 0.1102 0.3183 0.5678 0.117 -0.3069 -0.0957 -0.4601 0.3722 0.0447 0.1271 0.0249 -0.1319 -0.3752 -0.0586 0.1864 -0.2226 -0.3835 -0.1075 0.1012 0.0573 -0.3798 -0.2243 0.2746 0.3679 -0.2153 0.0679 -0.1499 0.9044 0.022 -0.0374 -0.1805 0.1571 0.0395 0.5647 -0.2278 0.1047 0.3266 -0.5195 -0.1444 0.1023 -0.1315 0.0199 0.0074 -0.1851 -0.3442 0.1585 0.1431 -0.0881 -0.0907 -0.1926 0.1887 -0.0391 -0.0117 -0.1584 -0.1405 0.1404 0.2717 -0.0624 0.3032 -0.051 0.2034 0.2343 0.3107 0.2207 0.2298 0.1428 0.6111 -0.0205 -0.0563 -0.1151 0.327 -0.3601 0.0805 -0.024 -0.0452 -0.0017 0.1718 0.3845 0.6651 -9.0E-4 -0.1202 0.2671 0.3154 0.2507 -0.1807 -0.107 -0.1674 -0.0807 0.3528 0.2588 -0.3105 0.3799 -0.1112 0.2766 0.1163 -0.2477 0.0312 -0.1111 0.0431 -0.3246 0.0475 -0.0381 -0.5116 0.0356 -0.0799 -0.1849 0.1214 0.1826 -0.5694 -0.2496 -0.0474 -0.2185 0.3821 0.1181 0.0343 -0.316 -0.2608 0.0872 -0.2557 -0.2145 0.1264 0.1199 0.0562 -0.4971 0.0589 0.5035 0.0138 -0.0893 0.2413 0.3028 0.2333 0.0764 0.0624 0.1278 0.0254 0.233 -0.0318 0.0168 0.1459 -0.0064 0.2152 -0.1498 -0.3195 0.004 0.159 -0.2764 -0.1913 0.0086 0.0388 0.3078 0.0901 -0.2122 -0.0965 -0.0317 0.1913 -0.4632 0.0488 -0.1202 0.2143 -0.338 0.2187 0.5383 0.305 0.1259 0.1685 0.4488 -0.0502
planning -0.1245 -0.1241 0.1062 0.0118 0.1444 -0.0231 -0.1495 0.0126 0.2338 -0.0837 -0.2796 0.0313 0.0766 0.1211 0.1073 -0.215 0.2699 -0.1174 0.1517 0.0163 -0.0091 0.0152 0.1301 -0.0684 0.1599 0.1827 0.0808 -0.2543 -0.0806 0.3551 -0.0835 -0.1492 0.172 -0.4242 -0.1101 -0.3012 0.0747 -0.24 -0.0688 0.1427 0.0325 0.0087 -0.0306 -0.2158 0.2829 -0.1367 0.4072 -0.1046 0.1217 -0.1041 -0.3699 -0.2171 0.2375 0.0276 0.3673 -0.0377 0.1026 -0.4882 -0.2897 -0.2232 0.0662 -0.08 0.0186 0.1297 -0.1888 -0.0603 0.1646 0.3642 0.1208 0.0039 -0.0455 0.1942 0.1502 0.2806 -0.0127 0.1623 -0.7711 -0.095 0.3859 -0.1428 0.3175 -0.0564 0.1012 -0.3215 -0.268 0.1662 0.1337 -0.2255 -0.182 -0.1423 0.2268 0.0992 0.2 -0.1435 -0.0181 -0.322 -0.254 -0.572 0.0995 0.1578 0.1959 0.2488 0.1931 -0.1944 -0.327 -0.1444 0.0369 -0.0762 -0.1749 -0.1157 0.0341 -0.1966 -0.143 0.1179 -0.235 -0.6135 -0.0835 -0.029 0.1984 0.2307 0.4437 0.5243 -0.1431 0.1791 -0.2321 0.0874 -0.0778 -0.2391 0.4612 -0.2548 -0.446 -0.2147 0.0028 -0.1922 0.1315 0.3204 -0.6074 -0.0528 -0.2707 -0.0161 0.1959 0.3406 0.12 -0.2037 -0.0121 -0.2 0.1692 -0.0431 -0.2075 0.27 -0.0306 0.1024 -0.1257 0.2169 -0.0303 -0.1194 0.2141 -0.1369 -0.01 -0.1319 0.1883 -0.2242 -0.1567 0.3061 0.026 0.3373 -0.0401 0.1186 -0.4104 0.2035 0.1398 -0.1823 -0.3009 0.1897 -0.075 0.1429 -0.1612 0.0594 -0.331 0.0716 -0.3919 0.1718 -0.1006 -0.1258 -0.0423 0.0578 0.2364 -0.1131 -0.3283 0.0772 0.1008 -0.0605 0.2487 0.2256 0.0885 -0.1955 0.1278 0.013 0.3422 0.1739 0.3349 -0.0357 0.1321 0.3676 0.035 -0.1513 0.3101 -0.0757 -0.1487 0.0056 -0.0024 0.5111 0.0361 0.0406 0.0328 0.0298 -0.0074 -0.217 -0.1241 -0.0077 -0.021 0.632 0.0354 0.0101 -0.2985 0.2817 0.2281 -0.1258 -0.0026 -0.1082 -0.1804 -0.1773 0.1025 -0.2979 0.1121 -0.6612 -0.1095 0.0032 0.1833 0.1167 0.1609 -0.1192 -0.1296 -0.1526 0.1394 -0.0548 0.3267 -0.0287 -0.2137 0.0766 -0.1631 0.1076 -0.1997 -0.2827 0.1485 -0.1261 0.1762 0.336 -0.0199 0.0187 -0.2094 0.2023 -0.0573 -0.0246 0.1189 -0.1182 -0.1954 -0.1435 0.1594 -0.1178 -0.0682 0.2496 0.102 0.0441 0.1283 0.1751 -0.496 0.0644 0.3241 0.0699 0.1841 0.4575 0.1182 0.0731 0.2635 -0.1453 -0.0605 -0.0079 0.198 0.0266 -0.1213 0.025 0.2618 0.2167 -0.1105 0.1288 -0.142 -0.2613 -0.0019 -0.0995
canyon -0.2507 0.0314 0.0435 0.0504 0.0287 -0.4144 0.0695 -0.1927 0.1271 0.3014 -0.0304 0.5843 -0.2808 -0.1783 -0.0786 -0.2695 -0.1856 0.0703 0.1319 -0.2048 -0.065 -0.3301 0.2193 0.1851 0.1132 -0.1061 0.0401 -0.032 -0.195 -0.4071 -0.0619 -0.1059 -0.0299 -0.2583 0.3111 -0.027 -0.0402 0.4304 -0.4248 -0.2309 0.2881 -0.3034 -0.1671 -0.1387 -0.1483 0.3804 0.0084 0.1372 -0.3064 -0.173 -0.0245 -0.0189 0.6343 0.847 0.0136 -0.0764 -0.2164 -0.1838 0.018 -0.0281 0.4258 0.0606 0.2671 -0.0337 -0.273 -0.0838 -0.2993 -0.1212 0.1969 -0.2505 -0.0155 -0.3258 0.5102 0.1318 -0.1448 -0.3034 -0.1834 -0.2403 -0.2373 0.0703 0.192 -0.4477 -0.3034 -0.1231 0.1747 -0.2833 0.1412 -0.3252 -0.4737 0.1392 -0.108 0.2271 0.1126 -0.0274 0.3929 0.1313 0.2277 -0.317 0.1226 -0.3 0.317 0.3735 -0.5991 0.0277 -0.3762 -0.1713 -0.3164 0.299 -0.0825 -0.4629 -0.0186 -0.2836 0.1076 -0.0705 -0.5361 0.34 -0.0232 0.617 -0.3301 0.2461 -0.0112 0.21 -0.4002 0.6667 0.1981 -0.0012 -0.4174 0.2141 0.0315 0.3857 0.3767 0.1602 -0.1432 -0.0088 0.3878 0.1328 -0.0071 -0.0599 -0.1917 -0.2795 -0.3721 0.4468 0.3538 0.3674 -0.2082 -0.1699 0.0613 -0.5849 0.1825 -0.0846 0.2937 0.0936 0.21 -0.0223 0.3046 -0.2733 0.1774 0.0092 0.1927 -0.2697 0.642 -0.1405 0.383 -0.0796 -0.0114 -0.1875 0.2196 0.2945 0.1703 0.2296 0.3767 0.1945 -0.0255 0.1063 0.1529 0.1458 -0.6815 0.2934 -0.1429 0.1655 -0.0185 0.2132 -0.387 0.1398 0.2529 -0.1356 -0.1418 0.2864 0.3384 0.5982 0.2258 0.1384 -0.2172 0.0858 -0.4656 0.1819 0.4747 -0.0522 -0.225 -0.1581 -0.4116 0.0277 -0.367 0.136 0.3433 0.0079 0.1523 -0.2338 0.1298 0.0567 -0.1259 0.5749 0.3697 -0.365 -0.3886 -0.1091 -0.2248 -0.4567 0.0794 -0.1401 0.1745 0.3589 0.4194 0.0403 0.4474 0.2141 0.2082 -0.1198 -2.0E-4 0.2706 -0.1817 0.1928 -0.0876 -0.4083 -0.2514 -0.6338 -0.2797 -0.3027 -0.0714 -0.4761 -0.3965 -0.3798 -0.276 -0.0152 0.0356 -0.4502 0.1945 0.352 -0.0953 -0.0503 0.3169 0.0141 0.1608 -0.1941 0.0794 -0.4902 -0.0958 0.2131 0.3691 0.4037 0.1434 -0.0412 -0.2544 -0.1166 0.2843 0.017 -0.0685 -0.3592 -0.193 -0.5571 0.1704 0.0732 0.3111 0.1316 -0.259 0.0427 0.0455 0.1158 -0.2476 -0.3199 0.0868 0.0577 -0.3313 -0.1354 -0.2019 -0.2674 0.0047 0.1453 0.0314 0.0218 -0.2272 -0.0089 0.1348 0.143 -0.0739 0.6144 -0.1851 -0.1501 0.0756 0.1944
delay 0.0655 -0.0801 0.0373 -0.0342 -0.1159 0.408 0.0625 0.2768 -0.1775 -0.0988 0.0323 0.1019 0.4344 0.0083 0.0782 -0.2171 -0.0317 0.0114 0.5148 -0.0046 -0.0168 0.6561 0.1946 0.0571 0.3564 0.0014 0.2673 -0.2492 0.0563 0.1363 0.2377 -0.0701 0.1845 -0.2963 0.3479 0.1795 0.2354 -0.27 0.2366 -0.0035 0.1441 0.4976 -0.1644 -0.1453 -0.0545 0.2558 -0.0892 -0.365 0.0329 0.0046 -0.1382 -0.2531 0.001 -0.1686 -0.2582 -0.0633 0.1995 -0.1053 -0.0859 0.0212 0.2383 0.1945 -0.1368 -0.381 -0.1368 -0.2009 -0.2875 -0.0598 -0.0026 -0.0406 -0.0665 0.2734 -0.3753 -0.2223 -0.1126 0.6649 -0.3123 -0.3077 0.3042 -0.1417 0.1056 -0.0045 0.0428 -0.211 -0.2188 0.4962 0.2018 -0.1519 -0.5861 -0.0236 0.0246 -0.169 0.0235 -0.2026 -0.124 -0.2507 -0.0602 -0.0167 -0.4059 0.0068 -0.3139 -0.078 -0.1008 -0.1974 -0.4936 0.0538 0.1382 0.3045 -0.1084 0.207 0.0515 0.0174 -0.0569 -0.1089 -0.5862 0.0516 0.0584 -0.1065 -0.2018 0.3121 -0.7219 -0.0641 -0.4104 0.1219 0.1995 0.041 -0.2306 0.1305 0.0891 -0.0072 -0.2868 0.1136 0.3638 -0.4177 0.2501 -0.0843 -0.1903 -0.4771 0.2111 -0.3893 0.1052 -0.2644 -0.1486 0.2148 -0.1099 -0.053 -0.0458 -0.2105 -0.2869 0.2237 0.2884 0.1312 0.101 -0.1397 0.0545 -0.0088 -0.1331 -0.0636 -0.3131 0.0834 0.5757 -0.2867 -0.2229 -0.0413 0.252 0.1203 -0.1009 0.0595 -0.2324 0.2818 0.3352 -0.0228 -0.0267 0.251 -0.4538 -0.1158 0.3042 -0.1725 -0.0755 -0.3766 -0.4405 -0.132 -0.292 0.2742 0.0581 0.1136 0.031 0.0859 -0.0429 -0.0986 0.0787 -0.5405 -0.0227 0.4298 0.0202 -0.2037 0.3415 -0.5003 0.228 -4.0E-4 0.1239 0.3578 0.0386 -0.0562 -0.2633 -0.1629 0.3032 -0.1819 -0.2264 -0.031 -0.0379 0.6547 -0.0373 0.0673 0.2696 0.2752 -0.0447 -0.374 -0.2841 0.0876 -0.247 0.4462 -0.2298 0.1867 0.0897 -0.2002 -0.3961 0.2831 -0.1165 -0.335 -0.1398 0.1494 0.343 -0.174 0.12 -0.3559 0.0094 -0.2253 0.4101 0.0577 0.0225 -0.1555 -0.0339 -0.3027 0.2182 0.1392 0.354 -0.0382 0.3592 0.2058 0.103 0.298 0.034 -0.5669 0.1658 -0.0621 -0.0869 0.1037 0.1337 0.3623 0.0581 -0.1797 -0.1597 -0.0355 -0.2623 -0.0546 0.0269 0.2898 -0.3439 0.1634 0.1132 0.0052 -0.179 -0.2405 -0.0049 -0.0106 -0.051 -0.1305 0.3898 0.2311 0.2212 0.3347 -0.1857 0.2902 0.3593 -0.2015 -0.0052 0.5757 -0.0426 -0.0623 -0.1254 -0.1678 0.0557 -0.0384 0.0321 0.0286 0.402 0.4676 -0.0577 0.4113
size 0.0343 0.3239 0.0025 -0.4692 -0.5338 0.1942 -0.3079 -0.2351 0.124 0.2252 0.0387 0.0876 -0.1371 -0.139 -0.1264 0.221 -0.2218 0.1368 -0.1449 0.24 0.0682 -0.0559 -0.1529 0.2616 0.0582 0.0388 0.0607 0.2034 -0.113 -0.4613 -0.2053 -0.178 0.1459 -0.278 0.0206 -0.2683 -0.2659 -0.0345 -0.4602 -0.271 -0.1754 -0.3849 0.1061 -0.0648 0.6271 -0.008 0.3153 -0.0782 0.1632 3.0E-4 0.1333 -0.1291 0.3871 0.1646 -0.1352 -0.12 0.2675 -0.1195 -0.1666 -0.3416 -0.0731 0.2515 0.181 -0.8323 -0.0353 -0.1076 0.2932 -0.0172 0.1301 0.1874 0.1799 -0.1023 0.4241 -1.0E-4 -0.0382 0.3922 -0.5321 -0.1718 0.0254 0.098 -0.023 0.4601 0.1495 -0.178 -0.0244 -0.0654 -0.0444 0.2455 0.0357 -0.295 0.1943 0.2852 -0.1439 -0.2996 -0.0774 0.5424 0.2596 0.1766 0.2418 -0.0957 -0.1619 0.2436 -0.4688 -0.1186 0.0267 -0.0665 -0.1268 0.1069 -0.0957 -0.1574 0.097 0.0654 0.0372 -0.109 -0.2401 0.2596 0.2011 0.0476 -0.2039 0.0425 -0.4001 0.1613 -0.2296 -0.0504 0.0885 -0.1623 -0.175 0.1026 0.2526 -0.0485 0.0974 0.0068 0.1963 -0.3901 0.1427 -0.0033 -0.1665 -0.0163 -0.0018 -0.4812 0.4335 -0.141 0.0206 0.0511 7.0E-4 -0.1978 0.1793 0.0283 0.0587 -0.5564 -0.1656 0.0186 -0.1423 0.2018 0.0971 -0.0508 0.2975 0.1528 0.1858 0.0846 0.5249 0.3684 -0.4387 0.0051 -0.0536 0.1071 -0.1637 -0.0277 -0.1141 -0.1064 -0.0912 -0.0918 0.2795 -0.0853 0.1826 0.2076 -0.057 0.0166 -0.1933 0.0715 0.1953 -0.4255 0.1935 -0.2076 -0.0788 -0.0611 -0.2064 -0.0529 -0.178 -0.0507 -0.014 0.1372 0.4966 -0.124 0.5154 -0.2209 -0.4327 -0.0478 0.0234 0.0436 0.1206 -0.0194 0.0899 -0.1119 -0.2324 0.2764 0.1909 0.1876 -0.0394 0.1794 -0.0673 0.6031 -0.105 -0.1275 -0.0145 0.3537 -0.1152 0.0729 -0.0567 -0.0137 0.0765 0.3586 -0.0111 0.1582 0.1972 -0.0524 0.5779 -0.1661 -0.2307 -0.232 0.0684 -0.0528 -0.0304 -0.0087 0.3072 -0.2179 0.3201 -0.0537 -0.1606 -0.202 -0.0621 0.0264 -0.3579 0.0413 0.2783 0.2436 0.2549 0.2176 -0.271 0.0809 0.0206 -0.0938 0.0842 -0.1301 0.4616 -0.0614 -0.0052 0.2936 0.2676 0.311 0.0216 0.049 0.1951 0.1258 0.1262 0.227 0.1438 -0.0477 -0.113 0.1645 -0.0114 -0.2729 -0.0284 0.0531 0.0015 -0.1311 -0.448 -0.0966 -0.2919 0.4145 0.367 -0.0681 0.3223 -0.1472 -0.067 -0.2956 0.1078 0.075 -0.2919 0.1236 -0.1284 0.0702 -0.065 -0.2133 0.0034 0.0095 -0.0846 0.5005 -0.3688 0.1167
peace 0.0417 -0.1824 -0.1177 -0.1799 -0.1053 0.0642 -0.2413 -0.1083 -0.2476 -0.121 0.149 0.1553 0.1942 -0.0121 -0.3191 0.0511 0.1698 0.2399 -0.2143 -0.0048 -0.2984 -0.0622 -0.1436 -0.0296 0.0316 -0.0075 -0.1165 -0.3562 -0.5478 0.0281 0.2786 0.229 -0.0362 -0.4516 0.2802 -0.4873 -0.1723 0.4405 2.0E-4 0.7485 -0.0152 -0.2847 0.2093 -0.1766 -0.4539 -0.0256 0.0847 -0.0839 0.1044 0.0524 0.2042 0.1465 0.2984 -0.023 0.2882 0.1188 -0.0747 0.3412 0.1213 -0.0333 -0.451 -0.2131 0.0524 -0.0224 0.3284 0.1402 -0.118 0.1665 -0.7037 -0.201 0.0017 -0.0878 -0.0057 -0.1498 -0.0445 0.1787 -0.4358 -0.1355 0.158 0.0989 -0.0604 0.0076 0.0864 0.1528 -0.051 0.2523 -0.0691 0.0011 -0.4093 0.2078 0.2179 0.1616 -0.1476 0.0482 -0.031 -0.4142 0.2491 0.0984 -0.0859 -0.1053 -0.1825 0.4842 0.4509 0.1409 0.0251 -0.0057 0.0354 0.29 -0.0964 -0.3101 0.5786 0.0908 0.2025 0.2855 -0.6216 -0.2467 0.2888 0.0957 0.3363 -0.0554 0.3719 -0.2049 -0.621 -0.1076 0.1187 -0.3007 0.313 -0.0502 0.132 -0.0219 -0.2153 0.1818 0.4918 0.027 0.4918 -0.0763 -0.4644 -0.2516 0.0699 -0.4532 0.0163 0.2452 0.1766 0.3355 0.1346 0.2239 -0.4513 0.2847 -0.4589 0.8589 0.267 0.0586 0.2057 -0.2583 -0.2237 0.2466 -0.347 0.1595 -0.0252 0.1518 0.3834 0.0876 0.4084 0.5219 0.0511 -0.3465 0.0063 -0.3731 0.1475 0.1461 -0.3798 -0.0647 0.3364 0.1933 0.0874 -0.0188 -0.2146 0.1389 0.0306 0.3015 0.0316 -0.0913 0.3267 -0.5096 0.3967 -0.4393 0.1754 0.5212 -0.0197 -0.6196 0.3799 -0.3371 -0.099 -0.1258 -0.2252 -0.1233 -0.0037 -0.3456 -0.1032 0.0045 -0.0986 0.1963 0.1517 -0.3152 -0.1676 0.1453 0.132 0.1098 -0.0588 0.1724 -0.1283 0.6138 0.0187 0.0502 0.0518 0.0932 0.1421 -0.021 -0.0788 -0.0519 0.0197 0.2534 0.0721 -0.0912 0.0247 0.2125 -0.1814 0.0514 -0.3703 0.2455 -0.1803 -0.2038 -0.261 -0.1963 -0.1106 -0.6246 -0.3748 -0.4085 0.0321 0.498 -0.0821 -0.061 0.4773 0.0657 0.0909 -0.5358 0.3171 -0.1065 0.0942 -0.3393 -0.2342 -0.1735 0.2417 0.4123 -0.3441 -0.1971 0.2585 0.1577 0.2375 -0.1974 0.3745 0.1706 0.0315 -0.04 0.5096 -0.0161 -0.1131 -0.1108 -0.3074 -0.1841 0.0685 -0.3004 0.0234 -0.1375 -0.0116 0.2598 -0.2901 -0.0574 -0.4659 0.0225 -0.0921 -0.1121 -0.0483 0.2739 -0.171 0.0381 0.1216 0.3199 0.1185 0.0931 0.0482 -0.089 -0.3839 0.0612 0.224 0.2276 0.227 -0.0488 0.0978 -0.304
science 0.0674 0.2041 0.1907 -0.1941 0.0012 0.126 -0.1002 0.3147 -0.1283 0.1555 -0.0078 0.3061 0.3853 -0.0034 0.0227 0.3884 0.2833 0.1102 -0.187 0.1326 0.1892 -0.1355 -0.0377 0.1818 -0.2115 0.2642 0.1171 -0.117 0.2805 -0.2259 0.4221 0.1817 0.1329 -0.3792 0.1838 0.13 0.1154 -0.223 0.1559 0.2924 0.1919 -0.3605 -0.3301 0.0693 -0.0372 0.3051 0.0079 -0.2431 0.0228 0.0052 -0.1777 0.0692 0.6313 -0.0757 0.2021 0.2064 0.1584 -0.3197 0.2735 -0.0424 -0.1945 -0.0891 0.2568 0.157 -0.0363 -0.0733 0.0931 -0.3532 -0.0786 -0.1423 0.1807 0.1927 -0.1618 -0.0138 -0.2013 -0.1184 -0.3907 -0.1702 0.0935 0.4984 0.1496 -0.2287 -0.4621 -0.2274 0.1229 0.1062 -0.0949 -0.4595 -0.3207 -0.4928 0.4576 0.1072 0.085 -0.0914 0.0418 -0.3106 0.3155 -0.2538 -0.4401 -0.0061 -0.5461 -0.0419 0.3863 0.0017 0.0261 -0.3004 -0.1734 -0.0368 -0.2924 0.1832 -0.0609 -0.2671 -0.0039 0.0945 -0.4856 -0.2968 0.3167 -0.0476 0.1296 -0.3278 -0.1586 0.1033 -0.1151 0.1865 0.0167 -0.3722 -0.1488 0.1964 -0.1349 0.3178 0.0051 0.1546 -0.2531 0.2059 -0.0842 0.255 -0.0018 0.1455 0.1726 -0.443 -0.0377 -0.1568 -0.3283 0.1786 -0.1666 -0.5876 0.0317 -0.3316 -0.0775 -0.4211 0.0267 0.3127 0.0693 -0.2389 0.3586 0.3069 0.1037 -0.2692 -0.0526 0.0969 0.4861 -0.4066 0.1442 0.4922 0.0833 0.0859 0.3319 0.3836 0.4365 0.1011 -0.2835 0.0615 -0.0626 -0.2561 0.1413 -0.2312 -0.0545 0.2483 -0.0742 -0.1218 -0.0087 0.1231 0.0881 0.474 -0.1219 -0.1442 -0.0155 0.1556 0.1631 0.0608 0.0854 0.128 -0.3672 0.0346 0.178 0.0321 -0.134 0.2346 -0.1348 -0.0497 -0.2512 0.0977 0.0373 -0.0791 -0.008 0.1422 -0.1725 0.1608 0.4062 0.1317 0.4559 0.5991 -0.4248 -0.395 -0.0442 0.0547 0.3362 0.1431 0.26 -0.1445 0.3539 0.3981 -0.3915 -0.2979 -0.3754 -0.4797 -0.2683 0.343 -0.0979 -0.0422 0.1479 1.0E-4 0.4227 0.1624 -0.141 -0.2796 -0.4271 0.1401 -0.0703 -0.175 -0.0327 -0.1331 0.2387 -0.1622 0.1091 -0.0876 0.2846 -0.0265 -0.2206 0.225 0.2265 0.4383 0.2535 0.1981 0.2472 0.2692 -0.1651 -0.1149 -0.0942 -0.3261 0.1603 0.0363 -0.0556 0.2437 0.1506 -0.0907 0.0479 0.057 -0.2547 -0.2829 0.0233 0.0291 0.1475 -0.0382 -0.1343 0.2146 -0.4755 0.3162 -0.0415 0.1067 -0.0184 0.0711 -0.1851 -0.0685 0.2995 0.4058 0.0167 -0.3482 0.1497 -0.2461 -0.0826 -0.165 -0.3203 0.1019 0.1289 0.3367 0.008 -0.1729 0.1461 -0.0542
dawn 0.0345 -0.3156 0.0458 -0.2604 -0.0756 0.2879 -0.339 0.0226 -0.3777 0.0952 0.0926 0.2065 0.1283 0.1634 0.3022 -0.2278 0.1336 0.3081 0.8177 -0.1843 0.0854 -0.187 -0.1123 -0.0832 -0.1414 -0.265 -0.7138 0.2204 -0.0469 -0.2949 0.1854 -0.2029 -0.1202 -0.0195 -0.2064 -0.0548 -0.1625 0.0663 0.1936 0.5823 0.5532 0.0848 0.0191 -0.1721 0.1184 0.4247 -0.0246 -0.402 -0.4054 0.1375 0.172 -0.355 0.123 -0.3246 0.3424 0.0455 -0.3236 -0.1625 0.2977 -0.1258 0.179 -0.6078 0.2796 0.3074 0.0632 0.413 -0.7848 0.1186 -0.1366 -0.6146 -0.1557 -0.0587 0.2431 -0.1097 -0.0737 0.007 -0.4137 0.1798 -0.2609 0.0588 -0.0262 -0.1098 -0.0832 0.0102 0.2059 -0.3946 0.0311 -0.0478 -0.146 0.4373 -0.1475 0.1124 -0.3978 0.0527 0.0607 -0.2869 0.2226 -0.3226 -0.1643 -0.1702 0.0591 0.3356 0.0162 0.3306 -0.1993 -0.0791 -0.1288 0.0754 0.3471 -0.3338 -0.0595 0.0233 0.2347 -0.2019 -0.4989 0.0588 -0.1836 -0.0869 0.0417 0.0796 0.2651 0.0202 -0.2891 0.2379 0.2902 0.022 -0.2088 0.1986 -0.016 0.0131 0.0864 0.2074 0.3202 0.4385 0.3051 -0.0696 0.2455 -0.4042 -0.0635 -0.4946 -0.173 -0.0109 0.1512 0.1443 -0.1959 0.0607 -0.3741 -0.0924 0.3197 0.3362 -0.0341 -0.2726 0.1914 0.0436 0.1103 0.1162 -0.1069 -0.2426 0.0577 0.0469 0.5418 -0.8642 0.1888 0.091 0.2461 -0.1341 0.2536 -0.0756 0.2332 0.0806 -0.0959 0.1362 -0.2647 0.4275 -0.2306 0.1694 0.2858 0.1417 -0.2481 0.0104 -0.4232 0.1556 0.2593 -0.1563 -0.2786 -0.2722 -0.4915 -0.2361 0.5844 0.275 0.3096 -0.3248 -0.3263 0.1082 0.1405 -0.1456 -0.2217 0.3214 0.2458 -0.1084 -0.4592 -0.0138 -0.0396 -0.2004 -0.4141 -0.1664 -0.1926 -0.0975 0.425 0.1613 0.1243 0.6967 0.0694 -0.1941 0.0857 -0.0444 0.0522 -0.4777 -0.4022 0.1984 -0.1179 0.42 -0.0814 -0.0949 0.3729 0.1316 0.2814 0.0413 0.3112 -0.1627 0.0042 -0.0837 -0.3874 -0.0119 0.2976 -0.5511 0.2844 0.0898 -0.0194 -0.3003 -0.0881 -0.1199 0.2643 -0.2377 -0.5111 0.1903 0.2402 0.1473 0.032 0.1639 -0.1799 0.0364 0.0365 0.633 -0.3328 0.063 -0.2762 0.5834 -0.3892 -0.2176 0.4195 -0.251 0.0571 0.2573 0.0906 -0.095 0.0694 0.0403 -0.4366 -0.3558 0.0863 -0.0 0.002 0.0331 -0.0473 -0.0752 -0.2565 0.1893 -0.1276 -0.2792 0.4933 0.1421 -0.3832 -0.1806 -0.2722 0.2652 0.0744 -0.1561 -0.0661 0.3179 0.0513 -0.1036 -0.0441 -0.2836 -0.1575 -0.1459 0.1805 -0.381 -0.199 0.2183
brother -0.1921 -0.2656 -0.1119 -0.1353 -0.1473 0.0568 0.3914 -0.4622 -8.0E-4 -0.2036 0.0537 0.0804 0.1294 -0.3032 0.0348 -0.0479 -0.3367 -0.0478 0.1958 0.038 -0.0816 -0.3151 -0.0773 -0.2294 0.1175 0.0623 0.0116 0.3327 0.0256 0.4913 0.0279 0.0012 0.0793 -0.1589 -0.0539 -0.0774 0.2379 0.3211 -0.4363 -0.2965 -0.0151 -0.2271 0.1949 0.6473 0.1972 -0.1253 0.3373 0.0058 -0.0988 -0.3307 0.0529 -0.2977 0.1433 0.0245 -0.2033 0.185 0.0746 -0.0454 0.1882 0.0474 -0.1509 0.0704 -0.0344 0.0724 -0.2759 -0.3133 0.0692 -0.0878 -0.2218 0.0279 -0.1281 -0.0951 0.2309 0.2494 -0.2969 0.1971 -0.3373 -0.0519 -0.0235 -0.1984 -0.0471 -0.0886 -0.2364 -0.1005 -0.1552 0.2563 -0.0373 0.2457 -0.0718 -0.2381 0.1145 0.3197 0.0732 -0.0422 -0.1357 -0.2796 0.1265 0.074 -0.1665 -0.2155 -0.0956 0.1612 0.0887 0.1505 0.2981 -0.271 0.2383 0.0022 0.1517 -0.1106 0.2063 -0.063 0.153 -0.1021 -0.307 -0.0703 0.2888 -2.0E-4 -0.4354 0.0842 0.4914 -0.3344 0.3185 -0.1088 0.1301 0.1505 0.1819 0.1915 -0.0679 0.0777 -0.2441 0.0585 -0.3766 0.2686 0.2482 -0.3371 -0.0504 0.0596 0.0548 -0.3949 0.0499 -0.4015 -0.1729 -0.1783 -0.0419 0.3591 0.4197 -0.1501 -0.1764 0.2408 0.2231 -0.3462 -0.0103 -0.0606 -0.115 -0.1383 -0.2094 -0.4522 0.1054 -0.108 0.8647 -0.2695 0.2919 0.2878 0.209 -0.0606 -0.1414 -0.3396 0.1202 -0.0572 -0.0132 0.1674 0.1541 -0.1659 -0.0265 0.2601 0.0198 0.3649 -0.4416 0.0348 0.092 -0.0551 0.1038 0.0189 -0.125 -0.1921 0.0524 0.1854 -0.3817 -0.1158 0.2128 -0.1938 -0.1707 0.1878 0.2942 -0.004 -0.2331 -0.1432 -0.1258 -0.0185 0.0235 0.1215 -0.2163 0.1343 0.0738 0.014 0.1842 -0.1526 0.1321 -0.2329 -0.0546 0.6342 -0.0571 0.3185 -0.0187 -0.3826 -0.11 -0.0386 -0.1088 -0.1534 -0.1132 0.4796 0.0559 0.2735 0.1383 0.4158 0.1045 -0.0313 0.091 -0.0119 0.0546 0.0313 -0.2975 -0.0594 0.0699 -0.496 -0.3622 -0.2139 0.1267 -0.0021 0.1524 0.2522 0.0533 0.3368 -0.239 -0.0339 0.1287 0.0316 0.0716 -0.0427 -0.2785 0.4385 0.1304 0.3156 0.4435 -0.2249 0.0598 0.0999 0.2869 -0.1248 -0.174 -0.0109 0.0671 -0.0714 -0.0732 -0.0102 0.2234 0.4155 0.0548 -0.1764 0.3162 0.0569 -0.0894 -0.0807 -0.0684 -0.1236 0.0278 -0.2239 -0.22 -0.0412 0.1669 -0.1584 -0.2452 0.129 0.3274 0.1661 -0.0124 0.3619 0.3109 0.1819 0.0214 0.0592 0.1742 -0.0048 -0.241 -0.1037 0.0042 0.3313 0.2463 0.2109
wine 0.3631 -0.336 -0.3888 -0.3182 0.2313 -0.379 -0.3665 0.349 0.1514 0.2423 0.0185 0.3506 -0.0667 -0.1483 0.0211 0.0146 0.2401 -0.1671 -0.3323 0.184 0.4003 0.0706 -0.3849 -0.1506 -0.7413 0.274 -0.0163 0.2798 0.0302 -0.1027 0.1707 -0.2014 0.2004 -0.3417 0.1719 -0.3567 0.6133 -0.3078 -0.0497 0.4744 -0.219 -0.378 0.0578 0.1133 0.2705 -5.0E-4 -0.0618 -0.1044 0.0536 -0.0167 0.0023 0.1304 0.5935 0.1221 0.3602 0.0342 0.2415 -0.2871 0.1773 -0.2907 -0.2276 -0.5406 -0.5188 -0.2091 0.1567 0.0414 0.0655 0.1577 0.1671 0.2192 0.1837 0.039 0.53 -0.0742 0.2511 0.1932 -0.3266 0.0207 0.1758 0.3048 0.2713 -0.3315 -0.7034 -0.0721 0.021 0.279 -0.234 -0.0502 0.2782 -0.1349 0.4403 0.1336 -0.1958 -0.0829 0.1367 0.2583 0.2307 -0.5293 -0.2128 0.1311 0.7604 0.4387 0.0841 -0.4039 0.204 -0.0879 0.1025 0.1246 -0.0684 0.0772 0.1693 -0.2646 0.1181 0.1244 -0.4725 0.1701 0.0929 -0.1426 -0.3139 0.2049 0.0189 0.0419 -0.1691 -0.3446 -0.2181 0.2481 -0.2487 -0.013 0.0393 0.0582 0.2393 -0.1413 -0.0757 0.1069 -0.1524 -0.0689 0.3402 -0.3384 -0.1846 -0.3236 -0.2172 0.2738 -0.078 -0.068 -0.0475 0.2835 0.3549 0.0992 0.2171 -0.1221 0.116 0.2837 -0.1154 -0.4124 -0.4834 -0.0932 -0.0426 -0.0226 0.0157 -0.1105 0.5585 -0.1163 0.1012 0.1639 0.8042 -0.3632 0.083 0.3075 -0.0785 0.2849 0.0871 -0.1042 -0.0377 0.0465 0.2524 0.226 -0.2516 0.2577 0.1537 0.1242 0.1764 -0.3724 0.2543 -0.065 0.2984 0.0891 -0.4611 0.1614 -0.0916 -0.0594 0.2391 0.0278 -0.263 0.2755 -0.2425 -0.0245 0.2297 0.1983 0.2448 -0.015 -0.1351 -0.28 0.0752 0.0223 -0.2306 0.0231 -0.1059 -0.428 0.1282 0.5236 0.1632 0.5335 -0.2476 0.4738 -0.2646 -0.4003 0.2354 0.4066 0.0297 -0.5357 0.079 0.4089 -0.2384 -0.1742 0.2327 -0.0749 -0.0392 -0.0846 -0.0946 0.189 0.0089 -0.1872 -0.0956 -0.084 -0.3054 -0.3819 0.1253 -0.191 -0.5285 0.1558 -0.0765 0.3689 -0.1627 0.2892 0.1621 0.3755 0.2652 0.1781 0.2618 -0.0098 0.0179 0.0099 0.0348 0.4884 -0.024 0.0711 -0.3997 -0.1385 0.0822 0.2492 0.1385 0.2797 -0.1 -0.4142 -0.1599 0.1813 -0.11 -0.0412 0.0693 0.088 0.1378 0.0249 0.3251 -0.022 -0.0845 -2.0E-4 0.0703 0.1867 -0.3282 -0.2855 0.0431 0.2085 -0.0888 -0.0258 0.1403 0.219 0.1045 -0.5503 0.2058 -0.0646 -0.0898 -0.064 -0.0864 -0.1361 -0.5276 0.5426 0.5588 -0.2699 0.2931 0.2623
object 0.0585 0.4147 -0.5854 -0.1054 -0.2072 -0.056 -0.0613 0.2902 -0.0779 -0.1065 0.2585 0.3393 -0.0867 -0.342 -0.1201 0.2279 -0.1383 -0.1124 -0.2727 -0.0709 0.5994 -0.0144 0.0046 -0.0102 -0.3394 0.2132 0.1878 0.2177 -0.0089 -0.0623 -0.1162 -0.2376 0.0213 0.0241 -0.3069 -0.1452 0.0258 0.3014 0.0086 -0.0995 -0.2147 -0.1816 0.1291 0.1794 0.0071 -0.0066 -0.0459 -0.2256 -0.0707 -0.0557 0.2988 0.005 0.2184 -0.1389 0.0016 -0.1891 0.3385 -0.1754 -0.1637 0.1165 0.2311 0.0053 0.5987 -0.6707 -0.2798 0.2942 0.2624 -0.5462 -0.2166 -0.2623 0.1648 -0.1278 -0.0536 -0.1304 0.0056 0.1062 -0.1967 -0.121 0.2341 0.3608 0.3126 -0.3239 -0.054 -0.3201 -0.2563 -0.0794 0.0091 0.1324 -0.0912 0.1447 -0.0898 7.0E-4 -0.249 -0.0792 -0.0123 -0.03 0.1471 0.261 0.0059 0.2137 -0.0539 -0.029 0.1904 -0.0106 -0.092 -0.0456 -0.1729 -0.1863 0.2213 0.2541 -0.1103 -0.099 -0.3291 -0.2711 -0.3581 -0.0192 0.0272 0.2184 0.2595 -0.0824 -0.4343 -0.1753 -0.0888 0.0441 0.2473 0.1676 0.0423 -0.2927 -0.1251 -0.2939 -0.0529 -0.0089 -0.122 0.0308 0.1034 0.0708 0.0372 -0.4657 0.2775 -0.217 0.2014 -0.3451 -0.1726 0.0534 -0.157 -0.204 -0.2412 -0.2712 0.2 -0.0305 0.1593 -0.27 0.1147 0.3063 -0.2915 -0.1276 0.0447 -0.1128 0.0245 0.1784 0.7359 0.3185 0.0967 -0.0397 0.0432 -0.2158 -0.2633 0.3573 -0.0725 0.3875 -0.2644 -0.2356 0.3624 -0.0627 -0.2532 0.0221 0.0215 -0.0445 0.1911 -0.5327 0.1714 0.092 -0.0302 -0.2464 -0.1594 0.1187 0.2063 0.0168 0.202 0.3454 -0.0159 0.2384 -0.3937 -0.0912 0.2455 0.2155 0.1465 0.4878 0.1335 -0.3998 0.0489 0.1223 0.4424 -0.3208 0.3117 -0.1851 0.1517 0.5336 0.2171 0.0482 -0.2019 0.5733 -0.0085 0.0722 0.0672 -0.1937 -0.4758 0.2368 -0.0286 0.1919 -0.1498 0.4114 -0.1022 -0.0475 -0.1552 -0.1396 0.1791 0.0603 -0.2196 -0.1211 0.0198 -0.064 -0.0097 0.138 -0.079 -0.5175 0.1257 -0.4488 0.1133 -0.0902 -0.2597 0.2476 0.0472 -0.1422 -0.1396 -0.049 0.164 -0.062 0.222 0.251 0.3295 -0.2224 0.0424 -0.154 0.0276 -0.1853 0.4992 0.2221 0.084 0.0246 -0.1993 0.1954 -0.0705 0.2106 -0.0504 0.0368 0.0467 0.3904 0.0618 0.3829 -0.0998 -0.0261 0.1361 0.1649 -0.2504 0.3089 -0.2008 0.092 0.2057 0.0476 -0.1498 -0.0319 0.274 -0.0216 0.0549 0.0477 -0.1365 -0.0858 0.1826 0.0329 -0.1216 -0.0128 0.1715 -0.21 0.4832 0.2017 -0.0802 -0.2184 -0.0712 0.151
attitude 0.0392 0.3032 0.2036 -0.1571 -0.0795 -0.0616 -0.3061 0.1023 -0.3713 -0.0545 0.0191 0.0929 -0.1746 0.0935 0.091 0.0066 0.139 -0.1325 0.0203 -0.061 0.0306 -0.2095 0.2545 -0.2517 -0.2019 -0.1612 0.4635 -0.0524 -0.0185 0.2596 0.0272 -0.1207 0.0998 -0.476 0.3654 -0.3045 -0.1228 -0.0694 0.2451 0.3138 -0.2385 -0.1757 0.0803 0.0983 -0.447 0.1515 0.2158 -0.2515 -0.0567 -0.2086 -0.0042 0.1688 0.1216 0.2341 -0.0364 -0.2392 -0.1382 -0.1125 0.1553 0.3062 0.0513 0.4817 0.2696 0.0885 -0.0613 -0.0647 0.1925 0.1674 0.2183 -0.3496 0.1898 0.1478 0.1225 0.2603 0.1372 0.1752 -0.2104 -0.3489 0.1895 -0.522 -0.141 -0.3143 -0.1244 -0.0251 0.0109 -0.0972 0.0092 -0.1161 -0.0989 0.0254 -0.1738 0.4762 -0.0695 0.0932 -0.0209 -0.0138 0.2207 0.1035 -0.0058 -0.2105 -0.0203 -0.0297 -0.0273 0.0368 -0.0065 0.3813 -0.2209 -0.1095 -0.1401 -0.272 0.1901 -0.2168 -0.2644 0.1152 -0.3285 -0.1271 0.1015 0.0531 -0.0046 -0.7966 0.0021 0.0758 0.1205 0.1897 -0.0522 0.152 0.287 0.5484 0.0986 -0.1926 0.0949 -0.2946 0.3233 0.1223 0.1753 -0.052 -0.2874 -0.1073 0.1303 -0.0533 0.05 -0.333 0.2522 0.3566 0.0181 0.065 -0.2951 0.0918 0.1775 -0.2052 0.1834 -0.2033 -0.1494 0.1368 -0.0227 0.3386 0.0473 0.3176 -0.2869 0.2523 0.7146 0.3577 -0.1368 0.029 0.1172 0.0 0.0025 -0.0147 0.3214 -0.2582 -0.0144 -0.0766 0.4068 0.1153 0.1921 -0.3009 -0.1343 0.1438 0.1626 0.1181 0.108 0.2381 0.0601 -0.1071 -0.0634 0.3371 -0.2586 -0.0508 0.0446 0.0829 -0.0456 -0.522 -0.2671 -0.1106 0.2212 0.0139 -0.3019 0.0167 -0.3449 0.3066 -0.3017 0.3592 -0.2432 0.0875 -0.0772 -0.016 -0.1677 -0.4193 0.4538 -0.358 -0.1294 0.7208 -0.2571 -0.3648 0.0666 -0.4289 -0.0198 -0.2729 0.1274 -0.3041 0.076 0.5316 -0.1824 0.2632 0.0169 0.2872 -0.0992 0.0866 0.1157 -0.0045 0.0331 0.1424 -0.1656 0.0432 -0.1676 -0.5273 -0.0148 -0.1009 0.0869 0.1417 0.0221 0.0901 -0.102 -0.0468 -0.2002 0.1537 0.2271 0.0765 0.1273 0.1744 -0.0463 0.0811 -0.2806 0.014 -0.0401 -0.1104 0.2436 0.0844 0.0991 0.2249 -0.259 0.2694 0.287 0.0626 -0.1953 0.0558 -0.3845 0.1466 0.1959 -0.1144 -0.2952 -0.0769 -0.2524 0.3507 -0.097 0.0305 -0.091 0.3568 -0.1103 -0.1678 -0.1889 -0.3034 0.0363 0.0035 0.2707 0.0383 -0.2457 -0.1808 0.0838 0.0082 0.4099 0.0618 -0.0813 -0.1287 -0.1709 0.2709 0.1064 0.4973 -0.2288 0.1551
treatment 0.3432 0.1092 0.3339 0.0537 -0.5037 -0.0195 -0.338 0.3386 -0.132 -0.2534 -0.5563 0.3023 0.077 0.0822 -0.166 0.099 0.472 -0.0559 -0.0175 0.1072 0.0471 0.0196 -0.2662 -0.1676 0.0324 -0.2591 -0.1407 0.0601 -0.1923 0.1091 0.0316 -0.1654 0.1604 -0.272 -0.1313 0.3986 0.1193 -0.2951 -0.1005 0.1471 -0.1202 0.1738 -0.3059 -0.0472 -0.1544 0.0796 -0.2675 -0.3922 -0.2624 -0.0662 -0.1611 -0.1044 0.2252 0.1809 -0.0483 -0.4374 0.14 -0.1679 0.198 0.1448 -0.0673 -0.1768 0.3218 -0.3692 -0.1239 -0.2037 -0.1418 -0.1226 0.0451 -0.071 -0.056 0.085 -0.4439 0.135 0.1229 0.2326 -0.285 0.1947 0.1519 0.0654 -0.1633 0.1382 -0.2122 0.3659 -0.2988 -0.0171 0.2752 -0.0287 -0.2626 0.0111 0.016 0.4783 0.2787 0.1429 -0.1716 0.0061 0.2813 -9.0E-4 -0.1541 -0.1403 -0.081 -0.291 0.157 -0.0582 -0.2215 0.1684 0.1633 -0.2372 -0.0216 0.2911 -0.2818 -0.116 -0.1532 0.1532 -0.2509 0.0407 0.0243 0.3002 0.1119 -0.0796 0.0075 -0.2241 -0.0774 -0.1279 -0.0326 -0.2156 0.0615 0.2793 0.3821 -0.0096 -0.2679 0.148 0.0353 0.066 0.0427 -0.1242 -0.3016 0.086 -0.1029 -0.3543 0.2697 0.051 -0.005 -0.0155 0.1539 0.3097 -0.2279 -0.0918 0.1171 0.1883 -0.009 0.0833 0.0859 -0.1179 -0.0512 -0.237 -0.0566 -0.0149 -0.2395 0.1972 0.722 -0.0562 0.3482 -0.2504 0.0438 0.1079 -0.0218 -0.1365 0.114 0.3411 -0.1675 -0.0279 -0.392 0.0198 0.1016 -0.397 -0.0229 -0.0595 -0.2472 0.0193 -0.2441 -8.0E-4 0.1237 0.0177 0.2597 -0.0865 -0.48 -0.0658 0.1789 0.2208 -0.054 -0.0819 -0.0619 0.0405 -0.2243 -0.0896 0.1931 -0.0595 0.0326 0.1876 0.009 0.0156 -0.1555 0.1767 -0.1638 0.2855 0.34 -0.0947 0.0756 -0.1957 -0.0849 0.6848 0.2747 -0.0746 0.0913 0.133 -0.1568 -0.0439 0.2064 -0.238 0.202 0.2748 0.1217 -0.1187 -0.1035 0.2229 0.2098 0.2939 0.0503 -0.4675 -0.1455 0.3451 -0.0879 0.278 0.3586 -0.0388 0.1068 0.2284 -0.0573 0.1153 0.0763 0.2112 -0.4774 -0.0531 -0.0913 0.058 0.3982 -0.0148 0.1874 -0.5046 -0.1789 0.1664 -0.305 0.0013 0.2391 -0.2686 0.1937 -0.132 0.0457 0.1962 -0.1465 -0.2338 0.0399 -0.0054 -0.4704 -0.1514 0.0804 0.1588 0.2721 -0.0283 0.0212 0.1077 0.0088 0.1038 0.0113 -0.0081 -0.1323 -0.1957 -0.173 0.2737 -0.1291 0.2031 0.0892 0.161 0.1877 -0.0128 -0.0335 -0.0596 0.0576 -0.0175 0.1718 -0.1813 -0.1967 -0.2427 0.1999 0.1539 -0.2589 0.1175 -0.0336 0.2525
flight 0.1551 -0.2167 0.1802 -0.1562 -0.0391 -0.0634 -0.0417 0.1489 -0.1131 -0.5364 0.0414 0.2528 0.191 0.0748 -0.1884 -0.2702 -0.0975 0.0074 0.0585 0.0525 0.1861 0.0664 -0.1098 0.5171 -0.0653 -0.3896 -0.3489 -0.2275 0.0492 0.03 0.4423 0.2665 0.169 -0.2285 0.5088 0.1667 -0.0084 0.043 -0.2088 0.0913 -0.0697 -0.013 -0.1769 -0.1677 0.1867 0.0085 0.3219 0.1417 0.2203 0.0198 0.2066 0.025 0.3241 -0.2252 0.1907 -0.1363 0.3119 -0.6387 0.1135 0.1537 0.3316 0.0772 0.0288 -0.1612 0.3405 -0.6236 -0.2621 -0.0343 0.1477 0.1796 0.0023 -0.0586 -0.2067 -0.0981 0.1196 0.1682 -0.1311 0.1514 0.0147 0.0351 -0.1176 -0.2683 -0.3813 -0.4573 0.1188 0.2003 0.1677 0.1783 -0.0996 0.0292 -0.2603 0.3176 -0.157 0.0788 0.0161 -0.2438 0.3283 -0.2774 0.1921 0.1555 -0.0367 -0.0542 0.0513 -0.1667 -0.5362 0.3133 0.0723 0.3515 0.2618 -0.238 0.0435 -0.1141 -0.0278 0.0218 -0.1778 0.0874 0.2244 -0.5887 -0.1317 0.592 0.16 -0.0341 0.0898 0.4153 -0.153 0.006 0.1218 -0.0419 0.2126 0.1402 -0.0147 0.0508 -0.0367 0.2828 0.2754 -0.1719 -0.4253 -0.5675 0.1381 -0.4524 -0.4525 0.2068 0.0249 -0.0785 0.2092 -0.5258 -0.2135 -0.1835 -0.1671 -0.0181 -0.3343 -0.2286 -0.2318 -0.1706 -0.1388 0.2614 0.2268 -0.1345 0.3066 -0.0202 0.6002 -0.0719 -0.0992 -0.1511 0.1915 0.1396 -0.0141 0.1218 0.4035 -0.0569 -0.0168 0.1763 -0.0336 0.3102 -0.2866 0.2564 0.3967 0.246 -0.0984 -0.1042 -0.0925 0.0334 -0.1289 -0.0533 0.1157 0.4141 -0.104 -0.3156 0.1437 0.0382 -0.0022 0.2323 -0.0311 -0.0763 0.0435 -0.046 0.1477 -0.0471 0.2882 0.0967 -0.1216 0.8047 0.4846 0.2895 0.0243 -0.2649 0.247 -0.6756 -0.1337 -0.0209 -0.1197 0.7744 0.0291 -0.0802 0.239 -0.13 -0.0831 -0.2981 0.1942 -0.0734 -0.1001 0.3561 -0.3094 0.2033 0.1728 -0.0574 0.4246 0.2532 -0.4617 -0.4581 -0.1434 0.2901 0.1965 -0.5603 0.2045 -0.2265 0.2297 -0.4839 -0.0233 0.023 -0.1901 0.4888 0.3714 -0.0455 0.1453 -0.006 0.3146 -0.2787 -0.0671 0.309 0.603 -0.067 0.1591 -0.1108 -0.0224 0.2281 0.2197 0.244 -0.2022 -0.0332 -0.0871 -0.385 0.1331 0.1486 -0.0417 0.1906 -0.1645 -0.0061 0.0768 -0.3829 0.4031 0.3106 0.2295 0.0807 -0.4266 -0.0861 -0.0015 0.2362 -8.0E-4 -0.0175 0.1303 0.2885 -0.1734 0.4165 0.2009 -0.1158 -0.0197 -0.1295 0.2229 -0.0572 0.2998 -0.0288 0.174 -0.2155 0.1137 0.2143 -0.1585 0.1111 0.1102 0.3662
forest -0.1505 -0.2803 -0.3615 -0.1654 -0.4617 -0.3681 -0.1847 0.1619 0.1807 0.3643 -0.002 0.2416 -0.1985 -0.2151 -0.0754 -0.3007 -0.291 0.2778 0.1277 -0.1506 0.0985 -0.1794 0.3458 -0.1239 0.2503 0.0515 -1.0E-4 -0.0923 0.0564 -0.4766 -0.1476 -0.1565 0.1644 -0.3069 -0.1393 0.0783 -0.2898 0.0525 -0.5092 -0.0829 0.2803 -0.3631 -0.375 -0.0952 -0.1061 -0.5087 -0.1925 -0.1339 0.1699 -0.0496 0.2063 0.2238 0.4519 0.1317 0.4872 0.0437 -0.0391 -0.0737 0.074 -0.091 -0.145 -0.0974 -0.1219 -0.1162 -0.1521 0.044 -0.1922 -0.3746 -0.107 -0.4188 -0.0169 -0.0047 0.2519 -0.1137 -0.0782 -0.3792 -0.2138 -0.1401 -0.0761 0.027 0.2649 0.3496 0.0068 -0.0704 -0.0986 -0.0183 0.4349 -0.1261 0.0891 0.1796 0.3568 0.2062 0.1742 -0.2226 0.0945 -0.0841 0.208 -0.3102 0.189 -0.1181 -0.4864 0.2604 -0.1306 0.0058 -0.3432 0.191 -0.2716 -0.0912 -0.0599 -0.1254 -0.0938 -0.2509 0.1768 -0.0454 -0.519 0.0049 0.3113 -0.2056 0.2927 0.2728 0.2574 0.1148 -0.1728 -0.0059 -0.3371 0.0325 -0.0194 -0.0802 0.0176 0.0343 0.4255 0.3367 0.4846 0.1779 0.2943 0.1722 0.1662 -0.4573 -0.2162 -0.2406 -0.0395 0.015 0.0616 0.3778 0.1487 -0.3838 0.0221 0.3235 0.2375 0.0017 0.221 0.0766 -0.0414 0.019 -0.1919 -0.4015 -0.1104 0.0029 -0.448 -0.2793 0.4641 -0.2615 0.3599 -0.1013 -0.1024 -0.3105 0.3378 0.1759 -0.167 -0.2267 -0.2037 0.2394 -0.4361 -0.0465 0.2479 0.3478 -0.4568 0.1033 0.0034 -0.0201 -0.1711 0.1266 -0.2465 0.2502 0.3273 -0.5569 0.1834 0.3139 0.1542 0.248 0.03 0.4909 -0.0948 -0.1669 -0.0346 0.3196 0.2874 -0.0661 0.7057 -0.2572 -0.3865 0.2069 0.1031 7.0E-4 -0.1822 0.2635 0.1356 0.1586 0.3867 0.1282 0.0207 0.5872 0.0288 0.2806 0.2399 0.1293 -0.1429 0.2731 0.0294 -0.4839 -0.0434 0.5261 -0.4281 -0.0604 0.1384 0.0927 0.1009 -0.0562 -0.0088 0.3136 -0.6008 -0.1457 -0.1448 0.3271 0.3021 -0.5517 -0.2291 0.2769 0.533 -0.5343 -0.2244 -0.1068 0.2327 0.0519 0.113 0.1597 0.1484 -0.2555 -0.1025 -0.0205 -0.2378 0.0416 0.2076 -0.0015 0.2428 -0.077 -0.0033 0.2361 0.1297 -0.2203 -0.244 0.3409 -0.1561 0.2713 0.3329 0.0081 0.2987 -0.1502 -0.4068 -0.1365 0.0463 0.1536 -0.0147 -0.0303 0.1361 0.2326 -0.0959 0.113 -0.1971 -0.1842 0.0075 0.3027 0.3858 0.0987 -0.1636 -0.0764 -0.0653 0.4137 0.4196 -0.1794 0.3227 -0.4892 0.2546 0.1393 -0.0221 0.45 -0.2081 -0.1521 0.2809 0.0858
abuse -0.0513 -0.3706 -0.0268 -0.1556 0.0102 0.156 -0.4935 0.4289 -0.5581 0.0258 -0.2065 0.1361 0.2133 0.0787 -0.1768 -0.0252 -0.1356 0.1369 0.3192 0.0149 -0.2243 -0.1416 -0.3403 0.0331 -0.2429 -0.3556 -0.1978 0.3365 0.2695 0.127 0.0235 -0.4509 0.6652 0.2322 0.1248 0.0056 -0.389 -0.1202 0.3246 0.0416 -0.2882 0.1117 0.2027 0.0616 0.1332 -0.3606 -0.1471 -0.4107 -0.1485 -0.0965 -0.0461 0.0034 0.344 0.2014 -0.2036 -0.2386 -0.0278 -0.068 0.1659 0.087 0.023 0.2744 -0.3072 -0.1387 0.1671 -0.1143 0.4902 0.1208 -0.2933 0.3579 0.1848 -0.1585 0.1261 -0.1893 0.4171 0.6178 -0.3106 0.4796 0.092 0.3434 -0.1525 0.0935 0.0422 0.3376 0.0216 0.1038 -0.2327 0.313 0.1622 -0.0939 -0.0809 0.299 0.0169 0.3955 0.0036 -7.0E-4 0.2141 -0.0884 0.1833 -0.289 -0.544 -0.0349 -0.1046 0.0479 -0.1536 0.3391 0.391 -0.1265 -0.0711 -0.0287 -0.4567 0.1158 0.1556 -0.0523 -0.5488 -0.1983 0.2101 -0.0574 0.0702 0.2048 -0.077 -0.1196 0.1479 0.1061 0.0051 -0.1083 0.0079 -0.3686 0.4306 0.0453 0.1927 0.1493 0.0408 0.3798 0.2027 -0.1089 0.0414 -0.2722 0.235 -0.4875 0.0719 -0.2971 0.4052 0.646 -0.2535 0.4441 0.035 0.0672 0.1046 0.2363 0.408 0.0732 0.4538 0.373 0.1342 -0.1932 -0.3271 0.1405 -0.1374 0.1085 0.47 -0.1535 -0.0647 0.0869 -0.0057 0.3631 -0.0273 0.0315 0.3825 0.311 0.1248 0.078 -0.1659 -0.4706 0.2247 -0.1821 -0.0709 0.119 0.0855 -0.15 -0.2565 0.1022 -0.2637 -0.0611 -0.0753 0.1525 -0.334 -0.1528 -0.2354 0.218 -0.0451 0.2139 -0.3328 0.1555 -0.3583 -0.143 -0.0688 -0.0482 -0.5407 -0.702 0.5257 0.2479 -0.2151 0.1319 -0.2168 0.1688 0.1251 0.1301 0.1141 -0.2313 -0.0833 0.5663 0.499 -0.1247 0.2157 -0.2038 0.1818 0.0845 -0.2096 -0.0682 -0.1611 0.5262 0.2375 -0.2558 0.1625 0.4835 -0.0557 0.1131 -0.1998 0.1753 0.2234 0.4973 0.158 0.3002 -0.3845 -0.3859 -0.1777 0.0791 -0.3999 -0.1592 0.0209 0.2656 0.1112 -0.1277 0.1056 -0.1921 0.3655 -0.1357 -0.0911 0.1398 -0.0383 0.24 0.207 -0.2829 0.2128 0.0338 0.1806 -0.1243 0.1049 -0.0474 -0.2417 0.203 0.1662 0.3173 -0.2223 0.0914 0.1882 0.0093 -0.4275 -0.0046 0.0558 -0.1545 -0.3704 0.0289 0.0184 -0.0245 -0.1858 -0.0361 0.0533 0.073 -0.5291 0.1349 0.1326 0.3591 -0.3528 -0.1183 -0.0741 -0.398 -0.0742 0.094 -0.265 -0.2773 -0.0938 -0.0531 -0.1718 0.1471 0.0464 -0.4926 -0.2262 0.36
criterion 0.2816 0.311 -0.2905 -0.2883 -0.2833 -0.2859 0.0889 0.0379 -0.4023 0.2516 -0.046 0.4717 0.1543 0.0803 -0.2182 -0.0278 0.4516 0.0462 -0.1015 0.2836 0.0687 0.0093 0.1631 -0.0923 -0.384 0.3475 0.3902 -0.0805 0.1622 -0.0407 0.038 -0.0845 0.148 0.1432 -0.939 -0.0719 -0.0368 0.0026 -0.2695 -0.099 0.251 -0.0549 -0.3901 -0.0646 -0.2316 0.1147 0.2174 0.3973 0.019 -0.0776 -0.1651 -0.2053 0.0048 0.0221 -0.0084 -0.2131 -0.1618 -0.0119 0.4765 -0.0361 0.1425 0.1244 -0.019 -0.5605 -0.2307 0.4001 0.1688 0.2732 -0.1774 -0.5596 -0.1959 -0.1666 -0.2937 -0.0403 -0.1509 0.5041 -0.2934 0.0316 0.294 0.1324 0.2618 0.0841 -0.3386 -0.4149 0.2174 0.0636 -0.0248 0.0861 -0.0545 -0.0455 0.196 0.0836 0.1397 -0.3424 0.019 -0.1501 0.1614 0.0026 -0.6159 -0.0405 0.0257 -0.0031 0.2386 -0.2798 0.0842 0.317 -0.0543 0.0749 0.0993 0.5682 0.2043 0.0677 0.0214 -0.0839 -0.3388 0.1149 -0.2588 0.1528 -0.0047 0.0931 -0.2065 -0.0983 0.0635 -0.2509 -0.379 0.047 -0.2691 0.4547 -0.2646 -0.1381 0.4166 -0.1303 0.0936 0.1216 0.1595 0.1289 -0.5278 0.0453 0.1185 -0.2362 0.5498 -0.1084 1.0E-4 -0.1285 0.004 0.0778 -0.2471 -0.211 -0.3544 -0.3769 0.1079 -0.0719 0.0273 -0.2912 0.1707 0.0942 -0.1757 0.1331 0.3684 -0.3135 0.8469 0.1573 -0.017 0.0484 0.2836 0.3108 -0.2158 0.1286 0.0993 0.0461 0.0585 0.1582 0.2584 -0.3321 0.1659 -0.1007 -0.0043 0.1266 0.1064 0.1245 0.2192 -0.486 -0.1307 0.2067 0.1094 0.3537 -0.0971 0.0436 0.4421 -0.0315 -0.0628 0.3802 0.0138 0.2518 -0.0867 0.0768 -0.0982 0.0606 0.1501 0.1324 0.2892 0.3488 -0.148 0.1631 -0.1524 0.5915 -0.0233 0.1205 -0.0789 0.2865 -0.145 0.6382 0.1455 -0.1127 0.2173 0.3034 -0.4439 -0.229 -0.2132 -0.133 0.2866 0.2933 -0.2416 -0.0182 -0.1892 -0.0128 0.3257 0.1767 -0.2708 -0.375 0.0843 -0.4509 0.1122 0.0611 -0.3908 -0.7255 0.3029 0.1041 0.1068 0.3818 -0.1041 0.0966 0.0823 0.3271 -0.1816 -0.46 0.1157 -0.0889 0.2041 0.3358 -0.1032 -0.1741 -0.1817 -0.1021 0.0816 -0.2139 -0.1078 0.0278 0.1199 0.0647 0.0627 -0.032 0.1725 0.2916 0.1825 -0.3709 -0.1946 0.0026 0.1697 -0.0523 0.2046 -0.2263 0.0735 0.2843 0.1138 0.2578 -0.3262 0.2194 0.0357 -0.0375 -0.2262 0.1025 0.0936 0.1539 -0.0276 -0.1768 0.1365 0.4142 -0.2767 -0.1016 -0.3536 0.0889 -0.1813 -0.2525 -0.2229 -0.0983 0.0782 -0.3456 -0.0464 0.3672
sea 0.391 -0.1815 -0.1221 -0.1546 -0.3452 0.241 -0.317 -0.0328 0.2167 -0.0798 -0.0451 0.1723 -0.1101 0.2171 0.0109 -0.3994 -0.047 -0.1158 -0.0535 0.2074 0.1997 0.3096 0.2113 -0.4926 -0.0206 0.3745 -0.1566 0.2574 -0.0653 -0.3674 0.1922 0.3609 0.2106 -0.1115 0.1653 -0.0355 -0.1877 -0.0617 -0.027 0.15 0.037 -0.3089 -0.1767 -0.1484 -0.0434 -0.0218 -0.078 0.1721 0.2767 0.0236 -0.2189 0.0985 0.5914 -0.3531 0.1162 0.0301 0.3653 -0.0641 0.0637 0.2836 0.2311 -0.0774 0.2852 -0.1963 0.3563 0.1469 -0.3438 0.0578 -0.2311 -0.1382 -0.2179 0.4758 0.5981 0.1107 -0.1519 -0.0795 -0.3023 -0.1076 -0.1048 0.0312 0.2671 -0.0935 -0.0299 -0.0506 0.1715 0.0358 0.0873 0.071 -0.0421 0.2418 -0.0287 0.1302 0.2992 0.1128 -0.0826 0.0144 0.2436 -0.3043 0.2859 0.1409 -0.3296 -0.0577 -0.4148 0.0626 -0.1262 -0.0694 -0.4232 0.3559 0.0612 -0.2818 -0.1793 -0.0767 0.1027 0.0893 -0.6444 0.0239 0.3577 -0.2967 -0.0314 0.2012 0.0572 -0.1233 0.0472 0.1165 0.2799 0.053 -0.4042 -0.1691 -0.0276 -0.3377 -0.0611 -0.0622 0.0095 0.234 0.1199 -0.0013 0.2261 -0.0341 -0.2873 -0.2882 -0.2654 0.2085 -0.2204 0.3932 -0.0558 0.0349 -0.229 -0.1569 0.1038 0.2066 -0.156 -0.1771 -0.0622 0.0054 0.1148 -0.2393 -0.2211 -0.1506 0.0129 0.279 0.3466 -0.1398 0.2773 -0.2363 0.1756 -0.0025 -0.3968 -0.3003 0.0852 0.133 -0.3918 -0.0887 -0.094 0.4128 0.0792 -0.0879 0.1044 0.2166 0.2105 -0.0458 -0.1481 -0.0247 0.1931 -0.125 -0.036 -0.2314 -0.1452 0.0275 0.2248 -0.1179 0.0314 0.547 -0.0987 -0.0708 0.4114 0.0546 0.2739 0.1506 -0.2529 0.2577 -0.7783 -0.1619 0.1 0.0515 -0.0736 0.1097 -0.4427 -0.0704 0.1643 0.2199 -0.2345 0.5475 -0.4017 -0.2007 -0.2081 0.1158 0.34 -0.0305 0.2315 -0.1548 0.1722 0.4392 -0.2464 -0.2559 0.3476 -0.1165 0.1185 0.0784 0.0244 -0.2078 0.074 -0.1497 -0.3514 -0.1126 -0.0427 -0.3928 -0.0473 -0.3723 -0.2267 -0.3741 -0.2379 0.0438 0.257 -0.0378 0.2079 -0.1914 0.1798 -0.0887 -0.1321 -0.3601 -0.2971 -0.3547 0.0818 0.2162 -0.0707 -0.2221 0.2115 0.1913 -0.1266 0.1627 -0.1048 0.7492 0.1044 0.2007 -0.0107 0.0363 -0.0413 -0.0439 -0.4673 -0.183 -0.2786 0.0138 -0.2835 -0.0015 -0.0384 -0.1996 -0.0149 0.019 -0.5901 -0.1346 -0.2631 0.336 -0.2322 -0.0883 -0.1834 -0.0264 -0.0567 0.0493 0.093 -0.2018 -0.5151 -0.1092 0.2242 0.2613 0.0198 0.2959 0.2446 -0.1062 0.1093 0.2047
dollar 0.3763 0.4684 -0.1476 -0.6131 -0.0511 0.0067 -0.3407 0.1324 0.4603 -0.2811 0.1158 0.1887 0.44 -0.1809 0.2285 0.0014 -0.3565 -0.3701 -0.2221 -0.256 0.369 0.106 0.1568 0.019 0.2692 -0.148 -0.1754 0.2193 -0.4296 -0.1688 -0.4015 0.2407 -0.527 -0.056 0.0236 0.1981 -0.1443 0.0841 -0.2985 0.2158 -0.3407 0.034 0.3855 0.0763 -0.0883 -0.0594 0.0429 -0.0891 -0.233 0.0871 0.303 -0.0695 0.4173 0.353 0.1044 0.1976 0.1927 -0.4005 0.3691 -0.2384 0.0012 -0.1976 -0.0759 -0.5176 -0.1677 0.2708 0.5619 -0.0241 -0.354 -0.1082 -0.0053 -0.3555 0.3705 0.2437 -0.0772 0.5421 -0.5635 -0.118 -0.0794 -0.0394 0.1896 0.0554 0.1036 0.0108 0.1583 -0.1796 -0.2564 0.4091 -0.0899 0.1142 -0.3176 0.0309 -0.3962 -0.1716 0.1341 0.4947 0.3879 -0.2969 -0.3971 -0.1298 0.206 0.071 0.2343 0.2866 -0.1619 0.1521 0.0524 -0.0178 -0.0409 -0.2263 0.2098 0.3117 0.135 -0.0332 -0.2224 0.0726 -0.0079 -0.2802 0.4087 0.0432 0.2153 -0.0672 0.2006 0.264 0.3121 -0.2178 0.1017 0.2022 -0.1163 0.1064 0.3989 -0.0311 0.033 0.1898 0.0072 0.2774 0.2039 -0.2537 0.3354 -0.5391 -0.0968 0.4431 -0.049 -0.1937 0.0759 -0.3166 -0.0852 0.349 0.2373 -0.4286 0.1796 -0.0805 0.0577 -0.1196 0.1407 -0.0656 -0.0666 -0.1066 -0.005 0.1338 0.5417 0.1075 0.0065 0.0349 0.3624 -0.1449 0.4154 0.0824 0.3294 0.1125 0.0445 -0.0641 0.0269 0.0373 0.0112 -0.2648 -0.191 -0.4187 -0.0328 0.0185 -0.1842 0.2018 0.166 0.191 -0.0444 0.1216 0.1977 -0.14 0.0233 -0.1472 -0.0938 -0.0515 -0.2934 0.1682 -0.1851 -0.2148 0.0457 -0.2627 -0.2943 0.2239 0.2136 -0.1106 -0.1945 -0.0529 0.2496 -0.0752 -0.0861 0.0593 0.023 0.2478 0.1063 0.5814 0.1619 0.0701 0.0759 -0.1415 0.2007 -0.2355 0.0486 0.3289 0.0186 0.3991 0.2743 0.1534 0.1276 -0.0311 -0.4959 0.121 -0.2583 -0.135 -0.0334 -0.0247 -0.0867 -0.1893 -0.1273 -0.454 0.3987 -0.0156 0.063 -0.0298 -0.0626 -0.1943 -0.0533 0.1868 6.0E-4 -0.148 0.2907 -0.3453 -0.0096 0.256 -0.4061 -0.4836 0.007 -0.1446 0.0267 0.2158 0.0043 -0.2241 0.2421 -0.2023 0.0158 -0.1 -0.1536 -0.2509 0.0513 0.0945 0.0597 -0.1058 0.0022 -0.117 -0.0521 0.2403 0.3787 -0.251 -0.072 0.1341 0.2975 -0.0826 -0.359 0.1818 0.289 -0.205 -0.3326 -0.1398 0.2272 -0.3692 0.1539 0.2045 0.1741 0.1033 -0.5822 -0.1757 0.0767 -0.0975 -0.2663 0.2194 -0.5006 0.3907 -0.3225 0.0368
example -0.1056 0.2523 -0.184 -0.1325 -0.0891 -0.0279 0.4382 0.1572 0.0242 -0.155 0.0539 0.1405 -0.0499 -0.0725 -0.1442 -0.2427 -0.2467 -0.1676 -0.2258 0.1145 0.1867 -0.015 -0.1556 0.139 -0.2619 0.0011 0.1429 0.2356 0.0573 -0.2799 -0.1597 0.079 0.008 0.0541 -0.1872 -0.0458 0.1477 -0.1202 0.0026 0.2326 -0.1146 0.1605 -0.1858 -0.1702 -0.0464 -0.1796 0.1477 -0.0429 -0.022 -0.2391 0.0056 -0.1885 -0.2233 -0.0668 -0.0852 -6.0E-4 -0.2186 -0.053 0.1546 -0.0163 -0.1075 0.2971 -0.0863 0.0774 0.1189 0.0612 0.1025 0.0866 0.1508 -0.0333 -0.2071 -0.1978 -0.1871 -0.187 -0.1778 0.1895 -0.1516 0.1479 0.28 0.337 0.0188 0.0739 0.1051 -0.0135 0.0147 0.1253 0.1239 0.2251 -0.1272 -0.048 -0.1128 0.3316 0.1138 -0.0139 0.0392 0.3421 0.1718 -0.0583 -0.0738 -0.059 -0.1665 -0.0146 -0.3829 -0.0339 0.1551 0.0868 -0.376 -0.0392 0.0517 -0.0194 0.1058 -0.0167 -0.0369 0.1013 -0.2271 0.268 -0.0384 -0.0226 0.3803 -0.12 -0.2161 0.058 -0.0224 -0.1198 -0.0562 0.0239 0.2231 0.0045 0.2165 -0.1334 0.1333 -0.2118 0.0721 0.2933 0.1271 -0.1304 -0.5235 -0.2185 0.0508 -0.243 0.0703 -0.3818 0.136 -0.0805 0.0275 -0.2655 0.0743 -0.0458 -0.0909 -0.2655 0.2215 0.019 0.1956 0.0696 0.1183 0.0304 -0.5163 -0.0799 0.1652 -0.1009 0.7673 -0.1544 0.0511 0.127 -0.0616 -0.0087 -0.221 0.036 0.2512 0.0448 -0.018 -0.095 0.2462 -0.0842 -0.0917 0.1549 -0.0542 -0.0409 0.3594 -0.1142 0.1036 -0.0703 -0.1812 0.038 -0.0265 0.1749 -0.5063 0.0838 0.0387 0.1112 -0.1889 -0.0974 -0.0478 0.0121 0.0559 -0.1628 0.1524 0.0932 -0.1289 0.0954 0.3195 -0.1119 0.0637 0.0347 0.191 -0.2129 -0.1918 -0.0143 0.0978 -0.1151 0.0967 0.5941 0.217 0.0482 0.3451 0.0801 0.1599 0.15 0.0774 0.2058 -0.0334 0.4152 0.0395 -0.0786 -0.1525 0.0191 -0.1402 0.0873 0.1543 0.0127 0.1891 0.2269 0.0479 0.0747 0.0695 -0.2453 0.1525 -0.2954 0.08 0.0291 0.0378 0.0166 0.2003 -0.0392 -0.5112 0.2024 -0.2415 0.0439 0.0396 -0.0136 0.0913 0.3419 0.0545 -0.014 0.2154 -0.2844 0.1607 -0.0083 -0.1258 -0.1034 -0.1696 0.0196 0.0451 -0.1315 0.2994 -0.1407 -0.0192 0.0633 0.5061 0.1222 -0.0747 0.1466 0.0712 0.0966 -0.0197 0.0404 0.1822 0.0637 -0.2285 0.1215 -0.3014 0.4245 0.0336 -0.1663 -0.1534 0.0611 -0.0052 -0.1118 0.2485 -0.2532 -0.0361 0.0384 0.0123 -0.3058 0.0191 -0.3069 0.2145 0.0708 0.1737 -0.1672
journal 0.4171 0.3491 0.057 -0.1878 -0.1071 -0.1531 0.3838 0.107 -0.3028 0.1778 -0.1748 0.315 -0.1007 -0.0935 0.0481 0.0752 0.167 0.3052 -0.2345 -0.0941 0.1067 -0.2311 -0.1717 0.1286 0.3164 0.0549 -0.4355 -0.2197 -0.4791 -0.1001 -0.218 0.2028 -0.0283 -0.2125 -0.2003 -0.2744 0.0874 -0.3286 0.1087 -0.247 -0.0697 -0.2922 0.1795 0.007 -0.6219 0.0394 0.2721 0.1974 -0.3854 -0.0302 -0.2787 0.3013 0.1362 -0.2347 -0.1842 0.1618 -0.0036 -0.3451 -0.2603 0.3477 -0.1779 -0.1213 0.2309 0.1305 -0.1518 -0.0255 0.4379 -0.5082 -0.1436 0.5479 0.2529 0.2963 0.137 0.0188 -0.0578 -0.1198 -0.2641 -0.1393 0.1139 -0.0175 0.0596 -0.1727 -0.3964 0.1031 -0.1923 0.3069 0.0968 -0.288 -0.2113 -0.7125 0.1836 0.1974 0.0075 0.0528 -0.0504 0.1744 0.1964 -0.0042 0.0475 -0.0375 0.0115 -0.2204 -0.4246 0.3964 -0.0489 0.1785 0.12 0.0979 -0.2387 -0.3123 0.2131 -0.2887 0.2158 -0.0554 -0.3779 -0.3604 -0.1343 -0.209 -0.1629 0.3549 0.2949 -0.3386 -0.2299 0.1061 -0.1531 -0.3404 0.1839 0.1581 -0.033 0.0976 0.086 0.2378 -0.1524 0.1027 -0.0606 0.0559 0.1637 -0.2014 0.2114 -0.2734 -0.1839 0.1393 0.2395 0.0517 -0.1151 0.0909 -0.484 0.054 -0.4769 -0.1249 0.4729 -0.2145 0.1599 0.091 0.0709 0.0282 0.1452 0.0507 -0.1845 -0.0983 0.7005 -0.024 0.0803 0.04 -0.4689 0.035 0.1604 0.4483 0.2524 0.1952 0.4282 0.0226 -0.0154 0.4378 -0.256 -0.272 -0.2309 0.2756 0.5952 -0.1691 0.1574 -0.2747 0.0183 0.0931 -0.7247 -0.1697 -0.1281 0.0554 -0.5455 0.0172 0.3529 0.0835 -0.1401 -0.4289 -0.1545 -0.0535 -0.222 -0.1637 0.4469 -0.4558 0.166 0.1836 0.1654 -0.6386 -0.0691 0.3509 0.1246 -0.0102 0.0961 0.1891 0.288 0.5429 -0.6623 -0.3869 0.2323 -0.4917 0.0738 0.0432 0.0458 -0.2912 0.0362 0.4701 0.2541 -0.2473 -0.3213 -0.0288 0.6039 0.1523 -0.24 0.0839 -0.458 -0.0895 0.2369 0.2674 0.1737 -0.5496 -0.133 0.3254 0.0868 0.0705 0.5622 0.1995 0.1654 0.0505 -0.1728 0.0296 0.2037 -0.0484 0.4336 -0.1244 0.1097 0.12 0.2563 0.4582 0.1082 0.3009 -0.3255 0.5858 0.1711 -0.1207 0.4174 0.1303 -0.1036 0.1457 0.2413 -0.1139 0.4153 -0.0344 -0.0391 -0.2337 -0.5712 0.0819 -0.3388 -0.1726 -0.2068 0.4595 -0.2784 -0.2398 0.0383 0.0116 -0.0094 -0.0099 0.1712 -0.1092 0.4271 -0.2801 -0.0792 -0.3267 0.3078 -0.1481 -0.2175 -0.1863 -0.1431 -0.3179 -0.1412 0.2474 5.0E-4 -0.2545 -0.0829 0.1298
laundering 0.6626 0.1159 -0.5211 -0.2277 -0.461 0.158 -0.311 0.5535 -0.1708 -0.3499 0.2488 0.6691 0.2483 -0.1896 -0.0819 0.1317 0.4508 -0.2858 0.5976 -0.1518 -0.3179 -0.3882 -0.6672 -0.1012 0.4232 -0.6082 -0.1388 0.1248 0.0775 0.1801 0.0817 0.2642 0.5633 -0.2751 0.1141 0.3966 -0.0526 -0.774 0.0844 0.3356 -0.1581 0.1457 0.4157 -0.0714 0.282 0.0429 -0.0949 0.1163 0.2959 0.0364 0.0934 -0.2314 0.6505 -0.3006 -0.7105 0.13 -0.6065 -0.1212 0.3121 -0.6719 0.2448 0.0225 0.0649 -0.4337 0.0242 -0.1096 0.4664 0.1042 -0.0353 0.8248 -0.0879 -0.3355 0.2293 0.4029 0.0469 0.3885 -0.5281 -0.0524 0.1072 -0.2212 -0.0732 0.365 1.0016 0.4746 0.011 -0.4086 -0.3586 0.428 0.3065 -0.4173 0.0514 0.2641 -0.3636 -0.3353 0.2733 0.1889 0.1895 -0.4999 -0.1982 -0.3064 0.408 -0.2424 -0.0671 0.3046 -0.116 0.0925 -0.2619 -0.0129 0.5279 0.226 0.0916 0.2254 -0.1672 -0.0148 -0.3047 -0.2574 -0.0822 0.0481 -0.0662 -0.2385 0.6745 0.0943 0.2488 0.0998 0.1694 0.4032 0.0901 -0.4307 0.6212 0.1124 0.3709 -0.0529 -0.0867 0.3695 -0.128 0.2405 -0.0741 0.1307 0.0803 -0.6995 0.4731 -0.0648 0.2175 -0.1413 -0.3639 0.1141 -0.4919 -0.4152 0.2948 0.2767 -0.1455 -0.157 0.1092 0.3455 0.3689 -0.5168 0.1277 0.307 0.1455 0.4225 0.635 -0.018 0.1314 0.4054 0.5226 0.1793 0.0378 -0.3642 0.3733 0.0273 -0.0883 0.4163 -0.2174 0.11 0.1265 -0.2454 0.2446 -0.1201 -0.017 0.2167 -0.1174 0.2407 0.13 -0.0842 0.1004 -0.234 -0.0661 -0.1285 0.0853 -0.0846 -0.2925 -0.0717 -0.828 0.0849 -0.0442 -0.5922 0.0864 0.456 0.512 -0.3928 0.4068 -0.3889 -0.5484 0.4267 0.9273 0.9223 0.0128 -0.2013 0.212 -0.0299 -0.4722 0.6807 -0.1635 0.2079 -0.0261 0.2298 0.256 -0.1158 -0.1687 -0.5266 0.2171 -0.0063 0.0815 0.2054 -0.2894 -0.0625 -0.1062 -0.6678 0.3716 -0.2812 0.1739 -0.3506 -0.0258 -0.3812 -0.0671 -2.0E-4 0.2975 0.278 0.0433 0.7632 0.3436 0.2097 -0.2866 -0.3364 0.5347 -0.3505 0.3264 -0.208 -0.0951 0.1238 -0.4808 0.3338 -0.0588 -0.0811 -0.1146 0.1303 0.0574 -0.1188 0.3362 0.36 0.2463 -0.3336 -0.4508 -0.5428 0.1723 0.3244 -0.0282 -0.1122 -0.3863 0.0088 0.1999 0.049 -0.3272 0.1876 -0.0104 0.0964 -0.1977 -0.5973 -0.0155 0.0326 -0.0167 0.362 -0.1206 -0.1869 0.1558 0.2532 0.5548 -0.6626 0.1518 -0.5754 0.0057 -0.4777 -0.0066 -0.2723 -0.1202 0.2146 -0.0196 0.0396 0.0578 0.449
hotel 0.4922 -0.2642 0.176 0.1615 0.0583 -0.185 0.1914 -0.1415 0.0902 -0.1948 -0.118 0.579 0.182 0.0801 -0.013 -0.408 0.2825 -0.0379 -0.1729 0.028 0.4525 -0.1685 -0.2665 -0.2392 -0.2498 -0.1422 -0.2445 -0.096 0.0476 -0.2405 0.0913 -0.0657 0.0776 -0.1446 0.2025 -0.1083 0.0406 -0.1167 -0.0605 -0.1004 0.0065 -0.3462 -0.2648 -0.0556 0.1296 -0.2376 -0.2062 -0.0642 -0.1126 0.1789 -0.1445 0.0505 0.391 0.1761 0.0291 -0.1883 0.1466 -0.3898 0.0661 -0.044 -0.1724 0.0184 0.3824 -0.1816 0.1259 -0.1699 0.1876 0.6606 0.2597 0.1055 0.0364 -0.3232 0.2502 0.1966 0.1646 -0.2052 -0.168 -0.2048 0.0177 -0.282 0.05 -0.6255 0.3783 -0.2252 0.3578 0.4061 -0.055 -0.2308 0.1491 -0.3321 0.216 0.1858 0.0744 0.2998 0.2268 0.2004 0.2421 0.0675 0.371 -0.2833 0.1558 -0.1703 0.145 0.191 -0.1678 0.4211 0.216 -0.0476 -0.0684 -0.3208 -0.0363 -0.2527 0.01 0.0974 -0.2182 0.0841 0.1543 -0.1978 0.0995 0.0332 0.0745 -0.0832 0.0615 0.3162 0.1956 0.2383 -0.2053 0.1416 -0.1138 -0.0886 0.005 -0.1174 0.2787 0.3237 0.0813 -0.0611 -0.0253 -0.2655 -0.2022 -0.4348 -0.0935 -0.0333 0.0643 0.0877 0.2562 -0.0872 -0.1648 0.0395 0.3882 -0.1918 0.1205 0.0157 -0.0337 0.1258 -0.2676 0.0779 -0.274 0.0219 -0.0507 0.1432 0.7175 0.0957 0.0518 -0.0576 0.2034 -0.0913 0.0228 -0.1712 0.09 0.1754 0.0418 0.2332 0.0518 0.0499 -0.3282 0.1104 0.1457 0.2918 -0.3471 0.2678 0.1944 -0.0608 -0.0075 0.1663 -0.1074 -0.1977 0.2468 0.2693 -0.1627 0.1035 0.0961 0.0751 -0.1996 0.0245 0.3743 0.1198 0.5033 0.2826 0.3315 -0.1634 -0.1791 0.1271 0.4359 -0.1504 -0.1412 0.375 0.3357 -0.1257 -0.2541 0.2533 -0.4007 0.7203 0.0529 -0.3203 -0.1809 0.1485 -0.0037 -0.017 0.1281 0.0523 0.2364 0.3608 0.5877 0.1478 0.0588 0.5537 0.1667 -0.0088 -0.0226 -0.3341 -0.1785 -0.1266 0.1551 -0.2717 0.3234 -0.5606 0.2037 -0.0509 0.0324 -0.1826 -0.1806 0.0627 0.1218 0.2354 -0.3049 0.1927 0.1967 -0.2933 -0.058 0.1727 -0.3261 -0.426 0.1322 -0.1675 0.3339 -0.2238 0.3237 -0.1277 -0.0097 -0.0519 0.0826 -0.5645 -0.0718 -0.3725 0.0722 -0.0678 -0.1076 -0.1531 -0.226 0.0136 0.1727 0.1174 0.2781 0.3258 0.2915 0.1307 -0.1432 -0.1113 0.0509 0.1094 0.2182 -0.0126 -0.107 0.0723 -0.1356 -0.0514 0.0998 0.0024 -0.1741 -0.4571 -0.2006 0.3977 -0.2433 0.0603 -0.2121 0.4789 0.0412 0.2251 0.0582 0.139
term -0.1234 0.2528 -0.1987 -0.1818 0.2073 -0.0233 0.0773 0.3267 -0.0645 0.0378 0.0709 0.1886 0.294 -0.1809 -0.0676 0.6062 0.078 0.1178 -0.1062 0.1626 -0.3035 0.0399 -0.2932 -0.1694 0.2464 -0.1491 0.1801 0.2231 0.0593 0.0602 -0.1729 -0.2076 -0.1902 -0.228 0.0629 -0.2034 0.2061 -0.377 0.4819 -0.1605 0.0424 0.0841 0.189 -0.0185 -0.4901 -0.0306 -0.0217 -0.4227 0.1024 -0.1499 -0.2725 0.0076 0.0059 -0.1641 0.2493 0.0623 0.1706 -0.4793 0.407 0.1522 -0.2618 -0.0251 -0.0193 -0.2074 0.177 0.3467 -0.0403 -0.0726 -0.1533 -0.1392 0.1609 -0.2193 0.0811 0.2469 -0.0511 0.4069 -0.2693 0.3968 0.2201 -0.1646 0.1386 0.1066 -0.0999 -0.2874 0.584 -0.5805 0.0326 -0.0469 0.1738 0.1061 0.154 0.3529 -0.2792 0.2883 -0.0355 -0.3669 0.3717 -0.1186 -0.1948 -0.2389 -0.179 0.0128 0.1967 -0.1144 -0.1947 0.024 0.058 0.0247 -0.0558 0.0431 -0.0195 -0.1533 -0.1263 0.3085 -0.2205 0.133 -0.4453 0.1033 0.2558 0.0724 -0.2975 -0.1282 -0.0156 -0.1739 -0.0159 -0.0058 0.4075 -0.1363 0.009 -0.1827 0.3774 0.027 -0.1649 -0.1646 0.0787 0.2581 -0.2218 0.1674 -0.1099 -0.1095 0.1249 -0.0237 -0.0432 0.1418 0.0249 0.0677 0.0018 0.0951 -0.345 0.2104 0.0794 -0.1064 -0.0122 -0.1131 0.2942 0.5375 -0.1509 0.0419 0.3627 0.0633 0.735 -0.3765 0.0272 -0.3971 0.1349 0.1273 -0.033 -0.1925 -0.009 0.2782 -0.046 0.0221 -0.0144 -0.2399 0.0052 0.0403 -0.2968 0.2136 0.5287 -0.053 -0.1401 -0.2706 -0.4007 0.0043 -0.1849 0.2056 -0.1709 -0.0148 0.3281 0.2838 0.0161 0.1177 0.0156 0.2283 -0.0037 0.0934 0.0609 0.0346 -0.0019 -0.1828 0.0342 -0.2031 0.1816 -0.1741 0.5827 -0.0833 0.1932 0.3865 -0.0281 0.0829 0.1995 0.6963 -0.1795 -0.0265 0.3901 0.2114 0.2277 -0.0313 -0.2855 0.1251 0.03 0.5028 0.0925 -0.1322 0.0785 -0.0706 0.1512 -0.196 -0.0049 -0.3892 -0.4439 -0.3278 -0.1852 0.1028 -0.2011 -0.3204 0.0246 0.0271 0.0209 0.4285 -0.0806 -0.1112 -0.4086 0.4654 -0.2613 0.2732 0.1446 -0.0885 -0.0365 -0.0035 -0.011 0.1892 -0.1724 0.4496 -0.0999 -0.0256 0.163 0.0392 -0.214 0.0281 -0.401 -0.3885 -0.3922 -0.1063 0.1201 0.0847 -0.1377 -0.0283 -0.5115 -0.0087 -0.0512 -0.0533 -0.0363 -0.0229 -0.1837 0.2309 -0.1085 0.1393 0.078 0.2394 -0.2732 0.1614 -0.9153 0.3315 -0.0436 -0.1311 0.3597 0.0778 0.1671 0.2161 -0.0364 0.2392 0.1383 -0.3092 0.2183 0.0262 0.1442 0.3448 -0.1642 0.1521
listing -0.3072 0.1919 0.0123 0.0848 -0.0979 0.0048 0.2892 0.0941 0.0785 -0.1857 0.0947 0.1608 -0.1657 -0.216 -0.3525 0.247 -0.0148 -0.1432 -0.3457 0.0183 -0.2625 0.0549 0.1086 -0.4444 -0.2906 0.0575 0.1509 -0.2322 -0.1904 -0.3102 -0.1378 0.1649 -0.1103 -0.0485 -0.2253 0.1833 -0.0761 -0.2169 -0.1631 0.106 -0.0106 0.0281 -0.704 0.056 -0.2049 0.1369 0.3964 0.1717 0.166 -0.0595 -0.1219 -0.0355 0.2326 -0.4371 0.1372 -2.0E-4 -0.0044 -0.0364 0.1646 -0.0132 -0.2335 -0.0116 0.2147 -0.2 0.1803 -0.0447 0.378 0.275 -0.0532 -0.0019 -0.2687 0.1492 -0.101 -0.1415 -0.2666 0.1325 -0.3212 -0.2183 0.2906 0.3766 -0.0528 -0.0072 0.2979 0.2054 -0.1848 -0.0265 -0.3438 0.1217 -0.2187 0.2482 -0.2765 0.3868 0.3436 0.0638 -0.0105 0.39 0.1754 -0.146 0.3779 -0.0318 0.0381 -0.0239 0.0243 -0.1618 -0.1807 -0.3839 0.2668 -0.1816 0.2958 -0.297 -0.1708 0.1646 0.2243 -0.1334 -0.3343 -0.3023 -0.5581 -0.1555 0.118 0.2269 0.1202 -0.0832 -0.0373 -0.3347 0.0818 0.1692 -0.0593 0.2714 0.4451 0.1305 -0.1001 -0.192 0.429 -0.033 -0.0228 -0.0874 0.1484 -0.1575 -0.349 -0.4309 -0.0643 0.0669 0.0443 0.0105 -0.3139 0.2255 -0.123 0.0045 -0.0181 -0.3416 -0.113 0.0559 -0.1927 -0.2932 0.2038 -0.4434 0.0059 0.3703 0.2507 -0.2268 0.3907 0.1067 -0.1797 -0.3947 -0.0397 -0.0209 -0.0774 0.1772 -0.0721 -0.0988 0.0621 0.1954 0.3039 0.2953 -0.397 0.1928 0.0061 0.0311 0.2642 0.134 0.2019 0.2466 0.0417 0.267 0.1308 -0.1591 -0.2895 -0.0644 -0.4205 0.1929 0.0063 0.1935 0.1298 0.1883 -0.1011 0.0748 -0.0173 -0.0944 0.178 -0.0255 0.5478 0.3502 0.0125 -0.315 0.1745 0.2022 0.356 -0.1532 -0.382 -0.0063 0.3827 0.6124 0.1777 0.3873 -0.0587 0.265 0.3129 -0.1262 0.1343 -0.2823 0.1008 0.5126 -0.2598 0.1369 0.0633 -0.0404 -0.2271 -0.1555 -0.2779 -0.1596 0.1024 -0.1594 0.5124 -0.3679 0.1312 -0.1169 0.076 -0.4254 -0.2959 -0.1297 0.1325 0.3134 0.019 0.0633 0.0135 0.0289 0.2236 0.1218 0.2784 0.0987 -0.1815 -0.0283 0.0874 0.1647 0.1623 0.223 -0.0587 0.004 -0.1862 0.0492 0.1568 0.1689 -0.2542 -0.329 0.4378 0.1436 -0.3206 -0.259 -0.0527 0.2792 0.1603 0.0947 0.0542 -0.2807 0.0574 0.0851 -0.0536 0.0446 0.2584 0.266 -0.3441 0.0999 -0.2385 -0.0243 -0.0723 -0.4714 0.0209 -0.0294 -0.1495 0.4059 -0.2464 -0.2488 -0.093 -0.2781 0.2108 0.1248 0.0754 0.0258 0.0382 -0.0814
chemistry -0.2295 0.3229 0.3192 -0.1385 0.5903 -0.4333 -0.1762 0.2293 -0.3204 -0.4855 -0.1866 0.3165 -0.1182 0.1613 -0.1661 0.2225 0.3158 0.303 -0.1608 0.1671 -0.5845 0.063 -0.0295 -0.2714 -0.1644 0.6884 0.1406 0.0954 -0.0149 -0.3594 0.0472 -0.2685 0.1738 -0.3784 0.1353 0.2202 -0.0524 -0.28 0.1932 0.06 0.1725 -0.4011 -0.1885 -0.0556 0.1973 -0.0153 0.2711 -0.2514 0.129 0.0153 0.0381 0.0811 0.4089 0.179 -0.0586 0.1408 0.0758 -0.2786 -0.0483 -0.5112 -0.3433 -0.1182 0.3151 0.0475 -0.1511 -0.4958 0.0461 -0.3648 0.0645 0.1252 0.0854 -0.1275 -0.4711 0.0951 -0.4478 -0.1198 -0.3576 0.1161 0.1162 0.1525 -0.0418 -0.1899 -0.2267 -0.47 -0.2419 0.2549 -0.1134 -0.255 -0.1896 0.0078 0.1977 0.3073 0.0553 0.1656 -0.3954 -0.0395 0.3343 -0.0905 -0.0242 -0.2509 0.0798 0.1084 0.0377 -0.0043 0.045 -0.2136 -0.1817 0.2424 0.0218 0.1189 -0.1238 -0.0754 -0.1624 0.3579 -0.3933 -0.2526 0.4804 -0.1955 -0.2428 -0.1845 0.0897 0.0496 -0.1447 -0.163 -0.0745 0.1461 -0.153 -0.3608 0.1453 0.3929 0.4265 0.1153 -0.3128 -0.2195 0.066 0.0133 -0.0456 0.5986 0.081 -0.2655 -0.1808 0.1313 0.1243 0.1564 0.2683 0.1383 -0.0751 -0.1352 0.0792 -0.443 -0.3419 -0.2872 -0.0621 0.1248 -0.0675 -0.1093 -0.1133 -0.0321 -0.0064 0.5934 0.6525 0.1573 0.6839 0.1387 0.4103 0.0198 0.2947 0.5734 0.1607 -0.2502 0.0715 0.0085 -0.1164 -0.2895 0.19 -0.0332 -0.074 0.3535 0.0524 0.2978 0.1086 -0.1983 0.6077 0.1765 -0.0401 -0.069 -0.143 0.1391 -0.0239 -0.4969 -0.223 -0.1773 -0.5919 -0.149 -0.2752 0.0821 -0.1873 0.1925 -0.2468 0.1439 -0.2743 0.3507 0.4106 0.0619 0.2322 -0.0016 -0.1849 0.2317 0.2351 0.0616 0.5319 0.5945 -0.131 -0.4465 -0.2807 0.0514 0.1444 0.0592 0.3412 -0.5043 0.5091 0.3736 -0.0672 -0.1856 -0.2338 -0.0393 -0.348 0.5784 0.3368 -0.2369 -0.1899 -0.1985 0.0794 0.4452 -0.3471 -0.3922 -0.0584 0.5343 0.1236 -0.2599 -0.054 0.3201 0.234 0.0021 0.1838 0.1194 0.3247 -0.1039 -0.0444 0.2873 -0.0487 0.3089 -0.125 -0.1749 0.1384 -0.0562 -0.6179 0.0583 -0.5239 0.1198 -0.5027 0.4566 0.0863 0.0154 0.1428 -0.3591 0.4754 0.6969 -0.2874 -0.4511 -0.0208 -0.1583 0.2855 0.1494 -0.4035 -0.1176 -0.2924 0.054 0.2285 -0.2477 -0.2773 -0.2234 -0.1436 -0.2716 -0.0022 0.6473 -0.0662 0.0547 0.2539 -0.243 0.3673 0.1082 -0.3 0.102 -0.227 0.3288 0.0883 -0.3248 0.106 -0.3904
seafood 0.0098 -0.4113 -0.0052 0.3574 0.0194 0.381 -0.4764 0.4568 0.159 0.0071 -0.2721 0.6079 0.3493 0.3566 0.1475 -0.22 -0.112 -0.6343 -0.0078 0.1625 -0.0262 0.5652 0.1029 -0.2128 0.0141 0.0734 0.3224 0.1219 0.0606 -0.016 -0.0166 0.5172 -0.2537 -0.1017 -0.2216 -0.4917 0.2549 -0.1715 0.3865 0.425 -0.4322 -0.1823 -0.199 0.1157 -0.3063 -0.1393 -0.3688 0.034 -0.1831 -0.1161 -0.2717 0.0724 0.6894 0.1894 0.0398 0.361 0.5426 -0.214 -0.238 -0.014 -0.1291 -0.1834 -0.0766 -0.113 -0.1834 0.0981 -0.0689 -0.2258 0.0598 0.0034 0.0847 0.3433 0.558 -0.0938 0.555 0.1108 -0.2764 -0.0539 0.3148 0.05 0.1872 -0.4391 -0.0048 0.1957 0.2153 0.4851 -0.085 0.0832 0.3693 -0.1446 0.3631 0.1185 0.1267 0.2561 -0.3996 -0.1303 0.2917 -0.3324 0.0468 0.3119 -0.1772 0.3355 0.155 -0.0955 0.2935 -0.2743 0.2285 0.1111 0.1568 -0.4264 0.0437 -0.338 -0.0095 -0.2395 -0.3867 0.3598 -0.0409 -0.5503 -0.2039 0.178 -0.1206 0.6255 0.2658 -0.4591 0.5303 0.1187 -0.2445 -0.1696 0.0674 -0.2585 0.1885 -0.8716 0.0489 0.1389 -0.0034 0.0032 0.0166 0.2652 -0.3715 -0.3838 0.1566 0.2138 0.071 -0.0851 0.1748 -0.0318 0.0861 0.0499 0.0596 -0.4165 -0.0531 -0.0585 -0.3777 0.0889 -0.1503 -0.6689 -0.0264 0.1737 -0.2547 0.1632 0.6868 -0.3607 0.2258 -0.1667 0.3214 -0.1095 -0.2231 -0.2602 0.0915 -0.1582 -0.2801 0.268 0.4159 0.1224 0.0534 -0.6443 0.1517 0.0625 -0.1808 0.0304 0.0619 -0.2712 0.3562 0.2059 0.1285 -0.1896 -0.326 0.2751 -0.2544 0.093 -0.04 0.2155 -0.2455 0.1673 0.4972 0.1496 0.2166 0.4399 0.0849 0.4201 -0.306 -0.1936 -0.13 0.2961 0.0598 0.4464 -0.1073 0.0261 0.6111 0.3876 -0.1387 0.6003 -0.389 -0.2336 -0.0104 0.5834 0.5977 -0.0246 0.1401 -0.425 0.0905 0.3487 -0.3087 -0.571 0.126 0.1135 0.2564 -0.0474 0.1101 -0.0793 -0.1937 -0.1951 -0.0834 -0.2965 -0.2743 -0.6038 0.069 -0.2047 -0.4875 -0.2807 0.2073 -0.055 0.2035 0.6646 0.15 0.007 0.4213 0.1339 -0.0772 -0.0633 -0.2716 -0.0472 0.201 -0.1316 0.044 0.0401 -0.3878 -0.268 0.3364 0.0601 -0.0933 0.3395 -0.1611 -0.102 -0.0749 0.5003 -0.0863 -0.4744 0.3051 0.1688 -0.0393 0.0178 -0.046 -0.0128 -0.0269 -0.3438 -0.0817 -0.2436 -0.312 -0.049 -0.1366 0.3323 0.0019 -0.2067 -0.3396 0.3037 -0.1597 -0.0194 -0.1884 -0.0057 -0.4547 -0.0306 0.0465 0.0736 0.0833 0.6665 0.3869 -0.4849 0.0965 -0.0139
CD -0.1996 0.1688 0.0491 -0.1816 0.1854 -0.0202 0.298 0.1313 0.2077 0.3453 0.4637 0.2756 -0.1775 0.0858 0.1563 0.32 -0.0461 -0.2699 0.2451 -0.0506 0.2891 0.2071 -0.406 0.023 -0.093 -0.2664 0.2559 -0.0438 0.0017 -0.0136 -0.4282 0.319 -0.0446 0.068 -0.3268 0.4384 -0.0133 0.3886 0.3486 0.09 0.1948 -0.1071 0.2376 0.1015 -0.2743 0.5982 0.0895 0.2569 0.4477 -0.0589 -0.2044 0.2246 0.3268 -0.0251 -0.0068 0.489 0.1937 -0.252 -0.2967 -0.7377 -0.0534 -0.2237 -0.0979 -0.2049 -0.1892 -0.285 0.1244 0.1653 0.0027 -0.0703 0.1276 0.1709 -0.1414 -0.1524 0.2073 0.2321 -0.2542 -0.0675 -0.0241 -0.0981 0.2151 0.2787 -0.1883 0.6794 -0.1424 0.1471 -0.0764 0.0517 -0.3729 0.1967 -0.0228 0.2323 -0.1088 0.1417 0.4163 0.1047 0.1508 0.0342 0.1202 -0.1299 -0.6025 -0.1223 -0.135 -0.161 -0.2331 0.2963 0.1719 0.0677 -0.1578 -0.1717 -0.3259 -0.0374 -0.0415 -0.1734 -0.3305 -0.077 -0.2001 -0.3949 0.1022 0.164 0.2212 -0.2337 -0.1532 -0.5624 -0.3395 0.0699 0.2238 0.2575 -0.0255 -0.3818 0.2391 0.056 -0.3094 -0.0996 -0.2502 -0.2753 0.1852 -0.1073 0.1487 -0.3007 -0.0584 0.2952 0.1058 -0.4696 0.1298 -0.2291 0.2844 0.3484 -0.1028 -0.0814 -0.0102 -0.0866 0.4038 0.0208 0.3259 -0.0419 0.2986 -0.22 -0.3338 -0.0843 0.534 -0.0455 -0.0975 0.0458 -0.0193 -0.1123 0.0475 -0.0978 -0.2107 -0.0349 -0.1257 0.0878 0.0827 0.2179 -0.1909 -0.4645 0.0785 0.3204 -0.0571 0.3066 0.1008 -0.1194 0.1336 -0.3991 0.54 -0.2177 0.0053 -0.0843 -0.0244 0.0357 -0.0661 0.1671 -0.1248 -0.1692 -0.4812 0.0235 0.082 0.1606 -0.0892 0.1743 -0.1302 0.319 0.135 -0.4397 -0.201 0.1115 -0.1175 -0.0683 -0.1435 0.1024 0.1247 0.5545 -0.0431 0.0845 0.1063 0.2698 0.1056 0.2378 -0.262 0.1681 -0.3607 0.4993 -0.1507 0.138 -0.0365 -0.0588 -0.0618 -0.1295 0.0301 0.1585 -0.1926 -0.2065 0.0047 -0.2695 -0.2068 -0.4727 -0.0554 0.2674 0.4988 0.2218 -0.0726 0.2508 -0.2504 0.1584 0.0411 -0.115 0.1248 0.4254 -0.311 -0.0179 -0.3577 0.0747 -0.3995 -0.3862 0.0694 0.2122 -0.2237 -0.1439 -0.5576 0.4735 0.2356 -0.1468 0.3858 -0.1985 0.0104 -0.0322 -0.0721 0.6561 0.4636 -0.0062 -0.1715 -0.1574 0.3683 0.0664 -0.2261 -0.3061 0.0992 -0.2653 -0.1623 -0.4161 0.2135 -0.0655 0.0747 0.1163 0.3835 -0.2703 -0.0512 -0.2433 -0.2457 -0.0649 0.384 -0.2926 -0.0198 -0.352 -0.271 0.3092 -0.0316 0.0562 0.0514 0.1748
mind -0.0528 -0.0469 0.086 -0.5039 -0.102 -0.1011 -0.0145 -0.284 -0.2553 -0.1564 -0.0984 0.0706 0.2321 -0.1153 -0.2388 0.2133 -0.0465 0.2059 0.0181 0.0858 0.0209 -0.0737 -0.0167 0.0315 -0.1334 -0.1441 -0.03 -0.0068 -0.2912 0.4519 -0.0523 -0.0077 -0.0608 -0.5882 -0.0623 -0.1664 -0.1477 0.1183 0.0765 0.4648 0.304 -0.4072 0.0651 -0.1062 -0.056 -0.1705 0.1315 0.062 0.0898 0.2197 -0.0993 -0.1559 -0.0784 0.0835 0.0905 0.1257 0.0173 0.2187 -0.2229 0.1716 -0.3044 -0.1857 0.0614 -0.0029 0.1934 0.3054 -0.0115 -0.2325 -0.3668 0.1171 0.0513 -0.1055 -0.0027 0.1982 0.3219 -0.2318 -0.3734 -0.0736 0.1185 -0.3629 0.1807 -0.0875 0.0652 -0.0149 0.0317 0.1221 2.0E-4 -0.1608 -0.1733 0.2357 0.0612 0.1305 0.0781 0.3506 0.0816 0.08 0.0015 0.5332 0.067 0.0424 -0.0555 0.0938 -0.2687 0.0537 0.0254 -0.1118 -0.0678 -0.2044 -0.0347 -0.198 0.8098 -0.1552 -0.067 0.5079 -0.6291 -0.4437 -0.264 0.0498 0.3146 0.2706 -0.2189 -0.152 -0.3554 -0.1235 0.0564 -0.1543 -0.0254 0.2785 0.1454 -0.0314 -0.0275 -0.2309 0.0953 0.1223 0.569 0.2451 -0.5384 -0.2558 0.0123 -0.1084 -0.3963 0.1197 0.1384 0.5723 0.048 0.2015 -0.0724 -0.0473 -0.2235 0.2633 0.0191 -0.0679 -0.0212 0.1799 -0.0935 0.162 0.1976 -0.0321 0.1059 -0.0714 0.6889 0.1561 -0.0403 0.5153 0.0262 -0.081 0.2968 0.0667 -0.0026 0.0607 0.0041 0.0046 0.2756 -0.1216 0.0997 0.0362 0.1843 0.2783 -0.0521 -0.0944 0.1026 -0.1218 0.3906 -0.0157 0.0558 -0.0609 0.0347 -0.0424 -0.474 -0.044 0.2979 -0.0721 0.132 -0.0391 0.1628 -0.08 0.033 -0.0876 0.0788 0.0407 0.1472 -0.0814 -0.0707 0.1391 0.1017 -0.0316 0.2045 0.2204 0.2479 -0.3748 0.029 0.4102 0.0369 -0.1884 0.156 0.0299 0.0708 0.1005 -0.1426 -0.0924 -0.1176 0.4706 -0.1575 -0.1464 -0.2007 0.1078 -5.0E-4 0.0355 6.0E-4 0.2251 -0.0254 -0.2753 -0.4276 -0.066 0.007 -0.6348 0.0592 -0.0503 0.1103 0.2975 -0.0654 0.0931 0.2913 0.2045 0.2192 -0.3485 0.0927 -0.1925 0.198 0.0107 -0.0621 -0.0136 0.1067 -2.0E-4 0.1269 0.0365 -0.1523 0.047 0.0669 -0.078 0.2798 0.0845 -0.169 0.0506 0.0106 -0.1016 -0.1907 0.0432 0.1159 0.1811 -0.0917 0.0747 -0.0297 0.3625 0.1792 0.0838 0.0296 -0.1234 0.0955 0.2604 -0.0544 -0.5306 0.2325 -0.0214 0.1032 0.0066 0.1108 0.1567 0.1181 -0.1759 0.1726 0.1274 0.0407 -0.4234 0.0479 0.156 0.1504 0.0501 -0.0548 -0.031
sex 0.1765 -0.1978 0.2539 -0.307 0.0162 -0.3402 -0.3533 0.5297 -0.1156 0.026 0.2079 0.4371 0.1787 -0.2176 -0.5755 0.3116 -0.1084 0.1908 0.069 -0.0381 0.0483 -0.0306 0.1154 -0.0736 0.0786 -0.0424 -0.267 0.2993 0.3915 0.0678 0.0706 -0.132 0.3251 -0.3021 -0.2771 -0.1772 -0.0552 -0.3356 0.2321 0.2361 -0.0044 -0.0667 -0.1762 0.0759 0.1892 -0.1759 -0.1842 -0.1026 -0.2746 -0.0448 -0.2184 -0.1786 0.5196 0.3772 0.2249 -0.5699 -0.1075 -0.5307 0.1453 -0.1363 -0.3229 -0.0258 0.0825 -0.23 0.1536 0.2367 -0.0897 0.0684 -0.2103 0.1649 0.0457 0.1409 0.2325 0.1839 -0.3153 0.1233 -0.3416 -0.0401 0.1115 -0.0607 0.0991 -0.0314 -0.0524 0.2084 -0.1 0.053 0.0936 0.0432 -0.1 0.1572 0.3643 0.1342 -0.1747 0.0983 0.1315 -0.3559 0.166 0.065 -0.1323 0.0893 -0.3616 -0.2278 0.0019 0.1206 -0.0632 -0.1702 -0.2855 -0.4754 0.363 0.0024 -0.1462 -0.1151 -0.1553 0.1341 -0.3936 0.1876 0.2631 0.205 -0.3578 -0.1365 0.2451 -0.2817 -0.0112 -0.5102 -0.0484 -0.0502 -0.448 -0.1308 0.2008 0.154 0.005 -0.1277 0.0099 -0.2499 0.039 0.094 -0.1034 0.2565 0.0403 -0.3986 0.0141 -0.1966 0.0889 0.0211 -0.0175 0.5755 -0.0691 0.3282 -0.0283 -0.3506 0.3715 0.0898 0.5053 0.1882 -0.4709 0.1257 -0.078 -0.2386 -0.1745 0.466 0.4934 0.1105 -0.0321 0.0272 0.2661 0.1997 0.1302 0.251 -0.0571 0.1924 0.0793 0.3609 0.1243 -0.5209 -0.2063 -0.1208 0.3617 0.0886 -0.3067 0.2212 -0.1621 0.3385 0.2402 -0.0113 0.1338 0.4614 -0.0414 0.0411 -0.2856 0.417 0.035 0.0034 -0.3093 0.5069 -0.0177 0.1117 -0.2974 0.1608 -0.2575 0.1151 -0.3133 0.1664 0.3838 0.0975 -0.072 0.4774 -0.0281 0.0198 0.2091 0.3156 -0.0221 0.5663 0.0901 0.0548 0.2646 0.0773 0.1404 0.2972 -0.453 -0.0793 0.4366 0.3179 0.1742 0.2153 0.1593 -0.1082 0.2565 -0.2062 -0.1235 -0.062 0.1363 -0.0288 0.1162 0.1738 -0.3981 -0.2712 0.011 0.4711 -0.1569 -0.2474 -0.0485 -0.0133 0.5224 0.2903 0.1621 0.2886 0.405 0.0244 0.0521 0.3935 -0.157 0.2608 -0.2339 -0.0485 -0.0785 0.3915 0.0222 0.1215 -0.0388 0.005 0.5102 -0.2574 0.1756 0.3217 -0.0619 0.1566 -0.0247 0.2244 -0.1807 -0.0794 -0.1333 0.05 0.3631 0.1289 -0.5244 -0.0432 -0.4872 0.0791 -0.0887 0.0325 -0.329 0.1304 0.2063 0.2806 -0.3128 0.1883 -0.3043 0.0423 -0.1004 -0.1282 -0.3266 -0.0825 0.2353 0.0098 0.3512 0.4721 -0.1154 -0.0699 0.0607 -0.1289
food -0.0582 -0.2801 -0.2919 -0.1972 -0.1677 -0.0037 -0.3763 0.5309 0.0968 0.0953 -0.2695 0.3139 0.0064 0.0899 0.1758 -0.0571 0.24 0.0205 -0.1468 -0.0107 0.107 0.1034 -0.1017 0.1725 0.2312 0.0356 0.0578 0.1015 0.4676 -0.1177 0.0965 -0.0079 0.1865 -0.2898 -0.1365 -0.195 0.3896 -0.4279 -0.187 0.4575 -0.0359 -0.368 0.0438 0.0487 0.0476 -0.1619 -0.2366 0.0059 -0.0846 -0.067 -0.3416 0.2183 0.4366 0.2784 -0.1549 -0.0697 0.1065 -0.2341 0.0287 -0.3475 -0.3842 -0.373 -0.1348 -0.2864 -0.0947 0.0037 0.0174 0.1801 0.0514 0.478 0.1557 -0.0021 -0.0158 0.0728 0.2585 0.0718 -0.3115 0.0233 0.2349 -0.0072 0.2073 -0.062 -0.0351 0.1905 0.358 0.2545 -0.0343 -0.3511 0.0875 -0.0615 0.2579 0.1796 -0.116 0.0648 -0.1559 0.1998 0.2903 -0.4685 0.0202 0.154 -0.0856 0.4662 -0.0582 -0.0492 0.2072 -0.0564 -0.1225 0.008 0.0201 -0.1577 0.0751 -0.1342 0.0671 -0.0474 -0.3646 -0.0346 0.163 -0.0092 -0.1055 0.2502 0.1094 0.0711 -0.0137 0.0975 -0.1684 -0.2613 0.2485 0.0103 0.0266 -0.0179 0.0803 -0.2109 0.044 -0.0447 0.034 -0.0263 -0.0282 -0.2231 0.206 -0.2723 -0.1352 0.5005 0.0327 0.0169 -0.1877 -0.0684 -0.2372 0.3929 0.1832 -0.2677 0.0647 -0.0193 -0.6097 -0.2143 -0.5552 0.2353 -0.2013 0.0413 -0.3274 0.2476 0.5379 0.1183 0.1679 0.0338 0.1133 -0.2461 -0.0505 0.1777 0.3523 0.099 -0.2225 0.1159 0.2724 0.1007 0.209 -0.1947 -0.0614 0.1144 0.1747 -0.2542 0.2388 -0.1032 0.1641 0.3676 -0.1109 -0.1044 -0.1198 0.0315 -0.3212 -0.1639 -0.3021 0.3939 -0.446 -0.1762 0.1765 0.3456 0.2401 0.625 0.0883 0.3429 -0.3216 0.0401 -0.2332 0.2061 -0.2697 -0.0496 0.1753 0.095 0.0034 0.1316 -0.011 0.6806 -0.2076 0.0367 0.0835 -0.2111 0.2677 -0.1772 0.1274 -0.3082 0.0836 0.2756 0.0598 -0.1184 -0.0488 0.1109 -0.1747 0.0756 -0.2989 -0.2635 0.0023 -0.2316 0.3096 -0.0513 -0.071 -0.3724 0.2498 -0.1261 -0.2152 -0.1818 0.2785 -0.0583 0.0586 0.2125 0.0914 -0.2731 0.3476 -0.0799 -0.2475 0.578 0.0364 0.1153 0.2451 -0.1291 -0.1816 -0.0151 0.1042 -0.2233 0.0625 -0.0308 -0.0318 0.1386 0.316 -0.0235 -0.2119 0.1045 -0.0047 -0.152 0.0065 0.0509 0.1247 -0.0033 0.0635 0.099 -0.2214 0.2674 -0.2665 -0.299 -0.1457 -0.2093 0.1683 0.27 -0.044 0.0845 0.017 0.3207 -0.3847 -0.0074 -0.1879 -0.1492 -0.1148 -0.1149 0.0943 -0.0707 -0.098 0.5084 0.1961 -0.2254 0.0314 0.2704
precedent 0.0468 -0.2503 -0.1727 -0.3243 -0.0262 0.0785 0.0335 0.2479 -0.2047 0.1919 -0.0315 0.3116 0.0499 0.0841 0.2149 0.2237 0.1264 0.0415 -0.0266 0.0647 0.1016 0.223 0.2076 0.0755 0.0139 -0.2184 0.1103 0.1744 0.0048 0.0178 0.1201 -0.2613 0.0782 -0.111 -0.012 -0.3061 -0.3401 -0.2547 -0.0886 0.2516 0.0548 0.0489 -0.0605 -0.1186 0.2335 -0.1551 0.5047 0.6742 -0.0908 0.0425 -0.2783 -0.0817 0.0024 -0.2372 0.244 -0.0242 0.0773 0.1342 0.7292 0.2019 0.0343 0.4838 -0.0728 -0.2553 -0.2091 0.0966 -0.324 -0.1959 -0.0815 -0.2649 -0.081 0.1702 -0.296 -0.0574 -0.4331 -0.1384 -0.1999 -0.0501 0.3012 0.2832 -0.1706 0.0521 0.3095 0.3265 0.4405 0.2441 -0.1113 0.1269 -0.0058 -0.3969 -0.0961 0.1948 -0.1844 -0.4253 0.0293 -0.0272 0.185 -0.2983 -0.3423 -0.506 0.0616 -0.0834 -0.1753 -0.0711 -0.2107 0.1539 0.0884 0.3022 0.2702 0.2118 -0.1104 0.2303 -0.0401 -0.0892 -0.4178 0.0516 -0.1689 -0.1463 0.4772 0.0438 -0.1411 0.1129 -0.1453 -0.0972 -0.13 0.279 -0.2216 0.2865 -0.0687 -0.0586 0.1081 -0.275 0.4828 0.2948 0.0621 0.0785 -0.3586 -0.1736 -0.324 -0.3083 0.0235 -0.1202 0.1487 0.1685 0.3134 -0.2119 -0.0898 -0.1897 -0.3356 -0.0747 -0.0137 0.0834 -0.0207 0.5186 0.1698 -0.043 -0.3079 -0.1906 0.276 -0.0149 0.8567 -0.2383 -0.3081 -0.1197 -0.2332 0.1187 0.1356 0.1607 -0.0433 0.3065 0.0416 -0.4308 0.1047 0.1296 -0.0293 -0.1858 -0.0035 -0.3395 0.1921 -0.1021 0.07 -0.2559 -0.0319 -0.1189 -0.1214 -0.1437 -0.1761 0.5198 0.3914 -0.2696 -0.3957 -0.6553 -0.1629 0.3653 -0.2558 0.1569 0.1966 -0.605 0.1084 -0.0788 0.3754 -0.1058 0.0703 0.0674 -0.0599 -0.0749 0.1753 0.062 0.255 -0.2191 0.0078 0.6712 0.5106 -0.223 0.0351 -0.5486 -0.0859 0.3161 -0.068 0.6043 0.1464 0.2247 0.0049 -0.1803 -0.6889 0.3298 -0.0037 0.0863 0.7134 -0.0088 -0.3593 0.2266 -0.072 0.2669 0.146 -0.7799 0.0084 -0.1436 0.1376 0.3529 -0.1165 -0.1509 0.2771 0.2254 -0.1959 -0.1613 0.1538 -0.1767 -0.0594 0.1099 0.2825 -0.0798 -0.1899 -0.2862 0.243 -0.117 0.248 0.1363 0.1605 -0.1253 -0.1862 0.2144 0.1671 -0.2765 0.2932 -0.4984 -0.0402 0.3346 0.2473 -0.0101 0.0674 0.0322 -0.0322 0.1891 0.1793 0.3104 0.2795 -0.1917 0.09 -0.1095 -0.4897 -0.0473 0.1448 -0.035 -0.1662 0.2419 -0.4571 -0.1669 -0.0534 -0.3529 -0.1333 -0.0753 0.081 -0.0463 -0.2533 -0.0688 0.2705 -0.0572 -0.1636 0.3304
