419 200
plane -0.05555 -0.22342 0.18544 -0.1839 -0.29961 -0.33446 -1.0452 -0.47274 0.13463 0.21559 0.048995 0.083113 0.12413 0.52263 -0.051951 -0.22384 0.27389 -0.049579 0.038569 0.11813 0.51836 2.3322 0.02799 0.073942 -0.64738 0.32059 -1.0523 -0.16086 0.13694 -0.064174 0.054579 -0.55157 -0.72288 0.10361 0.45686 0.38398 -0.96748 0.24987 -0.45406 -0.36244 0.38103 0.67133 -0.072404 0.29532 0.10623 0.29833 0.010221 -0.39934 0.0069718 0.049528 -0.13729 0.020529 -0.43308 -0.33829 0.77748 -0.092409 -0.32807 -0.64974 -0.099047 -0.17489 -0.034185 -0.14216 0.22583 -0.18317 -0.0772 -1.1822 0.19122 -0.46648 -0.33113 -0.76561 -0.68959 0.16788 0.43612 0.19626 0.085096 -0.15442 0.39177 -0.17638 -0.55134 -0.20092 -0.27313 -0.24632 -0.10022 -0.29174 0.23302 -0.39961 0.026036 -0.12459 -0.72036 -0.85298 -0.30043 0.2032 0.055032 -0.13581 0.18705 0.17479 0.34595 -0.83232 -0.037424 0.52738 -0.18152 0.10902 -0.19635 -0.45379 0.077452 -0.94767 0.32046 -0.34597 0.13389 -0.13763 0.075907 -0.67988 1.196 0.035639 0.1797 -0.070247 0.48562 -0.88387 0.082648 0.015857 0.81785 0.36868 -0.32107 -1.0533 -0.092996 -0.64887 -0.37794 0.095381 0.29787 -0.43691 -0.2058 0.27498 0.41371 -0.52717 -0.54555 0.23708 0.99401 0.6686 -0.4254 -0.026976 -0.21217 -0.039811 0.67037 -0.8634 2.3232 0.013387 0.14375 0.60727 0.77137 0.21589 -0.51626 -0.33984 0.04419 0.11858 -0.41882 -0.53043 0.28189 0.58035 0.16526 -1.1949 0.13783 -0.25618 -0.12956 0.08024 0.189 -0.13632 -0.70122 0.16068 -0.22254 -0.11859 1.3084 0.50951 -0.20398 -0.04094 0.3063 0.24995 0.075965 0.16154 -0.24312 -0.48892 0.77373 -0.34216 0.18191 -0.38112 0.32016 -1.0749 -0.31639 0.59939 -0.16559 0.31719 -0.65763 0.42922 -0.50245 0.63696 0.072751 0.48361 -0.54584 -0.012824 -0.11992 0.31469
stupid 0.31796 -0.13544 -0.23052 0.15316 -0.083888 0.37068 -1.1382 0.077538 0.76221 0.54963 -0.19288 0.25722 0.41347 0.31155 -0.34154 0.32627 -0.64896 0.14299 0.08101 -0.58512 0.32868 0.9962 -0.17158 0.37542 -0.46204 -0.57644 0.078789 -0.29165 0.17199 -0.50788 -0.23329 0.079839 0.16713 0.46355 -0.52221 -0.34417 -0.50677 -1.0694 0.016805 0.40281 0.40869 0.063212 0.78539 0.023379 0.28586 0.28867 0.39089 -0.15089 -0.069502 0.58477 0.18429 -0.32655 0.43171 -0.0088932 -0.0062882 -0.32086 -0.43706 -0.16178 -0.16487 -0.64843 0.39048 -0.34736 0.05101 0.2155 -0.56223 0.38058 0.043504 0.63058 0.78669 0.066102 0.64822 -0.25315 -0.48554 -0.12433 -1.2109 -0.1762 -0.5989 0.59863 -0.060967 -0.099457 0.24803 0.37231 0.20193 -0.25058 0.3598 -0.24129 -0.10685 0.12826 -0.26399 -0.44628 -0.17727 -0.62073 0.076979 0.62664 -0.24977 0.30019 -0.45152 -0.46326 0.23481 0.34378 0.36306 0.42485 0.24331 -0.81544 0.17505 0.31964 -0.24981 0.10513 0.31617 0.44295 0.42365 -0.058605 0.31707 -0.35134 -0.45794 0.23004 0.40276 -0.16547 -0.39003 -0.10773 0.47941 0.064829 0.059909 -1.0423 -0.66407 -0.12159 0.22655 0.2335 0.82271 -0.45871 -0.5362 -0.7587 -0.20449 -0.44703 0.085383 -0.36591 -0.18194 0.081737 0.11108 -0.45183 0.08263 -0.0054242 -0.23968 -0.4042 0.88613 -0.49426 0.14021 -0.40333 -0.044668 0.4964 0.31834 0.63622 -0.23242 0.3194 -0.074907 -0.01201 0.05083 -0.1216 -0.12999 0.26854 0.20778 0.15207 -0.23313 -0.071583 -0.47815 -0.99193 0.20893 0.84779 -0.422 -0.73913 -0.22644 -0.12896 -0.49183 -0.19163 -0.097932 -0.058223 -0.38644 0.69586 0.19866 0.5861 1.1689 0.33552 -0.61968 0.73115 -0.84412 0.35994 0.6858 -0.10253 0.55309 -0.15179 0.070891 -0.39301 0.19098 0.1948 0.50375 0.17616 -0.25756 -0.045827 -0.29504 0.33966
egg -0.12909 -0.064333 -0.41132 0.47826 -0.26142 -0.25919 -0.14397 -0.6233 -0.017767 -0.0053942 -0.22476 -0.36403 0.22062 0.9479 -0.38059 0.45646 -0.0020736 -0.43723 0.33296 0.095417 -0.11028 0.65542 0.48466 -0.62631 0.24283 -0.59782 -0.14543 -0.66739 -0.47759 0.14244 1.2591 -0.33385 0.55962 0.14523 -0.15426 -0.33243 0.75562 -0.24394 -0.81753 0.61908 -0.090681 0.28346 0.61413 0.46467 -1.1295 0.52294 0.89121 -0.26049 0.22006 0.86408 0.91746 -0.7267 0.11571 0.90704 -0.2452 0.18023 -0.79275 0.27476 0.067623 0.392 -0.30908 0.95831 0.20327 0.020261 -0.73289 -0.11758 0.1455 0.038632 -0.29589 0.20621 1.1264 0.20327 -0.38687 0.065404 -0.0048958 0.82364 -0.3082 -0.27346 -0.37515 -0.46626 0.25667 -0.092568 0.80933 -0.11236 -0.078564 0.30145 0.54656 -0.29873 0.4761 -1.2082 -0.33465 0.40861 0.015717 0.50532 -0.29477 -0.38874 3.2857E-4 -0.29505 1.0053 0.0057413 -0.54329 -0.40321 -0.41871 0.45856 -0.084815 0.43558 0.58128 0.44716 -0.024118 -0.46344 0.49227 0.30577 0.49985 0.6458 0.28279 -0.40842 -0.31451 -0.21481 -0.57292 0.56349 -0.053576 -0.10415 -0.38303 0.31427 0.02759 -0.19058 1.1753 0.50033 -0.26004 0.35643 0.26992 -0.29983 0.60069 0.023786 0.19935 -0.57203 -0.32801 -0.45205 -0.25212 -0.13559 0.29436 -0.55 0.51647 -0.18144 0.69534 0.11744 -0.054274 -0.45987 -0.23276 -0.59149 -1.1283 0.36559 -0.55151 0.098399 0.7108 0.52507 0.17536 -0.048736 0.96331 -0.21944 -0.054428 -0.23456 0.33591 -0.2002 -0.19672 0.32135 -0.47882 -0.60085 -0.06568 0.11552 -0.54791 -0.22698 -0.48389 0.19386 0.53397 0.14637 0.91272 -0.49754 0.035792 0.49897 0.90056 -1.1467 -0.69356 0.28018 -0.2802 -0.1302 -0.6154 0.079055 0.92641 -0.48845 -0.11179 0.054442 0.39085 -0.77875 -0.31098 -0.049218 -0.068759 1.0246 -0.2722 -0.05338
year -0.11818 0.040206 -0.74116 -0.41592 -0.054153 -0.2636 0.1919 -0.37664 0.32529 0.033371 0.094145 0.24214 -0.10289 -0.35185 0.83002 -0.11184 -0.1995 0.48582 -0.48775 -0.4458 0.48063 3.3819 -0.14753 -0.14667 -0.28665 0.065225 0.18867 0.45163 -7.4441E-4 0.45308 -0.093365 -0.2274 0.062215 -0.21894 0.080459 0.039888 -0.5376 -0.23571 -0.22378 0.07895 -0.1747 -0.46693 -0.10498 0.097936 0.27532 0.21181 0.31075 0.28233 -0.5648 0.22636 0.17329 -0.15708 -0.025446 1.0336 -0.072822 -0.037619 -0.56973 -0.10693 -0.39509 0.015049 0.45462 0.088019 -0.45496 -0.27458 0.33886 0.35609 0.057007 0.028105 -0.066897 0.27282 0.52094 0.42645 0.3275 0.24962 0.50305 0.97801 -0.1547 0.1032 -0.16136 0.25785 0.0037086 -0.15912 -0.63349 0.19648 0.1577 -0.28256 -0.10575 -0.41728 0.27445 -0.19926 0.10704 -0.36718 0.44319 0.12033 -0.32261 -0.039416 0.27102 -0.0064717 -0.083913 -0.4129 -0.31945 -0.097677 -0.10124 0.54867 -0.0062958 0.059983 -0.26564 1.4167 -0.45406 -0.36197 0.64233 -0.51648 -0.42453 0.31838 -0.26249 -0.15735 -0.39864 0.2531 0.093974 -0.70623 -0.39043 -0.09604 0.27966 0.62153 0.38579 -0.56806 0.12604 -0.082264 0.60964 -0.19769 -0.18105 -0.31325 0.07784 -0.46638 0.24743 0.34854 0.25211 -0.03275 -0.32712 0.358 -0.23073 -0.18005 -0.076566 0.060959 0.64214 0.5173 0.25367 -0.074469 0.12017 0.013423 0.23317 0.11959 0.013991 0.19726 -0.20844 0.11893 0.028917 0.10429 0.11317 -0.27338 -0.52404 -0.31658 -0.017098 -0.1168 -0.67234 0.35913 -0.42654 -0.2787 -0.16983 0.60545 0.11026 -0.53654 0.51174 0.0064081 0.063808 0.17169 -0.30234 0.025571 -0.36703 -0.017857 1.7809 -0.015465 -0.29223 0.52332 -0.49852 -0.060586 -0.32751 0.75514 -0.25366 0.071553 0.10777 0.064759 -0.28807 0.27559 0.045743 -0.15625 -0.020372 -0.12308 0.11491 -0.030226
psychiatry 0.080838 -0.1801 0.49643 -0.13596 0.074126 0.035095 0.13947 0.0619 -0.073553 0.14037 0.28676 0.20915 0.62783 0.058906 -0.18709 0.025132 0.25082 -0.46455 -0.25368 0.31362 0.47837 0.76864 -0.03037 0.10402 0.15312 0.14261 0.34539 0.18334 0.20778 0.6166 0.29806 0.042162 0.49511 -0.44993 -0.39632 0.4809 0.2046 0.071896 0.16027 0.2879 -0.36976 -0.01112 -0.70391 0.22826 0.46653 0.38448 0.43388 -0.71275 1.1763 0.1347 0.13344 0.56789 -0.03397 -0.18902 0.22728 -0.7415 0.63246 0.051841 0.01392 0.22133 0.56516 0.26421 0.21371 0.70011 -0.28646 0.67505 0.62187 0.27798 0.019464 0.64939 -0.27627 -0.012132 0.48732 0.2999 -0.025899 -0.582 0.71756 0.19865 -0.27046 -0.32219 -0.058543 0.096476 -0.4467 0.18667 0.20277 -0.47046 -0.50183 -0.16157 1.0642 0.84109 0.47071 -0.40401 1.0713 0.70631 0.086368 -0.63888 0.10873 0.090695 0.35273 0.7311 0.2288 -0.20195 -0.32227 0.61975 0.36686 -0.86071 -0.27805 0.65066 0.1578 -0.012437 0.67687 -0.41301 0.75928 -0.028471 0.94066 0.28328 -0.84187 0.53505 0.50704 -0.3105 -0.52452 0.10462 0.24602 -0.24286 -0.27866 0.16891 -0.79091 0.09892 -0.84755 -0.62769 0.03045 -0.52325 -0.42921 -0.1755 0.089658 -0.16211 -0.20648 -0.51463 -0.1208 -0.028621 -0.40824 -0.018057 -0.50096 0.84583 0.062574 -0.24828 -0.59609 -0.69237 -0.10133 0.031408 0.37292 -0.040822 -0.40663 -0.49056 0.30526 0.14408 0.089821 -1.0629 -0.83409 -0.32386 -0.050754 -0.8123 -0.12868 0.35866 -0.10231 -0.7576 -0.33343 0.1067 -0.37715 0.60047 0.64013 0.79384 0.32813 -0.20045 -0.6161 -0.11841 -0.086746 1.3055 1.2635 0.1166 -0.82612 0.1936 -0.070012 0.3272 -0.39059 -0.085363 0.01168 0.39709 -0.22223 0.34337 0.32612 0.017234 1.157 0.14723 0.10254 -0.096564 -0.072753 0.17278 0.32194 0.05346
asylum -0.44847 -0.26547 -0.29588 -0.17023 0.61846 0.41859 -0.58451 0.59956 -0.28294 0.5922 0.53078 -0.60395 0.057674 0.43105 -0.53626 0.55044 -0.35206 0.79533 -0.33365 0.65379 0.55929 2.1075 -0.56704 0.54036 -0.53972 0.70246 0.0037397 -0.70595 0.75304 0.70949 -0.2974 -1.0786 -0.12929 0.30246 0.17301 -0.045143 0.42499 -0.22993 0.2502 0.85226 -1.3553 0.32487 -0.0040591 0.16743 0.46694 -0.54059 0.19982 -0.29064 0.57552 -0.16401 -0.28437 -0.24567 -0.44189 -0.4115 0.25317 -0.53144 -0.74171 0.13199 0.15555 0.64787 -0.26114 -0.45716 0.031555 0.18214 0.69161 0.2366 -0.047113 0.13366 0.35651 -0.097256 -0.32158 -0.0454 0.093783 0.28451 0.30538 0.41386 0.40219 -0.34457 0.046852 -0.41343 -0.18969 0.38601 -0.067868 -0.12083 -0.21022 -0.25538 -0.31166 -0.73862 -1.285 0.8054 -0.12959 0.13555 0.84245 -0.15166 -0.51923 0.28886 0.96871 -0.38592 -0.28477 0.90625 -0.82921 0.28816 -0.12583 0.46916 0.62932 0.1199 -0.31612 -9.0185E-5 0.19617 -0.35701 -0.10152 -0.40705 0.019397 0.071372 -0.11195 0.08622 0.59415 0.16463 -0.0061462 -0.24185 -0.52026 -0.046398 0.20311 -0.065577 -0.343 -0.44225 -0.1486 0.0099995 -0.96971 -0.66069 -0.030674 0.32057 0.95754 -0.25717 0.18044 0.015837 -0.10924 -0.66225 0.12621 -0.69388 -0.37215 0.44673 0.35351 0.53122 0.4881 -0.15039 0.14693 -0.20149 -0.081154 0.067896 -0.52588 0.22424 0.65864 0.36816 0.02172 0.36702 -0.11214 -0.75826 -0.22455 -0.088497 -0.28713 -0.067556 0.22325 -0.5395 0.22899 -0.1482 -0.51426 0.24976 -0.5277 0.6614 -0.40367 -0.38655 -0.38853 -0.5332 0.7284 -0.9033 -0.45191 -0.76677 1.4449 -0.55761 0.65975 -0.031479 0.59916 -0.34034 0.086561 -0.16131 0.18354 -0.08908 -0.55303 -0.32784 -0.16831 -0.26449 -0.009024 0.68416 -0.24718 -0.093323 0.048616 0.13853 0.3984 0.35047
manslaughter 0.12047 -0.046564 -0.5562 -0.51531 0.25756 0.18065 0.064168 -0.77494 0.32825 -0.011384 0.30486 -0.23782 0.21478 0.43318 -0.24744 -0.28996 0.21891 -0.045994 0.95664 -0.46367 -0.12556 0.88561 -0.39865 0.23314 0.079393 0.07786 0.11163 -0.0014108 0.64557 -0.21084 -0.70719 0.25715 0.26284 0.50436 -0.5219 -0.35332 -0.020204 -0.43186 -0.88178 1.0631 -0.17287 -0.92767 -0.070329 0.62079 1.1219 0.29715 -0.13743 0.43359 0.20264 0.52202 -0.2571 0.2641 -1.0697 -0.10028 0.16636 -0.30388 0.27697 -0.53427 0.0040769 0.33349 0.050863 0.41888 -0.64507 0.082738 0.57518 -0.84627 0.5407 0.031408 -0.52053 -0.2292 -0.97993 1.2131 0.0055344 0.043916 -0.44289 -0.25771 -0.088689 0.51215 1.415 0.44135 -0.20945 -0.11699 -0.11154 -0.45429 -0.25569 -0.3417 0.15604 -0.4273 -0.87543 0.73914 1.211 0.51553 0.53727 0.46232 0.080984 -0.53686 -0.17039 -0.46928 -0.068906 1.0542 -0.16313 -0.72126 -0.33051 0.0031851 -0.30618 -0.85638 0.14526 0.21451 1.0855 0.20199 -0.26851 -0.17577 0.38633 0.59547 -0.43353 0.042697 0.13406 -0.78958 -0.029306 -0.6952 -0.65825 -0.26586 -0.53125 0.1522 0.36157 0.55121 -0.36707 0.30198 0.27449 -0.21936 -0.64952 -0.43278 0.35573 -0.56594 0.19491 -0.2649 -0.24545 -0.67999 0.015506 -0.20375 0.18856 0.57539 0.65644 0.058988 0.2919 -0.45503 0.21449 0.10054 0.87598 0.37131 0.079485 0.19657 -0.3195 0.21201 0.47577 0.057198 0.15979 1.4271 0.088741 0.75819 -0.52452 0.94387 0.29774 -0.34376 -0.25406 -0.44346 0.21747 0.34831 0.80205 1.1021 -0.16854 1.0498 -0.072683 -0.25349 -0.024733 -0.13509 -0.1391 -0.37599 0.013293 0.24591 0.4148 -0.59942 0.41098 0.26058 -0.88597 -0.32558 -0.13677 0.090006 0.27399 0.0032393 -0.73107 0.082444 -0.5265 0.4111 -0.035099 -0.65573 0.58286 -1.0856 -0.80674 -0.37361
music 0.026302 0.49343 0.15147 -0.8506 0.70278 -0.36393 0.46562 -0.018388 0.25317 -0.49725 0.52433 0.23072 0.50667 0.062996 0.33802 -0.63927 -0.049331 0.22645 -0.048484 0.27015 0.22055 1.5352 -0.077206 -0.33249 0.38453 0.15083 0.41444 -0.091972 -0.36252 0.28628 -0.063934 0.36427 -0.37185 -0.56232 -0.078209 0.17041 -0.88777 0.19237 0.2794 -0.46732 -0.66446 -0.68456 0.086601 0.077998 -0.16415 -0.18792 1.2233 -0.11329 0.35185 0.24001 -0.083583 0.82942 -0.64165 -0.094864 0.084628 0.23337 -0.034636 0.86168 -0.54179 0.3571 -0.97215 -0.15623 -0.18113 1.0628 0.11646 -0.58 0.32754 1.2649 0.70994 -0.80148 0.59001 -0.4175 0.40197 -0.24617 -0.4309 -0.066008 0.60225 0.44782 -0.41883 -0.31565 0.5374 -0.44347 -0.72524 -0.16251 0.31985 0.03111 -0.25121 -0.52955 1.6419 -0.89245 0.074861 0.27786 0.58564 -0.078523 -0.44597 -0.38114 0.085924 -0.25848 -0.34178 -0.47344 0.17735 0.64642 -0.59053 0.055295 0.45027 -0.68962 0.00589 0.9691 -0.83595 0.44926 -0.0037461 -0.40645 -0.28956 -0.68534 -0.403 0.23359 -0.12789 0.56877 0.12356 -0.42007 -0.28613 0.3572 -0.10145 0.16515 0.65033 0.12415 0.76606 0.087514 0.28724 -0.43613 -0.7853 -0.41924 1.1913 -0.073484 0.065983 0.092023 0.02703 0.18335 -0.097604 0.58057 -0.56749 -0.77024 0.047137 -0.47265 0.82511 -0.46882 0.23518 -0.59674 -0.34178 0.15132 0.95887 0.41326 -0.31662 0.34431 0.67902 -0.28075 -0.5603 -0.21455 -0.063544 -0.26335 0.058495 -0.57729 -0.32215 -0.077453 0.35034 0.13148 -0.11666 0.25322 0.35922 1.1277 -1.061 0.40052 0.12278 0.78518 -0.035022 0.060996 -0.97087 0.159 -0.028821 -0.15668 0.59301 -0.33634 0.30386 -0.33781 -0.29634 -0.48113 0.25997 -0.11957 0.086823 -0.18036 -0.74133 0.33276 -0.90758 -0.27229 0.7688 0.037504 -0.36397 0.012314 0.12669 0.062488
record 0.22318 -0.08642 -1.1341 -0.56294 0.030649 0.51923 0.22936 0.0037847 0.30626 -0.18342 -0.38361 0.45918 -0.65174 -0.1497 1.2206 0.45433 -0.58787 0.46116 -0.054527 -0.0088008 -0.29526 2.0556 0.14737 -0.2512 -0.38307 0.33986 -0.085154 0.49628 -0.19567 0.14925 0.48283 -0.0031707 0.71645 0.10141 -0.49708 0.23581 -0.72423 -0.0044056 -0.44313 -0.76798 0.20292 -0.63266 0.43996 0.072541 -0.32624 0.020355 0.26267 -0.2328 -0.31059 -0.32158 0.10897 -0.41287 0.1485 0.46425 -0.22525 0.19169 -0.40867 0.23649 -0.089906 0.45983 -0.114 0.021543 -0.51403 -0.78673 0.67154 -0.42634 0.34297 0.29783 0.89842 -0.08847 0.12881 0.05415 0.0022471 0.11462 0.19003 0.593 0.12065 -0.13676 -0.4899 0.4554 -0.073272 -0.028258 -1.0447 0.44749 -0.38801 -0.27181 0.22513 -0.44502 0.55422 -0.35569 -0.61945 0.63088 0.064136 0.4617 0.44961 -0.29706 0.5169 0.19386 0.015913 0.14916 -0.97113 -0.1072 -0.99273 0.21849 0.34784 0.12221 0.13575 1.4563 -1.2587 0.044484 0.31578 -0.49716 -0.26909 0.60064 -0.29911 0.50019 -0.063174 0.052935 0.31365 -0.97067 -0.29678 -0.010237 0.5469 0.024775 0.41005 -0.35383 0.2943 0.15398 0.69388 -0.097432 -0.90572 0.070848 0.66468 -0.57151 0.30743 0.60154 0.18511 0.11737 0.12317 0.25171 -0.26113 -0.25219 0.10989 0.28463 1.0937 0.14304 0.5112 -0.30898 -0.030369 0.48446 -0.069525 -0.039994 0.58751 0.24884 0.019039 0.088226 -0.061095 -0.26371 0.22596 -0.03287 0.042447 -0.46317 0.10203 0.039991 0.37058 0.1604 0.35674 0.76786 -0.55865 0.66786 0.062022 -0.41001 0.25116 -0.089231 -0.76064 0.14159 -0.75056 0.23944 -0.0063106 -0.39483 0.88716 0.27448 -0.15857 0.46726 -0.50803 -0.66348 0.66911 0.090886 0.038824 0.0010431 -0.84334 -0.33721 0.096467 -0.040335 0.23548 0.12294 0.075103 0.3139 0.10227 -0.39176
energy 0.24474 0.11376 0.23941 -0.46553 0.50641 1.1152 0.24651 0.16452 0.090716 0.13631 0.17382 0.58055 -0.14506 0.18953 0.068101 0.27312 -0.15855 0.30028 0.56266 -0.0030991 -0.066867 2.8355 -1.0718 -0.13441 1.3734 0.61603 -0.23791 0.50674 0.06409 0.38632 -0.6274 -0.61595 -0.21992 -0.71185 0.18873 -0.35693 0.22823 0.17755 -0.45978 0.097837 -0.22094 -0.28207 0.18997 -0.27286 -0.097813 0.34073 -0.34905 -0.0020157 0.16585 0.53424 0.27879 -0.21712 0.17646 0.094343 -0.71643 -0.15096 -0.48038 0.38959 0.87813 -0.012822 0.0083418 0.26101 0.41691 0.41788 -0.178 0.46876 -0.46331 0.52153 -0.17423 -0.041125 -0.26631 -0.14683 -0.86418 0.070144 0.7485 0.7965 0.65065 -0.58651 0.18809 -0.32548 0.37821 -0.68598 -0.055072 -0.38667 0.77311 0.31581 0.48846 0.34646 1.4054 -0.84783 0.35044 -0.53504 -0.31841 -0.17136 -0.20835 0.12741 0.73464 0.5452 0.49215 0.28026 0.15098 0.69256 -0.309 -0.67743 0.11901 0.74296 0.095508 1.3281 -1.2284 0.41665 -0.10783 0.57033 -0.52194 0.098203 0.049463 0.29464 -0.5206 0.089637 0.019698 0.85709 0.13251 -0.95656 0.7241 0.36011 -0.1634 0.18969 0.2738 0.39989 0.70502 -0.098989 -0.97482 -0.52163 0.049865 -0.3915 -0.13043 -0.058847 0.42647 0.55516 0.22387 -0.13462 0.14469 -0.06046 -0.22929 0.30758 0.97424 0.35743 -0.7413 0.49185 0.031021 -0.041042 -0.98157 -0.91735 -0.24454 0.42841 -0.087125 -0.15484 0.072856 0.59344 0.46666 -1.4393 -0.089949 0.12699 0.54128 0.58843 -0.18187 -0.38235 0.34835 -0.24324 -0.093148 0.59009 0.82035 -0.0087665 0.30578 0.41201 -0.50381 0.22361 -0.0466 -0.38877 0.084328 1.0733 0.95884 -1.1664 -0.58468 -0.20926 0.86702 -0.14459 -0.30886 -0.25589 -0.3384 -0.051951 -0.098793 -0.025856 -0.7868 0.53706 0.41339 0.0061736 -0.54184 0.21938 -0.29049 0.1355
announcement -0.1017 0.71386 0.23026 -0.7562 0.0499 -0.10939 -0.27078 -0.12937 0.44841 0.53033 -0.030888 0.19768 0.43215 -0.45778 0.47231 -0.42916 -0.18896 0.75442 0.085963 -0.35954 0.34108 1.7489 -0.29624 0.27548 0.13719 0.56424 -0.14262 0.23933 -0.29005 -0.20021 -0.75228 -0.53645 0.21226 0.1416 0.36505 0.095048 -0.6092 -0.65572 0.11669 0.41823 -0.40515 -0.50801 0.33862 0.32096 0.16591 0.25857 -0.22682 0.39991 -0.47875 -0.59978 -0.010247 -0.61602 0.016301 -0.2864 -0.26675 0.027432 -0.33301 -0.15222 -0.22901 -0.15433 0.7953 0.026872 0.24606 0.049348 -0.23762 -0.31355 -0.10759 0.34955 0.17624 0.83946 -0.33471 0.043603 0.46279 -0.14517 0.20217 0.83081 -0.33391 -0.16197 -0.22632 0.010673 0.050376 -0.54156 -0.056034 -0.12549 0.04011 0.049633 0.051068 -0.52631 0.29265 -0.44839 0.13808 0.22822 -0.055153 -0.10409 -0.83652 0.10713 -0.33764 0.28653 0.15879 -0.33108 0.24152 -0.059995 0.40764 -0.38147 -0.87057 0.45494 0.43738 0.48423 -0.7081 -0.24556 -0.067624 -0.48785 -0.098783 0.13231 0.20717 0.42951 -0.27712 -0.12376 0.27483 0.25926 -0.34917 0.31974 0.012503 0.40396 0.20454 -0.36421 -0.13268 0.27125 -0.17056 0.08812 -0.13436 -0.11388 -0.070538 -0.29684 -0.1021 0.52378 -0.10012 -0.31577 -0.087851 0.13424 -0.2741 0.098923 0.32666 0.13123 1.2765 0.26583 0.13468 -0.98003 -0.35982 -0.17291 -0.3097 0.56428 0.34374 0.77057 -0.23996 -0.11431 0.031349 0.24903 0.66284 -0.73322 -0.42213 -0.26847 0.34282 0.23897 0.11063 0.19995 -0.082537 -0.084571 0.35365 0.38204 0.60476 0.029253 -0.32879 -0.10851 -0.15524 -0.026978 0.20313 -0.030141 -0.18655 -0.52543 1.0939 0.657 1.0371 -0.24288 -0.22065 -0.055525 0.018078 0.53886 0.16831 0.094518 0.11949 0.38464 -0.20164 -0.2825 0.19671 0.35771 -0.32439 -0.41137 0.55626 -0.15397
mile 0.016017 -0.74534 -0.35033 -0.67395 0.08434 0.13691 -0.63729 -0.7847 -0.33011 -0.56364 -0.12834 -0.44495 -0.024493 -0.32422 0.75853 -0.1472 -0.059031 -0.52266 1.1806 -0.36012 -0.024251 1.8705 1.2933 0.41367 0.72927 -0.8086 0.33907 -0.12632 -0.48749 -0.033088 0.21124 0.077562 -0.16758 0.1265 0.3064 -0.51067 -0.24677 0.21243 -0.03757 -0.025302 0.36827 -0.0012988 0.19097 -0.24012 -0.24792 0.88789 -0.3523 0.11731 0.076899 -0.6965 -0.32793 -0.072228 1.1988 0.48324 0.90961 0.40466 -0.54945 0.37076 -0.20587 0.25395 -0.55319 -0.0060271 0.14724 -1.088 -0.27033 -0.33185 -0.0044348 -0.15453 0.44688 -1.1465 0.1118 0.19666 0.21617 0.17527 0.25751 0.13044 0.15201 -0.032391 -0.45889 0.63877 -0.043192 -0.54137 -0.38774 0.077573 0.040223 -0.87225 -0.093856 -0.43914 0.35242 0.078241 -0.12248 -0.44004 0.14735 -0.46125 0.73905 0.60053 -0.34239 -0.069411 -0.29132 -0.056322 -0.21486 0.11953 -0.32218 0.67301 0.47472 -0.28934 0.91078 0.92231 -0.062328 0.086878 -0.64028 0.40406 -1.0697 0.75332 0.54698 0.19971 -0.41014 -0.34053 -0.16792 -0.057725 -0.68791 -0.76174 0.5551 -0.55699 0.1288 -0.82898 0.36697 -0.29809 0.34682 -0.20373 -0.27478 -0.17981 0.61565 0.76865 0.13919 -0.20386 0.79104 -0.31174 -0.21591 0.10979 -0.5322 -0.29979 -0.15349 0.85283 0.78529 0.47302 -0.24613 0.67641 0.54736 0.48326 0.040823 0.94664 0.99025 0.18929 0.50494 0.87387 0.24999 -0.52473 -0.01279 -0.45827 -0.23007 -0.3504 0.020104 -0.29246 0.3044 -0.49232 -0.63064 0.60413 -0.81231 -0.14627 0.6857 0.32114 0.027582 0.19662 -0.17681 -0.071149 1.2459 -0.074587 0.042621 0.0066343 0.82605 0.063443 -0.45131 0.60431 0.089196 0.3685 -0.82127 0.52233 -0.48646 -0.11166 -0.12287 0.65127 -0.0017273 -0.63115 -0.19888 0.45237 0.55282 0.4434 -0.71605 0.21341
airport 0.17959 -0.12131 0.10328 0.18688 -0.53677 -0.52084 -0.66175 -0.72947 0.11105 0.30495 0.23351 -0.33685 -0.59184 0.34675 0.38772 -0.31631 0.027219 0.27058 0.40628 -0.4626 0.031701 2.3339 0.9206 0.32706 -0.32959 0.15645 -1.0961 0.053618 0.21792 -0.31929 -0.3929 -0.71627 -1.0911 0.25815 0.14814 0.15458 -0.31407 0.68697 0.50001 0.021318 0.12355 0.20512 -0.3356 0.34242 0.12077 0.12402 -0.57541 -0.34446 -0.018174 0.24286 0.27072 -0.2638 0.0055133 -0.070479 1.4993 0.2526 -0.34504 0.36437 -0.19268 0.036238 0.24162 -0.079703 -0.52223 0.3843 -0.69029 -0.27393 -0.20979 -0.17643 -0.054573 -0.34711 -0.83883 -0.097525 0.90753 0.12138 -0.28633 -0.22373 -0.077981 0.29933 0.034391 -0.2214 -0.70229 -0.29727 0.19826 -0.52734 -0.10624 0.052084 -0.62959 0.27703 0.054931 -0.15417 -0.29319 -0.12576 -0.36531 -0.79907 -0.079458 1.0499 0.11673 -0.84766 -0.33167 0.13154 -0.20993 0.19184 0.3827 -0.29053 -0.26539 -0.54634 0.31798 0.95895 -0.30091 0.2083 0.1831 -0.39164 0.459 0.86032 0.32443 -0.83742 0.75287 0.041123 0.30325 0.15987 -0.29793 -0.026257 0.35554 -0.4847 0.1838 -0.5185 -0.67978 -0.16604 -0.01108 -0.27711 -0.14492 0.63386 0.57102 -0.0031742 -0.29544 0.77719 0.54428 -0.31491 -0.08686 0.0063875 -0.015634 0.14744 0.65547 -0.54332 0.91393 0.84042 -0.31813 0.36517 0.92079 -0.099749 -0.46157 0.31452 0.40586 -0.033423 -0.11616 0.32147 0.13293 0.043807 -0.32377 -1.6408 0.46124 -0.61074 0.38696 0.46658 0.3182 0.7193 -0.87541 1.2912 0.23991 0.47933 0.13649 -0.061609 0.53086 -0.22289 0.33333 0.032847 0.17377 0.16246 0.070902 -0.54744 0.18475 0.67024 -0.16203 -0.73967 0.63513 0.16468 -0.16538 0.53824 -0.59098 0.67142 -0.04877 0.40733 -0.64137 0.12314 0.16008 0.86914 -1.0655 -0.60416 -0.39514 0.034322
population 0.85082 -0.40099 0.67327 0.33953 0.58408 0.25822 -0.35224 0.17652 -0.29142 -0.47643 0.29222 0.48568 -0.49814 -0.18622 -0.56817 1.0323 -0.023769 -0.031096 -0.45822 0.15198 0.21248 2.8801 -0.57898 0.057482 -0.18514 0.27323 -0.089546 -0.2177 0.31842 0.24001 0.50027 -1.1728 0.25287 -0.21104 0.83099 -0.19133 -0.14374 -0.06752 -0.13413 0.086195 -0.028783 -0.25556 -0.28072 -0.048409 -0.14237 0.80619 -0.15282 0.34644 0.11788 -0.88467 0.58296 -0.070823 -0.27803 0.66239 0.25367 -0.0096436 -0.18303 0.072411 0.026855 0.027312 -0.4782 0.21071 -0.71242 0.09267 0.68976 1.0367 -0.65806 0.95522 -0.08751 -0.64303 0.37256 0.64429 -1.2912 0.67587 0.048816 0.45299 0.95277 0.18767 0.56754 0.17065 0.45257 0.10577 -0.13775 0.58448 -0.45355 0.70468 0.14591 -0.56277 1.0078 0.45381 -0.52218 0.015045 0.38561 -0.46409 0.22407 -0.19369 0.13287 -0.96213 0.12138 -0.24578 -0.24322 -0.17083 -0.34758 -0.079174 -0.16127 -0.70239 0.7192 0.68455 -0.12866 0.064875 0.20174 0.44691 0.49696 0.19439 0.72353 -0.69472 -0.099663 0.040939 -0.0688 -0.28737 0.092342 -0.24523 0.45844 -0.24598 0.020776 -0.58128 1.0489 -0.065175 -0.10038 0.36463 0.23481 -0.47237 0.57114 0.32556 0.61387 -0.11673 0.025857 -0.33458 -0.71148 -0.019451 0.057934 0.50214 -0.26486 0.68292 0.92736 0.18355 -0.67625 0.23254 0.031472 -0.4887 -0.61739 0.24262 0.13485 -0.33219 1.4124 0.70711 0.50607 -0.26301 -0.70866 -0.70208 0.056894 -0.68198 0.12125 0.036035 -3.3099E-4 0.72054 -0.53237 0.4412 -1.0243 0.09855 -0.72623 0.40435 -0.23656 -0.24765 -0.1117 -0.6545 0.29512 0.32673 -0.49083 0.015058 1.1782 1.0968 -0.64511 1.0878 -0.065562 -0.12843 0.20211 0.55793 -0.10673 -0.47688 -0.58188 0.55621 -0.16527 -0.012793 -0.76084 -0.62416 0.1203 0.42945 0.12901 0.18094
planning 0.023401 -0.2659 0.16935 0.10346 -0.15067 -0.06501 -0.51366 -0.22003 0.33834 0.51428 -0.034677 0.38127 0.90694 0.38599 0.15549 -0.46847 -0.31851 0.055714 0.069961 -0.56761 0.25556 2.9697 0.18123 0.44834 -0.10476 0.58547 0.2321 0.19132 0.47604 0.030551 -0.33225 -0.45844 -0.038171 0.15338 0.61836 0.065052 -0.37588 0.011495 0.521 0.16155 -0.34562 -0.39417 0.079727 -0.32018 0.38611 0.24786 -0.26407 -0.11774 0.0025648 -0.16455 0.57321 -0.35675 -0.39165 0.20656 -0.10219 -0.32509 0.42899 -0.76581 0.31532 -0.15809 0.80416 0.37031 -0.25965 0.50885 -0.090211 -0.20459 -0.1126 0.96881 -0.30277 4.0533E-4 -0.043607 -0.18152 0.52571 0.057873 0.21264 0.52644 -7.15E-4 0.22454 -0.077826 -0.31751 0.23802 0.58071 -0.20443 -0.4515 -0.049849 -0.38903 -0.63867 -0.60432 1.2327 -0.22494 0.21786 0.022618 0.25573 -0.23689 -0.24107 0.33881 -0.05875 0.057307 0.19667 0.15111 -0.19093 -0.49365 0.036839 0.34057 0.24706 0.52593 0.05083 0.71144 0.074085 -0.035695 6.5288E-4 -0.35076 -0.060318 0.044512 -0.176 -0.13715 0.52446 -0.15466 -0.21823 0.039081 0.30606 -0.35193 0.68043 -0.019427 -0.25402 0.15665 0.54263 0.039797 0.26631 -0.0063299 -0.53221 0.040221 0.069322 -0.34545 -0.013925 0.35431 -0.197 -0.087341 -0.36145 0.095722 0.32868 -0.22868 -0.045117 0.24867 0.33596 -0.13806 -0.47215 -0.27953 0.078036 -0.16326 -0.40467 0.03299 -0.30612 0.0019103 0.26935 -0.34089 0.090313 -0.051993 0.36791 -0.37755 0.51741 0.229 -0.38594 0.39843 0.32421 0.2237 -0.75367 -0.57752 -0.15421 0.55785 0.41707 -0.30853 -9.7204E-4 -0.39971 0.26003 -0.27819 -0.18486 0.3075 -0.20989 0.62521 0.24914 -0.19525 -0.099141 -0.43729 0.089409 0.42555 0.21413 0.32381 0.12049 -0.18242 -0.10599 0.060121 0.072831 -0.13996 0.32612 0.83896 0.12701 -0.52284 0.076608 -0.031236
canyon -0.39619 0.39096 -0.54296 -0.02526 0.59731 -0.32998 -0.60751 -0.3151 -0.75599 -0.80901 -0.053843 -0.87136 0.42745 0.12555 1.2665 0.27108 -0.61148 0.22895 -0.062889 -0.073171 -0.091567 0.89448 0.49392 0.15086 1.0983 0.014652 0.29943 -0.10589 -0.18159 -0.033951 -0.18022 0.19192 0.023192 0.071065 -0.31178 -0.55789 -0.20317 0.16099 0.67054 0.83442 0.41013 0.12524 0.083061 -0.12799 -0.35647 0.22418 -0.24323 0.11998 -0.18038 0.38783 -0.14364 0.27294 0.31557 -0.12656 0.75253 0.88571 -1.2166 -0.17538 -0.13526 0.31025 0.064204 0.024528 0.56691 -0.41556 -0.40612 -0.63531 -0.21557 0.064421 0.35419 -1.2521 0.031464 -0.6952 -0.31995 0.6116 0.4755 0.51352 0.1626 0.25074 -0.095758 -0.61055 0.11031 -0.64107 -0.62143 0.21974 0.14648 0.080139 -0.43153 -0.52661 -0.0088373 -0.72292 0.49769 0.16822 0.061113 -0.20533 0.30241 0.27582 0.38639 -0.36607 -0.26384 -0.30853 -0.2641 0.98747 -0.14427 -0.15838 -0.016627 -0.69446 -0.30164 0.3385 -0.023764 0.44762 -0.57713 0.39942 0.27123 -0.24124 0.0043022 -0.082664 0.11008 -7.6305E-4 0.46144 0.36153 0.48326 -0.49809 -0.36384 -0.40467 0.16628 -0.72598 0.61042 -0.036657 -0.11299 0.27224 0.66233 0.46912 -0.32443 -0.27327 0.97325 0.11681 0.56988 1.1307 0.27064 -0.44643 0.6813 0.068388 -0.039205 1.1121 0.49453 1.0262 0.37248 0.59778 0.72265 0.37448 -0.11495 0.06754 -0.66891 -0.029892 0.66286 0.39988 0.0034997 0.70036 -0.34529 -0.085389 -0.73672 -0.051133 -1.0328 0.50656 -0.1651 0.087658 -0.44346 0.0085289 -0.21678 0.1125 -0.075316 -0.1108 0.33079 0.084921 -0.018794 -0.31469 0.46915 0.16179 -0.12142 -0.069865 -0.014162 0.74698 -0.73031 -0.075147 -0.75812 0.2953 -0.18006 -0.37128 -0.32754 1.1886 0.24323 1.0496 0.042976 -1.0673 -0.17098 0.25227 0.064886 -0.0075684 -0.13335 -0.22891
delay 0.09645 0.23042 0.15562 -0.21254 -0.30348 0.30957 -0.71495 -0.35792 0.37405 0.35683 0.29501 0.012385 0.40812 0.033401 0.4546 -0.6386 -0.60805 0.42484 0.098606 0.021907 -0.28215 1.9638 -0.82254 0.080586 0.12466 0.29908 -0.51102 0.69956 0.66053 -0.12482 -0.083627 -0.44583 0.26458 0.51815 0.057164 0.31511 -0.20385 -0.80549 -0.24638 -0.24754 -0.022014 -0.50473 0.32946 0.42029 0.7428 -0.30124 -0.54068 0.26672 -0.56299 0.47865 0.35872 -0.48448 -0.65611 -0.16232 0.23301 -0.16743 0.36294 -0.048882 -0.059899 0.087082 0.52677 -0.15556 0.0062447 -0.38826 0.49669 -0.29216 -0.15731 -0.091631 -0.0043575 0.79076 0.31415 0.18693 0.75101 -0.0048722 -0.016906 0.7817 -0.40674 -0.077132 0.20387 -0.046079 0.12057 -0.14117 0.12389 0.036164 -0.19241 -0.53763 -0.36433 -0.1862 0.067105 -0.83578 0.21012 -0.10188 0.19454 -0.063646 -0.23587 0.33659 -0.44018 0.43701 -0.15184 0.28469 0.4668 -0.36848 0.42392 -0.58765 -0.42677 0.32859 0.21624 0.70325 0.16842 -0.35087 -0.15604 -0.59267 0.076769 0.53118 -0.042315 0.077954 0.44275 -0.65894 -0.11582 0.45852 -0.20557 -0.35902 0.113 -0.27925 -0.15306 0.45609 0.3887 0.12387 0.24326 0.50239 -0.92502 0.48946 -0.13156 0.25098 0.46893 0.42844 0.4718 -0.048118 -0.16822 0.67096 -0.27217 0.45113 -0.062075 0.017874 1.3542 0.085515 -0.61994 -0.022664 -0.6372 -0.30727 -0.46646 0.75576 0.040683 0.13642 -0.042402 -0.5432 -0.0097595 0.33443 0.43391 0.017999 0.44628 -0.17267 -0.095812 -0.079798 -0.03348 0.15842 -0.27059 -0.18337 0.72891 0.50745 0.20019 -0.28596 0.25502 0.10797 0.080522 -0.15558 0.42078 0.30658 0.22879 -0.34951 0.63138 -0.017067 0.29631 0.0018021 -0.24527 0.096884 -0.032342 0.20418 -0.45655 -0.49565 -0.58294 0.19402 -0.29084 0.26979 0.14216 0.075179 0.12517 0.026465 -0.34895 0.27669
size 0.71957 -0.35776 0.12083 0.085616 0.48312 -0.16461 -0.49095 -0.17213 -0.2319 -0.8675 -0.77066 0.33516 0.088305 0.33491 0.068885 -0.31458 -0.39792 -0.71206 0.12358 -0.66958 0.22186 2.379 0.10705 0.50608 -0.39332 0.32172 -0.022818 -0.42796 -0.25839 -0.092897 0.36467 -0.58037 -0.0066038 -0.38997 -0.049119 0.39947 0.033139 -0.20225 0.10814 -0.32672 -0.52367 -0.46144 0.053321 0.86346 -0.71274 0.56592 0.33424 0.14229 -0.20282 0.090792 0.48487 -0.46124 -0.63151 0.59686 0.85238 0.24527 -0.39405 0.22482 -0.49085 -0.12325 0.13709 0.15084 -1.0182 -0.82228 -0.28721 0.2342 -0.5332 -0.11235 0.78318 -0.28138 0.53494 0.22579 -0.1365 0.5474 0.079153 0.26504 -0.11958 -0.013036 0.30925 0.46527 -0.034358 0.018651 0.23597 0.1968 0.56614 0.57181 0.089487 -0.24548 1.118 -1.0555 0.48265 0.3108 0.26637 0.32503 0.80168 -0.43395 0.66773 -0.55529 -0.39454 -0.26899 0.26049 -0.45053 -0.25471 -0.60724 -0.33605 -0.17582 0.090855 0.3049 -0.22542 -0.40768 -0.48478 0.84018 -0.27158 -0.074471 -0.15111 -0.57814 0.38396 -0.44835 -0.046481 -0.34422 0.20875 0.66551 -0.46421 -0.1614 0.12956 -0.20082 0.68743 0.22255 -0.47801 0.15364 -0.21701 -0.99587 -0.41547 -0.20565 -0.051345 -0.04833 0.14238 -0.64295 0.32164 -0.28149 0.25744 -0.43032 0.31738 0.27451 0.96287 -0.063239 0.31539 0.049227 0.12005 -0.64908 -0.14322 -0.24938 -0.37905 0.37388 0.11952 0.21966 -0.0053378 0.17874 0.13105 -0.86961 0.7581 -0.15801 -0.068259 -0.37918 -0.46786 0.50934 0.36794 -0.17285 -1.2058 0.24503 0.53734 -0.040985 -0.20694 0.093605 0.045525 -0.21289 1.1896 -0.24892 -0.55827 0.83729 1.2637 -0.38726 -0.17357 0.32163 0.23452 -0.31665 0.20558 0.4993 0.18115 0.2555 -0.48662 0.56223 0.081528 0.20231 0.3358 -0.13936 -0.24819 0.13487 -0.069841 0.039286
peace 0.041377 0.98132 0.15768 0.67227 -0.59986 -0.18064 0.0062573 -0.53021 0.62512 0.64036 -0.25905 1.1363 -0.35141 0.39977 0.35512 -1.0997 -0.10907 0.95832 -0.39097 0.16127 1.4555 2.9466 0.17121 0.35399 -0.11145 0.12979 0.48397 0.72955 0.69124 0.53767 -0.27509 -0.045676 -0.056085 -0.20574 -0.19691 -0.58362 -0.9896 -0.049928 -0.41067 0.62003 -0.10641 0.97319 0.26605 -0.1454 -0.050069 0.4851 -0.27682 0.087148 0.27988 0.11284 0.14089 0.68257 -0.28795 0.13057 -0.40005 0.29161 0.71191 0.31088 0.56306 -0.78758 0.85382 -0.23202 0.13343 0.36854 0.69908 -0.28079 -0.38014 0.19595 -0.27864 0.14425 0.59705 -0.023293 -0.15329 0.14565 0.10418 0.27348 -0.37529 0.052472 0.35992 -1.4081 0.88044 -0.51258 -0.90334 0.20127 0.50922 0.2761 0.21862 0.26303 0.3733 -0.32378 -0.33905 -1.3075 0.38505 -0.74769 -1.0055 -0.044069 -0.74385 0.29211 -0.6386 -0.4195 0.013712 -0.077622 0.33727 -0.11528 -0.21839 0.060692 -0.35859 0.6822 0.24451 -1.3197 -0.28794 0.091872 -1.0288 -0.0045886 -0.071734 0.014276 -0.91162 -0.28091 -0.85372 0.35356 -0.37305 -0.10045 0.29539 -0.39161 -0.16585 -0.9688 0.26685 -0.16304 -0.24494 -0.27893 -0.02102 0.67951 0.23897 -0.002737 -0.068308 0.0023799 0.12278 -0.095117 -0.2159 0.068196 0.24828 0.40839 0.32625 0.5056 1.4131 0.86942 0.17088 0.6375 -0.69414 0.48547 0.013383 0.41317 0.32448 -0.019592 0.42324 -0.18202 -0.52254 0.75719 -0.22819 -0.29039 -0.17456 -0.17577 -0.15571 -0.32644 0.015304 -0.35332 0.009128 0.23658 -0.23784 0.48825 -0.34646 0.14424 -0.31533 -0.79848 0.56586 -0.18907 -0.54033 -0.096676 0.0068986 -0.23832 0.9996 0.60895 0.46285 -0.17755 0.67026 0.58603 -0.27452 -0.23946 0.13462 0.15709 -1.0645 0.12858 0.31905 -1.2031 -0.012124 -0.34552 -0.36122 -0.76058 -0.04584 -0.52389
science -0.31902 0.41731 0.4091 -0.32121 0.76563 -0.23353 -0.34881 -0.41082 0.12374 0.063786 -0.15181 0.93636 -0.57015 -0.62808 -0.1992 0.40572 0.042642 0.13705 0.06591 -0.043851 0.069655 2.8731 0.16744 0.4097 0.35512 0.50274 -0.10088 -0.1604 0.41156 -0.34513 0.48924 0.77696 -0.16249 -0.43176 -0.037504 0.46752 -0.17515 -0.33527 0.87905 -0.23911 -0.26163 0.31341 -0.18848 -0.031475 0.23863 0.25411 0.81174 -0.93597 0.56657 0.54947 0.4129 0.32429 0.18373 0.16601 -0.43178 0.037353 0.13354 0.14155 0.26561 -0.24286 0.078027 0.28887 0.11038 0.49634 -0.272 -0.043012 0.25192 1.0046 -0.013838 0.45132 0.078007 -0.33074 -0.17489 0.31712 0.099553 -0.24447 0.62728 0.39636 -0.3425 -0.53052 0.35254 -0.26395 -0.44081 0.68396 0.173 -0.25805 -0.61307 0.5222 1.8207 -0.16643 0.25494 -0.89525 0.4366 0.26205 -0.48415 -0.49341 0.22011 -0.050368 0.7525 0.61517 0.27 -0.028995 -0.28992 0.94649 0.10401 -0.74463 -0.53406 0.51702 -0.87481 0.21361 0.55666 -0.36344 0.69368 0.52189 -0.53172 0.36386 -0.5845 0.20573 -0.31602 0.55586 -0.47628 0.01677 -0.76338 -0.29723 -0.10021 0.20101 -0.60531 0.49634 0.19397 -0.46435 -0.61313 -0.54136 -0.2657 -0.077306 -0.50092 0.13969 -0.16833 0.51764 -0.073665 0.61146 -0.43582 0.16184 -0.38076 0.49612 0.099786 -0.080657 -0.35808 -0.2303 0.46474 0.15847 0.37411 0.11067 -0.27832 -0.47363 0.1629 -0.51022 -0.23189 -0.021248 0.30587 -0.73337 0.68853 0.39477 0.017422 -0.13072 0.33022 -0.31601 -0.88523 -0.5294 -0.44113 0.87561 0.48346 0.56573 -0.13172 -0.022981 -0.091186 0.39469 -0.5768 0.14347 0.20714 0.90934 0.47392 0.18727 -0.41782 0.14765 0.038253 0.11732 -0.47217 -0.15097 -0.0064329 0.19038 -0.038659 0.21883 0.59805 -0.066682 -0.34386 -0.21838 -0.16599 0.27436 0.17316 -0.028893
dawn -0.025771 0.43474 -0.3593 -1.1434 -0.92634 -0.22638 0.099531 -0.14714 0.12271 0.63922 0.313 -0.0015991 0.3791 0.018988 -0.53358 -0.28106 0.15634 0.16339 0.38579 0.20551 0.1458 1.1552 0.54908 0.074497 0.18464 -0.036967 0.0078657 0.13723 -0.30771 0.19473 -0.20656 0.19616 0.0048269 0.0035609 0.37401 0.32511 -0.10049 0.11811 0.50513 -0.13956 -0.033877 0.10259 -0.080036 0.6233 -0.15144 0.29724 -0.28577 -0.05376 0.11705 -0.0081239 -0.83326 0.06785 -0.28087 0.099455 -0.55287 -0.08393 0.038041 0.077138 -0.048667 -0.13205 0.0089926 0.22559 0.1568 0.57338 -0.050049 -0.54701 0.56535 -0.67733 -0.61212 -0.16677 -0.32259 0.41124 0.34077 0.50452 0.51387 0.22017 0.35211 0.43748 0.054573 -0.086734 -0.10194 -0.47566 -0.42825 -0.03819 0.27266 0.19288 -0.10589 0.59879 -0.28188 -0.38584 -0.14846 0.088968 0.11061 -0.29379 -0.55091 0.39195 -0.28116 -0.28227 0.012147 -0.16299 0.84305 0.037649 0.6684 0.31631 0.049125 -0.23315 0.25418 0.76377 -0.14472 0.60834 0.033378 -0.56825 0.50554 -0.093124 -0.2978 0.40403 0.10656 0.54246 0.14563 0.1765 0.14863 -0.30679 0.10135 0.046512 1.2988 -0.8146 0.35132 -0.21131 0.27871 -0.39887 0.11955 0.92127 0.056107 0.019116 -0.066496 -0.59564 0.70691 0.13909 -0.10724 0.69622 0.23058 -0.025154 0.27158 -0.3367 1.0785 0.52364 0.066931 -0.46359 -0.03251 0.33386 0.27456 0.6043 -0.015508 0.77518 -0.017798 -0.14029 0.45095 0.13696 -0.40638 0.059927 0.35214 0.2813 0.15332 0.67164 0.91614 0.32325 -0.7035 -0.27307 0.25839 0.051553 -0.22599 -0.34294 0.02173 -0.10266 -0.20789 -0.16467 0.095573 -0.5405 -0.43868 -0.2566 0.51711 0.30249 -0.32732 0.157 -0.27723 0.042726 0.010206 0.067148 0.21992 0.22691 -0.24872 0.54533 0.20911 -0.91583 -0.19078 0.37182 0.12913 0.32347 -0.43891 -0.18384
brother -0.64178 0.0093704 0.37599 -0.32968 -0.091305 0.22362 -0.099868 0.12085 0.083682 0.10718 -0.28847 -0.47359 0.54222 0.26601 -0.095711 -0.086583 0.47524 0.057704 -0.32354 -0.13839 0.50962 1.9432 0.36242 -0.024731 -0.16342 -0.006066 -0.25385 -0.59499 0.32401 0.17617 -0.10592 0.16163 0.071758 -0.29207 0.068063 -0.19174 -0.4066 -0.046982 -0.32256 -0.035878 -0.91575 -0.39095 -0.52516 0.28991 0.14907 0.14325 0.28964 0.68352 0.2353 -0.093217 -0.14287 0.32129 -0.10094 -0.4266 0.36404 0.24412 0.26356 -0.50364 0.3496 -0.58761 -0.29927 -0.35332 -0.75199 0.2154 -0.04214 -0.66435 0.29729 0.49682 -0.036812 0.55686 0.9657 -0.86999 -0.65812 0.51629 0.12853 -0.80834 -0.7094 -0.019028 0.26055 0.069471 0.69047 0.54281 -0.64276 -0.57896 0.18714 0.55877 -0.66838 -0.63478 -0.42838 -0.12492 0.049102 0.09811 -0.25987 0.65355 -0.77019 0.62223 -0.15402 -0.21643 0.026281 0.04578 0.01262 0.062978 -0.40825 -0.32658 -0.25699 -0.85168 0.33502 0.79655 0.096635 -0.085695 0.46905 0.28165 -0.88839 -0.047494 -0.43026 -0.24978 -0.32333 0.078063 -0.71453 -0.55888 0.12486 0.46383 -0.0058558 0.28174 0.99199 -0.58986 -0.18176 0.56175 0.99325 -0.25027 0.2788 -0.48569 0.21968 0.046119 -0.1203 0.51408 0.46206 0.2086 -0.8048 -0.51871 0.027215 0.27555 0.19599 0.10392 1.1816 0.1822 0.15959 -0.22665 0.084208 0.32538 0.42762 -0.25149 -0.4545 -0.12403 -0.16321 0.16504 -0.45181 -0.26939 -0.31806 -0.31832 -0.096794 0.22267 0.1059 0.066551 0.12078 0.30924 0.1983 0.33766 0.48563 0.09595 0.042076 -0.53711 0.28735 0.21112 -0.026716 0.30361 -0.11843 -0.64264 0.99666 0.39018 0.66797 -0.46022 -0.16968 0.12557 -0.39895 -0.85452 0.12372 0.044329 0.10901 -0.19063 -0.051917 -0.3913 -0.28219 0.39414 0.017312 0.30637 -0.14707 -0.53397 -0.03295 -0.1024
wine 0.72558 0.73963 -0.059193 0.062454 0.1451 -0.5254 -0.32471 -0.54069 0.42832 -0.81345 -0.2898 0.26914 0.028241 -0.29387 0.37546 0.61252 0.014299 0.28302 0.15609 -0.30687 -0.11969 1.6708 -0.22269 0.057676 -0.1638 -0.59247 -0.28464 0.83727 -0.14972 -0.1104 0.078224 0.2586 0.51132 0.41984 -0.57131 0.33255 0.17006 0.45269 -0.022731 -0.26979 0.54535 0.33007 0.54257 -0.41457 -0.055503 -0.26071 1.3054 0.74354 0.0050929 0.74349 -0.67591 0.93541 -0.072848 0.19117 0.038015 -0.096186 -8.5282E-4 0.28715 0.57012 -0.57306 0.48167 0.68772 -0.82828 -0.23124 -0.35357 -0.012797 -0.10887 0.23129 0.39794 -0.76459 -0.062186 0.48089 0.014322 -0.79485 -0.13225 -0.18071 0.055654 -0.67858 -0.64835 -0.3672 -0.25091 -0.60959 0.03594 -0.56927 -0.14903 0.031747 0.77394 -0.38894 0.63589 -0.39147 -0.10544 0.47491 -0.16271 0.22883 0.13336 -0.5154 -0.075399 0.37161 -0.45184 -0.010968 -0.19646 0.79975 -0.32513 0.23085 0.55759 0.32249 0.27877 1.3357 -0.23332 -0.11301 0.26089 0.21651 0.20935 -0.23661 0.087993 -0.97046 -0.60718 -0.33147 -0.78661 0.079902 0.51805 0.301 -0.60495 -0.51016 0.86284 0.98572 0.90044 -1.238 0.28878 -0.20624 0.31845 -0.32187 0.048295 0.090902 -0.60081 -0.34821 -0.5556 -0.34762 -0.019124 -0.35581 0.10846 -0.41423 -0.065354 0.046507 0.024473 0.13216 0.24936 -0.93691 0.81033 0.10662 -0.20057 0.22044 -0.3604 0.0012254 1.3807 0.49268 -0.32898 0.61305 0.49898 -0.082347 -0.32553 -0.41688 0.89097 0.66773 -0.28421 0.96124 -0.19066 -0.79475 0.14869 0.214 -1.598 -0.62946 0.46664 0.79295 -0.28324 -0.086694 -0.029503 0.1323 0.41104 0.22495 0.65488 -0.84761 -0.39405 0.13848 -0.40027 -0.28024 0.14519 0.60494 -0.29255 0.76318 -0.41834 0.098372 0.20216 -0.29538 -0.06679 0.4193 -0.75935 -0.035269 0.019028 -0.12052
object 0.79324 0.145 0.10161 -0.58796 -0.1009 -0.58062 -0.083199 0.11027 0.2135 -0.62246 0.17457 0.49629 0.26183 0.55081 0.11345 -0.017905 -0.22638 0.34411 0.010585 -0.22478 -0.39163 2.3942 0.37397 0.22398 -0.19117 0.27514 0.16083 -0.1023 0.32997 -0.22456 -0.37844 0.057377 -0.23887 0.4804 0.35887 -0.037001 -0.42736 -0.37263 0.029406 -0.20967 -0.20916 0.16116 0.78448 0.77928 -0.25023 0.41546 0.3096 -0.16393 0.63575 0.79625 -0.38588 -0.1847 0.063901 -0.18512 0.83209 0.15589 0.35097 -0.17681 -0.048523 0.46763 -0.41584 0.10953 0.33718 -0.22747 0.19136 0.092405 -0.31045 0.1644 0.19496 0.2297 -0.34386 0.69462 -0.5079 -0.18737 -0.27288 -0.45371 -0.077512 -0.39303 -0.43819 -0.49442 -0.34487 -0.0063241 0.55824 -0.25442 0.45259 0.44779 0.066579 0.29473 0.65902 -1.0408 -0.015918 -0.059938 -0.18909 0.26967 0.31491 -0.25538 0.69698 0.58274 -0.30874 0.10265 0.22991 0.022829 -0.14013 0.10449 0.47035 -1.1943 0.051334 -0.28285 0.15551 -0.025844 0.12679 0.13744 0.41139 -0.51733 0.13417 0.51302 0.062613 -0.1755 -0.16778 0.79902 -0.0058527 0.37416 0.041519 -0.12599 -0.34757 -0.14737 0.31788 0.4402 -0.30521 -0.26995 -0.032366 0.42671 -0.010705 -0.26891 -0.1449 -0.41074 -0.30333 0.032374 -0.089007 0.29624 0.1777 0.019981 0.4008 -0.75835 1.083 -0.59734 -0.51684 -0.16069 0.56256 -0.31757 -0.017509 0.44614 -0.83868 0.024051 -0.59415 -0.15535 0.27324 0.38664 -0.018646 -0.46188 0.19536 -0.2406 -0.29408 -0.23756 -0.30634 0.22275 0.020129 0.051407 -0.19562 0.18588 0.85391 0.54368 0.50484 -0.13013 0.25621 -0.27462 0.048933 0.042692 -0.35571 0.1843 0.35077 -0.30024 0.44907 -0.46693 0.3537 -0.35542 0.18411 -0.39876 -0.20024 -0.25796 -0.60641 -0.29615 0.62366 0.043034 0.83648 -1.1101 0.14694 0.81228 -0.71796 -0.45471
attitude 0.42211 0.18097 0.71054 0.20183 -0.49379 0.020946 -0.16057 0.25039 0.78586 0.16447 0.1132 0.15235 -0.80674 0.30634 -0.0081245 0.39068 -0.054829 0.34803 0.36315 0.098402 0.75972 1.7285 -0.45663 0.63847 0.20773 0.54145 0.1992 -0.28453 -0.33413 -0.36276 -0.22467 -0.72164 -0.62369 -0.050975 -0.42158 -0.16055 -0.77964 0.029857 -0.51635 0.95516 0.23498 0.090296 -0.16883 0.30566 -0.32019 -0.26613 0.35801 0.11824 0.13771 0.725 -0.23872 0.086613 0.039262 0.44352 -0.085676 -0.29746 0.10793 -0.0080204 -0.079253 -0.13818 0.15587 -0.57633 -0.58705 -0.14717 -0.16785 0.96062 0.17798 0.25339 0.66704 0.30195 0.10809 0.37644 -0.46001 0.063507 -0.51234 -0.8447 -0.70044 -0.095412 0.10355 -0.27783 0.074189 -0.053001 -0.028627 0.1157 0.41617 0.096956 0.36805 0.09214 0.71592 -0.37115 0.23187 0.090412 0.20892 0.15927 -0.46983 0.013469 -0.34548 0.30858 0.33799 0.21171 0.23468 0.10506 -0.15828 -0.69051 -0.087095 0.25804 -0.35233 0.14147 -0.32772 -0.094714 0.15939 -0.55993 0.076513 -0.011088 -0.017002 0.73856 0.17574 0.42673 0.009486 -0.20815 0.39266 0.26009 0.34547 -0.41823 -0.27006 0.57036 -0.10323 0.34655 -0.29627 -0.2829 0.11898 -0.40938 0.18475 0.20204 -0.7322 0.10589 -0.13959 -0.29895 0.06362 -0.43955 0.075936 0.027127 -0.16882 -0.25706 1.5263 0.13032 0.22889 -0.83884 0.11795 0.60489 0.13878 0.13013 0.28638 0.18118 0.4241 -0.28161 -0.63776 -0.0064706 -0.35527 0.2114 0.26518 -0.15348 -0.065516 0.12864 0.093959 -0.3863 -0.5394 0.1805 -0.037232 0.41232 0.47094 0.10288 0.21087 -0.25118 -0.3451 -1.0228 -0.42821 0.46558 -0.40431 -0.055006 0.7024 -0.029543 0.21615 0.051378 0.23071 0.27305 0.52831 -0.48896 -0.12864 0.19121 -0.78521 -0.16829 0.074358 0.17515 0.20609 -0.0058931 0.65965 0.30432 -0.44524 0.52631
treatment -0.42201 -0.13078 -0.077528 0.10292 -0.24445 -0.29942 -0.98154 -0.078707 -0.32892 0.20129 -0.053034 -0.065621 -0.080216 -0.0046818 -0.11886 -0.030058 0.093914 0.45239 0.2605 0.29331 0.20692 2.9133 -0.45438 -0.11077 0.39182 -0.18214 0.44473 -0.15589 0.090351 0.4484 0.35566 -0.7484 0.002183 0.29407 0.10252 0.15637 -5.2392E-4 -0.35235 -0.56983 0.24296 -0.36141 -0.047291 -0.73321 0.50157 0.14949 -0.42534 0.18411 -0.20048 0.19526 0.15129 -0.022425 0.071602 -0.50077 0.068968 0.5181 -0.33013 0.079892 0.64594 -0.67495 -0.037976 0.19646 -0.67936 0.14988 0.32725 -0.067612 1.0322 -0.18887 0.022893 -0.23732 0.79097 -0.033532 0.13 0.22925 0.19229 0.35725 -0.050752 -0.068814 -0.71882 -0.0017101 -0.63077 -0.18372 -0.13331 -0.23531 0.32122 0.45303 -0.26443 0.37979 -1.3635 0.43344 -0.61323 0.75288 0.65037 0.58514 0.1754 0.0094567 0.16273 -0.2222 -0.048277 -0.17058 1.0896 -0.1083 0.035601 -0.39679 0.41015 -0.11735 -0.24001 0.49386 1.0205 -0.18215 -0.11265 0.42199 -0.14656 0.6955 0.30462 0.22734 0.27861 0.29396 0.69571 -0.23608 -0.53943 -0.54405 -0.77713 0.15455 0.15395 -0.46582 0.41168 -0.080345 -0.54625 -0.69491 -0.26073 0.50354 0.58125 -0.58689 -0.057745 0.80072 -0.3504 -0.72842 -0.7127 -0.23111 -1.2108 0.16475 0.28023 -0.53544 -0.2493 0.51668 0.21285 -0.87741 -0.68379 -0.35721 -0.089014 -0.41869 0.18811 0.15816 -0.26948 0.46194 -0.11325 0.34879 -0.38789 -0.68982 -0.27324 0.17548 0.51541 -0.031224 0.17229 0.50723 -0.469 -0.44664 0.46934 0.29426 0.43376 -0.37276 0.24379 0.061965 -0.031611 0.30031 0.030397 -0.0018528 0.21219 0.84689 0.11051 0.69002 -0.38637 0.17855 -0.033567 -0.02288 0.35041 0.063172 -0.068696 -0.49612 0.52804 -0.011383 -0.061046 0.08926 0.57796 -0.035282 0.11175 0.01061 -0.39149 -0.33022 0.204
flight 0.22641 -0.05197 -0.25875 -0.48999 0.1131 -0.40241 -0.96996 -0.99874 -0.096283 0.32567 0.39396 0.032263 -0.41822 0.46785 0.10587 -0.15942 -0.59248 0.30314 0.21221 -0.11603 0.57467 2.1651 0.17403 0.033491 -0.47527 0.44494 -1.0812 0.14655 0.47345 -0.35689 0.72665 -0.49426 -0.26929 -0.24262 0.39598 0.30896 -0.87331 0.67142 -0.20445 -0.020649 0.42707 0.18714 0.29806 0.28505 0.036205 0.53591 -0.28816 -0.058061 -0.24446 0.40178 0.2228 -0.45896 -0.3222 0.10224 0.51969 -0.64236 -0.03981 -0.24972 -0.40485 0.25501 0.023016 -0.14365 -0.23525 -0.045339 -0.34446 -0.92391 0.53268 -0.53092 -0.2235 -0.33199 -0.38701 0.15494 1.0585 0.40089 0.14946 -0.0090545 4.9471E-4 -0.067488 -0.27675 -0.36729 -0.33292 0.67077 0.16672 -0.050058 0.076161 -0.21295 0.507 0.052926 0.36182 -0.55834 -0.083763 0.37836 -0.48567 0.20013 0.37992 0.50668 -0.14021 -0.72487 -0.020688 0.27872 -0.16065 -0.2225 -0.2172 -0.060017 3.4092E-4 -0.43773 0.33394 0.19485 0.40072 -0.098416 8.7567E-4 -0.47621 1.287 0.021443 -0.36224 -0.15543 0.33382 -0.37013 0.36084 -0.22755 0.43683 -0.080466 -0.16454 -0.72668 -0.21142 -0.81051 -0.75674 0.075004 0.36448 -0.73152 0.10292 0.61788 0.67993 0.49516 -0.116 0.78344 0.34525 0.48578 -0.42051 0.61524 -0.35269 0.36332 0.42195 -0.071869 1.7859 0.17717 -0.37483 0.56652 0.47779 -0.045678 -0.61254 -0.27561 0.25406 0.39351 -0.19059 -0.22395 0.59445 0.33633 0.30245 -1.0414 -0.091895 -0.51209 -0.55586 -0.020931 0.5918 0.13289 -1.5254 0.71778 0.19097 0.28377 1.0895 0.25023 0.47254 0.41233 0.44905 0.22994 -0.91001 0.44813 -0.20662 -0.50773 0.83344 0.11285 -0.6407 -0.044477 -0.37058 -0.22583 -0.38197 0.17712 -0.51246 0.59685 -0.8611 0.23765 -0.52989 -0.023761 0.025345 0.20015 -0.14562 -0.32387 0.33093 0.18271
forest 0.70104 -0.48296 -0.1026 0.023383 0.33939 -0.31274 -0.058881 -0.70027 -0.12072 -0.52311 0.020468 0.69757 -0.12897 -0.30615 0.7077 0.68926 -0.06041 0.09739 0.43474 0.87056 0.036827 1.8505 0.46426 -0.17405 0.62301 0.067294 0.47017 0.58422 0.27401 -0.43144 0.24024 -0.10774 -0.38026 1.1548 0.81938 -0.96056 -0.95196 0.74141 0.75051 -0.043626 0.15338 0.28454 0.33272 -0.14646 0.10056 0.5197 0.098896 0.069181 0.61095 0.035759 0.048311 0.75293 0.33172 -0.34978 -0.1068 0.39465 -0.54873 -0.39708 0.026384 0.39822 0.075048 0.24178 0.17245 -0.4979 -0.85356 0.31327 -0.12945 0.55656 0.13698 -1.2295 -0.38607 -0.93226 0.05053 0.89254 0.44305 0.33373 0.30301 -0.37726 -0.39075 -0.79767 0.36912 0.54113 -0.6128 0.61055 -0.20283 0.0013075 -0.31535 -0.47948 0.22276 -0.57484 -0.13313 -0.095883 -0.025399 0.68344 0.079931 -0.31759 0.042321 -0.55938 0.13051 -0.10936 0.11189 -0.36172 0.37524 0.73842 0.78003 -0.97618 -0.12959 1.469 -0.2709 -0.93294 -0.1069 0.44956 -0.35683 -0.12489 -0.26426 -0.41714 0.17392 0.35548 0.060413 0.30685 -0.037535 0.045317 -0.38549 -0.2242 0.49703 -1.2922 0.39429 -0.15973 -0.082231 0.097251 -0.80978 -0.34106 -0.5285 0.17768 0.95618 -0.78431 0.41887 0.56807 0.057194 0.054556 -0.24225 0.69002 0.18888 0.26593 0.22884 0.17907 -0.44729 0.45706 -0.084121 0.46298 -0.63163 -0.29313 -0.38741 0.12713 0.73395 -0.47745 0.17777 0.03937 -0.56408 -0.54738 -0.077037 0.48081 -0.095108 0.38939 -0.15798 0.41889 0.15582 0.39684 0.48957 0.33855 -0.077824 -0.032876 0.014877 -0.28717 0.079767 0.47941 0.49898 0.52581 -0.35163 -0.1258 0.68587 0.43526 -0.53639 0.039557 -0.052712 -0.11985 -0.2575 -0.11179 -0.31163 0.72593 0.38623 0.70421 0.19326 -0.18485 0.17039 0.60305 0.25412 0.48524 -0.43589 -0.06454
abuse 0.31327 -0.34794 -0.64612 -0.698 -0.8873 0.42961 -0.52362 0.94747 -0.084948 0.61024 0.72428 0.57345 -0.019751 0.45539 0.35496 0.46004 -0.19041 0.024794 0.096405 0.5031 0.57111 2.2287 -0.75396 0.63893 -0.14558 -0.65545 0.43895 -0.34317 0.46277 -0.2261 -0.52618 -0.87027 0.77257 0.50429 -0.4209 0.15755 -0.21948 -0.049325 -0.19633 0.21953 0.054119 -1.2781 0.33079 0.66095 -0.01064 -0.22488 0.15339 -0.3327 0.43182 0.28679 0.22487 0.032528 0.059616 -0.31205 0.28441 0.046829 0.26639 0.46963 -0.14671 0.37456 -0.011152 -0.021054 0.069464 0.13403 0.34846 -0.030897 0.30358 0.3031 -0.80328 0.50114 -0.11416 0.5268 0.21838 -0.37002 -0.51428 0.16903 -0.022437 -0.29932 0.21066 -0.29689 -0.70115 0.45222 -0.50291 0.20381 -0.11352 0.23343 -0.37418 -0.36056 0.54957 0.11992 0.71616 0.58209 0.72515 0.71682 -0.049544 -0.25334 0.24435 0.083111 -0.54877 0.53669 -0.035669 -0.39403 -0.25685 0.14217 -0.38145 -0.51293 0.37439 0.71263 0.5182 -0.58879 1.161 0.77478 0.5042 0.31747 0.58986 0.59576 0.73902 0.66673 -0.41213 -0.53271 -0.61329 -0.40367 0.099071 0.17215 -0.38094 -0.47026 0.42996 0.32127 0.33907 -0.12746 0.90839 -0.27474 -0.84795 -0.14625 0.016614 -0.3033 0.1172 -0.68546 -0.22735 -0.53165 -0.26381 0.17308 -0.36543 -0.37314 0.5109 -0.31336 -0.6634 -0.32487 0.15971 0.2099 0.23104 -0.15277 -0.78952 -0.084789 0.38308 0.45085 0.33351 -0.39198 -0.08865 0.20911 -0.63895 -0.042282 0.33694 0.21484 -0.033756 -0.40646 0.16141 0.31997 0.070398 0.94193 -0.34872 0.59704 0.061614 -0.56738 -0.2661 -0.49334 0.23543 0.53868 0.46924 -0.63613 1.0673 -0.080312 0.0016401 -0.21176 -0.23482 -0.35005 0.165 -0.43669 0.36999 0.16286 -0.10674 -0.39631 0.12592 0.35189 -0.25034 -0.36757 0.078817 -0.57376 -0.25233 0.43789
criterion 0.51233 -0.068729 -0.062181 0.51209 0.41291 0.068487 -0.026041 0.25858 -0.070045 -0.079359 0.18461 -0.68461 -0.13452 0.72929 -0.13091 0.82316 0.38826 0.042956 -0.14765 -0.53281 0.068789 0.66998 0.21149 -0.23398 0.10664 0.029375 0.17668 -0.36081 0.39842 0.88458 0.0086622 0.18708 0.24194 -0.58499 -0.01105 0.58396 0.62575 -0.79775 -0.24688 -0.36125 0.17461 -0.1909 -0.29671 0.27428 -0.52653 0.51371 -0.22102 0.2332 -0.24283 0.24578 -0.32045 0.040191 -0.27887 0.64922 0.14595 0.27573 0.096146 0.6346 0.18224 0.78126 -0.197 0.34738 -0.36535 -0.58819 0.13837 -0.077327 -0.50647 0.14888 -0.1103 0.47637 -0.20793 0.53139 0.097596 0.41209 0.19902 0.0023691 0.016205 -0.43672 0.14442 -0.55582 -0.28095 -0.18681 -0.4608 0.13885 -0.30454 -0.17097 -0.72436 -0.7535 0.33267 -0.85274 -0.66759 0.21216 -0.026829 -0.30216 0.9714 0.040166 0.27365 0.18488 -0.10709 -0.033016 0.010262 0.90341 -0.43449 0.5002 -0.16431 -0.49908 -1.1085 -0.59915 -0.085925 0.20911 -0.23154 -0.035062 0.23817 0.18617 -0.52197 -0.35974 -0.45423 -0.79804 0.31158 -0.30382 -0.073191 0.13132 -0.35363 -0.016256 -0.46915 0.67675 -0.47614 -0.76656 -1.0859 0.39502 -0.53732 0.15132 0.51281 0.46112 0.096579 -0.062156 -0.012208 -0.41675 0.46322 0.057954 -0.5075 -0.40183 -0.25855 -0.48632 0.079252 -0.076206 0.0020069 -0.45289 -0.90357 -0.29869 -0.39719 0.24586 0.045827 0.25117 0.75065 0.43242 -0.012397 0.060493 0.38033 0.23158 0.15643 -0.90558 0.2203 -0.51032 -0.5367 -0.40645 -0.34142 0.24416 0.074052 0.73886 0.12601 0.1445 0.48187 -1.4846 0.47186 0.33438 -0.03672 0.97217 -0.22052 0.8002 0.27484 -0.75518 0.50588 -0.16212 -0.050148 0.15253 -0.066715 0.027083 -0.65715 0.64322 0.22814 -0.33385 0.37123 0.15165 0.27563 -0.32178 0.58481 -0.37746 0.26314 -0.5145
sea -0.061019 -0.0019855 -0.27103 -0.37017 0.090709 0.19895 0.13627 0.5743 -0.0099765 -0.33269 -0.63115 0.62359 -0.35978 0.26243 0.25242 0.36098 -0.10395 0.58037 0.12354 0.64362 -0.25901 1.911 0.15026 0.56542 0.19518 -0.20232 -0.33487 0.036116 -0.2267 0.034412 0.23847 -0.19899 0.066883 0.1944 -0.24494 -0.014036 -0.61836 0.18412 -0.34711 -0.83741 -0.47949 0.13429 0.23668 0.15539 -0.12039 0.87217 0.21518 0.16726 0.053779 0.60762 0.15047 0.060052 -0.61892 0.12535 -0.064074 -0.68272 -0.084278 -0.016397 -0.16258 -0.022313 -0.31874 0.78685 0.013114 -0.35911 -0.61397 0.028481 0.12071 0.34256 0.745 -0.64881 0.69457 0.062045 -0.3075 0.35629 -0.13595 0.20735 1.1187 -0.33477 -0.071391 -0.98049 0.21016 0.11363 -0.64719 -0.32006 -0.45798 0.33893 0.90214 -0.23074 -0.43407 -0.76255 -0.32205 -0.67588 0.62945 -0.5742 -0.2983 0.48068 0.44206 -0.74996 -0.91062 -0.52785 -0.27195 0.020943 0.17938 0.47498 0.61922 0.069941 -0.039243 0.21812 0.38553 0.53202 -0.17148 0.54657 0.55627 0.31804 0.48462 0.49162 -0.27894 0.14284 -0.095531 -0.24643 0.13142 -0.63765 -0.27859 -1.0549 0.79429 -1.2584 -0.026124 -0.2965 0.36143 -0.26343 0.41957 0.64887 0.40203 -0.38772 -0.39059 0.049564 0.43711 -0.5711 0.33881 -0.58622 1.2159 0.017994 0.67615 0.42655 1.0546 0.23481 -0.355 -0.08911 0.8413 0.91477 -0.96139 0.29094 0.29335 0.24928 0.34103 -0.39638 0.26425 0.17279 -0.42696 -1.2635 0.91017 0.26318 -0.23287 0.8464 0.12458 0.35868 -0.66405 -0.42506 -0.68115 0.75496 0.19367 -0.26043 0.30666 -0.048938 0.10151 0.38148 0.59333 -0.96277 0.0092997 -0.44665 1.4297 -0.49746 -1.2457 0.57671 0.17663 0.092825 -0.51222 -0.27257 -0.38467 0.26679 0.01291 0.3588 -0.21551 -0.2858 -0.26175 0.23657 0.080563 -0.1777 0.23044 -0.31086
dollar -0.2335 -0.091716 -0.40411 -0.32727 -0.23515 0.33083 -0.37605 0.18239 0.55787 0.060339 0.37063 -0.38936 0.21258 -0.65443 0.89521 0.30027 -0.36648 -0.37934 1.0197 -0.063529 -0.96995 2.8857 -1.3984 -0.023543 -1.0839 0.22605 0.41202 1.0644 -0.091911 0.071489 0.74987 -0.69161 -0.21915 0.071977 0.011462 0.19358 -0.83371 -0.58285 0.10528 -0.69881 0.83126 -0.11504 -0.35946 0.24523 0.28441 -0.08959 -0.036846 0.74707 -0.34764 0.67918 -0.77881 0.13552 0.31539 0.4082 -0.32706 -0.52034 -0.79573 0.06315 -0.17832 0.49966 0.30335 -0.0072646 -0.29781 -0.56171 -0.33417 -0.11886 0.23443 -0.23941 -0.49691 0.17342 0.135 -0.085449 -0.27326 -0.21761 0.43687 1.3901 -0.92768 -0.11031 -0.73957 0.47536 -0.88438 -0.94473 0.26092 -0.039671 -1.0215 -0.11942 0.30326 -0.6611 0.92861 -1.2591 0.099658 0.011802 -0.57982 -0.081864 0.19412 0.31936 0.24354 -0.093385 -0.079005 -0.94252 0.019123 0.53686 -0.42944 0.52343 -0.48958 0.65254 0.078856 0.22348 -0.37472 -0.4638 0.034455 -0.50907 -0.20291 0.15608 -0.16219 0.39733 -0.25003 -0.18026 0.94594 0.57291 -0.6026 -1.048 0.53167 -0.054841 -0.21402 -0.14089 -0.63441 0.31173 -0.010485 0.24545 0.49674 0.33827 -0.20718 -0.2581 -0.18239 0.084829 -0.073864 -0.3824 -0.21715 -0.25172 0.84484 0.040325 -0.36788 0.029494 0.45522 -0.068171 0.63037 -0.12367 -0.62022 0.91184 0.15394 0.14072 0.39088 0.44811 -0.84952 0.5604 -0.33695 0.29879 0.1962 -1.2712 0.1946 -0.12087 0.75758 -0.070701 -0.18907 0.0134 0.46065 0.054472 -0.37523 0.56782 0.3807 0.39773 0.16756 -0.044826 -0.27301 -0.047915 0.28596 -0.55305 -0.31057 0.21761 0.94857 1.2012 0.2653 0.3931 0.40902 0.40526 0.1409 0.27698 0.67626 -0.58572 -0.60327 0.3163 0.50754 0.28436 0.039773 -0.20337 -0.5782 -0.62082 0.66833 0.59655
example 0.50699 0.32093 0.15361 -0.095954 0.40324 -0.24641 -0.49728 0.26054 -0.14307 -0.32793 0.012902 0.48186 0.039291 0.44721 0.11132 -0.0028495 0.048009 0.15828 0.044222 -0.33094 -0.014639 2.4089 -0.024224 -0.18291 0.48209 -0.017072 -0.11403 -0.10197 0.094977 0.043782 -0.18542 0.10125 0.059692 -0.087992 -0.027378 -0.088628 -0.19004 -0.42987 0.038143 -0.34552 -0.16651 -0.3087 0.12684 0.39012 -0.13633 0.0048975 0.53198 -0.24172 0.010667 0.14288 -0.079184 0.020466 0.087927 0.1527 0.45671 0.17297 -0.046005 0.010767 0.024069 0.17787 0.057691 0.31535 -0.41362 0.014024 -0.17177 0.05361 -0.24766 0.31556 0.17756 0.30458 0.19174 0.60102 -0.036471 -0.091154 0.0049212 0.30653 -0.062043 -0.31833 -0.3296 -0.35252 0.015156 -0.058352 -0.11105 0.42758 0.1977 -0.0028666 -0.085695 -0.20311 0.94333 -0.49964 0.35754 0.35723 -0.14361 0.2259 -0.062908 0.020068 0.26454 -0.18929 -0.18052 -0.0032667 -0.04452 0.12454 -0.013424 -0.016404 0.40539 -0.22847 -0.092794 0.79013 -0.033051 0.2376 0.24333 -0.024644 0.093227 0.13383 -0.11714 -0.20133 -0.075199 0.33694 -0.38277 0.07178 0.31485 0.10754 0.11792 -0.014392 -0.25521 -0.36922 -0.076402 0.54797 -0.095808 -0.10368 -0.032864 0.11191 0.24242 -0.059308 0.035723 -0.31746 -0.24533 -0.17429 0.049726 -0.448 0.033875 0.26011 -0.0026807 -0.41965 1.2308 -0.075757 -0.013715 -0.39506 -0.023393 0.034043 -0.11674 0.048863 -0.31582 -0.017313 0.51421 -0.24143 0.21455 0.15501 0.2157 -0.085879 0.28005 0.12281 -0.14197 -0.30508 -0.25879 0.044859 -0.12911 -0.08255 0.27232 0.64449 0.021787 -0.044636 0.21977 -0.005321 0.22145 -0.33228 0.13743 0.15249 -0.027502 0.23352 1.0927 -0.26867 -0.090994 0.14894 -0.12507 -0.076154 0.033925 0.030023 0.044742 0.033837 -0.3682 0.16189 0.27249 0.38146 0.28061 -0.35912 -0.48524 0.13091 0.33838 -0.031507
journal -1.0297 0.88829 0.090529 -0.14357 0.34013 -0.13625 -0.5366 -1.2988 0.34446 -0.42103 0.20383 0.93427 -0.24141 0.071159 0.65946 -0.053596 0.029203 0.064277 -0.69429 0.57073 -0.064887 2.0757 -0.58513 0.46018 0.19457 0.31315 0.22748 -0.38849 -0.085165 0.63281 0.18986 1.4327 0.43194 -0.48764 0.58059 0.26196 0.30817 -0.0065401 0.20709 -0.41299 -0.099719 -0.28333 -0.35791 0.3218 0.25793 -0.10241 1.0217 -1.0719 -0.030593 0.30823 -0.15076 0.43812 0.27019 -0.26147 -0.44172 -0.35626 0.28013 0.043095 0.13714 -0.053131 0.4126 -0.058448 0.13677 -0.1708 -0.067933 -0.20269 0.65782 -0.090606 0.28616 0.77712 -0.22264 0.15748 0.34761 -0.60455 0.28563 0.25077 0.021445 -0.53554 0.27438 -0.014618 0.40326 0.28823 0.51304 -0.34321 -0.13513 0.19383 -0.5803 0.11088 1.1337 0.035646 0.22479 -0.31348 0.59883 0.63478 -0.094996 -0.4145 0.31739 -0.82955 -0.21675 0.01487 0.24165 0.42332 0.23026 -0.014097 0.0439 0.010552 -0.17347 0.72326 -0.62799 0.28 -0.24812 -0.17872 0.14695 0.7509 -0.027937 0.27751 -0.49772 1.1873 -0.34987 0.1042 -0.40109 0.58004 -0.073225 0.3982 0.53258 0.23973 -0.1399 0.13607 -0.17226 -0.73803 -0.79656 -0.24985 -0.072254 0.47823 0.077413 0.017506 -0.64821 -0.20887 -0.10393 0.059812 0.28158 -0.7331 -1.1121 0.80737 0.99638 -0.52769 -0.1123 -0.59627 0.36073 0.25736 0.6528 0.34639 0.17298 -0.66524 0.46751 -0.16847 0.50448 -0.7048 -0.58919 -0.38903 0.47497 0.34284 0.31505 0.4302 -0.10075 -0.57329 -0.58334 -0.56853 -0.73954 -0.0075104 0.2766 1.1023 0.38222 -0.32879 -0.73247 0.60841 0.44565 0.47021 0.0021981 -0.45889 0.53645 0.45171 -0.12502 -0.85802 -0.35793 -0.12343 -0.56423 0.045733 0.68487 0.46123 0.36102 0.46947 0.69438 -0.045406 -0.71327 0.062298 -0.25983 0.56951 0.80352 0.41054
laundering 0.2339 0.042454 -0.27832 -0.81477 -0.19583 0.9213 -0.79541 0.054703 -0.36494 0.13099 -0.22482 -0.090143 -0.52568 -0.1104 0.39025 -0.1548 0.91286 0.21408 0.19151 -0.24947 0.03782 0.70431 -1.1751 0.20252 -0.77707 -0.44542 0.13167 -0.48053 0.87882 0.4514 -1.0948 -0.1416 0.39584 0.18183 -0.46855 0.40608 0.0193 0.055756 0.077218 0.52829 0.59532 -0.61267 0.19785 0.43043 0.29348 -0.37542 -0.40997 0.67924 0.35445 1.0804 -0.56467 -0.087402 -0.074164 -0.25045 0.10162 -0.32858 -0.59423 -0.15515 -0.24434 0.6805 -0.13545 0.50273 -0.40853 0.88763 0.18532 -0.78233 1.2844 -0.74217 -1.5867 -0.094741 -0.25845 0.1892 -0.57785 -0.1142 -0.038411 0.053903 -0.65376 -0.018078 0.24516 0.38635 0.0043663 0.10989 0.55871 -0.44984 -0.85725 -0.47551 0.099583 0.17432 0.66553 -0.45497 0.21832 -0.14793 0.25731 0.45103 -0.38614 0.065493 0.67028 -0.49042 -0.32134 -0.28012 -0.35077 -0.72922 0.31818 -0.23973 -0.22581 0.8162 0.14998 0.62357 1.0871 -0.51415 0.58281 -0.27316 -0.17084 1.1457 0.004135 -0.20809 0.24824 -0.013846 -0.69307 -0.083788 0.071482 -0.039028 0.61506 0.22249 -0.4548 -0.20942 0.56008 -0.084968 0.016598 -0.15667 0.059147 -0.011638 -0.38054 -0.45564 -0.4243 -0.033632 -0.33516 -0.89903 0.1595 0.54317 1.1686 -0.26328 -0.31928 0.01001 -0.060626 0.11452 -0.62745 -0.080087 -0.2439 -0.02826 0.013941 -0.56552 0.24107 -0.26802 -0.22768 0.036766 -0.48759 0.055782 0.078952 -0.76737 -0.27191 0.14184 -0.17807 -0.26718 0.21117 -0.080016 0.40221 0.01888 0.61591 1.0432 -0.1086 0.4775 0.063119 -1.1336 0.11092 -0.82343 -0.31924 0.52484 0.2566 0.56654 1.169 -0.77399 0.18506 0.081381 0.081371 0.21276 0.030469 0.11624 0.45815 -0.010301 0.52425 -0.65738 -0.9827 0.94446 -0.5828 0.54054 -0.19821 -0.69344 0.091741 0.44519
hotel 0.48503 -0.27319 -0.40216 0.14233 0.034257 -0.31324 0.23686 -0.39393 0.027114 -0.28914 0.37696 -0.62768 0.77435 0.30174 -0.15013 0.3426 -0.52049 0.52729 -0.26689 -0.039613 0.1632 2.3731 0.3023 0.27272 0.35826 -0.20878 -0.28608 0.082806 0.1793 0.12734 -0.24812 -0.069844 -0.62645 -0.16176 -0.16588 -0.22959 -0.082013 0.051294 0.53448 0.50412 0.55315 0.22319 -0.53496 0.030829 -0.15023 0.56407 0.41218 -0.13351 -0.14274 1.0614 -0.45181 0.83324 0.061781 -0.0019145 0.10637 0.14506 0.32934 -0.2362 -0.34417 0.37431 0.59666 0.50205 -0.47184 0.27596 -0.5797 -1.1642 -0.52379 -0.067616 -0.13405 -0.57408 -0.35722 -0.095442 0.55602 0.096645 0.24594 0.3306 -0.5932 -0.073282 -0.46162 -0.11033 -0.64443 -0.36263 0.24215 -0.499 0.018633 0.37633 -0.36764 -0.43126 0.047166 -0.37644 0.20264 1.8578 -0.19256 -0.71345 -0.28591 1.0018 0.18922 0.19217 -0.90119 0.13099 -0.15367 0.64672 0.29974 -0.36624 -0.17756 -0.35589 0.3286 0.95013 0.32018 1.2776 -0.24828 -0.42612 -0.087156 0.58582 -0.084266 -0.48238 0.51601 0.33373 0.066872 0.1239 -0.43803 -0.23339 0.29948 -0.17834 0.31601 -0.17711 -0.62871 -0.55582 0.35326 -0.68282 0.46358 0.0021882 0.50075 -0.57396 0.013768 -0.48036 0.082362 0.11071 0.16879 0.29211 0.1562 0.58146 0.26372 -0.074353 0.39167 1.0135 1.0784 0.080549 0.086025 0.35501 0.30204 -0.57237 0.43958 -0.46607 0.37323 0.22089 0.087293 -0.19986 -0.38254 -1.0608 -0.051928 -0.46069 0.32119 0.023349 0.074972 0.42089 -0.73765 0.48441 -0.49688 0.59785 -0.51338 -0.045794 -0.30788 0.13519 0.85905 0.3553 -0.3119 -0.58427 0.22805 0.36754 0.42116 0.23842 -0.31296 -0.73049 0.13077 0.35709 -0.8952 0.13993 -0.35119 -0.24392 0.4092 0.30927 -0.41342 -0.27696 0.57544 0.75701 -0.21416 0.30864 -0.12123 0.25623
term 0.28177 -0.16065 0.4393 -0.42826 -0.015027 -0.021911 -0.22033 0.19144 0.24045 0.23081 0.43462 0.53461 -0.31712 0.071006 0.74827 -0.015311 0.0352 0.067064 0.43392 -0.82444 -0.059963 3.2728 -0.1383 -0.067376 0.087014 -0.39104 0.19818 0.47789 -0.097944 0.62426 -0.035706 -0.3429 -0.20694 0.058072 0.17345 -0.040169 0.092128 -0.27495 -0.071738 -0.37617 -0.13585 -0.26957 -0.63071 -0.3828 0.37435 0.1891 0.45723 0.64781 -0.069872 0.3217 0.20347 0.093979 -0.18557 0.018993 0.5607 -0.43357 -0.29516 -0.72641 -0.2345 0.39742 0.031714 0.17053 -0.6596 0.14346 0.69118 0.24554 0.3265 0.1109 0.20866 1.0476 0.45269 0.93736 0.46539 0.14767 0.25512 0.38393 -0.40385 -0.0057883 0.22798 0.31492 0.59073 -0.57124 -0.19647 0.16219 0.38576 0.3452 -0.48806 -0.1479 0.86224 -0.064308 0.30987 -0.11888 -0.28816 -0.32611 -0.44043 -0.34954 -0.33748 0.3558 0.1374 0.0016169 -0.44854 -0.25412 0.020161 0.31648 -0.25267 -0.16838 -0.81963 0.72104 -0.19783 0.13085 -0.16312 -0.3266 0.41861 0.35606 -0.21558 0.089708 -0.27136 0.059329 0.022363 -0.25858 -0.21497 -0.066009 0.029288 -0.058509 -0.16748 0.17624 0.63176 0.16762 0.69897 0.58817 -0.41569 0.21099 0.29734 0.14538 0.6081 -0.2288 -0.27062 -0.4495 0.1509 -0.21506 -0.13103 0.27668 0.073695 -0.23041 0.84076 0.25101 0.22579 0.27707 -0.4468 0.20706 -0.4268 0.37039 0.027862 -0.085684 -0.073036 -0.34198 0.82974 0.31738 0.38678 -0.55661 0.12751 0.16553 -0.2381 -0.1587 -0.5251 -0.34082 0.51298 0.15385 0.46068 0.81971 0.078875 -0.074763 0.72809 -0.28508 -0.27544 0.44448 -0.20223 0.3267 0.16316 0.2974 1.0957 -0.225 0.034212 0.094828 0.30421 0.40876 0.14005 0.042378 -0.10994 -0.13974 0.29411 -0.43737 0.63717 0.046947 -0.21377 -0.87371 -0.067625 -0.271 0.29353 0.84061
listing -0.16267 0.48145 0.20898 -0.46485 0.50768 -0.1515 -0.10555 -0.12276 -0.23733 -0.12831 -0.5475 0.35883 0.2061 -0.59569 0.40059 -0.53501 -0.286 0.51842 -0.3222 -0.54954 0.22651 1.6912 0.29695 -0.076792 -0.72516 0.3072 0.38328 0.28721 0.21131 -0.13942 0.029529 -0.44579 0.18527 0.41441 0.57156 0.22572 -0.13489 -0.47368 -0.045538 0.064106 0.24722 0.12859 0.04995 -0.44364 0.22236 0.04407 0.57973 -0.45064 -0.11825 -0.3035 -0.48548 -0.39097 0.2085 -0.29485 -0.39728 0.52283 -0.089663 0.012412 -0.3323 0.53877 0.34746 0.26473 -0.52233 -0.54902 -0.049146 -0.23622 0.048694 -0.055053 0.19841 0.67793 -0.30199 -0.41349 -0.041821 -0.15394 -0.030258 0.79636 0.25172 -0.29673 -0.57045 -0.088162 -0.025726 0.65309 0.1578 0.11351 -0.34641 0.10765 -0.012182 -0.79182 0.31644 -0.73346 -0.37056 0.9869 0.39657 -0.21053 0.53564 0.05106 0.08608 -0.17099 -0.58364 0.14842 -0.2605 0.0077609 0.32299 0.12016 0.18109 0.38799 0.022564 0.036251 0.043507 0.38657 0.067587 0.053329 -0.90019 0.2165 -0.13606 -0.18739 0.26609 0.71933 -0.14094 -0.67775 -0.15372 -0.29679 -0.036365 -0.42194 -0.69093 -0.091521 0.20346 -0.028069 0.10654 -0.29231 -0.48991 0.3917 0.91596 0.11718 -0.73042 0.15178 -0.46629 -0.03717 0.72064 -0.019297 0.4817 0.29797 0.40184 0.67477 0.42111 0.031229 -0.024694 0.33711 -0.26836 -0.54042 0.11874 0.14514 -0.087783 -0.055845 0.56431 0.26954 0.40484 0.25543 0.67195 -0.15415 0.45121 -0.77794 0.52391 -0.21433 -0.055018 -0.033193 -0.072488 -0.32826 0.36303 0.36298 0.17069 0.12907 0.59904 -0.35685 0.051868 0.043674 -0.25215 -0.056919 -0.22109 -0.29942 0.76183 -0.090665 0.23748 -0.93685 -0.026187 -0.017544 0.50115 0.017965 0.17019 0.31858 0.004948 -0.19677 -0.19359 0.012531 0.36786 -0.030139 -0.26778 0.0056904 0.26853 -0.18353
chemistry 0.56256 0.70735 0.39968 -0.7839 0.40723 0.29292 0.10192 -0.43944 0.052946 -0.28463 -0.28909 1.2566 -0.89079 -0.17951 -0.80089 0.23674 0.40172 -0.036962 0.53538 0.14074 0.13213 1.2344 0.21065 0.035987 1.0008 -0.080767 -0.1663 -0.13639 0.45547 -0.33728 0.90511 -0.12336 -0.21519 -0.42067 0.033721 -0.038246 -0.038787 0.12433 0.077319 -0.19583 -0.25547 0.64964 -0.29636 -0.15321 0.59001 0.149 0.50816 -0.28619 0.4083 0.32279 -0.42388 0.50789 -0.46045 0.55119 -0.61101 -0.11221 1.1167 0.66361 0.19045 -0.43935 0.60867 0.16508 0.26136 0.55966 0.12557 -0.13456 0.27955 0.39217 0.094937 0.61478 -0.056684 -0.50914 0.031622 -0.25713 0.20875 -1.2765 -0.32493 0.14808 -0.22756 -0.26862 0.31744 -0.37075 -0.79638 1.042 0.5341 -0.33078 0.025664 -0.37144 1.0296 -0.41115 0.41843 -1.0824 -0.27912 0.72773 -0.22562 -0.8049 0.11188 -0.21728 0.68907 0.71478 -0.11543 -0.038236 -0.21412 0.63026 -0.14296 -0.77475 -0.66013 0.72552 -0.66512 0.31082 0.78787 0.74037 -0.12177 0.32654 -0.73013 0.78392 -0.75033 0.12594 -0.47085 0.30296 -0.2968 -0.25109 -0.46216 0.16428 -0.27278 -0.10283 0.10268 0.32753 -0.4422 -0.44157 -0.66085 0.16825 -0.5883 -0.10817 -0.5604 -0.47174 -0.27203 -0.13071 -0.18357 -0.15803 -0.27617 0.012509 -0.51316 0.66155 0.14486 -0.083354 0.29617 -1.0637 0.42078 -0.51202 0.47095 -0.76296 -0.061535 -0.34295 -0.51672 -0.5793 -0.13777 -0.34604 0.28864 -0.79954 0.10212 0.063982 -0.4391 0.056252 -0.63722 -0.2624 -0.57555 -0.08382 -0.5376 0.57335 0.33726 0.99266 0.18618 0.26159 0.41629 0.18876 -0.39032 0.080605 -0.20417 1.0427 0.55816 -0.42915 0.065165 -0.082035 0.56692 -0.37583 0.052698 0.32989 0.15243 0.575 0.33556 0.045673 0.14304 0.16302 0.4637 0.35527 0.15927 0.20493 0.55396 -0.48091
seafood 0.51602 0.31776 -0.37654 -0.081817 -0.054342 0.35929 -0.38931 0.50965 -0.28645 -0.63816 0.2361 -0.23168 0.41819 -0.43087 -0.45475 0.91681 -0.69088 0.36439 -0.17427 -0.023144 -0.20144 0.63394 0.25882 0.29041 0.28746 0.38389 -0.091023 0.78223 -0.049933 0.03186 0.28768 0.28995 -0.025798 -0.53137 0.056268 0.21386 0.32603 0.33571 -0.12264 0.08847 0.1417 0.10473 0.54752 -0.19767 -0.46852 0.35879 1.3028 0.68167 0.019288 0.53405 0.20905 0.48081 -0.16722 0.33964 0.15792 -0.35181 -0.053852 -0.51148 -0.10319 0.096091 0.11715 0.41017 -0.33571 -0.14612 -0.28868 -0.15765 -0.19716 -0.094955 -0.041306 -0.075238 1.1303 0.22474 -0.86172 -0.41504 -0.2054 0.83234 0.10125 0.031998 -0.42221 -0.69716 -0.10943 -0.27165 0.30543 -0.017024 -0.21206 -0.35674 0.81719 -0.56246 0.088202 -0.31614 -0.0076073 0.062025 -0.25768 -0.14662 0.010584 -0.17415 0.629 -0.032893 -0.5951 -0.15234 0.30362 -0.031496 -0.36664 0.58198 0.066598 0.54521 0.77294 1.0821 -0.29443 -0.1884 0.23081 0.47929 -0.37803 0.50257 -0.020192 -0.095449 0.3286 -0.33849 -0.4609 -0.84506 0.16598 -0.17508 -0.32093 -0.17821 0.07743 0.5452 0.15893 -0.56418 0.01241 0.2268 0.29756 -0.29866 0.59728 -0.18032 -0.38469 -0.81923 -0.40138 -0.0075499 0.18314 0.03126 0.092762 -0.013429 0.023086 0.27445 -0.16256 0.10697 0.36793 -0.58041 1.0423 -0.2282 -0.63927 5.2791E-4 0.83282 0.44718 0.92855 0.11531 0.026635 0.083432 0.1332 0.067706 0.12986 0.73101 0.51368 -0.031788 0.18985 0.49526 -0.70336 0.058645 0.39899 0.1424 -1.0185 -0.93824 -0.022105 0.030667 -0.20644 0.21943 0.56528 -0.043919 -0.22227 0.40554 0.34785 -0.66088 -0.10979 -0.77816 -0.34733 0.8603 -1.2634 -0.068963 0.44566 0.13474 0.37696 0.11654 -0.77805 0.60459 -0.23904 0.19972 -0.41476 -0.68426 -0.33225 0.20436
mind 0.14107 -0.15044 0.20365 -0.033668 -0.11343 0.76156 -0.55187 0.0089671 0.59273 0.47872 -0.1152 0.39198 0.12056 0.48315 -0.34347 0.16246 -0.048946 0.52736 0.3206 -0.33607 0.27001 2.2033 0.12282 -0.056738 0.089389 -0.041606 -0.066635 -0.025849 -0.30598 -0.11115 -0.39984 -0.077391 -0.12278 -0.20059 -0.22362 -0.035616 -0.36603 0.10914 0.38852 0.29667 -0.18171 -0.12132 0.10458 0.14568 0.10726 0.24746 0.41976 0.16299 0.046756 0.48929 -0.18094 0.27357 -0.051904 0.15375 0.11644 -0.088878 0.26719 -0.096765 0.10271 -0.033114 -0.15137 0.1954 -0.40982 -0.19937 -0.19663 -0.25341 -0.052349 0.30815 0.49798 0.18952 0.33029 0.031618 -0.20632 0.24083 -0.21002 -0.56404 -0.40684 -0.19001 -0.4631 -0.036252 -0.16255 0.11188 -0.49579 -0.51584 0.18108 -0.333 -0.24 -0.37959 0.62603 -0.89078 0.3593 -0.20864 0.2757 0.16055 -0.32617 -0.16698 -0.07769 0.061813 0.071046 0.31018 0.39646 0.3282 -0.4854 0.037529 0.40474 -0.32766 -0.38561 0.86901 -0.39564 -0.049867 0.12492 -0.065203 -0.15809 -0.56109 -0.11045 0.003093 -0.43901 0.43337 -0.35657 0.32677 0.21014 0.1007 -0.05784 -0.16815 0.066209 0.17656 0.21767 0.018924 -0.14511 -0.4383 -0.74619 0.18737 -0.027138 0.0042331 -0.028213 0.18582 -0.16564 -0.051947 0.16497 0.18166 0.14477 0.029871 -0.029753 0.17097 1.4866 0.21121 0.24129 -0.36135 -0.16484 -0.020926 0.38016 0.38352 -0.55134 0.2313 -0.23646 -0.14167 0.12935 0.01257 -0.035114 -0.038508 0.27315 -0.17015 0.058719 -0.30616 0.47185 -0.43176 0.22212 -0.34213 -0.66801 -0.12389 0.081732 0.18883 0.060052 0.10428 -0.012034 -0.034173 -0.38729 0.096099 0.24863 0.16747 0.68597 -0.15202 -0.027204 -0.091329 -0.21471 -0.3179 0.45499 -0.18736 0.21665 -0.046241 -0.27263 -0.35871 0.17282 -0.35582 0.43364 -0.47744 0.40173 0.25826 -0.026435 -0.048003
sex 0.25558 0.10454 -0.105 -0.55534 -0.34793 0.081736 -0.79107 0.23947 -0.65222 0.11387 0.12694 0.65544 0.25886 0.0066594 -0.60959 0.21355 -0.11838 0.12802 0.62788 0.53407 0.46178 2.2866 -0.25175 0.46028 -0.18975 -0.72007 0.64012 -0.44158 0.022261 -0.34323 -0.29576 -0.66271 0.80125 0.513 0.078612 -0.042645 0.18882 0.090293 0.32962 0.56327 -0.25417 -1.0209 0.19087 0.42872 -0.47865 0.069235 0.37329 -0.57796 0.65931 -0.044661 0.026793 0.48251 -0.039092 0.8824 0.036119 -0.051553 -0.21324 0.30268 -0.13156 0.37671 -0.47564 0.024605 -0.28407 0.77388 0.030578 -0.22532 0.37794 0.66401 0.030918 0.85909 0.27568 0.52457 0.26536 -0.35384 -0.21491 0.31794 -0.57685 0.18162 -0.55717 0.069449 -0.61968 0.44651 -0.22531 -0.053289 -0.021616 -0.40813 0.032998 -0.28851 0.55539 -0.066599 0.39686 0.23875 1.0427 0.72609 0.17963 0.14926 -0.076529 0.19298 0.19068 -0.0327 0.069702 0.67337 0.12298 -0.64102 -0.41784 -1.1224 0.52127 0.58282 0.36289 -0.63264 0.38304 -0.03564 0.36676 0.17494 -0.028316 0.21565 0.48296 0.15458 -1.0872 -0.36867 -0.55082 -0.13349 -0.05572 -0.17512 -0.46236 0.14235 0.45715 0.097061 0.59495 0.27725 0.55112 -0.18823 0.2822 0.46579 0.42797 -0.48665 -0.32429 -0.61335 -0.18621 -0.094082 0.11084 -0.035845 0.066345 -0.95149 0.63228 -0.95032 0.38191 -0.34757 -0.31151 0.74067 0.45657 -0.56471 -0.64621 -0.6057 -0.0083763 0.30506 0.22095 -0.59448 -0.14007 -0.16931 -0.12475 -0.36904 0.45472 0.21488 -0.23796 -0.12241 -0.26628 -0.39594 -0.22773 0.29768 0.12829 1.0428 0.25296 -0.1719 -0.43462 -0.50605 -0.32903 -0.15865 0.16157 -0.16078 1.1677 0.1536 -0.28717 0.1114 -0.5019 0.4246 -0.073498 -0.38291 0.17326 0.03238 -0.77645 -0.22361 0.028675 0.13888 0.24995 -0.40571 0.045316 -0.71049 -0.48518 0.64587
food 0.27271 0.05956 -0.14829 0.16065 -0.30424 0.29136 -0.30582 -0.086042 -0.33393 0.026198 -0.0091113 0.44997 0.40157 0.69766 -0.58233 0.32367 -0.25852 0.43356 0.32783 0.61685 0.011943 3.1218 -0.2277 0.64489 0.44525 0.40523 -0.36766 0.36327 -0.056877 0.16333 0.39659 0.10823 0.12022 -0.58039 0.59437 0.22913 0.081255 0.17607 -0.13449 -0.029875 0.37063 0.31038 -0.076044 -0.014933 -0.050792 -0.59233 1.2182 0.067015 -0.12176 0.50952 -0.032926 0.34082 0.050888 0.48488 -0.11861 -0.55552 -0.39904 -0.23847 0.32563 0.42207 0.27588 0.50878 -0.49494 1.0121 -0.1347 0.23952 0.28137 -0.39123 -0.07747 -0.12426 0.73129 0.85536 -0.57769 -0.35689 0.22844 0.66376 0.35204 -0.8488 -0.24601 -0.49643 -0.20516 -0.011184 -0.37943 0.64887 0.070073 -0.37896 0.54018 -0.20092 0.73277 -0.64886 -0.41805 0.14148 0.10727 0.51846 -0.23003 0.023589 0.2261 -0.25256 -0.31183 0.40945 0.30096 -0.022873 0.25394 0.44589 -0.2523 0.66406 0.64802 1.0649 -0.87365 -0.48126 0.32557 -0.060452 0.1118 0.36771 -0.27233 -0.23651 0.38833 0.10953 -0.57474 0.19041 0.6917 -0.60185 -0.032232 -0.2 0.33201 -0.02913 0.33224 -0.45291 0.13091 0.5521 -0.24121 -0.29512 0.03547 -0.17133 -0.61946 -0.49563 0.77496 0.15927 -0.12311 0.26568 -0.56027 -0.22747 0.2573 0.44354 -0.10512 0.29747 -0.52366 -1.0257 0.62157 -0.85134 -0.60955 0.36157 0.11842 0.21423 0.62232 0.36564 -0.30208 0.12295 -0.78563 -0.46635 -0.079783 0.30315 0.95309 0.064458 -0.016297 0.058923 -0.41233 0.1762 -0.78364 0.94612 -0.97786 0.46314 0.11157 0.49345 0.14289 0.32531 0.12155 0.11985 0.22286 0.49691 1.0804 -0.71307 -0.078589 -0.90132 -0.20726 0.57107 -0.95497 0.6713 0.56502 0.12558 -0.10363 0.17488 -0.46837 0.43304 0.19062 -0.17278 -0.80677 -0.24227 -0.0923 0.15683
precedent 0.77088 0.40986 0.52084 -0.028245 0.1423 0.40474 -0.77126 0.40406 0.37369 0.10309 0.011188 -0.028833 0.3079 -0.2422 0.49776 0.26718 -0.19486 0.54334 -0.73343 -0.67979 0.29449 1.146 0.26469 0.31558 -0.031642 -0.17947 0.025386 5.4824E-4 0.5097 -0.41166 0.14345 -0.40661 0.27843 0.35266 -1.0069 0.45573 0.027544 -0.081073 0.16304 -0.47353 0.35162 -0.26411 -0.29037 0.18555 0.020722 -0.28532 0.34279 0.020738 -0.12531 0.015847 0.077689 0.32831 -0.025531 -0.56622 0.040331 -0.33155 0.016745 -0.25016 0.34597 0.24087 -0.034591 -0.40906 -0.29842 -0.14428 0.55486 0.13192 -0.48533 0.22898 0.088738 0.42733 0.33254 0.37237 0.056739 0.1583 0.38268 0.32607 0.15247 -0.23702 -0.17531 -0.47562 -0.49519 -0.36195 -0.17079 0.30403 -0.20299 -0.030664 0.14144 -0.22861 0.40785 0.39153 0.34987 -0.24828 0.45423 0.06594 -0.25804 -0.019387 -0.11596 0.3315 0.017063 -0.044232 0.084523 0.33104 0.15887 -0.16784 0.58955 -0.025153 -0.39273 0.20681 0.097308 -0.19639 -0.29269 0.09301 0.17255 0.13991 0.14343 0.36465 -0.63847 -1.1865 -0.45046 0.038362 0.42002 0.11118 -0.041877 0.13395 -0.34715 -0.065936 -0.15475 0.34934 0.057532 0.13296 -0.41481 0.68424 0.039072 0.29522 0.52773 0.02186 -0.09221 -0.37739 0.33307 0.087594 -0.33943 0.25194 0.23932 0.24067 1.0077 -0.18779 0.1529 -0.011699 -0.0019832 0.54876 -0.35438 0.085695 -0.25402 0.15279 -0.099757 -0.64956 -0.26679 -0.32932 0.43138 0.64331 -0.15672 -0.12729 -0.51986 -0.52343 -0.40903 -0.64021 0.24276 0.35431 -0.056569 0.45644 -0.23997 -0.076795 -0.37897 -0.33148 -0.38189 -0.63594 0.20042 0.99339 0.58577 -0.61566 0.8064 0.018311 0.54549 0.43227 -0.6158 1.2629 0.42273 -0.13694 0.077448 0.7989 -0.036403 -0.19239 0.35167 0.1104 0.55926 -0.22126 0.33962 -0.53385 0.65843 -0.58815
series -0.72421 0.76317 -1.1699 -0.40892 -0.47153 0.24714 -0.84087 -0.020139 -0.22131 -0.32415 -0.13588 -0.023035 -0.7847 0.02908 0.70974 -0.51888 -0.43921 0.58507 -0.30721 0.26061 0.6346 2.1092 0.25229 -0.88289 0.27262 0.25328 -0.10303 -0.12118 -0.01424 -0.31928 0.23003 0.44999 0.12409 0.046104 0.029811 -0.46369 -0.60145 -0.5456 0.79341 -0.67953 0.26294 -0.59133 0.12417 0.97249 0.14506 0.10313 0.43645 -0.85216 -0.0019673 0.092413 -0.27888 -0.058252 0.42235 0.31016 0.19965 0.10841 0.19576 0.26028 0.021995 -0.021515 0.24316 0.07653 -0.91447 -0.17392 0.47906 -0.63383 0.92099 -0.017981 0.13769 0.38166 0.19206 -0.47853 -0.054726 0.65982 -0.097291 0.47535 0.060635 -0.044784 -0.32166 -0.069557 -0.32976 -0.33797 -0.21375 0.62905 -0.053686 -0.47721 -1.1846 -0.019417 0.5191 0.17955 -0.49358 0.54275 0.36028 0.1647 0.020716 -0.12566 -0.21255 -0.50795 0.21635 -0.57738 0.25175 0.41863 0.032052 0.66361 -0.18341 0.19882 -0.72174 0.040538 -0.23645 0.53943 -0.53832 -0.71961 0.27473 -0.20251 -0.095079 0.45854 -0.25189 0.047747 -0.41917 -0.16764 0.39975 -0.33232 -0.41094 0.44199 -0.10551 -0.80875 0.14621 0.28166 0.76227 -0.58663 0.43139 -0.74004 -0.35852 -0.48723 -0.26745 0.36067 -0.30732 -0.45793 -1.2162 0.039663 -0.50157 0.40775 -0.368 0.36952 1.0223 0.31307 0.067183 -0.32146 -0.41797 0.10217 -0.21426 -0.13309 -0.7614 -0.27503 0.092408 -0.28491 -0.51438 -0.075898 -0.26804 -0.35488 0.33272 0.14389 -0.28576 -0.01374 0.76177 -0.72985 -0.13982 -0.78303 0.099275 0.71466 -0.15253 -0.84348 0.29888 0.28341 -0.044425 0.80561 -0.64905 -0.24304 -0.82698 0.28988 1.4458 0.20759 0.23027 0.36362 0.28097 -0.165 0.0074728 0.016432 0.0072147 -0.40205 -0.25202 -0.25418 -0.1853 -0.31874 0.16187 0.18925 0.23445 0.087984 0.022859 0.24122
kilometer -0.34371 -0.97401 -0.49489 -0.35306 -0.010796 0.18293 -0.27228 -0.61739 -0.53886 -0.08306 -0.5254 0.17793 0.19386 -0.41853 0.20663 0.12314 -0.091517 -0.004539 0.38832 -0.51852 -0.36025 1.3966 1.0197 0.39108 0.30563 -0.38234 -0.16662 0.14592 -0.39162 -0.17534 0.39009 -0.023864 0.076419 0.087632 -0.066523 -0.075971 -0.50883 -0.23034 -0.21535 0.16559 0.26237 0.39712 0.38657 -0.34678 -0.2311 0.73563 -0.74556 -0.14251 -0.18285 -0.87298 -0.61591 -0.32236 0.61219 0.36912 0.37514 0.5229 0.012014 0.096163 -0.81555 -0.068479 -0.4531 0.23359 -0.058554 -1.0534 -0.30982 0.060243 -0.075371 -0.81663 -0.26915 -1.3697 -0.1711 0.52142 -0.18293 0.54353 0.051466 0.53246 0.43547 -0.1001 -0.28579 0.4097 -0.15505 -0.87183 -0.53623 -0.42865 -0.19636 -0.70673 0.15713 0.13052 -0.040945 0.40852 -0.069582 -0.59512 -0.11348 -0.41843 0.87087 0.88942 -0.40129 0.20058 0.03533 -0.13871 -0.03357 -0.081859 0.41857 0.18715 0.045347 -0.36607 0.85908 0.41453 -0.19198 0.019627 -0.44228 0.45331 -0.69196 0.30398 0.042091 0.001734 -0.0033965 -0.19019 -0.22393 0.25883 -0.67064 -0.71969 0.034486 -0.67483 -0.043543 -0.98297 0.87574 -0.36011 -0.28909 -0.39454 -0.096192 -0.010954 0.51466 0.80494 0.3059 -0.23009 0.63316 -0.43561 -0.41101 0.30666 0.068454 -0.42541 -0.16327 0.48827 0.15439 0.35718 -0.59219 0.55334 0.59338 0.42282 0.093063 0.92355 1.2661 0.57357 0.38643 0.14478 0.25859 -0.71243 -0.4986 -0.24738 -0.29007 -0.29392 0.068938 -0.45866 0.24278 -0.11815 -0.3362 0.15201 -0.46384 -0.082252 0.64374 0.19833 0.15129 -0.10923 0.3989 0.087011 1.148 -0.63014 0.16141 0.31481 0.44654 0.15224 -0.3917 0.3724 0.70476 0.55598 -0.79368 0.54126 -0.27336 -0.077571 -0.71729 0.76328 -0.020113 0.023066 0.27662 0.62761 0.84253 0.58323 -1.1941 -0.015808
grocery 0.10813 0.55976 0.29282 -0.13097 0.20425 0.034368 0.16417 -0.22829 -0.40391 -0.13216 0.48375 -0.40233 0.93394 1.0415 -0.4376 0.0064083 -0.63965 -0.42143 0.12515 0.18335 -0.11016 1.4298 0.25272 -0.3653 0.69859 0.10191 -0.084266 0.33989 -0.25332 -0.82395 -0.0068649 0.56564 0.10297 -0.47963 0.063913 -0.092109 0.4248 0.74227 0.5563 -0.12529 0.022685 0.69472 -0.32084 -0.08241 -0.3411 -0.12726 0.34418 -0.029544 -0.30736 0.12915 0.1398 0.1743 -0.18853 -0.11881 0.37323 4.1289E-4 -0.6072 -0.41061 0.84388 0.0060336 0.30522 0.39943 -0.6123 -0.017566 0.011238 0.12416 0.2709 -0.32139 0.35907 -0.136 0.77219 0.22961 -0.022667 -0.41689 -0.30872 0.23956 -0.22993 -0.020526 -0.12729 -0.051457 -0.20992 -0.20144 -0.10838 0.35499 -0.37398 -0.5736 0.039308 -0.31531 0.44086 -0.13106 -0.33953 0.35122 -0.68454 0.06698 0.31238 0.45992 0.2118 0.17272 -0.85939 -0.026065 0.71081 -0.30457 0.3243 -0.049524 0.10202 0.030441 0.93682 0.99771 -0.16294 0.57454 0.71654 -0.1153 -0.22031 0.58384 -0.38685 -0.073101 0.18742 -0.090636 0.35559 -0.38767 0.68287 0.28251 -0.029348 -0.23152 0.50248 -3.1652E-4 0.22624 0.23631 0.013476 0.21519 -0.13718 -0.52669 0.3988 0.39461 -0.61734 -0.75077 0.32821 -0.59306 0.13401 0.3027 0.049283 -0.39401 0.49385 0.75196 -0.020209 0.023647 0.80426 -0.73837 0.40384 -1.2192 -0.18038 -0.1744 -0.0016861 0.057272 -0.07637 0.63985 -0.47235 -0.43536 -0.43105 -0.67094 -0.27784 -0.062624 0.74968 0.51372 -0.43393 0.25885 0.52503 0.38337 -0.55195 0.048454 -0.47588 -0.49471 -0.12605 0.57699 0.58552 0.18943 -0.012924 -0.14348 -0.07743 0.43094 0.15231 0.21631 -0.74355 -0.57387 -0.35237 0.76165 -0.80947 0.5828 0.3786 0.36083 -0.39274 -0.33447 -0.0047571 0.53456 0.036477 -0.071303 -1.0345 0.33748 0.021898 -0.091401
wizard 0.86656 -0.1297 -0.25717 -0.30162 0.83011 0.40693 -0.0078521 -0.065678 0.20431 -0.026037 0.36665 0.238 0.17542 -0.027583 0.13278 -0.86815 0.24667 0.06029 -0.28211 0.011936 0.35446 0.41644 0.066797 -0.85449 -0.34984 -0.16598 -0.63635 -0.4909 -0.33128 0.24908 0.052578 0.35949 -0.25709 0.11918 0.042204 -0.064746 -0.39386 -0.25094 -0.059238 -0.24369 0.29039 0.069923 -0.44431 0.12006 0.27205 0.29992 -0.11506 0.4045 0.1615 0.80696 0.39187 -0.33006 0.84528 -0.99402 -0.095048 0.37505 -0.19335 0.39754 -0.157 -0.72468 0.064723 -0.41475 -0.51337 0.36112 -0.21271 -0.49776 -0.29131 0.23587 1.0084 1.082 1.0443 -0.87717 0.19853 0.58993 -0.021806 -0.28993 0.077752 0.33936 0.23934 0.093156 0.0093303 0.43394 -0.10671 -0.39843 -0.73937 -0.46455 -0.39158 0.37438 0.25461 0.76495 0.50387 0.053105 0.30987 0.4184 0.27708 0.1439 -0.36896 0.098136 0.26848 0.82702 -0.072207 0.076847 -0.28437 0.62441 0.43639 -0.73158 -0.31733 -0.026404 0.34222 0.16744 -0.36487 0.037582 -0.31016 -0.4984 0.014785 0.075179 -0.17043 0.5456 -0.76221 0.28963 0.49484 -0.13305 0.10353 -0.15324 -0.63961 0.18057 0.5616 0.17704 0.60528 0.28288 -0.21861 -0.32951 0.024631 -0.57371 0.14653 -0.31285 0.27755 0.17233 -0.1831 -0.03745 0.41951 -0.11918 0.22084 -0.18 0.34006 -0.43943 -0.047104 -0.37185 0.025621 0.40849 0.015505 -0.16158 -0.84749 0.017227 -0.0095276 0.6043 -1.3647 0.089784 -0.095666 -0.53397 0.061351 0.48411 0.4511 -0.10151 0.7895 -0.20202 -0.58991 -1.1342 -0.49013 0.29699 -0.53148 -0.97602 0.082198 0.23189 0.50697 0.30089 -0.72267 -0.19596 -0.10574 0.1814 0.29874 0.27421 -0.30329 0.34968 -0.69386 -0.89495 0.47245 0.16476 -0.40743 0.07338 -0.19163 -0.28312 0.45488 -0.11267 0.50729 -0.19596 -0.39243 0.46541 0.12937 0.10399
information 0.40877 0.51163 1.0064 0.091866 0.56994 0.54882 -1.5178 0.91186 -0.046959 -0.038142 -0.13327 0.6431 0.63237 -0.4015 0.50481 0.34431 0.049719 0.51355 -0.60592 -0.099263 -0.19592 3.1318 -0.42143 0.31433 -0.33877 0.26429 -0.48714 -0.057242 0.9851 0.39426 -0.45382 0.5035 0.19951 -0.40659 0.42337 -0.56998 -0.31992 -0.20956 0.042815 0.6903 -0.14173 -0.27504 -0.092446 0.58698 -0.45713 -0.20313 0.23303 -0.42107 0.28022 0.065791 -0.081254 -0.29365 0.18678 0.20812 -0.57066 0.28089 0.015348 -0.11686 0.78654 0.3329 -0.016247 0.51261 0.081063 0.18824 0.12878 -1.0261 0.28223 0.68178 -0.37698 -0.22104 -0.0036692 -0.13796 0.26198 -0.087362 0.035877 0.6108 0.20263 -0.39864 0.022297 -0.059424 0.26766 0.29771 0.0755 0.37582 0.23507 0.096676 -0.28105 -0.35175 1.4105 -0.77811 0.63806 0.17286 0.70599 0.11563 -0.13585 0.25138 0.11172 -0.20742 -0.19676 0.38426 0.11597 -0.069703 0.048521 0.082974 -0.087517 0.33755 0.55075 0.60192 -0.8836 -0.17378 0.49795 -0.0042176 0.19979 0.29054 0.032224 -0.040471 0.59595 0.21341 -0.13968 -0.34534 0.33858 0.060996 0.16444 -0.41905 -0.58741 0.061554 -0.11412 -0.05997 -0.16272 -0.037828 -0.85659 0.43801 0.095389 0.14777 0.1795 -0.17666 -0.62757 -0.10044 0.63933 0.096083 0.25621 -0.55311 -0.13106 -0.15552 0.66017 0.3352 -0.92045 -0.088512 0.5562 -0.33795 0.46189 -0.05669 -0.22358 0.11704 0.4499 0.30691 0.0043661 0.34358 0.069626 -1.3501 -0.29911 -0.093072 -0.078307 -0.16726 0.52306 0.23011 -0.26799 0.25397 -0.32638 0.68293 0.37694 0.15866 -0.04387 -0.37095 0.073072 0.44237 -0.36317 -0.16711 -0.16256 -0.16122 0.32462 -0.2087 -0.16288 -0.88091 -0.21108 -0.54809 0.2354 -0.27107 -0.15185 0.52171 -0.027711 -0.28426 0.14438 0.19986 0.18424 0.35477 -0.10267 -0.1864 -0.027409 -0.3409
brandy -0.20215 0.24803 0.065074 -0.3499 -0.066966 -0.7345 -0.39415 0.23158 0.45591 -0.73953 -0.58913 0.12958 0.12588 -0.44857 -0.026622 0.050595 -0.38586 -0.42375 0.37424 0.3284 -0.14674 -0.41129 -0.040824 -0.31379 -0.43621 -0.94639 -0.11045 -0.1168 -0.18365 0.074315 0.040748 0.31299 0.10795 0.91858 -0.56455 -0.24709 0.4217 -0.2487 -0.31662 -0.027734 -0.38863 0.52056 0.19626 -0.19341 0.0089632 -0.13575 0.42324 -0.47809 0.099121 1.089 0.14423 -0.10597 -0.419 -0.090385 -0.062145 -0.39485 -0.56224 0.48506 0.11695 0.30924 -0.19546 -0.14181 0.0074112 0.49554 0.6107 -0.45862 -0.18027 0.49879 0.18594 -0.74328 0.20597 0.62948 0.54114 -0.26341 -0.58453 0.21832 -0.28097 -0.72198 0.10854 -0.28777 -0.067763 -1.236 0.093765 -0.21097 0.44629 -0.39086 0.28265 0.36883 -0.24994 0.028824 -0.21033 0.7514 0.074709 0.61397 -0.10178 -0.082326 0.0044658 0.2244 -0.10138 0.16479 -0.63887 0.46754 -0.12276 0.20256 -0.095914 0.0058508 0.73608 0.38184 -0.30329 0.27634 0.092972 0.16617 0.10363 -0.5032 0.02872 -0.37116 -0.28805 -0.61671 0.34651 0.6174 -0.02368 -0.082028 0.43315 0.096924 0.71645 0.49887 0.34604 -0.75332 0.59539 0.034051 0.10973 -0.25571 -0.50971 0.38909 -0.3122 -0.10459 0.40413 -0.86216 -0.38401 -0.26791 -0.26025 -0.15809 0.31173 -0.20647 0.010764 0.15377 0.24207 -0.066297 0.47499 -0.062937 0.35257 0.64095 -0.6594 0.40417 0.84078 0.19673 -0.0062072 0.40453 0.092688 0.24412 0.29162 -0.48141 0.57746 0.23461 -0.47888 1.0346 0.088298 0.48655 0.48475 -0.31935 -1.1069 -0.71798 0.43325 0.17539 -0.27502 0.4145 0.054351 -0.57914 0.94934 0.18753 0.018154 -0.65379 -0.43312 0.010143 -0.19242 0.026261 0.054555 -0.0080462 -0.26955 0.84596 -0.031508 0.37605 -0.26708 -0.53264 0.077375 -0.088617 -0.50957 -0.20788 0.27209 0.27445
interview -0.43711 0.20938 0.2919 -0.71195 -0.52131 0.37786 -0.35236 -0.048246 0.64003 0.24876 0.26044 0.76813 0.4915 -0.17846 0.0059712 -0.16007 -0.068349 0.82376 -0.083569 0.57046 0.51407 2.1548 -0.064979 0.43147 -0.25156 0.35159 -0.17639 -0.39795 0.20359 0.13554 -0.80727 0.42114 0.5537 -0.13392 0.51207 -0.011129 -0.23869 -0.88929 0.32134 -0.1183 -0.47335 -0.085679 -0.4373 0.25452 -0.36102 0.079161 0.35258 -0.45828 -0.25923 -0.47907 0.37665 0.42554 0.043173 0.44922 -0.12754 0.010747 0.45797 0.067285 -0.3023 0.13922 0.45663 -0.44453 -0.13656 0.090259 -0.34143 -0.50321 0.11297 0.22535 0.339 0.31065 -0.3408 -0.05639 0.49368 -0.15805 0.38989 0.12329 0.074443 -0.44629 -0.62661 -0.091143 0.017326 -0.24844 0.42699 0.017506 0.10819 0.58845 -0.70319 0.010965 0.14874 -0.53831 0.43964 0.55522 0.20866 0.055592 -0.54758 0.41041 -0.3376 -0.21287 -0.013246 0.24429 0.013641 0.27041 -0.27347 -0.56661 -0.26564 0.03985 0.011922 0.83504 -0.59102 0.044069 -0.24786 -0.38213 0.40704 0.42354 0.19637 -0.28022 0.33813 0.32141 -0.6758 -0.10435 -0.41338 0.26925 -0.31232 0.28014 0.25687 -0.13557 -0.0055182 -0.24729 0.41014 -0.36033 0.11164 -0.22483 0.009949 0.6152 0.092363 0.53807 0.26469 -0.085459 -0.59049 0.14491 0.20417 -0.35908 -0.059707 -0.14301 1.5671 0.33686 0.34271 -0.9977 -0.31421 0.15005 0.11572 0.47174 0.34806 0.55809 0.4255 -0.28484 0.38755 -0.14896 0.55816 -0.14119 -0.27436 -0.39571 -0.36737 -0.30277 0.12004 -0.78569 -0.081684 -0.0937 0.23052 0.10498 0.39642 -0.2431 0.18194 -0.15853 0.042502 -0.079323 -0.99574 -0.20071 0.25856 -0.3217 0.32458 0.19557 -0.086947 -0.25421 -0.63034 -0.16655 -0.23194 0.032983 0.36272 -0.15012 0.50129 0.11509 -0.35092 0.10382 -0.099189 0.76509 -0.2076 -0.013653 0.028075 0.017976
prominence -0.31714 0.1104 -0.38384 -0.42165 0.064039 -0.37196 0.073959 0.71851 -0.12429 -0.18636 0.0057807 0.34339 -0.35484 -0.39248 0.56567 -0.046093 0.19419 0.029103 -0.060972 -0.078489 0.21112 1.0104 0.30204 0.0047864 0.32319 0.31487 0.093182 0.49458 0.037803 0.31299 -0.19232 -0.43507 0.51296 -0.23661 -0.13053 0.39578 -0.37364 0.48293 -0.081061 -0.20982 -0.12473 0.15724 -0.5803 -0.32939 -0.1498 -0.5546 0.056336 0.52054 0.38132 -0.031512 -0.10157 0.23272 -0.15892 0.74419 0.61631 0.24228 0.56717 0.25373 -0.33664 7.7475E-4 -0.72076 -0.70279 -0.40164 -0.018895 1.1096 -0.033281 -0.012116 0.52215 0.10052 -0.57529 -0.025199 0.44145 0.5724 0.11716 0.24637 -0.31171 0.1129 -0.17781 0.17247 0.22937 0.422 0.038393 -0.57415 0.7307 0.16793 0.44531 -0.032842 0.32299 1.079 -0.05833 -0.48058 0.64169 -0.12027 -0.12548 -0.22148 -0.52636 -0.0079504 0.48082 0.4069 -0.21358 -0.32739 0.51172 0.20726 -0.20384 -0.54541 0.014034 -0.29791 0.0070628 -0.11588 -0.33082 0.78496 -0.04513 -0.3729 0.090994 0.6723 -0.11444 0.65509 0.3794 -0.042696 0.69096 -0.84846 0.23581 -0.22968 0.089662 0.54665 -0.2425 -0.32066 0.44383 -0.070907 -0.33897 -0.12326 0.17473 0.10281 0.080014 -0.3491 0.51197 0.17531 0.19227 -0.026643 -0.31999 -0.041792 -0.37766 0.44412 0.31457 0.47399 0.04216 0.06618 -0.38999 -0.18699 0.36547 -0.46707 -0.27826 -0.41081 0.35095 -0.018582 -0.020498 -0.26706 -0.28202 0.26287 -0.18394 -0.33364 0.078186 0.057944 -0.39538 -0.41246 0.035049 0.37579 -0.55942 -0.71376 0.6621 -0.096537 -0.26834 0.36259 -0.41034 -0.23755 -0.34164 0.53022 -0.42685 -0.29826 -0.1345 0.092869 0.64735 -0.30435 0.25087 -0.01505 0.20285 0.040281 0.22281 -0.10805 0.20276 0.3226 0.35135 -0.098633 0.40492 0.024186 -0.54249 -0.11025 0.61211 0.28807 -0.085372
bed -0.037557 -0.42204 0.10103 0.2154 -0.45845 -0.15877 0.26712 -0.87052 -0.6364 0.080738 -0.066382 -0.33284 0.7487 0.31413 -0.44163 -0.29502 -0.20718 -0.17406 0.42859 0.40154 0.28931 1.641 0.52818 0.0071289 0.34171 -1.2076 0.52603 0.26966 -0.31603 0.24298 0.4586 -0.24551 0.40889 0.19719 0.089213 0.33406 0.46387 -0.20179 0.05803 0.12824 0.08032 0.14214 -0.68311 0.31835 -0.0031294 0.82929 0.6425 -0.40993 -0.29293 0.40926 0.23297 0.17781 -0.020764 0.31167 0.66666 -0.28162 -0.034623 -0.36778 0.21817 0.73882 -0.032311 -0.086012 0.096869 0.42912 -0.89088 -0.38145 -0.65055 -0.18294 -0.072221 -0.32616 0.50526 -0.90306 -0.32342 -0.046235 0.20211 -0.31435 -0.62061 -0.70169 -0.074012 -0.13951 -0.21624 -0.2544 -0.33608 -0.25085 0.76827 0.45258 0.10657 -0.88214 0.20352 -1.0085 0.74914 0.26997 0.42315 0.58538 -0.017741 0.34186 0.13093 -0.078764 -0.72125 0.21163 0.24629 0.036362 0.11398 0.73907 0.35819 -0.53336 0.12017 0.13517 -0.42566 0.22124 -0.099686 0.2073 0.31066 0.33831 0.12253 -0.36624 0.64115 0.2217 -0.29623 -0.018762 -0.56708 -0.26273 0.04151 -0.2514 0.64411 -0.10116 0.33349 -0.27875 -0.12614 -0.84411 0.17606 0.17083 -0.55355 -0.30193 -0.038012 -0.41812 0.68652 -0.427 0.36047 -0.016674 0.20703 -0.37456 0.35711 0.19733 1.2418 0.52081 0.60179 -0.044046 -0.2291 0.15916 0.093123 0.38842 0.10436 -0.22632 -0.13957 -0.17863 0.58967 0.3181 -0.47174 -0.79441 -0.35968 0.19042 -0.22064 0.54581 0.098492 -0.51197 0.050131 0.45728 -1.02 -0.091568 -0.59498 -0.15722 0.23927 0.94597 0.047618 -0.063574 0.054963 -0.21046 0.2717 -0.22193 0.71186 -0.65087 -0.74602 0.43382 -0.1042 -0.47091 -0.37961 -0.034219 0.58346 0.066439 0.44777 -0.22181 0.076393 -0.07976 0.21786 -0.14459 -0.10435 -0.012894 -0.5735 0.078413
furnace 0.1219 0.60711 0.4812 -0.12895 0.062765 -0.084307 -0.42722 -0.9083 -0.034038 -0.14985 0.52626 -0.62067 -0.14488 0.015286 0.67179 0.49559 0.021941 -0.10568 0.30776 0.1393 -0.9316 0.51649 0.21902 -0.20374 0.88405 -0.23405 -0.20948 -0.24095 0.092271 0.78406 0.73004 0.053639 -0.66831 0.40557 0.019232 -0.67612 0.75324 0.027137 -0.61987 0.55248 0.14286 0.20483 -0.23586 0.31121 0.39051 0.63146 0.3078 -0.4518 -0.013717 0.38344 0.14991 -0.13389 0.017369 -0.50544 0.01225 0.80797 -0.19041 0.54661 0.13848 -0.19123 -0.2029 -0.14809 0.56403 -0.70397 0.16904 -0.223 -0.82872 -0.48116 -0.45517 -0.25602 0.026248 -0.72724 -0.18489 0.17358 -0.083766 0.3852 -0.29453 -0.038679 -0.087106 -0.66145 0.52894 -0.56344 -0.0024697 0.48744 0.8601 -0.8957 -0.0085501 -0.073976 0.41771 0.22968 0.42841 0.81324 -0.26471 0.42343 0.42869 0.67193 0.79746 0.010661 0.1817 -0.25068 -0.90805 0.084598 -0.23248 0.67317 0.22923 -0.19075 -0.41915 0.13288 -0.48118 0.61233 0.15618 0.046867 -0.67323 0.12595 0.29573 -0.029956 -0.0068132 -0.17442 -0.088605 0.15965 0.47281 -0.23053 0.21479 0.17817 1.2814 0.28639 0.49562 -0.17423 -0.94098 -0.2879 -0.06248 0.75745 -0.59404 -1.0563 0.21866 -0.20847 0.029439 0.5465 0.4881 0.58367 -0.034341 -0.035297 0.26026 -0.0040902 0.26779 -0.027786 0.15513 -0.026778 -0.28579 -0.27627 -0.33159 -0.72378 0.060153 0.1236 0.29408 0.25261 -0.11124 0.55963 0.23189 0.093353 -0.2206 -0.14817 0.041308 -0.01655 -0.28509 -0.12895 -0.22583 -0.222 0.11036 -0.58725 -0.048606 -0.60276 -0.088742 0.17381 0.14594 -0.26369 0.61873 -0.48394 0.03245 0.18738 0.31393 -0.43481 -1.2703 -0.13766 -0.0079448 -0.2055 0.11124 -0.26682 -0.22404 0.58475 0.52437 -0.13734 -0.55548 -0.82703 0.33348 -0.17617 0.22581 1.0757 -0.24999 -0.04364
evidence 0.49548 -0.35807 -0.082231 -0.18019 0.16045 0.44933 -0.67815 0.43229 0.38756 -0.18015 0.083112 -0.0039403 -0.12871 0.027147 0.40108 0.62898 0.24987 0.70137 -0.39409 0.18815 -0.034723 2.3681 -0.46102 0.436 -0.10315 0.054971 -1.0529 -0.22843 0.56357 -0.71981 -0.40865 -0.022388 0.40794 -0.11499 -0.091599 -0.27046 -0.36939 -0.81707 0.027301 0.058247 0.57246 -1.0496 -0.65023 1.0348 0.20458 0.26292 0.28503 -0.49898 0.45563 -0.12861 -0.10519 -0.3038 -0.29112 0.011506 0.35697 -0.089149 0.89262 -0.55802 0.32115 0.53181 -0.26037 0.3122 -0.055442 -0.3733 0.75278 -0.99466 0.063863 0.033819 -1.011 -0.21828 -0.34148 0.10102 -0.42778 0.31859 0.38408 0.029145 -0.084282 -0.42219 0.1422 -0.52761 0.058191 0.48666 0.076258 0.83745 -0.25916 -0.021556 -0.35433 -0.32888 0.88702 -1.0282 0.7845 0.096377 1.2484 0.87219 -0.67352 -0.23848 0.21329 0.2173 0.067432 0.60275 0.44872 -0.28746 0.12753 0.33818 0.35254 0.032832 0.56933 0.39039 -0.33285 -0.41916 0.48021 -0.40756 0.11114 0.38578 0.18923 0.34311 -0.55308 -0.50715 -0.57312 -0.031121 0.14767 0.20493 -0.39426 0.55297 -0.38166 -0.1389 0.052093 0.2716 0.39302 0.24121 0.0038148 0.98458 -0.19375 0.49603 0.16406 -0.14994 -0.37351 -0.60046 0.11073 -0.13819 0.1023 0.049535 0.49898 -0.4119 1.0565 0.1795 0.086926 -0.73014 0.19129 0.0074159 -0.096713 0.11254 0.56759 -0.011723 0.17315 0.0164 0.081302 0.36155 -0.22754 -0.15615 -0.77754 -0.075326 -0.21904 -0.024559 0.14273 -0.032964 0.55061 0.06169 -0.41656 0.83529 0.055286 0.24045 -0.02971 -0.46149 -0.70007 -0.22029 -0.075326 0.46293 0.35708 -0.10822 0.54918 -0.035491 -0.97838 -0.5657 -0.039515 -0.1822 0.42023 -0.25584 0.13115 0.52601 -0.41231 0.75629 0.076344 0.083066 0.16523 -0.33599 -0.1551 -0.24283 0.014862 -0.15241
sprint -0.18126 -0.57987 -0.38281 -0.56318 0.53653 0.095414 -0.094917 0.44984 0.65026 -0.1611 -0.33653 -0.09882 -0.052501 -0.15679 0.79823 -1.4185 -0.0019421 0.13484 0.44038 -0.29142 0.37774 0.7266 0.46587 -1.0311 1.0752 -0.09347 0.063746 0.86597 0.21766 -0.20729 -0.41071 0.44298 -0.17938 -0.26042 -0.53145 -0.22895 -0.05282 -0.21422 -0.47621 0.69495 -0.099713 -0.70051 -0.19019 -0.50751 -0.74252 0.052216 -0.53482 -1.1554 -0.92678 -0.52446 0.31015 -0.75689 0.61368 0.62587 -0.33373 0.15418 -0.61563 0.31668 -0.11079 0.32223 0.50532 0.50724 -0.60689 -0.11147 1.0624 -0.026496 -0.21232 0.13625 0.44441 -0.28591 -0.013326 0.44463 1.273 0.12359 0.085917 0.66244 -0.27781 -0.28954 -0.15022 1.5163 -0.25453 -0.41008 0.17973 -0.047549 -0.17798 0.054041 -0.20142 0.28908 0.16958 -0.8063 -0.12131 -0.15708 -0.074942 0.48469 0.34626 -0.52466 -0.33566 0.17083 -0.16878 -0.62791 -0.37282 0.52405 0.29498 -0.046313 0.25716 0.18683 1.3126 0.8045 -0.15436 0.58791 0.35918 -0.34237 -0.19316 0.51482 -0.19887 -0.048829 -0.19975 0.58547 0.63734 0.25767 -0.31723 0.22834 0.058196 -0.48813 -0.25359 -0.075569 -0.24506 0.42181 0.010362 -0.17423 -0.28515 0.14657 0.96322 0.60258 0.27771 0.55928 -0.43304 -0.39024 -0.43277 -0.44378 -0.75199 -0.44946 0.10492 0.54445 0.56395 0.54098 -1.0978 0.078851 -0.019631 1.2452 -0.079973 0.82225 -0.18878 0.063739 -0.16146 -0.14685 -0.18947 -0.38607 -0.86179 0.25996 -0.23964 0.29867 0.047696 0.74661 0.63865 -0.0092056 0.40374 -0.05676 -0.47309 0.39922 0.26755 -0.29543 -0.01987 0.80503 0.9025 0.55244 0.67259 -0.7808 -0.26626 -0.18719 0.64593 -0.60178 -0.069865 0.84327 0.39188 -0.39509 0.61848 0.37729 0.54934 -0.28692 -0.50889 -0.10249 0.081047 0.26857 0.079273 0.85448 0.28731 0.60284 0.59389 -0.29417
emergency -0.2306 -0.21748 0.36069 -0.47191 -0.269 0.4452 -0.81576 0.321 -0.92129 0.51861 0.037097 0.05845 0.77214 0.097727 0.50281 -0.19794 -0.40112 -0.11605 0.22971 -0.28007 -0.74956 2.9987 0.090355 -0.099297 -0.38357 -0.12109 0.52335 -0.00477 0.63376 0.45306 0.3604 -0.43767 0.14897 -0.44259 -0.025609 -0.24652 -0.4043 -0.070447 -0.1556 0.41829 0.36819 -0.017248 -0.53864 0.062736 0.71754 0.46653 -0.3926 0.0072407 0.3926 -0.17947 0.68302 -0.44584 -0.25623 -0.17433 -0.032416 -0.75163 -0.64364 -0.24998 -0.26618 0.12499 0.64888 -0.70985 0.11786 0.51725 -0.8002 -0.045055 -0.030047 -0.10501 0.063639 0.070389 -0.092012 0.32641 0.55855 -0.17815 0.057228 0.6773 0.4818 0.17211 -0.0068849 -0.28617 -0.23836 0.22118 -0.26651 0.25566 0.011264 -0.47397 -0.22841 -0.17423 0.57358 0.084756 -0.36808 0.61107 0.28681 -0.019884 0.069659 0.61663 -0.015835 -0.30274 -0.12888 0.27702 -0.10014 -0.30696 1.1656 -0.035643 0.035581 0.39688 0.02469 0.41262 -0.64376 -1.0135 -0.098111 -0.6361 1.708 0.24519 0.50719 -0.75243 -0.10328 -0.094083 -0.35561 0.31204 0.48796 -0.53374 0.37111 0.46341 0.0076517 -0.3325 -0.30698 -0.45918 -0.64767 0.10693 -0.19008 -0.033405 -0.11371 -0.7928 -0.034104 0.04483 0.79984 -0.21511 0.24589 0.069311 -0.34924 0.5896 -0.11437 0.32402 0.90421 0.31073 -0.90188 0.29591 -0.076382 -0.067094 -1.0571 -0.39472 0.3997 0.19019 -0.35682 -0.44467 -0.0077443 0.26569 -0.10613 -1.4869 -0.18133 0.47517 -0.25086 0.46976 0.28603 -0.40646 -0.24275 0.053843 -0.38307 0.12934 -0.039055 0.16237 0.11109 0.53822 0.35355 0.070083 -0.12364 0.35211 0.91568 -0.84717 0.68493 -0.5203 0.44515 -0.29807 -0.46498 -0.35052 0.073212 0.37093 -0.31851 0.70128 0.19234 0.38093 -0.27021 -0.22019 0.045395 0.28825 -0.55446 -0.54981 -0.26029 0.25315
institution 0.16205 -0.087212 0.34662 -0.53052 -0.20352 -0.82906 0.17257 -0.013463 0.11678 0.2182 0.58856 0.065504 0.073823 0.057897 0.71062 0.22984 0.53408 -0.30133 0.12861 -0.23975 -0.17294 2.4347 -0.12564 -0.42054 -0.40344 -0.01599 0.6721 0.018997 -0.072701 0.58484 0.74018 -0.27417 -0.04085 -0.015347 -1.1914 0.44295 -0.54496 -0.27564 0.34229 -0.29041 -0.48286 -0.015387 0.42835 0.4498 -0.10251 -0.085691 0.36564 -0.02934 -0.50422 -0.62669 -0.19467 0.49007 -0.4619 -0.42691 0.036515 -0.48507 0.0051767 -0.13362 -0.23184 -0.23987 0.48422 -0.35258 0.011923 0.28022 0.50942 0.29662 0.12226 0.684 -0.58644 0.45658 0.25382 -0.67048 -0.38681 0.35813 -0.223 0.20487 -0.061209 0.18849 0.333 -0.93088 -0.1795 0.36245 0.4445 0.28211 0.085297 0.50943 -1.0788 -0.0058296 1.3613 0.49876 0.098349 0.19044 0.43584 0.18187 -0.22922 -0.092562 0.29539 -0.22783 0.019224 0.056515 -0.25591 0.068368 0.020424 0.19246 -0.24394 -0.39879 -0.83997 1.1316 0.099179 -0.074523 0.42201 0.099663 0.29255 0.53009 0.21204 0.0046552 -0.14743 0.088627 -0.24642 0.1826 -0.31192 0.011492 0.17999 -0.27146 -0.17317 0.28159 -0.16434 0.42981 -0.39372 0.015064 -0.26669 -0.25329 0.12537 0.087952 0.034827 0.036407 -0.20636 0.65958 0.69444 0.65674 0.19732 -0.17442 -0.21202 -0.056964 0.53403 -0.36963 0.13054 -0.097886 0.75603 0.071087 0.42174 -0.7226 0.0096473 -0.14094 0.36638 0.25774 0.60281 0.17612 0.13727 0.0087428 0.43931 -0.61525 0.56943 -0.12299 0.22275 -0.10289 -0.17893 0.25977 -0.090532 0.69848 0.24865 0.52084 -0.35814 -0.24245 -0.10547 -0.45892 -0.25029 -0.13872 0.94353 0.40453 1.0216 0.27132 -0.27532 -0.15784 0.21266 0.45218 -0.50123 -0.14547 -0.1461 0.57067 -0.2241 0.041476 1.1086 -0.45126 -0.5138 -0.088931 -0.056315 0.81083 0.78478 -0.091701
