418 200
plane -0.25592 -0.33874 -0.096711 -0.38996 -0.19483 0.38876 0.13361 -0.26339 0.19392 0.48708 0.68526 0.41147 -0.68425 -0.095801 0.28117 -0.29686 0.013255 0.66992 0.34652 -0.3484 -0.069501 -0.51706 0.16877 -0.51211 0.073223 1.0401 -0.087863 -0.57851 -0.27526 -0.40718 -0.20999 -0.023973 0.18516 -1.1671 -0.27269 0.56738 -0.69743 0.40595 0.50211 -0.53128 0.19431 -0.25622 0.27391 -0.50416 0.40308 -0.32091 0.48159 -0.33517 0.41901 0.2611 -0.32556 -0.0043921 -0.066335 -0.32011 -0.59387 -0.25278 -0.10718 0.9887 -0.10782 -0.31701 0.1994 0.64649 0.67408 -0.19313 -0.57557 -0.13712 0.29075 0.47467 -0.37719 -0.48304 -0.54049 0.066901 0.13679 -0.9774 0.53162 -0.19627 -0.62112 0.12309 0.47213 0.56664 0.33872 -0.26024 0.31664 0.24801 0.069346 -0.24107 0.092637 0.28053 -0.58783 0.31654 0.3118 -0.42589 -0.55119 0.34393 -0.53103 0.22165 -0.37418 -0.35816 -1.1069 -0.23127 0.60134 -0.079507 -0.86137 0.71808 -0.72365 -0.2802 0.68319 0.013296 0.30463 -0.20191 -0.4405 -0.1528 -0.38199 -0.33711 -0.38452 -0.43808 -0.094622 -0.25324 0.090689 0.46042 0.7334 -0.10672 -0.10826 -0.12105 -0.36538 0.59444 -0.032809 0.22954 0.72937 0.19149 0.75086 -0.24085 -0.1672 0.10975 -0.62718 -0.58405 0.12487 0.92775 -0.26475 0.026618 -0.77946 -0.039758 -0.090364 0.29072 0.46117 -0.13119 0.091239 -0.38496 -0.08097 -0.46308 0.89966 -0.55032 -3.1283 -0.025654 0.02461 -0.38304 0.95801 -0.18065 0.0069855 0.079464 -0.13011 -0.047214 -0.038112 0.48705 0.4285 -0.18238 -0.52699 -0.58299 -0.2741 -0.43076 -0.5611 0.013812 0.11703 -0.0065607 0.23143 -0.28492 -0.40057 -0.13325 -0.3769 0.47409 0.52217 -0.14649 0.053696 0.69407 -0.98596 0.071219 0.28168 0.28219 0.58705 -0.37449 0.57429 -0.20167 0.11125 -0.037665 0.12129 -0.11227 -0.37485 -0.55179 0.38059 0.038669
stupid 0.23362 -0.30135 -0.26117 0.013529 -0.3125 0.03153 1.0 -0.15603 -0.14036 0.21636 -0.082878 -0.11845 -0.42872 -0.37938 0.31365 -0.50318 0.24438 0.28607 0.20274 -0.05157 0.32371 0.23888 0.13091 -0.40754 0.097759 1.3354 0.28996 -0.24422 -0.3429 -0.46655 0.44955 0.076413 -0.17654 0.15618 -0.5051 -0.039645 -0.40353 0.23558 0.21609 0.24036 0.50558 0.25415 0.27531 -0.56285 -0.021019 0.42451 0.62422 0.20682 0.09096 0.40564 0.095972 0.34186 0.15691 -0.72505 0.48843 -0.19119 -0.51422 -0.15721 -0.10774 -0.32859 0.11387 0.28512 0.30772 0.12861 -0.47393 -0.28854 -0.33956 -0.0087969 -0.36284 0.50822 -0.76538 0.21899 -0.034576 -0.17935 -0.17778 0.34084 -0.028151 0.16982 -0.062652 0.46586 0.2281 0.44828 0.0064801 -0.052221 0.099826 0.25793 -0.045781 -0.55653 -0.22303 -0.22477 -0.41994 0.091629 -0.023682 0.074567 0.32053 0.8147 -0.40516 -0.1948 0.31663 0.10038 -0.44279 0.1256 -0.26329 -0.083227 -0.20431 0.38629 0.080238 0.34098 -0.076607 -0.71639 -0.087835 -0.24864 -0.34317 -0.34206 -0.41248 0.65713 -0.16424 0.32488 -0.62175 -0.27532 -0.19679 -0.73817 0.10637 -0.45574 -0.21969 0.37421 0.26883 -0.4137 0.31274 -0.081653 0.27928 0.20566 0.60143 0.27541 -0.47119 0.35802 0.013432 -0.053033 0.14503 -0.68548 0.025852 0.33475 0.73447 0.1444 0.049635 0.14936 -0.0082722 -0.52286 -0.0035589 -0.17686 -7.8835E-4 -0.1124 -4.7342 0.28809 -0.053936 -0.2498 -0.10438 -0.19702 0.03881 -0.46857 -0.29641 -0.4174 -0.34607 -0.24724 0.181 0.25171 -0.16911 0.11945 -0.2954 0.7022 -0.13111 -0.33598 -0.15554 -0.14689 -0.20747 -0.2063 0.19483 0.075657 0.096551 -0.23258 0.12005 0.20385 -0.11245 -0.22709 0.10631 0.41942 -0.16329 -0.28789 -0.12221 0.16695 -0.041254 -0.14232 0.017184 0.50558 -0.027173 0.38612 -0.37873 0.38755 -0.98183 -0.14981
egg -0.52392 -0.77375 -0.19498 0.73188 -0.037989 0.67236 0.95921 -0.26364 0.13552 -0.20833 0.3879 0.28915 -0.64141 0.25246 -0.30735 0.064744 0.84754 -0.41237 -0.043108 -0.39351 -0.18672 0.40313 -0.39033 0.24665 0.27064 0.99586 -0.19834 -0.14925 -1.003 0.61911 0.25521 0.82256 -0.17594 -1.1369 -0.70773 -0.37669 0.71917 0.72833 -0.32386 -0.016297 0.11663 -0.3973 0.14396 0.76471 0.35888 0.16023 0.087177 0.22519 0.72761 0.27376 -0.33163 -0.066759 0.21976 0.14399 0.38461 -0.50547 0.75099 0.13074 -0.040527 -0.4457 -0.21216 -0.67299 -0.13718 0.60248 -0.35613 -0.29487 0.040942 -0.047947 0.070212 0.21326 -7.0425E-4 -0.21815 0.36424 0.44957 -0.18063 -0.021305 -1.1246 -0.21549 0.11832 -0.22205 0.93263 0.45916 0.068893 0.26742 0.34758 -0.35661 -0.096865 -0.3445 0.10644 -0.26051 0.15742 -0.34232 -0.77021 -0.19296 0.3344 -0.36991 -0.57933 0.16558 -0.3008 0.64275 0.16572 -0.085684 0.12308 0.036015 0.24005 -0.36803 -0.52617 -0.58939 -0.13014 0.49723 -0.50638 0.1142 -0.15529 -0.263 -0.39825 0.60687 -0.087975 -0.24256 0.2411 -0.37068 -0.68867 0.029072 -0.38275 0.11237 0.14134 0.098267 0.20136 0.026083 0.27786 0.31647 0.45374 -0.057469 0.16513 -0.21184 -0.48666 -0.48996 -0.2031 0.39385 -0.23037 -0.090477 -0.95413 0.65301 0.43887 -0.47463 0.46758 0.10092 0.11331 0.59587 0.18909 -0.30553 0.83197 1.0893 -2.9448 0.25514 -0.12813 -0.22593 0.21823 0.22334 0.51682 0.58888 -0.96179 -0.35674 0.17607 -0.034807 0.15792 -0.3552 0.43447 -0.55563 0.18186 0.15634 -0.26833 -0.19236 -0.27489 0.29929 -0.2944 -0.38276 -0.30184 1.0812 0.49265 0.22183 -0.42936 0.027654 -0.0043511 0.091771 0.18156 0.21284 -0.42576 0.58319 -0.48627 -0.48783 0.068239 -0.21903 0.36629 0.042403 0.0051662 0.31952 0.11373 -0.54939 0.32174 -0.25089
year 0.332 0.19018 0.52329 0.080855 -0.086987 -0.085257 0.53765 0.31055 -0.40846 0.063706 -0.056565 0.07016 -0.57929 0.35672 0.54628 -0.39277 0.029115 0.21267 -0.71759 -0.020952 0.24811 0.40112 -0.084566 0.04488 -0.065428 1.1915 -0.10752 -0.46948 0.53717 -0.05867 0.57093 0.078657 0.19246 0.4936 -0.14655 0.069407 0.26871 0.021099 0.25739 -0.32733 0.36721 -0.35531 -0.11636 0.081728 -0.25216 -0.075167 -0.027974 -0.79925 -0.14133 0.48598 -0.62883 0.10809 -0.0063506 0.011852 0.19407 0.75459 0.090591 0.21051 -0.083582 0.03224 0.24817 0.3325 -0.65932 -0.10897 -0.31136 0.17785 0.17409 -0.1166 0.52351 -0.28233 -0.14705 0.25301 0.25877 0.2709 0.050626 -0.3609 0.61274 0.17 0.20966 0.22388 0.75277 0.29135 -0.23477 0.28602 -0.035994 -0.10528 0.51283 0.28707 0.051166 -0.20567 -0.14788 0.1695 -0.41998 0.065537 0.30856 -0.45348 0.16406 0.29674 0.17358 -0.45742 -0.12628 0.22983 0.0052313 0.19028 0.32259 -0.17319 -0.0020047 0.41674 -0.10361 0.37195 0.61591 0.4132 -0.30838 -0.19058 -0.0036665 -0.38529 0.016831 -0.098327 -0.31908 0.20783 0.088121 -0.34102 -0.26987 -0.45873 0.14521 -0.41221 -0.308 -0.37659 -0.28077 -0.070712 -0.22526 0.27977 0.10426 0.24421 -0.42618 -0.11168 -0.54081 0.071347 0.0065864 0.23379 0.16606 -0.36103 0.19771 0.52223 -0.23835 -0.39043 0.060741 -0.048247 -0.22791 -0.20642 0.2581 -0.083389 -5.2847 0.28363 -0.13346 -0.25099 -0.29859 0.78257 -0.28123 0.17559 0.15338 0.047232 -0.2629 0.49325 0.655 -0.056261 0.50118 -0.33729 0.27986 -0.058633 -0.0039719 0.13186 0.69316 -0.2052 0.11263 -0.1568 -0.037349 -0.11751 0.22587 0.34094 -0.17408 0.10355 -0.52485 -0.34908 -0.41619 -0.10479 0.2108 -0.25366 -0.58094 0.35487 0.031218 0.25328 0.4311 0.22543 -0.32705 0.16285 -0.26814 0.030176 0.21428 0.36526
psychiatry -0.33363 0.12246 0.72243 0.42402 -0.01305 -0.16015 0.019386 0.1299 -0.20479 -0.49221 -0.20222 -0.019512 0.10692 -0.22184 0.54427 -0.80275 0.39083 -0.14998 0.4781 -0.10762 0.24396 -0.47218 0.12466 0.17361 -0.5937 1.1556 0.2623 -0.0019681 0.0098178 0.074273 0.015301 -1.0014 -0.25489 0.16407 0.49851 -0.21243 -0.11745 0.083387 0.12015 -0.99938 0.53625 -0.04828 0.3383 -0.37378 0.41926 0.17828 -0.41963 0.5849 0.09587 -0.43537 0.0023396 0.12421 -0.10509 0.67915 -0.58033 0.21519 -0.1657 -0.16308 0.35812 0.79325 0.57205 0.066762 -0.91861 0.049489 0.21617 0.33207 -0.37147 0.16779 -0.15893 0.29811 -1.0869 0.60302 0.43349 -0.52294 0.84551 0.22061 -0.097923 0.02957 0.04899 0.14314 -0.87082 0.7507 0.58845 0.46289 -0.65222 -0.11677 0.30043 -0.22755 0.11671 0.66358 0.017064 0.21046 0.19393 0.78771 0.10649 -0.23864 0.32795 -0.22763 0.32183 0.3685 0.71122 0.16946 0.26468 0.31842 0.18722 -0.22154 -0.46591 -0.15789 0.043561 -0.72684 -0.09312 0.19855 -0.77991 -0.12458 0.48126 0.31276 -0.35762 -0.39972 0.12798 0.60136 -0.12761 0.056487 0.16859 0.25848 -0.22666 -0.56291 -0.012891 -0.18576 0.60084 -0.5539 -0.40946 -0.017354 -0.030471 -0.076899 -0.22386 -0.69785 -0.45381 -0.14632 -0.28694 -0.4181 0.49466 -0.10752 0.093662 -0.49802 0.17478 0.33851 -0.66084 -0.18156 -0.69045 0.40549 0.54336 -0.33549 -0.020518 -0.15163 0.17825 0.49347 0.056424 0.45175 -0.40941 0.24132 0.20343 0.39041 0.012775 -0.017586 0.97848 -0.3219 0.12771 -0.5023 -0.4901 -0.97618 -0.051124 -0.08404 0.46855 -0.34385 -0.072261 -0.028918 -0.44996 0.10265 0.075188 -0.80593 -0.077222 0.60193 0.16738 -0.43034 -0.025661 0.63535 0.39607 -0.1241 0.5523 0.37464 -0.60306 0.21432 0.91033 0.14486 -0.62098 -0.42747 0.082827 0.58661 -0.7209 -0.55024
asylum 0.45828 -0.36967 -0.07532 0.30226 0.59292 0.072081 -0.36828 -0.13369 0.04351 -0.1366 -0.0052887 -0.39023 -0.86607 0.23805 0.95667 -0.09345 0.12062 0.4771 0.79706 0.15381 -0.1835 -0.11557 0.25335 0.4098 0.25714 0.82675 0.66752 0.22409 0.54511 -0.18306 0.41161 -0.71269 -0.17318 -0.25795 0.18557 -0.021931 -0.14412 -0.20229 -0.34619 -0.45099 0.30567 -0.23892 1.7004 -0.88608 0.55594 0.27651 -0.86878 -0.13382 0.45634 0.7872 0.033942 0.75101 -1.2051 -0.0019995 -0.55913 -0.072505 -0.43034 0.30337 0.16055 0.020965 0.20151 0.4916 -0.77674 0.1419 0.25701 1.0877 -0.049162 0.85485 -0.12038 -0.37814 -0.28462 0.68266 0.55851 0.81087 0.4621 0.3137 -0.60744 0.48428 0.52086 -0.077695 0.91979 0.12499 0.89831 0.49445 -0.3159 -0.44769 -0.33215 0.49497 -0.49415 -0.0018314 -0.040618 -0.18562 -0.33257 0.30396 -0.43438 0.39646 0.66804 -0.17649 -0.53626 0.31129 -0.098609 0.31407 0.25802 0.24635 -0.34662 -0.1385 -0.014946 0.34914 0.19657 -0.53819 -0.16987 -0.0051181 -0.50488 -0.2678 -0.29791 0.29818 0.013809 0.05084 0.22939 -0.0036955 0.31226 0.017209 -0.28674 0.97709 0.5559 0.29595 0.56235 0.30099 0.8573 0.43384 -0.14223 0.38062 0.034221 0.1117 0.34769 -0.42816 -0.48758 -0.7545 -0.11825 -0.66081 0.49221 -0.19718 -0.32945 0.62755 -0.17206 -0.19056 -0.64266 -0.35381 -0.37595 0.54098 -0.73704 0.41057 -1.7678 -0.087965 -0.2925 0.28802 0.79813 -0.7295 -0.74298 1.0613 -0.27388 -0.40818 -0.24137 -0.39405 -0.013942 -0.030386 0.052652 0.73484 -0.60697 -1.0377 -0.48427 0.34044 0.022104 0.26392 0.32171 -0.80147 -0.19341 -0.63626 0.070637 0.32839 -0.25471 0.19465 0.10748 0.65263 -0.49042 0.1439 0.18156 -0.2567 0.47841 0.20274 0.78071 -0.55367 0.50037 0.12834 0.45835 0.25873 0.0038065 0.25955 0.11253 0.40423
manslaughter -0.53045 0.48899 0.49604 0.46719 0.1329 0.053077 -1.0949 -0.84908 0.53632 -0.83781 0.29114 0.23664 -1.1831 -0.72463 0.90062 -0.21723 0.051477 0.30841 0.30447 0.094621 0.36244 -0.2076 0.38807 0.2684 0.19864 1.1074 -0.16341 -0.63357 0.46376 0.30365 0.55557 0.028084 -0.084929 -0.22364 -0.012297 -0.17626 -0.06856 0.34254 0.14699 0.2806 1.1385 0.0015601 0.35893 0.7638 0.45249 -0.31632 -0.34875 0.25141 0.023237 0.22208 -0.39404 0.98145 -0.091056 -0.51184 -0.66975 0.2663 0.0032009 0.43062 -0.40951 0.49165 0.78919 -0.040578 -0.77801 -0.063221 0.35053 0.52664 0.80117 0.20869 0.21279 0.97859 0.26891 -0.21367 0.67343 -0.3438 0.86692 0.90168 -0.58486 0.04855 -0.94407 -0.16095 0.45713 1.2843 -0.28234 0.068467 0.35928 -0.25538 0.30018 0.30068 -0.69143 0.52846 -0.66498 -0.64582 -0.82776 0.26438 -0.11675 -0.26907 -0.003644 0.37215 -0.13775 -0.44212 -0.15639 -0.70194 0.41135 0.57213 -0.12075 -0.63005 -0.13316 -0.12251 -0.23332 0.20625 0.32263 -0.20421 -0.5693 -0.30513 -0.63819 -0.59918 -0.97278 -0.38405 -8.9214E-4 0.75784 -0.2596 -0.54566 0.70401 -1.0477 -0.038459 1.1231 0.78333 0.41338 -0.21212 0.25072 -0.14843 0.27934 0.25561 0.92219 -0.60732 -0.88977 -0.40507 -0.063842 -0.62024 -0.89936 -0.067721 0.52968 -1.0964 -0.39606 0.4286 -0.047658 0.31598 0.44025 0.0066528 0.62817 0.29573 1.0363 -0.44327 -0.41221 0.12074 0.51552 -0.62145 -0.20812 -0.17235 -0.4559 -0.25025 0.90649 -0.091996 0.048783 0.60146 -0.48792 0.14017 -0.26386 0.18005 -1.2073 0.46673 0.84504 0.84484 0.13729 0.37891 -1.0164 -0.086174 0.13346 0.039494 0.58089 -0.4928 -0.64171 0.68033 -0.13422 -0.62036 -1.2433 0.54684 0.078024 -0.42337 -0.17362 -0.28841 0.15292 -0.16124 0.38806 -1.1552 -0.41299 0.75822 1.3485 -0.22139 -0.17213
music -0.69262 0.17773 0.25194 -0.18307 0.47759 0.25309 0.56476 0.034074 -0.028163 -0.6978 0.17218 0.20553 -0.80241 0.16372 0.011611 -0.44283 -0.56275 0.12749 0.4764 -0.098893 -0.3871 0.26082 0.35167 0.17393 -0.083195 0.38659 -0.68206 0.22005 0.31592 0.28873 -0.79378 -0.23723 -0.79628 0.34626 0.32637 -0.16485 0.73065 -0.032512 0.35433 -0.35436 -0.33547 0.48189 -0.2654 -0.63911 0.060109 0.058341 -0.30958 -0.037413 -0.95806 -0.29243 -0.17541 -0.33647 -0.71318 0.46967 -0.10891 -0.28041 -0.70117 -0.12747 0.47467 -0.097892 0.071837 -0.7733 -0.35683 0.094161 -0.10898 -0.73933 -0.25629 0.34297 0.060236 0.085999 0.026415 0.12724 -0.11146 0.082005 -0.31165 -0.53637 0.10123 0.5353 0.63668 0.056455 0.36362 0.081111 0.031218 -0.15936 -0.70183 0.27122 0.66593 0.67606 0.13269 -0.022682 -0.31752 0.50184 -0.15332 -0.69188 -0.046616 0.12966 0.86597 -0.10763 -0.15103 -0.25633 -0.34267 -0.51088 -0.75138 0.28925 -0.36606 0.20955 0.38952 -0.28803 0.29702 0.22439 -0.048042 0.26514 0.0641 0.033507 0.12881 -0.46707 -0.090368 -0.36885 0.42885 0.28383 -0.039987 -0.0023919 0.32607 -0.12279 0.13711 0.10122 -0.61401 -0.58992 0.85467 0.37038 -0.50328 0.34788 0.35093 0.22674 0.52497 0.6641 -0.62809 0.41397 0.34719 0.034811 1.3269E-4 0.35515 0.4534 -0.40229 -0.12986 -0.19891 -0.22939 -0.072178 -0.46583 -0.31875 -0.18254 -0.58525 -4.7861 -0.46287 -0.085734 -0.071381 0.12371 -0.08693 -0.25739 0.0093975 0.034531 0.39422 -0.48617 -0.59925 -0.041117 -0.19312 0.25458 0.60411 0.38244 -0.013145 0.48165 -0.47898 0.47642 -0.79874 0.0094173 0.41585 0.21131 0.25152 0.3261 -0.10596 0.24463 -0.92544 -0.23989 0.28735 -0.18993 -0.0036924 0.23224 -0.63504 0.40488 -0.086931 0.16671 -0.49958 -0.083952 -0.20158 0.20183 0.58234 -0.19373 -0.084992 -0.62017 0.13227
record 0.5501 0.30591 0.20055 -0.49865 0.30369 -0.11152 0.18605 -0.27869 0.13676 -0.1027 0.27756 -0.08626 -0.83792 -0.38759 0.31476 0.20928 -0.30009 -0.24236 -0.22764 -0.45815 -0.19225 0.62951 0.29474 0.067183 -0.23589 -0.57939 0.14555 0.024341 -0.14773 0.5756 0.63739 -0.41215 -0.12124 -0.20151 0.39981 -0.045391 0.12844 -0.59623 -1.06 -0.41783 0.63868 -0.30736 -0.01244 -0.30452 -0.13639 -0.0868 0.093493 -0.2085 0.22681 0.38416 -0.38833 0.40621 0.18777 0.53563 1.03 0.47371 -0.31996 0.075794 0.35532 0.12566 -0.19379 -0.074652 -0.23707 -0.022396 -0.32098 0.40952 0.66868 -0.33282 -0.09584 -0.55162 -0.32515 -0.23163 -0.44228 0.075471 -0.43169 -0.96105 0.21477 -0.20122 -0.34336 0.50314 0.63784 -0.41999 -0.34806 0.24602 -0.3407 -0.070654 0.74492 0.36861 0.15555 -0.58907 -0.36539 0.36096 0.077643 -0.59416 -0.30908 0.2525 0.26299 -0.016636 -0.14868 -0.74641 -0.088014 -0.42906 0.86154 0.50513 -0.15198 -0.30747 -0.1804 0.31598 -0.017725 0.18902 -0.13594 0.58159 0.024243 0.070126 0.85073 -0.60222 0.36932 -0.24495 -0.23169 0.086807 -0.03322 0.092505 0.53215 -0.20013 -0.12437 0.14718 0.0073419 -0.56721 0.66596 0.59297 -0.43454 -0.12796 0.75932 0.18068 -0.16685 -0.090511 -0.29622 -0.59823 -0.51474 0.0075328 0.21043 -0.20665 -0.073721 -0.12644 -0.094536 -0.094607 0.72159 -0.40303 0.49874 0.60692 0.46618 -0.19885 -3.8234 -0.21677 0.77559 -0.109 0.40072 0.16378 0.39033 -0.12828 -0.079194 -0.0053297 0.68149 0.045938 0.077206 -0.2063 0.31437 -0.23344 -0.058725 -0.90611 0.80448 0.28802 0.32308 -0.016117 -0.48957 0.07414 -0.3961 0.0050292 0.053741 0.066249 0.10595 -0.29141 -0.86606 0.16791 -0.18692 0.23759 0.34519 -0.24741 0.08193 0.11042 0.59024 -0.078765 0.0086601 -0.20765 0.32424 0.20457 -0.39439 0.36587 0.1965 0.039839
energy 0.64303 0.045734 -0.46083 -0.47146 -0.055365 0.64782 0.20044 -0.75801 0.022826 -0.42711 0.45197 0.21932 -0.96684 -0.060145 0.22484 0.42063 -0.28473 0.14249 0.12751 -0.44724 0.22487 0.27745 0.43003 0.25829 -0.44664 1.4231 -0.67032 0.29491 0.3196 0.20256 -0.65251 -0.79229 -0.11449 -0.19121 0.085019 -0.28788 -0.06831 0.50146 -0.36347 -0.30373 0.23889 -0.52209 -0.12206 -0.16126 0.43728 0.33944 -0.27158 0.49378 -0.0099466 -0.075071 0.54384 -0.10735 0.094033 0.38375 -0.54814 -0.37943 -0.19922 -0.46784 -0.52013 -0.25371 -0.10009 0.67879 -0.13295 0.1833 0.42122 -0.37395 -0.20041 -1.5139 -0.073886 0.17095 -0.42606 0.40176 0.21612 0.35008 0.15825 -0.55648 0.23526 0.53042 -0.17512 -0.2956 0.65085 0.046057 0.51397 0.013261 0.23304 0.37357 0.087777 -0.48949 -0.38408 0.32638 -0.26836 0.47101 0.98455 -0.82309 0.36266 -0.38447 -0.49006 0.27206 -0.14191 -0.024437 -0.23959 -0.0054888 0.23694 -0.057064 -0.47403 -0.65599 -0.45098 0.019077 0.3084 0.14237 0.19506 -0.21542 -0.045808 0.45575 0.33824 -0.4544 -0.44977 0.097038 -0.69493 0.72191 0.27018 -0.47994 -0.17331 0.060788 0.79055 -0.25857 -0.23744 -0.24566 0.18537 -0.2962 -0.16401 0.53284 0.078297 0.010539 0.85797 -1.0746 0.10579 0.0016319 0.5057 0.34078 -0.58791 -0.17265 -0.12909 -0.43783 -0.058278 -0.86201 -0.0035759 0.014375 0.058094 -0.20818 0.96971 -0.07906 -3.569 -0.24363 -0.50807 0.056304 0.561 0.24301 1.3727 -0.18034 -0.16688 0.57186 0.90814 -0.56737 0.037669 -0.14043 -0.68184 0.69131 0.93018 0.31549 -0.088028 0.060957 0.11582 -0.077342 -0.73757 0.25489 0.54252 0.09905 0.076432 -0.065882 0.070822 -0.068361 -0.11623 -0.64886 -0.057411 0.16025 0.28266 0.40396 0.54579 0.15046 0.18052 -0.23963 0.14827 -0.18925 0.052633 0.24139 0.33218 0.04069 -0.095823 0.32505
announcement 0.25287 0.33932 -0.53234 0.10983 -0.2196 -0.23393 0.71391 0.40179 0.16774 0.078251 0.52557 0.2326 -0.44567 -0.18566 0.27538 -0.32703 -0.26089 0.51212 -0.57506 0.42205 0.034898 -0.059163 -0.038777 0.18275 -0.26427 0.72408 -0.070171 -0.4511 -0.16418 -0.043652 0.52996 -0.069283 -0.30282 -0.28938 -0.2411 -0.55156 0.053953 0.33731 -0.13997 -0.088309 1.1588 -0.15824 0.54027 0.16259 -0.13546 -0.29361 -0.72055 -0.91359 -0.4925 0.16527 0.26136 0.031243 0.2571 0.43563 -0.57819 0.25225 0.82313 0.17166 0.14877 -0.31259 0.024448 0.74169 0.094168 -0.43774 -0.37484 0.80783 0.37525 -0.10119 -0.20084 -0.44173 0.13459 0.45475 0.81706 -0.65001 0.22378 0.0012052 0.085649 0.27247 -0.014722 0.59778 0.55853 -0.1295 0.59755 0.19684 -0.65601 -0.11721 -0.035703 -0.046705 0.5498 0.067484 -0.17709 0.57855 -0.36864 -0.41129 0.53135 0.53096 0.11371 -0.3302 0.17152 -0.37527 -0.46478 0.021287 -0.28091 -0.21866 -0.46995 -0.28523 -0.94627 0.18347 0.041577 0.24492 -0.30977 0.2186 -0.26452 0.14187 0.77164 -0.091245 0.20578 0.075058 0.77005 0.55916 -0.14535 -0.21048 0.27709 -0.26642 0.27394 -0.093354 -0.39477 0.067819 -0.066256 0.16259 0.37285 -0.6608 -0.049229 -0.14182 -0.010354 -0.28667 -0.050343 0.31699 -0.68275 0.64896 0.39438 0.36514 -0.22639 0.56952 -0.10167 -0.61607 -0.072364 -0.57289 0.078813 -0.38759 0.29701 -0.086181 -2.9309 -0.27615 -0.19131 -0.65489 -0.36239 -0.9134 0.014022 -0.20178 -0.79463 -0.73431 -0.037617 -0.22787 0.87012 0.11686 0.39573 -0.39197 -0.33639 0.028767 0.41315 0.11184 0.52441 -0.38968 0.1218 -0.096984 0.48496 0.22564 0.65627 -0.33294 0.015579 -0.44744 -0.11502 0.17937 -0.28286 0.32631 -0.26498 -0.66619 0.22384 0.36108 0.12515 0.22842 -0.26167 -0.29473 -0.28214 0.5617 -0.016127 0.77207 0.05861 -0.1513
mile 0.071965 -0.11358 -0.058963 -0.46496 0.41854 0.17446 -0.0052312 0.039755 -0.65392 0.4556 0.14952 -0.90664 -0.50218 0.13362 -0.61828 -0.13077 -0.037138 0.27963 -0.011737 0.41449 0.12368 0.09519 0.32527 0.091528 0.014193 0.15898 -0.53705 -0.22819 0.47648 0.53865 0.20243 -0.45521 0.48281 -0.34835 -0.26302 0.19427 -0.56256 0.5574 0.10137 0.12586 0.033562 0.71339 -0.47176 0.57166 -0.23158 0.43034 0.57231 0.15475 0.49714 0.26349 -0.5167 0.016779 0.2664 0.33957 -0.22584 -0.010788 -0.45697 0.29722 -0.0926 0.30341 -0.054777 0.58633 -0.71612 -0.22609 -0.14001 -0.12808 0.090847 0.53449 -0.36663 -0.51981 -0.4539 0.11886 -0.29619 -0.53924 0.14412 0.069042 -0.70462 -0.17813 0.80174 -0.78633 1.0631 -0.10197 -0.88439 0.63803 0.3246 0.50878 0.6104 0.1431 0.18193 -0.17275 0.67021 -0.88526 0.25485 -0.23383 -0.36967 0.55884 0.50032 -0.093877 0.089555 -0.077306 -0.70945 -0.27619 0.086044 -0.16859 0.056419 -0.26964 -0.13188 -0.21311 -0.043837 -0.51726 0.033055 -0.25978 0.022233 0.58686 0.43475 -0.69221 -0.09903 -0.34877 0.34894 -0.04622 -0.26757 0.18039 -0.14288 -0.31952 -0.15616 0.2964 0.29565 0.34825 0.59409 -0.079452 0.24257 -0.14733 0.41624 -0.30864 -0.021659 0.47678 -1.1444 0.21722 -0.1837 0.37177 -0.0047349 -0.20009 -0.75089 0.57752 0.004151 0.070551 0.45748 0.095466 0.27012 0.075416 -0.14822 -0.13281 -2.9727 0.49848 0.49991 -0.012766 0.31141 0.21076 1.2061 -0.22018 0.35348 0.17285 0.12114 0.11231 -0.71318 0.10203 -0.24774 -0.315 -0.48603 -0.047504 0.2477 0.20917 -1.0262 0.21461 -0.12448 -0.2264 0.12827 -0.56969 0.42425 0.46857 0.58662 -0.57234 0.24603 0.13863 0.26825 0.2361 0.4045 0.15392 0.48709 0.46947 1.0297 -0.13667 0.40449 0.51512 -0.24412 -0.48554 0.8492 0.25837 0.87137 0.4631
airport -0.19406 -0.88869 0.53324 -0.3556 0.38011 0.1628 0.12179 -0.077978 -0.31276 -0.14319 0.078786 0.17137 -0.90359 1.0972 0.47707 -0.77941 -0.23929 -0.91995 -0.16435 -0.58797 0.36859 -0.59499 -0.49434 0.12133 -0.048111 0.73263 0.1044 0.2845 -0.44674 -0.54251 -0.0794 -0.043695 -0.51986 -1.056 0.058979 -0.095022 -0.69357 -0.21949 0.86489 0.050839 -0.47551 -0.1727 0.23921 0.097658 0.046856 -0.75011 0.20391 -0.19497 -0.639 0.025073 0.058192 -1.0064 0.19115 -0.02963 -0.13533 0.38975 0.41644 0.023179 -1.2421 -0.22463 0.5688 -0.78923 0.6988 -0.54519 -0.54778 0.67264 -0.24105 0.49763 -0.60639 -0.59091 0.11893 -0.47152 0.23439 -0.85544 0.55305 -0.84139 -0.62102 0.15136 -0.016504 0.062973 0.4279 -0.43148 0.41526 0.5967 0.59304 -0.12392 -0.47926 0.5634 0.71545 -0.35364 0.42553 0.038013 0.30653 0.19196 0.28723 0.074624 -0.46205 -0.31743 0.10227 -0.34481 0.55143 -0.34586 -0.25035 -0.10018 -0.54965 -1.0181 -0.095876 -0.25636 0.83942 -0.097364 -0.11055 -1.0853 -0.44335 0.016758 0.23583 -0.81189 -0.36916 -0.54222 0.051462 0.35787 1.3883 -0.77934 0.067986 0.47378 -0.63126 0.7394 -0.085134 0.44338 -0.0031566 1.3753 -0.087598 -0.40322 -0.016223 -0.36086 0.013926 -0.59619 -0.0093416 0.60517 -0.56038 0.6604 -0.41999 -0.22853 0.1882 0.032682 -0.21778 0.33681 0.31655 -0.89842 0.44425 -0.20698 0.63829 -0.092564 -3.1941 -0.065629 0.019614 -0.12403 0.012361 -0.3362 0.14685 -0.27196 0.012952 0.45781 -0.24801 0.49746 0.23782 0.15205 -1.1184 -0.62874 -0.22274 -0.37881 -1.1514 -1.0049 -0.17232 0.35113 -0.42015 0.42394 -0.35458 0.030316 -0.89838 0.079148 -0.23883 0.021789 0.3862 0.81384 -0.77379 0.62554 1.6769 0.037336 0.64177 0.20609 0.056625 0.37568 -0.64809 0.19631 -0.44822 0.24309 -0.086996 -0.5252 -0.17277 0.53418
population -0.026012 -0.077203 -0.29183 -0.4339 -0.30703 0.82656 -0.1028 -0.10531 0.52679 0.12615 -0.042993 -0.44954 -1.086 0.73279 0.11212 0.90968 0.23487 -0.53174 -0.40909 -0.97627 0.34897 -0.11866 -0.43378 -0.042081 0.2044 1.2251 0.13436 -0.13303 0.23048 0.43617 0.63747 0.096724 -0.21255 0.16925 0.43146 -0.79437 -0.71281 0.20396 0.34812 -0.59418 0.33405 -0.2616 -0.28509 0.2397 0.2433 -0.15561 0.87792 -0.89956 0.47651 0.42703 0.16519 0.54462 0.49548 0.3631 -0.41588 0.88471 0.18666 -0.11454 0.026669 0.25973 -0.048945 0.32911 -0.40581 0.26543 0.63016 0.80265 0.55983 -0.039117 0.39357 0.47994 -0.15296 0.49094 0.10912 0.011432 -0.63468 0.17108 -0.078566 0.0021265 0.66507 -0.40254 -0.12092 0.26687 -2.9218E-4 -0.20845 -0.47345 -0.51475 -0.50796 -0.020174 -0.25768 -0.31613 9.6691E-4 0.6345 0.20426 0.20806 -0.1235 -0.10927 0.25168 -0.055282 0.54477 -0.25583 0.17928 0.055108 0.22427 -0.20387 -0.31046 -0.91039 -0.33647 0.49238 -0.25917 0.10977 -0.34863 0.65453 -0.3018 -0.9555 0.44439 -0.2352 -0.16495 0.11872 -0.3693 0.76692 -0.11014 0.11749 0.51496 0.22754 0.01866 0.21932 -0.37794 -0.93819 1.2735 0.1351 0.4171 0.37732 0.46855 -0.3578 0.0096875 -0.53326 -1.032 0.13265 0.24914 -0.66927 0.84812 -0.054347 0.47395 -0.64571 -0.25474 -0.042097 -0.40973 -0.54919 -0.97731 -0.014361 -0.13002 0.63908 -2.4196 0.28516 0.016715 -0.13344 0.30389 0.18597 0.24855 0.28228 0.16169 0.59266 -0.020471 0.16159 -0.10054 -0.28043 -1.0175 -0.52736 0.096969 -0.46123 -0.13207 0.16388 0.48889 -0.44759 -0.23442 0.22214 -0.52762 -0.14074 0.12233 0.22015 0.1018 0.59552 -0.3989 -0.71019 -0.48322 0.63323 0.5727 0.71377 -0.26462 -0.41786 0.44889 -0.82622 0.43976 -0.3213 -0.32823 0.15454 -0.42547 -0.019296 0.75489 -0.87911
planning 0.30409 -0.020952 0.066184 0.41613 -0.37625 -0.16418 1.2873 -0.65504 0.18128 -0.50388 -0.69843 0.20008 0.082089 0.36431 0.36724 0.17464 -0.25095 0.38619 -0.53084 0.52093 -0.072918 -0.45061 -0.62938 -0.17749 -0.10423 1.2454 0.50554 0.083158 -0.056218 -0.48653 -0.12666 -0.38441 -0.12906 -0.31574 0.22535 0.26003 -0.25449 0.27847 0.01011 0.084265 0.41588 -0.046919 0.26983 0.019088 0.3713 -0.11455 -0.21475 -0.047818 -0.40187 -0.36833 0.36402 -0.16427 0.10081 -0.027798 -0.21389 -0.32443 -0.21601 -0.19968 0.30379 -0.35387 0.28231 0.9648 0.27123 -0.39432 0.21881 0.61546 0.3628 -0.075049 0.26087 0.0024582 -0.73218 1.0313 1.0054 0.67011 0.5301 -0.23069 0.099545 -0.28648 0.33633 0.24778 0.17924 -0.41153 0.49062 0.10793 -0.33142 -0.45401 0.24183 -0.57928 0.91992 0.13243 -0.10369 0.53318 0.19524 0.032635 0.11675 -0.34991 -0.29599 0.43007 -0.25667 0.12699 0.52214 -0.53227 -0.0018354 0.6594 -0.085105 -0.21134 -0.53136 -0.11914 0.21661 0.50093 0.80065 -0.58723 0.21402 -0.007845 -0.11225 -0.2217 0.25275 0.52082 0.016846 -0.20034 0.062524 0.29856 0.28036 -0.15096 0.23845 -0.56652 -0.251 -0.016798 -0.47685 0.23422 -0.043079 -0.078984 0.016969 0.12434 -0.32559 -0.4802 -0.42735 0.16143 -0.42191 0.58181 -0.32241 -0.29422 -0.46217 0.40067 0.14728 -0.23722 -0.21395 -0.34921 0.22299 -0.14642 0.059262 -0.016498 -3.4898 -0.22529 0.58358 0.42467 -0.02216 -0.25408 0.21184 -0.36944 -0.43719 0.3489 0.26623 0.27015 0.3327 -0.53819 -0.30673 -0.045983 0.31701 -0.45762 -0.082455 -0.098577 0.34578 -0.35566 -0.51844 -0.42424 0.69389 -0.32534 0.20517 0.086214 0.67361 0.067563 0.1274 -0.046019 -0.43461 0.40882 0.65073 -0.29785 -0.0451 0.22106 0.16629 -0.26853 -0.028167 -0.029875 -0.13259 0.065639 0.016806 0.077115 0.32945 -0.319
canyon -0.23592 -0.40651 -0.028374 -0.27099 0.16343 0.25383 -0.35982 0.74954 -0.23654 -0.21583 -0.10933 -0.42818 -0.6495 -0.28831 0.36811 0.51279 0.90659 -0.62984 0.40928 0.11721 -0.37923 -1.1444 -0.34907 -0.36609 0.10399 0.67904 -0.29902 0.39456 -0.020423 -0.3689 -0.061586 -0.57812 0.76352 -0.7594 0.42857 -0.28683 0.15109 0.17015 0.86537 0.054421 0.50904 0.11988 -0.57956 0.57383 0.44709 0.18829 -0.078129 0.3222 0.083032 0.014629 0.14408 -0.022095 -0.17557 -0.37469 -0.10547 -0.82918 -0.31933 -0.15309 -0.50078 0.575 0.30658 0.84343 -0.54271 -0.16752 0.082963 0.44047 -0.82241 -0.497 -0.45326 -1.0053 -0.02911 -0.43647 0.3369 -0.095545 -0.64013 -0.12865 -0.15954 -0.1164 0.78166 -0.082448 0.9199 0.034924 0.068102 0.43068 -0.10879 0.54354 0.45344 -0.3182 0.28909 0.14178 0.28992 -0.17818 -0.59353 -0.43329 -0.68828 0.26218 0.0028044 0.28367 -0.54932 0.62903 0.14291 0.74749 0.074218 -0.55652 -0.55413 -0.44501 -0.82253 -0.18053 -0.50736 -0.37831 0.058695 -0.35189 0.43434 -0.044978 0.5076 -0.55728 -0.013354 -0.7886 -0.91505 0.28339 0.4759 0.0078295 -0.42795 0.049802 -0.62594 -0.45364 -0.13532 0.027916 0.84668 0.39203 0.4873 -0.47583 -0.80783 -0.44693 0.0080717 -0.032024 0.3104 0.030999 -0.3862 -0.47269 -0.034194 -0.55846 -0.5901 0.15108 -0.12731 -0.50513 -0.40468 0.027212 -0.54442 0.0099296 -0.12524 0.079501 -1.3569 0.024003 -0.015583 0.33705 0.1646 -0.30479 -0.068134 0.24212 0.50025 -0.40607 0.50928 0.10203 0.59624 0.18048 0.036024 -0.38298 0.088504 -0.066093 -0.79997 0.12979 -0.85421 0.35672 0.12017 0.23876 0.070322 -0.36407 0.85224 0.12264 -0.52081 0.30241 0.18419 -0.34172 0.51769 -0.36101 0.45011 -0.11593 -0.041715 0.57127 0.5894 -0.085782 0.44795 0.37405 0.060155 -0.13781 0.13036 -0.1604 -0.91803 0.18431
delay -0.098024 0.025175 -0.26707 -0.061464 -0.077168 0.096274 0.91655 -0.24022 -0.77586 0.19519 0.42821 -0.74192 -0.22736 -0.24946 -0.53626 -0.65975 -0.2382 1.2333 -0.21943 0.1384 -0.24865 0.40085 -0.058013 0.092843 0.2231 0.60659 0.18508 0.40033 0.038965 0.0072338 0.17574 -0.12619 0.94063 -0.2456 0.71018 0.68555 -0.57574 0.16501 0.096961 0.16612 -0.0044615 0.75709 -0.3537 -1.0829 0.27504 -0.81628 -1.0441 -0.44617 0.11662 -0.035672 0.74426 -0.25239 0.6299 0.017937 0.063738 0.58045 -0.15641 -0.23712 0.064866 0.15617 -0.10776 0.088106 -0.01282 0.21851 -0.07974 0.45315 0.23869 0.25099 -0.70803 -0.50103 0.15545 0.23574 0.057583 -0.47373 0.11649 0.15998 -0.068143 0.057338 0.12934 0.19125 0.58337 -0.20077 1.1007 0.78773 -0.19911 -0.086323 -0.18316 -0.11963 0.21606 -0.024509 -0.39841 -0.18314 -0.091462 0.1941 -0.35907 0.15767 0.41409 0.27251 0.002259 -0.32552 -0.46663 -0.2076 0.48406 0.082613 -0.52839 -0.13791 0.21723 0.033819 -0.034578 -0.35559 0.30099 -0.050403 -0.87103 0.18996 0.77717 -0.10409 -0.06406 0.038336 0.22479 0.11698 -0.12151 -0.25174 0.23899 -0.58083 -0.19936 0.67416 -0.3913 0.28165 -0.15726 0.74092 0.35722 -0.87591 0.12938 -0.30572 -0.087422 -0.8481 -0.011643 0.24388 -0.52251 -0.23016 -0.51002 0.24398 -0.060988 0.16589 0.262 -0.050723 0.34982 -0.90183 0.61864 -0.17125 0.16032 0.23005 -2.5943 0.020176 0.15681 -0.44129 0.23823 -0.86065 0.71129 0.21624 -0.32989 0.040923 -0.25796 0.10288 0.30383 -0.010172 -0.27854 -0.37415 -0.29488 0.020999 0.15492 0.30917 -0.16783 -0.5105 -0.32647 -0.12934 -0.50235 0.19514 -0.1356 0.25276 -0.061705 -0.14673 0.31738 0.46 0.36443 -0.1687 0.43022 0.027801 0.2775 0.18911 0.29181 -0.26779 0.014567 0.21052 -0.16594 -0.72965 -0.41341 1.0432 0.054189 0.30992
size 0.087679 -0.38076 0.27144 0.40742 -0.41311 -0.038977 0.15352 -0.022617 0.18357 0.50718 -0.12626 -0.13633 -0.60866 0.75393 -1.0016 0.58221 0.41133 -0.13607 -0.12681 0.072965 -0.85157 -0.048222 -0.062816 -0.66832 -0.16069 0.52358 0.045708 0.60091 0.28298 -0.5303 0.81047 0.28318 0.57089 -0.59085 0.30704 -0.020494 -0.014957 0.10292 -0.34947 0.58629 -0.030846 -0.092911 0.051748 0.20406 0.53631 -0.89183 0.77003 -0.41668 0.42029 0.17624 -0.16279 -0.2018 -0.29931 0.70719 -0.11664 1.0338 0.53894 -0.34709 0.22841 0.46021 -0.39268 0.6119 0.39039 -0.24842 -0.93189 0.50035 0.32756 -0.18788 0.61767 -1.0125 -0.046484 -0.28915 -0.36752 -0.13693 -0.22622 0.37757 -0.48694 0.57575 0.13944 -0.24184 0.81254 0.18549 -0.53601 -0.78721 -0.65317 0.43336 -0.068374 0.2174 -0.10256 0.92875 -0.75571 -0.1397 0.68421 -1.0895 -0.37018 -0.33087 -0.27964 -0.63435 0.32562 -0.18001 0.24519 0.51113 -0.66612 -0.21538 0.297 -0.16996 0.057997 -0.15812 -0.51144 -0.81958 -0.54597 -0.27908 -0.23499 -0.55182 0.23897 -0.50583 0.43945 0.94589 0.093482 -0.26177 0.12667 0.70998 0.14511 0.36665 0.5328 -0.61781 0.67833 0.36907 -0.23967 0.36279 -0.39607 0.028544 0.11 -0.14161 -0.47994 0.36016 -0.43318 0.76914 0.26897 -0.2395 0.97975 0.10329 0.14113 -0.026986 -0.0019343 -0.10628 0.005 -0.46056 -0.53561 0.60796 -0.1192 0.3289 -3.5006 0.65599 0.083546 -0.84351 -0.53142 0.086913 0.52782 -0.18657 0.30414 0.72723 0.52108 0.53755 0.079426 0.99952 -0.42225 -0.54098 -0.012229 0.86327 0.86448 0.18449 0.015815 0.14563 0.046057 1.3302 0.090917 0.2295 -0.4379 -0.32374 -0.48146 -0.087649 0.73521 -0.40801 0.11016 0.14104 -0.51083 0.92108 -0.53769 -0.57384 0.44491 0.13235 -0.60178 -0.15244 -0.2111 -0.54214 -0.17558 -0.17893 0.7419 -0.03814
peace 0.21736 0.023716 -0.57169 0.22498 -0.058908 -0.18905 0.38653 0.15933 -0.024862 0.065116 0.10469 -0.78108 -0.39712 0.40095 0.33069 0.051433 -0.11393 -0.55092 0.2978 0.5321 -0.50663 -0.012595 -0.13771 -0.067438 0.52648 0.97476 -0.40001 0.28382 -0.32137 -0.075915 -0.20696 0.016699 1.0355 0.23116 0.20159 0.55561 -0.17394 -0.16917 0.52854 -0.2043 -0.15523 0.12651 0.6442 0.5242 0.85313 0.078396 0.24785 -0.0647 0.17908 0.26553 0.13296 -0.56516 0.63041 -0.65919 -0.10609 0.0028284 -0.14323 -0.4913 -0.17564 -0.066821 0.53585 0.52571 -0.046332 -0.068459 0.21276 -0.091407 0.40345 0.40189 -0.46884 0.19168 -0.13713 -0.42433 -0.30007 -0.11417 0.35455 -0.10598 -0.023837 0.056979 -0.11414 -0.030232 0.070502 -0.12251 0.91407 0.15003 0.2367 -0.15362 -0.063751 0.65526 -0.12072 -0.34633 0.67653 -0.35367 0.29557 -0.16995 0.34419 -1.1717 0.67695 0.089754 -0.32662 -0.37876 0.24731 -0.16734 0.014736 -0.44264 0.056134 -0.10845 0.48845 0.76684 -0.40534 -0.065874 -0.036272 0.008088 -0.49343 -0.37024 0.024911 -0.57454 0.2324 0.021553 0.028625 0.33558 0.90966 0.62049 -0.1169 0.041888 0.47662 0.44982 -0.11159 -0.5998 -0.33346 0.092252 -0.037333 -0.032913 -0.3015 0.049492 0.11792 -0.54 0.14327 0.72017 0.25338 -0.063339 -0.53511 -0.38926 -0.49415 -0.41686 -0.36367 0.27419 -0.50679 0.7188 -0.46754 0.3244 -0.47883 0.18436 -3.7434 -0.16807 -0.7077 0.15712 0.29079 0.44636 0.63935 -0.15319 -0.12726 0.47542 -0.50341 0.24984 -0.53301 0.34568 0.18857 0.13872 0.29028 -0.35844 -0.41606 -0.068541 0.2993 -0.12839 -0.013266 0.34649 0.41558 0.52775 0.35174 -1.1041 0.076973 -1.389 -0.50292 -0.072525 0.18897 -0.28941 -0.1101 -0.57399 -0.093787 -0.53318 -0.53184 0.021437 0.14198 0.5632 0.23267 0.024975 0.48735 0.024402 0.0072315 -0.61329
science -0.23967 -0.36627 -0.27333 -0.26775 -0.53008 0.24035 0.40224 0.19504 -0.072931 -0.45784 0.32067 -0.50894 -0.58189 -0.21949 0.21884 0.041607 4.0792E-4 -0.0731 0.16691 -0.104 0.5535 0.257 0.0039181 -0.089459 0.060362 1.28 0.05686 -0.21043 -0.69336 0.4909 0.19874 -0.50451 0.12288 0.040925 0.035657 -0.30764 0.46224 0.48466 0.74827 -0.2795 -0.033619 -0.94769 -0.28961 -0.28804 0.48232 0.43578 0.14542 0.56762 0.50445 -0.37509 0.63611 0.1489 -0.07884 0.48171 -0.13646 -1.0037 0.15552 -0.94566 0.081901 0.0031535 0.22358 0.068998 0.28239 0.45562 -0.50946 0.33572 -0.12854 -0.69984 0.0050094 -0.21607 0.087673 0.72319 0.20244 0.23161 0.24984 -0.8138 0.51134 0.1548 0.18037 -0.48989 -0.077375 0.33687 0.85125 -0.04796 0.21102 -0.28987 0.4952 0.0026778 0.32071 0.35391 0.081642 0.63848 0.22856 -0.14146 0.76104 -0.08111 0.28782 -0.010214 -0.1587 0.021777 0.18802 -0.7868 -0.17487 0.73225 -0.18183 -0.36967 -0.45776 -0.28675 -0.40396 -0.13478 0.15324 -0.26807 -0.3317 -0.43354 0.33332 0.22214 -0.10537 -0.042244 -0.19381 0.60926 -0.014009 0.32278 -0.016978 -0.10539 -0.42885 -0.075184 0.35395 -0.1866 0.056683 -0.095363 0.17567 0.57691 0.76813 0.19051 -0.14782 -0.69683 -0.51258 -0.48377 0.35275 -0.77532 0.33802 -0.20964 -0.046482 0.18637 0.0020164 0.080569 -0.84822 0.0046078 -0.7978 -0.19119 0.28506 -0.5853 -3.4161 0.43526 -0.1342 -0.21204 0.4248 -0.25266 -0.12263 0.38161 -0.23113 0.34576 -0.12878 0.2487 -0.18634 0.80784 0.32623 -0.11223 0.37115 -0.17335 0.0011193 0.39201 0.46312 -0.58184 -0.35557 -0.14199 0.12181 0.20386 -0.41216 -0.73603 -0.05095 0.20239 -0.28167 -0.26093 -0.2504 0.22053 -0.69291 0.17361 0.123 0.71948 0.59023 0.21863 0.84318 -0.033826 -0.71841 0.32948 -0.10024 -0.087388 -0.84493 0.14524
dawn 0.14027 -0.1879 -0.45492 -0.076403 -0.24325 -0.43143 0.22798 0.73375 -0.061327 -0.23474 -0.16225 -0.24826 -0.37615 0.42744 -0.359 -0.1358 0.11542 -0.355 0.59291 0.26184 0.0057911 -0.332 -0.37925 0.24917 0.53997 0.46957 -0.42729 -0.13755 0.49918 -0.057923 -0.23981 0.29035 0.31466 0.030862 -0.51769 -0.15894 -0.36568 -0.036982 0.60207 0.24978 -0.04146 -0.051614 0.14873 -0.83473 0.030246 0.12336 -0.45866 -0.33908 -0.28214 -0.11717 -0.20811 -0.17044 -0.19216 0.64525 -0.15672 -0.13334 0.96368 -0.29886 0.037203 -0.16118 -0.26576 0.42654 -0.50474 -0.3194 -0.17783 0.10808 -0.30062 -0.016342 0.033526 -0.3979 0.13331 -0.050805 -0.25452 0.23124 0.77068 0.090536 -0.4204 -0.3347 0.65905 -0.21759 0.66233 -0.19228 -0.21151 0.37927 -0.36172 -0.31938 0.29268 0.059156 0.092714 -0.49145 -0.13004 -0.018409 -0.38452 -0.21109 -0.042461 0.062513 0.44834 0.056387 -0.1055 -0.26116 -0.9047 0.15278 -0.0055293 -0.73342 -0.18951 -0.0061874 0.17409 0.46275 -0.3178 0.21879 -0.12877 0.13059 0.21129 0.17897 -0.45422 0.62201 0.40476 -0.12824 -0.70503 0.25957 0.27911 -0.17113 0.057783 0.064176 0.33504 0.49213 -0.25795 -0.44483 -0.23674 0.17235 0.064844 -0.14461 -0.41924 0.11356 0.3512 -0.087037 0.67531 -0.30075 -0.46121 0.58319 -0.54937 -0.65335 -0.40592 -0.17234 0.011027 0.023394 -0.97779 0.18701 0.23826 0.27632 -0.468 0.19499 -2.8088 -0.67848 0.04507 0.041505 -0.10591 -0.32916 -0.41984 0.37959 0.24998 -0.43451 -0.045361 -0.48315 -0.2364 0.2034 0.34313 0.39265 0.081406 -0.52425 -0.54749 0.39057 0.10622 -0.14759 0.027904 -0.6412 0.086978 -0.079482 0.10484 0.85201 0.30234 0.30947 0.041175 0.71452 0.036591 0.44152 0.16784 -0.43546 0.0065956 0.81898 1.0098 -0.36136 0.60919 0.1738 -0.056632 -0.11116 0.016047 0.058549 0.14889 -0.75328
brother 0.35912 -0.41832 -0.29232 -0.0011824 0.0021499 -0.34566 0.41687 0.1746 -0.10324 -0.86668 -0.1605 0.1747 -0.091865 0.074572 0.16233 0.073836 0.26661 0.26077 0.58015 -0.49718 0.39521 0.47689 -0.24127 -0.083923 -0.17228 0.38154 0.15382 -0.094704 0.018024 -0.21194 0.066231 0.22637 -0.35567 0.33734 -0.84082 0.72718 0.2348 -0.13282 -0.66019 0.16504 0.28014 0.62911 0.63331 0.27117 -0.70054 0.29737 0.53817 -0.099981 0.18887 0.024135 -0.67793 -0.31205 -0.39827 -0.45115 -0.35685 0.13649 -0.079901 0.434 -0.021849 -0.15463 0.51839 0.03735 -0.34648 0.003458 0.40388 -0.10708 -0.33696 0.20157 -0.28182 -0.1195 0.038774 -0.097389 -0.41525 0.19442 0.12328 0.043651 0.35345 -0.23537 -0.49152 0.10657 -0.14556 0.0030529 -0.13824 -0.0088788 -0.58431 -0.32171 -0.32389 -0.033751 0.13122 0.4394 -0.092032 -0.25819 0.10656 0.37874 0.21917 0.15319 0.18928 0.64797 0.056588 0.11447 0.085563 -0.42218 -0.25186 -0.041805 -0.22838 0.22586 0.25649 -0.0028967 -0.59364 -0.12391 0.098749 0.12385 0.21048 0.074543 -0.21493 -0.45343 0.34161 -0.39326 -0.57783 0.47308 0.41814 0.32577 -0.011137 0.044859 -0.037715 0.52992 0.32111 0.13392 -0.26612 0.16538 -0.16422 -0.032498 0.55081 -0.049176 0.19158 0.36086 -0.11047 -0.011423 -0.24618 -0.042315 -0.18129 -0.31669 0.22298 -0.032121 0.15803 -0.03117 -0.23225 -0.020601 -0.15786 -0.2467 -0.35543 -0.1316 -4.4338 0.27328 -0.64729 0.41364 -0.4042 0.20162 0.090278 -0.27506 -0.24765 -0.078508 -0.14251 0.68673 0.34284 -0.18144 -0.12732 -0.11331 -0.021743 -0.4613 -0.4834 0.53897 -0.0013543 0.085774 -0.034216 -0.0026363 0.013694 0.20794 0.33841 0.46975 0.099398 -0.49719 -0.10852 -0.28494 0.37845 -0.081839 0.028326 -0.19422 -0.86102 -0.03105 -0.40874 0.2584 -0.31073 -0.1054 0.19391 -0.2687 -0.0085618 0.25023 -0.11753 0.18922
wine -1.398 0.18131 -0.020763 0.042162 -0.41874 -0.16189 0.2693 0.038367 -0.05112 -0.49829 0.017043 0.091558 -0.87546 0.209 -0.16743 0.20032 0.029504 0.045913 0.15314 -0.34902 -0.090488 -0.25924 -0.68274 -0.86427 0.27283 1.4659 -0.64856 0.059881 0.15205 0.29282 -0.61787 -0.13333 -0.96019 -0.12859 -0.31766 0.10461 0.25 -0.17257 0.44423 -0.24406 0.064918 0.37789 -0.57641 -0.52073 0.4433 0.084616 0.171 0.44315 -0.35452 -0.16122 -0.34575 -0.31454 -0.25203 -0.17606 0.36361 -0.12298 0.29105 0.24399 -0.26124 0.19521 -0.37455 -0.18328 -0.18498 0.29603 0.54067 -1.0265 0.032489 -0.67644 0.80048 0.28049 -0.0039241 -0.51512 0.38326 0.87293 0.070065 -0.29005 0.27043 -0.0065502 0.50069 0.25306 0.45152 -0.37248 0.017264 -0.43902 0.47728 0.45795 0.30606 -0.18311 0.058414 1.0089 -0.032016 -0.25342 -0.51397 -0.33743 -0.19711 -0.32325 0.23652 -0.044889 -0.53403 0.398 0.073467 0.33992 -0.1556 0.35021 -0.43538 0.55212 -0.73821 -0.13612 -0.70588 0.71322 -0.69033 0.12569 0.16976 -0.44803 0.11117 -0.31196 -0.75455 -0.84508 0.2665 0.18281 -0.45616 0.14374 0.42411 -0.17273 0.23827 -0.20753 -0.42537 0.37951 -0.070004 -0.38459 0.29606 0.23933 -0.22185 -0.25263 -0.51324 -0.26891 0.21838 -0.027669 -0.019939 0.10213 -0.51668 -0.10244 0.18835 -0.62696 -0.11882 0.021162 0.47726 -0.25448 -0.51191 0.70118 -0.0071494 -0.45992 -3.2929 0.47062 0.43065 0.62309 -0.03425 0.20727 0.076498 0.1705 0.27604 0.58238 0.11982 -0.29551 0.15749 0.31871 -0.8958 0.6664 1.2888 0.51306 0.56848 0.62368 0.038296 0.025588 -0.35175 -0.48141 -0.69347 -0.10306 0.50149 0.1186 -0.078162 -0.2012 0.52941 -0.016679 -0.17557 -0.37048 0.1733 -0.77598 -0.17257 0.32997 -0.060176 -0.13609 -0.090379 0.25815 0.3808 -0.021906 -0.084928 -0.20345 0.44732 -0.060601
object 0.18227 -0.51838 -0.031419 0.17702 -0.13919 0.64538 0.60715 0.35443 0.38559 -0.49237 0.44421 0.053526 -0.88321 -0.40423 -0.28121 0.13904 0.45525 0.20416 0.11254 0.39881 -0.5136 0.48609 0.56812 -0.20683 0.18804 1.331 0.25676 0.0027319 0.25443 1.2047 -0.5555 0.23953 0.16171 -1.0412 1.0912 0.13447 0.79842 0.84837 0.96187 0.88288 0.31161 0.32622 0.15855 -0.14254 -0.01031 -0.1861 0.21229 0.024742 0.16349 0.40846 0.59926 0.62736 -0.064748 -0.26561 -0.47218 -0.56841 0.054067 0.50858 -0.29487 0.13853 0.26224 0.2305 0.084678 0.15483 -0.05112 0.90324 0.48801 0.18136 -0.25581 0.409 -0.7534 -0.20029 0.010664 -0.57397 0.59366 -0.20955 0.08046 0.45422 0.030075 0.18767 0.40544 0.21281 0.14315 -0.29229 0.08313 -0.37932 0.32216 0.7034 -0.64656 0.012565 -0.048503 0.94838 -0.734 -0.27755 -0.34992 -0.30728 0.21039 -0.78432 0.17557 -0.25475 -0.067326 0.017301 -0.25868 0.18861 0.5459 -0.20218 0.066169 -1.1302 0.13624 0.38641 -0.68184 -0.15323 -0.28336 -0.62671 -0.18846 0.37775 -0.30327 0.39964 0.063993 0.083091 -0.51772 0.60054 -0.39269 0.087915 -0.091706 -0.32981 0.4274 0.17698 0.14204 -0.24663 0.20018 0.35116 0.089292 0.48762 -0.46196 -0.16844 0.077466 0.60899 0.037826 -0.9298 -0.30611 0.40504 -0.66427 0.53369 -0.31091 0.71006 -0.25246 0.037055 -0.23441 -0.27063 0.64954 0.30575 -1.7968 0.44695 -0.31517 -0.0081572 0.87323 -0.52304 -0.14638 -0.25947 0.40574 -0.15662 -0.13631 0.31194 0.30645 -0.20843 -0.49368 0.0060051 0.2287 -0.3541 -0.076585 -0.3543 -0.38868 0.32794 -0.10061 0.4701 0.61285 -0.040764 -0.70334 -0.044683 -0.34804 -0.19237 0.53479 -0.55577 0.020396 0.50518 0.14744 0.2177 0.036084 0.56615 0.5494 0.066857 -0.29272 -0.24838 0.48288 0.23124 0.47551 0.11631 -0.76315 -0.91187
attitude 0.16468 0.032115 -0.59762 0.28312 0.32401 0.75359 0.88837 -0.67906 -0.65812 0.65886 0.38127 -0.012488 -0.50757 0.58538 -0.53325 0.20538 -0.56843 0.49316 -0.022968 -0.22162 0.67149 0.44902 0.27122 0.43903 -0.26564 1.5543 -0.65176 -0.1151 0.25719 -0.12999 -0.027388 -0.56937 0.18047 0.40834 0.25161 0.7037 0.081477 -0.14776 -0.0075255 -0.10822 0.62199 -0.82348 0.062854 -0.0384 0.20199 -0.44233 0.71611 0.66514 0.0040261 -5.809E-4 0.69711 -0.074229 0.14894 -0.34769 -0.26385 -0.15265 0.021786 -0.35553 -0.319 -0.53173 0.16439 -0.16076 -0.099632 -0.35525 0.99166 -0.084446 -0.2789 0.45973 0.16082 -0.22646 -0.23936 -0.29235 -0.77129 0.30924 0.39191 0.32684 0.13221 0.61367 0.082744 0.33835 -0.73611 0.24124 -0.54261 -0.70919 -0.43514 0.94452 -0.15162 -0.23239 -0.41542 -0.14811 -0.28055 -0.31393 0.56095 0.0029546 0.34716 0.37695 0.0069101 -0.93686 0.56715 -0.39825 -0.49252 -0.85092 0.34989 -0.57257 -0.12187 -0.15362 0.15491 -0.32125 0.77097 0.03362 -0.13008 0.4345 -1.0001 -0.20393 -0.82322 0.17394 -0.67858 0.51507 0.16262 0.14721 0.2176 -0.033684 -0.35401 0.078286 -0.3984 0.099847 -0.24985 -0.13058 -0.84969 0.084546 0.0064132 -0.045631 0.20986 -0.3051 0.29371 -0.14021 -0.81464 -0.78788 0.30483 -0.28981 0.1401 0.3572 0.58808 -0.53755 0.97896 0.46363 -0.17649 -0.84678 0.13874 -0.11294 0.65829 -0.46399 -3.2053 -0.056277 -1.2068 -0.27898 -0.090458 -0.53932 0.64948 0.17905 -0.16915 -0.24553 -0.18856 -0.16521 0.24941 -0.67532 -0.45756 -0.48529 0.05618 0.16194 -0.012537 -0.22438 0.41555 0.39526 -0.59487 0.106 -0.38011 -0.55242 -0.18091 -0.38787 -0.28214 0.2175 -0.073397 -0.63514 -0.14492 0.1127 -0.17568 -0.57085 0.26323 -0.20057 -0.9739 -0.6143 0.53023 0.38065 0.076306 0.12167 0.20696 0.85515 0.32785 -0.27866
treatment 0.10868 -0.35111 -0.43046 7.0089E-4 0.57712 -0.35025 0.22436 0.32718 0.047499 -0.8535 0.21885 0.10442 -1.2288 0.15938 0.51445 0.6358 0.17408 -0.053566 -0.18614 -0.38555 0.14222 0.043402 0.0038833 1.1043 0.23873 1.3785 -0.12398 1.0831 -0.61285 0.080217 0.6116 -0.60946 -0.22136 0.08349 0.16099 -0.18011 0.29818 0.20077 0.70183 -0.01371 0.054935 0.063464 0.48922 -0.19344 0.63558 0.79999 -0.31329 0.10058 0.20606 -0.56012 0.37077 0.50438 -0.25956 0.14753 0.4177 1.2703 -0.057855 0.22437 0.078986 0.57335 0.29406 0.6112 -0.37943 0.32211 0.05615 0.67569 0.62107 0.033932 -0.12836 0.14294 0.62681 0.20568 0.48883 -0.24987 1.393 0.055901 -0.20229 0.7155 0.44341 -0.30812 0.55109 0.42655 1.2067 -0.42194 -0.27747 -0.069858 -0.13682 -0.098169 0.24961 1.0376 -0.83091 -0.37452 0.05126 -0.021637 -0.23527 0.42354 0.52603 -0.39898 0.21598 -0.10561 -0.54304 -0.1539 0.17123 0.15271 -0.071049 -0.065447 0.52526 -0.1625 0.057345 -0.50835 -0.03619 -0.028851 -0.20548 -0.23451 -0.076211 0.2971 0.24924 0.23379 -0.65909 0.2056 -0.83151 -0.24033 0.72147 0.20909 0.42806 -0.34119 -0.23644 0.42778 0.013338 -0.41216 -0.1063 0.33792 -0.23487 -0.44722 0.11064 -0.35439 -0.4281 -0.25163 0.045808 0.48049 0.18599 -0.23774 -0.023587 -0.27112 0.37362 -0.41704 0.32124 -0.20326 0.73931 -0.31159 -0.0015133 0.060799 -2.552 -0.013771 -0.6468 0.24925 -0.19604 0.11439 0.48522 0.16865 -0.26165 0.34679 0.039399 0.34174 0.043425 -0.0012085 -0.63221 0.082815 -0.32749 0.16681 -0.059232 0.096252 0.26414 -0.28626 -0.29455 -0.30546 -0.14528 -0.86844 -0.40067 -0.53018 0.94384 0.32084 0.53125 -0.1274 0.18766 0.14962 -0.015103 0.14892 0.42753 0.12263 -0.38988 -0.67487 0.37793 0.054191 0.60643 0.17883 0.047506 0.70476 0.51443 0.32132
flight -0.16572 -0.083951 0.022569 0.039719 0.30814 0.17639 0.28357 0.0055692 -0.0095623 0.14846 0.48067 0.25237 -0.43009 0.16862 0.12911 -0.59924 -0.13999 0.49635 -0.08251 -0.2653 -0.21277 -0.22453 0.30011 -0.28075 0.051312 1.0421 -0.067084 -0.57052 0.087371 -0.43915 -0.0080997 0.0052441 0.26832 -0.65057 -0.063502 0.60998 -0.7629 0.15033 0.92465 0.12769 -0.31095 0.24462 0.92752 -0.98065 0.30698 -0.9461 -0.16245 -0.29793 0.47237 0.32092 -0.27117 -0.48036 0.018385 -0.14158 -0.34337 0.11486 0.21472 0.70729 -0.24157 -0.21553 0.39954 0.46465 0.417 0.2039 -0.30071 0.11968 0.2676 0.013739 0.33544 -0.80908 -0.19069 0.2453 -0.058878 -0.87979 0.9502 -0.17699 -0.22566 0.12184 0.5294 0.17246 0.009897 -0.30838 0.84287 0.13554 -0.067431 -0.2945 0.40472 0.029605 0.29183 0.37226 0.047127 -0.57256 -0.44654 -0.0047733 -0.21558 -0.18263 0.37504 -0.28365 -0.69789 -0.20536 0.1753 -0.38883 -0.57182 0.072662 -0.45191 -0.34966 0.39976 -0.033021 0.11417 0.14257 -0.14591 -0.02086 -0.42309 0.58536 0.22284 -0.86722 -0.27132 -0.37823 0.61125 0.75074 1.0451 0.026343 -0.048416 -0.0033772 -0.12824 0.4062 -0.07904 0.32437 -0.36623 0.55756 0.4678 -0.39125 0.1179 -0.18556 -0.029153 -0.40442 0.02281 0.50772 -0.55707 0.3472 -0.6477 -0.17976 0.26612 0.42428 0.28665 -0.50214 0.13579 -0.38311 0.24349 -0.28351 1.0629 -0.5006 -3.3632 0.1389 -0.2081 -0.52862 0.43106 -0.33354 0.30532 0.27068 -0.2609 -0.001738 -0.14553 0.64803 0.54891 0.38058 -0.70841 -0.36602 -5.9452E-4 -0.037482 -0.83028 0.029498 0.29061 -0.2279 -0.33814 0.11887 -0.45499 -0.19092 -0.052585 0.26685 0.12333 -0.078159 0.010238 0.61399 -0.4918 0.41462 0.70913 0.053526 0.038714 0.15684 0.60437 -0.32227 -0.023727 0.12272 -0.052107 0.21848 -0.66576 -0.28324 0.45505 0.14103
forest -0.4864 0.07589 0.11724 0.017693 -0.2309 0.36932 0.60306 -0.39562 -0.38881 -0.13425 -0.31406 -0.005844 -1.0417 0.23046 0.16947 0.54375 0.42488 -0.3806 -0.041459 -0.037957 -0.07265 -0.22077 0.036124 0.11265 0.083051 0.70999 -0.36776 0.31411 -0.3825 0.57069 0.0010111 -0.05952 -0.22515 0.19994 -0.23353 -0.12222 -0.26566 -0.14327 0.56685 -0.54464 0.56525 0.43063 -0.80816 0.16555 0.20394 0.54993 0.27331 0.20219 0.35407 -0.13755 -0.27442 -0.24279 -0.082278 0.019545 -0.13769 -0.44898 0.37701 -0.070929 0.36456 0.3949 0.065909 1.178 -0.46207 -0.084244 -0.51263 0.32676 -0.052364 0.14609 0.24342 0.33268 0.018788 0.44709 0.26739 -0.079962 -0.15315 -0.31028 0.30765 -0.2953 0.51553 0.33124 1.0679 -0.3327 0.10404 0.54483 -0.21792 0.14936 -0.067201 0.063822 0.023858 -0.1515 0.81551 0.39327 -0.46675 -0.32098 -0.74283 0.11773 0.37073 -0.21008 -0.56389 0.46341 -0.039109 0.41121 0.25117 -0.36047 -0.24303 -0.61856 -0.89617 -0.32626 -0.17959 -0.08089 -0.10948 -0.70164 -0.46087 -0.30679 0.57878 -0.077665 -0.025461 -0.18813 -0.57259 0.24897 0.24844 0.02643 -0.35825 0.12252 -0.49021 -0.48337 -0.31986 0.51219 0.64997 0.48045 0.44857 -0.0944 -0.13278 0.11468 0.34471 -0.24462 -0.043613 -0.13377 -0.4293 0.055751 -0.16255 -0.68326 -0.38987 -0.2343 -0.30973 -0.259 -0.39633 0.13398 0.48879 1.0009 -0.21071 0.38994 -2.46 -0.49071 -0.015591 0.42947 0.082665 0.35333 0.38374 -0.30604 0.31885 -0.21941 0.0093833 0.10228 0.12739 -0.70867 0.052123 0.49398 -0.39397 -0.20398 -0.88031 -0.53444 -0.87195 -0.34092 0.53748 0.022373 -0.25372 -0.45458 0.020202 0.21022 -0.077534 0.77338 0.38064 -9.1356E-4 0.29423 0.73465 -0.14709 0.20763 -0.11945 0.088614 0.5222 -0.29346 0.75579 0.15463 -0.087292 0.59447 0.36423 -1.1011 -1.0061 0.42403
abuse -0.32654 -0.31345 -0.13098 0.80362 0.004817 -0.39687 0.53226 0.090734 0.78813 0.089263 0.45977 -0.1625 -0.48691 0.18736 0.19511 0.19984 0.68281 0.15564 -0.010733 -0.60693 0.71971 -0.083989 0.17562 0.088584 -0.17953 0.31975 -0.47376 0.5026 -0.50939 0.48661 0.64633 0.085817 -0.70134 0.1816 0.28988 0.39107 0.071182 0.15241 0.2864 -0.31192 0.95971 0.16641 0.89957 -0.42079 -0.28561 0.44741 -0.52249 -0.47464 0.33249 -0.036855 0.70265 0.66666 -0.23049 -0.89419 -0.31282 0.42546 -0.90693 0.34204 -0.4243 0.71157 -0.28589 0.23444 -1.0529 0.80545 0.28605 0.52825 0.65206 0.34145 0.21626 0.74799 -0.12817 0.1576 -0.42047 0.39189 -0.012366 0.25163 -0.53616 0.19772 0.073537 -0.0010118 -0.20887 0.12571 0.83811 0.098563 0.49935 0.45106 -0.15382 0.068506 0.30165 0.16011 0.0070656 -0.23506 -0.32481 0.39086 -0.15159 0.11281 -0.034635 -0.032843 0.39785 -0.22259 0.5918 0.11101 -0.17685 0.19155 0.50469 -0.14887 0.24931 0.4873 0.11334 -0.81493 0.38952 0.26417 -0.17588 -1.174 -0.19608 1.0712 0.29966 -0.17826 -0.18356 0.36379 -0.23601 -0.45919 -0.047981 -0.38644 -0.05013 0.46047 0.27278 0.31296 0.94887 0.19067 -0.61206 0.24409 0.18584 -0.1455 0.088832 -0.95288 0.42389 -0.64994 -0.03008 -0.026174 0.096123 -0.17138 -0.8537 0.45154 -0.28184 -0.15082 -0.4383 -0.66402 -0.18531 0.34699 0.18533 0.25236 -3.1014 0.0074762 -0.63076 -0.52561 0.11243 -0.3267 -0.1121 0.71556 -0.24748 0.46466 0.04404 -0.5489 -1.1821 -0.41753 -0.20064 -0.89519 -0.3448 -0.37416 0.43831 0.22077 -0.14603 -0.37972 -0.18844 -0.34937 0.01519 0.059457 -0.071695 -0.33905 0.17476 0.056622 -0.095155 -0.032567 0.069254 -0.35079 -0.64489 0.28903 0.47249 -1.6618E-4 -0.21855 0.76794 -0.22189 -0.020019 0.089449 0.11538 0.71568 0.47666 -0.086828 -0.3585
criterion 0.083621 0.033151 0.1181 -0.019937 0.13241 0.38571 -0.14927 0.68712 -0.62818 -0.17823 -0.48677 0.34401 -0.60386 -0.42354 0.089865 0.37179 -0.26055 0.44427 -0.085538 0.33792 -0.10523 -0.15669 -0.020026 -0.32005 0.37195 0.65509 0.98901 0.59512 -0.23107 0.023202 0.52655 0.35411 -0.046621 -0.097531 -0.036372 0.29571 0.0073457 -0.33179 0.1022 -0.20733 0.46391 -0.23537 0.16713 -0.35913 0.064974 0.37474 -0.4232 -0.26428 0.077882 -0.36024 -0.097382 -0.55243 -0.013213 0.08073 -0.47801 0.040413 -0.080401 0.39219 -0.10647 0.1659 -0.38974 -0.46378 -0.39299 -0.34718 -0.24346 1.0591 0.10782 -0.01619 0.20753 -0.4142 -0.059582 0.39503 -0.4112 -0.12401 0.57533 0.24085 -0.0063394 0.13106 0.32799 -0.5593 0.5551 -0.35655 0.23633 0.15548 -0.038623 -0.28129 0.6781 -0.12138 -0.25811 -0.62378 -0.51396 0.50472 0.40465 0.26897 -0.15983 0.050964 -0.16458 -0.52902 -0.25556 0.043852 0.64652 0.52796 0.25372 -0.23395 0.12517 -0.93032 0.27023 -0.021752 0.096651 -0.038998 -0.23134 -0.36101 -0.053879 -0.36949 0.072489 -0.075476 -0.23107 0.007185 -0.57628 0.55879 0.52918 0.14004 0.53103 -0.56394 0.23862 -0.16584 0.077236 -0.17755 -0.1719 -0.46428 -0.74137 -0.10468 -0.39484 -0.0053655 0.32031 0.38928 0.11804 0.55302 -0.34289 0.10585 -0.025056 -0.0019489 0.12374 0.4268 -0.15201 0.12143 -0.14111 -0.17156 0.13268 1.1006 0.74545 0.65198 -0.066291 0.014942 0.073182 0.39273 -0.12794 -0.55561 -0.53944 0.54672 -0.39862 -0.19496 -0.4347 -0.134 0.12208 0.60439 0.44563 0.40491 0.14967 0.22064 1.0974 -0.16497 -0.069073 0.11377 -0.010355 -0.091468 -0.079265 -0.71127 0.21351 -0.2346 0.34634 -0.33376 0.59179 -0.55954 0.14587 0.635 0.26295 -0.20541 0.31581 0.34414 0.28631 -0.19285 0.2319 -0.2705 0.60594 0.4155 -0.12986 0.48808 -0.26968 -0.44339
sea -0.86539 -0.53764 0.28279 0.32901 0.034057 0.37426 0.29664 0.29809 0.044697 -0.052505 0.20543 -0.22442 0.24688 0.68539 0.16507 0.032682 0.54048 -0.15842 0.36677 -0.31939 0.10204 0.37451 -0.027086 0.51571 0.2326 -2.7125 -0.25531 -0.31357 0.19829 -0.38479 -0.49889 -0.13029 0.52378 -0.040235 -0.16934 -0.21131 0.36256 0.74218 0.11197 0.29314 -0.13679 -0.20596 0.081264 0.071927 0.99819 0.033878 0.42468 -0.30852 0.077866 0.55984 -0.11261 0.36347 0.023522 -0.19525 -0.062949 -0.053507 0.18631 -0.051997 0.28218 0.14907 -0.052925 0.52131 -0.060875 -0.47348 1.5904 0.61326 -0.64975 -0.20631 8.2908E-4 -0.27784 -0.52102 -0.14489 0.3114 -0.45597 0.47596 -0.2398 0.19904 -0.066621 0.28216 -0.69441 0.9503 0.41422 0.52917 0.17699 0.028874 0.25795 -0.094626 -0.042591 -0.023527 0.4253 -0.12057 0.17557 -0.25802 -0.41713 -0.48434 0.15262 -0.13973 -0.35333 -0.72249 0.39913 -0.11654 0.53746 -0.43097 0.25533 0.23792 -0.025936 -0.98281 0.43913 -0.19095 0.049226 -0.30937 -0.2306 -0.74155 0.1856 0.51538 -0.61897 -0.1977 0.082968 0.12149 0.36874 0.1475 -0.55426 -0.76508 -0.51444 -0.22739 -0.23306 0.094451 0.11646 0.74795 0.20734 0.24952 0.41037 -0.47074 -0.2288 0.20411 0.32212 0.11047 0.39124 -0.1163 0.43282 -0.27913 0.55069 -0.59666 -0.56938 -0.17584 -0.19394 0.0057181 -0.1824 -0.44843 -0.023438 -0.46289 0.3724 -3.3876 -0.51045 0.22988 0.21103 0.66476 0.3882 0.38801 0.065245 -0.14636 -0.13746 0.13725 0.22223 -0.019425 -0.29565 -0.22049 -0.23679 0.5464 -0.154 -0.86829 -0.028507 0.017181 -0.065685 0.07602 -0.16489 -0.38098 0.20855 -0.20906 -0.1157 0.85302 0.57546 0.13707 0.17216 -0.22499 0.46276 -0.34448 0.37519 -0.69251 -0.17078 0.28566 0.058057 -0.10053 0.059619 1.1003 -0.29341 0.25776 -0.19509 -0.10736 -0.24708
dollar -0.47389 -0.20405 0.17144 0.29239 -0.29464 -0.42447 0.46495 -0.36404 -0.22609 -0.054887 0.2104 0.020647 -0.55618 0.068505 0.65799 0.42142 -0.40172 0.45953 0.22669 -0.059362 0.46102 0.43477 0.050385 -0.22911 0.096882 1.2601 -0.3272 -0.25982 0.084742 -0.66869 0.16272 0.76562 0.084747 0.0066007 0.95247 0.22322 -0.099908 0.61206 0.50027 -0.5239 -0.80047 0.2388 0.054125 0.026898 0.66519 -0.17495 0.21632 0.1044 0.34696 0.6512 -0.52867 0.57561 -0.59288 0.5262 -0.28611 0.21399 0.82225 -0.28518 -0.4854 -0.38334 -0.33713 -0.45877 0.70519 0.084191 -0.16524 -0.73662 0.90089 0.16545 -0.26943 -0.090523 -0.48231 -0.082414 -0.050074 0.15363 -0.82824 0.20996 0.12802 0.24446 0.35623 0.32302 0.32064 0.14441 -0.15211 0.23175 -0.10557 0.0028606 0.17686 0.12162 -0.63543 0.13068 0.15876 -0.10003 0.45711 -0.10551 -0.1615 0.33678 -0.53158 -0.22816 -0.30765 0.17528 -0.35759 -0.27351 -0.025507 0.44882 0.43512 -0.27534 -0.30654 0.20282 0.67469 -0.24453 -0.15715 0.65174 -0.2812 0.21529 0.26452 -0.49011 0.11341 -0.27787 0.11627 -0.13855 -0.27453 -0.31377 -0.069522 -0.17513 0.39615 -0.14315 -0.090351 -0.37936 0.11924 -0.79954 -0.41101 -0.38463 -0.46224 -0.62384 0.51275 -0.19134 0.10872 -0.14715 0.57635 -0.057586 0.14409 -0.62821 -0.82866 -0.40016 -0.72661 -1.404 0.67427 0.11289 -0.12397 -0.16272 0.058725 0.030693 -3.0183 -0.12473 0.63342 0.032151 -0.22133 0.58918 -0.026458 0.23362 -0.33329 -0.62559 0.63753 -0.20396 -0.14596 -0.1168 -0.012416 -0.66743 0.17703 -0.043907 0.20646 0.15696 -0.5416 1.4146 -0.6852 0.34983 0.36973 0.41176 0.38953 -0.017237 -0.46204 0.20525 -0.076078 -0.28714 0.2822 0.28106 0.3101 0.43173 -0.095513 -0.10986 0.31843 -0.40136 0.5184 -0.57372 0.64845 -0.29678 -0.098989 0.89523 0.62125 -0.18653
example 0.37327 -0.39936 0.11123 0.16115 -0.10063 -0.15937 0.61896 -0.23523 -0.099773 -0.030996 -0.44946 -0.43108 -0.72571 -0.16517 0.076651 0.31706 0.11563 0.57442 0.74556 0.19907 0.13727 0.46 0.30369 0.74521 0.016277 1.2679 0.075341 0.28161 -0.11222 -0.060333 0.1441 -0.075752 -0.73582 -0.18298 0.38341 -0.11355 0.014663 0.014702 0.15406 -0.28262 1.0584 0.079409 -0.11319 -0.036932 -0.11556 -0.088732 0.2102 0.050971 -0.34679 -0.17002 -0.15727 0.19132 -0.07389 -0.18337 -0.13376 -0.43872 -0.081317 0.039565 0.23742 -0.19303 0.051055 -9.7069E-4 0.027874 -0.27491 0.23097 0.64014 0.40405 -0.051036 -0.21856 0.15074 -0.033479 -0.13521 0.044834 0.089373 0.51375 -0.41647 -0.15844 0.18727 0.14504 0.20544 0.076223 -0.014563 0.30439 -0.75325 0.11331 0.32196 0.14005 0.10493 -0.12417 -0.1987 0.27018 -0.15169 -0.29285 -0.23619 0.55055 0.50416 -0.5196 -0.10372 0.42484 0.019865 0.080857 0.089249 -0.080884 -0.29234 0.1073 -0.2708 0.27619 -0.33249 0.087799 0.08267 -0.0065244 0.58612 -0.15703 -0.092524 -0.23713 -0.15443 0.20396 0.29391 0.54813 0.74769 0.12639 0.030509 -0.13919 -0.7129 -0.03779 -0.4307 0.63284 0.025124 -0.21559 -0.26162 0.37912 0.30753 0.62802 0.17086 0.015975 -0.13809 0.641 -0.21166 -0.050418 0.084042 0.25613 -0.31604 -0.033623 -0.041007 -0.2885 0.10671 -0.25901 -0.27092 0.0016727 -0.020062 0.35033 -0.017455 -2.9385 0.27268 -0.12775 0.11589 0.68468 -0.47063 0.31145 -0.2392 0.071967 0.0099482 -0.63527 0.040571 0.2227 -0.14636 -0.18551 -0.22322 0.34646 0.62645 0.3329 -0.18461 -0.13699 -0.27188 -0.55735 0.17222 0.26241 -0.52252 -0.056595 -0.52806 -0.01193 -0.14876 0.32346 -0.19586 -0.059758 0.14708 -0.58481 -0.3856 0.038073 -0.35473 0.38709 0.16855 0.5582 0.10588 -0.42196 -0.13292 0.17531 0.44255 0.19058 -0.72348
journal -0.41687 0.30782 -0.96695 -0.12387 -0.17362 0.089809 -0.25579 0.24754 -0.10279 -0.48039 -0.16736 -0.092765 -0.57113 0.067332 0.5008 -0.52754 -0.12141 0.059721 0.54078 -0.35834 0.5758 -0.71101 0.22742 -0.10767 -0.63328 0.58322 0.49057 -0.26305 -0.20924 -0.031174 -0.026125 -0.75512 -0.26956 -0.42156 0.88137 -0.47004 0.21737 0.22359 1.1338 -0.47651 0.34127 -0.49772 -0.13612 0.29785 -0.02716 0.27343 0.077603 -0.13945 -0.22986 -0.33488 -0.064681 -0.14957 -0.30238 0.70835 0.17284 -0.13366 0.098711 -0.35782 0.36032 -0.32648 0.074842 -0.017521 -0.27281 0.67965 -0.29163 0.27059 0.59037 -0.39393 0.56012 -0.14549 0.2831 0.02219 0.3875 0.11647 -0.60318 -0.16973 -0.24791 -0.47371 0.39727 0.0027713 -0.021279 0.0951 0.59273 -0.15947 -0.36202 -0.11085 0.055006 0.27368 0.24473 -0.12932 -0.36236 0.27226 0.53654 0.13982 0.5 -0.18758 0.28433 -0.25385 -0.98639 0.088869 0.41448 -0.3507 -0.30411 0.058116 0.32092 0.24253 -1.0416 -0.16813 0.001029 -0.1424 0.45617 -0.47424 -0.46379 -0.4816 0.79492 0.24133 0.30761 -0.69417 -0.32671 1.0999 0.029066 0.32246 0.079454 0.11702 -0.60884 -0.24919 -0.099041 -0.093868 0.059308 0.46425 -0.34202 0.38005 -0.14658 0.30959 -0.41074 -0.72335 -0.69375 -0.023582 0.051059 0.06549 0.36128 -0.21056 -0.099506 -0.16442 -0.098677 -0.40965 -0.52904 -0.65434 0.33087 0.70517 0.48133 -0.73277 -2.4173 0.34802 0.10908 -0.24702 -0.29345 -0.047699 0.56755 -0.20549 0.43181 0.37537 0.63959 0.32025 -0.26909 0.15466 0.095169 0.066745 -0.022189 -0.63819 0.62811 0.56292 0.47847 0.22237 -0.24458 -0.069745 0.046479 -0.13505 0.029027 -0.3686 -0.86635 0.26223 -0.35973 0.64281 -0.24409 -0.31591 -0.16313 -0.3285 0.66435 0.1996 0.16755 -0.17198 0.7229 0.75251 -0.18621 0.10928 -0.31031 0.29066 -0.46815 -0.81224
laundering -0.3562 -0.091607 0.15211 0.67789 0.26367 -0.24911 -0.57843 -0.97093 0.11302 -1.0964 0.13379 0.70649 -1.0203 -0.56883 0.64569 -0.2106 -0.66249 0.48447 0.1164 -0.36333 -0.10724 0.10701 0.12554 0.47915 -0.20943 0.97431 0.33696 0.23745 -0.7847 0.10058 0.2496 0.12093 -0.24796 0.12617 0.26767 -0.071493 -0.069599 0.25354 0.20995 -0.18044 0.38932 -0.028104 0.35221 -0.09452 0.60539 -0.53683 -0.40398 -0.035312 -0.39913 0.089775 0.23488 -0.095105 0.44683 -0.524 -0.41544 0.45576 0.29117 0.22134 -0.84621 0.13219 -0.53059 -0.065886 0.063992 0.10709 0.19848 -0.46402 0.59981 -0.14953 -0.55083 0.4275 -0.47303 0.068049 0.34775 0.19886 0.34504 -0.050864 0.29968 0.073485 0.050496 -0.12328 -0.659 0.099149 0.17337 0.63612 0.35553 -0.29662 0.21661 0.48465 0.12056 0.5822 0.2638 0.31127 0.079567 -0.074116 -0.20439 0.1403 -0.48182 -0.29508 -0.51637 0.01859 0.53234 -0.16975 0.13664 0.91985 0.77561 0.5242 -0.030653 0.73433 -0.45537 -0.81982 0.17656 0.40685 0.69766 -0.13974 -0.31197 -0.13922 -0.0028269 -0.11337 -0.55649 1.1434 -0.14571 -1.0275 1.0696 -0.26675 0.33237 -0.22288 -0.038317 0.46737 0.33257 0.082178 0.24721 -0.10448 0.24774 0.26268 -0.4968 -0.35612 -0.061735 0.12414 0.99864 -0.36484 0.51261 0.013105 -0.79618 -0.22887 -0.35499 -0.18716 0.2422 0.30706 0.4039 0.10133 0.24065 -0.47543 -0.19731 -0.72771 -0.27341 0.1018 -0.33285 0.040522 -0.30992 0.18505 -1.1909 0.77791 -0.035068 -0.69758 -0.096458 -0.17398 -0.13467 -1.5013 0.35517 -0.071605 0.55106 0.65301 -0.29006 0.14687 -0.56625 -0.3372 0.35646 0.31346 -0.26494 0.52 -0.12539 -0.38342 0.87759 -0.50067 -0.19572 -0.0060096 0.81494 -0.12498 -0.1268 0.61589 -0.0929 0.096862 0.1926 0.014712 -0.050951 -0.57662 0.57552 0.68329 0.14089 -0.37471
hotel -0.40263 0.081007 0.29906 0.040387 0.1914 -0.41136 -0.62143 -0.38915 -0.061212 -0.31261 -0.40436 0.53042 -0.32335 -0.36328 0.75666 0.32262 -0.20803 -1.0299 -0.38082 -0.038912 -0.30453 -0.85349 -0.62759 -0.52328 0.33246 -0.95788 0.12899 -0.11604 0.25907 -0.3697 0.26992 -0.49256 -0.037217 -0.47992 -0.072782 -0.54318 0.32723 0.019359 0.13834 -0.3299 -0.61272 0.23514 0.46679 -0.27567 0.31192 0.34429 -0.36424 -0.13897 -0.23212 -0.068923 -0.34719 -0.70573 -0.42021 -0.072503 -0.30984 0.025796 -0.20627 0.023271 -0.9526 0.17905 0.056887 0.14213 0.5937 -1.0995 0.31627 0.13229 0.0071064 0.15013 0.56837 0.34009 -0.4431 -0.32805 0.99867 -0.22305 0.14684 -0.54157 -9.4612E-4 0.19556 0.37615 0.61244 0.62436 -0.66577 -0.029447 0.22034 0.46763 -0.24568 0.28442 -0.26082 0.39765 0.46467 0.42077 -0.46 0.17822 -0.13694 -0.53373 0.019726 -0.18454 -0.62788 -0.38114 0.63349 -0.090627 -0.017609 -0.20534 -0.75631 -0.10118 -1.1737 0.2541 -0.048975 0.043066 -0.047428 -0.22009 -0.3886 0.4807 -0.30087 -0.18447 -0.60254 -0.4054 -0.9279 -0.022251 0.52738 0.46939 -0.14485 0.36915 -0.45965 0.28931 0.14874 -0.27715 0.29771 -0.60236 0.51269 -0.17318 -0.49576 -0.43324 -0.76091 -0.012484 -0.23092 -0.098908 -0.099682 -0.17007 1.2477 0.371 -0.54744 0.22404 -0.5534 -0.0085072 -0.26145 0.015992 -0.062278 0.49098 -0.042809 0.32843 -0.099338 -3.6565 -0.36888 0.58773 0.251 0.33986 -0.31921 0.18611 0.11612 0.19443 0.21619 0.42933 0.10186 0.27004 0.28017 -0.48059 0.19818 0.021826 -0.28869 -0.97587 -0.57803 -0.45016 0.42331 0.5542 0.20363 -0.40026 -0.21871 -0.13932 0.6166 -0.0081452 -0.033331 -0.029039 0.57319 -0.38766 -0.028516 0.049993 -0.1626 0.18907 0.12189 0.6093 -1.0337 0.15112 -0.72591 0.14498 0.32109 -0.57618 -0.12906 -0.55451 0.061138
term 0.39024 -0.10077 0.10718 -0.43399 -0.33451 -0.21072 0.96594 0.26844 -0.12175 -0.19279 -0.8954 -0.17921 -0.72758 -0.19161 0.84401 0.51371 -0.055337 0.56017 -0.63922 -0.020807 0.019084 1.0796 -0.413 0.27015 -0.14317 0.91395 0.041747 0.01095 -0.54425 -0.41981 0.76313 -0.077682 -0.037728 0.33756 0.03023 0.17467 -0.53709 0.11488 0.51159 0.36904 0.43272 0.14325 0.57695 -0.29045 0.60159 -0.73324 -0.24651 0.053228 0.090216 0.26962 0.052155 0.78695 -0.2394 -0.29711 -0.50238 0.46458 -0.22409 0.050194 -0.7494 0.37131 -0.11203 0.16429 -0.16526 0.3988 -0.04428 0.22873 0.11156 0.096296 -0.20837 -0.49549 -0.48989 0.029843 0.20722 -0.11448 0.030708 0.071701 0.2264 0.081509 0.53749 -0.3439 -0.1655 0.09477 0.50558 -0.015979 0.047077 -0.29814 0.45023 0.46305 -0.13669 -0.077141 -0.24538 0.30539 -0.44046 -0.19773 0.60972 -0.016248 -0.10843 0.29243 0.33959 -0.22703 0.10827 -0.054601 0.41702 0.37101 0.28063 -0.10382 -0.45867 -0.14362 -0.081076 0.66712 0.16203 -0.017576 -0.60013 -1.1152 0.20347 -0.20576 -0.37655 0.27506 0.12744 0.21216 0.37579 -0.067326 -0.16239 -0.51993 0.14384 -0.080371 0.14019 -0.25452 -0.33684 -1.0845 0.10114 0.21995 0.34541 0.14434 -0.83371 -0.54293 -0.11239 0.19042 0.29758 -0.23523 0.74413 0.10966 -0.12474 -0.22157 -0.16131 0.099612 -0.327 -0.42369 0.064117 0.40899 0.29394 -0.2018 -3.0621 0.33214 0.40477 -0.41085 0.71749 -0.12503 0.47879 -0.28904 0.2887 0.31404 0.26109 -0.11392 -0.16053 -0.26334 0.5447 0.39413 0.054203 -0.034337 0.28344 -0.11425 0.38972 0.13774 -0.11126 -0.55595 0.45002 -0.48061 0.144 -0.20094 0.063393 0.35003 0.15506 -0.60034 -0.037301 0.7407 0.019542 -0.15199 0.33171 0.33465 -0.24777 -0.17365 0.35257 0.34028 0.23016 0.20039 -0.31632 0.35164 0.071454 -0.018774
listing -0.23684 0.1258 -0.87864 0.27388 -0.087656 0.1045 0.78197 -0.34169 -0.17252 -0.26413 -0.59935 0.28887 -0.54015 -0.053569 0.033914 0.12751 0.074173 -0.33744 -0.1636 -0.032806 -0.23734 -0.29218 -0.12518 -0.25992 -0.80815 1.1166 0.21055 0.36128 0.14969 -0.28923 0.0073067 -0.028882 -0.6288 -0.22001 0.21048 -0.26573 0.91757 0.39111 0.54067 -0.25287 0.30788 0.95052 0.58132 0.29271 -0.30547 0.21138 -0.53389 -0.28146 -0.28458 -0.26572 -0.56974 0.72062 -0.18486 0.027471 -0.25628 0.23057 -0.25032 -0.1986 0.40365 0.2466 -0.22786 -0.25439 1.0819 -0.72216 -0.079428 0.54643 0.61914 0.19369 0.64798 0.16063 0.19471 1.004E-4 0.45498 -0.4583 -0.12573 0.46437 0.5727 -0.12168 0.22333 -0.053799 0.59639 0.68512 -0.39879 0.43849 -0.005391 0.068614 1.1346 0.1261 0.56913 0.17534 0.028951 -0.15396 0.16553 -0.50916 -0.21169 0.29031 0.097537 -0.21989 -0.26978 0.32488 -0.04671 -0.26679 -0.13803 -0.103 0.29476 0.43801 -0.27386 -0.42692 0.15925 0.091173 -0.15584 0.1912 -0.6332 -0.089412 0.48123 -0.56797 -0.056998 -0.21609 0.0019495 0.61801 0.0048745 0.2034 0.45678 -0.13187 0.47806 -0.43242 0.33172 0.0049053 0.27236 0.15757 -0.044761 -0.29548 -0.37018 0.35911 -0.10487 -0.48639 -0.29236 0.28395 -0.38554 -0.077645 0.72128 -0.059665 -0.07376 -0.080479 0.36255 -1.1515 -0.10619 0.21466 0.66702 0.83101 0.37568 -0.29606 -1.7939 -0.035802 0.67168 -0.18608 0.088936 -0.62214 0.093213 0.056594 -0.033782 0.50243 0.39234 0.80044 0.55387 -0.3768 -0.060509 0.11969 0.67108 0.40944 0.062158 -0.32495 -0.030108 0.2634 0.073332 0.45495 0.10401 0.05742 0.50807 -0.10595 0.31007 -0.25584 -0.1038 0.59015 0.1186 0.47447 1.1772 0.22421 0.083741 0.10216 0.58915 -0.1711 0.27395 -0.20041 -0.18042 0.40937 -0.087787 0.12811 0.23645 -0.33125
chemistry -0.030981 -0.2441 0.20903 -0.34369 -0.56963 -0.20832 0.2776 0.13957 -0.21651 -1.0443 -0.010771 -1.1346 -0.062562 -0.0063585 -0.48894 0.22329 -0.51529 -0.45259 0.14959 0.27208 0.78086 1.2067 0.18201 -0.53353 0.40276 1.0794 -0.18842 0.30357 0.49627 0.37815 0.23715 -0.28329 0.030816 0.64529 -0.51559 -0.40069 0.46764 -0.21872 0.54877 0.20877 0.087036 -0.90521 -0.28484 -1.0072 0.94027 0.79224 -0.26117 -0.52778 0.24509 -0.36161 -0.52702 0.83031 0.46457 0.063085 0.39106 -0.66489 0.62121 -1.0864 -0.26493 -0.19082 -0.34014 -0.027932 -0.13085 0.39741 -0.75271 -0.37906 -0.52218 -0.28989 0.072119 -0.29235 -0.51011 0.37051 0.45208 0.061626 0.45355 -0.29716 0.29754 0.10242 -0.49977 -0.37407 0.57311 0.30675 0.45902 -0.068791 0.553 -0.30475 0.94989 -0.20954 0.13753 0.97571 -0.49772 0.54884 0.41133 -0.1732 0.92938 0.0042783 -0.32614 0.588 -0.45582 0.070222 -0.41204 -1.3898 -0.1937 0.13649 -0.13363 -0.32502 -0.17747 -0.443 0.058883 -0.74896 -0.09236 -0.2855 -0.012664 -0.39852 -0.7725 0.50704 -7.8433E-4 0.55458 0.48667 0.077307 0.12969 0.23761 0.051322 -0.55451 -0.3756 0.96758 -0.2534 0.015861 -0.43539 -0.56427 -0.54997 0.25211 0.85154 0.69074 0.40321 -0.61019 0.56598 -0.69142 0.093764 -1.0036 0.26003 0.0025483 0.012058 -0.31331 -0.15867 0.3485 -1.0974 0.47273 -0.51871 -0.38373 0.53264 -1.0828 -2.808 0.10826 0.52535 -0.2405 0.30848 0.012067 0.036024 0.1463 0.31398 -0.085114 -0.07444 -0.40175 -0.14405 0.48483 0.83742 -0.24809 0.35698 0.27381 -0.16097 0.032731 0.59767 -0.40858 0.57944 -0.29765 0.14994 -0.54134 -0.11133 0.15839 0.56294 0.43296 0.29435 -0.16142 -0.62595 0.1974 -0.77777 0.13316 0.21097 -0.083577 -0.82822 0.60539 0.80359 -0.10032 -0.94663 0.10222 -0.046458 0.41102 0.088396 0.39514
seafood -0.78089 0.075223 0.050922 -7.0728E-4 0.31629 0.069858 0.48923 0.053599 -0.37171 -0.796 -0.65067 -0.16234 -0.67136 -0.070213 0.032488 0.36935 -0.14856 -0.60964 0.087155 -0.73953 -0.0443 0.044485 -0.72384 0.50606 0.29584 0.71739 0.26032 -0.55437 0.40636 0.19374 -0.014987 -0.42154 -0.3544 -0.26035 -0.40656 -0.7154 0.72504 0.4188 0.67267 0.053357 -0.17996 0.21471 0.15355 0.26347 0.57242 0.39256 -0.24909 0.28792 0.19627 -0.2117 -0.050777 -0.27913 -0.14745 0.71682 0.014083 0.21454 -0.17637 0.49558 0.08301 -0.45786 -0.83022 0.25721 -0.067611 -0.10813 0.17343 0.085117 -0.31527 -0.34917 0.15762 0.22078 -0.50204 0.058138 0.84992 0.2727 0.78703 -0.59384 -0.50028 0.43616 0.83031 -0.3129 0.41412 -0.086162 -0.31311 -0.11384 -0.10339 0.038557 -0.19823 -0.31006 0.071457 0.79799 0.36337 -0.16931 -0.28854 -0.62799 -0.37566 0.86963 -0.42163 -0.35395 -0.51758 0.68601 -0.098239 0.57502 -0.030496 -0.35172 0.45741 -0.50485 0.04281 0.13643 0.28612 0.39192 0.067722 -0.27253 -0.063921 -0.41719 -0.1098 0.090991 -0.44565 -0.82693 0.432 -0.49913 0.36974 0.61724 0.45137 -0.36306 -0.088921 -0.86573 -0.037208 0.17819 -0.66382 0.42301 0.34847 0.12717 -0.18444 -0.1103 -0.60815 0.077113 0.75543 0.18778 -0.20806 -0.020521 -0.72511 1.0833 0.79986 -0.73312 -0.16789 -0.15811 0.4558 -0.14418 -0.063932 0.10791 -0.055737 0.27784 -1.5885 0.048283 0.35896 -0.058129 -0.55874 0.22913 0.64168 0.9626 -0.92865 0.4382 -0.23399 0.23906 0.0011351 0.54311 -0.61881 -0.24944 0.34326 -0.37188 -0.38937 -0.043116 0.0080955 0.61076 -0.23804 -0.79233 -0.69172 -0.1753 0.036546 -0.80944 -1.085 -0.39892 -0.43783 -0.17511 0.46004 -0.34923 0.90006 0.054927 -0.28014 0.70673 -0.82641 -0.75265 0.40647 -0.36745 0.21927 0.22654 0.12386 0.81619 0.27712 0.52418
mind 0.052428 0.76334 -0.48959 -0.046456 -0.19278 0.24375 1.0298 -0.58193 -0.92298 0.076632 0.20915 0.13565 -0.66686 0.28203 -0.54539 -0.18525 0.12863 -0.22329 0.53787 0.28322 -0.25084 -0.16537 0.25465 -0.056277 -0.33422 1.7805 -0.14692 -0.11534 0.21674 0.24093 -0.021709 -0.35337 -0.0019745 0.47948 -0.2399 0.1763 -0.48334 -0.35265 -0.026172 -0.021816 -0.017583 0.36661 0.20737 0.15537 0.30366 0.22598 0.86873 0.95292 -0.046622 0.3776 0.065495 -0.16932 0.55563 -0.16079 -0.071346 -0.36475 -0.021718 -0.30883 -0.061947 -0.21337 -0.3701 0.12422 0.03596 0.1851 0.25784 0.17264 0.079764 -0.070236 0.061571 0.90939 -0.69627 0.12686 -0.080437 -0.036593 -0.093756 -0.021316 0.41818 0.16951 -0.14671 0.074207 0.026302 0.19997 0.26398 -0.11782 0.0077918 -0.264 -0.02011 0.28432 0.22997 0.060174 0.32507 0.42539 0.24972 -0.099997 -0.69758 -0.44755 0.40126 -0.47123 -0.053255 0.026488 0.13499 -0.63366 0.0047854 0.52575 0.3121 0.28634 0.070505 -0.080273 0.59008 0.24446 -0.67823 -0.50086 -0.56197 0.22501 -0.35041 -0.10356 -0.12487 0.56567 -0.20203 -0.57439 0.26696 -0.02051 0.027028 -0.12987 -0.010898 0.14374 -0.41825 -0.22201 0.36097 -0.13449 -0.49536 0.28536 -5.8658E-4 0.2539 0.46715 0.036877 -0.20304 0.077122 0.23067 -0.26545 -0.22159 0.12463 -0.16555 -0.16377 0.5073 0.30799 -0.64782 -0.10889 0.2273 -0.55828 0.50725 -0.31252 -4.6712 0.094847 -0.092904 -0.056667 -0.04763 -0.34624 0.072672 0.30664 0.59603 0.2736 0.071974 0.12585 -0.17992 0.036768 0.62059 0.31303 0.07091 -0.018279 0.21822 -0.58378 -0.18742 -0.48391 -0.17017 0.15852 -0.64143 -0.31202 0.064022 0.0063998 -0.096236 0.53125 0.29139 0.31555 -0.40561 -0.46501 -0.10953 0.15615 -0.45097 0.062396 -0.1408 -0.41055 -0.14894 0.20887 0.60915 -0.11264 0.47299 -0.10048 -0.21802 -0.39741
sex -0.60626 -0.35888 0.49613 0.44226 -0.34583 -0.53489 0.74339 -0.061812 0.50712 -0.079613 0.14097 -0.19593 0.22625 -0.23266 0.12596 0.53531 0.32288 -0.35969 -0.31874 0.30349 -0.30665 0.24006 -0.097171 -0.50474 -0.5209 0.94697 -0.55183 -0.050543 -0.23019 -0.14299 -0.13878 -0.32765 -0.031353 0.53528 -0.36428 0.1442 0.02294 0.48157 0.25266 0.095935 -0.45321 0.13314 -0.20524 -0.57098 0.49385 0.19275 0.39422 0.29629 -0.41132 -0.41625 0.72666 0.43047 -1.2497 -0.42811 0.086686 0.20741 -0.28644 -0.067705 -0.62093 1.0308 -0.48261 0.0035305 -0.17306 -0.014043 -0.35182 -0.37875 0.5026 0.23418 0.033451 1.0468 -0.27545 0.22921 -0.26502 -0.27117 -0.13117 0.62588 -0.65888 0.36789 -0.11166 -0.070398 0.67597 -0.38319 0.21986 -0.09137 0.21369 -0.54406 -0.71781 0.17355 -0.4674 -0.25975 0.057523 0.55565 -0.62343 0.26152 -0.10371 -0.25351 0.5958 0.33071 0.26833 -0.075109 -0.18589 -0.48131 -0.19349 -0.19345 0.86795 0.78223 -0.057785 -0.50168 0.61521 -0.16485 -0.10824 0.48254 0.40914 -0.058102 -0.60564 0.50704 -0.11082 -0.32576 0.16287 0.11574 -0.26052 -0.22609 0.06227 -0.23684 -0.043935 0.33928 -0.06051 0.61892 0.50491 -0.32744 -0.28895 0.082467 -0.50099 -0.027695 -0.17395 0.077918 -0.59112 -0.046732 -0.16598 -0.12921 0.67232 0.57714 -0.12295 -0.11009 -0.45419 0.48243 -0.28753 -0.2042 -0.22769 0.52203 0.66656 0.25852 -4.4861 -0.33167 0.31931 0.39742 0.02472 -0.7986 -0.40841 0.18058 -0.27736 0.49132 0.67334 -0.026511 -0.71247 -0.65753 -0.16301 -0.18147 1.2256 -0.52284 0.62666 -0.15044 0.33598 0.26166 -0.32059 0.45595 -0.23483 -0.43868 -0.1592 -0.041113 0.18597 0.21365 -0.51073 0.27194 -0.24716 -0.97311 -0.69538 1.1001 -0.2415 -0.014887 0.14008 -0.52713 -0.40481 -0.3803 0.049097 0.14821 0.20843 -0.21691 -0.39827 -0.013589
food -0.69175 -0.14259 0.38653 -0.23141 -0.20408 -0.21565 0.77839 0.0022689 -0.072446 -0.60134 -0.424 -0.5714 -0.84249 0.15947 -0.12899 0.59032 -0.13632 -0.66478 -0.19557 -0.82453 -0.13177 0.13514 -0.73214 0.482 0.43505 1.6676 -0.18275 -0.10007 0.37003 0.10411 -0.88115 -9.7733E-4 -0.29459 -0.073869 -0.40103 -0.46626 0.23253 0.27776 0.40754 -0.045051 -0.19468 -0.2923 -0.34642 -0.49286 0.10467 0.72143 0.59596 0.53495 0.038788 -0.14406 -0.052248 -0.68292 -0.1008 -0.12961 -0.026006 0.14836 0.032417 0.13997 0.0083943 -0.23139 -0.18 -0.31689 0.23606 0.18237 0.43933 -0.32313 -0.0021512 -0.44172 0.41011 0.17174 -0.86405 -0.39674 0.44175 0.593 0.18982 -0.029646 -0.34041 -0.033708 0.73449 0.453 -0.027855 -0.018993 0.38107 -0.056606 0.014864 0.31518 -0.32304 -0.27439 0.0619 0.32886 0.15138 0.53268 -0.16616 -0.23076 -0.096515 0.45991 -0.51475 0.10297 -0.040225 0.56679 0.31027 0.15679 -0.25897 0.46312 0.22561 -0.393 -0.39593 0.44001 0.37176 0.014747 -0.19193 -0.22478 -0.12665 -0.34982 0.50847 0.3172 0.12942 -0.62695 0.58675 0.04104 0.18835 -0.22626 -0.11744 0.0051429 0.072058 -0.49525 0.44159 0.86225 0.076765 -0.097908 0.068383 0.30596 0.3798 0.11563 -0.6102 -0.68107 0.032723 0.25346 0.35334 0.25407 -0.46516 0.48858 0.39032 -0.81296 -0.6978 -0.12542 0.079234 0.12918 -0.11048 0.0089312 0.36999 0.30116 -4.6578 -0.0044493 0.020313 -0.050215 -0.20646 -0.037321 -0.051779 0.066986 -0.58853 0.71753 0.042784 0.0016667 -0.26193 0.58214 -1.0513 -0.030341 0.73892 -0.18003 -0.11104 0.30846 0.44027 -0.08408 -0.26251 -0.38733 -0.2663 0.19655 0.053812 -0.24456 -0.78868 -0.71843 0.070593 -0.19051 0.25553 -0.13786 0.12942 0.45864 0.55462 0.82104 -0.25049 -0.33623 0.18491 -0.48235 0.31425 0.24499 -0.24404 0.080309 0.3406 0.70451
precedent 0.47706 0.4754 -0.47701 0.48512 0.052682 -0.18886 0.0044784 -0.91604 -0.13905 -0.092697 -0.17813 -0.086587 -0.39803 -0.55711 -0.40071 -0.1423 0.35708 -0.29221 -0.55204 0.46259 0.23745 0.060382 0.20581 -0.23492 -0.17439 0.59919 1.0247 -0.18755 -0.29661 -0.21393 0.60914 0.08949 -0.32051 -0.11842 0.060523 -0.62934 -0.51259 -0.3272 0.20062 -0.20236 1.0095 -0.32925 0.023608 -0.56516 0.36432 0.031182 -0.75131 -0.41947 -0.077263 0.15601 0.42542 0.37422 0.62788 -0.52884 -0.85311 0.13767 -0.29195 0.18525 -0.15269 0.31295 0.56619 0.47796 0.61572 -0.26037 0.089912 0.78736 0.94158 0.22484 -0.78138 -0.55575 -0.19898 -0.51773 -0.036508 0.16695 0.59641 0.02844 0.052923 0.061338 -0.69773 -0.26 0.45494 0.25387 0.48657 -0.56207 0.079782 0.20401 0.39741 -0.10794 -0.10225 -0.33964 0.82589 0.69825 -1.1015 -0.28356 0.51196 -0.22354 -0.35168 0.13048 -0.088824 0.16436 0.23144 -0.71766 0.2266 0.18613 -0.4287 -0.2811 -0.10897 0.55538 0.10907 0.34584 -0.15521 0.15064 -0.047336 -0.10375 -0.33347 0.087167 -0.78576 0.097452 -0.55964 0.75241 0.16903 0.043649 0.61967 0.30901 -0.3236 -0.2466 0.11325 0.16166 -0.25862 0.14321 -0.26371 0.61013 -0.4616 0.42893 -0.58155 -0.1223 0.28881 -0.1179 0.22811 0.075156 -0.024245 0.044425 -0.36755 0.090245 0.1296 0.1198 -0.10245 0.2795 -0.020947 0.6598 0.36963 0.071145 -0.60898 0.3443 0.38984 0.6186 0.94985 -1.3533 0.73431 0.40039 0.20964 -0.088816 0.057494 0.32018 0.27256 0.21612 -0.048591 0.055397 0.34989 -0.25517 0.78294 0.18075 0.15622 -0.024145 -0.26267 0.11862 -0.33203 -0.55271 -0.31565 0.28758 -0.43861 -0.32204 0.29998 -0.084687 0.3555 -0.0038198 0.22812 -0.7704 -0.30663 0.18786 0.20572 -0.16491 0.45961 -0.29735 0.60699 0.47123 0.23136 0.81468 -0.016268 -0.81455
series 0.42472 0.40025 -0.084439 -0.20485 -0.58117 -0.11126 -0.38365 -0.060786 0.15196 -0.36289 0.40095 -0.11926 -0.78541 0.3484 -0.096828 -0.30635 0.09424 0.41849 0.10595 0.44417 -0.22326 -0.069138 0.015942 0.28268 -0.32733 -0.42908 -0.37983 0.18056 -0.046394 -0.28315 -0.013529 -0.66754 0.10335 -0.017947 -0.2069 -0.070731 0.34542 -0.55099 -0.30253 0.41366 0.42594 -0.33871 0.09296 0.077955 -0.22952 -0.19222 -0.51954 -0.21569 0.6552 -0.66654 -0.54592 0.2537 -0.38737 0.83141 0.096613 -0.019669 0.47403 -0.17969 0.031066 -0.27254 0.39714 0.075846 -0.3585 -0.86223 -0.4968 0.59187 0.054383 -0.36037 0.9531 -0.81401 -0.68658 -0.025904 -1.1796 0.49516 0.050029 -0.29146 0.16152 0.0017731 -0.094474 -0.60008 1.3096 0.46346 0.23848 0.40592 0.54916 0.2714 -0.064442 0.16859 0.37465 -0.10668 -0.18681 0.21513 -0.73077 0.0025398 -0.2257 -0.077434 0.26082 -0.22159 -0.30113 0.17522 0.71946 -0.27694 -0.36204 -0.13733 -0.0251 -0.38868 0.26587 -0.16446 -0.20915 0.078527 0.17659 -0.1583 0.29695 0.029558 0.41352 0.55365 -0.32513 0.12008 0.068865 0.69246 -0.11924 0.69798 0.072929 0.2291 -0.79742 0.084806 0.097071 0.45228 -0.28273 -0.95603 0.081864 0.20359 -0.45522 -0.20543 0.28407 0.11347 -0.0070029 -0.14325 -0.76293 0.23716 -0.64837 -0.44087 -0.16301 0.38489 -0.0214 -0.62322 -0.65719 -0.048478 -0.48935 0.41532 -0.051928 -0.17282 -3.9992 -0.32788 0.12305 -0.33928 0.58689 -0.19839 0.10601 -0.73296 -0.43586 0.61596 0.15089 -0.36188 -0.24426 0.096201 0.45551 0.59338 -0.04725 0.3556 0.58599 0.88525 -0.2984 0.31333 -0.049865 0.23696 -0.39148 -0.31425 0.4796 0.08958 0.24396 -0.049255 0.083724 -0.44675 -0.59795 0.67924 -0.06991 -0.44687 -0.20281 0.98885 0.41175 -0.39358 -0.03599 0.44167 0.13212 -0.62254 0.33928 0.32648 0.071174 0.31889
kilometer 0.37377 -0.21695 0.55625 -0.7708 -0.068595 0.53431 -0.60538 -0.41011 -0.14051 0.11895 0.15805 0.15482 -0.0928 -0.39629 -0.54609 0.40877 -0.21126 0.29602 -0.13933 0.097621 -0.45155 -0.3881 -0.1252 -0.55396 0.06467 0.44728 -0.079675 -0.21663 0.24201 -0.21395 0.41048 -0.19589 0.28276 -0.57212 1.0074 -0.28552 -0.7681 -0.10759 -0.40228 0.49873 -0.7155 0.65409 -0.721 0.3171 0.28377 0.021222 -0.036718 -0.13188 0.69248 0.91518 -0.37802 0.051607 -0.09637 -0.49613 -0.069999 0.11096 0.093572 0.092039 -0.056706 0.61565 0.37052 0.11325 -0.66762 -0.15064 -0.16099 0.23862 0.68483 -0.31476 -0.89141 -0.30419 -0.20079 -0.32246 0.20131 -0.37891 -0.67548 0.38937 -0.76934 0.050955 0.70995 -0.63531 -0.23329 -0.093788 -0.051908 0.37133 0.26004 -0.62483 0.48074 -0.57636 0.0041547 -0.017293 0.16287 -0.19654 -0.231 0.043854 -0.71564 0.73185 -0.078774 -0.36624 -0.033212 0.3733 -0.32017 -0.89199 0.378 -0.20144 -0.0078351 -0.40377 0.66439 -0.053367 0.20329 0.21137 0.46968 0.10459 0.42828 0.090113 0.33141 -0.50124 -0.046386 -0.20824 -0.13659 -0.64377 -0.20687 0.25706 0.22266 -0.26375 -0.30374 0.29733 -0.13569 0.38994 -0.44748 -0.041218 0.4158 -0.47717 0.078873 -0.28171 -0.18077 -0.079099 -0.55581 0.63303 -0.22134 -0.052337 -0.43253 -0.45422 -0.38791 0.1664 -0.55384 0.21045 -0.13265 -0.79435 -0.059731 0.20411 -0.47067 -0.10561 -0.32581 -0.034807 0.50523 -0.17008 0.51026 1.1709 -0.54006 0.11436 1.0756 0.47575 0.46034 -0.42867 0.25537 -0.4288 -0.84974 -0.4953 -0.22156 -0.014307 -0.27278 -0.033344 -0.44211 0.049097 0.089212 0.44986 0.092467 -1.1173 0.12971 -0.23721 0.91306 0.29772 -0.028411 -0.57716 -0.48805 -0.10639 -0.11088 0.59873 -0.077732 0.21519 0.96733 -0.36667 0.048615 0.51502 -0.040605 -0.70337 0.05801 0.92166 -0.23953 0.10944
grocery -0.40652 0.31954 0.9105 0.28251 0.65673 0.40908 1.1199 -0.27544 0.17544 -0.80103 -1.0381 0.23753 -0.47815 -0.056291 -0.31623 0.24169 -0.43302 0.029801 -0.15113 -0.72005 0.5895 -0.4293 -0.36536 -0.49469 0.058532 1.4036 0.09011 0.0064522 0.57813 -0.71023 -0.10486 0.27886 -0.42006 -0.37648 -0.16846 0.12646 0.51699 0.55714 0.54028 -0.34957 0.47329 0.051419 0.053396 0.02146 0.19715 0.77754 0.11671 -0.081772 -0.11175 0.23598 -0.45434 -0.6532 -0.732 -0.031532 0.024731 0.14372 0.2135 -0.79395 0.18127 0.073611 0.19839 -0.5846 0.40499 -0.068825 0.027813 -0.39589 0.45233 -0.2486 0.67201 0.24566 -0.50238 -0.075943 0.29436 0.26125 0.39566 0.50921 -0.21823 -0.64442 0.28608 0.062105 -0.17857 0.037254 -0.03266 -0.27955 -0.28165 0.051853 -0.0095042 -0.23599 0.3781 -0.53481 0.087793 -0.013243 0.47816 -0.13736 -0.059518 0.48012 -0.53356 0.13323 0.28432 -0.11565 0.031949 0.58895 -0.32878 -0.16837 -0.13441 -0.71841 0.034168 -0.7984 0.66818 -0.46926 0.061498 0.015907 -0.59194 -0.41809 0.44727 -0.3843 -0.25455 -0.061478 -0.76624 0.06957 0.2083 0.5957 -0.51521 0.32262 -0.46246 -0.63759 0.1007 0.86682 0.89289 -0.46786 -0.84836 -0.054614 -0.10367 -0.47476 -0.29631 -0.13207 -0.62364 0.96591 0.38361 0.15447 -0.47022 0.74211 -0.077115 -0.69672 -0.90878 0.27441 0.57473 -0.31315 0.1106 0.20267 0.45749 -0.19747 -2.2624 0.07613 0.86451 -0.040909 -0.36136 0.10218 0.22085 -0.19149 0.049249 0.28881 0.3604 0.52158 0.30189 0.25405 -0.64839 0.14104 0.68642 -0.21685 0.026281 0.31511 -0.49084 0.18769 -0.52632 -0.40281 -0.10856 -0.044746 -0.17905 0.66941 -0.94534 -0.027393 -0.10936 -0.11668 1.0254 0.4787 0.59943 -0.19258 0.12596 0.73658 -0.20703 0.4052 0.094912 0.088068 0.030119 0.31045 -0.030087 0.4436 0.82693 0.084211
wizard -0.15132 -0.10961 0.42391 0.38524 0.16933 0.5762 0.4332 -0.77149 -0.60245 -0.0056019 0.031037 0.33538 -0.93371 -0.06097 0.73513 -0.28254 -0.27674 0.22714 0.14563 -0.18832 -0.33298 0.32222 0.29549 0.041573 0.62181 0.51437 0.1155 0.59928 0.3358 0.053047 0.53552 0.38004 -0.14545 -1.1015 -0.70781 0.021544 -0.37679 0.53565 -0.093862 0.62429 0.067938 0.59304 -0.037117 0.099387 0.073078 0.35205 -0.5097 0.1175 0.4286 -0.0095174 -0.46056 -0.44916 -0.4025 0.27666 0.15532 -0.35481 0.41842 0.18766 -1.1838 -0.37334 0.17159 -0.10548 0.15183 0.49116 -0.79779 -0.20764 -0.23919 0.48186 0.19741 -0.043217 0.0076294 0.22736 -0.35088 0.060907 0.23629 0.1864 0.018775 -0.14926 0.059583 0.30018 0.29215 0.59954 0.23764 0.57958 0.057942 0.39158 -0.15534 0.028208 -0.18024 -0.22011 0.51981 -0.17126 -0.059802 0.054866 -0.54861 -0.06564 0.92666 0.37551 0.59597 0.14918 0.0051405 0.060939 -0.31381 0.3982 -0.052897 -0.38469 0.12305 -0.15868 0.32103 0.16726 -0.31524 -0.01718 0.22233 0.25493 -0.058334 -0.050428 0.91007 -0.12966 -0.017308 0.46198 0.38581 -0.16263 0.18281 -0.16475 -0.027058 0.12243 -0.17917 -0.79878 0.26909 0.18483 -0.16684 0.62693 0.058479 -0.26899 0.7274 0.47975 -0.34203 -0.49023 -0.40635 -0.40259 0.33817 -0.55177 0.27861 -0.058456 0.49738 0.67019 -0.15045 -0.070433 0.25186 -0.0094016 0.0096619 -0.47724 -2.0125 -0.02609 -0.37272 0.35503 0.39707 0.19506 -0.91483 -0.81892 -0.057051 0.1578 -0.027096 0.24443 0.24484 0.20134 0.45683 0.588 -0.62585 -0.014262 0.31539 0.13086 -0.40593 0.075719 0.48199 -0.37978 0.28106 -0.26503 -0.35791 -0.27881 0.11381 -0.25234 0.42636 0.64238 0.019638 0.38965 -0.035435 -0.41141 -0.44281 0.071305 0.50013 -0.16772 0.046706 0.14611 -0.30028 -0.17739 0.52146 -0.19981 -0.30272 -1.208
information 0.1002 0.47522 -0.98188 -0.050211 0.3792 0.25205 0.69115 0.049373 -0.1094 -0.23162 0.47989 0.062931 -0.69227 -0.48607 0.23195 0.35665 -0.099117 -0.29043 0.11428 -0.40488 -0.57101 -0.12227 0.12411 0.18497 -0.087747 1.4513 -0.10648 0.19563 0.33929 0.29131 -0.25857 -0.35915 -0.75578 -0.27836 0.27369 -0.11375 0.0014274 0.5632 0.20423 0.061715 -0.21134 0.1536 -0.31089 0.15603 0.030313 0.14421 0.016215 -0.13572 -3.3074E-4 0.060207 0.41096 0.79975 -0.039373 -0.011352 -0.5851 -0.12773 -0.21968 -0.089379 -0.6512 -0.12169 0.18588 0.76323 0.29781 0.58134 0.059732 1.1632 0.97442 -0.76082 0.03288 0.15134 0.32654 -0.091718 0.88912 -0.6756 0.50163 -0.080115 0.39648 0.54782 -0.053898 0.083026 0.23474 0.23035 1.1422 -0.10118 -0.067007 -0.2984 0.25643 0.19334 0.030942 -0.14804 0.19768 0.36488 0.30955 0.010776 0.52818 0.14702 0.045402 0.11384 -0.023762 -0.09339 0.71833 -0.14511 -0.59908 0.40135 0.78061 -0.53615 -0.12445 -0.34349 0.81206 -0.10358 0.1106 -0.13458 -0.43962 -0.27724 0.63005 0.39439 -0.2223 0.050405 0.37062 1.0125 -0.078284 0.40859 0.73218 -0.64639 0.19169 -0.81381 -0.024504 0.19639 0.34519 0.20818 0.087903 -0.35614 -0.04995 0.047382 -0.095247 -0.79802 0.24861 -0.09172 0.31582 0.056513 0.79257 -0.15631 0.2052 0.026868 0.21207 -0.44311 -0.33906 -0.57585 0.40361 0.49424 0.010233 -0.39643 -3.2383 -0.02235 0.1396 -0.0019947 0.092747 -0.58013 -0.28411 0.41925 -0.23844 0.61923 -0.21177 0.1431 -0.10474 0.047286 -0.81647 0.68839 -0.092782 -0.068585 0.51594 0.22277 0.036298 -0.84685 -0.40405 -0.05565 0.38194 0.5093 0.13472 -0.37506 0.61805 -0.66187 0.28646 -0.14614 -0.43032 0.010337 -0.17444 0.28176 0.051895 0.11532 0.58926 0.051001 0.30329 -0.44265 0.078983 0.15017 0.12025 -0.1678 -0.39411 -0.175
brandy -0.77463 0.017204 0.32301 0.20672 -0.16138 -0.30082 0.21815 0.32389 -0.454 -0.43241 -0.11685 -0.004215 -0.2021 0.0034229 -0.25834 -0.16022 0.42077 -0.085165 0.152 0.12608 -0.32537 -0.49693 0.089356 -0.83051 0.024016 0.31909 -0.18587 0.18178 0.14529 -0.25594 -0.53483 0.3215 -0.38787 -0.60481 -0.15929 0.97713 -0.032689 -0.35962 0.40538 0.071119 0.48469 0.10378 0.1022 -0.1897 -7.0017E-4 0.47003 0.075925 0.028896 -0.30876 -0.46019 -0.23849 0.34971 -0.2209 0.091668 -0.12521 -0.12451 0.16448 0.045882 -0.25984 0.12041 0.039082 -0.063823 -0.33164 -0.47054 0.027574 -1.0753 -0.045319 -0.066363 0.41938 -0.22769 0.27762 -0.15286 0.22232 0.43033 -0.54355 0.23923 0.12045 0.077204 -0.12642 0.20295 0.65472 -0.16547 -0.30579 -0.26788 -0.32159 0.48192 0.68509 -0.016763 -0.077109 0.094492 -0.2072 -0.25831 0.098096 0.56933 -0.33403 0.26111 -0.20955 0.47904 -0.53978 0.16342 -0.22332 -0.10482 -0.35077 -0.061498 0.039329 0.3818 0.47337 -0.4114 -0.3188 -0.22853 -0.31373 0.44656 -0.0019811 0.25837 -0.28901 -0.056949 -0.47058 -0.16744 0.60956 0.12459 -0.24678 0.052153 0.69968 -0.81515 0.21805 0.27011 0.12289 -0.053617 0.78569 0.31071 0.37819 -0.79219 -0.3106 -0.4128 0.54401 0.32212 0.11411 -0.23095 0.96167 -0.25988 -0.34794 -0.29748 0.68295 0.13403 0.07753 -0.048571 -0.37572 0.25567 -0.085155 -0.091886 -0.34896 0.4636 -1.6415 0.20685 -0.019972 0.36141 -0.62981 0.56537 -0.46787 0.31753 0.20903 -0.2394 -0.14131 -0.676 0.72217 -0.023057 0.27215 -0.046305 0.24762 0.042968 0.41499 -0.38857 -0.018959 -0.41039 -0.64983 -0.45364 -0.34423 -0.15456 -0.16739 0.26153 0.15737 -0.67423 -0.30614 -0.18188 0.1055 -0.10127 -0.032203 -0.11158 -0.45469 0.15759 0.30077 -0.25134 -0.21096 0.45133 0.22152 -0.11294 0.34315 -0.22813 0.42276 -0.59848
interview -0.098453 0.28825 -0.085674 -0.85889 -0.49134 -0.060269 0.13744 0.48556 0.15397 -0.33249 0.64477 0.28981 0.31095 0.1017 0.52895 -0.13637 -0.21483 0.069723 -0.36224 0.058721 -0.11305 0.2233 -0.29296 1.5515E-4 -0.0044382 0.83441 -0.040626 -0.029115 -0.22509 -0.2345 0.33709 -0.39989 -0.32561 -0.36622 0.19239 0.25412 0.23335 -0.26158 0.56307 -0.3432 0.19261 -0.22564 0.28532 0.59211 -0.19231 0.31738 0.1613 0.08445 -0.31509 -0.6461 -0.035744 0.25884 -0.851 0.3778 -0.10575 -0.16537 0.56592 -0.21704 0.10597 0.027362 0.33072 0.049137 0.012097 0.28797 -0.56485 0.12278 -0.038252 0.15462 0.30185 -0.078819 -0.027219 0.15465 0.50277 -0.40599 0.53664 0.063339 0.62745 0.010333 -0.094507 0.32559 0.1398 -0.29753 0.20968 0.23523 -0.28586 -0.25825 0.25611 0.32895 0.34036 -0.36349 0.30772 0.043765 0.46651 -0.061137 0.74339 0.74254 0.49253 0.35476 -0.35895 -0.10947 -0.081966 -0.33359 -0.011187 -0.17784 0.050563 -0.037611 -0.11017 -0.50221 -0.18401 0.11453 0.42032 0.013204 0.09536 0.72586 -0.051704 0.26428 0.22232 0.056904 0.63522 0.42305 -0.1331 0.09382 0.38947 0.060209 0.12388 -0.021882 -0.083449 0.15252 0.078963 0.62384 -0.085412 -0.36931 0.13653 0.15837 -0.005332 -0.19231 0.042714 0.035731 -0.49893 0.92981 0.0027856 0.12131 -0.16288 0.80791 0.64587 0.16103 0.10009 -0.30665 0.46052 -0.11861 0.043953 -0.75859 -3.7943 -0.11195 -0.20043 -0.064104 0.18905 -0.23735 -0.18207 0.27832 -0.70984 0.10349 0.12377 -0.45132 0.74823 -0.17441 0.17482 0.23408 -0.21039 -0.09085 0.50171 -0.075433 0.81988 0.78618 -0.43574 0.083797 0.21177 -0.4193 -0.86422 0.113 -0.14219 -0.29388 -0.10203 0.47387 -0.32938 0.14815 -0.42572 -0.97392 0.79334 0.47679 0.70836 0.16143 0.23867 0.42822 -0.69119 0.1957 -0.065653 0.2998 -0.16202 -0.51716
prominence 0.12744 0.049192 0.10683 -0.14719 0.59537 0.031201 -0.029677 -0.16273 0.087625 -0.5006 0.35104 -0.12594 -1.1262 -0.21032 -0.18945 0.10763 -0.16569 -0.38732 -0.050602 -0.15731 -0.27865 -0.076103 0.14901 0.37766 -0.038799 0.85296 -0.11459 0.22173 -0.60303 0.44183 -0.052252 -0.22506 0.62285 -0.77867 0.14409 -0.045589 0.65646 0.061108 -0.0020965 -0.23462 0.5472 -0.16428 -0.34049 -0.16462 0.26082 0.28873 -0.60446 -0.82353 0.24052 -0.20618 0.26097 0.16992 -0.16669 0.033712 -0.53985 0.19645 0.58049 0.10661 -0.094491 0.12406 0.20701 -0.078821 -1.1902 0.22812 -0.28351 0.62212 -0.044257 -0.063589 -0.30507 0.08318 0.012668 -0.12029 0.069602 -0.11599 -0.1054 0.54829 0.3259 0.30894 -0.13118 0.26759 0.27689 -0.24307 0.18551 0.2116 -0.14252 0.26022 0.25856 -0.0487 0.15134 -0.8574 0.090046 0.64766 -0.16504 0.0842 0.247 0.15138 0.26256 -0.31026 0.089802 0.21696 0.14355 0.15771 -0.13421 0.25982 0.42212 -0.45759 -0.019615 -0.059015 0.59176 0.50602 0.21455 0.19771 0.26934 -0.33612 -0.37837 -0.23054 0.18228 0.28442 -0.26723 0.43414 0.17256 0.04763 -0.07239 0.58459 0.093439 0.11331 -0.22424 -0.17476 0.7848 -0.46746 0.40104 -0.28336 0.51041 -0.28995 -0.010161 -0.29538 0.68207 0.24227 0.018759 0.092454 -0.42408 0.10368 -0.58868 -0.46702 -0.41592 0.066037 -0.026845 0.11381 0.3713 0.32732 0.65895 0.48153 0.48504 0.75281 -0.63139 -0.46159 0.29776 0.05826 0.39492 0.68008 0.11858 -0.081412 -0.12238 -0.11561 0.26118 -0.31002 0.079278 0.11783 0.84493 0.029421 0.72524 0.12009 -0.093335 0.18105 0.061087 -0.085898 0.056998 0.53112 0.11879 -0.2431 -0.19274 0.85827 -0.021285 0.030529 -0.64213 0.10912 0.29905 0.028596 -0.23008 -0.29678 -0.32454 -0.13465 0.26636 0.16844 0.32193 -0.017381 0.79561 0.060374 -0.21699 -0.54833
bed 0.096685 -0.80897 0.20176 -0.074543 -0.35218 0.069073 0.54251 0.2877 0.13755 -0.12076 -0.49584 0.251 -0.27294 -0.14236 -0.90435 -0.16577 0.22887 -0.14177 -0.43015 0.88357 -0.4419 -0.37648 -0.18377 0.38288 0.62352 1.4581 -0.050493 0.2601 -0.62026 -0.55095 -0.77581 0.092714 -0.15145 -0.13442 0.062143 -0.42115 0.23734 0.022877 0.1404 0.72321 0.1222 0.28675 1.0192 -0.31008 0.51711 -0.14897 0.65694 0.52995 0.075886 0.71679 -0.19874 -0.89931 -0.19204 -0.36682 -0.33562 0.08246 -0.33079 0.06237 -0.011654 0.92228 -0.10613 0.0039123 -0.040926 -0.67316 -0.071506 -0.23129 0.17227 -0.58157 0.19621 -0.045368 -0.31205 0.57421 -0.28901 0.17913 -0.51128 0.59773 0.014827 -0.32359 -0.13972 0.72268 0.23183 -0.32851 -0.68254 -0.0083988 0.13194 0.088037 -0.20213 -0.81787 0.075698 0.37105 0.5186 0.72661 0.17919 -0.020872 -0.21671 -0.63375 -0.14347 -0.084982 -0.14372 0.62707 0.36522 0.17941 0.48512 0.074705 -0.81933 0.23853 0.21219 -1.0374 0.091293 -0.8211 -0.14943 0.084159 0.14343 -0.17246 -0.35794 0.063144 -0.28824 -0.50809 -0.21594 -0.26098 -0.19711 0.35419 -0.18571 -0.030927 0.23486 1.0841 -0.086207 -0.17443 0.21435 0.2678 0.10762 -0.14781 -0.39038 0.60408 -0.18632 -0.2887 -0.12234 0.64486 0.25609 1.2166 0.27383 0.34427 0.063938 -0.41826 0.34125 0.47828 -0.21137 0.49022 0.33736 0.41511 0.4543 0.49586 -4.8599 0.18522 0.33071 0.09355 -0.036815 0.44446 0.29042 -0.20504 0.37379 -0.27625 0.34807 0.6799 -0.0083703 0.071348 0.37144 0.69769 0.51334 -0.2023 0.27455 0.2575 -0.32658 0.046214 -0.45191 -0.14628 0.068565 0.14027 0.19061 0.21854 0.15858 -0.15101 0.41863 0.21336 -0.48784 0.119 -0.60332 0.39103 0.48919 -0.4966 -0.038324 -0.77393 0.17952 -0.42065 0.39777 -0.56642 -0.29442 0.30864 -0.21524 0.21161
furnace -0.73346 0.20065 -0.33534 -0.20989 -0.667 0.61932 -0.48073 -0.042356 -0.42126 -0.6966 0.56398 -0.027711 -1.4814 0.81645 -0.21214 -0.17936 0.57298 -0.67549 0.11895 -0.0052621 -0.78104 0.27444 0.15033 0.23643 0.18702 1.228 -0.48854 1.1747 -0.14955 -0.049295 0.085894 0.40027 0.35109 -0.44322 -0.22211 -0.21017 0.27936 0.26519 0.51403 -0.81205 0.81065 0.17635 0.35281 -0.29781 -0.7916 -0.0038949 -0.56683 0.38593 0.43566 -0.41061 -0.0054975 -0.5486 -0.21611 -0.039595 0.041108 0.67091 -0.077634 0.76644 0.43416 -0.34261 0.080284 0.69708 -0.16205 -0.64643 0.77424 -0.46182 0.087798 -0.0010384 -0.35368 -1.2287 0.25133 -0.71346 0.16095 -0.4859 0.42038 0.27874 -0.091269 -0.26211 0.66306 0.086348 0.89017 0.59172 -0.35943 0.68327 0.51797 -0.074469 0.17155 0.062359 -0.53062 0.033004 -0.61786 -0.31923 0.56555 0.23861 -0.40575 0.39835 0.4944 -0.067282 -0.2493 -0.1892 0.8641 0.27372 0.78645 -0.41606 0.14633 -0.5639 0.36719 -0.68675 -0.58522 0.13212 -0.076172 -0.59031 0.55363 0.43 0.57459 0.76915 -0.46933 0.28111 -0.45974 0.66928 -0.3571 -0.29866 0.35946 0.060464 0.36811 0.9201 0.066333 0.25292 -0.03367 0.26358 -0.34394 0.58453 0.91596 -0.14245 -0.16457 -0.26267 -0.35022 0.21387 -0.49591 -0.17592 0.22405 -0.93261 -0.3528 -0.48767 0.32534 0.049302 0.80929 -0.14236 -0.19299 -0.76082 0.88392 0.061426 -0.63864 -0.31862 -0.16232 -0.31584 0.25993 -0.57434 -0.036362 -0.19428 0.29621 -0.27526 0.92249 0.57529 0.24241 0.89308 -0.39996 0.60596 0.015716 0.66795 -0.0054671 0.22357 0.40216 0.069721 0.62144 -0.2603 0.45094 0.41725 -0.24111 0.50977 0.30072 -0.75469 0.10357 -0.55328 -0.7519 0.10229 0.40045 -0.0056726 0.022139 -0.27514 0.38374 -0.37367 0.23085 -0.58933 0.20538 0.66894 0.058504 -0.045111 -0.31616 0.5713
evidence 0.1684 0.039858 -0.45989 0.36613 -0.39376 0.51464 0.46687 0.12594 0.27489 -0.097107 0.1072 0.12544 -1.0053 -1.0459 0.63946 1.0552 -0.26037 -0.40881 -0.052291 0.40817 -0.092893 0.52878 0.43515 0.54324 -0.057891 1.2961 -0.08592 0.0040734 -0.64619 0.68706 0.066837 0.034301 -0.20344 -0.16449 0.24691 -0.081942 0.46327 0.11771 -0.48848 -0.45856 1.0363 -0.20356 0.29999 -0.22443 0.11941 0.4408 0.118 0.14451 -0.061523 -0.24063 0.34369 1.1272 0.013691 0.15936 -0.60487 0.10629 -0.18824 -0.49325 -0.19025 0.27257 0.012815 -0.12318 -0.62348 0.47682 0.19485 1.2097 0.15283 -0.69843 -0.078804 0.31408 0.25224 -0.32809 0.44632 -0.49954 0.63972 -0.45459 -0.51699 -0.41827 -0.54346 -0.34708 0.20644 -0.17954 0.74677 0.22812 -0.112 -0.038705 -0.19906 0.07511 -0.10082 0.37274 0.39251 0.95632 -0.35908 -0.54539 0.1284 0.64212 0.080724 -0.22234 0.082483 -0.50125 0.14433 -0.30862 -0.15875 0.97243 -0.11025 0.13296 0.17888 -0.12804 -0.46047 -0.4689 0.0012336 -0.065343 -0.26577 -0.33636 0.15618 0.092558 -0.21313 0.42834 -0.19921 0.37781 -0.0047021 -0.10393 -0.1598 -0.76612 0.45496 -0.38247 0.92568 0.38649 0.63572 0.21129 0.0034558 0.3605 -0.29564 0.67676 0.15074 -1.2931 0.95835 0.39161 0.23697 -0.17728 0.44195 -0.18864 -0.15588 0.74985 0.012196 0.2333 -0.57729 -0.37108 -0.10263 0.60582 0.26102 -0.085384 -2.5003 -0.84746 -0.47802 0.24389 0.82377 -0.59276 0.17794 0.56871 0.29652 0.36439 -0.27552 0.244 0.25238 0.32986 0.18486 -0.34457 -0.12014 -0.78016 0.041751 0.50948 -0.19434 -0.053044 -0.68664 -0.48188 -0.10805 0.11474 -0.42342 -0.18716 0.30578 -0.55872 0.10008 -0.41795 -0.17056 -0.30734 -0.6583 -0.20539 -0.23425 0.15459 0.91268 0.26829 -0.034854 -0.15219 -0.29534 0.03723 0.18132 0.28379 -0.23811 -0.83001
sprint 0.4177 0.87778 -0.053623 -0.68638 -0.10124 -0.16283 -0.035017 -0.828 0.27009 -0.19654 0.58642 -0.070886 -0.2068 -0.28318 0.16123 0.069373 -0.21681 0.30635 -0.39163 -0.18505 0.088284 -0.16159 0.034471 -0.19913 0.024793 0.53768 0.15288 -0.51565 -0.30579 0.30418 0.26756 -0.18667 -0.26329 -0.87886 0.34167 0.28911 -0.2837 -0.11845 0.49652 0.72198 0.70303 0.46558 -0.049284 0.47187 0.25949 -0.0097506 0.38235 0.34048 0.29642 0.1224 0.25344 0.52804 -0.32929 0.20684 0.096138 1.118 -0.91988 0.39525 -0.1571 -3.5386E-4 -0.39462 0.17881 0.97237 -0.25473 -0.37318 -0.18193 0.11009 0.51463 -0.061269 -0.90864 -0.49409 0.35088 -0.30006 -0.030283 -0.60353 -0.32021 0.74973 0.094006 0.77039 -0.43665 0.62611 -0.22165 0.44227 0.43393 -0.30079 0.54018 0.19237 -0.63319 0.66709 -0.77145 -0.50106 -0.48078 0.1205 -0.78918 -0.047732 0.41232 -0.78916 -0.35436 -0.37387 0.26985 -0.57146 -0.38425 0.50311 0.29068 -0.521 -0.58088 -0.18152 0.61405 -0.15764 -0.25357 0.22255 -0.029294 -0.085374 0.26635 0.80609 0.45719 -0.60658 -0.078296 -0.33335 0.23685 0.3757 -0.5032 -0.53457 -0.42172 -0.23655 0.41321 0.23501 0.2557 -0.16031 0.10801 -0.30129 0.066971 -0.011106 -0.59871 0.68208 -0.05959 -0.6502 0.37715 -0.012005 -0.1472 -0.60661 0.081842 -0.65059 0.69399 0.65597 -0.3351 0.41215 0.07335 0.22194 0.44777 -0.3949 -0.11137 -2.3226 0.16344 0.17645 -0.12785 0.38606 0.12199 -0.013041 -0.76938 -0.45343 -0.099147 0.42745 -0.22476 0.084716 0.06223 -0.29042 -0.11243 0.13341 0.21493 0.053523 0.080591 -0.2646 0.083507 -0.051483 -0.4816 -0.058367 0.04293 0.70778 0.28055 0.43485 -0.14556 0.29365 -0.3572 0.36932 0.52224 0.60792 0.21452 -0.40039 0.30973 0.029068 0.13372 0.11139 -0.012597 0.022514 0.29538 0.74113 0.62694 0.55423 0.56318
emergency -0.068143 -0.12916 -0.3245 -0.40152 0.47794 -0.47699 0.48277 -0.18051 0.25247 -0.025548 0.14971 -0.1173 -0.70155 0.61702 0.55857 0.41084 -0.0036069 0.559 -0.2827 0.0062151 -0.51747 -0.0010883 0.44791 -0.22021 0.021908 1.3484 -0.21499 0.52776 -0.8955 -0.06178 0.26331 -0.013574 0.26399 -0.43202 0.072673 -0.041347 -1.1483 0.33488 0.71323 -0.23411 0.095625 -0.12248 -0.38348 -0.85234 0.44082 0.50876 -0.78902 0.38925 0.78671 -0.45768 0.023117 0.26154 0.41038 0.35027 0.24748 0.9499 -0.16072 0.048067 0.023499 -0.14532 0.44366 0.52627 0.035382 0.17891 0.54196 -0.36473 0.51483 0.22657 -0.41789 -0.040109 -0.12987 0.31924 0.82512 -0.25075 0.83705 0.41198 -0.40815 -0.27465 -0.21845 0.20813 0.28679 1.0715 0.68648 0.056537 -0.078367 -0.41334 -0.31318 0.2731 -0.22572 0.21193 -0.27068 0.28525 0.14829 -0.21392 -0.079525 -0.20694 -0.27902 0.39744 -0.13942 0.44965 0.48321 -0.35276 0.25337 -0.36834 -0.11401 -0.69275 -0.14785 -0.72834 0.53169 -0.71617 0.30135 -0.20248 -0.63185 -0.4068 0.40163 -0.04901 -0.67906 0.16496 -0.12116 0.37425 -0.28044 -0.44348 0.023297 -0.20551 0.03646 -0.031287 -0.023334 0.50552 0.30218 0.49554 0.51714 -0.1477 -0.051884 -0.13133 -0.24763 -0.9721 0.32878 0.78948 -0.59897 0.26862 -0.38969 -0.25035 -0.2979 0.24556 0.028919 -0.43972 0.032371 -0.37874 0.74532 -0.50833 0.4552 0.1263 -2.5828 -0.22672 -0.21298 -0.078093 0.34206 -0.16033 0.007665 -0.17736 0.25273 -0.15763 0.037111 -0.12096 0.42838 -0.084211 -0.28694 0.12535 0.60281 -0.51094 0.072672 -0.19619 -0.24406 -0.56855 0.422 -0.23417 0.095974 0.25103 0.10876 -0.36112 0.24301 -0.015542 0.34255 0.68304 0.18697 0.60239 -0.081215 -0.35204 0.53005 1.0212 0.1968 0.040188 -0.31665 -1.0027 -0.63567 -0.028619 -0.28091 -0.31746 0.30432 0.43024
institution -0.2105 -0.19041 0.41165 0.54156 0.038294 0.45746 0.62436 0.15022 0.50574 0.36077 -0.097457 0.09224 -1.1727 0.024737 0.87001 0.47492 0.42956 -0.37205 -0.1255 -0.37907 0.36203 0.19124 0.02898 -0.15641 -0.12158 0.90746 0.2634 -0.31739 -0.32707 -0.0057123 0.043281 -0.34057 0.41706 -0.11578 0.31229 -0.17066 -0.18026 -0.209 0.60953 -0.16866 0.85386 -0.063973 0.30594 -0.34626 0.09456 0.39209 -0.062265 -0.0016852 -0.055487 0.04802 0.19084 0.23298 0.084943 -0.41648 -0.35383 0.098244 0.09786 -0.50465 -0.10143 0.3395 0.12725 0.52749 -0.065724 -0.21687 0.0024535 0.65315 0.57566 0.32497 -0.49538 0.67912 -0.060915 -0.0016145 0.83055 0.44313 0.13044 -0.49448 0.084437 0.26903 -0.26003 0.68195 0.058949 0.47753 0.26157 -0.33789 0.036399 -0.25072 0.12458 0.33431 0.18789 0.017392 0.13834 0.24706 0.41685 0.20946 -0.081654 0.08507 0.27816 -0.29751 0.13295 -0.45435 0.51978 -0.29894 -0.79813 -0.23525 0.1665 -0.89841 0.017598 -0.75896 -0.19019 -0.32157 0.27027 -0.19932 -0.66235 -0.58509 0.21374 0.038903 0.096767 0.4018 -0.37428 0.61408 0.33565 0.20447 -0.30025 0.24715 -0.050338 -0.15179 -0.168 -0.19918 0.048223 0.42219 0.12445 0.23725 0.38497 0.53461 -0.10483 -0.12924 -0.24265 0.043146 0.26066 -0.87562 0.73444 0.054751 -0.24231 0.21801 0.11676 0.32072 -0.03771 -0.068938 -0.18969 0.11936 -0.038545 0.39045 -0.87326 0.56917 0.49001 -0.11257 0.38284 0.17094 -0.6627 0.4795 -0.26685 -0.096933 0.24782 0.0098618 0.38437 0.20144 -0.37056 0.25895 0.69971 -0.19076 0.73774 -0.5539 -0.14451 0.0065134 -0.035716 -0.10328 0.42047 0.032625 0.099189 -0.074951 -0.51014 0.30153 0.078426 -0.017068 -0.51365 -0.13234 0.021224 -0.22962 0.07152 0.41276 0.32489 -0.22225 0.90749 -0.26584 0.59134 -0.35506 1.0925 0.24307 -0.26661 -0.54152
