437 300
plane 0.24804688 -0.23339844 -0.15234375 -0.15039062 -0.03515625 -0.39257812 -0.25585938 -0.32226562 0.41601562 -0.14746094 0.31835938 -0.43164062 0.100097656 -0.16992188 -0.07373047 0.484375 -0.041015625 0.14160156 0.08105469 -0.083496094 0.03857422 0.032958984 0.06591797 -0.2265625 0.13085938 -0.15820312 -0.20703125 0.15917969 0.22558594 -0.15136719 -0.30859375 -0.16503906 -0.30078125 -0.24511719 -0.12695312 -0.16699219 -0.20410156 0.2109375 -0.10546875 0.31054688 0.14453125 0.029541016 0.27539062 -0.08984375 0.114746094 -0.31835938 0.07763672 -0.030517578 0.34960938 -0.0055236816 -0.109375 0.16894531 0.40820312 -0.1484375 -0.15234375 -0.2265625 -0.013671875 0.07324219 0.203125 0.004486084 0.375 -0.18066406 -0.115722656 0.20703125 0.13378906 0.010131836 0.06347656 0.052734375 0.028930664 0.07421875 -0.22363281 -0.25195312 -0.19921875 0.045654297 -0.37890625 0.11376953 0.14746094 -0.26171875 0.029174805 -0.017944336 0.036865234 0.17871094 0.12597656 -0.16308594 -0.107421875 -0.42578125 -0.12207031 -0.13378906 0.3671875 0.122558594 0.02734375 0.072753906 -0.18945312 -0.040039062 0.21777344 -0.25585938 0.0703125 -0.06542969 0.030517578 -0.39257812 0.041992188 -0.23535156 0.10986328 0.18847656 0.30859375 0.119140625 0.24609375 0.041259766 0.40039062 -0.035888672 -0.3515625 -0.013183594 -0.11230469 -0.03540039 -0.2109375 -0.028808594 0.084472656 0.38476562 -0.11669922 0.064941406 -0.16796875 -0.09375 0.22558594 -0.15625 -0.114746094 -0.0029144287 -0.25976562 -0.25195312 -0.049804688 0.18945312 0.17285156 0.041503906 -0.20019531 0.0025787354 0.12207031 -0.10546875 0.064941406 -0.29492188 0.08300781 0.21191406 -0.19433594 -0.19042969 -0.06689453 -0.03466797 0.21191406 -0.041259766 -0.24121094 -0.1953125 0.040771484 -0.34375 0.20019531 0.0051879883 0.052246094 0.083496094 -0.13769531 -0.24804688 0.06689453 -0.08154297 -0.056640625 0.092285156 -0.07861328 0.123535156 0.20898438 -0.115234375 -0.053466797 -0.023925781 0.10253906 -0.087890625 0.118652344 -0.21386719 -0.09667969 -0.080078125 -0.072753906 -0.08984375 0.06591797 -0.10107422 -0.08154297 -0.19238281 -0.17089844 -0.03149414 -0.14648438 -0.22753906 -0.14355469 -0.140625 0.30664062 0.061035156 -0.053466797 0.21191406 -0.31640625 -0.055419922 0.14453125 0.43945312 -0.079589844 0.328125 -0.06982422 0.27929688 -0.15136719 -0.296875 -0.03112793 -0.23339844 0.002960205 0.030517578 -0.33398438 -0.20605469 0.125 -0.018676758 0.20996094 0.24316406 -0.05834961 -0.06347656 -0.05419922 -0.022216797 0.022460938 0.021362305 -0.35546875 0.0859375 0.025634766 0.5703125 -0.10107422 0.019042969 -0.29101562 -0.07324219 0.080566406 0.22949219 0.29296875 -0.04272461 -0.0065612793 0.26367188 -0.29882812 0.10546875 0.14453125 -0.07324219 -0.25195312 -0.28320312 -0.04736328 0.095703125 -0.13867188 0.095214844 0.044433594 -0.12890625 0.125 0.059326172 -0.28515625 -0.31835938 0.05493164 -0.095214844 -0.1796875 -0.14355469 0.02746582 -0.032226562 -0.051757812 -0.05834961 -0.12792969 -0.09472656 -0.012939453 -0.079589844 0.03881836 0.171875 0.09716797 -0.35742188 0.025390625 0.18847656 -0.125 0.13476562 0.11376953 0.064941406 -0.13574219 -0.125 -0.3359375 0.13867188 -0.06591797 -0.028320312 0.18457031 -0.001953125 -0.07128906 -0.03491211 0.01586914 -0.011413574 -0.44140625 -0.19628906 -0.060058594 -0.25585938 -0.14257812 -0.09472656 0.29882812 -0.071777344 -0.19433594 0.34375 -0.15917969 -0.09375 -0.18164062 -0.25390625 0.15625 0.02734375 0.25195312 -0.09033203 -0.2734375 0.035888672 0.083496094 -0.2890625
stupid 0.16210938 -0.072753906 0.15820312 0.25195312 -0.22851562 0.025756836 0.23925781 0.080078125 0.22753906 0.15527344 0.111816406 -0.15039062 -0.17089844 -0.018066406 -0.20019531 0.05444336 0.04296875 0.09667969 -0.0625 -0.10595703 0.16308594 -0.024902344 0.18847656 0.061279297 0.18261719 0.06640625 0.028320312 0.056396484 0.20703125 -0.060546875 -0.027954102 0.1796875 0.09423828 -0.092285156 0.15917969 -0.095703125 0.17871094 0.06640625 -0.057617188 0.140625 0.25585938 -0.087890625 0.48828125 -0.28125 0.088378906 -0.09423828 -0.08496094 -0.14746094 -0.20214844 0.021972656 -0.39453125 0.021972656 0.12597656 -0.07080078 -0.10253906 0.22558594 0.01965332 -0.25 0.053222656 0.0064086914 0.08984375 0.21679688 -0.12158203 -0.15136719 -0.076660156 0.0036315918 -0.068847656 0.16894531 -0.30664062 -0.025390625 0.10498047 -0.029174805 0.028686523 0.035888672 -0.37695312 -0.064941406 -0.049316406 0.27539062 0.20605469 0.18066406 -0.19042969 0.095703125 -0.21777344 -0.010437012 -0.043701172 -0.19726562 -0.1328125 0.32226562 0.087890625 -0.044433594 -0.11621094 0.16308594 -0.18066406 -0.18359375 -0.092285156 -0.033935547 0.13867188 0.076660156 0.17089844 0.091796875 -0.071777344 0.13183594 0.04296875 -0.13183594 0.13769531 0.059814453 -0.036132812 -0.25195312 0.22460938 -0.234375 -0.1484375 -0.24707031 -0.104003906 0.13183594 0.2734375 -0.24316406 0.18554688 -0.024414062 0.07373047 -0.05859375 -0.21582031 0.080566406 -0.068359375 0.071777344 -0.056640625 -0.31835938 -0.19238281 0.16601562 0.21679688 -0.20898438 -0.43359375 -0.26757812 -0.032714844 0.15625 -0.05078125 0.0011291504 -0.083496094 0.15820312 -0.06542969 4.7683716E-4 0.33398438 -0.13964844 0.23144531 0.080078125 -0.016113281 0.045654297 -0.14453125 -0.078125 0.115722656 -0.24707031 0.16308594 0.049804688 -0.0138549805 -0.091308594 -0.061279297 0.053222656 -0.033447266 -0.08935547 -0.07324219 0.048583984 -0.11767578 0.2109375 0.20507812 -0.10498047 0.048339844 -0.20214844 0.31835938 -0.21875 0.12109375 0.001953125 -0.026489258 -0.0390625 0.026977539 0.052490234 -0.140625 0.10498047 0.06347656 -0.06982422 0.00982666 0.08935547 0.21484375 -0.19238281 -0.15039062 0.20019531 0.06542969 0.21777344 -0.16699219 0.13964844 0.013427734 0.056396484 0.11328125 0.13671875 -0.0040893555 0.08984375 -0.033935547 0.13769531 -0.07910156 -0.1328125 -0.20019531 -0.043945312 -0.18066406 0.06689453 0.071777344 0.015625 -0.013366699 -0.063964844 -0.06542969 0.022705078 -0.41992188 -0.047851562 0.08691406 0.123046875 0.22558594 -0.018798828 -0.045654297 0.11816406 0.18359375 -0.11376953 -0.125 0.18066406 -0.16894531 0.06591797 0.055419922 -0.048583984 0.23925781 -0.080566406 0.34765625 -0.18554688 -0.17480469 0.06933594 0.19238281 0.07421875 0.01373291 0.0625 0.21484375 -0.0075683594 0.092285156 0.10546875 0.25390625 -0.060058594 0.22167969 0.18847656 -0.049072266 -0.010559082 -0.1953125 0.09423828 -0.15136719 0.072265625 -0.13476562 -0.13964844 -0.034423828 0.12011719 0.07714844 0.30664062 0.080566406 -0.18652344 -0.06542969 -0.040283203 0.125 -0.43359375 -7.247925E-5 0.12695312 0.12792969 -0.05419922 -0.07421875 -0.052490234 -0.07470703 -0.12011719 -0.088378906 0.0064697266 -0.08691406 0.14648438 0.29101562 0.16796875 -0.080566406 -0.1171875 -0.006439209 0.13378906 -0.111328125 0.28515625 0.19628906 0.017089844 -0.009338379 0.030151367 -0.23339844 0.006011963 0.012145996 -0.12109375 0.024780273 -0.2109375 0.15527344 0.33984375 -0.19628906 0.051757812 -0.38476562 -0.012329102 0.079589844 -0.111328125 -0.12011719 0.06542969
egg -0.34960938 0.076171875 0.095214844 0.068359375 -0.05419922 0.02368164 0.21191406 -0.10449219 -0.068359375 0.234375 -0.27148438 -0.18554688 -0.0390625 -0.29296875 -0.45117188 0.13476562 -0.20605469 0.057617188 -0.35742188 0.072265625 0.2734375 -0.07714844 0.15234375 0.10888672 -0.057128906 -0.015625 0.024169922 0.028198242 0.09716797 0.035888672 -0.0022888184 -0.33007812 0.25195312 -0.075683594 -0.059570312 0.31835938 0.13183594 0.08935547 0.29882812 0.44140625 0.26953125 -0.22363281 -0.07421875 -9.3460083E-4 -0.010009766 0.01928711 -0.0016174316 0.078125 0.19628906 -0.078125 -0.20605469 0.063964844 -0.060546875 0.28515625 -0.20703125 -0.045410156 0.18945312 -0.25585938 0.13378906 0.04663086 -0.23730469 -0.115234375 -0.30078125 0.03930664 -0.05102539 -0.38671875 -0.15820312 -0.265625 0.25585938 0.15136719 0.25585938 -0.0546875 0.083496094 -0.28515625 -0.04321289 -0.019165039 -0.1640625 -0.18164062 0.13769531 -0.26953125 0.028930664 -0.30273438 0.11376953 -0.0154418945 0.025878906 -0.07128906 0.080566406 -0.0027923584 0.32226562 -0.15625 -0.17871094 -0.14453125 -0.22363281 -0.43359375 -0.30273438 -0.16210938 0.12109375 -0.16894531 0.106933594 -0.07763672 0.19824219 -0.16796875 -0.11621094 -0.09277344 -0.11816406 -0.28710938 0.3515625 0.12988281 -0.087890625 -0.10644531 -0.29492188 -0.18847656 0.11669922 0.12109375 0.013916016 0.103027344 0.13378906 -0.27148438 -0.09326172 0.072753906 -0.053466797 -0.036865234 0.140625 -0.03515625 -0.11425781 -0.10205078 0.13378906 0.296875 0.15136719 0.3515625 -0.21386719 0.030517578 -0.32421875 0.14160156 -0.076171875 0.048583984 -0.04638672 -0.12792969 6.4849854E-4 -0.09716797 -0.078125 -0.23535156 -0.12402344 0.21777344 0.14746094 0.033691406 0.16894531 -0.099121094 -0.33007812 0.22070312 -0.083984375 -0.11621094 -0.25195312 0.22265625 0.21777344 -0.23046875 -0.24804688 -0.06933594 -0.045654297 0.025878906 -0.24023438 -0.35546875 0.3125 -0.083496094 0.0146484375 -0.25390625 -0.05078125 0.013305664 -0.15625 0.11328125 -0.013977051 -0.037597656 -0.16015625 0.23632812 -0.08300781 -0.16503906 0.10253906 0.072265625 0.18066406 0.40820312 -0.12597656 -0.27539062 -0.12109375 -0.12695312 0.05810547 0.100097656 -0.21875 -0.04321289 -0.23828125 0.44921875 -0.20019531 0.04663086 0.2109375 -0.100097656 -0.025512695 0.24804688 -0.31640625 -0.076660156 -0.22753906 -0.09033203 0.2578125 -0.06640625 -0.26171875 -0.27734375 -0.02331543 -0.052734375 0.03564453 0.021728516 0.36328125 -0.18847656 -0.40820312 0.30664062 -0.055419922 -0.18261719 0.08105469 -0.171875 0.17382812 -0.11669922 0.5234375 -0.0037078857 0.043701172 -0.10498047 0.28125 0.044921875 0.2578125 -0.20214844 0.25585938 0.18359375 0.016845703 0.052978516 0.3203125 -0.06933594 0.0064697266 -0.07910156 -0.14550781 -0.49414062 0.33203125 -0.13085938 0.014831543 0.16015625 -0.09277344 0.13183594 0.08203125 -0.17773438 -0.20898438 -0.22167969 -0.1875 0.203125 0.04248047 -0.07080078 -0.095703125 -0.092285156 0.30664062 -0.041259766 -0.087890625 0.087890625 0.06738281 0.119628906 -0.031982422 -0.15820312 -0.07421875 0.10839844 -0.33007812 0.07519531 -0.072265625 0.24707031 -0.12109375 -0.03173828 -0.20898438 -0.12060547 -0.14453125 0.15136719 0.13867188 -0.20507812 -0.11376953 0.014221191 -0.017578125 0.06225586 0.060302734 -0.14453125 -0.12158203 0.04638672 0.21191406 -0.16992188 -0.099121094 -0.29101562 -0.008117676 0.17773438 0.30273438 0.43945312 -0.15039062 0.059814453 -0.31640625 0.023925781 0.12597656 -0.0234375 0.046142578 0.08935547 -0.21289062 0.11816406
year 0.061767578 0.2578125 0.0036773682 0.14550781 -0.037353516 -0.12011719 0.18847656 -0.15429688 0.21386719 0.17285156 0.05419922 0.021850586 0.005340576 -0.10253906 -0.0051574707 -0.0033569336 -0.046142578 -0.083496094 -0.16796875 -0.02734375 -0.009399414 -0.004486084 -0.12207031 -0.21972656 0.026489258 -0.0043945312 0.09716797 0.084472656 0.08154297 0.114746094 0.060546875 -0.15136719 0.076171875 -0.0065307617 0.10107422 0.08886719 -0.21777344 -0.21777344 -0.10058594 0.091796875 0.12792969 -0.044189453 0.07470703 0.18164062 -0.03125 -0.13671875 0.18164062 0.20800781 -5.493164E-4 -0.03149414 -0.024291992 -0.20117188 -0.1328125 -0.16113281 2.822876E-4 0.099121094 0.03149414 0.05883789 -0.033935547 -0.049804688 -0.16601562 0.079589844 0.09033203 -0.012023926 0.100097656 0.22558594 0.1796875 -0.015258789 0.20019531 0.026611328 0.057128906 -0.013793945 -0.017211914 0.20410156 0.1171875 0.04736328 0.09667969 0.10107422 0.22949219 0.08935547 0.099609375 -0.22851562 -0.07910156 0.19921875 -0.05517578 -0.06201172 -0.13867188 0.008117676 0.018066406 0.07080078 0.21875 0.15820312 -0.26171875 -0.24511719 -0.28320312 -0.16015625 0.014404297 0.18945312 0.07714844 -0.059326172 0.013671875 -0.025024414 -0.15039062 0.026855469 -0.18261719 -0.25585938 -0.104003906 -0.044189453 -0.140625 -0.03930664 -0.03466797 0.039794922 0.10449219 0.02722168 0.08105469 -0.043701172 0.028076172 -0.06542969 0.049804688 0.03540039 -0.024902344 -0.023803711 -0.10449219 -0.11328125 0.19335938 -0.020996094 0.24804688 -0.027832031 0.060302734 0.023925781 -0.1484375 -0.1328125 -0.06225586 -0.09863281 -0.16210938 0.004638672 -0.049072266 0.08886719 -0.10595703 0.10253906 0.061767578 -0.060546875 -0.0099487305 0.118652344 -0.013122559 0.10058594 0.056640625 -0.05834961 -0.122558594 -0.1640625 0.01586914 0.032226562 0.0034332275 0.060302734 0.08154297 -0.0014724731 -0.008056641 -0.14550781 0.047851562 -0.06591797 0.14257812 0.19726562 0.15625 -0.00970459 0.109375 0.040039062 0.07128906 -0.20019531 0.109375 -0.10107422 -0.02355957 -0.033691406 -0.040039062 -0.30859375 -0.0032958984 0.0119018555 0.12792969 0.10644531 -0.019165039 0.09277344 -0.1640625 -0.05078125 9.0408325E-4 0.035888672 0.100097656 0.024414062 0.047851562 0.019897461 0.19335938 -0.20019531 0.15722656 -0.01171875 0.016479492 -0.0027770996 -0.13769531 0.19335938 0.12890625 0.014160156 -0.15527344 0.010864258 -0.119628906 0.033935547 0.018432617 0.083496094 0.033691406 -0.14648438 -0.047607422 -0.019897461 -0.007080078 0.005859375 0.140625 -0.011962891 0.00390625 0.01940918 -0.19238281 -0.047607422 0.02368164 -0.10253906 -0.030029297 0.09716797 -0.08642578 0.092285156 0.18652344 -0.008056641 0.051513672 -0.20507812 0.04296875 -0.076660156 -0.0012741089 -0.12792969 -0.0234375 0.032226562 -0.064941406 0.1953125 -0.22949219 0.0625 -0.05102539 -0.15917969 -0.007080078 0.07421875 0.040039062 0.08203125 0.006286621 -0.13769531 -0.20410156 -0.13574219 0.07324219 -0.036376953 0.0035095215 0.07373047 -0.010803223 -0.087890625 -0.013305664 0.1015625 0.067871094 0.14453125 0.10107422 0.07373047 -0.09277344 -0.018188477 0.14550781 0.05053711 -0.050048828 -0.01574707 0.20214844 0.11328125 -0.04321289 0.14160156 -0.011047363 0.109375 0.22851562 -0.12988281 0.20800781 0.016845703 -0.0025024414 0.0154418945 -0.09423828 -0.064453125 -0.075683594 -0.19921875 -0.06982422 0.018188477 -0.15136719 0.09082031 0.15625 -0.15722656 -0.111816406 0.068359375 0.14160156 0.083496094 -0.03173828 0.056396484 -0.15625 -0.14648438 0.007873535 -0.13378906 -0.04663086 0.111816406 0.072753906 -0.17480469
psychiatry -0.23339844 0.072265625 -0.005340576 0.25976562 0.23046875 0.31835938 0.091796875 -0.34765625 0.08984375 -0.21777344 0.09472656 -0.034179688 0.18261719 0.49804688 -0.3828125 0.32226562 0.23632812 0.33789062 0.34375 -0.23730469 0.25195312 -0.06201172 0.29296875 0.00289917 -0.04321289 -0.11328125 -0.11376953 0.23730469 -0.27734375 -0.14648438 -0.13769531 0.068359375 -0.32226562 0.21777344 -0.022094727 -0.32421875 0.29101562 0.5625 -0.11376953 -0.08154297 0.23046875 0.15820312 -0.22070312 -0.20507812 -0.068847656 0.10986328 0.115234375 -0.11669922 -0.041503906 0.26953125 -0.052001953 0.048095703 -0.421875 -0.08300781 0.048339844 -0.06347656 -0.21386719 0.03466797 -0.12695312 -0.43359375 -0.22753906 0.29101562 0.40234375 -0.06640625 0.13378906 0.171875 -0.0134887695 0.52734375 -0.36328125 -0.29296875 -0.16503906 -0.04296875 0.12451172 0.027709961 -0.14648438 -0.2578125 -0.18847656 -0.024169922 0.111816406 0.036865234 -0.041503906 0.3515625 -0.09667969 -0.08203125 0.20507812 0.015625 0.31640625 0.052001953 -0.30078125 -0.17871094 0.03491211 0.048828125 -0.036132812 0.08984375 0.09472656 0.140625 0.62109375 0.10498047 0.087402344 0.13769531 0.265625 -0.20507812 -0.05834961 -0.10205078 0.5703125 -0.041748047 -0.037597656 0.05102539 0.13867188 -0.02722168 -0.24707031 -0.25390625 0.13476562 -0.265625 0.25585938 -0.125 -0.22363281 0.032226562 0.6796875 -0.033935547 -0.13378906 0.07861328 0.04638672 0.17773438 -0.09277344 0.03466797 -0.19335938 -0.08496094 -0.08544922 0.10888672 -0.0099487305 -0.43554688 -0.006134033 -0.16699219 -0.19824219 -0.06542969 0.03491211 0.014709473 0.22753906 0.18554688 0.2734375 -0.25976562 -0.067871094 0.063964844 -0.10644531 0.091796875 0.19140625 0.43164062 -0.5390625 4.005432E-4 0.49609375 0.08886719 -0.19628906 0.01977539 0.16210938 -0.22851562 0.060791016 -0.23144531 0.3125 -0.44726562 0.16113281 -0.07421875 0.13476562 0.037109375 0.15917969 0.14453125 0.057861328 -0.26171875 -0.111328125 -0.29882812 0.47070312 0.020263672 -0.17773438 0.15527344 0.0019989014 0.056396484 0.044677734 -0.06542969 -0.021850586 -0.15429688 0.18945312 0.33007812 -0.26367188 -0.16113281 -0.10449219 -0.107421875 -0.05126953 0.0066833496 -0.09716797 -0.13574219 0.29296875 -0.0087890625 -0.265625 -0.064453125 0.068847656 0.01953125 0.03540039 -0.115234375 -0.10253906 0.18164062 -0.18164062 -0.13671875 0.16113281 -0.234375 -0.118652344 -0.08154297 0.625 0.024902344 -0.118652344 0.076171875 -0.390625 -0.25 -0.006500244 -0.072265625 0.050048828 -0.13574219 -0.064941406 -0.09375 -0.08886719 -0.22949219 -0.19628906 0.064941406 0.29296875 -0.06689453 0.2578125 -0.359375 0.29296875 -0.32617188 -0.41015625 0.11279297 -0.16894531 -0.03564453 -0.31054688 -0.064453125 -0.30078125 0.125 0.33984375 0.03564453 0.08544922 -0.111328125 0.11425781 -0.4453125 0.265625 -0.048095703 -0.37695312 0.12988281 -0.1484375 0.12011719 -0.20507812 0.030273438 -0.3046875 -0.45507812 0.29882812 0.18847656 -0.09765625 0.16992188 -0.24609375 -0.16015625 -0.087890625 -0.048095703 -0.07519531 -0.35351562 -0.07128906 0.00982666 -0.15136719 -0.34570312 0.028564453 -0.27929688 -0.39648438 0.16308594 -0.079589844 -0.059814453 0.32617188 0.0625 0.04638672 -0.029296875 -0.008972168 0.012145996 -0.09472656 0.171875 0.13378906 0.029907227 -0.060546875 0.019165039 0.22363281 -0.22558594 0.24804688 -0.21875 0.27539062 -0.115234375 -0.26171875 -0.12402344 -0.43164062 0.36914062 -0.07421875 -0.24316406 -0.10839844 -0.040771484 0.48828125 0.24023438
asylum -0.44726562 0.18066406 0.34179688 0.018798828 -0.030639648 0.12011719 -0.067871094 -0.14453125 -0.008850098 0.045166016 0.39453125 -0.1328125 0.15429688 0.27734375 0.14648438 -0.28515625 0.23144531 0.3828125 -0.1640625 -0.21289062 0.22460938 0.28125 0.46679688 0.0034484863 0.18261719 -0.34570312 0.02722168 0.21386719 -0.020385742 -0.123046875 0.13867188 -0.08984375 -0.076660156 0.40625 -0.22949219 -0.14550781 -0.29101562 -0.053710938 -0.106933594 0.119628906 -0.056640625 -0.23339844 0.37304688 0.21484375 -0.15039062 0.18261719 -0.4140625 0.23925781 0.024780273 0.12695312 -0.043701172 -0.035888672 -0.096191406 0.059326172 -0.35351562 -0.6796875 -0.51171875 0.19726562 -0.44921875 -0.11669922 0.4375 8.506775E-4 0.25585938 -0.34375 0.055664062 -0.14941406 0.13476562 -0.023803711 0.017456055 -0.072265625 -0.14160156 0.1171875 0.34570312 0.025878906 -0.29492188 -0.1875 0.3671875 0.021972656 0.22949219 0.12988281 -0.107910156 0.14160156 0.071777344 0.05810547 0.017944336 0.03540039 0.14453125 -0.0048828125 -0.099609375 -0.46484375 0.40039062 -0.2109375 -0.48046875 0.015319824 0.51171875 0.13671875 0.20898438 -0.234375 0.5546875 -0.40234375 0.21875 0.18554688 -0.028076172 -0.00982666 0.025512695 -0.20996094 -0.051513672 -0.22070312 0.107910156 -0.018432617 0.064941406 0.107421875 0.33984375 0.4921875 -0.42382812 -0.30273438 0.15039062 -0.055908203 0.55078125 0.26367188 -0.3125 0.10644531 0.025024414 0.19140625 -0.13183594 -0.33398438 -0.11035156 0.07128906 -0.22460938 -0.21972656 0.61328125 -0.2109375 -0.29296875 -0.19140625 -0.30078125 -0.07373047 -0.30859375 -0.008728027 0.37304688 0.45898438 -0.22460938 0.20117188 0.09033203 0.33984375 -0.057373047 0.40625 -0.17773438 0.1171875 -0.50390625 0.19238281 0.34375 -0.27929688 0.16503906 0.057861328 0.071777344 -0.36132812 -0.16210938 0.16113281 0.21484375 -0.4375 -0.32617188 0.013671875 0.13769531 -9.1934204E-4 -0.23730469 0.015319824 -0.17089844 -0.25195312 -0.14257812 0.49804688 0.31054688 0.012084961 -0.3203125 -0.19628906 -0.31054688 0.30859375 -0.011474609 0.0013809204 0.009460449 -0.18945312 -0.5234375 -0.38476562 -0.125 -0.47851562 0.51953125 -0.06982422 0.10644531 -0.09375 0.051757812 -0.27734375 0.044433594 0.099609375 0.09667969 -0.0028686523 0.43945312 0.2734375 -0.15722656 -0.26367188 -0.6953125 0.0390625 0.23242188 0.0046081543 -0.016113281 0.16601562 0.106933594 -0.24902344 0.20214844 0.087890625 0.07519531 0.23046875 0.2109375 0.31640625 0.35742188 -0.30273438 -0.20019531 -0.18261719 -0.14257812 0.2109375 -0.049072266 -0.10839844 -0.45703125 0.37109375 -0.25585938 0.10595703 -0.071777344 -0.29101562 0.15136719 0.52734375 -0.37304688 0.17089844 0.11425781 -0.09423828 -0.12060547 -0.18359375 0.18261719 -0.15820312 0.34960938 0.0069885254 -0.15625 -0.19335938 0.13378906 0.099121094 -0.16210938 0.05517578 0.092285156 0.114746094 -0.13476562 -0.34960938 -0.15429688 -0.30273438 0.3125 -0.2109375 -0.017333984 0.83984375 0.029174805 0.16796875 0.1640625 0.088378906 0.22851562 -0.05053711 0.064453125 0.140625 -0.22070312 0.22753906 0.11425781 -0.07373047 -0.25 -0.08105469 -0.32617188 -0.265625 0.024047852 0.36328125 0.37304688 -0.12695312 -0.26171875 0.13574219 -0.35546875 -0.26367188 -0.00793457 0.03491211 -0.02722168 -0.1484375 -0.22851562 0.16601562 -0.076171875 -0.15332031 0.265625 0.14160156 -0.1640625 0.033691406 -0.20996094 0.15820312 -0.08935547 -0.20703125 0.296875 0.6796875 0.20996094 0.021850586 0.26757812 0.28710938
manslaughter 0.080078125 -0.25390625 0.44335938 -0.25390625 0.0703125 -0.06982422 0.48046875 -0.37304688 0.23242188 0.0058288574 0.33789062 0.01940918 -0.07763672 0.036376953 -0.076660156 -0.043945312 0.14648438 -0.076171875 0.13574219 -0.29296875 0.15820312 -0.36523438 0.06689453 0.09863281 -0.010620117 -0.2734375 -0.0040283203 0.13769531 0.18164062 0.119628906 0.33203125 -0.010375977 -0.20019531 0.15625 0.060058594 0.15234375 0.45507812 -0.19042969 -0.08203125 -0.06982422 -0.20117188 -0.08935547 0.072753906 0.0074768066 -0.047607422 -0.20800781 0.21386719 0.20898438 -0.039794922 0.37304688 0.034423828 0.03881836 -0.31835938 -0.19921875 -0.109375 -0.17578125 -0.028076172 0.34375 -0.62890625 0.19824219 -0.18164062 0.071777344 0.33398438 7.5149536E-4 0.17675781 0.079589844 0.14160156 -0.38085938 -0.49804688 -0.1484375 -0.07861328 -0.12060547 -0.115722656 0.067871094 -0.59765625 -0.15527344 -0.12890625 -0.25195312 0.33203125 -0.16308594 0.25390625 0.0073242188 -0.13769531 -0.109375 -0.014282227 -0.18261719 -0.24707031 0.39257812 0.484375 0.088378906 0.40625 -0.25585938 -0.4375 -0.061279297 0.12011719 0.15917969 0.55859375 -0.1875 0.024536133 -0.16601562 0.14355469 -0.33789062 0.4765625 -0.18261719 0.18847656 -0.14550781 -0.19042969 0.41210938 0.13769531 -0.34570312 0.015014648 0.15234375 -0.14648438 0.14160156 -0.0859375 -0.3984375 0.08984375 -0.20117188 -0.36523438 0.18164062 -0.01940918 0.16015625 -0.5625 -0.02734375 0.28320312 -0.4765625 0.100097656 -0.35546875 0.23046875 -0.080078125 -0.021728516 0.020141602 -0.22167969 -0.025512695 0.02758789 0.29101562 0.044677734 0.0015182495 -0.13476562 0.19726562 -0.27734375 0.4453125 -0.140625 -0.0014266968 -0.26367188 -0.20605469 -0.640625 0.33789062 -0.14453125 -0.10644531 0.47851562 -0.25 0.38085938 -0.017578125 0.072753906 -0.21386719 -0.07128906 -0.095214844 -0.3359375 -0.30859375 0.16210938 0.095703125 0.34179688 0.13378906 0.26757812 -0.24023438 0.080078125 0.10253906 -0.17285156 -0.13671875 -0.083984375 0.23339844 0.0703125 -0.21484375 -0.16894531 -0.044677734 0.40234375 0.18164062 -0.19042969 -0.12988281 -0.2265625 -0.025878906 -0.44335938 -0.42382812 0.24707031 0.24804688 0.3828125 -0.14355469 0.11669922 -0.103515625 0.23828125 0.099609375 -0.2734375 -0.12597656 0.024047852 0.21972656 0.234375 -0.28125 -0.052734375 0.02734375 0.107421875 -0.024169922 0.0058898926 -0.21679688 0.13964844 0.1640625 -0.006378174 -0.15039062 0.15917969 -0.6875 0.06591797 -0.12207031 0.5 0.55859375 0.002029419 -0.2890625 -0.08642578 -0.46484375 -0.16894531 -0.44140625 0.036865234 -0.008666992 0.15722656 0.32421875 0.103515625 -0.47460938 0.0055236816 0.020751953 -0.111328125 -0.09423828 -0.48632812 -0.375 -0.01361084 0.079589844 -0.014709473 0.029785156 0.052734375 0.08984375 0.31835938 0.16992188 -0.072753906 0.19335938 -0.118652344 -0.58203125 -0.3671875 0.3671875 -0.14648438 0.0099487305 0.20117188 -0.58203125 0.12597656 0.08154297 -0.05859375 0.12207031 0.42578125 0.45703125 0.09375 -0.020629883 -0.25195312 0.06982422 -0.115234375 -0.125 -0.14648438 0.19433594 -0.087402344 0.27148438 0.22851562 0.16015625 -0.052490234 -0.16210938 -0.07910156 -0.14355469 -0.24023438 0.07421875 0.1328125 0.21582031 -0.34765625 0.21875 0.034423828 0.16601562 0.020629883 -0.14257812 0.009033203 -0.025634766 -0.21875 0.032958984 0.12890625 0.080566406 -0.13769531 0.44726562 0.12695312 -0.3203125 -0.040039062 0.11230469 -0.25976562 0.048095703 0.33203125 -0.40234375 0.22265625 0.087890625
music 0.03881836 -0.21679688 -0.053466797 0.03881836 -0.07714844 0.018310547 -0.08935547 -0.234375 -0.06542969 -0.13769531 0.030151367 -0.22949219 0.09326172 0.04663086 0.01550293 -0.044433594 0.09765625 0.14355469 0.032958984 -0.29882812 -0.013000488 0.24609375 -0.080078125 -0.079589844 -0.06201172 0.13085938 -0.05859375 -0.095214844 -0.00680542 1.0919571E-4 -0.11621094 0.13183594 -0.16503906 0.22949219 0.111816406 -0.25195312 0.1328125 -0.05883789 0.1875 0.064941406 -0.1796875 -0.036376953 -0.10888672 -0.04736328 0.010009766 0.02709961 0.017944336 0.036621094 0.0016098022 0.08496094 0.029907227 -0.023071289 -0.033447266 0.107421875 0.2578125 0.12402344 -0.23046875 0.010314941 -0.1484375 -0.107910156 0.14453125 0.002090454 -0.12988281 -0.08496094 -0.011108398 -0.15234375 -0.16308594 0.17578125 0.063964844 -0.03173828 -0.016113281 -0.09472656 0.064941406 0.111328125 -0.30664062 0.04663086 0.038330078 -0.0625 0.024536133 -0.1875 -0.10546875 -0.07763672 0.27929688 -0.0056152344 -0.17382812 -2.2983551E-4 -0.23632812 0.25976562 -0.22851562 0.16601562 -0.22949219 -0.1328125 0.009887695 -0.15820312 -0.13964844 -0.03955078 0.26171875 0.083984375 -0.10839844 -0.3046875 -0.075683594 0.30273438 -0.0017623901 0.123046875 -0.1484375 0.23535156 0.34765625 -0.122558594 0.004547119 -0.328125 -0.18945312 0.2109375 0.041015625 -0.15722656 0.123046875 0.25390625 -0.057617188 -0.06201172 0.024536133 0.0154418945 -0.0010528564 -0.047607422 -0.087890625 0.087402344 0.0047302246 -0.08154297 -0.15625 -0.15332031 -0.22070312 -0.22753906 -0.049560547 -0.055908203 0.12011719 0.060058594 0.076171875 0.31835938 0.03540039 0.008666992 -0.02368164 0.012878418 0.15625 -0.11376953 -0.25 0.21679688 -0.067871094 -0.09423828 0.6015625 0.18261719 -0.29882812 0.03881836 0.15527344 0.24609375 -0.09277344 0.19433594 -0.18359375 -0.10058594 0.019042969 -0.09814453 -0.29296875 -0.28320312 -0.26367188 0.15039062 -0.19433594 0.41601562 0.07910156 0.005004883 0.08544922 -0.14648438 -0.08642578 -0.20507812 -0.0053710938 0.07910156 0.20605469 -0.125 -0.0703125 -0.01171875 0.099121094 -0.15234375 -0.14355469 0.1171875 -0.021972656 -0.012451172 -0.103027344 -0.12158203 0.17285156 0.16210938 -0.011657715 -0.03173828 0.23144531 0.09863281 0.103515625 0.06982422 -0.095214844 -0.049072266 0.0057678223 0.0390625 0.002746582 0.0035552979 -0.20898438 0.024902344 0.049804688 -0.07470703 0.029174805 -0.1953125 0.044677734 -0.18945312 0.15234375 -0.02722168 -0.20898438 0.096191406 -0.10107422 0.21972656 -0.06347656 -0.022705078 0.02734375 -0.18847656 -0.0099487305 -0.053710938 -0.19921875 -0.28320312 -0.08105469 0.067871094 0.09326172 -0.107421875 0.04663086 0.18359375 -0.12695312 -0.23730469 0.084472656 0.063964844 -0.1484375 -0.18945312 -0.4453125 0.15722656 0.3046875 -0.044433594 0.07470703 -0.21289062 0.043945312 0.15917969 0.13867188 -0.19140625 -0.064941406 -0.15429688 -0.0051574707 -0.15820312 0.16210938 0.12109375 0.10205078 -0.06982422 0.23144531 0.1953125 -0.17675781 0.12158203 0.13769531 0.05419922 0.08544922 -0.07861328 0.060546875 -0.083984375 -0.040283203 0.0019836426 0.12695312 -0.06201172 -0.25976562 0.26953125 -0.13769531 0.068359375 -0.20019531 -0.20019531 0.010070801 -0.16210938 0.08105469 0.16894531 0.25976562 -0.034423828 -0.07519531 -0.047607422 -0.099609375 -0.025268555 -0.1796875 0.07910156 -0.04345703 0.016357422 -0.013000488 -0.038085938 0.27539062 0.033691406 0.20019531 0.44140625 -0.15136719 0.0087890625 -0.25976562 -0.14453125 0.12109375 0.07421875 0.23339844 -0.09082031 0.16113281 0.12792969
record 0.053955078 0.15820312 0.104003906 -2.89917E-4 0.053222656 -0.08642578 -0.19824219 -0.07470703 0.2890625 0.111816406 -0.18652344 -0.095214844 0.17773438 -0.16210938 -0.03564453 0.036865234 0.0034942627 -0.051513672 -0.15527344 -0.31835938 -0.008972168 0.18945312 -0.067871094 -0.09472656 0.11230469 -0.109375 -0.007873535 0.23242188 -0.23828125 0.1640625 0.16210938 -0.07324219 -0.14160156 -0.22949219 -0.16894531 0.17382812 -0.22753906 -0.125 0.21191406 0.26367188 0.31835938 0.11376953 -0.12890625 0.25976562 0.19140625 0.06689453 0.103027344 0.17578125 -0.041259766 0.045410156 0.18066406 -0.03491211 0.19335938 0.010070801 0.053222656 0.119140625 -0.12109375 -0.08105469 0.13378906 -0.17480469 0.040771484 0.053222656 0.022827148 -0.22363281 -0.22070312 0.15917969 0.021118164 0.07128906 -0.033691406 0.033447266 0.10253906 -0.06298828 0.35351562 0.22460938 -0.23828125 0.025878906 -0.018920898 0.084472656 0.16503906 -0.1796875 -0.052978516 -0.15625 -0.18945312 -0.13378906 0.24804688 -0.11621094 -0.18457031 0.05859375 -0.026733398 0.14746094 -0.036865234 0.23339844 -0.060302734 -0.23535156 -0.056396484 -0.12451172 0.1875 0.14453125 -0.016967773 -0.08691406 -0.083984375 0.045166016 -0.14746094 0.06689453 0.12597656 0.008300781 0.15527344 -0.0625 -0.042236328 -0.068359375 0.3359375 0.12890625 -0.18066406 -0.020141602 0.14453125 0.22363281 -0.11376953 -0.07128906 -0.2578125 0.046142578 -0.018310547 0.12988281 0.33398438 0.21972656 0.03564453 0.0019836426 -0.01586914 -0.107910156 -0.0027618408 0.125 -0.15820312 -0.053222656 0.103027344 -0.20117188 0.03491211 0.17285156 -0.11767578 -0.019042969 -0.15136719 0.022583008 -0.06933594 0.03466797 0.14355469 0.125 -0.13574219 -0.111816406 0.11669922 -0.110839844 -0.04272461 0.28515625 -0.030395508 -0.018798828 -0.17578125 0.08251953 -0.092285156 0.053466797 -0.061279297 0.14355469 0.06738281 -0.17871094 -0.36328125 0.14550781 0.17578125 -0.037597656 -0.119628906 0.041748047 -0.16210938 -0.20410156 0.027954102 0.10107422 0.046142578 -0.15820312 0.15820312 -0.30273438 -0.064453125 -0.37695312 0.005340576 -0.23242188 -0.118652344 -0.091796875 -0.11279297 0.047607422 0.076660156 0.03857422 -0.20410156 -0.12988281 -0.41601562 -0.040039062 -0.10839844 0.17285156 0.16308594 -0.10595703 0.064453125 0.14746094 -0.21679688 0.05029297 0.04736328 0.20410156 -0.22753906 -0.12402344 -0.031982422 0.2265625 0.080078125 -0.041748047 0.12597656 -0.19335938 -0.22460938 -0.014160156 -0.091796875 0.03930664 -0.29101562 -0.0087890625 0.18164062 -0.01940918 -0.15234375 0.053955078 0.16992188 0.017089844 -0.09423828 -0.09863281 -0.050048828 0.26367188 -0.078125 -0.080078125 0.05834961 -0.13574219 -0.079589844 -0.12207031 0.037109375 0.012390137 -0.14648438 0.08984375 -0.26171875 0.020019531 -0.3125 0.17675781 0.125 -0.052246094 0.15332031 0.018066406 0.057128906 -0.056884766 0.009765625 -0.1640625 -0.10253906 0.18847656 -0.013427734 0.1640625 -0.012817383 -0.16894531 -0.12890625 -0.10888672 -0.26171875 0.04296875 -0.07470703 0.061279297 0.25 0.06225586 -0.012512207 -0.029907227 0.3046875 0.13476562 -0.05053711 0.13574219 0.16796875 0.110839844 -0.11230469 0.084472656 0.040771484 -0.15039062 0.111816406 0.075683594 0.18261719 0.20898438 -0.20605469 -0.017578125 -0.08105469 -0.28125 0.14257812 -0.27148438 0.123535156 0.07910156 -0.092285156 0.052490234 -0.19824219 -0.19042969 -0.063964844 0.18261719 0.15527344 0.01586914 0.08154297 0.14160156 -0.20996094 0.119140625 -0.034179688 -0.08691406 0.028076172 -0.07763672 -0.13671875 -0.091308594
energy -0.103515625 0.16113281 0.1171875 -0.25390625 0.008911133 0.008239746 0.103027344 -0.40039062 0.09423828 0.030639648 0.0390625 0.079589844 -0.03955078 -0.064941406 -0.13085938 0.009765625 -0.08544922 0.14160156 0.17285156 0.07910156 0.033447266 -0.08935547 -0.012634277 0.3046875 -0.12060547 0.2890625 -0.12890625 -0.0056152344 0.014526367 -0.111816406 -0.083984375 -0.029541016 -0.09472656 0.10107422 0.05859375 -0.06225586 0.05810547 0.052246094 0.071777344 0.375 -0.060302734 -0.14648438 0.21484375 0.05810547 -0.12890625 -0.00793457 -0.14355469 -0.095214844 -0.1640625 0.17675781 0.09814453 0.15625 -0.01953125 0.16601562 0.068359375 -0.084472656 -0.080566406 -0.26171875 0.10107422 -0.13085938 -0.041748047 -0.15722656 -0.19433594 0.125 -0.004333496 -0.07373047 -0.13769531 0.16503906 -0.19921875 0.05102539 -0.06738281 -0.24511719 0.17773438 -0.21191406 -0.10253906 -0.19433594 0.22070312 0.47460938 -0.203125 -0.15429688 0.203125 0.06542969 -0.14160156 0.022216797 0.19726562 0.072265625 -0.037353516 0.20214844 -0.067871094 -0.04272461 0.0016098022 0.057128906 -0.044189453 -0.055664062 -0.22753906 -0.19824219 -0.11816406 0.15234375 -0.018676758 -0.17382812 0.07861328 -0.21777344 0.13183594 -0.010986328 0.084472656 -0.10546875 -0.23535156 -0.06542969 -0.091308594 -0.06298828 -0.15234375 0.09277344 -0.09326172 0.27929688 -0.018920898 0.30273438 0.1875 -0.068847656 0.10644531 -0.16113281 -0.30664062 -0.22851562 -0.080078125 -0.16210938 -0.265625 -0.1796875 0.06738281 -0.13574219 -0.20800781 -0.026000977 -0.119140625 -0.119140625 -0.022460938 0.09667969 0.05493164 0.26757812 0.068359375 -0.10205078 -0.1640625 0.10205078 0.05810547 -0.19824219 -0.28320312 0.109375 0.036621094 0.08886719 0.14746094 0.19628906 -0.034179688 -0.036621094 -0.013183594 -0.087402344 0.071777344 0.09765625 0.15917969 0.071777344 0.38671875 -0.14453125 -0.016967773 -0.3984375 -0.15820312 0.27539062 0.02734375 0.31835938 0.125 0.25 -0.2734375 0.203125 0.20605469 -0.021484375 -0.24023438 0.09765625 0.07373047 0.07519531 -0.12792969 -0.24511719 0.15820312 -0.122558594 -0.18261719 -0.15820312 -0.265625 -0.15917969 -0.19726562 0.11621094 0.10546875 0.053955078 -0.20605469 0.103027344 0.11376953 0.0026550293 -0.265625 0.055908203 0.06347656 -0.03540039 -0.114746094 0.12109375 -0.15332031 -0.100097656 -0.045898438 -0.22460938 -0.048828125 0.15039062 0.0625 -0.07080078 -0.044433594 -0.06542969 0.079589844 -0.2265625 -0.040771484 0.021240234 -0.44726562 -0.072265625 0.087402344 -0.05419922 0.010375977 0.036621094 -0.01586914 0.10546875 -0.33203125 -0.030273438 0.09423828 -0.17382812 -0.044433594 -0.02331543 -0.17089844 0.08691406 0.06347656 0.010925293 0.22167969 0.15820312 -0.12792969 0.31054688 -0.023925781 -0.045654297 -0.12109375 0.06542969 -0.118652344 -0.060302734 0.14160156 -0.072753906 -0.032958984 0.42382812 0.092285156 0.03564453 0.29882812 -0.016113281 0.2109375 -0.119628906 -0.1328125 0.036376953 -0.17871094 -0.016235352 0.13183594 0.17773438 0.036865234 0.029052734 0.2890625 -0.026489258 -0.111328125 0.020996094 -0.025512695 -0.0703125 -0.17285156 -0.17871094 -0.010437012 0.15917969 -0.140625 -0.10839844 -0.005706787 0.020019531 -0.14941406 -0.08642578 0.14355469 -0.080566406 -0.1484375 -0.080078125 -0.4140625 -0.18457031 -0.00970459 -0.046875 -0.09326172 0.032226562 0.040527344 -0.01574707 -0.14746094 0.022094727 0.03955078 0.0015716553 0.12109375 0.13378906 -0.23730469 -0.1328125 -0.015197754 -0.09326172 -0.07910156 -0.06542969 0.18652344 0.045898438 0.15332031 0.24023438
announcement -0.07470703 -0.15429688 -0.19824219 -0.12060547 0.03515625 -0.25976562 -0.05834961 -0.3046875 0.3828125 0.22167969 -0.1796875 -0.049072266 -0.038330078 -0.26953125 -0.1953125 0.15039062 -0.049316406 0.030883789 0.15136719 -0.02319336 0.096191406 0.27929688 -0.015625 -0.033203125 0.067871094 0.24121094 0.103027344 -0.103027344 -0.2421875 0.09863281 -0.013061523 -0.09375 -0.0018005371 -0.14453125 0.03100586 0.011352539 -0.0032348633 0.20214844 0.026000977 0.005279541 0.12695312 -0.047851562 0.033203125 0.044189453 -0.17871094 -0.13964844 -0.22460938 -9.689331E-4 -0.25195312 -0.0020446777 0.39453125 0.025878906 0.08154297 0.30078125 0.21289062 0.049316406 -0.16210938 -0.103027344 0.19238281 0.041748047 -0.23144531 0.21484375 -0.12451172 0.06738281 -0.19921875 -0.25390625 -0.28320312 0.0045166016 -0.036865234 0.119140625 -0.2109375 -0.12011719 -0.21582031 0.23828125 0.18847656 0.1328125 0.12158203 0.12792969 -0.016357422 0.15039062 0.3828125 -0.20996094 -0.12890625 0.04711914 0.083984375 -0.296875 -0.080566406 -0.08691406 0.09277344 0.16015625 0.23925781 0.018554688 0.05419922 0.10839844 -0.18164062 -0.037841797 -0.01965332 -0.023925781 0.040283203 -0.118652344 -0.056152344 0.036132812 0.11230469 0.010681152 -0.119140625 0.033203125 -0.014282227 -0.15527344 -0.059570312 -0.12695312 0.068847656 0.053222656 0.12695312 -0.017333984 -0.03125 -0.16113281 -0.01928711 0.05444336 0.3515625 -0.061035156 0.091796875 0.12597656 -0.21191406 0.045410156 -0.044189453 0.017333984 0.12158203 -0.14550781 0.2265625 0.2578125 -0.125 0.05444336 0.087890625 0.13476562 -0.036865234 -0.03881836 0.06347656 0.068847656 -0.2109375 0.110839844 -0.0703125 0.028564453 -0.26953125 -0.23925781 0.013366699 0.15722656 0.20214844 -0.068847656 0.064453125 0.006958008 -0.06298828 0.17089844 -0.103515625 -0.13085938 0.047851562 -0.125 -0.12158203 -0.043701172 -0.28320312 -0.09277344 -0.018432617 0.20214844 0.19335938 0.026855469 -0.12060547 -0.20117188 0.14355469 -0.0154418945 0.28320312 -0.06689453 0.17675781 -0.2109375 0.14355469 -0.15625 0.11816406 -0.14257812 0.21484375 0.10839844 0.3671875 -0.19140625 -0.11767578 -0.12109375 0.12695312 -0.22851562 0.37890625 0.13867188 -0.125 0.1484375 0.18261719 0.19238281 -0.03149414 -0.18554688 -0.018798828 -0.21972656 -0.09082031 -0.11767578 -0.10986328 0.25585938 0.13476562 0.037109375 0.13574219 0.006072998 0.018554688 0.06542969 0.002029419 0.18847656 0.26757812 0.25976562 0.15332031 0.11767578 -0.13964844 0.009033203 0.045654297 0.25976562 -0.12158203 0.22851562 0.01953125 -0.005493164 -0.09082031 0.13671875 0.045166016 0.0033569336 -0.033691406 0.27148438 0.12890625 -0.18652344 -0.063964844 0.24902344 0.18554688 0.080078125 0.22949219 0.47070312 0.064453125 -0.115722656 0.39453125 -0.0062561035 0.032226562 -0.016723633 0.19238281 -0.07519531 -0.26171875 -0.16699219 -0.18261719 -0.3046875 -0.18066406 0.05102539 0.07714844 0.32421875 0.23632812 0.020141602 -0.19824219 0.13964844 -0.23339844 -0.16601562 0.07080078 0.032714844 0.13867188 0.106933594 -0.122558594 -0.043701172 0.21679688 3.4713745E-4 -0.16113281 0.115234375 -0.110839844 0.17871094 0.22363281 -0.23535156 -0.16015625 0.034423828 0.087402344 -0.04296875 0.31640625 -0.46875 0.1640625 -0.14550781 0.31054688 -0.057617188 0.103515625 0.17089844 -0.06982422 0.024658203 -0.114746094 0.14746094 0.17089844 0.06982422 0.040283203 0.04663086 -0.019897461 -0.048339844 -0.015991211 -0.115722656 -0.13476562 -0.17285156 0.1796875 -0.083984375 -0.028564453 0.16015625 -0.29101562 -0.16894531
mile -0.29492188 0.13671875 0.16113281 0.2578125 0.119628906 -0.05859375 -0.14355469 0.026000977 0.06542969 0.14160156 0.28515625 0.044677734 0.034423828 -0.026367188 0.26367188 0.087890625 -0.010986328 -0.12988281 -0.061523438 -0.00390625 -0.3515625 0.052001953 -0.27539062 0.16601562 0.059570312 -0.052001953 -0.26757812 -0.064453125 0.008728027 -0.110839844 -0.014587402 -0.18261719 -0.11328125 -0.22753906 -0.11621094 0.123535156 0.0072021484 -0.09765625 -0.35351562 0.23339844 -0.21972656 0.02709961 0.21777344 -0.030883789 -0.42773438 -0.028076172 0.03112793 0.3359375 0.17382812 -0.14648438 0.22070312 0.04248047 0.008666992 0.27148438 0.0703125 0.23632812 -0.04736328 0.030761719 -0.15136719 -0.0037078857 0.051513672 -0.22265625 0.15039062 -0.31640625 0.10205078 -0.22753906 -0.07421875 0.14257812 -0.13378906 0.16210938 -0.21875 0.12890625 -0.14648438 -0.33007812 -0.10107422 -0.29101562 0.07861328 -0.28320312 0.22460938 -0.041503906 0.20214844 -0.16503906 -0.057861328 0.16992188 -0.063964844 0.21582031 -0.004058838 0.12988281 0.16503906 0.048583984 -0.12988281 0.07861328 -0.11279297 -0.018310547 -0.2578125 -0.34570312 0.020141602 -0.14257812 0.3046875 0.14746094 0.056884766 -0.029541016 0.125 0.1015625 0.10888672 0.13964844 0.0859375 -0.12402344 0.05126953 -0.21972656 0.078125 -0.19238281 0.0625 0.040283203 -0.0625 -0.030883789 0.14257812 -0.080566406 0.07714844 0.053466797 -0.18847656 -0.007873535 -0.17382812 0.11816406 0.14257812 -0.16503906 0.042236328 -0.029296875 0.040771484 0.4453125 -0.4453125 -0.043945312 0.26367188 0.16894531 -0.22851562 -0.07373047 0.041259766 -0.13671875 0.068359375 0.2890625 -0.048828125 0.024536133 -0.025634766 -0.11328125 -0.052001953 -0.05029297 -0.14941406 -0.23730469 -0.3203125 -0.23339844 -0.25195312 0.05029297 0.17285156 0.111816406 -0.045410156 -0.011352539 -0.051513672 -0.0060424805 -0.21289062 0.0115356445 0.1484375 0.265625 0.25 -0.25976562 0.11621094 0.20996094 0.33203125 -0.27148438 0.061035156 -0.10644531 -0.110839844 -0.079589844 0.27539062 -0.024291992 -0.18457031 0.008178711 -0.40429688 0.16699219 -0.36132812 -0.010986328 -0.11669922 -0.23925781 -0.22753906 -0.13183594 -0.22167969 -0.063964844 0.30859375 0.10107422 0.21289062 -0.013793945 0.140625 -0.030517578 0.12890625 0.011657715 -0.12597656 0.111328125 -0.007232666 0.22363281 -0.079589844 -0.034423828 0.20996094 -0.19238281 -0.18652344 0.15527344 0.2578125 0.020996094 -0.32226562 -0.027832031 0.122558594 0.17578125 -0.1953125 0.040039062 -0.09082031 0.043701172 0.032226562 0.27148438 -0.15722656 -0.049316406 0.115722656 0.007873535 -0.12890625 0.08984375 0.47460938 -0.13378906 -0.09375 -0.0064086914 0.23828125 0.001159668 0.23144531 -7.7056885E-4 0.3125 -0.24316406 0.111816406 -0.19140625 -0.06933594 0.05126953 0.022827148 -0.15722656 0.30078125 0.040771484 -0.008850098 -0.10986328 0.24902344 -0.17675781 0.19921875 -0.16894531 0.048583984 0.19921875 0.012817383 -0.19335938 0.19433594 0.0625 0.024902344 0.30078125 0.17480469 -0.22851562 0.22363281 -0.13964844 0.029296875 0.09765625 -0.03125 0.014770508 -0.012207031 0.15820312 0.10888672 0.100097656 0.06982422 -0.27148438 -0.30859375 0.26367188 -0.21777344 -0.39257812 -0.0107421875 -0.030517578 -0.0703125 -0.31445312 -0.022583008 -0.34179688 0.076171875 -0.35351562 0.12792969 0.010498047 -0.049560547 0.13183594 0.23535156 -0.3125 -0.19140625 0.18554688 0.028808594 0.040771484 -0.0020141602 -0.07470703 -0.33984375 0.21582031 0.10595703 -0.27539062 -0.0034942627 0.0075683594 0.15625 -0.19335938
airport 0.06201172 -0.030395508 0.080078125 0.0546875 0.020263672 -0.33203125 -0.3046875 -0.018920898 0.14453125 -0.111816406 0.3046875 -0.055664062 0.14941406 -0.26171875 -0.14257812 -0.024047852 0.15527344 0.15820312 0.10888672 -0.075683594 -0.028564453 -0.12695312 0.16503906 -0.025268555 0.12402344 -0.16796875 -0.028442383 0.063964844 0.19433594 -0.095214844 0.037109375 -0.35546875 -0.31835938 0.0703125 -0.050048828 -0.18457031 -0.17871094 0.19628906 -0.071777344 0.099121094 -0.05493164 0.049560547 0.19628906 0.07324219 -0.26171875 -0.40429688 0.04736328 0.028198242 0.23925781 0.18554688 -0.09277344 0.056640625 -0.009765625 -0.0023498535 -0.15820312 -0.25585938 -0.17675781 0.19726562 0.036376953 0.0079956055 -0.1640625 -0.14453125 -0.08886719 -0.115722656 0.14550781 0.07910156 -0.23828125 0.037597656 0.08886719 -0.07373047 -0.17675781 0.028076172 0.06347656 -0.033691406 -0.50390625 -0.107421875 0.020629883 0.1328125 0.11376953 -0.13574219 -0.088378906 0.10449219 -0.01159668 0.10839844 -0.10107422 -0.055419922 0.08935547 0.14550781 0.10888672 0.047851562 0.021240234 -0.021240234 -0.31054688 0.12109375 0.08886719 -0.14648438 0.16113281 -0.18261719 0.06347656 -0.20996094 -0.010620117 0.095703125 0.18261719 0.265625 0.421875 0.087890625 0.16601562 9.0026855E-4 0.15039062 -0.22558594 -0.21386719 -0.026855469 0.09472656 -0.09667969 -0.390625 0.060546875 0.059814453 0.021606445 -0.00390625 0.044921875 -0.13378906 -0.06933594 -0.21191406 -0.22753906 -0.049316406 -0.0038909912 -0.125 -0.13378906 0.38671875 -0.0011901855 0.033447266 -0.18652344 0.03149414 -0.030395508 0.091796875 -0.36132812 -0.042236328 -0.029296875 0.080078125 0.14648438 -0.21972656 -0.16503906 0.018554688 0.048828125 0.13671875 -0.04321289 -0.25 -0.119140625 0.010131836 -0.21875 0.107910156 0.20214844 0.23144531 -0.07080078 -0.16113281 -0.16113281 0.2890625 -0.19140625 0.12792969 0.080566406 -0.296875 0.10107422 0.13085938 0.07714844 -0.3203125 0.22070312 0.015258789 -0.31835938 0.21289062 -0.14355469 0.11669922 0.063964844 0.16113281 -0.025390625 -0.083496094 0.099609375 -0.004760742 -0.4375 -0.048339844 0.014709473 0.05126953 0.055419922 -0.07861328 -0.16992188 0.12597656 -0.059326172 0.036376953 0.09765625 0.0057678223 0.021240234 0.09082031 0.38085938 0.03491211 -0.008361816 -0.1640625 0.34179688 -0.10595703 -0.06689453 -0.23046875 -0.20507812 -0.08886719 0.20019531 -0.007171631 -0.23925781 0.23242188 0.18066406 0.28515625 0.24804688 0.15917969 -0.027832031 0.13867188 0.04663086 0.022338867 0.059326172 -0.3203125 0.23242188 -0.016967773 0.48242188 -0.22265625 0.35546875 -0.061767578 0.028808594 -0.07910156 0.10546875 0.19335938 0.064941406 -0.41210938 0.21289062 -0.10546875 0.107910156 0.4140625 0.15039062 -0.5859375 -0.022949219 0.118652344 -0.036865234 0.29492188 -0.080566406 0.3203125 -0.13867188 -0.087402344 0.088378906 -0.10644531 -0.15722656 0.01550293 -0.16699219 0.03491211 -0.265625 -0.091796875 0.203125 0.022583008 -0.026733398 0.0015258789 0.15625 -0.07861328 -0.19042969 0.22558594 0.3515625 -0.16796875 -0.07910156 0.018798828 0.17089844 -0.08251953 0.14453125 0.2421875 0.07714844 -0.024291992 -0.31835938 -0.39648438 0.13574219 0.13769531 -0.075683594 -0.08642578 -0.16796875 0.0625 -0.16210938 0.20800781 0.05078125 -0.08642578 -0.22265625 -0.033447266 0.1796875 0.046875 -0.076171875 0.041015625 0.10986328 -0.35742188 0.02368164 -0.15917969 0.24023438 -0.014587402 -0.041259766 0.22460938 0.048339844 0.08691406 0.084472656 -0.4765625 0.10449219 0.06689453 -0.14550781
population 0.06347656 0.0038452148 0.0703125 -0.039794922 -0.05078125 -0.24804688 -0.17578125 -0.110839844 0.22363281 -0.1015625 -0.22851562 0.018554688 -0.021728516 0.032226562 -0.33789062 -0.022583008 -0.22167969 0.18164062 -0.17089844 -0.08642578 -0.15625 -0.2109375 0.28710938 -0.0703125 -0.328125 -0.4609375 -0.45703125 0.33007812 0.06591797 -0.006011963 0.15527344 -0.36132812 -0.29492188 0.02331543 -0.122558594 -0.007293701 0.063964844 0.068359375 0.004058838 0.43164062 0.10498047 0.020874023 0.016479492 0.05102539 0.18554688 -0.15722656 0.16601562 0.029296875 -0.25976562 -0.10107422 0.17773438 -0.27148438 -0.15332031 -0.32617188 -0.06933594 -0.25585938 -0.19824219 0.20507812 -0.028076172 0.10449219 0.103027344 -0.12988281 -0.15820312 -0.34179688 0.24121094 -0.15527344 -0.041259766 0.21679688 -0.19921875 -0.029052734 -0.30273438 -0.096191406 0.092285156 0.024169922 -0.0037994385 -0.18261719 -0.27148438 -0.15917969 0.1484375 0.19140625 -0.018066406 -0.061767578 0.095214844 0.21875 -0.34179688 -0.06591797 -0.42773438 0.08886719 0.1953125 -0.20996094 0.115722656 -0.19628906 -0.07421875 -0.16796875 -0.114746094 0.13867188 0.16601562 -0.42578125 0.26757812 -0.087402344 0.084472656 0.036621094 -0.26953125 0.15820312 -0.072265625 -0.39453125 -0.06347656 -0.012573242 -0.07470703 -0.19433594 -0.12451172 -0.44921875 -0.16699219 0.029174805 -0.34179688 0.15234375 0.07128906 -0.20996094 0.13476562 -0.20703125 -0.1796875 0.38867188 -0.38085938 -0.07470703 -0.003616333 0.37695312 -0.19433594 -0.21191406 -0.25390625 0.11035156 0.1328125 -0.15039062 -0.07373047 -0.025756836 -0.13769531 0.19140625 -0.056884766 0.091796875 -0.064453125 0.067871094 -0.011962891 -0.010498047 -0.038330078 0.40234375 0.07324219 -0.048828125 0.22460938 0.35351562 -0.025512695 -0.104003906 0.13964844 -0.044677734 -0.19238281 0.025024414 0.19335938 -0.20703125 -0.046142578 -0.14257812 -0.08642578 -0.18945312 -0.12011719 0.118652344 0.14941406 -0.28515625 0.076660156 0.16699219 0.18554688 0.12597656 0.21777344 0.14257812 -0.045166016 0.041503906 -0.1171875 0.25195312 0.22265625 0.19824219 0.12695312 0.11035156 -0.030761719 0.079589844 -0.076660156 -0.34179688 -0.1796875 -0.3671875 -0.08642578 0.001159668 0.12011719 0.11376953 0.12060547 0.34179688 0.10986328 -0.18652344 0.014099121 -0.0058898926 -0.18164062 0.13671875 0.079589844 0.1953125 -0.12890625 -0.19921875 -0.106933594 0.056396484 0.22460938 -0.28320312 0.08154297 -0.1953125 0.076171875 -0.0625 0.08886719 0.12158203 -0.11621094 0.107421875 -0.22460938 -0.1640625 -0.078125 0.14941406 -0.28320312 -0.03881836 0.029663086 0.21679688 -0.05029297 0.17773438 0.15234375 1.9741058E-4 0.09716797 -0.22851562 0.36328125 0.011352539 -0.19824219 0.31445312 0.025146484 -0.24804688 0.24804688 -0.1875 0.11425781 -0.15234375 -0.15527344 -0.009155273 0.13671875 -0.09814453 0.24609375 0.08251953 0.26367188 -0.1640625 0.18164062 0.05493164 0.28125 0.083496094 -0.16699219 0.2734375 -0.15039062 -0.22851562 -0.09863281 0.27929688 0.11328125 -0.19921875 -0.029663086 -0.33007812 -0.2890625 0.030395508 -0.20605469 -0.3125 0.099121094 0.19824219 -0.17089844 0.19238281 -0.08642578 0.034179688 -0.24414062 -0.056884766 -0.2265625 -0.18554688 0.0073547363 -0.17773438 -0.019897461 -0.44140625 0.05493164 -0.057861328 -0.1328125 -0.21484375 0.041259766 0.040527344 0.23632812 0.029663086 -0.24023438 -0.014099121 -0.11328125 -0.14746094 0.18164062 -0.026367188 0.11816406 -0.0625 -0.032470703 -0.034423828 0.22363281 -0.020263672 -0.12792969 -0.24804688 0.22070312 -0.20703125
planning 0.12060547 0.16894531 -0.014526367 -0.111816406 -0.06225586 0.01953125 -0.010986328 -0.07763672 0.05908203 -0.12060547 0.040039062 0.060546875 -0.25 -0.115234375 -0.041748047 0.0048217773 -0.012756348 -0.1640625 -0.10595703 -0.140625 -0.20214844 0.055908203 0.057128906 -0.0234375 0.2578125 0.12988281 0.12402344 0.056396484 -0.19238281 -0.029785156 0.1328125 0.23828125 -0.10546875 -0.08154297 -0.21679688 0.014892578 0.23144531 -0.14941406 0.21386719 -0.22949219 0.09375 -0.020507812 -0.0033721924 -0.08203125 -0.111328125 -0.22558594 -0.08496094 -0.040771484 -0.07421875 0.24414062 -0.119628906 0.017822266 0.103027344 0.40820312 -0.12451172 0.05444336 -0.12792969 -0.12695312 0.23144531 0.07373047 -0.16601562 -0.016479492 0.096191406 -0.125 -0.01940918 0.13671875 0.053710938 0.12890625 0.037353516 -0.03857422 -0.1484375 -0.06933594 0.16992188 0.05810547 0.03930664 -0.032226562 -0.061035156 -0.03881836 -0.15136719 0.19628906 0.13769531 -0.059326172 -0.0134887695 0.22070312 0.03173828 -0.21191406 -0.07080078 0.0859375 0.29296875 -0.0066223145 0.32226562 -0.2578125 -0.125 -0.16796875 -0.016967773 -0.21972656 -0.08935547 -0.35742188 -0.03955078 0.33984375 -0.09277344 -0.0061035156 0.1953125 0.16503906 0.07128906 0.010070801 -0.12060547 -0.11621094 -0.010131836 -0.107421875 -0.09863281 0.009765625 0.016235352 -0.072265625 -0.046875 -0.0023345947 0.100097656 0.03149414 0.3046875 -0.05883789 -0.046142578 -0.16015625 0.032958984 0.17382812 0.07470703 0.046142578 -0.036621094 -0.20898438 -0.125 0.05444336 0.0047912598 -0.032714844 -0.13378906 0.037109375 0.14746094 1.02996826E-4 0.080078125 0.19238281 0.045410156 0.265625 -0.078125 -0.08886719 -0.037109375 -0.119140625 -0.006591797 -0.09814453 -0.14355469 -0.06347656 -0.05102539 0.09375 0.047607422 0.052490234 0.091308594 0.028564453 -0.0099487305 -0.10595703 0.072753906 0.05810547 0.029907227 -0.053955078 -0.13183594 -0.1015625 0.060058594 0.25 0.13671875 0.07763672 0.35742188 -0.0625 0.15625 -0.359375 0.013916016 -0.16210938 -0.043945312 -0.078125 0.25195312 0.025634766 0.16699219 -0.09326172 -0.067871094 0.265625 -0.12402344 -0.016357422 -0.12011719 -0.04345703 0.13964844 -0.26953125 0.03173828 0.05053711 0.19824219 -0.059814453 -0.17675781 0.061279297 -0.036865234 0.044677734 -0.25195312 -0.06933594 0.12792969 -0.06933594 0.15136719 -0.14648438 0.009094238 0.09375 -0.015258789 0.029052734 0.111816406 0.043945312 0.10595703 -0.11279297 0.14746094 0.099609375 0.14648438 0.05126953 0.092285156 -0.014892578 0.029785156 -0.088378906 0.040039062 0.1484375 0.087890625 0.20214844 0.027954102 -0.09814453 0.046142578 0.0119018555 0.079589844 -0.1796875 0.09082031 -0.041503906 -0.07714844 0.028320312 0.009216309 -0.053955078 -0.075683594 0.06542969 0.021606445 -0.0037231445 0.25195312 -0.14941406 0.17675781 -0.17382812 -0.015136719 -0.0013504028 -0.099609375 -0.12060547 0.0048828125 -0.10888672 -0.013671875 -0.064941406 -0.0054016113 -0.24316406 -0.15625 0.29296875 0.103027344 0.17578125 0.15820312 0.046875 -0.017333984 0.08984375 -0.2109375 0.061279297 -0.052246094 -0.14746094 -0.059570312 -0.20019531 -0.020874023 0.071777344 -0.14550781 0.11230469 -0.26757812 0.080078125 -0.017456055 0.25976562 0.29882812 0.07373047 0.076171875 -0.2734375 0.19433594 0.296875 -0.041748047 -0.08251953 -0.123046875 -0.15136719 -0.0022888184 0.027709961 0.046142578 0.15429688 -0.00970459 0.071777344 0.35742188 -0.017089844 -0.23632812 -0.014831543 -0.023071289 0.0020446777 -0.072265625 -0.18359375 0.01373291 -0.1875 0.11279297 0.16503906
canyon -0.03540039 -0.15429688 -0.036132812 0.1953125 -0.0061950684 -0.109375 -0.028076172 -0.08935547 0.16894531 -0.03881836 0.11035156 -0.048095703 -0.07128906 -0.1015625 0.22070312 -0.42382812 -0.26171875 0.028564453 -0.008544922 0.014587402 -0.12890625 -0.057617188 -0.52734375 -0.1328125 -0.068847656 -0.26171875 -0.51953125 -0.27929688 0.096191406 -0.27734375 -0.068847656 0.10839844 0.23046875 -0.068359375 -0.019042969 -0.18554688 0.2734375 -0.22753906 -0.018188477 -0.15722656 -0.18066406 -0.18945312 0.31835938 -0.13867188 -0.26367188 -0.15625 -0.13867188 -0.028808594 0.40429688 -0.11328125 0.040527344 -0.09716797 0.1171875 -0.18359375 0.061035156 -0.053466797 0.16308594 0.057617188 0.12402344 -0.028686523 -0.14257812 -0.03540039 0.19140625 -0.015075684 0.075683594 -0.09033203 0.25585938 -0.22460938 -0.119628906 -0.053222656 -0.47851562 -0.22363281 -0.2109375 -0.18457031 -0.06298828 -0.17285156 0.087890625 -0.010681152 0.15820312 -0.13671875 0.38085938 0.060302734 -0.13867188 -0.34960938 -0.16699219 0.44921875 -0.12109375 -0.09472656 0.14941406 0.10107422 -0.16699219 0.15429688 -6.599426E-4 0.31835938 0.16894531 -0.20996094 -0.103515625 -0.33007812 0.06738281 -0.079589844 -0.21386719 -0.0546875 0.071777344 -0.34179688 0.3359375 -0.13964844 0.026611328 0.123535156 0.12158203 -0.099121094 -0.122558594 -0.053955078 0.1796875 -0.21875 0.40234375 0.021118164 0.21679688 -0.05419922 -0.13964844 0.14355469 -0.27539062 0.17675781 -0.08691406 0.41992188 0.53515625 -0.22070312 -0.15429688 0.18457031 0.22363281 -0.027709961 -0.21582031 -0.10986328 0.008850098 0.16210938 0.18457031 -0.13964844 -0.37109375 -0.053466797 0.1796875 0.50390625 -0.14160156 -0.11425781 0.09667969 -0.14648438 0.20703125 0.033447266 0.087402344 -0.06347656 -0.32226562 -0.014770508 0.49804688 0.003753662 -0.13867188 0.26757812 -0.3125 0.07421875 0.092285156 -0.23339844 -0.34570312 0.17578125 -0.017822266 0.016113281 -0.0703125 -0.11376953 -0.21386719 -0.036865234 0.37890625 0.0063476562 -0.26171875 0.1640625 -0.31835938 -0.06591797 -0.15917969 0.26757812 0.008361816 0.0056152344 -0.17675781 -0.044433594 -0.088378906 -0.0015258789 -0.625 -0.24707031 0.1796875 -0.14648438 0.059570312 -0.33984375 -0.09277344 -0.05810547 0.15039062 0.16015625 0.12988281 -0.125 0.04711914 0.076171875 -0.28515625 0.13476562 -0.056884766 -0.026977539 -0.025878906 -0.017089844 0.26953125 -0.31835938 -0.36914062 -0.20214844 0.09863281 0.14453125 0.025024414 -0.3046875 -0.359375 0.08935547 -0.123535156 0.12011719 -0.06738281 -0.0068969727 -0.0859375 -0.010009766 -0.19433594 0.2578125 -0.25195312 -0.06738281 0.26367188 0.171875 0.01928711 0.17089844 0.068847656 -0.10546875 0.32617188 0.38867188 0.26757812 0.23535156 -0.28125 -0.11230469 -0.014709473 -0.13476562 0.08886719 0.36914062 0.07519531 0.076660156 0.32421875 -0.07421875 0.20703125 -0.44726562 -0.265625 -0.099609375 0.12988281 -0.11767578 0.1171875 0.04321289 -0.13378906 0.17285156 0.13867188 -0.4453125 0.049560547 0.46484375 0.25 -0.11767578 0.16015625 -0.41601562 0.06738281 -0.29101562 -0.24414062 -0.1328125 0.06982422 0.31445312 0.046142578 0.29296875 0.07373047 -0.18847656 -0.11230469 0.036132812 0.057861328 -0.11328125 -0.087890625 -0.06689453 0.20800781 0.13574219 0.13085938 -0.09667969 -0.01159668 -0.14160156 0.30078125 -0.2578125 -0.028930664 0.18164062 0.18457031 -0.18261719 0.029418945 0.29296875 0.06933594 0.13378906 0.11230469 -0.08203125 -0.27148438 0.21289062 -0.083984375 0.032958984 -0.24707031 -0.20019531 0.29492188 -0.059326172
delay -0.075683594 0.119140625 0.13476562 0.025512695 -0.091796875 0.015075684 -0.00970459 0.10058594 0.19628906 0.080566406 -0.076660156 -0.04711914 0.0625 -0.016845703 -0.16699219 0.12988281 0.28515625 -0.1484375 0.041503906 -0.15527344 -0.1875 0.14648438 0.007446289 -0.08984375 0.05053711 0.18847656 -0.064453125 -0.078125 0.07861328 0.20898438 0.033203125 -0.0012054443 -0.103027344 -0.27539062 0.076171875 -0.019165039 -0.12451172 -0.171875 0.17578125 -0.27734375 0.140625 0.10595703 0.18261719 -0.25195312 -0.15625 -0.20214844 -0.13769531 0.032714844 -0.375 -0.0016860962 -0.07324219 0.125 0.03930664 0.003829956 -0.14160156 0.012023926 -0.18554688 -0.12792969 0.13769531 -0.16992188 -0.04272461 -0.09423828 0.026977539 -0.13085938 0.09326172 0.011779785 -0.28320312 0.060546875 -0.34375 0.17773438 0.045654297 -0.047851562 -0.14355469 -0.01965332 -0.18945312 0.19726562 0.19726562 -0.03881836 0.029663086 0.38671875 -0.27734375 0.01184082 -0.18945312 -0.13671875 0.18066406 -0.0390625 0.19726562 0.34179688 0.22949219 -0.014953613 0.35351562 -0.05834961 0.06591797 0.061279297 0.2734375 -0.056640625 -0.0040893555 0.06933594 -0.15917969 0.2265625 0.22460938 0.10498047 0.053222656 -0.09814453 0.03564453 0.12792969 0.3203125 -0.18554688 0.115722656 -0.05834961 0.25976562 -0.119140625 0.19433594 -0.096191406 -0.14941406 -0.119628906 0.10986328 -0.026000977 0.09277344 0.1875 0.11230469 -0.0036468506 -0.119628906 0.3359375 -0.03540039 0.03881836 0.03173828 -0.10644531 -0.05419922 0.057861328 0.25585938 0.09326172 -0.037841797 -0.24511719 0.04638672 0.076660156 0.107421875 0.037841797 -0.22949219 0.123535156 0.07373047 -0.359375 0.032958984 0.08544922 -0.10595703 -0.25390625 -0.14746094 -0.11328125 -0.18164062 -0.10058594 -0.044677734 0.013305664 0.13476562 0.07763672 0.026367188 -0.29882812 0.2265625 -0.057128906 -0.28710938 -0.016601562 -0.33984375 -0.09277344 0.07470703 -0.008728027 -0.055908203 -0.040283203 0.296875 0.29492188 0.31835938 0.09326172 0.13378906 -0.095214844 -0.20117188 0.011108398 0.17382812 -0.2421875 0.25390625 -0.07470703 -0.13183594 0.19042969 -0.17675781 -0.018554688 0.16894531 -0.1875 -0.0029907227 0.21191406 0.10595703 0.22265625 0.040771484 0.11621094 -0.03173828 -0.14941406 -0.04663086 0.051513672 0.0625 0.17089844 0.087402344 -0.064941406 -0.025756836 0.04345703 0.080566406 0.06738281 -0.22363281 0.25976562 0.15917969 -0.1484375 0.041992188 0.1328125 0.19140625 0.018920898 0.091308594 0.16992188 0.19921875 0.12402344 -0.067871094 -0.17285156 -0.12890625 -0.12988281 -0.08984375 -0.038330078 0.140625 -0.33203125 -0.10253906 0.23144531 0.079589844 -0.38476562 0.013427734 0.04296875 0.15332031 0.19335938 0.1953125 0.035888672 -0.008056641 -0.23730469 -0.0035705566 -0.16015625 0.13085938 -0.36328125 0.14453125 -0.22265625 -0.17285156 -0.025634766 -0.13378906 -0.30273438 0.203125 -0.19921875 -0.1796875 0.18261719 0.2578125 -0.088378906 0.22265625 0.017211914 -0.20410156 -0.21875 -0.016479492 -0.18261719 0.30273438 0.19824219 0.06347656 -0.045898438 0.012878418 0.06591797 -0.13183594 0.02319336 0.08300781 0.18164062 -0.08300781 0.056152344 -0.00390625 -0.13085938 0.19140625 0.328125 -0.032958984 -0.27148438 0.20605469 -0.12158203 -0.22460938 -0.037597656 0.25585938 -0.056152344 0.25195312 0.046142578 0.0027313232 0.24316406 -0.11425781 0.048828125 -0.091308594 -0.067871094 -0.03149414 -0.110839844 0.12597656 0.050048828 -0.12695312 -0.05493164 -0.0546875 0.18847656 -0.34765625 0.08203125 -0.052978516 0.053955078
size 0.012817383 0.2890625 0.083496094 0.115722656 0.032958984 -0.265625 0.36328125 -0.29101562 0.11621094 0.22070312 -0.0625 -0.10986328 -0.057373047 -0.055908203 -0.013916016 -0.006591797 -0.23339844 0.34765625 -0.13769531 -0.16894531 -0.2890625 -0.19628906 -0.26171875 0.31054688 -0.24804688 0.014221191 -0.13476562 -0.014831543 -0.0048217773 0.009094238 -0.015075684 0.22460938 -0.12695312 0.040771484 -0.07373047 -0.068847656 0.083496094 0.15722656 -0.043701172 0.32421875 -0.035888672 0.15820312 -0.12402344 -0.064941406 -0.038085938 -0.041503906 -0.055664062 -0.092285156 0.0703125 -0.15917969 0.007598877 -0.32421875 -0.16796875 -0.39453125 0.12011719 -0.1171875 0.06738281 0.056152344 0.09082031 -0.016601562 0.22949219 0.09082031 -0.17382812 -0.34960938 0.29296875 -0.22167969 0.099121094 0.265625 0.10498047 0.26953125 0.234375 -0.15917969 0.09765625 0.15039062 -0.33007812 0.02758789 0.004852295 -0.13476562 0.10546875 0.12695312 0.04248047 -0.1796875 -0.091308594 0.28710938 -0.061035156 -0.13769531 -0.16992188 0.21777344 0.21289062 0.042236328 0.024536133 -0.2265625 0.041992188 0.09863281 0.11816406 -0.14550781 -0.045410156 -0.15917969 -0.03857422 -0.17285156 0.111816406 0.08300781 -0.03857422 -0.12988281 0.118652344 0.17089844 -0.27539062 0.28125 -0.24609375 -0.25195312 0.07128906 -0.19042969 -0.07080078 -0.020996094 0.017700195 0.095214844 0.13378906 -0.12695312 0.15722656 -0.12988281 -0.060302734 -0.064453125 -0.07373047 0.17480469 0.07373047 0.23828125 -0.08251953 -0.22167969 0.15722656 -0.014587402 0.06201172 0.1953125 -0.20410156 0.10546875 -0.15332031 0.012878418 -0.10986328 -0.140625 0.029541016 -0.22070312 0.06591797 -0.20214844 0.03466797 -0.028198242 0.20996094 -0.107910156 -0.17871094 0.0013809204 0.059814453 0.14257812 -0.005584717 -0.088378906 -0.30859375 -0.010559082 0.031982422 -0.11767578 -0.048095703 -0.16210938 -0.083496094 -0.09667969 -0.018554688 -0.1640625 0.18164062 -0.14453125 0.0703125 0.02734375 0.012084961 -0.25 -0.052001953 0.087402344 -0.23046875 -0.18164062 0.03173828 0.19824219 -0.19238281 0.15039062 -0.011291504 -0.059570312 0.021850586 0.029296875 -0.041259766 -0.091796875 -0.25585938 0.0022125244 -0.1796875 -0.4296875 0.20605469 -0.045166016 -0.07763672 0.0014648438 0.20605469 -0.17480469 -0.18847656 -0.049804688 -0.25585938 0.22753906 0.20703125 -0.13378906 0.012084961 -0.23242188 0.07324219 0.20898438 -0.18847656 -0.030883789 0.006866455 0.265625 0.05810547 -0.033447266 -0.09472656 0.10888672 -0.049072266 0.23535156 -0.103027344 -0.015625 -0.203125 0.125 0.2734375 -0.11621094 -0.23730469 0.23535156 0.037353516 0.22558594 -0.020019531 -0.30078125 -0.24023438 -0.095214844 0.044677734 -0.20019531 0.19921875 -0.07861328 -0.01940918 -0.095214844 0.14355469 0.0066833496 0.00592041 -0.37695312 -0.0015106201 -0.31054688 0.0016708374 -0.125 0.0027008057 0.1328125 -0.15039062 -0.2265625 0.21777344 -0.17285156 -0.16601562 0.055664062 0.36523438 0.020385742 0.107910156 -0.068359375 0.20898438 0.018798828 0.44921875 0.072265625 0.023071289 0.05493164 -0.23046875 0.15917969 0.22363281 -0.08544922 -0.3359375 0.07910156 0.21484375 -0.010437012 0.048828125 -0.033447266 0.09667969 0.021240234 -0.21386719 0.091796875 0.061279297 -0.140625 -0.059814453 -0.111328125 0.09375 -0.09033203 0.083984375 -0.14160156 0.0078125 0.26953125 0.21777344 0.09667969 -0.21289062 0.10058594 -0.13574219 -0.19433594 -0.06738281 0.016357422 -0.27734375 -0.025390625 -0.084472656 -0.3984375 0.055908203 0.071777344 0.024658203 0.06640625 -0.15234375 -0.18554688
peace 0.15722656 0.26171875 0.27734375 0.28710938 0.18652344 -0.15332031 0.21679688 -0.068847656 0.07861328 0.18652344 -0.12011719 0.2265625 -0.27148438 0.25585938 -0.21679688 0.13964844 0.114746094 0.092285156 0.060302734 -0.13476562 0.18554688 0.45507812 -0.028442383 0.092285156 -0.06689453 0.14550781 -0.234375 0.09082031 0.48242188 -0.21875 -0.12060547 -0.12011719 -0.5 0.057128906 -0.022827148 -0.087402344 0.21582031 0.13183594 -0.20117188 0.040771484 -0.028442383 0.26757812 -0.07373047 0.076171875 -0.5 0.09814453 0.17480469 0.026733398 -0.12890625 0.14453125 0.24121094 0.0078125 -0.27929688 0.05029297 -0.050048828 -0.064941406 -0.13085938 -0.08496094 -0.040771484 -0.19238281 -0.06347656 0.29882812 0.26953125 0.16992188 -0.017089844 0.047607422 0.10839844 0.10253906 -0.20019531 -0.110839844 0.06689453 0.37109375 0.16796875 0.10205078 -0.171875 -0.39257812 -0.375 0.05102539 0.21679688 0.15136719 -0.28125 0.08496094 0.029174805 -0.11230469 0.17089844 -0.072265625 0.095214844 0.109375 0.15527344 -0.008117676 0.030639648 -0.1796875 -0.020874023 -0.5703125 -0.28125 -0.018432617 0.13769531 -0.20214844 0.203125 -0.4140625 -0.06225586 0.04345703 0.203125 0.011779785 -0.12890625 0.13476562 -0.31640625 0.10546875 -0.004211426 0.059570312 -0.23828125 0.19921875 0.17675781 -0.07080078 -0.103027344 0.060302734 0.099121094 0.103515625 -0.14648438 0.17675781 0.06982422 0.40820312 -0.33007812 0.026733398 -0.34570312 0.0390625 0.26757812 0.095703125 0.014160156 -0.052246094 0.27539062 -0.010559082 -0.08642578 0.23535156 -0.032958984 -0.07861328 -0.0039978027 -0.05419922 -0.10986328 0.009887695 -0.13085938 -0.1953125 0.0073547363 0.021850586 -0.25585938 -0.014038086 -0.07470703 -0.15039062 0.17773438 0.06982422 0.20117188 -0.20117188 0.07421875 0.1015625 -0.16210938 -0.23339844 0.23632812 -0.07861328 -0.05029297 0.05883789 -0.28515625 -0.047607422 -0.05419922 0.10888672 -0.11279297 -0.21386719 0.20410156 -0.012634277 -0.14648438 0.045654297 0.021606445 0.11279297 0.140625 -0.33007812 -0.075683594 0.29492188 0.049804688 0.022949219 -0.07470703 -0.29492188 -0.5078125 -0.059326172 0.41992188 -0.18261719 0.12988281 0.25195312 0.060791016 0.05029297 0.12158203 0.026123047 -0.14453125 0.19335938 -0.15917969 -0.17089844 0.1328125 0.29492188 0.20898438 0.29101562 -0.016235352 -0.20410156 0.08154297 -0.10546875 -0.15527344 -0.20703125 0.13574219 -0.40625 -0.099609375 0.050048828 0.109375 0.06738281 -0.4921875 0.09033203 -0.19433594 -0.05493164 0.052490234 -0.109375 -0.15234375 -0.07763672 -0.26367188 0.12207031 0.26367188 -0.47070312 0.052978516 -0.03112793 0.09716797 -0.14746094 0.20898438 0.08300781 0.23339844 -0.15429688 -0.06933594 -0.107421875 -0.35742188 0.026855469 0.12988281 -0.19238281 -0.048095703 -0.057373047 0.1171875 -0.06982422 0.06347656 -0.265625 -0.111816406 0.17578125 0.21972656 0.025512695 -0.21875 -0.33203125 -0.006011963 0.06591797 0.055419922 5.0735474E-4 -0.012878418 0.40039062 -0.03173828 -0.068847656 0.20410156 -0.29101562 0.08886719 -0.1875 0.025878906 -0.076171875 0.12988281 0.091308594 0.13085938 0.013305664 -0.10595703 -0.29492188 -0.40429688 -0.23339844 0.23046875 0.16210938 0.18359375 0.36523438 0.20800781 -0.0015640259 -0.10107422 0.15429688 -0.4375 -0.05029297 -0.0033111572 -0.14257812 -0.1875 0.14941406 0.18652344 -0.33398438 -0.19140625 0.09814453 0.06591797 -0.044433594 -0.32226562 -0.30078125 0.10986328 -0.22753906 -0.23046875 0.24609375 -0.13671875 -0.21777344 0.087890625 0.044433594
science 0.009033203 0.12158203 0.3984375 0.21386719 -0.016723633 0.063964844 0.3125 -0.23535156 -0.100097656 -0.09326172 0.20507812 -0.032226562 -0.21191406 0.0095825195 -0.27734375 0.096191406 -0.1875 -0.040527344 0.2265625 -0.23632812 -0.048583984 0.032958984 -0.080566406 0.122558594 0.05859375 -0.091308594 -0.026855469 0.025878906 -0.11376953 -0.21972656 -0.037841797 -0.15722656 -0.059814453 -0.016357422 0.11425781 -0.15234375 -0.010864258 0.29296875 0.22265625 -0.002456665 -0.16308594 -0.11669922 -0.20800781 0.31835938 -0.087402344 0.13378906 0.15429688 0.11816406 -0.07470703 0.09326172 -0.32421875 0.012390137 -0.072265625 -0.10986328 -0.071777344 0.16113281 0.055419922 -0.3984375 -0.049804688 -0.25195312 -0.052490234 -0.057861328 0.16699219 -0.26953125 -0.043945312 -0.14257812 0.036621094 0.34765625 -0.10888672 -0.12011719 -0.19335938 -0.21972656 0.16015625 -0.06542969 -0.22070312 0.1484375 0.23144531 0.11669922 -0.15429688 0.041748047 -0.088378906 0.21972656 0.080566406 -0.10888672 0.07080078 -0.11279297 0.006286621 0.37890625 -0.21582031 0.11035156 0.27148438 -0.29296875 -0.12988281 -0.10595703 0.15820312 0.21484375 0.27929688 0.041503906 0.22949219 -0.020385742 0.023071289 0.123535156 -0.14355469 -0.1328125 0.03930664 0.013244629 -0.01965332 -0.10107422 0.27539062 -0.13867188 -0.10986328 0.06982422 0.14648438 0.203125 0.04736328 0.18066406 -0.10546875 0.20410156 0.22460938 0.099121094 0.08251953 -0.016723633 -0.096191406 0.1171875 -0.29101562 -0.032470703 -0.059814453 -0.018188477 -0.09472656 0.20800781 -0.04663086 -0.30078125 -0.059570312 -0.18554688 -0.064941406 0.22265625 0.21191406 0.018676758 -0.140625 -0.041503906 0.15039062 -0.12158203 -0.10498047 -0.1875 -0.29101562 0.0078125 0.25585938 -0.08642578 0.17578125 -0.032714844 0.19628906 -0.16796875 -0.1796875 0.05834961 -0.2578125 -0.23925781 0.15234375 -0.14355469 -0.012268066 -0.23925781 -0.24511719 -0.17675781 -0.18261719 0.3828125 0.34765625 0.072265625 0.14941406 -0.16015625 0.024902344 -0.12207031 0.13476562 0.14941406 -0.084472656 0.10107422 0.13867188 0.01940918 -0.11328125 -0.08642578 -0.07470703 0.02758789 -0.13183594 -0.036621094 0.064453125 -0.22167969 0.19726562 -0.09375 0.17871094 -0.016479492 0.057617188 0.096191406 0.046142578 0.0079956055 0.06982422 0.055664062 -0.15820312 0.20214844 0.25 -0.118652344 0.055419922 0.005706787 -0.33984375 -0.099609375 0.020263672 -0.047851562 -0.28515625 -0.28320312 0.24511719 -0.14648438 -0.32226562 -0.12158203 -0.12988281 0.11328125 0.09716797 0.0095825195 0.045410156 0.24121094 0.040771484 0.087890625 0.33203125 -0.021484375 -0.015075684 -0.17773438 0.26953125 0.10546875 0.13867188 0.07470703 0.13964844 0.014465332 -0.064453125 0.16113281 0.22558594 0.09472656 0.07714844 -0.15039062 0.21679688 0.044433594 0.16992188 0.12597656 0.04321289 -0.08642578 0.30859375 0.1015625 -0.0065612793 0.08496094 -0.17382812 -0.05834961 0.087402344 0.0073242188 -0.22070312 0.13183594 -0.27734375 -0.33203125 0.11279297 0.055908203 0.17871094 -0.22851562 0.033691406 0.026733398 -0.18554688 0.033203125 0.05053711 -0.109375 -0.26367188 0.07421875 0.076171875 0.26171875 0.20117188 -0.18066406 -0.10449219 -0.030761719 0.09033203 -0.15234375 -0.11816406 -0.10253906 -0.0703125 -0.13476562 -0.087890625 -0.23144531 0.23828125 0.057617188 0.17382812 0.064453125 0.1953125 0.18945312 -0.057373047 -0.07910156 0.15332031 -0.17089844 0.11035156 0.34570312 -0.23144531 0.03955078 -0.3671875 0.033447266 0.060546875 -0.019897461 0.18164062 -0.171875 0.2890625 0.07470703
dawn -0.032714844 0.107421875 -0.14746094 -0.08203125 0.010620117 -0.234375 -0.07470703 -0.17285156 0.125 0.20117188 0.15039062 -0.30664062 -0.01965332 -0.061035156 -0.18261719 -0.027954102 -0.15234375 -0.03149414 0.5 -0.19921875 -0.28515625 -0.27148438 -0.017700195 -0.038330078 0.033935547 0.006164551 8.430481E-4 -0.039794922 0.24316406 -0.016357422 -0.12597656 0.07714844 0.12988281 -0.171875 0.025024414 0.068847656 -0.203125 -0.08935547 -0.039794922 0.08300781 0.096191406 -0.10449219 0.31445312 -0.037353516 0.20605469 0.28320312 -0.484375 0.37109375 -0.09423828 0.2421875 0.1796875 0.048095703 0.026123047 0.23632812 0.23046875 -0.10888672 0.09326172 -0.36914062 -0.25 -0.22265625 -0.20996094 0.27734375 -0.1484375 -0.23632812 0.006164551 -0.118652344 0.12060547 -0.02758789 -0.25585938 0.021850586 -0.14550781 0.23925781 0.078125 0.123046875 -0.17480469 -0.09667969 -0.115234375 -0.15527344 -0.001701355 0.09423828 0.10058594 0.19726562 0.13476562 -0.13671875 -0.11328125 0.22070312 -0.045654297 -0.15917969 0.11279297 0.24414062 0.04638672 -0.1484375 0.084472656 -0.12792969 -0.29296875 0.19238281 0.15917969 -0.15136719 0.15332031 -0.16601562 0.095703125 -0.22851562 0.21679688 0.22363281 -0.106933594 0.023071289 0.011108398 0.09814453 -0.055908203 0.04736328 0.10058594 0.19140625 0.10986328 -0.057373047 0.15625 0.09326172 0.17382812 0.14355469 -0.10595703 0.012878418 0.26953125 0.026123047 -0.19433594 -0.09716797 0.08544922 0.017333984 0.11279297 0.02746582 0.29101562 0.38085938 -0.13085938 -0.10986328 0.056884766 -0.12109375 -0.16699219 0.26171875 -0.028076172 -0.20996094 0.016967773 0.18847656 -0.19628906 -0.16210938 -0.024169922 0.24121094 -0.115722656 0.13574219 0.23144531 -0.23632812 0.09277344 -0.43359375 0.13476562 0.08544922 -0.13085938 -0.060302734 0.08642578 -0.17480469 -0.064941406 -0.10888672 0.13671875 -0.048339844 -0.096191406 -0.21582031 -0.19824219 -0.24316406 0.084472656 -0.020019531 -0.041259766 -0.1796875 0.006591797 -0.080078125 0.08154297 0.07324219 -0.03149414 -0.08886719 0.016723633 -0.10888672 0.07421875 -0.16210938 0.033935547 -0.10546875 -0.03466797 -0.12890625 -0.05810547 -0.119628906 -0.099609375 -0.08496094 -0.055908203 -0.084472656 0.20214844 -0.01977539 0.038085938 0.34375 0.26757812 -0.2734375 -0.16992188 0.53515625 -0.15136719 0.31640625 0.19042969 0.10205078 0.21191406 -0.10449219 0.061767578 -0.083984375 0.32421875 -0.107910156 0.09277344 0.16601562 -0.095703125 -0.21679688 -0.23144531 0.12451172 -0.13671875 -0.1640625 -0.20800781 -0.026733398 -0.2265625 -0.04248047 -0.26367188 0.21777344 0.018920898 0.056152344 0.0012893677 0.13085938 0.015014648 -0.14746094 -0.013061523 0.27734375 -0.09423828 0.059326172 0.34765625 -0.115722656 -0.2578125 -0.07421875 0.203125 0.18164062 0.11669922 -0.096191406 0.17578125 -0.20214844 0.15039062 -0.23046875 -0.20703125 -0.022460938 -0.16796875 -0.033203125 -0.16015625 0.15625 0.06591797 0.096191406 -0.029541016 0.23730469 0.003753662 0.022460938 -0.140625 0.01928711 -0.051757812 -0.19140625 -0.08984375 -0.31054688 -0.0119018555 -0.39257812 0.05126953 0.057861328 -0.16015625 -0.10498047 0.17871094 -0.068359375 -0.1953125 0.1484375 0.061035156 0.07080078 0.06689453 0.032958984 0.21484375 -0.1328125 -0.16113281 -0.16992188 0.041503906 0.04345703 -0.16699219 0.09033203 0.12988281 0.0010604858 0.24023438 0.16308594 0.091308594 0.37890625 -0.111816406 0.25976562 -0.012268066 0.07421875 -0.29882812 0.0625 -0.09082031 0.0013046265 -0.29492188 -0.05908203 0.19140625 0.23632812
brother -0.061279297 -0.060302734 0.1953125 -0.13769531 0.15136719 0.22753906 -0.059814453 -0.15039062 0.17871094 0.015319824 0.44335938 -0.14355469 -0.17871094 -0.22558594 -0.32226562 -0.0546875 0.030761719 0.171875 -0.20800781 0.18457031 0.026733398 0.13671875 0.19726562 0.07763672 0.2109375 -0.1796875 -0.17578125 0.10595703 0.13964844 -0.027954102 0.16796875 0.01953125 -0.055664062 0.140625 -0.021850586 0.2421875 0.26367188 -8.392334E-4 0.22753906 0.16796875 0.296875 -0.107421875 0.28125 0.01928711 0.25390625 0.140625 -0.14453125 -0.18457031 0.087890625 -0.3125 -0.071777344 0.12988281 0.18652344 -0.20996094 0.29296875 -0.06982422 -0.19238281 0.12890625 -0.265625 -0.06298828 0.08154297 0.0031585693 0.045898438 0.12109375 1.20162964E-4 0.09423828 0.032226562 -0.119140625 -0.020385742 0.15332031 0.09716797 -0.023925781 -0.19238281 0.23828125 -0.42578125 0.21679688 -0.039794922 -0.09082031 0.1640625 0.020385742 0.20898438 0.0032043457 -0.25 -0.24707031 -0.15429688 -0.03515625 -0.08886719 0.060302734 -0.13085938 -0.071777344 -0.09033203 -0.22363281 -0.16699219 0.12060547 -0.1015625 -0.26757812 -0.0016098022 0.10839844 0.059570312 -0.15527344 -0.13671875 -0.14257812 0.25195312 -0.17871094 -0.109375 -0.12011719 -0.03515625 0.035888672 0.18847656 0.27148438 0.036621094 0.091308594 0.03540039 0.057861328 -0.083496094 -0.009399414 -0.019165039 -0.0859375 0.234375 0.1640625 -0.079589844 0.19921875 -0.02331543 -0.20703125 -0.12695312 -0.20703125 0.19726562 -0.072265625 0.10839844 0.07373047 -0.125 -0.048095703 -0.036621094 0.09814453 -0.055908203 0.08886719 0.08935547 0.265625 0.06542969 0.11621094 0.14355469 0.02319336 0.024902344 -0.06738281 0.11669922 0.048095703 -0.21679688 -0.045410156 -0.018554688 -0.13574219 0.4140625 0.17382812 -0.15136719 0.19628906 0.07470703 -0.060546875 0.05419922 -0.14453125 0.19042969 -0.17480469 -0.00390625 0.16796875 0.11328125 0.18945312 -0.08300781 -0.06542969 0.34179688 -0.0015716553 0.3203125 0.29296875 0.29101562 -0.034423828 0.21875 -0.17382812 -0.18066406 0.13769531 0.14355469 -0.072753906 -0.047851562 0.22558594 -0.010925293 0.07470703 0.030883789 0.063964844 0.09033203 -0.009033203 0.3046875 0.35546875 0.07373047 0.10205078 0.036865234 0.18652344 -0.08496094 -0.025878906 0.24414062 0.09277344 -0.107421875 -0.09326172 -0.014709473 -0.064941406 -0.265625 -0.15527344 -0.26171875 -0.16503906 0.359375 -0.12451172 0.16210938 -0.04345703 0.033935547 -0.20703125 -0.06298828 0.10888672 0.067871094 0.08105469 -0.11328125 0.08203125 -0.20410156 0.18359375 -0.111816406 -0.15722656 0.018920898 -0.14648438 0.32421875 -0.11376953 -0.0041503906 -0.20996094 0.01928711 0.11767578 -0.1484375 -0.067871094 0.07910156 0.052490234 0.071777344 0.12597656 -0.052734375 -0.024169922 -0.24804688 -0.21191406 -0.31054688 0.20507812 -0.27148438 -0.0703125 -0.25 0.08203125 0.10058594 0.35546875 0.051513672 0.13574219 0.103027344 -0.05053711 0.18847656 0.064941406 0.05419922 -0.0019226074 0.10253906 0.029663086 0.048095703 0.095214844 -0.26757812 -0.002532959 0.09375 -0.022705078 0.18359375 -0.17578125 0.010253906 0.122558594 -0.055419922 -0.005432129 -0.0074157715 0.16503906 0.18164062 -0.22949219 0.18359375 0.13671875 0.1328125 -0.16992188 -0.017578125 0.048095703 -0.03955078 -0.076660156 0.17285156 -0.16113281 0.06591797 0.25976562 0.14257812 0.15234375 -0.1796875 0.13769531 0.029541016 0.103027344 -0.21386719 -0.018554688 -0.2578125 -0.20703125 0.08154297 -0.087402344 -0.23144531 -0.39648438 -0.09033203 0.2109375
wine -0.17578125 -0.109375 -0.18945312 0.15625 0.0067749023 0.23339844 0.055419922 -0.296875 0.1328125 0.28710938 0.1796875 -0.27148438 0.041503906 -0.06738281 -0.10205078 0.36328125 0.00970459 0.45898438 0.11035156 -0.017211914 0.30664062 0.16015625 -0.044189453 -0.30664062 0.045898438 0.31835938 -0.028198242 0.15136719 -0.060791016 0.05883789 0.06738281 0.024291992 -0.19335938 0.19824219 -0.17675781 -0.19628906 0.14453125 -0.47851562 0.08886719 0.034423828 -0.22558594 0.115234375 -0.08935547 -0.018920898 0.096191406 -0.26757812 0.12597656 -0.03564453 -0.18457031 -0.012084961 -0.39648438 0.12402344 -0.2734375 0.048339844 -0.38671875 0.03955078 -0.15332031 0.030395508 0.010131836 -0.18261719 -0.110839844 0.07421875 -0.40429688 -0.23828125 -0.07324219 -0.12109375 0.0025634766 -0.44921875 0.25 -0.11328125 0.17480469 -0.06738281 0.18847656 -0.059814453 -0.10058594 0.056884766 -0.24902344 0.14648438 0.076171875 -0.060302734 -0.28125 -0.51171875 0.096191406 -0.14648438 -0.13769531 0.19042969 -0.22265625 0.22558594 0.060058594 -0.008850098 0.021606445 0.09326172 -0.125 -0.028930664 0.008300781 -0.011047363 -0.114746094 0.068359375 -0.20117188 -0.25390625 -0.16894531 0.04321289 0.028198242 0.11035156 0.078125 -0.06542969 0.09082031 -0.06933594 -0.14453125 -0.25390625 -0.05029297 -0.16210938 -0.076171875 -0.18066406 0.115722656 0.265625 0.0067749023 -0.095703125 -0.13671875 0.049072266 -0.17773438 0.1953125 0.09423828 -0.034179688 0.14648438 -0.203125 0.055419922 -0.030395508 -0.28320312 0.14453125 -0.1953125 0.09814453 -0.15820312 0.01940918 0.15039062 0.32617188 0.23535156 0.28320312 0.17871094 -0.16210938 0.15722656 -0.39257812 -0.27734375 -0.2578125 -0.061279297 -0.16601562 0.515625 0.08251953 -0.29296875 -0.05102539 0.27539062 0.18847656 -0.35351562 0.10839844 -0.059570312 -0.13183594 0.002243042 0.01159668 -0.7578125 0.01928711 -0.21191406 -0.040771484 0.19042969 0.19140625 0.06225586 0.09277344 0.34375 0.12402344 -0.13574219 -0.16015625 -0.15625 -0.20898438 0.09033203 0.08984375 -0.25390625 0.018310547 0.041503906 -0.14453125 -0.02734375 0.003692627 -0.045898438 -0.0234375 -0.26171875 0.014404297 0.1328125 0.13085938 0.05883789 0.23535156 -0.06982422 -0.16894531 0.05102539 0.19140625 -0.21875 0.2578125 -0.012329102 0.22460938 0.15332031 -0.030273438 0.083984375 -0.31054688 -0.031982422 0.1640625 -0.01928711 -0.0012054443 0.02355957 0.029418945 0.15820312 -0.04711914 0.052001953 -0.13671875 -0.37695312 0.06225586 0.16992188 0.20898438 -0.0019836426 0.034179688 -0.24707031 0.265625 0.122558594 0.23632812 0.30664062 -0.15136719 -0.068359375 -0.14550781 0.30664062 0.083496094 0.3359375 0.080566406 -0.033203125 0.33984375 -0.095703125 -0.16699219 -0.44921875 0.33984375 -0.1484375 -0.41796875 -0.046875 -0.11328125 0.060302734 -2.784729E-4 0.37109375 -0.017456055 0.068359375 0.27929688 -0.019165039 -0.20019531 -0.018676758 -0.05517578 -0.18554688 0.046875 0.028930664 -0.24023438 0.20703125 0.0035247803 0.1640625 0.08886719 0.08496094 0.099609375 -0.11328125 0.11376953 -0.15039062 -0.09423828 0.12402344 0.099609375 0.032226562 -0.28710938 -0.15429688 -0.091796875 -0.19726562 -0.24316406 -0.11816406 0.028076172 -0.14550781 0.25195312 0.34960938 0.020629883 0.014587402 -0.2578125 -0.12597656 0.15917969 -0.041748047 0.022094727 0.41601562 -0.13085938 0.087402344 0.19238281 -0.1640625 0.23925781 0.075683594 0.42382812 0.045898438 -0.20996094 0.115722656 0.18652344 0.17285156 -0.084472656 0.296875 -0.037841797 0.30859375 0.050048828
object 0.29296875 -0.06298828 0.083496094 0.04345703 -0.5625 0.15429688 0.2734375 -0.052978516 0.08496094 0.14550781 -0.111816406 -0.15039062 -0.04663086 0.020019531 0.025634766 0.052490234 0.04321289 0.03881836 0.088378906 -0.18261719 -0.106933594 -0.08691406 -0.11816406 -0.078125 0.10058594 -0.07080078 0.14453125 0.07128906 0.10498047 -0.27734375 -0.036865234 -0.28320312 -0.12792969 -0.13378906 0.125 -0.119140625 0.24609375 0.103515625 -0.057373047 0.12597656 0.060791016 0.18945312 0.41992188 0.16894531 -0.11425781 -0.35351562 0.114746094 -0.05053711 0.05810547 0.046875 -0.076171875 -0.0859375 -0.20117188 -0.12011719 -0.18847656 0.34179688 0.04248047 0.03857422 0.05444336 -0.06738281 0.11816406 -0.17773438 -0.095214844 -0.0022888184 -0.40820312 -0.0703125 -0.12402344 -0.15039062 -0.25195312 0.106933594 -0.040283203 -0.38671875 0.29492188 -0.13574219 -0.2109375 -0.01977539 0.19335938 0.044189453 0.06640625 0.034423828 0.18652344 0.10595703 -0.003189087 -0.14648438 -0.027954102 -0.045654297 0.10546875 -0.032470703 0.26171875 -0.12158203 -0.125 -0.2109375 -0.08251953 0.114746094 0.40234375 0.0024261475 0.26171875 0.08691406 0.0107421875 0.09814453 0.08642578 0.045166016 -0.087402344 -0.07470703 0.1484375 -0.0064697266 0.24316406 0.05908203 0.13183594 -0.19433594 -0.24804688 -0.1328125 0.075683594 -0.0065307617 0.23535156 0.32226562 0.022583008 -0.14453125 -0.095703125 0.17480469 0.12109375 -0.125 0.18652344 0.08300781 -0.18554688 0.010253906 0.029418945 -0.08203125 0.08496094 -0.025634766 -0.0017242432 -0.22265625 -0.32226562 -0.012634277 0.19042969 0.08105469 0.015563965 -0.05834961 0.1875 0.103515625 0.16015625 -0.10888672 -0.21875 0.19238281 -0.057373047 0.11279297 -0.055419922 -0.0146484375 -0.16796875 -0.034179688 0.20214844 -0.020996094 -0.087402344 -0.104003906 0.20800781 0.049072266 -0.3828125 -0.12988281 0.010559082 0.087402344 0.080078125 0.034423828 0.19433594 -0.171875 -0.05029297 0.0030822754 -0.088378906 -0.033691406 -0.072265625 0.024047852 -0.03491211 4.9591064E-4 -0.25195312 0.24023438 -0.20410156 -0.15722656 0.14257812 -0.14160156 0.05493164 -0.12695312 -0.07128906 0.02319336 -0.09277344 -0.072753906 0.12011719 0.14257812 0.03881836 -0.044189453 0.047607422 0.072753906 0.10986328 -0.010620117 -0.021728516 -0.057128906 -0.15332031 -0.020385742 -0.059570312 0.005554199 0.0054626465 0.046875 0.051513672 -0.28710938 -0.32421875 -0.16015625 -0.17773438 0.10107422 0.035888672 0.24707031 0.08203125 0.018432617 -0.010681152 0.06591797 0.03112793 -0.033691406 -0.38671875 -0.09277344 0.030517578 0.2578125 0.06298828 0.04248047 0.23535156 -0.07519531 -0.19726562 0.106933594 -0.07373047 0.23925781 0.17285156 0.23535156 0.359375 -0.18066406 0.375 -0.21777344 -0.12060547 0.06933594 0.18652344 0.0015563965 -0.060546875 -0.14746094 0.11328125 -1.0061264E-4 -0.04345703 -0.29882812 0.060546875 -0.16015625 0.10058594 -0.047607422 0.060791016 0.03881836 0.19921875 0.030761719 -0.125 0.005584717 0.075683594 -0.10986328 -0.04711914 -0.103027344 -0.22558594 -0.083496094 0.05834961 -0.15429688 0.03540039 -0.171875 -0.23242188 -0.25195312 -0.016113281 0.20507812 0.020507812 -0.052734375 -0.20117188 0.043945312 -0.06933594 -0.035888672 -0.13964844 0.16894531 -0.13964844 -0.10449219 -0.12597656 -0.24609375 -0.17578125 0.07080078 0.033203125 0.3515625 0.10107422 0.27148438 -0.17382812 -0.008972168 -0.18359375 -0.015625 -0.041259766 -0.057861328 -0.20117188 0.25585938 0.009399414 -0.04345703 -0.18164062 -0.013916016 0.040283203 0.011291504 -0.14355469 0.04345703
attitude 0.11328125 0.24414062 0.028564453 -0.005706787 -0.2734375 -0.03881836 0.032714844 -0.20019531 0.004760742 0.07421875 0.08154297 -0.1015625 0.23339844 -0.011169434 -0.28320312 0.28125 -0.057128906 0.4375 -0.03100586 -0.23242188 0.234375 0.056152344 0.19238281 0.19042969 9.1934204E-4 0.114746094 -0.111816406 0.020751953 0.19238281 0.18847656 -0.15136719 0.018310547 0.115234375 0.125 0.20117188 0.052978516 0.20214844 0.10986328 0.004486084 -0.14941406 0.375 -0.24121094 -0.234375 -0.028198242 -0.076171875 -0.22851562 -0.34960938 -0.0625 -0.29296875 0.052490234 0.015991211 0.31640625 0.025146484 -0.125 0.27929688 0.01361084 -0.15039062 0.061035156 -0.07128906 -0.05126953 0.048583984 0.16308594 -0.24316406 0.11035156 -0.07324219 0.110839844 0.13867188 0.12158203 -0.045654297 0.29296875 -0.2265625 0.072753906 0.0047302246 0.26367188 -0.21484375 -0.16113281 0.06298828 0.26757812 0.014953613 0.2421875 0.099609375 -0.13476562 -0.0703125 -0.21875 -0.26171875 -0.14160156 -0.15039062 0.18359375 0.13964844 -0.25195312 -0.07324219 0.06738281 -0.21582031 0.020629883 0.12988281 -0.06225586 -0.055664062 0.35351562 -0.033447266 -0.32421875 0.08935547 0.057617188 -0.123046875 0.12890625 0.14550781 -0.06347656 -0.14453125 -0.091308594 0.088378906 -0.104003906 -0.13769531 -0.20703125 -0.16894531 0.16796875 -0.13378906 -0.056396484 0.1484375 -0.043701172 -0.021606445 -0.053955078 -0.375 0.032714844 0.014038086 0.19921875 -0.01965332 0.040527344 -0.16308594 -0.09375 -0.2421875 -0.2421875 -0.25976562 -0.21289062 -0.06738281 0.111816406 -0.07910156 -0.1640625 -0.16113281 0.06982422 -0.123535156 0.14453125 0.13183594 0.18847656 0.11621094 -0.13867188 -0.0703125 0.07080078 -0.033447266 -0.016967773 -0.04663086 -0.083496094 0.08691406 -0.044921875 -0.21972656 0.07861328 -0.33203125 -0.22460938 -0.0061950684 -0.05859375 0.14160156 -0.009094238 0.09765625 0.10058594 -0.019042969 -0.028808594 -0.14550781 -0.17773438 0.076171875 -0.05078125 0.125 -0.016479492 0.080566406 0.013549805 0.24414062 -0.071777344 0.0703125 0.10644531 0.19726562 -0.19726562 0.109375 -0.15429688 -0.17480469 0.0033874512 0.3359375 0.20605469 -0.21777344 0.072753906 -0.10595703 -0.017822266 -0.07763672 0.012084961 0.10839844 0.16992188 0.030151367 0.29882812 -0.20019531 -0.14453125 0.1171875 0.68359375 -0.19921875 0.32421875 -0.26367188 0.28125 -0.23730469 -0.13964844 0.068847656 -0.07861328 0.037353516 -0.110839844 0.3359375 0.00793457 -0.25390625 0.002243042 0.24316406 0.10498047 -0.095703125 0.19238281 0.03564453 0.25195312 -0.18261719 0.005218506 -0.2265625 -0.030151367 0.114746094 0.13183594 -0.265625 -0.049560547 0.29492188 -0.25585938 0.083496094 0.25976562 -0.072265625 0.052246094 -0.1015625 -0.0703125 0.019042969 -0.052978516 -0.021606445 -0.052001953 0.30273438 0.25585938 0.111328125 0.03515625 0.19824219 -0.15039062 -0.037353516 0.08105469 -0.22558594 -0.16894531 0.091308594 0.091796875 0.125 0.25195312 0.002380371 0.21972656 -0.24609375 -0.20117188 0.076171875 0.29296875 -0.087890625 0.12792969 0.14941406 -0.14453125 -0.25585938 0.25976562 0.29296875 0.042236328 0.072265625 -0.07470703 -0.19921875 0.07861328 -0.040771484 0.16894531 0.12011719 0.15820312 -0.12597656 0.096191406 -0.17382812 0.27148438 0.02319336 -0.01574707 0.17382812 0.025756836 0.056396484 -0.007659912 -0.13867188 -0.06298828 0.04638672 0.042236328 0.08935547 0.31445312 -0.42773438 0.17285156 -0.010437012 -0.15527344 -0.087890625 -0.083496094 0.31835938 -0.0074157715 0.02355957 0.19140625
treatment -0.24023438 0.37890625 0.08105469 0.13378906 0.10839844 0.21875 0.107421875 -0.4453125 -0.10498047 -0.10253906 -0.16015625 -0.0859375 0.07714844 0.20507812 -0.017333984 0.17480469 0.02368164 0.09472656 0.026123047 0.03540039 0.18457031 0.07519531 0.1328125 -0.022094727 -0.19726562 -0.16894531 -0.33398438 0.107910156 -0.16503906 -0.13867188 -0.13867188 -0.025268555 -0.40039062 -0.029785156 -0.41601562 0.13964844 0.052246094 -0.06298828 0.0050354004 -0.21289062 0.064453125 0.025146484 -0.04321289 -0.15917969 -0.09082031 -0.07861328 0.036865234 -0.052734375 -0.2734375 0.026000977 0.053955078 -0.033935547 -0.09375 -0.10839844 0.025512695 -0.19824219 -0.10205078 0.26171875 -0.1328125 -0.009765625 -0.11816406 0.14648438 0.05126953 -0.27539062 -0.032714844 0.25 0.17675781 -0.01586914 -0.0050964355 -0.13964844 -0.110839844 -0.07421875 0.22949219 0.12988281 0.049316406 -0.14453125 -0.033203125 0.005126953 0.11376953 0.34960938 -0.07910156 -0.06298828 -0.14941406 0.092285156 -0.04272461 -0.03955078 -0.22851562 -0.03881836 0.171875 -0.31445312 0.27929688 0.16796875 0.14257812 0.30078125 0.064941406 -0.1015625 0.16210938 -0.14648438 0.25976562 0.09472656 0.17382812 -0.09082031 0.2265625 0.011474609 0.025024414 -0.017822266 0.032958984 -0.27148438 0.13574219 -0.11279297 0.040771484 0.103027344 0.0035858154 0.080078125 -0.04663086 -0.24902344 -0.0126953125 -0.06201172 0.119140625 0.19042969 -0.29101562 -0.064453125 -0.044677734 -0.12011719 0.12695312 -0.21386719 -0.056640625 -0.06201172 0.12402344 -0.045410156 0.040039062 -0.24121094 -0.048339844 -0.20507812 -0.22265625 -0.29296875 0.19824219 -0.080566406 0.09326172 -0.0033569336 0.021118164 0.13964844 -0.15429688 0.05810547 0.20117188 -0.083496094 0.061279297 0.006286621 -0.36914062 -0.27539062 0.2109375 -0.20800781 0.05102539 0.038085938 0.21484375 -0.23730469 -0.067871094 -0.11669922 0.103027344 -0.25195312 0.03564453 0.4609375 -0.079589844 0.12011719 -0.37695312 -0.17285156 0.03564453 -0.14453125 -0.005340576 -0.078125 0.24804688 -0.16992188 -0.13964844 0.104003906 0.110839844 -0.20703125 0.046875 -0.2578125 -0.33789062 0.020507812 -0.055908203 0.0546875 0.02709961 -0.023803711 -0.06347656 -0.05834961 0.036621094 -0.10058594 0.057128906 0.056640625 -0.17578125 -0.122558594 0.0625 0.05102539 0.061279297 -0.04711914 -0.13769531 -0.09033203 -0.05078125 -0.006164551 -0.028686523 0.06933594 0.28320312 0.025512695 -0.0546875 -0.18066406 -0.051757812 0.140625 0.16308594 -0.13671875 0.008117676 0.033691406 -0.13183594 -0.083984375 0.19433594 -0.057128906 0.1953125 0.061279297 -0.10888672 -0.20996094 -0.10888672 0.107910156 0.18457031 -0.026000977 0.20996094 -0.021362305 -0.06591797 -0.12109375 -0.28710938 0.28710938 -0.0050354004 0.07519531 -0.10986328 -0.25976562 -0.05810547 -0.18359375 -0.17773438 0.060058594 0.096191406 -0.008178711 0.111816406 -0.08984375 0.17480469 -0.111328125 0.119140625 0.041992188 0.029907227 0.18554688 -0.041015625 -0.017944336 0.27539062 -0.060058594 0.2421875 0.026000977 0.099121094 0.2734375 -0.10253906 0.04248047 -0.17382812 -5.607605E-4 0.059326172 -0.11328125 -0.38671875 0.006958008 0.2265625 -0.056396484 -0.016235352 -0.19433594 -0.15722656 0.09863281 0.08935547 0.020751953 0.14160156 -0.103027344 0.106933594 -0.06298828 -0.30273438 0.010253906 -0.057617188 0.06298828 0.26367188 0.123046875 0.22851562 0.020141602 -0.104003906 0.12060547 0.08496094 0.016967773 -0.06640625 -0.068359375 -0.15429688 -0.029418945 0.21875 0.1953125 0.118652344 0.22851562 -0.203125 0.2578125 0.29101562 0.14550781
flight -0.084472656 0.022949219 -0.19921875 -0.13769531 0.032714844 -0.22851562 -0.13867188 -0.39453125 0.24511719 -0.09814453 0.107910156 -0.20605469 0.14941406 -0.07763672 -0.0546875 0.25195312 0.15234375 0.009460449 0.0390625 0.11767578 -0.10058594 -0.063964844 -0.22558594 -0.20898438 9.689331E-4 0.103027344 -0.19824219 0.080078125 0.21289062 0.1640625 -0.034179688 -0.12890625 -0.06201172 -0.24511719 -0.20214844 -0.051757812 -0.296875 0.22363281 0.09033203 0.09082031 0.0011749268 0.056396484 0.43359375 -0.0067749023 0.03173828 -0.4765625 0.21289062 0.06347656 0.3203125 0.060546875 -0.12060547 -0.080078125 0.13378906 0.056152344 0.04272461 -0.40625 0.09423828 -0.048583984 0.04296875 0.06640625 0.12988281 -0.14257812 0.014465332 -0.037597656 -0.09375 -0.059326172 -0.06982422 0.076171875 0.22460938 -0.012451172 -0.123535156 -0.026611328 -0.05102539 -0.044189453 -0.28320312 0.019042969 0.119140625 -0.09716797 -0.02734375 -0.024902344 -0.049072266 0.05078125 0.079589844 -0.09863281 0.05908203 -0.25390625 -0.18652344 0.012756348 0.23925781 0.17871094 0.051513672 -0.265625 -0.24804688 -0.111328125 0.20605469 -0.13671875 0.043701172 0.049560547 -0.052246094 -0.19726562 0.33203125 -0.083984375 -0.080566406 0.037597656 0.16210938 0.033203125 0.35546875 0.12597656 0.37304688 0.002532959 -0.14648438 0.11669922 -0.16699219 -0.019165039 -0.50390625 -0.0053710938 -0.110839844 0.23730469 -0.056152344 -0.029907227 -0.24609375 -0.115234375 0.115234375 -0.037841797 -0.048095703 -0.018432617 -0.19726562 -0.123535156 0.1328125 0.15625 0.056640625 -0.09863281 -0.087890625 -0.28710938 0.041015625 -0.40234375 -0.035888672 0.049804688 -0.05029297 0.27148438 0.015258789 -0.22558594 -0.06640625 0.029541016 0.017700195 0.21582031 -0.2734375 -0.19628906 -0.048583984 -0.14257812 0.15429688 0.104003906 0.1953125 -0.0134887695 -0.18457031 -0.69921875 -0.037353516 -0.17089844 0.068847656 -0.03881836 -0.21972656 0.071777344 0.118652344 0.123046875 -0.1796875 -0.018920898 0.107421875 -0.110839844 0.13378906 -0.21972656 -0.06738281 -0.033935547 0.033203125 -0.043945312 -0.0126953125 0.03930664 -0.22753906 -0.0390625 -0.09667969 0.033691406 -0.12890625 -0.044921875 0.021240234 -0.15722656 0.25976562 0.12597656 -0.096191406 0.025146484 -0.22851562 -0.06689453 0.044433594 0.18261719 0.125 0.29101562 -0.1640625 0.3515625 -0.24707031 -0.068847656 -0.17382812 -0.421875 -0.027832031 0.13769531 -0.171875 -0.19628906 0.19335938 0.17089844 0.043701172 0.055908203 -0.13085938 -0.18945312 -0.22070312 0.19726562 -0.16894531 -0.0013656616 -0.20214844 0.07763672 0.296875 0.32226562 -0.057373047 -0.002532959 -0.3046875 -0.19824219 0.14355469 0.265625 0.12988281 -0.07421875 -0.17578125 0.07128906 -0.16210938 -0.024047852 0.3515625 -0.203125 -0.203125 -0.25 0.07763672 0.064453125 -0.15332031 0.0022583008 0.05517578 -0.27539062 -0.05029297 -0.04248047 -0.045410156 -0.51171875 -0.20019531 -0.0048828125 -0.22265625 -0.5 -0.052734375 0.14355469 -0.041259766 0.04321289 -0.16113281 0.05908203 -0.064453125 -0.045898438 0.09472656 0.29882812 0.025024414 -0.076660156 0.04321289 0.36914062 -0.059814453 0.17480469 -0.05078125 0.040039062 0.17578125 -0.28515625 -0.375 0.010681152 -0.048095703 0.045166016 -0.040039062 0.18652344 0.036621094 -0.16894531 -0.18652344 0.005126953 -0.22949219 -0.031982422 0.049804688 0.047607422 -0.21386719 -0.18261719 0.171875 0.19628906 -0.20605469 0.23925781 -0.27734375 0.20800781 0.05883789 -0.040283203 0.05883789 0.14453125 0.2890625 -0.053710938 -0.1484375 0.125 0.1953125 -0.18945312
forest 0.33789062 0.17089844 -0.0028381348 0.03540039 0.39257812 -0.09375 -0.08496094 -0.11035156 -0.09082031 -0.040527344 0.18554688 -0.08984375 -0.515625 -0.3203125 -0.18945312 -0.18652344 -0.075683594 0.06225586 -0.12060547 0.22167969 -0.059570312 -0.21777344 -0.11816406 -0.0146484375 0.15429688 -0.15136719 -0.24121094 -0.014892578 0.3515625 -0.12792969 -0.024047852 -0.15039062 -0.16601562 -0.019165039 -0.35742188 -0.36132812 -0.09326172 -0.26953125 0.27539062 0.09033203 -0.18164062 -0.18164062 0.06640625 -0.09716797 -0.20507812 -0.55859375 -0.18261719 -0.20410156 0.19140625 -0.10205078 0.08251953 -0.032226562 -0.01928711 -0.021850586 -0.10644531 -0.21386719 -0.025512695 -0.3203125 0.004760742 -0.15820312 -0.076171875 0.01965332 0.26171875 -0.12988281 -0.22558594 0.016113281 0.19726562 -0.060791016 -0.18359375 -0.23339844 -0.34375 0.026245117 0.21582031 -0.3671875 -0.24023438 0.05078125 0.28710938 -0.30078125 0.040039062 0.015014648 0.14746094 0.3203125 -0.071777344 0.25585938 0.10986328 0.088378906 0.10058594 0.022583008 0.123535156 0.23828125 -0.01361084 0.234375 0.063964844 0.03540039 -0.296875 -0.515625 0.04272461 -0.38085938 0.19433594 -0.3515625 -0.19921875 -0.14550781 0.12988281 0.17773438 0.1640625 -0.008239746 0.018188477 -0.053955078 -0.10253906 -0.011169434 -0.44140625 -0.14257812 -0.19042969 0.099609375 0.028442383 0.059814453 0.123046875 -0.18652344 -0.3046875 0.12792969 0.024414062 -0.031982422 -0.37109375 0.15820312 0.15332031 0.15722656 0.13671875 -0.22558594 0.06689453 -0.008117676 -0.16894531 -0.1171875 -0.10253906 -0.140625 0.24121094 0.103515625 -0.3671875 -0.13378906 0.15429688 0.07470703 0.17285156 -0.17773438 -0.06347656 -0.006439209 -0.12792969 -0.18847656 -0.021972656 0.095214844 -0.13476562 0.06982422 0.3515625 0.15136719 -0.14453125 0.41601562 -0.23535156 -0.22851562 0.41210938 -0.10644531 -0.111328125 -0.18847656 0.14160156 -0.0068969727 0.16992188 0.25195312 -0.014892578 0.25585938 -0.0075683594 -0.103515625 -0.17578125 0.0032348633 -0.061523438 0.08984375 0.046142578 -0.17578125 0.025878906 0.055664062 -0.050048828 -0.07373047 -0.15722656 -0.16210938 -0.41015625 -0.27734375 0.12597656 -0.095703125 0.08105469 0.17578125 -0.14746094 0.024414062 0.27539062 0.1328125 0.060302734 -0.5078125 -0.18457031 -0.09814453 0.1875 0.08496094 0.13769531 -0.072265625 -0.09423828 -0.053222656 0.11230469 0.11376953 0.061279297 -0.111816406 -0.13476562 0.25390625 0.4296875 0.07373047 -0.27929688 0.072265625 -0.26367188 -0.125 0.12451172 -0.12402344 0.059326172 0.11621094 -0.106933594 -0.009094238 -0.024414062 -0.0019683838 -0.026733398 -0.13964844 -0.3125 0.15332031 0.16308594 0.022827148 0.14746094 0.050048828 0.23535156 0.25976562 0.32421875 -0.07714844 -0.13867188 0.095703125 -0.0032196045 0.11376953 0.026000977 -0.051757812 0.111328125 -0.04296875 0.07910156 -0.30859375 0.07128906 -0.15039062 0.03881836 -0.17285156 0.29101562 -0.15820312 0.04248047 0.296875 -0.24902344 -0.037597656 0.14355469 0.08300781 -0.011657715 -0.1796875 0.10498047 -0.20996094 -0.021850586 -0.029052734 -0.23242188 -0.07861328 0.118652344 0.11767578 0.24902344 0.12792969 -0.24511719 0.16992188 -0.071777344 -0.12207031 0.024414062 -0.041015625 -0.033203125 0.049560547 0.08203125 -0.06347656 0.04736328 -0.11279297 0.1640625 0.17382812 0.15625 -0.1796875 0.27539062 -0.14257812 0.13574219 -0.5 -0.08300781 -0.16503906 0.07910156 0.20507812 -0.3203125 -0.13964844 -0.034179688 -0.013000488 0.013793945 0.08105469 -0.20800781 0.02355957 0.46289062 0.35742188
