419 50
plane 2.1142 -0.10664 0.9724 0.12151 0.57094 -0.1357 -0.67595 0.11692 0.47239 -1.101 0.81084 -0.090698 -0.46271 1.3341 0.0239 -0.1267 -1.2707 0.56832 -1.6673 -0.95373 -0.33804 0.93578 -0.46047 -0.1079 0.74533 -1.9891 -0.10004 1.0233 0.85239 0.16472 2.0548 0.0040526 -0.84094 0.20915 0.64106 -0.39855 0.37578 -0.38962 -0.26623 1.0977 0.092818 0.63682 1.2017 -0.29674 -0.77097 0.092794 0.19358 0.063586 0.15693 -0.48504
stupid -0.47061 -1.1823 -0.3288 -0.55842 0.22487 0.28696 0.43357 -0.61696 -1.174 0.60274 -0.93162 0.82608 -0.26026 0.36807 0.94853 -0.20038 0.7003 0.64408 0.18012 -0.31822 -0.80936 0.66664 0.56408 0.60758 1.3563 -1.4934 -1.0302 0.71103 1.4633 -0.8262 1.465 0.095106 -0.23066 0.23209 -0.50286 0.14657 0.52548 -0.30214 -0.44228 -0.60853 -0.31353 -0.090107 0.40497 0.93796 0.62139 -0.12158 -0.28975 0.37746 1.4223 1.2997
egg 0.42584 0.22498 -0.44857 -0.22726 1.3462 2.0524 -0.34857 -0.080376 0.50811 -0.008289 0.20907 -0.10272 1.7036 1.2595 -0.25248 0.31343 0.1773 0.17004 -0.505 -0.25286 0.9893 -1.0132 1.5275 0.064581 -0.34393 -0.53873 0.096421 0.68288 1.2355 -0.65697 1.5745 0.1512 -0.95893 0.55839 -0.52137 0.1623 -0.30843 1.1385 1.3097 -0.77904 0.26713 -0.92731 -0.70553 0.12533 1.075 0.63071 0.22872 -0.46971 0.18615 -0.18569
year -0.098793 0.26983 0.35304 -0.10727 -0.015183 0.053398 -1.0824 -0.53005 0.0095416 0.070428 -0.08925 -0.62666 -0.52662 -0.56571 1.8044 0.01686 -0.44871 -0.04146 -1.1136 0.17488 0.49561 -0.38238 0.30185 -0.70675 -0.35891 -1.5164 -0.024403 -0.54107 -0.36163 0.52803 3.6553 0.71214 -0.16995 0.36368 0.3399 -0.48186 0.10936 0.61428 0.15697 -0.70716 -1.2359 -0.014258 0.095588 -0.30634 -0.49741 -0.049394 -0.16697 0.11972 -0.37511 0.098348
psychiatry -0.53517 0.28282 -1.2081 -0.84595 -0.17227 0.26348 0.36338 -0.86262 0.37213 -0.5157 0.37431 -0.11135 -0.26551 0.0021338 -0.2062 0.13045 -0.83474 0.3296 0.13466 1.3218 0.040261 1.2806 -0.32573 -0.24574 -0.82531 -1.0059 -0.93664 -0.9644 -0.81592 0.44601 0.42812 -0.7346 0.051573 -2.0014 -0.28235 0.55171 -0.082392 0.45038 1.8147 0.20296 -0.025939 -0.39583 0.45773 1.268 0.75427 0.63028 1.0093 0.51045 -0.98375 1.2494
asylum 0.48401 -0.2766 0.24114 -0.74386 -0.42389 -0.26692 -0.34907 0.59362 0.68913 0.42105 0.34782 -0.3952 1.0164 -0.20556 0.89851 -0.021986 0.090434 -0.89654 0.64091 0.6789 0.073578 1.0306 -0.76404 0.59287 0.12277 -1.6506 0.86382 -0.8712 -0.63848 -0.037945 1.379 -0.4665 -0.99938 -0.56297 0.19782 -0.054357 0.6327 -0.8386 -0.53818 -0.897 0.069285 0.26487 1.7025 0.36773 -0.48161 -0.65629 -0.3845 0.17198 0.13767 -1.0544
manslaughter 0.11446 -0.10384 -0.4464 -0.21574 0.48395 2.0378 1.714 1.2017 0.39208 0.41368 0.18182 -0.1954 -1.2917 -0.49698 0.89172 -1.26 -0.48331 0.014655 -0.84039 -0.93976 0.64062 0.71458 -0.45517 0.048731 -1.3699 -1.6836 0.99887 -0.34174 0.36694 0.29017 0.16839 -0.0030097 -0.18613 -0.73736 1.5185 -0.25238 0.75191 -0.69803 0.61913 0.08074 -0.73046 0.43034 0.94559 0.66739 -0.23595 -1.4792 0.06479 -0.050228 0.9905 0.042898
music -0.92448 0.59807 -0.995 -0.045298 -0.38836 0.032817 -1.1416 -0.30202 -0.33753 2.0498 0.72614 0.25759 0.062278 0.60505 0.19414 -0.33841 0.0098585 0.28398 -0.025021 -0.53623 1.2342 1.0731 -0.087618 0.99114 0.49666 -0.46601 -1.7859 -0.50884 -0.67744 -0.91626 3.6685 -0.58218 0.72491 -0.47676 -0.35207 0.041236 0.27288 -0.205 -0.1238 0.10142 0.59449 0.27638 -0.92749 -0.63906 -0.13326 0.50902 0.15386 -0.86544 -1.3564 0.28513
record -1.6398 0.61054 0.71696 0.57066 -0.15109 -0.10297 -1.1412 -0.068267 0.48736 0.893 -0.24134 -0.6817 -0.75418 -0.10057 1.2959 -0.72442 0.041722 -0.93355 -1.2367 -0.14492 -0.050196 -0.036325 0.27666 -0.92322 0.29028 -0.94965 -0.33049 -0.63168 0.089286 0.13996 3.1128 0.10487 0.66025 0.28615 0.018298 -0.45735 0.39866 0.64857 -0.28788 -1.078 -0.48762 -0.61415 0.28252 0.263 -0.59686 0.28728 0.022477 0.12778 -0.16475 -0.3638
energy 0.068807 0.36938 1.0194 0.72622 0.33166 -0.11674 0.0519 -0.6263 0.69984 1.1034 0.88412 0.61662 0.06318 0.52554 -0.60775 0.58884 0.86194 0.73354 -0.27098 -1.1423 1.231 -0.38583 0.16454 -1.2052 0.081969 -1.1499 0.34174 0.16186 0.46667 1.2949 3.2169 0.25992 -0.19911 -0.86953 -0.43616 -0.7124 -1.0666 0.37666 1.222 0.49324 -0.11295 0.31521 -0.073187 -0.56738 -0.21031 0.75698 -0.53484 0.86998 0.023162 0.49219
announcement 0.71427 -0.076561 -1.0032E-4 0.61367 0.25116 -0.45724 -0.68986 0.35744 -0.36222 0.14428 -0.3559 -0.3902 -0.46053 -0.31612 0.88676 0.53842 -1.0938 -0.87539 -0.33256 -0.47896 0.92381 0.11364 -0.24667 -1.0604 0.0944 -1.4119 0.11839 0.66996 -0.71172 0.67547 2.3694 0.060155 -0.4769 -0.039138 -0.23184 -1.3246 0.42434 -0.42601 -0.5157 -0.53238 -0.25447 0.12795 -0.98495 -0.61806 0.38874 0.068839 -0.37138 1.585 0.046562 0.29566
mile 0.2239 1.3072 0.64866 0.27796 0.43548 0.29628 -0.29534 -0.77053 0.81238 -0.91393 -0.97766 -2.0684 -0.20831 -1.0985 0.20087 -0.17046 0.98169 0.88962 -1.6925 -0.009196 -0.41214 0.21515 -0.47877 0.080024 0.32619 -0.32052 0.20442 0.88858 0.95905 -0.27638 2.2801 -0.10575 -0.32096 1.1558 0.06112 -0.34475 0.35645 0.04501 0.18344 0.10263 -0.036582 -0.43363 0.21563 0.17002 -1.6162 -0.97617 0.7642 -1.1101 -0.13368 -0.42455
airport 1.5719 0.58655 0.16413 0.35197 -0.36115 -1.6337 -0.62805 0.11577 0.34076 -0.61184 0.41981 -0.57607 -0.30551 -0.56476 -0.067369 0.82933 -0.71416 0.9558 -1.4037 -0.022304 0.8973 0.94519 -1.2876 0.25695 -0.31936 -1.7324 1.1564 1.1183 0.23981 -0.37644 1.9239 0.75797 -0.34853 -0.71668 0.42265 -0.28627 0.95813 -0.29014 -0.029019 1.5081 0.15 1.0292 0.82773 -0.30834 -1.1597 -0.13498 -0.41566 -0.29748 0.56497 -0.073029
population 0.36062 -0.26441 0.27259 -0.96272 1.0993 0.82948 -0.3688 -1.1358 0.30867 -0.5805 0.54634 -1.6902 1.6623 -1.1231 0.39183 -0.084451 0.52992 0.051941 -0.67467 0.92963 -0.96431 -0.55312 0.32131 0.76165 0.24344 -0.57555 -0.37746 -0.69368 0.11516 0.71955 3.3259 0.18065 0.46575 -0.6896 0.022578 -0.51935 -0.45908 -0.49501 0.2609 0.78993 -1.3758 -0.09019 1.2402 0.044465 -0.80741 0.38581 -0.565 -0.12063 0.21548 -0.29169
planning 1.0782 -0.070636 -0.10853 0.18886 0.04225 -0.54108 -0.43116 -0.57887 0.14898 -0.2882 -0.317 -0.049955 -0.40001 -0.02331 0.1222 0.04445 0.30555 0.27669 0.33215 0.18424 1.1714 0.10704 -0.60995 -0.14559 -0.15045 -1.2497 0.088093 -0.88268 -0.071729 0.2363 2.8883 0.28864 -1.2939 -1.1249 0.049658 0.38681 0.08341 0.22532 -0.10342 0.5568 -0.73785 -0.15226 0.10483 -0.18371 0.29228 -0.57251 -0.28479 0.74043 0.65694 0.9258
canyon 0.84026 1.9344 0.24706 0.63738 -0.95762 -0.54375 -1.4187 0.32577 0.4637 -0.12535 -0.86929 -0.099581 0.75975 -0.28752 -0.51146 0.040893 0.90116 0.35163 -0.44937 -0.43146 -0.47703 -0.36989 -0.60176 -0.36079 0.26149 -0.19421 -0.41294 1.2039 0.087113 -1.1191 1.2769 -1.2976 -0.35179 0.090116 0.3722 -0.4555 -0.41083 -1.1724 0.99936 0.20998 -0.83278 -0.46363 -0.092761 -2.5229E-4 -0.71403 -0.68668 0.42584 -1.0305 -0.038274 -0.81353
delay 0.90459 -0.37 0.20705 0.25889 -0.72087 0.70408 0.10693 1.1472 0.50695 0.064533 -0.77592 -0.10747 -0.36821 0.052028 0.82169 0.18539 -0.37058 -0.92292 0.39546 -0.82555 0.79935 -0.29799 -0.25364 -0.38912 0.4028 -1.5322 0.72914 -0.09719 0.55421 0.69569 2.4223 0.01383 -1.086 -0.15468 0.079755 -0.5508 0.64971 -0.27832 -0.32458 -0.24206 -0.4446 0.37721 -0.69421 0.22969 -0.39411 -0.12701 0.21316 1.2459 -0.52927 0.80937
size 0.42496 0.62256 0.45534 0.21228 1.8412 0.56296 0.1742 -1.2293 -0.14219 -0.67129 0.12682 -0.29442 1.0891 0.066685 0.38325 0.58752 -0.61554 0.44571 -0.88851 -1.2684 -0.30284 -1.1256 -0.37254 -0.7837 -0.12274 -0.77839 -0.77191 0.37814 1.0284 0.36786 3.0833 0.21974 0.20265 0.050273 0.41587 0.40145 -0.17162 0.54531 0.11405 -0.58774 -0.031117 0.11179 0.42903 0.76551 -0.60878 0.055246 0.61772 -0.23703 0.11955 0.071263
peace 0.57799 0.99986 -0.53279 -0.50667 0.78591 -0.12575 -0.22159 0.3003 -0.068389 -0.15202 -0.23185 -0.30412 -1.2577 0.013074 -0.01122 0.37426 1.3629 -0.64067 1.1377 0.3574 0.13101 1.2354 -0.18961 -0.76785 0.43404 -1.0692 0.13794 -0.29264 0.24017 0.48798 3.3225 0.11328 -2.4298 -0.26524 -0.41547 -0.63322 -0.2971 -0.74152 -0.78166 0.21767 -0.97039 -1.0924 -0.37907 -1.4855 -0.080289 0.31801 -0.38521 0.74582 -0.95574 -0.92374
science -0.60334 1.0577 -0.30452 0.056728 6.2269E-4 -0.15874 -0.39343 -1.6816 0.25751 0.096477 0.22256 0.40022 -0.13319 0.50095 -0.31653 -0.13437 0.36205 1.1403 -0.46058 0.78453 1.1051 0.67427 0.33348 -0.19985 0.8804 -1.5153 -1.0876 -0.97803 -1.0249 -0.08135 2.6487 -0.47125 -0.45275 -2.0287 -0.4091 0.26637 -0.66804 1.1231 0.89049 0.20298 -0.024961 -0.46865 0.25623 0.37514 -0.12434 0.72878 0.90596 0.83551 2.2837E-4 0.44761
dawn 0.46634 -0.16922 -0.32572 -0.17438 0.2236 -0.64427 -0.73369 0.30646 0.18684 -0.513 -0.26755 -0.77698 -0.29915 0.53999 0.27767 0.30159 -0.45176 -0.41533 -1.3746 0.19574 0.63609 1.6788 0.32481 -0.19539 0.54278 -0.46618 -0.25649 0.31539 0.59934 0.13895 1.6914 -0.36075 -0.58891 0.23396 -0.29272 0.085758 0.16655 -1.3345 0.064643 0.81455 -0.28941 0.39828 -0.37073 -0.85114 0.73858 -0.042926 0.29288 -0.97857 -0.38885 -0.16349
brother 0.38241 0.56538 0.17174 -0.32832 1.1811 0.64141 -0.75489 0.76061 -0.84549 0.067996 0.40488 1.3168 -1.039 -0.36122 0.74153 -0.20821 -0.46036 0.030236 -0.2302 0.59638 -0.48645 0.69894 0.16648 0.21533 0.2518 -2.0648 -0.20365 -1.1691 -0.1263 0.1645 1.5242 -0.32779 -0.42933 -0.11819 0.77706 0.26428 -4.162E-4 0.41256 0.34926 0.24193 -0.09411 1.1235 -0.8575 -0.47789 0.45681 -0.23303 -0.93793 -1.7232 0.091327 0.19521
wine -0.1145 0.75404 -1.6432 -0.61038 0.60352 -0.56396 -1.0069 -0.44103 0.61256 1.1812 0.18128 0.30032 1.1817 -0.62548 1.2156 -0.30738 0.54095 0.53758 -0.026086 -1.7387 0.46533 -0.62835 0.50936 1.1192 -0.74747 -0.57528 -0.9203 0.98612 0.29107 0.60208 1.9703 -0.27461 -0.34921 0.44141 0.64402 -0.32353 -1.4541 1.1472 0.86875 -0.074512 0.85632 0.59341 0.4655 -0.0387 0.26463 0.94151 -0.27335 -0.085403 0.12693 -0.23861
object 0.75484 0.52632 0.31252 0.046538 1.3385 0.72495 0.65268 -0.51932 -0.44174 0.36814 0.6511 0.25505 0.56532 0.66474 0.0039622 0.24662 -0.022555 0.069457 -0.43806 -1.0776 -0.44104 -0.33489 -0.36575 0.16141 0.83452 -1.1244 -0.32204 0.58859 0.53177 -0.31965 2.1169 -0.6872 -0.46852 -1.4809 -0.53857 -0.14968 0.086619 -0.26639 -0.67491 0.14816 0.91682 -0.16232 0.11633 1.0982 -0.60193 -0.44061 0.56405 0.15835 0.21799 -0.6521
attitude -0.63839 -0.025727 -1.1319 -0.99122 0.34036 -0.35988 0.50756 -0.05073 -1.0321 0.75828 0.49515 0.35981 -0.4497 0.14471 -0.77351 0.14695 -0.0064117 0.25412 0.26385 -0.42533 -1.0009 1.15 -0.27255 0.15933 0.82901 -1.6348 -0.47612 0.73374 0.86038 0.58288 2.3411 0.51029 -0.061078 -0.60128 -0.42613 -0.81587 -0.27513 -0.10741 -0.93611 -0.50916 0.044656 -0.49937 0.18406 0.5277 0.50005 -0.3832 -3.0214E-4 0.72457 0.28586 1.025
treatment 1.2129 0.1794 -0.78476 -0.59785 -1.0579 0.83787 0.51197 0.14406 1.0359 0.95151 0.44521 -0.31813 0.53561 -0.62935 0.27831 0.22614 -0.60349 -0.30374 0.41071 0.24203 -0.56889 0.86561 0.17554 -0.24045 -0.43451 -1.4961 0.24072 -0.26981 0.19057 0.36414 3.2887 0.12111 -0.31972 -0.92311 0.17126 0.49171 1.1672 0.69535 0.61242 -0.23086 0.0031133 0.11312 0.76307 1.0815 0.96067 -0.22464 -0.32395 0.36961 -0.040345 0.81638
flight 1.7306 0.284 -0.040613 -0.087372 -0.4819 -0.4278 -0.65733 0.31632 1.0554 -0.70909 0.57747 0.3628 -0.46717 0.97844 0.12695 -0.39876 -1.6432 0.34616 -1.9699 -0.40326 0.27543 0.7005 -0.24267 -0.0042508 0.34004 -1.6021 0.06427 0.035409 0.33291 0.25677 2.2611 0.95595 -0.55761 -0.12359 0.74087 -0.47427 0.89383 -0.022107 -0.38237 0.87486 -0.13263 0.069306 1.1166 0.44355 -0.84921 0.039591 0.34486 0.34012 -0.097281 0.28005
forest -0.0033744 0.48159 -0.38963 0.43848 -0.50295 -0.42412 -1.208 -0.78874 1.0239 -1.0952 -0.19728 -0.30696 0.89009 -1.5123 -0.38904 0.46091 1.246 0.34774 -0.80965 -0.048087 -1.1181 -0.0453 -0.10027 -0.29881 -0.14263 -0.28798 0.36795 0.52148 0.022962 0.1424 2.6207 -0.89286 -0.2213 -0.88182 -0.029451 0.73686 -0.61829 -0.61146 0.89522 -0.79971 -0.44252 -0.55538 0.31708 0.14806 0.19353 0.68871 -0.075274 -0.92896 0.4294 -0.87843
abuse 0.27935 -0.094582 -0.81328 -0.51345 0.09245 0.89141 0.87998 -0.20235 0.65772 0.2521 -0.3525 0.11264 -0.39444 -1.1474 1.3963 -0.76728 -0.88335 -0.25955 0.3862 0.24429 -0.30307 0.81105 0.19347 0.20834 -0.74998 -2.0488 0.46707 -0.30501 0.23822 0.24885 2.2957 -0.0035739 0.14947 -1.9006 -0.61638 0.85554 0.068752 -1.3169 0.38996 -0.33758 -0.37278 0.31684 0.57165 1.4761 0.82761 -0.19294 -0.27065 0.26455 0.23523 -0.24849
criterion 0.16425 0.81743 -0.048076 -0.24741 0.55386 0.33778 0.86096 -0.83448 0.62239 0.98116 0.64135 0.02072 -0.41932 -0.056697 0.53845 0.81526 0.56172 -0.63675 0.691 0.01429 0.13469 -0.7054 -0.35452 0.45553 -0.33546 0.43693 -1.011 -0.12912 -0.33707 0.50203 0.6099 -0.11313 -0.20103 -0.65416 0.85761 -0.34935 1.2927 0.59563 -0.41989 -0.35149 0.42771 -0.35511 -0.43265 0.28101 -1.3111 -0.076329 0.56534 0.83519 0.5794 0.44331
sea 1.3549 0.96469 -0.65964 0.3297 0.025316 -0.39186 -0.45001 0.089164 0.59136 -1.0542 0.25812 0.74352 1.2827 0.52466 -0.42253 0.11421 0.75232 0.33939 -2.3079 0.034455 -0.095369 -0.074015 0.92792 -0.64279 0.59323 -1.0927 0.26985 0.94022 0.96001 0.092628 3.0371 -0.25415 -0.097124 0.48477 -0.004144 0.058441 -0.70393 -0.85605 -0.34921 0.57608 -0.34497 -0.09798 1.5362 -0.42353 -0.10344 -0.063314 -0.078199 -0.54478 -0.20832 -0.97593
dollar -0.12318 0.33984 0.85825 -0.31793 -0.033968 -1.1123 0.10244 -0.4929 -0.26084 1.0955 -0.62132 0.13373 0.084462 0.020772 0.79556 0.54846 0.027878 -0.3913 -1.0219 0.10898 1.3353 -0.53507 -0.73767 -1.5169 -0.64226 -1.4995 0.65463 0.46814 0.0095991 0.91297 3.1169 0.12388 1.2138 1.4885 -0.15059 -0.91252 -0.62391 -0.35212 0.0044067 -2.1639 -0.52815 0.13463 1.2257 0.02624 0.19675 -0.5044 0.28761 0.62596 0.27204 -0.15836
example 0.51564 0.56912 -0.19759 0.0080456 0.41697 0.59502 -0.053312 -0.83222 -0.21715 0.31045 0.09352 0.35323 0.28151 -0.35308 0.23496 0.04429 0.017109 0.0063749 -0.01662 -0.69576 0.019819 -0.52746 -0.14011 0.21962 0.13692 -1.2683 -0.89416 -0.1831 0.23343 -0.058254 3.2481 -0.48794 -0.01207 -0.81645 0.21182 -0.17837 -0.02874 0.099358 -0.14944 0.2601 0.18919 0.15022 0.18278 0.50052 -0.025532 0.24671 0.10596 0.13612 0.0090427 0.39962
journal -1.2283 1.1208 -0.5638 0.42516 -0.69722 0.066979 -1.4945 -1.2298 0.8262 -0.69266 -0.22875 0.03648 -0.66463 -0.0038862 0.47623 -0.3039 -1.1797 -0.84637 -0.021332 0.67339 0.35635 0.74616 0.69278 0.56363 -0.014165 -0.95004 -1.0866 -0.60574 -0.44702 0.41868 2.1401 -1.1605 -0.049264 -0.93488 -1.094 -0.57888 -0.45135 0.27264 1.3028 0.37148 1.0242 -0.59047 0.4764 0.85524 0.28855 1.0187 0.51343 0.74959 -0.097571 0.85046
laundering 0.96125 -0.57491 -0.11658 0.48323 -0.49084 0.69479 1.2758 -0.94964 1.0378 0.095998 -0.67687 0.55828 -0.8053 0.034017 0.71444 -0.94101 -0.10017 -0.20292 0.52175 0.45298 1.3749 -0.70673 0.37951 -0.30217 -1.9571 -2.1666 1.1485 -0.067542 0.099639 -0.43774 1.1804 -0.23821 -0.52032 -0.70863 -0.6841 0.35033 -0.80021 -0.033401 -0.20991 -0.26547 -0.35745 0.31003 1.8298 0.32776 0.2022 -1.272 -0.42176 0.22666 0.923 -0.42961
hotel 1.6098 1.0294 -0.50544 0.40047 0.38814 -1.5778 -1.2993 0.1155 -0.30262 -0.28827 -0.96581 -0.28284 -0.14596 0.17527 0.44815 0.44039 -0.34833 0.69749 -0.62053 -0.38235 1.3279 1.0659 -1.4544 0.50287 -1.0801 -0.86631 -0.47235 0.83618 -0.061528 -0.35008 2.0078 0.038165 0.13002 0.35539 0.89369 0.0097642 0.48953 -0.30987 0.35756 0.0028215 -0.19241 0.1665 0.60639 0.25088 -0.12004 -0.0096763 -1.1168 -1.2892 0.70028 0.15204
term -0.18178 0.66246 -0.2951 -0.73261 0.17801 0.56337 -0.020628 -0.4084 -0.53352 0.35919 0.10577 0.58354 0.21646 0.011561 0.34153 0.32682 -0.18441 -0.35476 0.34563 0.30717 -0.015002 -0.88487 -0.11382 -0.27814 -0.17978 -1.749 -0.03834 -0.2977 0.053816 1.2546 3.3495 -0.34721 -0.48521 -0.42962 0.42801 -0.53578 -0.29007 -0.073953 -0.019319 -0.77498 -1.0072 -0.056476 -0.38535 0.38235 -0.66475 -0.51683 0.30135 0.6521 0.48772 0.53283
listing 0.20713 0.60871 0.28061 0.49599 0.21298 -0.24543 -0.61202 -0.46989 0.78839 -0.057611 -0.34982 0.44636 0.39488 0.26391 0.49813 0.016191 -0.74835 -0.78245 0.50182 -0.25087 1.1467 -0.67713 0.1265 0.16216 -0.23135 -0.24538 -0.70577 -0.027391 -0.39916 -0.36316 1.9929 -0.46365 0.34068 -0.13376 0.39368 -0.42369 0.74571 -0.41857 -0.76098 -0.59107 -0.045877 -1.1657 0.5242 0.49925 -0.45799 -0.42609 -0.024833 0.74112 0.91892 -0.12005
chemistry -0.97166 1.3028 -0.87856 -0.033785 0.34052 0.39389 0.39536 -0.55126 -0.45993 0.81382 0.95248 0.37848 -0.27989 0.32066 0.065328 0.36477 0.46413 1.0357 -0.37637 -0.023921 0.9771 0.49375 0.84271 -0.37195 0.17855 -0.66352 -0.85595 -0.52089 -0.38831 0.10169 1.5924 -0.61623 -0.56693 -2.1545 0.63162 0.47784 -0.43869 1.931 1.6746 0.36443 0.095216 -0.68216 0.054844 0.32969 0.39481 0.56079 1.2666 0.71179 -0.2038 0.21542
seafood 0.1808 -0.6865 -1.6007 0.62266 0.18391 -0.38339 -0.87648 -0.33756 1.4375 0.2773 -0.49771 0.46384 2.04 0.53321 0.41213 -0.0016703 0.35364 0.51979 -0.07507 -0.73854 1.0848 -0.65617 0.4603 0.33104 -0.21701 -0.21771 -0.17795 0.62973 0.6904 -0.19432 1.4509 0.084894 0.65233 1.2714 0.51329 0.2468 -0.57269 0.97239 0.63352 0.28107 -0.27885 0.73214 0.73482 0.13891 1.0678 1.2536 -0.72269 0.26621 0.54942 0.80503
mind 0.12736 0.25601 -0.23177 -0.48479 0.75119 0.056632 -0.11353 0.017199 -0.18804 0.58092 -0.075802 0.69718 -0.90388 0.36724 0.48317 0.30677 0.27291 0.073619 0.08733 -0.43091 -0.17529 0.97376 0.37287 0.097753 1.1566 -1.5373 -0.82229 0.24963 0.9547 -0.40511 2.5696 0.13315 -0.43978 -0.89625 -0.36645 0.054338 -0.27892 0.32988 0.2132 -0.47943 -0.086666 -0.19604 -0.32741 0.65713 -0.099649 0.29358 0.56006 -0.30425 -0.082771 0.24289
sex -0.010419 0.18859 -1.1103 -0.1153 0.41355 1.6054 0.20117 -0.88146 0.41256 0.95368 -0.18311 -0.30528 0.29189 -0.10752 1.4091 -0.17546 -0.75133 -0.14834 0.3885 0.079413 0.22707 1.2332 0.29273 1.3166 -0.49709 -1.7793 0.056008 -0.397 0.51418 -0.31688 2.3976 0.31263 -0.44624 -1.1556 -0.28933 -0.080372 -0.043744 -0.89217 -0.48708 -0.60101 -0.36962 0.20775 0.519 1.3062 0.54721 -0.77457 0.10109 -0.66229 0.16455 0.51965
food 0.47222 -0.44545 -0.51833 -0.26818 0.44427 -0.25108 -0.99282 -0.90198 1.8729 0.039081 0.14284 0.074878 1.0543 -0.3203 1.0722 0.44323 0.0099484 0.15754 0.51399 -0.77668 0.924 0.010958 0.58815 0.23078 -0.34281 -0.88444 -0.31492 0.12661 1.1445 0.60775 3.4344 0.63561 -0.13832 0.28045 -0.16181 0.77541 -0.49888 0.4602 0.91799 0.29007 0.06884 0.59978 0.53967 -0.061752 1.2975 0.92323 -0.80945 0.34932 0.33934 0.25499
precedent -0.1685 -0.47189 -1.1131 0.27592 -0.048057 0.36679 0.90525 0.72084 0.11223 0.48743 -0.35824 0.065606 -0.33957 0.23187 0.48942 0.29566 0.54644 -0.96691 0.66601 -0.26361 -0.20379 -0.20022 -0.78826 -0.029859 0.30563 -1.5566 -0.85316 -0.057471 0.55659 0.27131 1.4185 -0.75877 -0.27889 -1.0778 -0.17059 -0.59367 0.14876 -0.18063 -0.6606 0.014717 -0.87862 -0.03681 0.70511 0.79889 -0.79783 0.69678 -0.25355 0.70252 -0.098288 -0.02496
series 0.28701 0.54684 -0.32982 1.1071 -0.63715 0.76379 -0.87335 -0.60057 -0.28778 0.050657 -0.79246 0.46241 -1.7375 0.78102 1.0199 -0.96513 -0.079294 0.0091858 -1.5801 -0.025189 0.48704 -0.1385 0.59905 0.39975 -0.0062023 -0.50743 -0.91489 -0.53085 0.05442 -0.33023 3.2183 0.14428 0.29285 -0.30581 0.24283 0.6867 0.36399 -0.5543 -1.4235 -0.63264 -0.501 -0.23401 -0.68351 -0.43994 -0.28586 0.68027 0.41442 0.088428 -0.21883 0.13339
kilometer 0.53891 0.39505 1.077 0.23371 0.36878 -0.18225 0.37944 -0.60322 1.2372 -0.74497 -0.527 -2.6397 0.10184 -0.051882 0.094239 -0.23129 1.042 0.45551 -1.2938 0.34966 -0.41357 -0.14886 -0.39464 0.25913 0.26188 0.078217 1.0385 0.75226 0.53819 -0.0010471 2.1112 -0.44889 -0.3908 1.308 -0.48104 -0.27034 0.34476 0.2818 -0.093522 0.60464 -0.059134 -0.24583 0.98127 0.0062266 -0.9932 -0.99346 0.83147 -0.88489 -0.12431 -0.81157
grocery 0.17538 -0.75088 -0.020999 -0.090172 1.175 -0.1974 -1.9276 -0.3839 1.0323 -0.28461 -0.045679 -0.57256 0.30273 0.038584 0.47506 0.44682 -0.78523 0.28928 0.75988 -0.74061 1.3045 -0.45413 -0.8807 1.6936 -0.99876 -0.48961 -0.67721 0.27298 1.0921 -0.59649 1.359 0.45066 0.58546 1.0753 0.4373 0.10211 -0.47276 0.4219 0.98644 0.77026 0.21264 0.46649 -0.27278 0.41568 0.45336 0.53965 -0.52178 -0.37243 0.38836 0.40816
wizard -0.20124 0.078135 -0.34608 0.19151 0.38988 -0.33866 0.45508 -0.65485 -0.037555 0.50031 -0.22896 1.715 -0.42624 0.26738 0.39584 0.084727 -0.062027 1.1636 -0.89767 0.10491 0.2512 0.36936 -0.32861 0.0805 0.30914 -0.77504 -0.82317 -0.71365 -0.12651 -0.25998 0.76117 -0.55443 -0.16074 0.15432 0.51683 1.1748 -0.041401 -0.99408 -0.23533 -1.2823 0.13803 0.19693 -0.81144 0.65853 0.57837 0.22928 1.1751 -1.0076 0.15202 -0.097655
information 0.63591 0.28142 1.103 0.90695 0.58408 -0.66616 -0.58817 -0.55119 1.0063 -0.22333 -0.021339 0.59643 0.020229 -0.33389 0.27095 0.099159 -0.62187 -0.62834 0.87429 -0.15716 0.97701 0.36715 0.65559 0.15535 0.22763 -1.4113 -0.65703 -0.72715 0.25938 -0.23776 3.3925 -0.58473 -0.34668 -1.7489 -0.015439 0.50899 -0.25659 0.069998 0.086402 0.395 1.0702 0.088681 0.54121 0.53468 0.09773 -0.25598 -0.15555 1.5154 0.81081 0.11142
brandy -0.51186 0.35863 -0.691 0.54553 0.065426 0.83336 -0.2996 0.89014 0.0043686 1.1042 0.34469 0.087743 0.59046 -0.94617 0.46119 -0.1325 -0.30288 0.93894 0.27511 -1.3184 0.19644 0.38594 0.7334 0.68588 -0.25987 0.020634 -0.19651 0.97789 0.90573 -0.39621 0.067495 -0.53019 -0.5779 0.91482 1.0539 -0.33955 -0.42302 -0.026515 0.74631 -0.20548 1.1063 0.46223 -0.4614 -1.181 0.13247 0.53653 -0.33226 -0.49826 -0.50442 -0.19084
interview 0.27637 0.50343 -0.17571 0.28703 0.12626 -0.39184 -1.2761 0.26098 -0.27596 -0.23593 -0.41283 -0.20505 -0.81734 0.36395 1.1948 -0.16963 -0.88309 -0.21803 0.043418 0.25525 0.44934 1.2675 0.79163 0.26303 0.38153 -1.8991 -0.49905 0.80152 -0.73472 0.1062 2.3872 -0.48622 -0.39605 -0.68729 -0.79856 -0.54974 0.49857 0.037388 -0.2464 -0.018545 0.60983 0.74847 -0.85655 -0.49604 0.17524 -0.48651 -0.60296 0.96269 -0.082247 1.1212
prominence -0.96567 0.63613 -3.1287E-4 -0.57019 -0.067647 0.05713 -0.28288 0.16152 -0.11051 0.69587 0.34884 -0.48917 -0.47734 -0.28248 -0.38521 -0.16906 -0.041866 -0.074302 -0.38238 0.21865 0.085956 -0.024982 -0.22683 -0.30653 0.18285 -0.69817 -0.79492 -0.39016 -0.4109 1.3257 1.4123 0.16912 0.55084 -0.98595 -0.18106 -0.21307 -0.92383 0.18507 -0.60759 -0.48233 -0.43938 0.058957 -1.0299 -1.8957E-4 -0.75462 -0.48851 0.22369 -0.39709 -0.53123 -0.8187
bed 0.75344 0.96383 0.10188 -0.67978 0.38461 0.027779 -0.30988 -0.079104 0.41609 -0.69129 -0.43769 0.17378 0.039337 0.64399 0.38474 1.0656 -0.3348 0.32552 0.26685 -0.56204 0.4466 1.2091 0.75209 0.030775 0.15676 -0.60153 -0.27828 1.3081 0.95327 -0.097407 2.3159 -0.014026 0.0022539 0.93128 0.27921 0.79418 0.61177 0.18765 1.3139 -0.19539 -0.18425 -0.017415 -0.10331 0.76474 0.3784 -0.35513 0.27358 -1.7427 0.2919 -0.27653
furnace -3.9399E-4 0.37914 0.89189 -0.0386 -0.50938 0.427 -0.10772 0.74505 0.76781 0.36645 -0.27098 -0.31722 0.58018 0.10104 -1.1299 0.98887 0.47926 0.8001 -0.25119 -0.82775 1.2359 -0.71711 -0.33102 -0.58105 0.74629 -0.085246 -0.50785 0.64552 1.248 0.40868 0.63487 -1.4061 -0.23193 0.32635 0.63293 0.11248 0.7698 0.29736 1.9841 0.62318 -0.032446 -0.75102 -1.249 -0.030748 0.2401 1.1834 0.062965 -1.1191 0.11693 -0.58581
evidence 1.1182 -0.25381 -0.016499 0.17412 0.69814 0.60216 0.069199 0.32019 0.69222 0.21431 0.0011718 -0.058173 -0.40991 -0.7996 0.78448 0.26738 -0.10453 -1.1884 -0.013479 -0.57117 0.069635 0.27026 0.81334 -0.79053 -0.040134 -2.0424 -1.1481 0.15604 0.091564 -0.16136 2.4623 -1.5448 -0.15729 -2.208 0.53367 0.028101 0.10668 0.3566 -0.15142 -0.18061 0.019917 -0.0037435 0.44897 0.78918 0.50414 -0.50421 -0.12283 1.1159 0.22771 -0.93075
sprint -0.17997 0.61665 0.81181 1.9426 -0.55514 0.55677 -0.65653 0.18207 0.31211 -0.52913 0.64158 -0.79611 -1.2802 -0.090169 0.42019 -0.060136 -0.15329 0.805 -1.5837 -1.3118 0.33835 -0.25941 -0.86519 0.52263 0.41639 -0.94617 -0.20643 -1.0708 -0.40357 0.10701 1.2956 0.97098 -0.35535 1.1076 -0.16132 -1.3369 -0.62421 1.098 -0.76948 -0.4383 0.82177 -0.4376 -0.087818 0.89519 -0.34985 -0.81884 0.86404 -0.43554 -0.89026 -0.15301
emergency 1.1373 -0.44682 0.40039 -0.52782 -0.78995 -0.34504 -0.15877 0.4162 1.0538 -0.97674 -0.10358 -0.053043 1.0129 0.5555 0.071856 0.20418 -0.95969 -0.24232 0.27492 -0.18223 0.52357 0.44495 -0.47819 -0.87726 -0.088063 -1.3106 0.90843 -0.01094 -0.14908 0.35223 3.2021 0.67854 -1.0735 -0.47317 0.089619 1.1008 1.4041 -0.86363 0.88662 0.16076 -0.56237 0.71251 0.30554 -0.29963 -0.20331 0.5577 -0.24032 0.76023 0.2224 0.39269
institution 0.024784 0.50666 -0.65209 -0.85369 0.59219 -0.3564 -0.16187 -0.15105 0.34055 -0.15674 0.13354 0.30999 0.25204 0.3051 -0.71961 0.10675 0.23677 0.68424 0.60697 1.1264 0.64942 0.31848 -0.94907 0.062036 -0.44017 -1.6893 -0.4777 -0.68363 -1.1341 0.21957 2.3417 -0.48148 0.37427 -1.3246 -0.36539 -0.04102 -0.0083973 0.46736 0.80092 -0.69698 -0.56218 -1.0886 0.41842 0.84968 -0.85911 0.1685 -0.66111 0.10319 0.12398 0.49398
bird 0.78675 0.079368 -0.76597 0.1931 0.55014 0.26493 -0.75841 -0.8818 1.6468 -0.54381 0.33519 0.44399 1.089 0.27044 0.74471 0.2487 0.2491 -0.28966 -1.4556 0.35605 -1.1725 -0.49858 0.35345 -0.1418 0.71734 -1.1416 -0.038701 0.27515 -0.017704 -0.44013 1.9597 -0.064666 0.47177 -0.03 -0.31617 0.26984 0.56195 -0.27882 -0.36358 -0.21923 -0.75046 0.31817 0.29354 0.25109 1.6111 0.7134 -0.15243 -0.25362 0.26419 0.15875
warning 0.40888 -0.3205 0.68631 -0.29467 -0.53008 -0.61018 -0.038556 0.19517 0.31925 -0.26112 -0.16084 0.031353 0.3083 0.089988 -0.11703 0.25043 -1.0294 -1.022 -0.58781 -0.61599 -0.055626 0.03349 0.12342 -0.43853 0.3499 -1.7866 -0.065413 0.61135 0.38781 0.10666 2.601 0.27182 -0.23701 -0.72593 -0.37211 -0.15657 0.6848 -1.5113 -0.57838 -0.16337 0.30358 0.42641 0.40911 -0.35307 0.85836 0.48699 -0.041511 1.157 0.36602 0.066285
implement 0.47138 -0.98385 -0.025234 -0.74001 -0.48774 -0.22821 0.44372 -0.83756 0.04892 0.064036 -0.017131 0.62617 -0.54549 -0.077995 -0.37966 0.83211 0.59546 -0.34492 1.882 -0.27303 0.5364 -0.22533 -0.26062 -0.6092 0.039034 -0.58211 0.63057 -0.55833 0.1103 -0.3101 2.8914 0.24399 -1.9847 -0.34462 0.1159 -0.19532 0.74484 -0.021319 -0.62853 0.16239 -0.77889 -1.0869 0.40098 -0.597 -0.26531 0.36272 0.12122 1.3587 0.060969 0.30332
train 0.94971 0.34328 0.84504 -0.88519 -0.72078 -0.29309 -0.74678 0.65122 0.47295 -0.74011 0.1877 -0.38279 -0.55899 0.42952 -0.26984 -0.42383 -0.31236 1.3423 -0.78567 -0.6302 0.91819 0.21126 -0.57442 1.4549 0.75456 -1.6165 -0.0085015 0.0029134 0.51304 -0.47447 2.5306 0.85944 -0.30667 0.057765 0.66231 0.20804 0.64237 -0.5246 -0.053416 1.1404 -0.13703 -0.18361 0.45459 -0.50963 -0.025539 -0.02861 0.18048 -0.4483 0.40525 -0.36821
area 0.87797 0.20571 -0.12058 -0.010709 -0.053455 -0.68496 -1.2214 -0.32873 0.57296 -1.1168 -0.12084 -1.3698 0.58411 -0.94934 -0.7575 0.61905 0.85446 0.29599 -0.91012 0.41647 -0.18308 -0.099543 -0.34984 0.6359 -0.35521 -0.93343 -0.044097 0.71133 0.43015 -0.3832 3.7452 -0.42756 0.42294 -0.93751 0.47626 0.42313 -0.10811 -0.01229 0.30669 1.0182 -0.48771 0.25101 0.36161 -0.089203 -0.56762 -0.1957 -0.22157 -0.49112 0.15444 -0.44166
image 0.061308 0.43572 0.31271 0.12745 0.8298 0.23453 0.058277 -1.1696 0.070587 0.75165 0.32283 -0.011395 -0.09312 0.38402 -0.33214 0.45714 -0.58439 -0.065958 0.39465 -0.451 -0.33305 0.27675 -0.59615 -0.33661 0.16573 -1.4066 -1.4971 0.56162 0.54136 -0.07742 2.5415 0.013754 -0.11757 -1.331 -0.81903 0.59327 -0.32313 0.24502 -0.92313 -1.4044 0.51181 0.22435 -0.45421 -0.24299 -0.1055 0.10199 0.1818 -0.71346 0.52311 -0.43212
murder 0.38741 0.13066 -0.43764 0.097557 1.1337 1.785 0.72392 0.51766 0.057394 0.45561 -0.63202 -0.42915 -1.1523 -0.2827 1.8788 -1.0783 -0.22629 -0.28761 -0.49307 0.51441 0.71995 1.0975 0.090811 0.56275 -0.76139 -2.3343 -0.27223 -0.57263 0.63656 -0.11756 1.2379 -0.97993 -0.74515 -1.2122 0.58763 0.23482 0.26739 -1.1175 0.176 0.043306 -0.74364 0.8103 0.46796 -0.2613 0.5989 -0.57028 -0.27776 -0.54044 0.73672 -0.17675
journey 1.2143 1.3408 -0.66609 -0.64454 -0.016126 -0.17616 -0.70444 0.43574 1.0912 0.19425 -0.54783 -0.037449 -0.32577 0.1421 0.59281 -0.81229 0.13424 0.074828 -0.79974 0.47121 0.35059 0.76266 -0.39213 0.47523 1.8146 -0.98395 -0.33945 -0.037697 0.90098 0.18264 2.1259 0.22721 -0.5948 0.42348 0.051033 -0.052926 -0.3332 0.081006 -0.78821 0.43242 -0.34748 -0.33509 0.074948 -0.36442 -0.74799 -0.13982 1.0599 -0.65179 -0.39973 -0.42248
minister 0.039931 0.50725 -0.18625 0.32268 0.65427 0.20286 -0.4966 0.13383 -1.7112 -1.0943 0.10988 0.74713 -0.32761 0.66333 0.60602 0.36298 0.54733 -0.80094 1.2633 0.81898 0.49794 0.58007 -0.24326 -0.72633 0.82971 -1.8744 1.2554 -0.24206 -1.1283 1.8337 2.8967 0.067548 -0.97245 0.14373 -0.18087 0.58634 0.52765 0.46389 -0.031852 0.90933 -0.39749 1.6654 -0.28879 -1.9615 0.89356 0.15835 -2.1877 0.93192 1.9066 -0.1589
planet 1.5128 0.84256 1.0239 0.74503 0.76455 -0.34118 -0.24314 -0.38838 0.55591 0.24943 0.82897 0.66381 0.3237 1.5963 0.42595 0.82451 0.58139 0.49325 -1.41 0.37887 -0.4588 -0.31508 0.57512 0.17931 0.78106 -0.44553 -1.1378 0.19394 0.83562 0.32346 1.6057 -0.5394 -0.40256 -0.95091 -0.66505 -0.080928 -0.43922 -0.35372 -0.069684 -0.32784 -0.53453 -0.18225 0.29115 -0.048251 -0.75363 0.10815 0.32424 -1.1091 0.093539 -0.12124
article -0.71621 0.81454 0.0023011 -0.059012 0.028875 0.45459 -0.17868 -1.1665 0.036777 -0.33568 -0.7259 0.2534 -0.28328 -0.15561 1.1231 -0.70812 -1.064 -1.004 -0.085881 0.63916 0.51192 0.045115 1.0686 0.24213 0.28245 -1.399 -0.8832 -0.13337 -0.022768 0.058573 2.2658 -1.3553 -0.35109 -0.79051 -0.79848 -0.62667 0.89666 -0.25787 -0.65206 0.42363 0.96619 -0.31608 0.66048 0.30942 -0.51134 0.53771 -0.40058 0.90246 0.52429 0.58136
anxiety 0.65392 0.55913 -0.097654 -1.0214 -0.44328 0.78839 1.0122 0.20083 -0.083419 1.0117 0.17714 -0.21862 -0.1234 -0.66251 0.25835 0.43695 -1.179 -0.18882 -0.018051 -0.32723 -0.12336 0.56894 -0.090949 -0.033641 0.42474 -1.1519 -0.44927 0.25243 0.98965 1.502 1.7999 1.5768 0.86096 -1.452 -0.63237 -0.14927 -0.77587 -0.89016 0.95964 -0.1035 -0.19533 0.35663 -0.47514 0.82327 1.1701 0.62192 0.76506 0.62176 -0.058971 0.23231
month 0.46281 4.1144E-4 0.32206 0.052119 0.2574 -0.20206 -0.95958 0.080315 0.07142 -0.18973 -0.29623 -1.0933 -0.39617 -0.19416 1.6158 0.20214 -0.89728 -0.62867 -0.7007 0.19352 0.85183 0.11041 0.15913 -0.56004 -0.62643 -1.7449 0.51275 0.025222 -0.40847 0.80248 3.42 0.31542 -0.3881 0.46212 0.28418 -0.60805 0.27313 0.033328 0.02098 -0.49465 -0.86607 0.31712 -0.0041658 -0.38582 0.071257 -0.26801 -0.21712 0.61648 -0.23407 -0.13272
carnivore 1.1722 -1.2617 0.2686 0.08948 0.053942 -0.22814 -0.12713 -0.70034 1.3663 0.19997 -0.35256 0.3846 0.88082 1.0786 0.0015607 -0.052894 -0.019207 0.68923 0.058907 0.26144 -0.88017 -0.67997 -0.24934 0.30199 0.061629 -0.44924 -0.25944 0.11898 -0.017354 0.14042 -0.20072 -1.161 0.079662 0.13785 -0.9731 0.15104 -0.048322 -0.38859 -0.031305 -0.41175 0.37174 -0.12599 -0.56343 2.0759 0.43696 -0.02791 0.19453 0.354 -0.68498 0.57411
party -0.5527 -0.18334 0.41146 0.1871 0.32366 0.81401 -0.25834 -0.037991 -1.2893 -0.69391 -0.43524 -0.84417 -0.4435 0.81766 -0.42273 -0.25819 0.22241 -0.24498 0.74857 -0.18836 -0.20798 -0.10965 0.43051 0.34885 0.0047003 -1.8722 -0.45693 -0.59019 -1.0799 0.89101 3.2906 0.60932 -1.8394 -0.001393 -1.2088 -0.5424 -0.20398 -0.01065 -0.47815 -0.35888 -0.43413 0.10943 -1.5387 -0.10608 -0.30507 0.0013978 -1.9332 -0.4289 1.0175 -0.59931
production 0.35808 -0.52533 -0.080425 0.10165 -0.47567 0.53815 -0.6731 -1.0525 0.76994 1.1221 1.0075 0.26246 -0.29171 -0.23487 0.83308 0.18155 0.35651 0.97671 -0.47373 -0.88687 1.6075 -0.8328 0.025867 -0.7759 -0.28627 -0.51853 -0.42263 0.14499 0.6292 0.45936 3.5133 -0.35411 0.38744 -0.085173 0.30017 0.10935 -0.055825 0.70916 -0.032329 0.037709 -0.50488 0.13524 -0.10868 -1.8467 0.11001 0.062888 -0.049938 0.0070335 -0.74211 0.78561
importance 0.24118 0.9971 -0.99928 -0.06331 0.96848 -0.18693 0.37052 -0.23204 0.49492 -0.15101 0.34286 0.38078 -0.080316 -0.82574 -0.557 0.39537 0.29182 -0.29567 0.79078 0.03327 0.083566 -0.12279 -0.29518 -0.78872 1.03 -1.266 -0.68733 -0.094984 0.16546 0.36657 2.7427 0.84134 0.17775 -1.4742 -0.32596 -0.34394 -0.6703 0.60584 -1.0552 0.45974 -0.44632 -0.61265 -0.0025146 -0.31067 -0.1608 0.4455 -0.27711 1.0094 0.053822 -0.14353
inmate -0.25304 -0.50319 0.24467 -0.61421 0.992 0.19291 0.55681 1.1492 1.0666 0.094069 -0.18501 -0.78077 0.74715 0.31725 0.73735 -0.80523 -0.50478 -0.45953 0.11763 0.47386 -0.63775 0.19513 -0.23889 0.44122 -0.77192 -1.5999 0.64471 -0.71448 0.10803 0.15955 0.8095 -1.2559 -0.29032 -0.5792 0.41115 0.39956 0.94904 -0.70212 0.88513 -0.30938 -0.59435 0.52031 -0.06191 0.9077 0.34311 -0.48359 -0.01998 -0.95066 -0.28804 0.62457
psychology -0.96949 0.93756 -0.96815 -0.63307 -0.081726 0.56352 0.12968 -1.0084 -0.13071 0.34126 0.5136 0.087984 -0.43784 0.081012 -0.58064 -0.28724 -0.32626 0.35577 -0.016916 0.82933 0.28275 0.95336 0.27084 0.27341 0.49444 -1.0657 -0.99669 -0.95407 -0.57929 0.54103 1.7225 -0.54281 -0.025387 -2.1854 -0.39124 -0.22007 -1.0152 0.6483 1.6239 0.60581 -0.064025 -0.6806 -0.02143 1.1568 0.17143 -0.032123 1.6882 0.89031 -0.097621 0.86147
medal -1.5212 1.8304 -0.45667 0.77267 0.68046 0.11282 0.31336 0.59406 0.45404 -1.1012 0.63337 -0.21029 -0.58425 -0.50081 0.79064 -0.79371 0.77779 0.14099 -2.0727 -0.82423 0.032856 -0.20963 0.21048 -1.2114 0.53829 -1.4757 -0.84006 -0.8056 -0.94252 -0.41873 1.3316 0.85334 -0.85613 -0.43594 -0.18191 0.15246 0.55902 1.4146 -0.67199 -0.77316 0.24876 -0.73042 0.45753 -0.56567 -0.22089 -0.54272 -0.037647 -0.49371 -0.14572 -0.92405
company 0.62583 -0.57703 0.41163 0.86812 -0.083097 0.26555 -1.48 -0.38792 0.42727 0.1168 0.7839 0.81352 -0.78763 -0.6544 -0.099214 0.20658 -0.73315 0.86418 -0.26917 -0.93792 1.919 -0.17473 -0.61905 -0.5035 -0.9341 -1.6755 -0.79399 -0.32003 -0.067678 -0.12344 3.2909 -0.43151 0.3879 0.38733 -0.018419 -0.98191 -0.53189 0.39866 0.89452 -0.40963 0.58922 -0.52377 0.27893 -0.25766 -0.30457 -0.066305 -1.1221 0.21582 -0.15586 0.64018
live 0.35541 0.35515 -0.015107 -0.072926 0.16711 -0.082777 -1.0836 0.056815 0.097282 0.42781 0.20133 -0.5119 0.93244 0.21407 1.1883 0.54556 0.50735 0.45187 -0.44439 0.055305 0.19602 0.77945 0.90007 0.94974 0.38457 -0.32051 -0.62853 -0.31053 0.40953 -0.64054 3.4402 0.34869 -0.23118 -0.27595 -0.29151 0.28739 0.73659 -0.77103 -0.51139 -0.39139 -0.19287 -0.094285 -0.36624 0.051009 0.013225 0.16846 -0.66598 -0.95158 -1.0704 0.36448
holy 1.1368 1.2792 -1.1896 -1.4704 1.5985 -0.65001 0.12805 0.14313 0.45122 -0.088465 -0.31635 0.20866 0.10403 -0.69816 0.067388 0.29715 -0.030479 -0.43213 -0.66581 1.1484 -0.23741 -0.24197 0.17115 0.39827 -0.39634 -1.6581 -0.78378 -0.17056 0.084615 -0.34189 2.0969 0.20307 -0.90776 0.28335 -0.42296 0.07721 0.50724 -1.0394 -0.48693 1.1561 0.33847 -0.39903 -0.9754 0.62518 0.30606 0.7311 -0.56301 -0.62369 -0.9085 -1.2057
ticket -0.40007 0.54228 1.2943 0.24584 0.0091042 -0.37552 -1.1136 -0.13531 0.25375 0.089252 -0.62938 -0.43037 0.4057 0.23861 0.73626 -0.073621 -0.46046 0.15861 -0.24646 -1.1533 1.0917 -1.1991 -0.57642 0.42901 -0.29652 -1.4007 0.052753 0.18739 0.49966 0.1311 1.8292 1.3589 -0.38009 0.31207 -0.138 -0.40382 0.60802 0.56785 -0.68488 -0.43886 0.26717 0.39139 -0.77823 0.76891 -1.1194 -0.54888 -1.107 0.11306 1.0452 0.41786
victory -0.66385 0.41015 0.073617 0.85937 0.30031 -0.11978 -0.45367 1.4574 -0.73222 0.28086 -0.7589 -1.2996 -0.96887 -0.57294 -0.25255 -0.7098 0.52366 -1.3184 -1.7125 -0.074232 -1.2343 -0.37677 -0.4526 -0.95694 0.36827 -1.8201 -0.20622 -0.31884 0.1527 -0.30461 2.3935 1.3234 -1.0144 0.35188 -0.17079 -0.67128 0.38904 0.94105 -0.42382 -1.3848 0.15837 -0.59283 -0.80945 -0.46636 -0.086871 1.419 -0.5528 -0.19525 0.43202 -0.6991
football -1.8209 0.70094 -1.1403 0.34363 -0.42266 -0.92479 -1.3942 0.28512 -0.78416 -0.52579 0.89627 0.35899 -0.80087 -0.34636 1.0854 -0.087046 0.63411 1.1429 -1.6264 0.41326 -1.1283 -0.16645 0.17424 0.99585 -0.81838 -1.7724 0.078281 0.13382 -0.59779 -0.45068 2.5474 1.0693 -0.27017 -0.75646 0.24757 1.0261 0.11329 0.17668 -0.23257 -1.1561 -0.10665 -0.25377 -0.65102 0.32393 -0.58262 0.88137 -0.13465 0.96903 -0.076259 -0.59909
seepage 0.92742 -0.28331 0.19246 -0.045317 -1.5808 -0.14955 0.4198 0.23286 0.88761 0.15781 0.19405 0.19419 0.046277 -0.39983 -0.17714 0.58576 0.84912 -0.064778 -0.2809 -0.50996 -0.25319 -0.63719 0.48076 -0.51623 0.40519 0.46649 0.28911 1.2816 0.9524 0.69543 0.20152 -0.62162 0.13507 -0.7731 -0.69665 0.49397 -0.32275 -0.2061 1.4411 0.63838 0.019034 -0.20542 -0.26253 0.89894 0.012404 -0.52356 0.58941 0.22581 0.60609 -0.96443
rook -0.41285 1.3482 0.33284 -0.54141 1.0762 -0.12638 1.7844 -0.36922 -1.1762 0.82407 0.17999 0.9984 -1.1739 0.76487 -0.80591 0.91674 -0.081641 -1.6341 0.29297 1.4675 -0.50593 -1.1419 0.74574 0.25228 -1.7292 -1.2832 -0.67117 0.068019 -0.21969 -0.94489 -0.62831 0.62325 -0.034509 0.9034 0.59005 -0.32291 -0.037751 0.28764 -0.56237 0.36296 0.54535 1.0075 -0.44557 0.13898 0.95727 -0.84483 0.85322 -0.73903 -0.15557 -0.48835
stroke 0.56423 0.35709 0.4276 -0.035204 -0.8771 1.7223 0.36597 0.67578 0.31064 0.28454 -0.21084 -1.0332 -1.1027 0.38362 0.063567 0.01299 -0.098791 -0.48776 -1.1985 -0.12249 -1.1837 0.67007 0.21314 -0.94504 1.0595 -0.62186 -0.035966 -0.36111 -0.45343 0.7359 2.2652 0.12593 0.25536 0.9079 0.69142 -0.12439 1.3087 1.3155 1.201 -0.63044 -0.50293 -0.27604 -0.3068 0.79031 0.75887 0.11941 0.60135 -0.51873 0.24165 0.16239
environment 0.24989 0.21958 -0.44505 0.58602 -0.010814 -0.39337 -0.12406 -1.1307 0.43009 -0.050078 0.72717 0.37415 0.51648 0.55305 -0.014879 0.8714 1.1501 0.30417 0.62127 -0.42837 -0.021624 0.58691 -0.36424 -0.20318 0.87405 -0.33359 0.3524 0.086728 0.18502 1.364 3.3352 -0.064015 -0.10601 -1.8814 -0.9336 0.31382 -0.39991 0.45189 0.31445 -0.075881 -0.55053 -0.090056 0.8603 -0.026639 0.2439 0.30208 -0.44115 -0.036279 1.1414 0.7708
coffee -0.54015 -0.29931 -0.67591 0.15784 0.90241 -0.89567 -1.1267 -0.69013 0.7116 0.71231 0.11031 -0.37268 0.93846 -0.42899 1.0807 0.43785 -0.38785 0.65528 0.34501 -1.3793 1.114 -0.20227 0.53612 0.67394 -0.52717 -0.30703 -0.14833 0.78579 0.84364 0.56468 2.1954 -0.097544 -0.41744 1.0296 0.083024 -0.1552 -1.1257 0.74416 1.1534 0.24415 0.057113 0.63826 -0.35989 -0.031659 0.88827 0.78731 -0.47028 -0.69737 0.12029 -0.41486
baby 0.54936 0.22994 -0.035731 -0.91432 0.70442 1.3736 -0.99369 -0.50342 0.5793 0.34814 0.23851 0.54439 0.34322 0.57407 1.3732 0.46358 -0.72877 0.28868 0.10006 -0.2302 -0.12893 0.7033 0.39612 0.26045 0.26971 -1.3036 -0.93774 0.27053 0.60701 -0.66894 1.9709 0.6796 -0.69439 1.038 0.51364 0.23022 0.36456 -0.30902 1.1395 -1.1466 -0.78887 0.054432 -0.069112 -0.24386 1.4049 0.091876 0.23131 -1.3028 0.3246 0.10741
personnel 0.57425 -0.73459 0.70415 -0.44181 0.38457 -0.83904 -0.29122 0.19547 0.36689 -2.0354 0.49997 0.0093771 -0.070942 -0.024886 -0.16065 -0.60513 -0.33583 0.80842 -0.28057 -0.7168 0.063022 0.37701 -0.0041009 -0.62815 -0.86147 -0.88113 0.42288 -0.60178 -0.0019644 0.18358 2.9452 0.53104 -0.088773 -0.99266 0.34528 1.3547 0.565 -0.55201 -0.34934 0.61504 -0.13105 -0.12364 1.0842 -0.11279 0.068855 -0.70632 -0.56998 1.1266 -0.843 0.5873
family 1.1636 0.90386 -0.74277 0.49272 1.88 0.9285 -1.0429 0.01343 -0.51903 -0.68762 0.0083396 0.50754 0.51792 -0.75577 1.0241 0.1761 -0.91889 0.21455 0.19232 0.19562 0.0044282 0.40701 -0.3812 0.51286 0.14278 -1.4652 -0.55194 -0.8362 0.41877 0.40793 2.5335 -0.20787 0.088761 -0.10973 0.52074 0.026259 -0.65515 -0.1425 0.44071 -0.047796 -0.23276 0.17212 -0.16844 0.60122 0.47156 0.11336 -0.96031 -1.3412 -0.021467 0.049217
hypertension 0.93978 0.94512 0.25359 -1.0969 -1.5585 1.6693 1.4232 -0.15684 1.0203 1.0783 0.96786 -0.25387 0.059924 -0.18544 -0.45358 0.63145 -0.80577 -0.21821 0.18862 0.41539 -0.58369 -0.024833 0.59059 0.78881 -0.34543 -0.6189 -0.48288 -0.34372 -0.34829 1.5049 0.92273 0.82249 1.0415 -0.68384 -0.23613 -0.30483 0.55551 0.95994 1.3546 0.06169 0.328 0.058397 0.59708 1.3417 1.5324 0.43755 -0.19037 -0.11897 0.7891 0.24948
president -0.11875 0.6722 0.19444 0.55269 0.53698 -0.37237 -0.73494 -0.30575 -0.92601 -0.43276 0.026956 0.66861 -0.79097 -0.015932 0.53918 0.30341 -0.67042 0.0051129 0.62272 -0.55823 -0.10887 0.57305 -0.016149 -1.1889 -0.24318 -2.6289 0.41262 -0.12904 -1.3238 0.64731 2.3595 0.34048 -1.9889 -0.79084 -0.79739 -0.87998 -0.72991 0.011697 0.090612 -0.17287 -0.83274 1.1932 -0.75211 -1.1603 -0.10074 0.60224 -1.3739 0.33674 -0.31224 0.097583
atmosphere 0.48002 1.0346 -0.66544 -0.051407 0.25726 -0.71347 0.68868 0.063628 -0.50538 1.2226 0.33095 -0.49159 0.26824 1.0291 1.132E-4 0.8326 0.79576 0.47859 -0.79932 -0.93132 0.2959 0.90575 0.52605 -0.3416 0.44162 -0.23537 0.065711 1.353 1.3197 1.3481 2.4742 0.18978 -0.36377 -1.6919 -0.66375 -0.23994 -0.54664 0.067938 -0.06854 0.034667 -0.48815 -0.66839 0.065035 0.33452 0.13746 0.28518 0.11428 -0.24181 -0.24626 -0.048408
practice -0.80593 -0.25387 -1.4214 -0.28011 -0.25863 0.10898 -0.85099 -0.046473 0.047432 -0.1943 0.23808 0.069897 -0.72063 -0.24847 0.21894 0.074941 -0.31288 -0.22445 -0.53295 -0.38043 0.044 0.45856 -0.245 0.13359 0.0857 -1.4829 0.087946 -0.57773 0.5172 -0.40443 3.0412 0.14963 -0.51261 -0.66842 0.118 0.081869 0.50743 0.7722 0.032787 0.70971 -0.57003 -0.77267 -0.076474 1.7808 0.25869 -0.14908 0.40758 0.089992 -0.13961 0.24648
movie 0.30824 0.17223 -0.23339 0.023105 0.28522 0.23076 -0.41048 -1.0035 -0.2072 1.4327 -0.80684 0.68954 -0.43648 1.1069 1.6107 -0.31966 0.47744 0.79395 -0.84374 0.064509 0.90251 0.78609 0.29699 0.76057 0.433 -1.5032 -1.6423 0.30256 0.30771 -0.87057 2.4782 -0.025852 0.5013 -0.38593 -0.15633 0.45522 0.04901 -0.42599 -0.86402 -1.3076 -0.29576 1.209 -0.3127 -0.72462 -0.80801 0.082667 0.26738 -0.98177 -0.32147 0.99823
popcorn -0.50053 -0.39171 0.067752 -0.21561 0.42443 -0.069553 -0.46248 -0.85457 0.62325 1.1627 -0.58556 0.23865 0.80262 1.0802 0.75938 0.46915 0.022783 0.98592 -0.54284 -0.8453 1.0331 -0.18595 1.0873 0.26423 -0.063109 -0.20605 -1.033 0.62962 1.0951 -0.37935 0.32666 0.28429 -0.32653 1.2108 -0.33835 0.39571 -0.15735 0.66409 0.83978 -0.1333 0.4731 0.64211 -1.1248 1.0558 0.48963 1.3627 -0.12854 -0.33571 -0.65563 -0.07877
recommendation 0.16306 -0.24346 -0.49481 -0.48861 0.50604 -0.077119 0.24513 0.05301 0.058411 -0.33154 0.055022 0.82572 0.2159 -0.1631 0.19596 0.32795 -0.64282 -0.65917 0.45198 -0.85047 0.67793 -0.10002 0.19845 -0.64824 -0.43958 -1.3572 0.16475 0.030665 -1.2814 0.23552 1.6059 -0.40697 -0.91903 -0.55363 0.49149 -0.95204 0.96233 -0.029281 0.1222 -0.73986 0.18189 -0.10312 -0.050536 -0.073872 -0.34397 0.085205 -0.017034 1.3721 0.20865 0.95314
focus 0.40019 0.34448 -0.060733 -0.083653 -0.038213 0.058863 -0.31664 -0.73854 0.46441 0.059994 -0.17279 -0.1214 -0.77816 0.066952 -0.30204 0.18025 0.074409 -0.019143 0.45071 -0.51972 0.58764 0.29003 -0.096577 0.067378 0.22441 -1.2096 -0.44952 -0.28543 0.071579 0.29353 3.2147 0.84086 -0.26747 -1.2786 -0.40695 -0.13218 -0.9493 0.36004 -0.48767 -0.42146 -0.31977 -0.36053 -0.018259 -0.19137 0.39823 0.25995 0.53118 0.64658 -0.14421 0.45177
attempt 0.5323 -0.70044 0.37422 -0.31529 0.012028 0.50933 -0.23546 0.72083 -0.1387 0.5066 -0.38464 0.12579 -0.68992 0.38425 -0.1367 0.083163 0.62144 -1.0586 -0.75507 -0.0057474 0.53155 0.097558 -0.41206 -0.40328 0.31674 -2.2257 -0.043076 -0.83749 0.93522 -0.21468 2.4972 0.2487 -1.7374 -0.48367 -0.051459 0.2463 -0.25872 -0.20222 -0.43626 -0.4603 -0.11058 -0.019738 0.089743 -0.35528 0.15794 -0.24601 0.30675 0.02953 0.63595 -0.59635
approach 0.47929 -0.28902 -0.62907 -0.83884 -0.012119 0.28594 -0.11811 -0.82887 -0.21459 0.49018 -0.44448 -0.075379 -0.44826 0.47502 -1.0959 -0.050248 0.67381 -0.074543 0.17696 -0.52332 -0.30036 0.60003 -0.65303 -0.12106 0.70761 -1.3446 -0.18816 0.23191 0.18708 0.17993 3.2699 -0.25871 -0.59967 -0.54696 8.3469E-4 -0.60629 -0.24499 0.72076 -0.65903 -0.16817 -0.0299 -0.41757 0.20869 0.58729 -4.0149E-4 -0.21527 0.7574 0.84022 0.10893 1.0202
number 0.33614 0.35956 0.97398 -0.11536 0.26715 0.52664 -0.28079 -0.15934 -0.018939 -0.33067 0.10573 -0.53051 0.031862 -0.080079 0.82261 -0.7917 -0.10958 -0.46814 -0.39095 -0.64602 -0.021653 -0.76659 0.79564 0.59753 -0.12686 -0.69666 -0.88445 -1.0733 -0.3196 0.12422 4.0137 0.14167 0.79684 -0.4697 0.70954 0.15874 0.64932 -0.014985 -0.67939 0.29073 -0.2803 -0.096077 0.75959 0.44819 -0.05046 -0.19157 -0.42044 0.080226 -0.23491 -0.22272
property 0.42466 0.19196 0.21006 0.25013 0.73725 0.1393 -0.62542 -0.37122 -0.015419 -0.10124 -0.22247 0.40676 0.23619 -1.3916 0.40629 0.62794 0.34912 -0.37561 0.38912 -0.098063 1.1132 -0.53514 -1.4592 -0.43919 -0.82346 -1.0313 -0.10083 -0.39466 0.98824 0.321 2.8053 -0.76517 0.52977 -0.63189 -0.052519 -0.0029671 -0.20488 -0.46468 0.41198 -0.22097 -0.54963 -0.55577 0.7044 1.0584 -0.71571 -0.64605 -1.2152 -0.59591 0.88014 -0.40251
fingerprint 0.23443 -0.55529 0.71012 0.376 0.22883 0.22672 -0.23018 -0.55238 1.3347 0.31291 0.99385 -0.54855 0.50895 0.20905 0.13179 0.16328 -0.96072 -1.1692 0.41443 -0.36226 -0.5633 -0.008355 -0.66288 0.065081 -0.34578 -0.77577 -1.3278 -0.051426 -0.32013 -1.4511 0.45703 -0.48491 -0.36985 -1.3057 0.18885 1.0034 0.56023 0.0036767 0.43221 -0.47566 1.1878 0.4152 0.70417 0.74754 0.2421 -0.62615 1.6794 1.4311 0.49377 -0.82888
reservation 0.015212 0.12184 -0.27981 0.58754 -0.224 -0.47004 -1.4518 -0.050287 0.99522 -0.9773 -0.24745 0.072592 1.4483 -0.65444 -0.44739 0.55927 -0.19967 0.6133 -0.030892 0.074753 -0.26063 -0.038256 -0.54612 0.56248 0.23296 -0.75673 -0.26831 -0.03859 0.61333 -0.59531 1.3753 -0.48486 -0.8268 0.61842 0.43621 -0.40544 -0.50085 -1.309 0.38814 0.81055 -0.48106 0.024056 -0.20185 1.6596 -1.5713 -0.23771 0.10421 0.33215 -0.54691 -0.2351
block 0.40378 -0.25503 0.8387 0.14433 -0.029626 0.44151 0.037212 -0.37106 0.20107 -0.12199 -0.80982 -0.58661 -0.17375 0.26256 -0.39035 0.49537 0.7183 -0.1683 0.24196 -0.62188 0.76525 -0.50503 -0.58461 0.4509 -0.44449 -1.0252 0.60603 0.18356 0.19986 -0.68296 2.7227 -0.7432 -0.65336 -0.3406 -0.10983 0.11224 0.81132 -0.51797 -0.16117 -0.043324 0.23059 0.15738 -0.079392 0.040547 -0.35527 0.34472 0.0037359 -0.7149 -0.081102 0.13455
fear 0.53661 -0.33872 0.28772 -0.72584 -0.041209 0.28498 0.21665 0.62408 -0.1204 0.41135 0.10111 -0.11545 -0.15652 -0.39265 0.66286 0.71563 0.4214 -0.37041 -0.081016 -0.2901 -0.28407 0.30707 0.035974 0.32002 0.45456 -2.083 -0.6589 -0.081918 1.0431 0.50839 2.5433 0.81832 -0.11508 -1.1471 -1.0422 -0.22972 -0.68159 -1.3633 0.063994 -0.27115 -0.41006 0.090468 0.19801 0.486 0.84081 0.38655 -0.40763 0.20565 -0.1169 -0.55731
surface 0.9001 0.76398 0.57495 0.35368 -0.24822 0.22599 0.89392 -0.11525 0.38438 -0.49793 0.72338 -0.22355 0.14978 0.67073 -0.75553 0.66156 0.5592 0.20174 -1.1615 -1.2115 -0.39403 -0.38662 1.1583 -0.65774 0.29096 -0.34995 0.025818 1.6533 1.2745 0.19342 3.0433 -0.88304 0.13255 -0.89817 -0.36925 0.31965 0.048535 0.79424 -0.026258 -0.0064773 0.45313 -0.19508 0.75265 0.29879 -0.13817 -0.45083 0.99051 -0.47235 -0.29795 -0.46252
issue -0.38155 0.21448 -0.33124 0.10503 0.33547 0.61515 0.034575 -0.42115 0.1065 -0.66252 -0.65648 -0.032601 -0.28544 0.16409 1.0008 0.45067 -0.32211 -0.43219 0.59451 -0.064185 0.7107 0.023696 0.41202 -0.1931 0.3032 -2.1344 -0.096689 0.34065 0.17503 0.42084 3.0067 -0.39575 -0.67946 -0.5203 -0.46329 -0.74343 -0.21211 -0.44892 -0.87834 -0.61563 -0.64452 -0.30718 0.37167 0.30053 -0.30654 0.19544 -0.13802 1.2357 -0.16794 -0.069801
metal -0.97467 0.17701 0.55721 -0.061392 0.13516 0.90557 0.11298 -0.083015 -0.19704 0.60241 0.81914 -0.039332 -0.18959 1.6839 -0.40624 0.55594 0.44263 0.16115 -0.35466 -1.6592 1.3298 -0.51587 0.045646 -0.38681 -0.72316 -0.34138 -1.1071 0.87466 0.74086 -0.47313 2.8302 -1.3763 0.85465 0.16082 -8.7585E-4 0.92728 0.94742 -0.37689 0.58434 -0.026297 0.31892 -0.47993 0.17084 -0.3404 1.3925 8.9684E-4 -0.042405 -0.75443 -0.27104 -1.4451
index -1.9409 -0.61217 0.68502 0.48418 1.6231 -1.5288 0.27655 -2.1091 -0.17909 0.76367 0.71182 -1.0581 -0.50535 -0.31684 -0.091379 0.53224 -1.2349 -1.6658 -1.01 -0.13809 1.4789 -0.31234 -0.060151 -0.59057 -0.66634 -0.27444 -0.27491 -0.34685 -0.30161 0.30946 3.3212 -0.32398 1.1586 0.10702 0.0011786 -1.6314 -0.74058 -0.42707 1.1665 -0.15704 -0.43603 -0.75687 1.1331 0.50686 0.013765 -0.22531 1.4782 0.017909 1.6242 -0.65187
isolation 0.44835 0.58729 -0.4617 -0.66743 -0.41128 0.38731 1.1515 0.37898 0.25294 0.20855 0.60841 -0.62286 0.01967 0.061271 -0.11864 1.0429 -0.12362 -0.60323 0.61341 0.55654 -0.65914 0.62347 -0.66085 0.023114 0.1931 -0.8939 0.25079 -0.011024 0.93269 1.1339 2.2511 0.3374 -0.021993 -1.0579 -0.53022 0.51042 0.21893 -0.13852 -0.18467 0.038731 -0.46035 -0.013003 0.53342 0.67673 0.16841 0.26308 0.30876 -0.34236 -0.48966 -0.59685
impartiality -0.47188 -0.52477 -0.78838 -0.3425 0.32338 -0.32946 1.6707 0.70667 1.1693 -0.19169 0.38654 0.085487 -0.78049 -0.24444 -0.47253 0.10631 -0.148 -0.5824 1.1182 -1.1065 -0.11557 1.7964 -0.069595 -0.81948 0.25411 -0.76682 -1.2145 0.27937 -0.1829 1.0913 0.16633 0.66316 -0.72189 -1.2492 -0.58241 -0.70278 0.11499 -0.13907 -0.41401 -0.55348 0.45869 -0.41699 0.28877 1.0545 -1.9222 -0.45531 -0.57133 0.92796 0.2577 -0.31258
drink -0.063275 -0.10331 -0.7798 -0.19183 0.34219 0.050926 -0.46459 -0.078635 0.54814 1.4047 0.38838 0.3611 0.80142 -0.46235 1.0345 0.39002 -0.25508 0.90988 -0.22221 -1.8257 0.73976 0.26612 1.2605 0.9422 -0.22148 -0.97796 -0.42254 0.68667 1.1503 0.22859 1.9738 0.84056 -0.84683 0.93435 0.19842 -0.51849 -0.48574 0.40075 0.60286 0.22686 0.32788 0.29878 -0.5074 0.81122 0.9134 0.43469 -0.88409 -0.75136 0.60014 0.082798
baseball -1.9327 1.0421 -0.78515 0.91033 0.22711 -0.62158 -1.6493 0.07686 -0.5868 0.058831 0.35628 0.68916 -0.50598 0.70473 1.2664 -0.40031 -0.020687 0.80863 -0.90566 -0.074054 -0.87675 -0.6291 -0.12685 0.11524 -0.55685 -1.6826 -0.26291 0.22632 0.713 -1.0828 2.1231 0.49869 0.066711 -0.48226 -0.17897 0.47699 0.16384 0.16537 -0.11506 -0.15962 -0.94926 -0.42833 -0.59457 1.3566 -0.27506 0.19918 -0.36008 0.55667 -0.70315 0.17157
jaguar 1.0881 -0.034529 0.38368 0.056045 0.23329 0.25994 -1.4503 -1.7761 0.36201 0.18167 1.2534 1.0937 -1.1573 -0.86136 0.31774 0.22323 -0.45702 0.97583 -1.2115 -0.83965 -1.3324 -0.27563 -1.6049 -0.11639 -0.33322 0.090571 -0.45548 0.045805 0.14751 -0.042369 0.3787 0.32503 -0.087953 1.119 0.92648 -0.054211 0.19213 -0.84981 -0.61323 -0.67135 0.25019 -0.70612 -0.031146 -0.19249 0.092508 0.21419 0.1418 -0.41152 0.38966 -0.4159
trading -0.35286 -0.47549 -0.075208 0.71832 0.4788 -0.75205 -0.47924 -0.50907 -0.62703 0.64009 -0.081878 0.40803 -0.47919 0.11552 0.17784 0.24877 -0.82817 -0.8399 -0.94592 -0.35866 2.085 -0.27049 -0.091674 -0.78174 -1.1145 -0.75626 1.0979 0.27265 0.84963 0.50575 3.2485 -0.45875 1.4922 0.41695 0.01271 -1.2852 -0.98056 -0.3471 0.062647 -0.13799 -0.40318 -0.34467 1.0369 0.79042 0.087 -0.3805 0.05571 0.57066 0.18844 -0.059442
viewer 0.13223 0.097975 0.61232 -0.14674 1.1585 0.065881 0.37373 -0.092493 0.03216 0.56516 0.1276 -0.29974 0.73657 0.33374 0.37485 0.11832 -0.41708 -0.19833 0.022871 -0.95224 0.30562 0.4719 -0.3355 1.1068 1.1439 -0.30024 -0.61735 0.16944 0.34381 -0.25267 1.4892 0.8536 0.20159 -1.6168 -0.94603 0.20249 -0.12857 -0.39397 -0.56008 -1.4399 1.1723 0.32055 -0.78384 0.59564 -1.0608 -0.36841 1.1095 -0.076126 0.52677 0.45174
hundred 0.51327 0.10682 0.60195 -1.3316 0.61098 -0.43873 -0.58958 0.21004 -0.17553 -0.42674 -0.7081 -0.97665 0.61705 -0.57454 0.36211 -0.96163 0.38052 0.43803 -1.0188 -0.74549 0.42593 0.35178 0.78793 0.099838 0.14707 -0.35088 -0.47148 -0.4783 -0.44738 -0.32371 2.6414 0.020711 0.36017 0.29577 0.49007 0.41347 0.29812 -0.073637 -0.55127 0.41412 -0.05389 -0.30427 0.38751 0.41631 -0.28072 -0.03992 -0.66725 -0.42671 -1.0416 -1.3393
woman -0.18153 0.64827 -0.5821 -0.49451 1.5415 1.345 -0.43305 0.58059 0.35556 -0.25184 0.20254 -0.71643 0.3061 0.56127 0.83928 -0.38085 -0.90875 0.43326 -0.014436 0.23725 -0.53799 1.7773 -0.066433 0.69795 0.69291 -2.6739 -0.76805 0.33929 0.19695 -0.35245 2.292 -0.27411 -0.30169 8.5286E-4 0.16923 0.091433 -0.02361 0.036236 0.34488 -0.83947 -0.25174 0.42123 0.48616 0.022325 0.5576 -0.85223 -0.23073 -1.3138 0.48764 -0.10467
queen 0.37854 1.8233 -1.2648 -0.1043 0.35829 0.60029 -0.17538 0.83767 -0.056798 -0.75795 0.22681 0.98587 0.60587 -0.31419 0.28877 0.56013 -0.77456 0.071421 -0.5741 0.21342 0.57674 0.3868 -0.12574 0.28012 0.28135 -1.8053 -1.0421 -0.19255 -0.55375 -0.054526 1.5574 0.39296 -0.2475 0.34251 0.45365 0.16237 0.52464 -0.070272 -0.83744 -1.0326 0.45946 0.25302 -0.17837 -0.73398 -0.20025 0.2347 -0.56095 -2.2839 0.0092753 -0.60284
fuck -0.91939 -0.80002 -0.14506 -0.82957 0.16593 -0.86443 0.53663 -0.18564 0.18618 0.69898 -0.0079736 0.72973 -0.04318 0.031592 0.40838 0.1892 0.44341 0.027949 0.19633 0.2619 -0.36537 0.13275 1.1864 0.67822 0.81476 -0.39129 -1.6095 0.34755 0.66557 -1.8368 0.76021 -0.19589 -0.79785 0.9992 -0.71594 0.15206 1.1535 -1.4304 0.022104 0.26963 0.41325 -0.52449 -0.83905 0.12621 0.13197 -0.011983 0.48271 -0.34938 0.12655 -0.14828
skin 0.6249 0.19755 -0.73095 -0.27178 -0.074749 1.9627 0.73903 -0.50509 0.84362 -0.19095 0.96928 0.16534 1.0055 0.45627 -0.28646 1.1451 -0.80005 -0.54833 0.067546 -0.68365 -1.1835 0.26605 1.4667 -0.78473 -0.29562 -0.53608 -0.87477 1.5949 1.013 -0.60967 2.482 0.21278 0.32372 -0.31994 -0.7301 0.83596 0.092549 0.72167 0.99528 -1.2383 0.099699 0.23943 0.36292 0.23021 1.4788 0.0073368 0.66258 -0.76373 -0.17987 0.038807
tournament -0.88953 0.63058 -0.82473 1.7096 -0.44217 -0.64059 -0.062663 1.2849 -0.015872 -0.34241 0.183 -1.0086 -1.2333 0.11335 1.7202 0.010418 0.66763 0.14544 -1.7312 -0.13564 -0.59173 -0.30289 0.24262 0.40973 -0.25839 -0.97564 -0.26657 -0.40007 -1.1186 -0.49614 2.5761 1.0775 0.0091295 0.45583 0.32428 0.10288 0.72513 1.4971 -0.43629 -1.7964 -0.5283 -0.77145 0.15017 0.43971 -0.16645 0.42542 0.35469 -0.098881 -0.58181 -0.096291
cell 1.4761 0.42424 1.4387 0.5277 0.68466 1.0248 0.42836 -0.43636 0.93776 0.4999 0.76628 -0.6257 0.11867 0.76455 -0.41856 0.80716 -1.145 -0.075398 0.47328 0.16632 0.25749 -0.41617 0.45851 0.65778 -0.47289 -1.4163 0.4418 -0.25573 0.35258 -0.2884 2.5676 -0.31983 -0.44509 -1.2688 -0.073922 0.001126 0.35743 0.44641 0.26805 0.38776 0.44051 -0.26319 -0.48449 0.78691 1.4343 -0.34328 0.60773 -0.9809 -0.47391 -0.0090641
summer -0.13994 1.064 -0.91844 -0.42938 -1.0628 -0.51658 -1.3213 0.17506 -0.22875 -0.15815 -0.15426 -0.65194 0.27595 -0.013174 1.5593 0.31834 -0.036232 0.46632 -1.4032 -0.18963 0.60757 -0.14303 0.38073 0.18222 -0.17379 -0.91278 -0.036367 0.29563 0.48859 0.65812 2.9305 0.62993 -0.45742 -0.23587 -0.0026074 0.31701 -0.0070122 0.67844 -0.14063 -0.65643 -0.93197 -0.084511 -0.073981 -0.35605 0.13789 -0.013311 0.35519 -0.73341 -0.58977 0.33139
crew 0.96326 -0.031685 0.67622 0.065282 0.34352 0.070106 -1.1083 1.1146 0.4236 -1.2208 0.53304 0.60783 -0.31562 1.5906 0.22113 -0.87097 -0.56742 0.80841 -1.517 -1.1391 -0.046099 1.2752 0.31272 -0.26758 0.46354 -0.92472 -0.0043961 -0.049565 0.30746 0.018146 2.0982 0.29759 -0.41905 -0.24324 0.71959 0.64791 0.84272 -0.53182 -0.12122 -0.09496 -0.085583 -0.35631 0.82021 -0.34058 -0.21215 -0.21247 -0.43997 0.02094 -0.18163 0.053004
defeat 0.019324 -0.44313 0.082662 0.31771 -0.16425 0.35066 0.35311 1.5538 -1.1866 -0.1681 -0.6341 -0.27918 -1.2801 -0.83877 -0.12715 -0.33442 0.51042 -1.1889 -1.2868 0.61654 -1.1084 -0.71976 0.15773 -0.59954 0.13913 -1.8205 -0.029934 -0.62192 0.40655 0.29402 2.0795 1.0947 -0.64095 -0.379 -0.32351 0.01265 0.073448 0.44588 -0.54754 -1.5379 -0.096776 -0.60222 -0.42775 -0.50316 0.26481 1.4437 -0.5739 -0.30025 0.67825 -0.5737
library 0.10534 1.015 -0.029875 -0.39132 0.36331 -0.8177 -1.2392 -1.2031 0.52308 -0.2808 -0.39674 0.24984 0.48515 -0.61646 0.099898 0.095501 -0.36033 0.51953 0.51002 0.33889 1.2856 0.090471 -0.78268 0.32852 -0.28835 -0.77491 -0.44649 -0.38168 -1.1297 -0.93958 2.2106 -0.98451 0.21923 -1.5895 -0.40563 0.86676 0.44975 0.68525 0.59603 -0.13506 1.0029 -0.36087 -0.23692 0.47022 -1.1395 1.0524 -0.078291 -0.59501 -0.63793 -0.22689
government 0.38797 -1.0825 0.45025 -0.23341 0.086307 -0.25721 -0.18281 -0.10037 -0.50099 -0.58361 -0.052635 -0.14224 0.0090217 -0.38308 0.18503 0.42444 0.10611 -0.1487 1.0801 0.065757 0.64552 0.1908 -0.14561 -0.87237 -0.35568 -2.435 0.28428 -0.33436 -0.56139 0.91404 4.0129 0.072234 -1.2478 -0.36592 -0.50236 0.011731 -0.27409 -0.50842 -0.2584 -0.096172 -0.67109 0.40226 0.27912 -0.37317 -0.45049 -0.30662 -1.6426 1.1936 0.65343 -0.76293
world -0.41486 0.71848 -0.3045 0.87445 0.22441 -0.56488 -0.37566 -0.44801 0.61347 -0.11359 0.74556 -0.10598 -1.1882 0.50974 1.3511 0.069851 0.73314 0.26773 -1.1787 -0.148 0.039853 0.033107 -0.27406 0.25125 0.41507 -1.6188 -0.81778 -0.73892 -0.28997 0.57277 3.4719 0.73817 -0.044495 -0.15119 -0.93503 -0.13152 -0.28562 0.76327 -0.83332 -0.6793 -0.39099 -0.64466 1.0044 -0.2051 0.46799 0.99314 -0.16221 -0.46022 -0.37639 -0.67542
potato -0.063054 -0.62636 -0.76417 -0.041484 0.56284 0.86432 -0.73734 -0.70925 -0.073065 -0.74619 -0.34769 0.14402 1.4576 0.034688 0.11224 0.13854 0.10484 0.60207 0.021777 -0.21802 0.087613 -1.4234 1.0361 0.1509 0.13608 -0.2971 -0.90828 0.34182 1.3367 0.16329 1.2374 -0.20113 -0.91532 1.4222 -0.1276 0.69443 -1.1782 1.2072 1.0524 -0.11957 -0.1275 0.41798 -0.9232 -0.1312 1.2696 1.2318 0.30061 -0.18854 0.15899 0.0486
astronomer 0.44444 0.88637 0.079447 -0.68175 0.51504 -0.3536 -1.3321 -0.60899 -0.70608 -0.4659 1.1577 0.88882 0.60718 1.3494 -0.0030218 0.17608 -0.094955 0.39433 -1.7812 1.0628 -0.56738 0.20611 -0.45192 -0.35707 1.4099 -1.1145 -0.7723 -0.6436 -1.1402 1.0674 -0.75942 -1.5355 -0.11162 -0.87855 0.056203 -0.31571 -0.38619 1.2393 0.74749 0.54582 0.90925 0.65947 0.238 0.35045 0.043655 -0.088297 0.56727 0.12739 -0.12381 0.21006
morality -0.60353 -0.35211 -1.4623 -0.99719 0.84182 0.55251 1.1834 -1.2932 0.056917 0.4077 -0.5893 0.66024 -0.36059 0.022693 -0.3895 -0.21351 -0.10201 -0.084847 0.61891 0.075533 -0.083999 1.036 -0.40822 0.26942 0.46923 -1.4142 -0.70938 -0.31975 0.5956 0.36739 1.2726 0.37314 -0.4992 -0.96027 -0.53756 -0.16473 -0.53771 -0.64254 -0.41335 0.17644 0.063938 -0.33166 0.37209 1.7005 -0.60208 0.901 0.17927 0.42397 0.68375 -0.15564
nurse 0.36782 0.15792 -0.74678 -0.96598 0.65514 0.66296 -0.64188 0.743 0.83042 -0.8968 0.6507 0.28245 0.63245 0.45723 0.19308 -0.53689 -1.0466 0.59911 0.17347 0.38263 -0.36344 1.9267 0.14998 0.46042 -0.067341 -1.239 0.012827 -0.56977 -0.37873 -0.010404 1.4251 0.29083 -0.035939 -0.15908 0.60795 0.53441 0.36149 0.0092758 1.6148 -0.50486 -0.12611 0.22362 0.59278 0.067698 0.85947 -0.83988 0.030867 -0.63665 0.016348 1.4526
prejudice -0.51494 -0.12602 -1.3265 -0.28623 0.19331 1.764 1.4835 -0.077184 -0.14764 0.20872 -0.06657 -0.13783 -0.54792 -1.1366 0.54517 0.20371 0.49221 -0.69487 0.0075177 -0.52117 -0.042748 0.60965 0.10327 0.56576 0.1665 -1.0565 -0.68161 -0.17133 0.72203 0.028947 0.77153 0.60297 -0.11585 -1.391 -1.1079 -0.73954 -0.45725 -1.3169 -0.45018 -0.39438 0.1414 -0.38717 0.40406 0.70385 0.55684 0.075966 0.14868 0.092037 0.19346 -0.21523
man -0.094386 0.43007 -0.17224 -0.45529 1.6447 0.40335 -0.37263 0.25071 -0.10588 0.10778 -0.10848 0.15181 -0.65396 0.55054 0.59591 -0.46278 0.11847 0.64448 -0.70948 0.23947 -0.82905 1.272 0.033021 0.2935 0.3911 -2.8094 -0.70745 0.4106 0.3894 -0.2913 2.6124 -0.34576 -0.16832 0.25154 0.31216 0.31639 0.12539 -0.012646 0.22297 -0.56585 -0.086264 0.62549 -0.0576 0.29375 0.66005 -0.53115 -0.48233 -0.97925 0.53135 -0.11725
deployment 1.4941 -0.77158 0.25261 -0.49006 -0.26664 -0.39983 0.27365 0.04043 0.64934 -1.2714 0.29515 -0.61759 0.42975 -0.013101 -0.15636 0.14481 -0.24648 -0.074447 -0.40896 -0.38313 0.0097775 -0.31591 -0.68619 -0.83498 -0.073693 -0.97496 0.69006 -0.36091 0.13434 1.1474 2.3996 0.048033 -1.5967 0.035578 0.21968 0.12035 0.38607 -0.42 -1.741 -0.26889 -0.1334 0.16098 0.33271 -0.94974 -0.18927 -0.20384 0.62963 1.344 -1.3915 0.61913
bread -0.37436 -0.11959 -0.87609 -1.1217 1.2788 0.48323 -0.53903 0.053659 -0.23929 -0.12414 -0.42583 -0.27509 1.139 -0.014324 0.47665 -0.083337 0.15226 0.25682 0.67657 -0.83238 0.88473 -0.83593 1.0244 0.79069 -0.27765 -0.10789 -0.69624 0.66464 1.7969 0.12674 2.2994 0.11488 -0.46407 2.3384 -0.50165 0.38362 -0.90069 1.1488 1.1098 0.33288 1.0195 0.24056 -0.77281 -0.18051 0.9214 0.97842 -0.23098 -0.10138 -0.51135 -0.18633
television -0.049215 0.30919 0.44865 0.78572 -0.38749 0.11435 -1.2184 -0.42062 -0.071196 0.29784 0.068724 -0.18416 -0.29445 1.369 0.64011 -0.0021719 -0.76293 0.83049 -0.63892 0.23664 1.2598 1.3755 0.62952 0.95859 -0.051085 -1.4518 -0.96676 0.40644 -0.23187 0.020851 2.9767 0.46302 0.33165 -0.8278 -0.93105 0.51592 0.13862 -0.53819 -0.99028 -0.41159 0.79342 1.0925 -0.85656 -0.71099 -0.86361 -0.19168 -1.0595 0.23377 -0.27208 0.60741
lover 0.44568 0.95634 -0.69882 -0.38478 0.79687 1.1 -0.44473 0.69026 -0.22458 0.82533 0.0016115 1.161 0.11434 0.28509 1.0872 -0.63079 -0.2276 0.51948 -0.044536 0.32178 -0.054943 1.0426 -0.047913 1.1018 0.82917 -1.5499 -0.55564 -0.22634 0.63298 0.17989 0.89935 -0.37135 -0.35651 0.36894 0.072641 0.16032 -0.44331 -0.14172 -0.05925 -0.97152 0.54754 0.28982 -0.39355 -0.045247 0.78273 -0.60443 -0.30651 -1.3528 0.4288 -0.029676
change 0.042454 0.12552 -0.066073 -0.21142 0.044724 0.17982 -0.05304 -0.5183 -0.24175 0.030587 0.1394 0.3424 -0.43617 0.13271 0.44411 0.93805 0.31023 -0.66623 0.30407 -1.0227 -0.17443 -0.3182 0.006472 -0.203 0.6764 -1.4509 -0.64092 -0.036865 0.52866 0.53492 3.6185 0.43604 -0.85961 -1.0646 -0.37223 -0.67512 0.046302 -0.048859 -0.25654 -0.20556 -0.77933 0.015518 -0.29186 0.12353 -0.17685 0.30804 0.31609 0.5478 0.32895 0.65252
health 0.31161 0.33903 0.033922 -0.30914 -0.43078 0.3417 -0.6864 -0.83817 1.478 -0.5249 0.13326 -0.069083 0.40058 -0.35225 0.20453 0.16683 -0.56978 -0.1359 1.1439 0.15662 -0.23462 0.60111 -0.13868 -0.3787 -0.03634 -1.6429 -0.10716 -0.73417 -0.62077 0.88903 3.3969 0.88545 -0.20321 -1.1283 -0.36811 0.088206 0.055528 0.39659 1.6077 0.031832 -0.91684 0.07666 0.67848 0.64672 0.74549 0.56715 -1.0098 0.81053 0.85948 1.0404
computation 0.44551 -0.20328 0.1667 0.29977 0.24637 0.44426 1.086 -1.119 0.39616 0.75651 0.27359 -0.020149 -0.10735 -0.12139 -0.22418 -0.25176 -0.028599 0.31508 0.25172 -0.24843 0.22615 -0.93828 -0.38602 -0.089497 0.98723 0.39436 -0.34908 -0.99075 0.34147 0.021747 1.438 -0.83107 -0.48114 -0.83788 0.13285 0.065932 0.10166 1.0069 0.10475 0.9057 0.052845 -0.68559 -0.8128 1.7206 -1.0087 -0.61613 1.9217 0.52374 0.0051134 0.23797
virtuoso -0.76207 0.16469 -1.1224 -0.31643 -0.03058 0.30247 0.17163 0.65542 -0.95619 1.8362 0.89309 0.58658 -0.049051 1.0242 -0.31493 -1.0656 0.073257 0.66823 -0.16756 -0.73074 -0.21267 0.52301 -1.0777 -0.072365 0.85797 0.27948 -0.50264 -0.60468 -0.40072 0.0079255 0.86616 -0.53491 0.59853 0.36461 0.8023 0.82524 0.80366 0.83511 -0.14651 0.40491 0.51306 0.63598 -0.54138 -0.29748 0.578 -0.082118 0.62229 -0.15357 -1.0534 0.20863
century 0.42373 0.07564 -1.1661 -0.94059 0.47112 -0.34774 -0.91326 -0.52053 -0.42224 -0.012656 -0.12034 0.16164 -0.29226 -0.22875 0.029715 -0.20729 0.24263 -0.74336 -0.67894 0.50366 0.13175 -0.66325 -0.93767 -0.036856 0.5709 -1.1115 -1.631 -0.72303 -0.12268 0.82252 3.0946 -1.228 0.64149 0.093082 0.22482 0.1489 -0.24321 0.94718 -0.59528 0.60007 -0.28403 -0.091914 0.22169 0.2975 -0.31769 1.3584 -0.13378 -1.1394 -0.31153 -1.3144
discovery 1.7891 0.72459 0.029113 0.70406 0.30333 0.42272 -0.95182 0.029555 1.4737 0.33103 0.46865 0.16461 -0.22038 0.68406 0.52647 0.23448 -0.20639 -0.12648 -1.3836 0.19128 0.50999 0.18876 0.1126 -0.69536 0.76501 -1.0254 -0.80714 0.11904 0.29655 0.26648 1.7133 -0.93553 -0.52867 -1.066 -0.10948 -0.13589 0.23581 0.45143 0.10956 0.17124 0.16184 -0.52705 -0.024358 -0.03849 0.24203 0.32226 0.36295 0.4317 -0.29126 -0.39696
report 0.15859 -0.19642 0.4408 0.15705 0.14152 -0.39295 -0.86465 -0.43096 1.1259 -0.74546 -0.17474 -0.36998 -0.61971 -0.45057 1.2699 0.057434 -0.76578 -1.2642 0.19085 0.12169 0.93931 0.25212 0.87944 -0.50907 -0.0010334 -1.6726 -0.67526 0.3412 -0.87419 0.46861 2.9986 -0.89706 0.35027 -1.2195 -0.48529 -0.53516 0.13027 -0.44508 0.37792 -0.10454 -0.17988 0.18401 0.47157 -0.86405 0.55818 -0.14163 -0.17835 1.8827 0.6433 0.33806
madhouse 0.67426 -1.516 -0.74077 0.26567 -0.02184 -0.79688 0.28102 -0.37412 -0.37535 0.56346 0.072606 0.11459 -0.11842 1.0155 0.3704 0.20296 -0.062368 1.0386 -0.16525 0.23354 1.04 0.36971 0.27082 0.28912 0.24244 0.84851 -0.78132 0.79857 -0.19556 -0.33797 -0.22769 -0.60803 0.19436 0.29539 -0.74022 0.33633 0.47393 -0.519 0.043942 -0.14034 -0.2223 -0.26968 -0.99767 -0.37821 0.0099538 -0.067354 0.22558 -0.399 0.12017 0.37034
entity 0.69248 -0.53509 -0.08768 0.52898 1.2964 0.79559 0.53658 -0.2248 -0.080155 0.0077927 0.95524 0.35235 -0.31907 0.62109 -0.68818 0.47883 0.53894 0.52698 0.66111 0.74917 0.29945 -0.23209 -0.26582 0.58381 -1.2625 -0.68726 -0.93354 -0.33424 0.61335 0.1916 2.2852 -0.62789 -0.20094 -0.57124 -0.61729 -0.031588 -0.48516 -0.55732 -0.206 -0.29326 0.097888 -0.9289 0.066942 0.41101 -1.714 -0.23631 -0.90494 0.57701 -0.023199 0.12799
opera 0.9225 0.65763 -2.0248 -0.39393 -0.72829 0.22724 -0.32725 0.42736 -1.4043 1.1171 0.10349 0.30828 -0.0085401 0.72795 0.5292 -0.92393 -0.43024 1.0663 -0.5967 0.020018 1.5045 0.35444 -0.85022 0.92345 0.26265 -0.52343 -1.5828 -0.032914 -1.0927 -0.62927 2.1341 0.13114 0.83769 -0.31729 -0.42534 -0.0078331 0.60959 0.25801 -0.071862 -0.21608 -0.010101 0.1303 -0.36583 -1.146 -0.49456 0.47726 -0.14921 -0.92497 -0.55052 0.93806
sign -0.020377 0.86605 0.071975 -0.29717 0.61177 -0.26226 -0.99114 0.13033 -0.21726 0.31929 0.43703 0.41547 -0.17183 0.010549 0.40697 0.43385 -0.40842 -1.0057 0.41781 -0.48802 -0.31581 -0.14833 -0.48956 -0.44998 -0.15654 -1.6381 0.45729 0.66612 0.54645 -0.70091 2.9181 0.64364 -0.83838 -0.38647 -0.3105 -0.31526 0.19864 -0.73908 -0.35856 -0.37951 0.05021 -0.2253 -0.21787 -0.28566 0.1435 0.15005 -0.087192 0.98304 -0.2071 -0.59829
recognition -0.46559 0.83319 -0.33789 0.068717 0.5047 0.62254 0.16777 0.15453 0.48463 0.65705 1.1308 -0.23922 0.39934 -0.61064 -0.17674 0.1028 -0.16706 -0.36651 0.58009 -0.116 -0.061805 0.20235 -0.6046 -0.49532 0.10178 -1.3268 -0.93833 -0.63553 -0.2687 -0.17192 2.5908 0.37376 -0.75035 -1.2671 -0.11807 -0.069822 0.052404 0.028743 -0.93125 -0.51963 0.28462 -0.22883 -0.38643 -0.27366 -0.97585 -0.42997 -0.047109 0.73876 -0.68257 -0.48667
office 0.25481 0.054909 0.32375 0.21429 0.48137 -0.75424 -0.78087 -0.29439 0.024477 -1.2903 -0.69475 -0.33993 -0.3687 -0.0011398 0.51126 0.27465 -0.86396 0.070632 0.62489 -0.043111 1.0666 0.24161 -0.536 -0.31515 -0.74103 -2.104 0.024429 0.43665 -0.68109 0.19043 2.8783 -0.25616 -0.56676 -1.1168 -0.29901 0.29706 0.40172 0.21947 0.64514 -0.18449 -0.28797 0.59847 -0.27569 -0.0049195 -0.7356 -0.15342 -0.99148 -0.045975 0.72543 0.41688
lad -0.74531 0.10429 0.051523 -1.0584 0.045572 0.24654 0.14375 0.6281 -0.70279 0.57615 0.069093 0.29556 -0.10904 -0.35982 -0.67892 -0.13823 0.78241 1.2339 -0.067558 0.19647 -0.8821 0.13388 0.30752 0.74011 0.69582 -0.28031 -1.2661 0.37423 0.5337 -0.056128 0.22434 0.077827 0.2781 0.72289 0.93624 0.89476 0.073469 0.15845 0.44014 -0.81336 0.37784 -0.28418 -0.92462 -0.49402 0.58676 -0.26261 0.27451 -0.27285 0.8365 -0.12298
radio -0.18365 0.31819 0.6987 0.42428 -1.0583 -0.44329 -1.4099 0.033347 -0.43923 0.37302 0.67606 -0.32608 0.31202 0.62365 -0.33065 0.12888 -0.58507 0.92626 -0.88259 0.33774 0.68364 1.1332 0.50047 1.1946 0.30051 -1.1196 -0.4598 0.10736 -0.09825 0.007234 3.1082 -0.11736 -0.19675 -0.66253 -0.81423 -0.040469 0.82776 -1.0758 -0.52635 0.36169 1.6813 0.7563 -1.0765 -0.72454 -0.64641 0.033986 -1.0456 0.60379 -0.34862 0.7268
smile -0.078409 0.69917 -0.25106 -0.39339 0.95959 -0.14998 0.22645 0.39141 -0.33114 0.98398 -0.212 0.35793 0.211 0.1782 -0.065093 0.40597 -0.54485 0.25806 -0.046838 -0.56607 -0.79371 1.461 0.31644 -0.49517 1.0434 -1.3671 -0.26372 1.7112 0.64676 -0.87174 1.6197 0.69853 0.34052 0.25404 -0.65208 -0.048741 -0.047842 -0.11243 -0.18974 -1.6706 0.63767 0.47774 -1.0653 0.1806 0.43181 -0.70546 0.61853 -0.6347 -0.18732 0.19669
arrangement 0.65434 0.42122 -0.99622 0.14401 0.086781 0.79439 0.012062 -0.11786 -0.44216 0.021525 0.19138 0.81834 -0.24971 0.64395 -0.084546 0.4134 -0.082289 -0.16996 1.0534 -0.78368 0.74399 -0.12816 -0.58267 -0.12477 -0.29623 -0.076005 0.24987 0.12127 0.15789 0.21166 2.9178 -0.68295 -0.2559 0.56461 0.31554 -0.28209 0.52975 -0.082027 -0.84015 -0.17154 0.10278 -0.62964 -0.18319 0.21528 -0.8343 -0.54643 -0.02007 0.3903 -0.6471 0.40898
credibility 0.0083005 -0.18177 0.44367 -0.099527 0.79512 0.086112 0.62487 0.66295 0.8155 0.32102 0.044981 0.16222 -1.2747 -0.32614 -0.39392 0.49391 0.37186 -0.67095 1.1192 -0.34293 -0.26411 0.87791 -0.32949 -1.1024 -0.02104 -1.7744 -0.82406 0.44639 0.084177 0.40624 1.7213 0.55638 0.20268 -1.4282 -0.71431 -0.011727 -0.67165 -0.18293 -0.21577 -1.5315 0.089096 -0.33941 -0.15733 0.012786 -0.64733 0.20048 -0.62938 1.163 0.19025 -0.429
communication 0.27322 0.35456 0.31928 0.90188 -0.23847 -0.070246 0.11191 -0.63825 0.50865 -0.21017 0.88373 0.45406 -0.16181 0.0015502 -1.392 0.0362 -0.84489 0.31308 0.51561 0.011261 0.7262 0.90956 -0.33163 0.13869 0.94266 -0.6364 0.46383 -0.92214 0.45277 0.28801 3.1851 0.1856 -0.10611 -1.4274 -0.51534 0.37997 -0.41656 0.23597 -0.13083 1.0455 1.0113 -0.23787 0.045474 0.56904 -0.11273 -0.17097 0.46709 0.70399 0.089454 0.38547
stock -0.0743 -0.77841 0.49341 0.73968 0.7554 -0.78968 -0.63113 -0.54916 -0.43567 0.68255 0.074013 0.36359 -0.60005 -0.34957 0.42048 0.73399 -1.111 -0.39159 -0.97131 -0.85833 2.0588 -0.39448 0.11897 -0.23794 -0.97022 -1.0812 -0.16123 0.18695 0.36667 0.30179 3.2035 0.037224 1.132 0.67364 0.45764 -1.6357 -1.2271 -0.29407 0.6426 -0.74074 -0.43575 -0.3363 0.45234 0.57153 0.0029191 0.10863 0.31306 0.49593 0.82498 -0.16104
credit -0.14507 0.18523 0.87624 -0.40109 -0.54593 0.27876 -0.53844 -0.073749 0.033542 0.29605 -0.015165 0.97952 -0.39951 -0.22479 0.39135 0.18065 -0.099005 -0.56547 0.81349 -0.29484 1.1046 -0.53413 -0.60684 -0.14538 -0.60555 -1.3484 -0.17349 -0.22012 -0.10161 0.059905 3.1936 0.71105 1.2331 0.041516 -0.049376 -0.075647 -0.66999 -0.63843 0.92575 -1.3003 -0.1455 -0.017748 0.67626 0.21389 -0.53501 -0.91446 0.099732 1.0489 0.73924 0.3247
citizen -0.85767 0.33779 -0.018793 -0.15108 1.1587 0.20349 -0.26486 0.37087 0.40329 -0.073607 0.73035 -0.0691 0.68379 0.36699 0.45671 -0.68922 0.076172 0.34406 0.097231 0.75011 0.059842 0.81061 -0.17766 0.78086 -0.10119 -2.2399 -0.20245 -1.1283 -0.076997 0.45273 1.4275 -0.36878 -0.90426 -0.7696 -0.16707 -0.47867 -0.074143 -0.2467 -0.27341 -0.26309 0.33859 0.12802 1.1083 -7.791E-4 -0.27782 -0.60426 -1.2395 0.028606 0.3948 0.34327
terror 1.2488 -0.073994 0.53393 -0.19254 0.29955 -0.4836 1.0042 -0.37427 0.65179 0.28036 -0.7615 -0.098258 -1.0562 0.61885 -0.010745 -0.23114 0.24724 -0.59407 -0.49774 1.2889 0.13501 0.25445 0.45492 0.12666 -0.88816 -2.1859 -0.2173 -0.4677 0.72023 0.32975 2.0864 0.12094 -0.75347 -1.1422 -0.29189 0.3438 -0.15177 -1.3297 -1.2662 -0.23609 -0.49187 0.086716 0.82724 -0.13459 1.1602 0.079073 -0.35073 0.33598 0.2121 -0.16802
law -1.2328 -0.11042 -0.77951 -0.50614 -0.06815 0.69457 0.18967 -0.76766 0.0054416 -0.36045 -0.16309 0.59114 -0.14221 -0.33803 0.22356 0.0015343 -0.012043 -0.59315 0.6207 0.087477 0.7218 0.31269 -0.49196 -0.14968 -0.52249 -2.9321 0.13136 -1.0542 -0.25628 -0.27729 2.8322 -0.80952 -1.2425 -1.3874 -0.055187 -0.48155 0.17897 -0.22712 0.52925 0.47739 -0.55841 0.25676 1.0353 1.0491 -0.95648 -0.033834 -0.43219 0.10342 0.20543 0.36536
liability -0.10849 -0.18264 0.029575 0.12965 -0.33701 1.8893 0.84663 0.065447 0.93727 -0.21832 -0.050261 0.62093 -0.068323 -0.40692 0.45255 0.20227 0.36679 0.1034 0.21376 -1.0097 0.41092 -0.75664 -1.051 -0.68949 -1.0246 -1.6809 -0.34996 -0.37211 0.73163 0.33908 1.4745 0.018067 0.12569 -0.62258 -0.25274 -0.43161 0.38203 -0.89183 0.43057 -0.8308 -0.27647 -0.75429 1.0622 1.8422 -1.0076 -0.52104 -0.80953 1.0739 0.16897 0.49029
equipment 0.35616 -0.5708 1.2891 0.50502 -0.78668 -0.36109 -0.77888 -0.5941 1.0652 -0.32979 1.104 0.1589 -0.060787 -0.075003 -0.41533 0.58794 -0.93287 1.0746 -0.136 -1.2408 1.2386 0.2305 -0.5829 -0.99759 -0.26581 -1.0091 -0.37893 -0.47177 1.3135 -0.089974 3.2934 0.10037 -0.075847 -0.33109 0.59928 1.4487 0.37561 0.94249 0.14642 0.49431 0.7368 -0.057111 1.0082 0.35067 0.4482 -0.14236 -0.10965 0.53676 -0.36661 -0.22774
film 0.06912 0.22159 -0.66613 -0.14061 0.063365 0.41747 -0.21723 -1.0401 0.026069 1.3382 -0.083642 0.66324 -0.45989 0.95883 1.3185 -0.62523 0.56153 0.65288 -1.2364 0.29692 1.238 0.80621 0.40967 0.39945 0.57983 -1.3658 -1.6764 0.069718 -0.59634 -0.63117 2.5894 -0.56915 0.46879 -0.9249 -0.44629 0.42283 0.17637 -0.014459 -0.75358 -0.9785 0.023075 1.2227 -0.17517 -1.5743 -0.9535 -0.10959 0.24517 -0.93551 -0.20943 0.67333
admission -0.17898 1.1965 -0.54398 -0.18003 0.3304 0.044031 0.21586 0.19577 -0.19895 0.27383 -0.34817 -0.67977 0.71262 -0.61651 0.90013 0.23434 -0.71113 -0.19801 0.0053355 0.1091 0.8918 0.35282 -0.22717 0.1931 -0.25977 -0.94069 0.73852 -0.11665 -0.36341 -0.064326 1.9003 0.72185 -0.51579 -0.69649 0.38056 -0.4889 0.86782 0.25458 -0.10259 -0.49336 0.15043 -0.55374 0.38015 1.1951 -0.39919 -0.52202 0.26585 1.0983 0.28427 0.255
tool -0.16608 -0.64058 0.47542 0.14818 0.18842 0.070082 0.041716 -1.0377 0.91964 0.48614 0.029612 0.11487 -0.12355 0.43545 -0.90585 -0.018264 0.39082 0.30161 0.75633 -0.47487 0.53238 -0.33275 -0.63227 -0.023903 0.2691 -1.0538 -0.74177 -0.70855 0.59683 -0.05123 2.5942 -0.57206 -0.63404 -0.77503 -0.28609 0.89683 -0.17145 0.73465 -0.049539 -0.36223 0.79491 -0.2883 -0.36528 0.76909 0.95572 -0.30439 0.90621 0.60239 0.45197 0.3449
professor -1.271 1.0787 -1.12 -0.36538 0.32833 0.083115 -0.2667 -0.83122 -0.52564 -0.39055 0.4586 0.58634 -0.4012 -0.39088 -0.034969 -0.014775 0.1092 0.67148 -0.30927 1.2483 0.46131 1.0847 -0.0096554 -0.27795 0.54413 -2.1955 -0.052889 -0.956 -1.7369 0.21237 1.542 -1.2809 -0.074123 -1.7072 -0.26871 -0.20991 -0.50894 1.2134 2.0732 0.63703 -0.034836 0.5916 -0.11023 0.062066 0.57382 0.19572 0.64698 -0.12321 -0.13005 1.0478
governor -0.21253 -0.75435 0.094368 0.095026 0.68 -0.28077 -0.59397 0.72911 -0.58859 -1.1119 -0.80573 0.12563 0.82464 -0.89265 0.021317 0.14713 -0.11291 -0.25379 0.15137 0.45707 -0.016772 -0.89628 -0.058417 -0.46347 0.34444 -2.7354 0.19521 -0.027751 -0.85062 0.033583 1.7297 -0.30365 -0.85606 -0.77663 0.55297 -0.38174 -0.42086 0.39277 -0.13629 -0.17497 -1.2703 1.9003 -1.1917 -1.0966 -1.124 -0.22946 -1.0316 -0.32285 0.88847 0.87791
student -1.0729 0.94103 0.084904 -1.0766 0.42866 0.099877 -0.51081 -0.24961 -0.30883 0.19553 0.1965 -0.73152 0.096916 -0.062686 0.12078 -0.72384 -0.382 0.6934 0.32956 0.40244 0.53485 0.91781 -0.44553 0.71804 -0.13635 -1.6906 0.15818 -1.2367 -1.2278 -0.058566 2.7544 0.18672 -0.263 -1.2792 0.16992 0.40748 0.12248 0.11211 0.78318 0.036392 -0.40808 -0.058474 -0.27932 0.33035 0.52384 -1.0487 0.27565 0.0363 0.048604 0.28239
fruit 0.59568 0.22465 -1.1312 0.30695 1.2447 0.67269 -0.82091 -0.57731 0.77831 0.6483 -0.096641 0.12117 1.5335 -0.22049 0.34732 0.035137 -0.17402 0.3735 0.40185 -1.2994 0.23554 -1.0455 1.4656 -0.036403 -0.16088 0.079912 -0.0080801 1.2907 1.2154 -0.42619 2.4576 -0.12162 -0.28468 0.69763 0.59817 0.14596 -1.2759 0.94443 0.27617 -0.052994 -0.61665 -0.1966 -0.52961 -0.68732 1.3299 0.44458 -0.075366 -0.45485 0.16166 -0.40017
media -0.0090994 -0.067391 0.49534 0.88931 -0.3926 -0.47899 -0.75887 -0.69709 -0.032586 0.41326 0.052519 0.0017307 -0.51421 0.32273 0.18173 0.063402 -0.25607 0.15822 -0.19918 -0.26366 0.94409 0.83288 0.26201 0.35369 -0.13588 -1.7155 -0.75341 -0.17803 -0.57154 0.33423 3.0793 -0.090306 0.27225 -1.2576 -1.4392 -0.15501 -0.59176 -0.57594 -0.61153 -0.29858 1.0629 0.49897 -0.26712 0.4604 0.10098 -0.21047 -0.92839 0.80393 0.072667 -0.0019464
racket -1.0269 -0.9363 -0.51872 0.46607 -0.15623 0.31976 1.0376 0.38993 0.41331 0.43733 -0.30968 -0.067756 -0.97108 0.28112 0.80786 -0.93503 -0.40741 0.41447 -0.080687 -0.70073 0.33113 -0.053438 -0.73993 -0.062391 0.075795 -1.8247 0.74113 0.81611 0.65285 -1.1576 1.0101 0.22467 0.74074 0.89347 -1.0829 1.0504 -0.014223 -0.0027743 0.22593 -0.28332 0.33404 0.45334 0.2488 1.4682 0.36284 -0.61624 0.50778 -0.3494 0.058998 -1.363
boy -0.32345 0.23332 -0.20082 -0.52848 1.0926 0.62445 -0.99859 0.28085 0.088326 0.36919 0.32199 0.3499 0.067459 0.24211 0.92565 -0.32581 -0.99134 0.80767 -0.22845 0.40076 -0.8577 1.3836 0.056439 0.76561 0.3608 -2.0692 -0.46679 0.12359 0.35127 -0.77092 2.2064 -0.42605 -0.24279 0.3832 0.6069 0.62835 0.31825 -0.8851 0.38329 -1.146 -0.41949 0.2606 -0.6568 -0.11511 1.0591 -0.61148 0.32152 -1.3182 0.31744 0.02527
preservation -0.12299 0.62852 -0.97424 -0.036615 -0.098676 -0.071676 -0.87874 -0.82165 1.4697 0.048921 -0.03603 0.35599 0.97275 -0.31187 -0.8508 -0.070867 1.1154 -0.027099 0.5562 0.42884 0.20462 -0.17371 -1.1867 -1.0261 -0.23117 -0.31849 -0.9341 -0.61035 0.30693 -0.096636 2.0793 -0.71647 -0.54623 -1.5027 -0.33679 0.63106 0.29324 -0.041215 0.15669 -0.076732 -0.36376 -1.2063 0.10635 0.27122 -0.47623 0.44696 -0.80284 0.18984 0.17029 0.02396
vodka -0.61554 0.040987 -0.84711 -0.078602 0.22401 0.87854 0.11446 -0.013751 -0.20705 1.7684 0.56624 0.1819 0.68286 -0.20363 0.5922 -0.15638 -0.31141 1.1357 -0.42239 -1.4312 0.76534 -0.6474 0.78257 0.3866 -0.81485 -0.71955 -0.83607 1.3636 1.2387 -0.31027 -0.016538 0.72999 -0.47317 1.3091 0.30913 -0.3626 -0.70823 0.63311 0.55068 0.54502 0.88389 0.62257 -0.11695 -0.36367 0.19208 0.88728 -1.0639 0.27753 0.43783 -0.73472
oil 0.27875 -0.18394 0.72936 0.41084 0.42924 -0.48582 -0.61788 0.11364 0.65048 0.77724 0.47326 0.33965 0.61211 0.19543 0.15643 0.43002 0.72605 0.11372 -0.54098 -0.74471 1.3175 -0.84713 0.82305 -1.5002 -0.66535 -1.4498 0.45208 0.91528 1.4725 1.409 3.2166 -0.59809 -0.056054 0.81663 -0.035132 -0.46626 -1.7801 0.32529 1.0937 0.31873 -0.22474 0.47985 0.88914 -1.0687 0.19026 0.55803 -1.0936 0.94067 -0.055423 -0.83055
victim 0.45682 -0.2758 0.028958 -0.27352 1.2668 1.2282 0.28452 0.76176 0.71332 -0.15033 -0.16637 -0.26148 -0.5831 -0.10381 1.1198 -0.70723 -0.60015 -0.513 -0.2387 0.50162 -0.54089 0.72034 -0.38592 0.14875 0.29043 -2.283 -0.42235 -0.32739 0.48932 -0.047619 1.7855 -0.3551 0.28397 -0.60013 -0.18232 0.5114 0.3842 -0.68795 0.44407 -0.52882 -0.40592 0.3178 0.27673 0.20962 0.94911 -0.63205 -0.16673 -0.41623 1.0483 -0.10997
row -0.42991 0.58278 -0.082192 0.2347 0.19989 0.28997 -0.1783 0.37608 -0.18685 -0.45686 -0.81336 -0.4838 -1.0673 0.39386 0.86434 -0.14146 0.087931 -0.62193 -0.39863 -0.47664 0.052628 -0.28277 -0.3389 0.33009 -0.61061 -1.1207 0.52124 0.34565 0.28223 0.30936 2.2299 -0.15907 0.16358 0.35603 0.30278 0.2202 0.293 -0.51999 -0.075569 -0.54476 -0.66316 0.10789 -0.0063335 0.32579 0.21005 0.58734 0.20658 -0.63877 -0.068372 -0.87175
possibility 1.1033 0.0023249 0.011643 0.079163 0.21197 0.36655 -0.03034 0.61278 -0.027528 0.22718 -0.099101 0.1514 -0.41036 0.12046 0.75941 0.63525 0.24811 -0.52871 -0.027002 -0.30913 0.093125 -0.17077 -0.021902 -0.1802 0.30717 -1.8148 0.31499 0.29545 0.70262 0.38563 2.5031 -0.011262 -0.46873 -1.0613 -0.042554 -0.4786 -0.20181 -0.19175 -0.50915 -0.20313 -0.71049 -0.089226 0.0393 0.30865 0.37335 -0.05009 -0.025399 1.2087 -0.013609 -0.050192
consumer -1.1061 -0.88872 0.81556 -0.012888 0.10176 0.070087 -0.95039 -1.4322 0.79682 0.4511 0.61437 -0.23286 0.049326 -0.058643 0.30623 0.58293 -0.86668 -0.54311 0.63465 -1.1629 1.3506 -0.3791 -0.58075 -0.062908 -0.22265 -1.0528 -0.6783 -0.16875 0.38465 0.95648 2.9743 0.67599 1.007 -0.80876 -0.72548 -0.80958 -0.81544 -0.25032 0.5433 -0.89031 -0.21437 0.069213 0.21585 -0.044391 0.6825 0.25175 -0.11069 0.73738 0.82096 0.78178
direction 0.21509 0.088083 0.033673 -0.79121 0.4699 -0.34245 0.26489 -0.0013649 -0.32665 -0.1228 0.1498 0.24498 -0.68862 0.31829 -0.98136 0.10593 0.54722 -0.31309 -0.50695 -0.90732 0.3757 0.050616 -0.027535 0.1496 1.0161 -1.0673 -0.042352 0.49031 0.0064926 0.01463 3.0115 -0.16191 0.25392 -0.98105 -0.14728 -0.94004 -0.3135 0.094133 -0.31399 0.47341 -0.096487 0.26392 -0.32743 -0.48938 -0.93727 -0.44228 0.94823 -0.14274 0.1556 0.76887
keyboard -0.015074 -0.4293 0.29098 0.088303 -0.26671 0.41589 0.25002 -0.17623 -0.32017 0.54535 0.67313 0.95895 0.037506 1.025 -0.68256 -0.28498 -1.1321 0.18523 0.68641 -1.4596 -0.33805 0.040833 -0.72256 0.6904 0.93669 0.12066 -0.39683 -0.38633 -0.44454 -0.75382 2.4496 -0.76175 0.72895 0.70833 0.65408 0.86964 0.779 0.2016 0.039884 -0.23797 1.3721 0.64114 -0.6007 0.55578 -0.14514 0.49348 1.7829 -0.66247 -1.1631 0.25954
rooster -0.25333 -0.15993 -0.43661 -0.64463 0.52515 0.44847 0.29062 -0.28079 0.79652 0.056552 0.38237 0.093372 0.70401 0.78153 -0.075642 0.35844 0.69313 1.1468 -1.6374 -0.074351 -0.26739 -0.3851 0.91924 -0.46367 -0.027684 -0.41862 -1.3377 0.70644 -0.73477 -0.83913 -0.60418 0.83645 -0.21187 0.73088 -0.4547 0.23575 0.4961 -0.63776 0.080596 -0.62802 -0.1273 0.095868 -1.3531 -0.16356 0.4102 0.1131 0.16786 -0.20334 -0.73197 -0.39133
chance 0.20291 0.18563 0.28683 -0.1999 0.82266 -0.1036 -0.52124 1.1258 0.16914 0.70616 -0.11666 -0.087966 -0.65555 0.12769 0.57949 0.16548 1.1873 -0.86613 -0.58879 -0.54778 -0.47461 0.18641 0.040801 -0.10423 0.67003 -1.6063 0.028459 -0.3755 0.47073 -0.60903 2.8377 1.236 -0.8572 -0.18284 0.19663 -0.15048 0.051983 0.91864 0.13361 -1.1994 -0.25596 -0.081271 -0.18416 0.23486 -0.31326 0.29756 0.18222 0.075321 0.0563 0.022005
nature 0.69917 0.64303 -1.439 0.24653 0.5186 0.074237 0.14794 -0.53328 0.42334 0.52874 -0.16226 0.39229 0.2929 -0.049215 -0.22758 0.0278 0.81454 0.085199 -0.084373 -0.017206 -0.50549 0.56167 0.043883 -0.11787 0.72582 -0.97883 -0.92599 0.31475 0.65451 0.43346 2.9418 -0.86313 -0.097198 -1.5291 -0.39909 0.22361 -0.55267 -0.24998 -0.60628 -0.14298 -0.24146 -0.57472 0.19233 0.94781 0.075044 -0.085379 0.086206 0.24632 0.52126 0.11655
rabbi -0.52855 0.70352 -0.49804 -1.0452 2.2661 0.34943 -0.36132 -0.21232 -1.8816 0.24923 0.40504 -0.12396 -0.38525 0.33813 0.77419 0.71197 0.54429 -0.81406 0.85369 1.6123 0.23754 0.09049 -0.9963 0.12172 0.36789 -0.58472 0.23907 -1.2713 -1.0406 -0.44495 0.41841 -1.5169 -0.31763 -0.52271 -0.52682 -0.26929 0.63561 0.0987 1.1086 1.9861 -0.30943 0.3233 -1.2731 0.05705 1.0113 -0.71817 -0.26102 -0.44271 -0.76832 0.59013
doctor 0.66999 0.11698 -0.46322 -0.90012 0.5656 0.4898 -0.26031 0.71268 0.62338 0.02785 0.68012 0.76745 -0.020365 0.52097 0.80622 -0.20537 -0.88263 0.25707 -0.18035 0.80969 -0.24148 1.1617 0.30834 0.65495 0.32863 -2.2849 -0.69219 -0.71241 -0.50242 -0.076541 1.8624 -0.20323 -0.64749 -0.51617 0.50273 0.78918 0.62624 0.37496 1.2855 -0.20581 0.4103 0.71996 -0.16293 0.29106 0.47188 -0.15121 0.36688 -0.089993 0.37778 0.59818
investor 0.2017 0.36074 0.77194 0.18145 0.86275 -0.35547 -0.78366 0.18926 -0.070051 1.0516 0.084674 0.76003 -0.27994 0.018184 -0.39815 0.57041 -0.13475 -0.55404 0.049089 -0.24203 1.116 -0.20153 -0.93907 -0.4863 -0.32123 -1.3924 -0.053572 -0.32598 -0.21064 1.4595 2.1522 0.25126 1.211 -0.31185 -0.65262 -1.3204 -1.6177 -0.482 0.80057 -1.0627 -0.030303 -0.16268 -0.45921 0.38795 0.50162 0.049023 -0.57654 0.73722 0.30448 0.41088
quarrel 0.54577 0.0044546 -0.98937 0.086535 0.058029 0.73587 0.47646 1.1311 -0.85584 -0.25936 -0.5464 0.35524 -0.68792 -0.24089 0.64812 0.13665 -0.16012 0.013375 0.41338 0.012847 0.14282 0.20688 0.16103 0.54891 0.44817 -0.83438 -0.047519 0.028681 0.87719 0.57713 0.34046 0.2057 -0.29376 0.26815 -0.38862 0.013105 -0.97633 -0.55485 -0.15131 0.47567 -0.29245 -0.011346 -0.58619 0.89738 0.47915 -0.13463 0.058647 0.11895 -0.36089 -0.57363
chord 0.13571 -0.091028 -0.10321 -0.36707 0.2028 1.446 1.174 0.4656 -0.80716 0.80248 -0.10756 -0.31011 -0.32943 0.86992 -1.5335 -0.70099 -0.68351 -1.093 0.18729 -0.33919 -1.2767 -1.0122 -0.28907 0.97436 0.96889 0.19689 -0.62265 0.093447 0.46306 -0.20584 2.2427 -0.104 1.4332 0.54604 0.078172 -0.69112 0.69383 -0.60747 -0.48442 0.97666 0.16527 -0.086276 -1.2616 0.31052 0.022266 0.94871 1.1302 -0.034793 -0.56216 0.53461
accommodation 1.0403 1.2416 -0.43259 -1.0336 0.13573 -0.31334 -0.25147 -0.094451 0.18959 -0.3451 -0.21155 -0.20579 0.88645 0.057204 0.0052879 0.56327 0.44763 0.56607 0.72179 -0.50644 0.9746 0.73577 -1.282 0.72585 -0.261 0.45978 0.72596 -0.047801 0.53099 1.2792 2.2851 0.79514 -0.024267 -0.15412 0.96307 0.99668 1.046 0.048342 -0.41937 0.18605 0.081918 -0.56705 0.38563 1.1624 -0.49797 -0.56637 -0.5763 0.29042 0.47593 0.33978
luxury 1.2959 0.87184 -0.098126 0.0027588 0.12086 -0.47918 -0.976 -1.0784 -0.11085 0.50713 -0.19683 -0.1447 -0.55755 -0.10272 0.60253 0.58354 -0.19213 0.96847 0.0585 -1.2962 0.70234 0.15252 -2.0158 0.36628 -1.2781 -0.64594 -1.2138 0.69561 0.90975 0.60555 1.7001 1.0374 0.46409 0.9917 1.2459 0.0041218 -0.048103 0.33038 -0.90389 -0.22333 0.0085951 0.13489 1.3271 0.18654 -0.059198 0.21711 -1.088 -0.34809 0.73041 -0.036936
cock 0.52942 -0.43478 -0.84469 -0.38883 -0.3405 0.03087 0.66342 -0.018484 0.33308 -0.45672 -0.11494 0.445 -0.71493 0.10129 0.20242 7.3771E-4 1.0205 0.074205 -1.249 -0.55233 -0.47969 -0.53007 0.44239 0.69163 -0.32759 -0.19405 -0.75574 0.15985 0.0032022 -0.077109 -0.17262 -0.085275 -0.57191 1.0826 -0.49938 -0.18605 0.22885 -0.80923 0.36078 0.025875 0.47908 0.21277 -0.78384 0.43342 1.2505 -0.74356 0.74152 -1.4124 0.032955 0.26546
defeating -1.0474 0.13559 0.31668 1.0091 -0.096013 0.62657 0.22683 0.94068 -0.87427 -0.2218 -0.033917 -0.54762 -1.0109 -0.11872 -0.39482 -0.49224 0.78315 -0.47299 -0.878 0.52319 -0.94296 -0.71562 0.2725 0.28228 -0.26547 -1.2477 0.29452 -1.0236 -0.46216 -0.017258 1.2637 0.50998 -0.3563 -0.60214 -0.11409 -0.31923 -0.24514 0.85075 -0.6777 -1.3243 -0.094555 -0.20099 -0.20802 -0.89157 0.084385 0.76512 -0.55731 -1.2829 0.39472 0.0025802
territory 0.11376 -0.801 -0.18159 0.21533 0.33354 -0.22771 -0.45502 0.73198 -0.17043 -1.1073 0.44749 -0.724 0.6565 -0.56352 -0.55706 0.70747 0.73142 -0.50643 -0.53794 1.0294 -0.23586 -0.30664 -0.27282 0.079365 -0.18634 -1.6706 0.0063468 -0.095112 0.8841 0.091131 2.9689 -0.62417 -0.49447 -0.074398 -0.12487 -0.10623 -0.93759 -0.51798 -1.1087 0.31936 -0.42845 0.22525 0.80194 -0.32015 -1.5689 -0.30804 -0.59177 -0.10979 -0.41343 -0.9668
reason 0.24184 0.017354 0.046838 -0.27637 0.49355 0.053691 -0.26647 0.46932 -0.29699 0.41348 0.085661 0.42094 -0.342 -0.5661 0.79839 0.61039 0.23975 -0.3998 -0.058401 -0.68166 -0.25287 -0.012801 0.022094 -0.040441 0.61007 -1.8606 -0.69426 -0.039529 0.81149 -0.024657 2.7058 0.20273 -0.22602 -0.8259 -0.11078 -0.76153 0.016077 -0.21935 0.026563 -0.23902 -0.34328 -0.047535 -0.13935 0.69146 0.12151 -0.05794 -0.24743 0.68883 0.092974 0.4912
nation -0.35684 -0.13894 0.1955 0.34299 0.3854 -0.15348 -0.48022 -0.067447 0.72109 -0.1691 0.0097223 -0.45476 0.29867 0.3858 0.16316 0.1193 0.12822 0.34626 0.32668 0.44001 -0.22852 0.021776 -0.38878 -0.10804 0.18182 -2.122 -0.6601 -0.42465 0.04081 0.56311 3.2984 0.74147 -0.058999 -0.14977 -0.64453 -0.2781 -0.99291 -0.47204 -0.39341 -0.5324 -1.444 0.023356 0.50638 -0.12511 -0.51889 1.2499 -0.9897 0.24225 -0.38662 -0.57629
concert 0.13489 1.3115 -1.0581 0.12937 -0.60271 -0.34859 -0.85339 0.61342 -0.12897 1.442 -0.10801 -0.70573 0.045734 0.75251 0.95908 -0.36426 0.11002 0.25244 -0.76102 -0.46109 1.5494 0.45554 -0.50269 0.35611 -0.27988 0.10068 -0.91916 -0.22123 -0.77984 -0.75482 2.5244 0.45717 0.13933 -0.11636 -0.38137 0.05956 1.6441 -0.27267 -0.57778 -0.11634 -0.11351 -0.19225 -1.2978 -0.92454 0.32631 0.28159 -0.57448 -0.96763 -1.5136 0.5725
discipline -1.0536 -0.093467 -1.3263 -0.90176 0.40577 -0.36807 1.2407 -0.27174 0.46372 -0.49527 0.45963 0.34424 -1.2083 -0.39183 -0.2362 -0.34344 0.051478 0.15812 0.52255 -0.89324 -0.46403 0.28257 -0.60419 -0.6701 0.0070789 -1.2907 -0.52717 -0.54666 -0.26839 0.53838 2.3889 1.0527 -0.28821 -0.72569 -0.26913 0.47772 0.22345 0.65656 0.0025557 0.061692 -0.40579 -0.95609 0.24371 1.3302 0.041494 -0.18692 0.42181 0.62213 0.31558 -0.086638
fighting 0.65951 -1.0182 0.30227 -0.29145 -0.12109 -0.0027095 0.43368 0.29875 -0.023725 -0.65935 -0.27542 -1.0712 -1.1848 -0.77099 0.076184 -0.19794 0.39889 0.21147 -0.58409 0.4362 -0.90213 0.63662 0.62656 -0.092278 -0.44475 -1.5751 -0.079459 -0.50726 0.88098 0.70386 3.2172 0.48876 -0.96824 -0.058092 -0.48287 0.65347 -0.87451 -0.88172 -0.59077 0.022631 -0.58747 0.084746 -0.052803 -0.34747 0.70104 -0.18247 0.0040658 -0.10292 -1.0144 -0.56573
bank 0.66488 -0.11391 0.67844 0.17951 0.6828 -0.47787 -0.30761 0.17489 -0.70512 -0.55022 0.1514 0.10214 -0.45063 -0.33069 0.056133 1.2271 0.55607 -0.68297 0.037364 0.70266 1.9093 -0.61483 -0.83329 -0.3023 -1.1118 -1.55 0.2604 0.22957 -1.0375 -0.31789 3.5091 -0.25871 1.0151 0.65927 -0.18231 -0.75859 -0.30927 -0.91678 1.0633 -0.66761 -0.37464 -0.29143 0.65606 -0.44642 -0.075495 -1.0552 -0.60501 0.73582 1.0139 -0.27749
constellation 2.2161 1.0876 0.71919 0.95975 0.29841 0.3822 -0.15808 -0.53759 0.085404 0.53526 1.1496 0.59724 0.42337 0.74414 -0.55042 0.75814 -0.80777 1.2095 -1.4596 0.39381 -1.0175 -0.69476 -0.12475 -0.089005 -0.61941 -0.39407 -1.1622 0.73667 -0.71049 -0.63356 -0.055026 0.39299 -0.24402 -0.57506 1.0212 -0.66606 -1.0783 -0.80061 0.021477 -0.83216 -0.5139 -0.14574 0.12429 -0.77273 -0.95734 0.40824 0.97109 0.58746 -0.30953 -0.2233
championship -1.6398 0.67066 -0.52054 1.8938 -0.62694 -0.24374 -0.6693 0.72426 -0.57842 -0.73022 0.47189 -0.55049 -2.1217 -0.20928 0.97964 -0.10349 0.67957 0.54492 -2.1914 -0.59415 -0.61477 -0.58172 0.28259 0.53686 -0.77456 -1.0507 -0.6455 -0.5435 -0.65596 -0.4155 2.1558 0.9926 -0.72329 0.062054 0.75527 -0.17231 0.15207 0.78698 -0.52967 -1.6436 -0.70235 -1.3254 -0.26715 -0.064496 -0.5358 0.5662 0.34684 -0.42908 0.075721 -0.59188
exhibit 0.76103 1.3113 -0.79862 0.049787 0.49829 -0.16353 -0.51959 -1.3141 0.48915 0.43801 0.022835 -0.35255 0.69574 0.23063 0.72515 -0.030688 0.071223 -0.25888 -0.77255 -0.28652 0.49167 -0.15371 -0.68867 -0.43952 0.073409 -0.20953 -1.0784 0.15732 0.0948 -0.60602 1.6333 -0.081052 0.055254 -1.6362 -0.49461 0.36727 0.48907 0.32821 -0.56684 0.1588 -0.21272 -0.30464 0.34469 0.010562 0.68698 0.18857 0.32984 -0.64624 -0.48591 0.15108
proton 1.3538 0.45739 1.7245 1.1506 0.28336 0.1183 0.77116 -0.52147 0.077814 1.3509 1.79 0.15357 -1.1799 0.76619 -0.46428 1.2494 -0.25908 1.6357 -0.67237 -0.18355 0.32808 -0.51696 -0.32574 -0.40726 -0.32659 -0.17833 0.53983 0.073299 -0.48303 0.95459 0.73043 0.60707 -0.14065 0.68626 0.15897 -0.33126 0.24806 0.21801 -0.026579 0.40857 0.34838 -0.54025 -0.95278 0.0073359 1.0352 -0.82223 -0.0398 0.38664 0.26652 -0.57474
alcohol -0.55204 -0.27756 -0.77571 -0.7338 -0.31033 1.3552 0.094901 -0.50057 1.3001 1.6229 0.9734 -0.34555 0.56112 -0.75714 1.1654 0.291 -0.71868 0.3652 -0.097133 -0.88939 0.76108 0.41079 1.0503 0.89865 -0.89094 -1.4978 0.63349 0.21739 1.2996 0.60376 2.0146 0.5042 -0.41384 -0.75703 0.61193 -0.095683 -0.16715 0.0073518 1.0113 0.96521 -0.011456 0.41148 0.3263 1.1399 0.67236 -0.38587 -0.37075 0.14582 0.74933 -0.051442
forecast 0.11307 -0.35285 1.308 -0.039824 -0.27502 -0.71815 -0.76808 -0.84654 0.28802 -0.19307 0.59605 -0.90354 0.36327 -0.37202 0.595 0.8605 -0.81606 -0.73089 -0.7179 -0.54194 0.039028 -0.92535 0.4784 -1.4315 0.64827 0.0097213 -0.71313 0.90105 -0.66801 1.1532 2.8859 0.47314 1.1338 0.5116 -0.27443 -1.5258 -0.074118 0.36073 0.79455 -0.93504 -0.89923 -0.0031195 0.19619 -1.164 -0.27595 0.061646 0.46222 1.4542 0.33561 0.86404
hike -0.16133 0.37694 0.46248 -0.8835 -0.58508 -0.36196 -0.39308 0.091515 0.33644 0.35255 -0.58123 -0.62005 0.81677 -0.64201 0.8507 0.77021 0.56331 -0.52816 -0.43753 -0.97832 0.88152 -1.3097 -0.52241 -0.0392 0.44266 -0.91005 0.54772 0.6669 0.38914 1.1726 2.041 0.46067 -0.39698 1.2508 0.55706 -1.1764 0.053578 -0.57361 0.17407 -0.18918 -1.1134 0.28782 -0.32463 0.030175 0.067139 -0.97493 0.73841 0.73514 0.90698 0.0013362
tiger 0.33183 -0.60256 -0.046032 0.89941 0.26504 -0.02695 -0.89378 -0.21996 0.28162 -0.7974 -0.15519 -0.15385 -0.4443 -0.060597 0.17669 0.49661 1.0924 0.6526 -1.4514 0.5046 -1.4857 0.60573 0.51944 -0.39546 0.2653 -1.0493 -0.79394 -0.0085854 -0.2987 -0.41866 2.0018 -0.078285 -0.72413 1.3828 0.5019 0.35222 -0.37933 -0.81655 -0.59159 -1.0502 -0.55532 -0.46533 -0.3038 0.11061 1.3216 -0.34734 0.039552 0.046421 -0.086983 -0.45584
flood 0.44151 0.086268 0.7134 -0.47397 -1.7659 -0.48988 -0.48963 0.34344 0.99861 -0.59851 -0.575 0.16957 1.044 -0.80428 0.25477 0.11023 0.23188 -0.21061 -0.29266 0.22441 0.1884 -0.56106 0.022271 -1.1071 0.93375 -0.69927 -0.073444 0.080797 0.35309 0.23025 2.6999 0.0022699 0.6083 -0.64175 -0.59609 1.281 0.18988 -1.0485 0.9078 0.014581 -0.98529 0.44659 0.35993 -0.59438 -0.12604 0.34139 -0.21113 -0.21171 0.16101 -0.72471
eye 0.58481 0.6718 0.094112 -0.35 0.0062013 0.082544 0.21654 -0.21287 0.81582 0.30552 0.29478 0.38831 -0.095046 1.1678 -0.71374 0.78069 -0.39616 -0.71301 -0.35966 0.083376 -0.72936 0.68138 0.73529 -0.3673 -0.2245 -1.6707 -1.162 0.92514 -0.023536 -0.34776 2.4232 0.67698 0.58355 -0.40325 -0.3342 0.4124 0.1774 0.24396 0.63433 -0.68464 0.023153 1.006 -0.068346 0.52367 0.61541 -0.35235 0.49638 -0.53127 0.18813 0.12404
deposit -0.10042 0.85335 1.0553 -0.075524 0.32111 -0.054008 -0.14894 0.50018 1.0467 0.21523 0.28849 0.43965 1.6852 -0.066131 0.248 1.1287 0.4447 -0.35577 0.23194 -0.22941 1.2546 -0.94265 0.28543 -0.81186 -0.96177 -0.6828 -0.074376 0.44191 0.059576 -0.22508 1.9038 -0.74969 0.17273 0.60873 0.58679 -0.11308 0.16663 -0.21229 1.1868 -1.1683 0.16645 -0.59866 0.72181 0.87078 -0.93332 -1.3857 -0.19226 0.65278 0.45686 -0.67817
animal 0.49652 -0.65143 -1.0869 -0.10205 0.81724 0.923 -0.56206 -1.3801 1.8115 0.068438 0.63906 0.24468 1.0308 0.10202 0.48498 -0.08387 0.61688 0.35812 -0.75196 -0.3548 -0.14173 0.042311 0.42242 -0.21013 0.28935 -1.1214 -0.5278 -0.046298 0.064643 -0.43924 2.4004 -0.29715 -0.19765 -0.88725 -0.62955 0.64092 0.14741 -0.0089431 0.39569 0.060899 -0.33917 -0.15897 0.22115 0.83813 1.6032 -0.010252 -0.36843 -0.32005 0.4658 -0.10813
ministry 0.15408 -0.17452 -0.1502 0.099785 0.7714 -0.67136 -0.19345 -0.20399 -0.096172 -1.3828 0.87235 -0.073604 0.13992 -0.050779 0.6213 -0.045413 -0.46837 -0.13886 0.47657 0.5876 0.61762 0.073136 -0.089718 -0.63272 0.2298 -1.517 0.48228 -0.28622 -0.93866 0.59626 3.3196 -0.41005 -0.338 -0.20661 -0.47862 0.48714 0.73085 -0.096019 0.16346 1.3667 -0.029428 0.27314 0.77682 -0.99769 0.8935 -0.61892 -1.243 1.7543 0.7228 -0.14258
cup -0.79369 0.9335 -1.0079 1.5016 -0.062723 0.046939 -0.50436 0.78024 -0.16348 -0.70975 0.35398 0.10296 -1.4806 -0.23233 1.6119 0.077421 0.83382 0.33618 -2.0191 -0.81478 -0.33773 -0.62924 1.2924 0.50378 -0.60183 -0.92155 0.001735 0.44196 -0.2563 0.22931 2.4195 1.4082 -0.73974 1.2117 0.18825 0.32892 -0.049844 1.7873 -0.15832 -1.817 0.52693 -0.61315 -0.088176 -0.70393 0.23619 1.8849 -0.058655 0.1829 0.2223 -1.1195
shower 0.50227 0.69243 -0.075642 -0.4666 -0.29824 -0.081958 0.44869 0.54855 0.063253 0.27064 -0.37977 -0.043958 0.60086 1.0226 0.59068 0.78641 -0.47306 0.49884 -0.64101 -1.3713 0.87105 0.6554 0.2969 -0.52546 -0.22387 -0.29673 -0.53628 1.0377 0.85704 0.10497 1.151 0.86443 -0.70504 0.26573 -0.34493 1.0134 0.94446 0.082992 0.99239 -0.20711 0.025686 0.53082 -0.82537 0.81703 0.53467 -0.32236 0.15078 -1.4897 0.05603 -0.12446
activity 0.52937 -0.28307 -0.261 0.097073 0.20905 -0.065966 0.053632 -0.3806 0.64946 0.74585 0.69589 -0.65328 0.17086 0.16368 -0.052837 0.40613 -0.060179 -0.34618 -0.61729 0.20136 0.82436 -0.55406 0.013927 0.01525 -0.51169 -0.74126 0.13539 -0.013669 1.0116 0.91089 3.2453 -0.055916 0.37984 -1.553 -0.42328 -0.23783 -0.51467 -0.55631 -0.30585 0.56 -0.90403 -0.50843 -0.51165 0.3047 0.73138 -1.2087 0.51148 0.37159 0.11049 0.47064
jewel 0.032695 0.64304 -0.53376 0.7949 0.84711 5.9128E-4 -0.024015 -0.33137 0.6712 0.55881 -0.019988 0.49533 -0.063773 0.13751 0.49973 0.013293 0.077961 0.1701 -0.19429 -0.16062 0.16142 -0.32666 -0.7209 -0.11325 -0.69499 -0.75075 -1.536 0.43767 0.48547 -0.59536 0.40295 -0.58912 0.42688 0.57943 0.60997 0.4893 -0.19083 -0.20996 -0.47966 -0.55034 0.11345 0.39443 0.02144 -0.21686 -0.12139 -0.16351 -0.19465 -0.9898 0.11037 -0.80006
association -1.4406 0.58249 -1.2903 0.64414 -0.38313 -0.4135 -1.2314 -0.34478 0.76907 -0.92177 1.0592 0.35802 0.3303 0.11928 0.075642 -0.26642 0.026377 0.64826 -0.19121 -0.48528 0.18678 -0.15363 -0.41788 0.33233 -0.87561 -1.4564 -0.43698 -1.0328 -1.728 0.06726 2.888 0.21731 -0.36207 -0.52641 -0.45183 -0.30496 0.034511 -0.49968 0.66999 0.18588 -0.45591 -0.30164 0.16987 0.6089 0.55034 0.046437 -0.99937 0.61423 -0.18125 0.11436
industry -0.52915 -0.67793 0.015123 0.97008 -0.37311 -0.0070348 -1.0761 -0.90088 0.77681 0.40085 0.38089 0.28874 -0.060781 0.50261 0.35329 0.33612 0.30798 0.59823 0.54213 -0.97372 1.5111 -0.41307 -0.76211 -0.37469 0.02518 -1.4714 -0.83896 -0.35724 -0.026749 0.72309 3.521 -0.18569 0.67068 -0.052258 -0.66455 -0.29726 -0.97687 0.49211 0.53109 -0.087831 -0.85146 0.16847 0.30176 -0.017128 0.69863 0.23545 -0.89876 0.53365 0.20891 0.2713
aluminum -0.48452 0.30402 0.92983 0.95796 0.075346 1.284 0.22291 -0.66643 0.08324 0.018538 0.60036 -0.13105 0.084068 1.4552 -0.68906 1.0646 0.25009 1.2108 0.053917 -2.2071 1.2737 -0.58721 0.18046 -1.196 -0.50204 -0.10316 -0.3025 1.5482 0.12358 -0.039753 1.6548 -0.66234 0.61476 1.3183 0.25826 -0.13905 0.60516 1.3421 0.58325 -0.29996 0.13395 -0.14204 0.42527 -0.36032 0.48347 0.41274 -0.72564 -0.16908 -0.11409 -0.71197
sun -0.37233 1.668 0.65616 1.2843 -0.070946 -1.6153 -0.28654 -0.67317 -0.49887 0.10531 0.18092 0.40495 0.52388 0.2854 -0.25076 0.75149 -1.2153 0.053438 -1.0649 0.037125 -0.22833 0.30398 1.2688 -0.85494 0.4933 -0.92463 -0.1465 0.53333 0.20661 -0.05457 2.6193 -0.11424 -0.30039 -0.0018384 -0.7764 -0.58229 -0.41817 -0.040371 0.41883 -0.23931 0.2125 -0.17315 -0.31351 0.3604 0.79981 -0.17144 0.19295 -1.6196 0.34135 -0.17726
automobile -0.41195 0.069058 0.26701 0.41424 -0.91901 0.63319 -0.89194 -0.53483 0.19187 -0.038827 1.1475 -0.1396 -0.66392 -0.19639 0.30304 -0.06703 -0.95611 1.6306 0.17545 -1.6013 1.2995 -1.0079 -1.7455 -5.8892E-4 -0.021532 -0.97641 -0.93735 0.040884 0.31757 0.55358 1.5822 0.14179 0.37018 0.39469 0.47537 -0.53013 -0.043661 0.42126 0.29403 0.80253 -0.61572 -0.76155 0.9184 -0.72823 0.59806 -0.16884 -0.59675 0.16543 0.89073 -0.060983
secretary -0.14508 0.14645 -0.76128 0.38553 0.74353 -0.85069 -0.36512 -0.23606 -0.45598 -2.2532 -0.36514 1.2269 -0.4517 0.080076 0.35906 0.057693 0.0224 -0.30034 0.77982 -0.042606 -0.070339 0.17696 0.52656 -1.0707 0.39665 -1.8003 0.94531 -0.062871 -1.6083 0.76949 2.3832 -0.34606 -1.0622 -0.48185 -0.40752 -0.61545 -0.011299 0.15103 -0.13221 0.52839 -0.85786 1.1558 -0.35048 -1.3524 0.22705 0.29751 -1.3352 0.56035 0.27708 1.1954
memorabilia -0.29758 1.188 0.068407 0.57701 0.20065 -0.70025 -1.4121 -0.56675 -0.036459 0.52305 -0.83159 0.52504 -0.12136 -0.18165 1.8148 -0.4 -0.22877 0.31739 -0.18685 -0.74259 1.3234 -0.27435 -0.97923 -0.34085 -0.9022 -0.70092 -1.4489 -0.0045235 0.75103 -0.74667 0.027481 -0.38234 0.3546 -0.37252 -0.014562 1.4221 -0.14489 -0.24655 -0.78017 0.061636 0.55056 0.44658 0.18938 0.87739 0.41804 -0.29485 -0.60767 -0.23653 -0.90556 -1.2054
dividend 0.34271 0.26827 0.17202 -0.47493 0.65922 0.52372 0.029944 -0.20045 0.18852 0.80484 -0.053518 0.25829 0.3033 -0.59511 0.78947 0.28509 -0.15967 -0.75945 0.07522 -0.93364 1.1209 -0.87923 0.49719 -0.67685 -1.2573 0.33749 0.085785 -0.10958 -0.27331 1.2027 2.1698 0.97094 -0.34847 1.8437 0.49232 -1.8368 -0.10894 -0.45619 0.70567 -1.4094 -0.47575 -0.62776 -0.69257 0.4616 -1.1814 -0.80528 -0.11084 1.1733 0.19271 1.009
currency -0.5355 -0.51534 0.56951 -0.41618 0.3257 -1.0463 0.5099 -0.59234 -1.0413 0.36789 0.80162 1.3618 -0.35555 0.2734 0.68041 1.1135 0.50123 -1.057 -0.21162 0.082112 1.3064 -1.3322 -0.43404 -0.65739 -0.42272 -1.1984 0.71863 0.079787 0.1342 1.1145 3.0026 0.0081552 1.4247 0.63772 -0.61295 -0.52455 -0.88126 -0.63554 -0.48973 -1.0512 -0.26917 0.37164 1.2791 -0.20187 -0.18134 -0.76286 0.17424 0.95592 0.53038 -0.5971
magician -0.067119 0.21963 -0.59047 -0.379 0.33766 -0.0058278 0.16271 0.42107 -0.49626 0.79678 0.20593 1.3027 -0.25514 1.145 0.30119 -0.43204 0.81199 0.6573 -1.2277 -0.027176 0.21657 0.64232 -0.43683 0.49142 0.34657 -0.77765 -1.0725 -0.98137 -0.20905 -0.073942 -0.017457 -0.23436 -0.2685 -0.15905 0.13257 1.1223 -0.064544 -0.091862 -0.0086534 -0.53866 0.82897 0.81305 -0.6849 0.74225 0.2093 -0.78913 0.5224 -1.0634 0.13882 0.10057
galaxy 1.5029 0.5227 0.63787 0.99453 0.50918 -0.45378 -0.89137 -0.555 -0.8661 0.40126 1.2167 0.32107 -0.38657 0.79207 0.2556 -0.010318 -0.054466 0.11471 -2.2415 0.18816 -1.4823 -1.113 -0.55721 0.38238 -0.39681 -0.15511 0.16558 0.70382 -0.20237 -0.94617 0.92399 0.52202 0.26067 -1.0533 -0.99349 -0.14151 -0.43546 -0.34553 0.25473 -0.54854 0.59428 -0.34128 -0.23532 0.20529 -0.74309 0.32473 1.007 0.18288 -0.29509 -0.36385
