418 50
plane -0.91129 0.53408 -0.28343 -0.49613 -1.1735 -0.36355 0.79017 -0.58652 1.0849 -0.42711 0.21432 -0.17919 -3.3738 0.39163 0.81602 0.47411 -0.65635 -0.076267 -0.57938 -0.60261 0.34472 -0.7539 0.20249 -0.55353 -0.5915 0.14109 -1.2333 -0.22141 -0.23468 0.16903 -0.60303 0.060854 0.45324 -0.3588 0.7478 0.6901 -0.054619 0.15389 0.18935 -0.84056 0.22153 0.089916 -0.21205 -0.18069 0.079713 0.88802 -0.10543 0.03733 0.34172 1.5506
stupid 1.2354 0.28312 -0.12851 0.38979 -0.2112 0.021065 1.3383 0.21904 0.063005 0.94872 0.1438 -0.1419 -4.6596 -0.96097 -0.039429 -0.51398 0.02232 -0.77788 -0.21474 0.37539 -0.40584 0.41824 0.23716 0.35442 -0.532 0.86638 -0.21613 0.18523 -0.78267 -0.39841 -0.78089 0.091929 0.49399 -0.36184 -0.48879 0.90744 -0.88368 -0.21912 0.333 -0.3306 -0.52248 0.30294 0.03835 -0.1859 0.10392 -0.33744 0.58619 0.60516 -0.58782 0.4555
egg 0.67817 -0.46871 -0.20226 -0.06248 0.91375 -0.53429 -0.4376 -0.19126 0.62876 -0.25806 -0.44936 0.12224 -3.1835 -0.38434 -0.27631 0.21903 0.97948 -0.8544 0.56663 -0.56176 -0.53936 0.3689 0.33958 -0.60139 0.20565 0.85179 -0.70001 -0.52113 0.63963 0.092747 -0.10655 1.3772 -0.54849 -1.0099 -0.29438 -0.17945 0.10937 -0.8119 0.28937 0.72728 -0.55392 -0.84353 -0.27039 -0.47352 1.3806 0.85001 0.84372 -0.20826 0.43928 0.57911
year 0.40723 0.27239 0.60839 -0.222 0.17088 0.010667 1.4123 0.67459 -0.34174 -0.068498 -0.058256 -0.27997 -4.6691 1.2879 0.2923 0.35922 -0.3712 -0.091704 -0.95435 0.54431 -0.11485 0.22863 0.090137 -0.10496 -0.03745 0.97474 0.0059544 -1.2685 0.66712 -8.0889E-4 0.15337 -0.23813 0.061718 0.27103 0.7511 0.080819 0.1885 0.48589 0.034245 0.029256 -1.1776 -0.41041 0.37403 0.42121 0.21676 -0.50323 -0.37479 -0.54541 -0.6002 0.77438
psychiatry 0.23598 0.57078 -0.63667 -0.30025 -0.0077721 0.10422 -0.19363 -0.74407 -0.43406 -1.1539 -0.12835 -0.099761 -0.50413 0.034342 1.0715 -1.0993 0.19891 0.77752 0.19717 -0.080998 0.28184 0.51197 -0.089119 -0.15646 -0.056081 1.1219 0.70808 0.63346 0.1326 0.48601 0.44441 -1.5003 0.22421 -0.48175 -0.84175 -0.26791 0.042883 1.0819 0.47389 -1.0508 0.54261 0.51915 -0.67235 -0.062545 -0.29775 0.22264 -0.096451 0.647 -0.86386 -0.51583
asylum -0.67262 0.71224 -0.76348 0.028392 -0.33225 -0.47483 0.91389 -0.41081 0.51162 -0.97105 1.3167 -1.0015 -2.1599 0.38865 1.4869 -0.93156 -0.48947 0.71504 -0.52253 0.21766 -0.081509 -0.053422 -0.60498 -0.5493 0.68516 0.66349 0.22722 0.86701 -0.051066 -0.15751 -0.10532 -0.99343 0.81115 -0.019691 -0.16579 0.014499 -0.18867 -0.33882 -0.62031 -1.4654 0.54961 -0.21771 0.75352 0.12907 0.66057 0.63044 -0.23554 -0.1536 0.26348 0.034265
manslaughter -1.2963 0.96278 0.57189 -0.15369 -1.0057 -0.42661 0.4671 -0.91427 0.047632 -0.92108 0.92285 -1.037 -0.66657 -0.32621 1.4439 0.14456 0.48762 -0.29886 0.11981 -0.96614 -0.17535 0.48224 1.9782 -0.49158 0.43888 1.7579 0.4573 0.11339 -0.66783 0.96001 0.29622 -0.60554 -1.3907 -0.13975 -0.97308 -0.79262 -0.85076 1.1169 -0.10356 -1.4132 1.6662 -0.79795 0.32612 -0.56278 0.64576 -0.18423 -0.15541 0.30321 0.57177 -0.09338
music -0.66323 0.22054 0.076961 -0.044252 0.88984 0.6728 2.1077 0.15218 -0.18712 -0.61597 -0.64485 -0.073527 -4.0652 -0.24658 -0.24502 -0.91833 -0.2442 0.48974 -0.36378 0.25031 -0.42047 -0.11797 0.092329 0.23531 0.50165 -0.28178 0.15568 0.26455 0.13044 -0.13574 -0.83251 -0.5618 -1.335 0.69814 1.3851 -0.3004 0.47784 -0.87581 0.46604 -0.070081 -1.1767 0.55704 -0.47211 -0.057645 -0.74233 0.56722 0.33376 -0.17082 -0.83181 -0.098519
record 0.34366 0.31615 0.90463 -0.32311 0.74053 0.24193 0.9049 -0.09701 0.19717 -0.6427 0.69631 -0.23065 -3.214 0.66696 0.50193 0.1559 -0.22749 0.87023 -0.23517 -0.59233 0.086301 0.24006 0.84492 -0.40808 -0.43777 -0.31454 0.32969 -0.32781 -0.57289 0.58769 0.36646 -0.38053 -0.37492 -0.041423 1.1627 0.51292 0.40205 -0.80476 -0.84388 0.075157 -1.0353 -0.13012 -0.49451 -0.1641 0.083757 -0.71213 -0.45679 -0.024704 -0.018991 0.40789
energy 0.0064806 -0.10048 -0.46965 -0.13086 -0.066638 1.697 -0.050173 -1.5384 0.023362 -0.95551 -0.40689 -0.087868 -3.7222 0.46295 0.82817 -0.08173 0.092862 0.71793 0.5405 -0.059435 -1.0802 -0.24958 0.21801 1.2308 -0.44655 0.47837 0.12549 0.63446 -0.031967 -0.17144 0.065363 -0.6335 -0.66898 0.55351 1.3472 -0.23814 -0.18559 0.85702 0.42083 0.39777 -0.29892 0.34658 -0.14249 -0.43767 0.17643 -0.085171 -0.40256 0.72014 -0.30229 0.74133
announcement 0.20123 0.8886 -0.041178 0.2604 0.6611 -0.49069 1.5536 0.28805 1.0144 -0.96935 0.7017 -1.108 -2.5794 0.39146 -0.04424 0.76569 -0.25566 0.69277 -0.45092 0.11348 -0.44645 -0.2849 0.11302 -0.13939 -0.45863 0.8477 0.60512 -0.46645 -0.30043 0.3283 0.020523 -0.42669 -0.28664 -0.30119 1.0127 0.1843 -0.29519 -0.3103 0.31867 0.37656 -0.076908 -0.12933 0.84439 1.0553 -0.12135 0.054691 -0.28008 -1.0845 -0.8595 0.38984
mile -0.91885 -0.39698 0.38657 -1.6883 0.63129 0.15626 -0.044265 -0.19581 -0.68038 -0.41814 0.14235 -0.22745 -3.1154 0.24914 -0.054616 0.005272 0.02013 -0.13227 -0.43946 0.82871 0.76339 0.37937 0.30326 0.12811 -0.6572 -0.63089 -0.66617 0.057894 -0.24485 0.96603 0.64934 0.037914 1.1365 0.36682 0.44013 0.78656 0.24953 0.17504 0.61307 -0.24512 -0.59218 0.69402 0.0020574 -0.21614 0.11549 0.15911 0.00413 0.13771 0.77157 0.73803
airport -0.37679 0.76441 0.4089 -0.95546 -1.2566 -1.3301 0.45761 -0.54874 0.25832 -1.0012 -0.04006 -0.40452 -2.5093 -0.020484 1.4614 -0.52811 0.044794 -0.77871 -0.86718 -1.256 1.014 -1.8054 0.031614 -0.53222 -0.26596 0.2668 -0.12864 -0.069202 0.68146 -0.25743 -0.7145 -0.83003 -0.36381 -0.90828 1.3278 -0.47174 -1.2124 0.45142 1.1627 0.017105 -1.0883 0.96241 0.050821 0.080635 0.13286 0.91784 0.40704 -1.4262 0.35258 0.87083
population 0.41835 -0.48384 -0.82227 0.28379 0.30517 0.48922 -0.65116 -0.20047 0.22139 -0.33055 -0.4718 -1.3835 -2.9908 1.1007 0.78871 0.33735 -3.9735E-4 0.11098 0.79479 -0.53542 1.0055 -0.84575 0.22024 -0.47079 -0.22406 1.0928 -0.35149 -0.75637 -0.18983 1.0373 -0.23631 -0.62884 0.76494 -0.034813 0.51505 -0.40137 -0.3252 0.32314 -0.025284 -0.35513 0.010148 -1.1918 -1.446 -0.018043 -0.43202 -0.75903 0.57838 1.2658 -0.23726 0.43916
planning 0.25256 1.2653 -0.26965 -0.16929 0.35354 0.52868 0.95925 -0.66065 0.97166 -1.0429 -0.18425 0.48235 -3.1848 1.0289 -0.022997 0.28233 -0.17166 0.67474 -0.93512 -0.22888 0.18135 -0.30858 -1.4128 0.60623 -0.13798 0.87235 0.47309 -0.35379 -0.30562 -0.43149 0.20966 -0.31636 -0.034075 -0.46666 0.63652 -0.041656 -0.39778 0.52145 0.69827 -0.35399 -0.67716 0.35581 0.43021 0.034436 1.135 -0.26636 -0.67199 0.41972 -0.2806 -0.36365
canyon -0.45793 -1.0579 0.39183 -1.4456 0.053801 -0.070576 0.018835 -0.67533 0.37547 -0.29445 0.26966 0.49653 -1.9393 0.38344 1.1856 -0.32579 0.59792 0.67007 0.73441 0.1682 0.90575 -0.73037 -0.38586 -1.4434 0.092828 -0.044202 -0.76039 0.63839 0.80097 -0.34177 0.46118 -0.32171 1.1898 -0.71372 -0.24896 0.077394 0.21586 0.67605 1.1738 0.52101 0.15144 -0.42234 -0.28496 -0.085654 -0.16643 0.87913 0.087841 -0.033631 0.77375 1.0832
delay 0.31413 0.69991 -0.9732 -0.58447 -0.5051 0.29296 1.005 -0.040274 0.79298 -0.50362 0.74274 -1.06 -2.5651 -0.0012535 0.22716 0.26753 0.39094 0.14319 -0.44644 -0.23408 -0.57955 0.094165 -0.45838 -0.21694 0.20936 0.12177 0.22292 -0.06618 -0.12074 1.1263 0.033018 -0.038845 0.73653 -0.049117 0.89842 0.32284 -1.4129 0.33001 0.56935 0.48024 -0.39008 0.61936 0.41596 -0.51392 -0.10933 -0.38179 -1.2085 -0.23509 0.11947 0.93556
size -0.9653 -1.7237 0.36994 0.29748 0.73338 0.010865 -0.12881 -0.36566 0.20911 1.7545 -0.18524 0.072665 -2.9341 1.0059 -0.39462 -0.75484 0.35404 -1.1274 0.2853 0.25002 -0.45602 -0.60207 -0.15172 -0.10815 -0.74068 0.23911 -0.47114 -0.1109 0.4333 -0.05076 0.76958 0.64302 0.017909 -1.0861 1.4478 -0.32663 -0.094169 0.60751 -0.97532 -0.66187 -0.76124 -0.29821 0.02135 0.079534 1.4536 -1.1466 1.1847 -0.7152 0.41244 -0.38129
peace 0.097497 0.16301 -0.052396 0.72561 -0.087827 0.68216 0.37801 0.29105 -0.26093 0.071264 -0.096011 0.11789 -3.5325 -0.57347 0.067727 0.68476 -0.41271 0.3683 -0.32946 -0.22998 -0.63401 0.17811 -1.1814 0.57886 0.82836 0.25279 -0.093706 0.1647 1.1881 0.11215 0.2288 -0.21163 -0.44634 0.30234 0.81467 -0.32786 -0.12375 0.62549 0.30495 -0.59851 -0.27016 -0.93902 0.96426 -0.36973 -0.15466 0.77199 -0.081212 -0.26471 1.2088 0.099734
science 1.5093 0.40137 -0.10733 -0.082081 0.73968 0.85597 0.67148 -0.67926 0.28854 0.33439 -0.35104 -0.34358 -3.6681 0.86608 0.31008 -0.40665 0.21495 0.7191 -0.10353 0.37772 -0.71673 0.39955 0.13037 -0.0023163 -0.38226 0.10557 -0.019742 0.25813 0.59653 0.30516 0.53777 -1.2518 0.11212 -0.93645 -0.021966 -0.35574 -0.29666 0.72524 1.5206 -0.69373 0.0057278 -0.22885 -0.3238 0.27824 0.0858 0.19425 -0.35236 0.42804 -0.83925 -0.55406
dawn -1.1597 0.1529 0.58713 0.079432 -0.431 -0.54752 1.1287 0.62133 0.11096 -0.29347 0.66175 -0.56911 -2.6785 0.54547 -0.29672 -0.099888 0.33611 0.95418 0.055796 0.73036 -0.4852 0.15119 -0.8994 -0.10593 0.38642 0.21487 -0.55021 0.098921 -0.14715 0.26207 0.3441 -0.24918 -0.41728 0.018819 -0.68466 -0.21619 -0.1482 -0.47545 0.40542 -0.10312 -0.74448 -0.35575 0.34958 0.78281 -0.023138 0.65027 -0.55762 -0.58514 0.058921 0.59678
brother 0.059078 0.52843 0.036985 -0.11066 -0.67202 -0.030942 0.6713 0.98703 -0.2786 -0.56479 -0.61769 0.83433 -4.069 -0.37041 0.21128 0.3978 -0.4847 -0.46194 -0.65781 0.0019459 -0.42469 0.63556 -0.26905 -0.17275 -0.35147 0.090159 -0.19682 -0.60777 0.58693 -0.32418 -0.81334 -0.11811 -0.17655 -0.043929 -0.91878 1.0545 0.4408 0.14862 -0.59123 -0.11503 -0.93238 0.27874 0.018331 0.31668 -0.071918 -0.069418 0.48153 -0.28329 0.26309 -0.46853
wine -0.53959 -0.50978 0.21621 0.88047 0.49772 0.58049 0.53223 -0.86977 0.38351 0.087107 -0.78606 -0.33307 -3.1679 0.079792 0.52276 0.27807 0.63524 -0.11265 -0.017107 0.35088 -0.88643 -0.76264 0.04743 -0.32591 1.3879 0.82866 -0.18077 0.19117 0.35021 -0.87393 0.32718 0.47037 -1.1607 0.99061 0.34803 -0.17114 0.57486 0.82416 0.83107 1.1687 -0.6587 0.50719 -0.82811 0.30082 1.2119 0.24243 0.17112 0.069174 -0.57535 0.25019
object -0.13058 -0.037717 -0.54075 0.93463 0.54465 -0.29486 0.22675 -1.1197 -0.10519 0.36535 0.38318 0.40855 -2.1524 -0.50003 -0.0090369 -0.08059 0.67516 0.065468 0.76281 -1.1604 0.57226 0.23953 0.68434 0.013601 -0.040778 1.1689 -0.65001 -0.19567 0.38716 0.71748 0.82701 -0.47897 0.38011 -1.2292 1.3179 -0.035168 -0.60976 0.15512 1.0025 -0.91736 0.25911 0.2989 0.52953 -0.63227 -0.24939 0.93776 0.50338 0.89567 0.009239 0.15311
attitude 0.044974 -0.63365 -0.7837 1.0035 0.14488 1.4968 1.3314 -0.097308 -1.08 1.3548 -0.14509 0.31831 -3.0283 -0.17134 0.36669 0.48979 -0.17863 -0.049924 -0.34403 -0.40444 -0.58498 0.076844 0.13409 1.0421 -0.15153 0.99464 1.0702 0.28395 -0.93063 0.39332 -0.19424 -0.94942 -0.041181 -0.81762 -0.052858 1.3405 -0.46533 0.55884 0.477 0.4412 -0.015449 0.10208 0.44974 -0.35087 -0.48888 -0.42598 0.83897 0.56284 -0.18507 -0.057672
treatment -0.96245 -0.21674 -1.3245 -0.53052 0.50195 -0.22264 0.64834 -0.85355 -0.0012911 -0.268 0.3057 -0.97405 -2.5609 0.84858 0.96023 0.60736 0.46578 -0.60726 0.11609 -0.80028 -1.3721 0.50209 -0.47737 -0.044308 0.48581 1.5259 0.57924 1.3311 -0.019814 0.84893 -0.46765 -0.52987 -0.18066 -0.34821 0.33642 -0.21008 -0.46603 1.0641 -0.23714 -0.11901 -0.26188 -0.59375 0.22742 -0.20298 0.57559 -0.79319 0.11825 0.32607 -0.40359 -0.43683
flight -0.85923 0.9654 -0.4646 -0.47467 -0.82098 -0.063613 1.3426 -0.32614 0.6517 -0.61751 -0.082208 -0.038881 -3.0549 0.84612 0.98689 0.32027 -0.13476 0.054721 -1.1244 -0.2356 -0.6417 -0.72152 -0.22809 -0.51184 -0.41345 0.23405 -0.30313 -0.80093 0.55238 0.16697 -0.39827 -0.1245 0.52091 -0.14919 0.93052 0.26579 -0.24718 0.6289 0.50073 -0.04324 -0.46606 0.52205 0.37626 -0.20027 0.078594 0.6762 -0.56149 -0.50907 0.60358 1.3001
forest -0.18449 -0.93946 -0.16102 -0.7909 -0.3465 -0.10688 0.47919 -0.1222 0.063725 -0.53809 0.52327 0.3163 -3.1374 0.20529 0.61728 -0.71611 0.45721 0.77281 0.52997 -0.33508 0.37039 -0.81441 -0.10425 -1.0034 -0.13479 0.3488 -0.1261 0.1108 0.73144 0.079108 0.52162 0.017596 0.74782 -0.046244 -0.029345 0.020571 -0.04586 0.27658 0.70564 0.3 0.036798 -0.54358 -0.38585 0.23826 0.23233 1.5292 0.23003 0.16944 0.56614 0.76164
abuse 0.60233 0.76993 -0.89615 -0.15807 -0.21837 -0.009611 0.31435 -0.7212 0.18842 -0.20418 0.5714 -0.68694 -3.2285 -0.1543 0.57321 0.66187 -0.67019 -1.0092 0.033162 -0.23652 -0.18133 0.24384 0.40323 -0.10941 -0.17483 0.21203 0.53417 0.69763 -0.61553 0.53514 0.10736 -0.56608 -0.12903 0.035331 0.19674 -0.36697 -1.2568 0.085889 -0.59497 -2.2233 0.57036 -1.3173 0.25104 -0.24124 0.47565 0.17862 0.11298 0.36407 -0.027958 -0.74695
criterion -0.71118 -0.10892 -0.32856 0.64121 0.63545 0.023284 0.35877 -0.62888 -0.015364 -1.1645 0.64855 0.07905 -0.69686 0.70173 0.67416 -0.5806 1.3369 1.1309 0.28038 0.61797 0.26343 -0.51834 0.49275 -0.2842 -0.52625 1.1129 0.091787 -0.0054099 -0.080327 -0.3009 1.4691 -0.090196 -0.018592 -0.48325 -0.26229 -0.55092 0.062344 -0.55323 0.52076 -0.027191 0.32274 0.3875 0.20883 -0.61937 -0.13999 0.09474 -0.19665 -0.51148 0.10262 -0.43314
sea -1.1172 -0.48853 -0.13297 0.36808 0.955 0.22576 0.13819 0.92975 0.16838 -0.74778 0.31015 -0.89783 -2.3402 -0.10458 0.75523 0.056913 0.26292 0.0739 0.69241 -0.33583 0.079286 -0.19033 0.014647 0.1415 -0.57871 -2.6803 -0.029843 -0.45561 0.42234 -0.3929 -0.26988 -0.30794 0.86914 0.7793 0.33264 0.083073 -0.25674 0.49607 -0.74416 0.33673 -1.6516 -0.5808 0.99531 0.28586 1.0607 0.66711 0.84957 1.0907 -0.25443 0.18951
dollar -0.41053 -0.24719 -0.20655 0.23833 0.86256 -0.41238 -0.46323 -0.21386 0.75174 0.17099 0.18357 -0.005891 -2.8333 0.047024 0.25721 0.69755 -0.39297 0.33213 0.037117 -0.25424 -0.10943 -0.0096904 0.63413 -0.46191 -0.19091 0.75709 0.33578 -0.75425 -0.17025 -1.1043 -0.0096258 0.6137 -0.058046 0.86649 1.0406 0.56533 0.34263 0.63787 0.46857 -0.40663 -1.0132 -0.14633 -1.0872 -0.73477 0.5944 -1.2023 0.019407 0.071983 -0.18441 1.7449
example 0.51802 -0.19068 0.35229 0.44089 0.43597 0.12921 1.1828 -0.32615 -0.56428 0.17518 -0.3011 -0.26787 -3.1093 -0.30317 0.33825 0.18834 0.44332 0.30111 0.31886 0.15999 -0.51511 -0.13922 -0.20827 0.21042 -0.14086 1.0846 0.41132 0.055148 0.22438 0.12254 0.19732 -0.29763 -0.14016 -0.23515 0.62644 0.54781 -0.051646 0.058003 0.20821 -0.7318 0.3608 0.040452 0.53846 -0.20765 -0.4367 -0.39956 0.19086 0.599 -0.35947 -0.47135
journal 0.88874 -0.42029 -0.58978 -0.10077 1.1121 0.15116 0.4926 -0.84098 0.57486 -0.55086 -0.24102 -0.7839 -2.1984 0.10564 0.081026 -0.19625 0.39392 0.98737 -0.056485 0.047238 0.076933 -0.45795 -0.33331 -1.2742 -0.04604 -0.12786 0.14736 0.35752 -0.25833 0.5819 0.14392 -1.1841 -0.9412 -0.51954 0.68114 -0.17934 -0.12849 0.51282 1.6697 -0.65369 -0.2011 0.12379 -0.47422 1.0654 0.23872 0.2119 -0.30902 -0.56939 -0.49974 -0.4821
laundering -1.0224 1.1212 -0.27232 0.38227 0.2657 -0.061482 -0.87305 -0.73698 1.565 -1.2269 0.25606 -0.41275 -0.99288 -0.10598 1.2699 -0.85406 -0.52897 -0.33019 0.65858 -0.095494 -0.95232 -0.36019 0.73705 0.33695 0.042886 1.1794 0.21984 -0.061781 -0.67116 -0.57617 0.19059 -0.28571 -0.919 0.26071 -0.19298 -0.20227 -0.23258 1.2371 -0.42097 -1.7614 0.48779 -0.41581 -0.0062198 -0.66673 0.7574 -0.35893 -0.84049 0.34549 0.36777 0.68175
hotel -0.78662 0.35419 0.59204 -0.71802 0.14294 -0.7253 0.25532 -0.55765 0.52268 -0.68449 0.24203 0.043134 -2.7712 0.46119 0.77112 0.13155 0.37419 0.059853 -0.53914 -0.55403 0.36803 -1.8625 -1.1987 -1.1433 0.41211 -0.96091 -0.072723 -0.35251 0.34601 -1.3445 -0.030005 -0.47203 0.19879 -0.26562 0.19852 -0.45353 -0.0043826 0.2915 0.0513 0.249 -2.0065 1.0425 -0.70495 -0.24966 0.16371 0.96638 0.50961 -0.3419 0.19329 -0.14473
term 0.96418 -0.15091 -0.05067 0.54092 0.56786 -0.048942 0.78489 -0.61752 0.15201 0.18914 -0.31833 -1.0137 -3.0657 0.28932 0.47226 0.21701 0.10139 0.55267 -0.22288 -0.054246 -0.28651 0.58856 0.23069 -0.16295 0.19531 0.74274 0.49188 -0.76418 -0.2729 -0.19737 0.57399 -0.3002 0.19294 -0.72707 0.57429 0.34043 -0.64872 0.95359 0.58426 -0.87523 -0.35268 -0.23563 0.69137 -0.54637 0.65666 -0.64335 -0.19797 0.88931 -0.73804 0.20636
listing -0.55399 -0.13581 -0.66178 -0.23682 1.3466 -0.88705 0.90953 -0.70825 0.71473 -1.3486 -0.33511 0.29724 -1.9719 0.13464 0.085153 -0.087047 0.59526 0.73087 -0.27045 0.21098 0.31069 -1.0423 -0.41341 -0.93732 -0.98739 1.1279 0.37717 -0.026087 0.040432 -0.21436 -0.32616 0.37651 -0.46741 0.10339 0.65318 -0.49209 0.26321 0.84031 -0.0088024 -0.75973 -0.1602 0.96397 0.46752 -0.026066 0.017747 -0.38936 0.09027 0.087961 -0.60281 0.043291
chemistry 1.0939 -0.10293 0.74539 -0.062769 0.029878 0.25215 1.5591 -0.37909 -0.5752 0.32538 0.5476 -1.0085 -2.8759 0.65826 0.2478 -0.36013 0.21272 0.24621 -0.64845 1.4734 -0.59347 2.2646 0.71603 0.63468 0.0020111 0.64054 0.18337 0.88402 0.34779 0.96466 0.54115 -0.92827 -0.12042 -0.29313 -0.97357 -0.49523 0.39236 0.73684 0.72562 0.15995 -0.11569 -0.1167 -0.17102 -0.1877 0.11858 -0.61399 -0.81787 0.08187 -0.81417 -1.4195
seafood -0.27335 0.1973 -0.3871 -0.76958 1.0863 0.20712 -0.57827 -0.29197 0.56494 -0.21475 -0.70074 -0.60521 -1.6887 0.30262 1.159 0.1826 0.97713 -1.0543 0.45731 -0.42577 -0.037373 -0.39702 -0.54003 -0.141 0.098948 0.88694 0.043823 0.08274 0.46963 -1.7304 0.44362 -0.075064 -0.81222 0.10345 -0.84406 -0.59501 0.12885 -0.073835 1.4428 0.83322 -1.1638 -0.35134 -0.072144 -0.84429 0.83621 1.475 0.68252 -0.43763 0.023061 0.2071
mind -0.33288 0.0053929 -0.55987 0.45425 0.095318 0.75444 1.0396 -0.19368 -0.46857 0.71262 -0.20871 0.29746 -4.7976 -0.49665 -0.80571 -0.47935 0.51235 0.45451 -0.081548 -0.83375 0.062857 0.19812 -0.2979 1.193 -0.29986 0.62245 0.25932 0.0027076 0.048206 0.57968 -0.42592 0.064654 0.12525 0.28621 0.20268 0.35316 -0.08081 0.12578 0.49044 0.0063791 -0.18624 0.45509 0.594 0.079537 0.24281 0.20092 0.45365 0.41812 0.062687 0.12895
sex -0.18871 0.6448 -0.76914 0.15787 0.38251 0.61653 1.0153 -0.46997 -0.30155 0.63146 -0.97906 -0.14183 -3.7288 0.3489 -0.43924 0.090763 0.047948 -1.0897 -0.097088 -0.24466 0.30251 0.57662 0.37634 -0.22643 0.80827 0.43262 -0.037471 0.79765 -1.0895 -0.073118 -0.8028 -0.54101 -0.80206 -0.10673 0.07583 -0.68481 0.15916 -0.11669 -0.052979 -1.1688 -1.1026 -0.54566 -0.38199 0.62394 0.90959 -0.36395 0.72112 0.70346 -0.84676 0.016414
food 0.53388 0.21165 -0.48212 -0.40654 0.65392 0.25645 0.20976 -0.59299 0.62526 -0.23482 -0.75269 -0.83146 -4.4987 0.38783 0.23071 0.55148 0.39248 -1.1757 -0.054579 -0.24656 -0.78745 -0.49225 -0.099253 0.59801 0.37703 0.89307 -0.0065153 0.03938 0.72454 -1.3082 -0.51102 -0.2486 -1.1301 0.30733 -0.073573 -0.54794 0.15695 0.24145 0.49339 0.28274 -1.0343 0.069498 -0.84504 -0.72234 1.1333 0.6455 0.94636 0.18677 -0.6566 0.64749
precedent -0.019118 -0.12939 -0.078536 1.0616 0.22674 0.33994 0.36965 -1.2197 0.72824 -0.36288 0.53286 -0.51691 -1.1388 0.39782 0.23609 0.13109 0.4135 0.66514 0.17391 -0.023242 -0.20363 -0.16996 0.3735 -0.23518 -0.29865 0.58712 0.031276 -0.086545 -0.82111 0.51386 0.55546 0.43207 0.88854 -0.80296 0.61013 -0.03317 -0.014474 -0.24062 -0.2388 -0.71244 0.98243 -0.26465 0.94072 -0.062681 0.12799 0.1942 -0.89014 0.23639 0.60487 -0.32926
series -0.15959 -0.11105 0.32357 -0.092537 0.29096 0.69189 0.57005 0.25229 -0.18334 -0.95117 0.75884 0.062751 -3.6285 1.1769 0.50466 -0.46861 0.98252 0.38764 0.64295 1.3339 -0.8396 -0.092064 0.4828 -0.58386 -0.48165 -0.49348 -1.3316 -0.10962 -0.33676 -0.25007 0.73394 -0.44149 -0.064188 0.13449 0.64682 -0.31703 0.48938 -0.93548 0.013563 -0.16073 -1.0563 0.77151 0.62008 0.57921 0.51629 -0.21686 -0.43908 -0.62063 -0.019004 -0.41392
kilometer -0.093134 -0.69522 0.20958 -1.3964 0.14661 0.06566 -1.1013 -1.2863 -0.65318 0.25802 0.77483 0.68521 -0.6332 -0.45439 -0.21978 0.98181 -0.024103 0.77791 -0.43431 0.18254 0.13154 -0.24148 -0.59315 -0.8297 -0.3128 0.031842 -0.69888 -0.66491 -0.60601 0.36665 0.6373 0.34456 1.7903 0.11483 0.089851 -0.18658 -0.059059 -0.22117 0.44357 -0.34593 -0.99446 1.0925 -1.3414 -1.0285 -0.6096 0.18205 -0.49162 0.17196 0.25369 1.1925
grocery -0.25718 -0.36904 -0.39595 -0.59242 0.72663 -0.65721 0.4565 -0.36257 1.2 -0.89089 0.086787 0.39375 -2.501 0.32071 -4.706E-4 1.2757 0.064021 -0.83359 0.10357 0.3557 -0.05964 -0.86654 -0.16185 0.066708 -0.31677 0.9991 0.11416 -0.34006 0.12509 -1.1561 0.5895 -0.17287 -0.61637 -0.46644 -0.67333 0.068203 0.18783 0.69241 0.61795 -0.13805 -0.13341 1.6099 -0.95661 -1.0066 1.4447 0.33121 0.65864 0.3087 -0.735 1.1727
wizard -0.48764 -0.27098 -0.14615 0.27263 0.0072169 -0.22053 0.19835 0.29705 -0.083448 -0.51981 0.30452 0.97368 -2.2785 -0.053533 0.024782 -0.89951 -0.15118 0.70972 -0.24639 0.70142 -0.48483 0.35661 0.16682 -0.41986 0.29077 0.71231 0.010117 0.0054577 0.53961 -0.26532 0.68594 -0.43981 0.27962 -1.3718 -0.60986 0.33145 0.18934 -1.0688 -0.052017 -0.28897 -0.001953 0.21972 -0.24956 0.14756 -0.21069 0.63532 0.19984 -0.11624 -0.4021 -0.12773
information 0.76947 0.4691 -1.3009 -0.18328 1.1034 -0.059028 0.32242 -1.4969 0.187 -0.43599 -0.044717 -0.3825 -3.3021 -0.18973 0.018469 0.59158 0.58116 0.50833 0.27046 -0.65624 -0.64685 -0.4529 -0.20217 -0.24175 -0.89944 0.74025 0.6455 0.52732 0.55168 0.65419 -0.17807 -0.76802 -0.49994 -0.083439 1.4358 -0.45825 -0.32447 0.81567 0.33971 -1.0114 0.12211 0.35987 0.2684 0.089234 -0.33275 -0.011263 0.025598 -0.28207 -0.68118 -0.20507
brandy -1.245 -0.038191 0.48907 0.4289 -0.32265 -0.035016 0.57506 0.18801 -0.19441 -0.36262 -0.49929 0.093989 -1.9913 -0.44774 -0.24424 -0.48204 0.40777 0.32308 0.0084392 0.70561 -0.30659 -0.26925 -0.10125 -0.7556 0.59858 -0.08269 0.36161 0.38323 -0.324 -0.67386 -0.44503 0.95188 -0.94365 0.16808 -0.47294 0.36161 0.13671 0.089743 0.48079 0.72709 0.3674 -0.31686 -0.51715 -0.046465 -0.54126 -0.51469 0.44323 -0.21947 -0.27409 -0.013271
interview 0.41246 0.97323 0.69634 -0.58582 0.42758 -0.2948 1.0807 0.40803 -0.49472 -0.59015 -0.084684 -0.15182 -2.9288 0.23199 -0.11129 0.26874 0.30069 0.75142 -0.78915 -9.6206E-5 -0.76397 -0.26198 -0.57135 -0.62606 -0.028925 0.49512 0.83888 0.11947 -0.72285 -0.12095 -0.11765 -0.088011 -1.0404 -0.7367 0.81352 0.30033 0.37035 -0.26713 1.0206 -0.90392 -0.94255 0.12096 0.26502 1.1063 0.14086 0.0066698 -0.15952 -0.78432 -0.47625 -0.63256
prominence -0.18177 -0.32346 0.46258 0.40938 0.89752 0.35954 -0.68924 -1.1629 -0.066706 -1.4525 -0.2943 -0.43706 -0.30278 -0.066711 0.59947 0.051659 0.47306 0.1865 0.38336 -0.8738 0.30279 0.10351 0.64056 -0.34392 -0.30627 1.0143 0.2076 -0.062391 -0.47102 0.74518 0.77447 -0.4929 0.45838 -0.3024 0.25028 -0.97575 0.2648 0.037465 0.030295 0.02609 1.1233 -0.91436 -0.12397 -0.4795 -0.057148 0.28513 -0.28511 0.0013622 0.20021 0.46122
bed -0.2065 -0.36727 0.38399 -0.042979 -1.1358 0.29662 0.52534 -0.9654 -0.50066 0.0057629 0.011263 0.31591 -4.4433 -0.22661 -1.0314 0.18578 0.28326 -0.0060094 -1.861 -0.17377 -0.42595 -0.23867 -0.16694 0.80535 1.1511 0.62724 -0.73096 -0.5946 -0.83589 -0.15734 -0.6886 0.85496 -0.098337 -0.44975 -0.40863 -1.0954 0.41175 0.16363 0.57316 0.39949 -0.90596 1.126 0.0060017 0.017309 1.5276 0.13315 0.83153 0.71429 0.26046 0.56994
furnace -1.0174 -0.6141 -0.48685 -0.72647 -0.24184 0.41818 -0.32991 -1.1012 -0.057225 -0.8334 0.68685 -0.11412 -1.476 0.0042756 1.2823 -0.17875 0.83824 0.74272 0.35287 -0.12901 -1.7639 0.24235 0.29028 -0.92815 -0.050672 1.068 -0.52452 1.0435 -0.52071 0.73988 -0.63602 0.50985 0.58844 -0.060175 0.20168 0.024432 -0.11698 0.61817 0.49593 0.87425 0.91581 0.19373 -0.22191 -0.36438 0.033911 0.27821 -0.046361 0.38576 0.3445 -0.4333
evidence 0.44433 0.42148 0.40041 1.0422 0.40911 -0.28176 0.043236 -1.2245 0.62103 -0.057446 0.53781 -0.65805 -3.2775 0.37815 0.030464 0.18721 0.25515 0.84817 0.72857 -1.1133 -0.73237 0.22068 0.32879 -0.27702 -0.70327 0.90996 0.062064 0.51378 0.073757 0.73242 0.43174 -0.036587 -0.79005 -0.056263 0.22541 -0.1124 -0.79863 0.54085 -0.27032 -1.4485 1.0357 -0.74013 1.3413 -0.33996 -0.36694 0.38596 -0.10392 -0.20231 -0.38604 -0.54635
sprint 0.15084 0.49802 -0.53446 -0.60782 -0.28952 0.60558 -0.012715 -0.16633 1.1943 -0.40371 0.37494 0.53235 -2.4314 0.48346 0.71943 -0.12454 -0.18069 0.3385 -0.01314 0.9552 -0.34024 -0.27748 0.93603 -0.69698 -0.6895 0.20581 0.044973 -0.37555 -1.1135 0.017101 -0.20168 -0.53577 0.55507 -0.96355 0.84889 0.80747 0.18961 -0.31276 0.28835 0.56837 -0.23568 0.66193 -0.27778 -0.31597 0.77144 -0.71103 -0.37701 -0.067476 0.40984 0.96638
emergency -0.0043196 0.44463 -1.0513 -0.17248 -0.44417 -0.5575 1.1442 -0.60994 0.91127 -1.1185 0.20121 -0.53154 -2.662 -0.12806 1.3789 0.7958 -0.10162 0.3686 -0.13767 -0.82147 -1.0899 0.4428 -0.31551 -0.6146 0.30068 0.52161 0.2546 0.7103 0.20639 0.96678 -0.60302 -0.22881 0.18446 -0.30431 0.8136 -0.36304 -0.86591 1.2499 0.49122 -0.54072 -0.19441 0.4076 0.17462 -0.48455 0.58771 0.25477 0.15778 -0.043026 0.002877 0.67141
institution 0.41334 -0.014892 -0.14678 0.3535 0.64529 0.066688 0.16632 -0.44466 0.17486 -0.26418 -0.23 -0.38168 -1.4866 0.38158 1.4276 0.040486 0.24268 0.49693 -0.20814 -0.41598 0.65908 -0.4029 -0.22747 -0.27048 0.4382 1.1673 0.80024 -0.21858 0.15508 0.27129 0.69337 -0.51476 0.84841 -1.1401 0.25636 -0.33797 -0.10869 0.79585 0.43376 -1.1788 0.76046 -0.002968 -0.099821 -0.76166 -0.24453 0.36973 0.56594 0.52775 -0.04807 -0.53382
bird 0.38883 -0.73101 -0.61076 -0.44162 -0.27135 0.12289 0.64843 -0.11904 0.40228 0.45893 0.62761 0.60071 -3.3078 0.081084 -0.26942 -0.29482 -0.060562 -0.25541 0.37728 -0.22934 -0.35133 0.83482 -0.020409 -0.71318 -0.76151 -0.086747 -0.81947 -0.48241 -0.061792 0.22282 -0.052594 0.27982 -0.3128 -0.82621 0.0089418 0.65678 0.2376 -0.96148 -0.067192 -0.097826 -0.61068 -0.74765 -0.87172 0.082443 0.41503 0.6483 -0.27395 0.48675 0.18884 0.77528
warning 0.38976 0.3342 -0.52 -0.30949 -0.39577 -0.0113 1.19 -1.0065 0.39939 -0.17661 0.53172 -0.83421 -2.9198 -0.68613 0.45711 0.55942 -0.093235 0.1975 0.64579 -0.98699 -0.8463 -0.65811 0.28336 -0.99513 0.096683 0.44683 0.34051 0.46283 -0.1134 1.091 -0.49764 0.22588 0.062948 0.3019 0.38006 -0.23714 -1.3222 0.76202 0.65169 -0.28571 -0.35602 -0.85385 0.72198 0.078379 -0.25747 0.36051 -0.47369 -0.21858 -0.65935 1.0063
implement 0.15996 0.45216 -0.28724 0.0198 0.80887 0.44724 -0.39514 -0.49203 0.59175 -0.57689 -0.33143 -0.50245 -1.5369 0.14323 0.2639 -0.12237 -0.24651 0.054767 0.43733 0.028071 -0.052362 0.15232 -0.39952 0.34267 -0.81668 0.67225 0.9325 1.4128 0.4162 0.51171 1.0059 0.46431 0.41313 -0.77031 0.98476 0.019447 0.056027 0.49295 0.37785 -0.40351 1.3456 0.4099 0.74649 -0.68704 1.1781 -0.76533 -0.59447 0.71161 -0.5768 -0.069762
train -0.080639 -0.36407 -1.3531 -1.4696 -0.36608 -0.039205 0.53093 -0.26153 0.10514 -0.43962 -0.18465 -0.089164 -3.5508 -0.89346 -0.25897 1.2248 -0.70946 -0.60995 -1.2779 0.54011 0.96743 -0.60125 0.66154 -0.80275 0.33167 -0.046018 -0.56243 -0.40483 -0.099343 1.2532 -0.59429 -0.27016 0.47593 0.60255 1.3709 0.28179 0.12332 -0.35245 1.1752 -0.24707 -0.52656 0.19761 -0.23317 -0.42907 0.22751 0.75519 0.085287 0.33159 0.44554 0.026663
area 0.38944 -0.4514 3.2566E-5 -1.2951 0.52223 0.10118 0.70339 -0.57906 0.79466 -0.23081 -0.11317 -0.13087 -3.1436 0.14828 1.3664 0.35761 0.51562 -0.40869 0.11255 -0.94673 0.24417 -1.135 -0.74315 -0.80324 -0.36544 -0.407 0.087323 -0.10263 0.014402 0.26415 0.097141 -0.78059 0.6004 -0.0011665 0.70391 -0.76755 -0.41912 1.0895 0.10115 -0.24307 -1.1792 0.79698 0.11974 -0.2919 -0.29991 0.4896 0.26293 -0.016229 0.13805 0.07694
image -0.21427 -0.26951 -0.46316 0.33698 0.65711 -0.34699 0.98588 -0.80483 -0.27482 0.22151 0.18489 0.13739 -2.8874 0.085618 -0.047881 0.42649 0.67216 0.34419 0.36407 -0.25115 -0.69141 -1.183 -0.073629 -0.32932 -1.1685 0.31068 -0.49361 0.85172 -0.068119 0.946 -0.45911 -0.30904 -0.46854 -1.4128 1.6233 -0.039971 0.053896 -0.26881 0.3706 -0.81297 -0.47611 -0.73313 0.24238 0.37592 -0.64245 -0.023984 -0.099609 0.048465 -0.029184 -0.74347
murder -0.62835 1.028 0.34927 -0.19464 -0.11508 -0.4797 0.70022 -0.11001 0.65875 -0.20568 0.054559 -0.47476 -3.4612 -0.40603 0.99862 0.16084 0.19792 -0.36091 0.2029 0.016882 0.032979 0.4059 0.43664 -0.84973 0.6949 0.62283 0.01687 0.34944 -0.34438 0.61237 0.25083 -0.096562 -0.66735 0.56585 -0.68279 0.12306 -0.70576 -0.24161 0.064147 -2.5755 0.32331 -0.73787 0.78427 -0.0074171 1.0437 0.20032 0.21061 -0.11571 0.22196 0.36169
journey -1.0238 0.047851 -0.28179 -0.4137 0.56974 0.50773 1.0594 -0.44413 -0.5966 -0.89336 0.056969 -0.17197 -3.3132 0.76288 -0.29203 0.20576 0.23768 1.0967 -0.74909 0.28519 0.06985 -0.21685 -0.84509 0.53255 -0.056431 0.66975 -0.50042 -0.38502 0.61341 0.43394 0.32662 -0.99889 0.45222 0.16776 0.51543 0.52501 0.50159 -0.34958 0.47238 -0.55036 0.18682 0.21989 0.77066 -0.022689 -0.073058 0.65179 -0.33064 0.15838 0.37909 0.37339
minister 0.53088 1.0787 0.39655 0.024466 -1.0282 -0.094821 -1.5577 0.18033 0.26331 -1.4607 -0.68743 -1.4846 -2.8752 -0.17598 1.0988 -0.18795 -0.37851 0.77864 0.24709 -0.76288 -1.0903 -0.43026 -0.5966 -0.28277 0.84585 0.94873 0.67747 0.1404 -0.25922 -0.40313 0.52312 -0.14997 -0.38334 -0.43913 1.2966 0.3725 0.37246 0.86188 0.56637 -1.8138 -0.21555 0.16927 0.10412 0.90428 -0.1711 -0.13372 0.082359 -0.40365 -0.3301 -0.7149
planet -0.3876 -0.10865 -0.43556 -0.30322 0.42797 0.43217 0.5887 0.20575 -0.075783 0.36781 -0.12553 0.098055 -3.191 0.052802 0.29682 -0.032845 0.45327 0.15023 0.84677 -0.33869 0.42518 0.20774 -1.0394 -0.2365 -0.23599 0.16913 -0.88277 -0.3614 0.64823 0.061315 0.28477 -0.96819 0.87074 -0.82019 0.44629 -0.19063 0.11556 -0.59612 0.14079 0.08462 -0.77899 -0.14691 -0.54482 -0.48134 -0.89041 1.1386 0.04038 0.36172 -0.10746 0.5968
article 1.29 0.052437 -0.4354 -0.1673 1.3805 -0.31858 0.39701 -0.60466 0.14924 -0.52635 -0.27976 -0.52167 -3.1889 1.6539E-4 -0.53439 0.33728 1.0785 0.9376 0.076283 3.3664E-4 -0.44196 -0.51705 -0.27019 -0.78406 -0.88103 0.48238 0.23589 0.35499 -0.045 0.37689 0.0016023 0.046863 -0.81483 -0.3317 1.1647 0.48584 0.0083269 0.16477 0.96019 -1.1956 -0.2356 -0.4167 0.63912 1.0252 0.13051 0.12202 -0.24894 0.044992 -0.91239 -1.0489
anxiety 0.063878 0.77337 -0.94013 -0.24158 -0.40902 1.3665 1.3137 -1.5873 -0.61751 -0.23607 1.1084 -0.97974 -2.6164 0.33259 0.14259 0.22226 0.37805 -0.13199 0.057595 -1.011 -0.50181 1.0433 0.042243 0.82242 -0.28723 1.1452 0.6602 0.94763 -0.34673 0.9968 -0.88322 -1.7626 -0.027044 0.040105 -1.0048 -0.38169 -0.783 0.58684 0.25935 0.074237 0.39549 -0.28089 -0.26847 -0.055237 0.30691 -0.023315 0.022414 0.685 -1.1379 0.65428
month -0.20699 0.25765 -0.14708 -0.17683 0.56595 -0.087018 1.0844 0.3646 0.30571 -0.22715 -0.10303 -0.57585 -3.6989 1.2025 0.061237 0.80603 -0.21505 -0.11357 -0.91184 0.49227 -0.40737 0.10168 -0.33332 0.27996 -0.15744 1.0066 0.31165 -1.1853 0.19161 0.58047 0.14418 -0.0019706 -0.018283 0.31094 0.42754 -0.26218 -0.42602 0.81588 0.18912 0.017727 -1.2298 -0.22963 0.18646 0.21825 0.47629 -0.86522 -0.45704 -0.59013 -0.95056 1.1945
carnivore -0.35313 0.15745 -0.81136 -0.28981 0.23282 -0.16039 -0.22031 -0.6801 0.53487 -0.2841 -0.63101 -0.57882 -0.5 -0.32104 0.60913 0.16109 0.65975 -0.22524 0.38103 0.21398 0.16295 0.24444 0.19275 -0.78276 0.59128 1.4589 0.032621 -0.12162 -0.021091 -0.071762 0.77406 -0.42644 0.10305 0.094702 -1.0437 -0.25078 -0.30157 -0.1348 0.073781 -0.11915 0.70864 -0.5285 -0.077886 -0.37457 0.1653 1.4359 0.89085 0.53628 0.37228 -0.14717
party 0.072635 0.65483 0.25959 -0.27622 0.90185 0.13677 1.2917 0.55622 0.69594 -0.42725 -0.77381 0.029313 -3.8585 0.35263 -0.051385 0.23249 -0.86953 -0.18241 -0.68178 0.89842 -0.22762 -0.31087 -0.33312 0.20595 1.2085 -0.43265 -0.020809 -0.21702 -0.32421 -0.18668 0.066779 0.26714 -0.097918 -0.015255 0.62285 -0.11953 0.23556 0.37318 -0.090312 0.18722 -1.3246 0.10172 -0.10786 0.52626 0.78236 0.82735 0.68335 -0.60474 -0.19591 0.34368
production -0.58185 0.4107 -0.35649 -0.33975 1.3942 0.51633 0.40424 -0.225 0.4233 -1.5784 0.14244 -0.053153 -2.6419 0.69061 1.0819 0.18374 0.39123 0.70732 -0.36205 -0.081479 -0.93133 -0.41094 0.23505 0.1675 -0.53097 0.81762 -0.032047 0.40675 -0.094295 0.2927 0.019028 -0.6739 -1.0632 -0.21225 1.012 -0.44776 0.047727 0.33822 0.54544 -0.37337 -0.2115 0.17016 -0.44909 0.22332 -0.15114 -0.1002 -0.34842 0.42915 -0.69156 0.070999
importance 0.71741 -0.066106 0.21753 0.47398 0.9811 0.9475 0.21492 -1.0042 -0.23262 -0.75411 -0.31923 -0.50303 -2.3541 0.52941 -0.37422 0.45376 0.61745 0.44964 0.26976 -0.023095 0.27493 -0.0078477 -0.72131 0.1513 -0.94736 0.8312 1.0151 0.48054 -0.0079389 0.049825 -0.078656 -1.4172 -0.22319 -0.57072 0.99454 0.059286 -0.80646 0.25037 1.0119 -0.77545 0.81288 -0.22857 0.61284 -0.63069 -0.2143 -0.68042 0.4157 0.99384 0.22573 -0.74495
inmate -0.17105 0.13948 -0.38643 -0.023509 -0.31777 -0.8543 -0.15382 -0.056156 0.22783 -1.1348 0.059689 -0.55411 -1.1602 0.022443 1.6161 0.18541 0.022876 -0.044286 0.061655 -0.34338 0.6965 0.89017 0.24587 -1.1885 -0.20217 1.2275 0.33266 -0.84329 -0.45537 1.3152 0.21806 0.81121 -0.20496 0.3887 0.055885 -0.27856 0.45186 0.26059 -0.054949 -2.2535 0.92789 -0.13954 0.19685 -0.071664 0.72523 0.82724 0.082813 0.26111 -0.19013 0.35721
psychology 1.2187 0.45786 -0.11912 0.16558 0.60379 0.63558 1.1326 -0.98599 -0.36028 0.3182 -0.055728 -0.54491 -2.6361 0.67042 -0.12025 -0.48393 0.14613 0.62629 -0.11072 0.03615 -0.25638 0.77983 0.61998 0.22275 -0.56968 0.83466 0.44051 0.474 0.26649 0.69269 0.62235 -1.4073 0.61439 -0.86204 -0.81652 -0.22339 0.0095011 1.1306 1.7886 -0.6643 0.46026 0.31931 0.42556 0.17098 0.23914 -0.24678 -0.41556 0.67667 -1.3697 -0.76523
medal -0.13435 0.13398 2.094 -0.61038 0.5531 0.22307 0.31644 0.031186 0.46693 0.088519 -0.10614 0.097119 -2.6563 0.75413 0.80852 1.1235 -0.030293 0.35219 -0.021441 0.26796 0.15557 0.59355 1.3542 -0.44052 -0.044004 1.0351 -0.54316 -0.23663 0.35796 -0.50647 1.0412 -0.72427 0.60127 -0.16856 1.6044 0.34002 0.72247 -0.049303 -0.24201 -0.26235 0.27941 -0.8175 -0.058933 0.3304 0.53423 -0.66399 -0.38496 -0.65334 0.47671 0.13065
company 0.080668 0.21991 -0.6886 -0.014664 0.63191 0.24063 0.1653 -0.51646 0.73256 -1.0414 -0.45255 0.41346 -3.8619 0.20017 1.416 0.22166 0.42105 0.17269 0.47526 -0.27023 -0.26388 -1.0109 -0.24039 0.16963 -0.54471 0.77739 0.22361 -0.24111 0.3705 -0.46526 0.042174 -0.34463 -0.63217 -0.53949 0.90327 -0.1022 0.64608 1.0523 0.057021 -0.46784 -0.52955 0.84697 -0.34347 0.10647 0.3088 -0.40038 0.033592 -0.15371 -0.56411 -0.16724
live 0.02896 0.56291 0.17958 -0.48992 0.1328 0.44708 0.86729 0.6509 -0.29675 -0.20945 0.017871 -0.075247 -4.2639 -0.055036 -0.49471 -0.77981 -0.036401 0.656 -0.66948 -0.18147 0.22621 -1.1558 -0.20862 -0.31005 0.39507 -0.66858 0.4007 0.27866 -0.061713 0.20618 0.24776 -0.8523 -0.33203 0.57023 1.1228 -0.53009 0.19031 -1.0238 -0.11336 0.425 -1.2937 0.33876 -0.29548 0.66687 -0.30609 0.70134 -0.041847 -0.1717 0.020294 0.18103
holy 0.64377 -0.073541 0.77941 -0.50077 0.012152 -0.11359 1.1814 0.24855 -0.48953 0.052871 0.3019 -0.10171 -3.7859 -0.13488 -0.27544 0.1894 0.45689 0.39862 -0.61826 0.12944 -0.64061 0.61757 -0.092342 0.049535 0.44759 0.4526 -0.26462 0.31036 0.84409 0.16729 -0.83528 0.27082 0.29166 -0.084749 -0.38562 0.62145 -0.95621 -0.22517 -0.13087 0.069911 0.16233 -1.0983 -0.56657 -0.043147 -0.36899 0.26388 1.064 0.094838 -0.089865 0.88231
ticket -0.54766 0.57666 -0.26411 -0.57647 0.088292 -0.84321 1.4197 0.13734 1.3801 -0.14377 0.76261 -0.35266 -3.0015 0.2367 0.46093 1.1306 0.18196 0.10186 -0.77498 0.18475 -0.47018 -0.5576 0.44901 -0.33693 -0.22711 -0.30915 0.73816 -1.009 -0.014373 -0.83086 0.3695 -0.16471 -0.11944 0.074142 1.8035 -0.1508 -0.41446 -0.29917 -0.3963 0.17413 -0.32543 0.65892 -0.62658 -0.22094 0.43177 -0.12543 0.0073847 -0.76736 0.013906 0.95575
victory 0.11365 -0.42676 1.1091 -0.11312 0.33652 0.85566 0.60481 0.55772 -0.47508 -0.37021 0.38949 -0.09019 -2.8414 0.48508 0.97341 0.58549 0.13112 0.69927 0.31313 -0.15898 -0.14707 -0.19477 0.27797 -0.21196 0.62891 1.0825 0.18341 -0.21877 0.25806 0.32877 1.0669 -0.40328 0.16899 0.21288 1.664 0.66643 0.11395 -0.062788 -0.21005 0.17014 0.11279 -0.7629 0.79716 -0.1318 0.5398 0.30196 -0.24662 -0.56981 1.0542 0.8346
football 1.7168 -0.49922 0.28007 -0.77996 0.1271 0.98152 0.89159 0.6774 0.091559 -0.1174 0.36577 0.32621 -4.1002 0.87936 0.61313 -0.18677 -0.25277 -0.19645 -0.41795 -0.03595 0.37555 0.34103 0.93535 -1.2662 -0.21265 0.76635 0.62898 -0.60619 -0.7023 -0.67672 0.15983 -0.80883 0.035638 0.097208 1.2674 -0.094108 0.30065 -0.35696 0.52312 0.7687 -0.45955 -0.41258 0.61736 0.49301 0.659 0.395 0.41515 -0.23345 0.17664 -0.64742
rook -0.90623 0.59649 -0.36819 -0.37378 -0.49689 -0.44069 -0.79869 -1.693 -0.033444 -0.22495 -0.014755 0.84857 -1.4992 -0.79866 -0.099497 -0.33278 0.6821 0.10607 -0.26334 0.24416 -0.25852 1.043 0.94571 -0.58971 1.2048 0.18772 -0.39906 0.19036 -0.41037 -0.87225 0.61302 0.90222 0.36 -0.70827 0.36101 -0.51278 -0.17981 -0.1848 0.33553 -0.25235 0.20278 -0.64457 -0.58165 0.19611 -0.3066 -0.28302 -9.8838E-4 0.027645 1.0338 0.41694
stroke -1.1305 0.10586 -0.11289 -0.9451 -0.017484 0.51019 -0.18581 -0.2275 -0.44745 0.74411 0.42441 -0.23355 -2.1256 0.12016 0.46278 1.0669 -0.012418 -0.46413 0.53311 -0.84233 -0.86474 1.0075 -0.018005 -0.01409 -0.037981 1.2834 -0.13216 0.63234 -0.85345 1.3116 -0.71097 -0.61894 0.47849 0.14513 -0.074436 0.3526 0.13389 0.4568 0.70499 -0.28341 -0.6066 -0.64884 -0.16357 0.092051 0.7401 -0.4891 -0.17195 0.66392 0.24548 0.5072
environment 0.73955 -0.43335 -0.68127 0.21885 0.18836 0.82455 0.077424 -0.69823 0.13951 -0.59385 -0.39742 -0.52568 -2.9836 0.47479 1.2079 -0.01425 -0.080986 0.62409 0.43044 -0.2439 -0.698 -0.95186 -0.48476 0.85336 -0.3969 1.378 0.54574 1.1878 0.42721 0.39419 0.20515 -0.70073 0.36353 -0.63142 0.80224 -0.82231 0.041458 0.83774 0.62001 -0.5595 0.26176 0.11837 0.58046 -0.24237 -0.12203 1.0102 0.080873 0.7647 -0.65216 0.020493
coffee -0.051959 -0.46735 -0.075767 -0.13688 0.17536 0.3918 0.4325 -1.1035 0.2298 -0.25956 -0.56498 -0.3565 -3.6847 -0.13856 0.21851 0.36247 0.9838 -0.70914 0.1841 -0.018333 -0.82424 -0.32983 -0.070049 -0.51054 0.95595 0.71853 0.039362 -0.037558 0.88472 -0.50396 0.092299 0.086763 -1.1559 0.10087 0.11038 -0.29441 0.18023 0.5072 1.0015 1.9265 -0.95078 0.18184 -0.89962 -0.36055 1.1517 0.6608 0.079656 0.069976 -0.85517 0.2325
baby -0.99608 0.023605 -0.17883 0.16152 -1.0507 -0.074413 0.99408 0.86259 -0.10967 0.0075767 -0.84013 0.9571 -4.1078 -0.1032 -0.49959 0.63952 -0.62687 -0.47835 -0.69939 -0.20493 -0.42542 0.2525 0.34888 0.47014 0.19079 -0.22221 -0.058883 -0.34453 0.64837 -0.55455 -0.86344 0.32339 -0.2212 0.07195 -0.53806 -0.25213 0.20338 0.25166 -0.40475 -0.017125 -1.8447 -0.82578 0.064736 0.48965 -0.19065 0.063294 0.35912 0.054956 0.28009 0.60017
personnel 0.74404 0.53535 -1.541 0.083331 0.16966 0.23073 -0.2501 -0.13132 0.61844 -1.548 0.28924 -0.052959 -1.7429 0.11823 1.4216 0.73682 -0.45374 0.040359 -0.27634 -0.76443 -0.47067 -0.023482 -0.14475 -1.0847 -0.43659 0.56403 -0.13188 -0.073811 0.40529 0.53636 0.59054 -0.7488 -0.35358 -0.4448 1.4684 -0.45237 -0.88143 0.34195 0.10819 -0.65425 1.1137 0.60468 0.33228 0.34941 -0.45937 -0.26818 0.15961 0.30292 0.70393 -1.048
family 0.15733 0.36155 -0.20088 -0.16205 -0.35544 0.27762 1.1169 0.12359 -0.26652 -0.49696 -0.57533 -0.13722 -4.4155 0.3824 0.77677 0.42597 -0.62514 -0.37398 -0.32002 0.39704 0.23182 -0.085197 -0.86037 0.23356 -0.062581 0.41772 -0.30119 -0.72148 0.52011 -0.54203 -0.5536 -0.78231 -0.43241 0.54496 -0.21998 -0.36484 0.74752 0.17492 0.18402 -0.40964 -1.1231 -0.092975 0.52067 -0.38391 0.53803 0.70595 0.69992 -0.81136 0.38864 -0.58254
hypertension -0.96665 0.27922 -0.91214 -0.38108 -0.077905 0.0030473 -0.22415 -1.2865 -0.2196 -0.26777 -0.45222 -0.96854 -0.89319 -0.0079442 0.57548 -0.09903 0.55909 -0.20125 1.0426 -0.87635 -1.1291 0.31045 0.37964 -0.065739 0.41532 1.0437 0.34287 1.5412 -0.35181 0.82511 0.63517 -0.92913 0.41953 -0.12968 -0.55031 -1.2434 -0.49482 0.94536 0.13882 -0.36248 0.5502 -0.69258 -0.045647 0.15446 -0.29962 -0.53412 0.15145 0.24375 -0.17866 0.16572
president 1.0231 0.6247 0.8637 0.36068 -0.47532 -0.21307 -0.97116 0.91805 0.16307 -0.79805 -0.41119 -1.1976 -3.6883 -0.13654 0.95745 0.32482 -1.0018 0.56574 0.59419 -0.13655 -0.29172 0.011794 -0.58037 -0.56299 1.0961 0.56508 0.82377 -0.1684 -0.018427 0.0036756 0.52218 -0.02942 -0.3549 -0.38193 1.3838 1.3739 0.023569 0.77102 0.38753 -0.97413 -0.20959 -0.46311 0.3845 0.37239 0.28644 -0.079481 0.18964 -0.28996 -0.40469 -0.49608
atmosphere -0.20496 -0.42642 0.7095 -0.080727 0.36561 1.2918 1.1279 -1.0165 -0.74015 -0.63827 0.21862 -0.21158 -2.4415 0.38274 0.96785 0.28357 0.74589 0.14972 -0.2074 -0.31674 -0.11344 -0.72241 -0.20288 0.26507 -0.18182 1.0628 -0.37519 0.35345 4.568E-4 -0.14903 0.35935 -0.28312 0.40857 0.042404 1.2467 0.036594 -0.10717 -0.29947 0.25496 1.3349 0.53212 0.072701 0.62158 -0.047338 -0.54868 1.4775 0.23512 0.24583 0.080542 0.35771
practice 0.63768 0.25863 0.54102 -1.2698 0.46422 1.0365 1.9549 0.34027 -0.51704 -0.14172 -0.26809 0.37328 -3.4687 1.1155 -0.0077896 0.12809 -0.34182 -0.46874 -1.1249 -0.52242 -0.67845 1.0289 0.63417 0.16739 -0.064866 0.36231 0.63278 -0.03959 0.11449 0.15482 0.38168 -0.77597 -0.031503 -0.78566 0.54657 -0.27238 -0.50032 0.6878 0.92258 0.55091 0.31242 0.57688 0.7065 0.11291 0.85653 0.1752 0.099238 0.18931 -0.12023 0.047975
movie -0.52439 0.69869 0.43413 -0.32594 0.28787 -0.17434 1.5951 0.59349 -0.046551 0.11204 0.28161 -0.2822 -4.2177 0.89305 0.18727 -0.25997 0.52339 0.43218 -0.42541 1.0957 -0.5298 0.028357 -0.080996 0.068385 -0.062427 -0.12048 -0.94378 -0.39691 -0.27545 -0.68235 0.28207 0.24672 -0.72618 -0.10179 -0.4691 -0.17448 0.74891 -1.7316 0.36563 -1.1838 -1.1744 -0.25054 0.37562 0.22527 0.25894 1.0189 0.16573 -0.44412 -0.80564 0.2862
popcorn -0.037548 0.13573 0.52569 0.15721 0.15176 0.45824 0.25824 -0.56638 0.43361 0.22958 0.19158 0.25484 -2.2256 -0.054815 -0.53217 0.60066 0.91623 -1.0122 0.097305 -0.038022 -0.88974 -0.095865 0.47464 -0.28492 0.60504 0.3612 -0.21022 -0.16612 -0.098238 -0.60723 0.038348 0.62633 -1.187 -7.0741E-4 -0.5726 -0.84107 0.255 -1.0114 0.65594 1.0955 -0.57033 -0.049336 -1.4572 -0.62732 1.3257 0.73457 0.70935 -0.58035 -0.23615 0.74952
recommendation 0.41054 0.47042 -0.4884 0.45924 1.1916 -0.61105 0.59116 -1.1079 -0.13553 -0.97515 -0.16961 -0.075423 -1.7149 -0.36172 -0.10247 0.63337 1.1515 0.63574 0.087581 0.10615 -0.86436 -0.014736 0.27366 -0.19449 -0.23114 1.155 0.59492 -0.27747 0.57548 -0.014745 0.53166 0.46542 -0.30201 -0.45476 0.35653 -0.30092 0.63746 0.54885 0.28722 -0.48064 0.92603 0.035178 0.58199 0.13665 0.078103 -0.060359 -0.34599 -0.62761 -0.54889 0.025813
focus -0.060703 0.44423 -0.039324 -0.16435 -0.15391 1.0256 0.92413 -0.38683 -0.26369 0.16593 -0.13676 -0.17302 -3.0694 0.6477 -0.48025 -0.14923 -0.076285 0.41661 -0.018232 -0.75895 -0.2319 -0.30005 -0.10286 0.98311 -0.8479 0.42493 0.77884 0.40977 -0.46561 0.008776 0.24727 -1.1746 -0.13752 -0.17468 1.0891 -0.42252 -0.18102 0.13106 0.64356 -0.26057 -0.38984 0.60564 0.57949 -0.054886 0.14759 -0.67324 -0.343 0.53229 0.096752 -0.23505
attempt 0.46129 0.54711 0.046811 -0.62675 0.021865 -0.40811 0.78107 -0.74484 -0.31404 0.49434 -0.33057 -0.63203 -3.1333 0.40603 0.023618 0.34013 0.075335 -0.16508 0.067956 -0.62398 0.2471 0.14619 0.041808 0.22579 -0.028651 1.0492 -0.11027 0.59012 -0.23676 0.94125 1.0638 0.34414 -0.14919 -0.4256 0.6932 1.4751 0.5051 -0.8109 -0.10163 -0.42223 0.32489 -0.38002 0.60459 -0.43304 1.6802 0.037282 -0.34273 0.70524 0.38606 0.21825
approach 0.14122 -0.060404 -0.63248 0.30337 0.5269 0.66138 0.36013 -0.76729 -0.43688 -0.19652 -0.76691 0.077973 -2.9603 0.29332 0.11332 0.026258 0.086459 0.1754 0.67554 -0.58533 -0.18645 -0.50141 -0.22958 0.25367 -0.53325 1.0277 0.59118 0.4204 -0.47626 0.43013 0.84033 -0.52014 0.28293 -0.99928 0.83061 0.6868 0.29576 0.67056 0.76488 -0.45395 0.25929 0.57016 1.3598 -0.19322 0.3371 -0.026355 -0.22093 1.2004 -0.093749 -0.29068
number 0.48737 0.16796 -0.41658 -0.029931 0.25068 -0.58508 1.399 0.43136 0.18158 0.40476 -0.38604 -0.55495 -3.7413 -0.29016 -0.1765 0.32337 0.24366 -0.49777 -0.094325 -0.25783 -0.21521 0.2009 0.73693 -0.063841 -0.81366 0.041353 0.10923 -1.491 0.40854 0.25073 -0.36234 -0.16865 -0.12642 -0.2194 0.95608 0.21596 0.076282 0.11338 -0.071139 -0.5617 -0.65005 0.061116 -0.029501 -0.36708 -0.46067 -0.98238 -0.082192 -0.65139 -0.064736 0.75953
property -0.40841 -0.25807 -0.78328 -0.2521 0.71222 -0.85492 0.18844 -0.90365 0.77418 -0.63812 0.41401 -0.12498 -2.5844 0.49132 1.7719 -0.35719 0.18541 0.54328 -0.061612 -0.06177 0.41514 -1.294 -0.57379 0.35927 -0.83236 0.83942 1.6999E-5 -0.042865 0.10894 -0.70978 0.27002 -0.6641 -0.15474 0.14465 0.88735 -0.4013 0.23277 1.3268 -0.27507 -1.7017 -0.42364 0.83831 0.25653 -0.36016 0.23284 -0.21024 0.25896 0.37051 0.36283 0.35331
fingerprint -0.13817 0.36996 -0.67625 1.2703 0.03668 -0.8992 0.54757 -1.2424 0.92873 -0.46385 -0.013269 -0.088464 -0.68486 -0.44253 0.43152 0.20765 -0.0016356 0.30766 0.72297 -0.068828 -1.5232 -0.15795 0.13889 -0.34544 -0.73059 1.391 -0.45569 0.64279 -0.10855 1.0687 -0.45453 -0.12105 0.42108 -2.0677 0.69347 -0.36292 -0.26334 -0.12991 -0.38819 0.13577 0.79075 -0.034591 -0.069517 -0.31995 0.17129 -0.12066 -0.052928 -0.44663 0.44074 0.27061
reservation -0.11924 0.23772 -0.89169 0.11647 0.18106 -0.45446 0.62622 -0.50632 1.1028 -0.9307 -0.16138 -0.72175 -1.4276 -0.066708 0.65217 0.69422 -0.062387 -0.010137 -0.0054591 -0.29544 -0.63889 -0.49558 -0.017807 -0.73281 0.21569 0.58209 0.62887 -0.40569 0.28253 -0.28081 0.67159 0.12638 0.38533 -0.85393 0.65073 -0.44747 5.2224E-4 0.7315 0.23373 -0.13177 0.82004 0.7914 0.06706 -0.69075 0.6201 0.26321 0.012923 -0.62768 0.53592 0.59363
block 0.68044 0.11615 0.22407 -0.86884 0.20657 -0.34377 0.92722 0.0030368 0.58134 -0.18197 -0.091197 -0.060171 -3.1385 -0.9391 0.051281 -0.0058369 -0.052973 -0.51678 -0.0034809 -0.636 -0.53662 -0.035707 -0.046289 -0.23403 -0.30839 -0.48168 0.21116 -0.038334 -0.1739 0.99431 0.052403 0.44772 0.20835 -0.35681 -0.029147 0.10909 0.032768 -0.26542 -0.63124 -0.35475 -1.3761 0.53675 -0.030365 -0.88844 0.087424 -0.28646 -0.46369 -0.08807 0.54227 0.24633
fear -5.1244E-4 0.6111 0.066274 0.77193 -0.52385 0.95209 0.66223 -0.063778 -0.58343 0.48529 0.91274 -0.321 -4.0315 0.26784 -0.36299 0.13601 0.36549 0.73048 1.2236 -1.1892 -0.14966 0.1589 -0.094793 0.75576 0.40128 0.92919 -0.23436 0.41686 -0.039044 0.42702 0.28576 -1.1523 0.15738 0.54279 -0.20122 0.1879 -0.56922 -0.43987 -0.09286 -0.61148 0.28811 -0.27582 0.4285 -0.66044 0.30342 0.17036 0.33291 0.617 0.83661 0.34058
surface -0.92155 -0.62595 -0.65091 1.2019 -0.0012784 0.9907 0.053515 -1.1619 0.28554 -0.036184 0.63818 -0.056145 -2.4277 0.39745 -0.17635 0.43572 0.37993 0.85167 0.65763 -0.21504 -0.2472 -0.98059 0.80632 -0.37308 -0.74264 0.14362 -0.97174 0.80388 -0.48382 0.81027 0.32043 -0.69005 0.03242 -0.79488 1.0696 -0.096395 -0.23016 -0.37263 0.11761 0.73621 -0.2892 0.2022 0.069316 0.39472 0.38663 0.017878 -0.28253 0.03056 0.06605 0.82855
issue -0.019993 0.2448 -0.39569 0.45943 0.73888 -0.23395 0.93577 0.1908 0.90484 -0.10858 0.30419 -1.1094 -3.3169 0.18578 0.036671 0.41561 -0.065316 0.37845 0.61969 -0.30552 -0.74373 -0.36735 -0.0090875 0.3222 -0.53059 0.7217 0.15738 0.028982 -0.60489 0.23033 0.44013 -0.52971 -0.27914 -0.81314 1.3158 -0.66223 -0.97077 0.62333 0.58309 -1.0858 -0.32197 -0.24967 1.0033 0.28468 -0.061185 -0.28517 -0.02902 -0.42548 -0.62205 0.3067
metal -0.85225 -0.33965 0.24738 0.34015 0.77478 0.56859 0.62926 -0.13492 0.66371 0.20306 0.061324 0.71757 -2.7496 -0.32702 0.4177 -0.78761 0.32985 0.084269 0.81921 0.14985 -1.2704 1.0513 -0.10384 -0.86179 0.51841 -0.68152 -1.2112 0.47847 0.018171 0.013628 0.59481 -0.24146 0.38691 -0.1512 0.90577 -0.57509 0.073284 -0.43594 0.1718 0.091111 -1.2938 0.34376 -0.58129 0.18883 -0.09088 0.49642 0.056333 0.63163 0.21986 -0.39462
index -0.10902 -0.27651 -0.33034 -0.24822 1.0069 0.45448 0.25069 -0.089652 0.27614 -1.2905 -0.26234 -0.59024 -1.3262 0.59599 -0.1517 -0.31519 0.13472 0.75609 0.63733 -1.1515 -0.26653 -0.90106 0.83549 0.50612 -0.38644 0.88317 -0.3876 0.31835 -0.078613 0.69228 -0.79915 -0.34953 -0.23212 -0.66343 1.1444 -1.1446 0.02663 0.80127 1.0405 -0.28563 -0.82053 -0.47762 0.2562 0.028416 0.063632 -1.4211 -0.029911 -1.0582 0.30129 0.66514
isolation -0.71391 -0.2496 -0.70816 0.50933 -0.38013 0.96938 0.43725 -1.151 -0.20061 -0.49919 0.56715 -0.49279 -1.1917 0.32113 0.75946 -0.53585 -0.027007 0.34799 0.4224 -0.2272 -0.5843 0.0063697 -0.15592 0.09068 -0.037823 1.0251 0.064364 0.56906 -0.098351 0.86937 0.3651 -0.70753 0.42962 -0.58182 -0.18096 -0.36345 -0.038372 -0.36041 -0.014538 -0.032089 0.75011 0.32472 0.1375 -0.28266 0.20264 0.80353 -0.11433 0.67415 0.42738 0.58019
impartiality -0.059236 0.29041 0.46214 0.75344 0.45073 0.098621 -0.16341 -0.85575 -0.27703 -0.65853 0.28691 -1.3842 -0.49843 -0.41549 0.55192 -0.49547 0.56454 0.58228 0.77618 0.22875 -1.0647 -0.30453 -0.2996 0.054214 -0.041908 1.0987 0.4024 -0.23115 -0.42411 -0.27256 0.5815 -0.083261 0.89381 -1.4937 -0.21084 -0.31379 -0.090084 -0.15674 0.12966 -0.84643 1.6914 -0.21077 0.11671 -0.44178 -0.096415 -0.042249 -0.068754 0.29597 0.79937 -0.27205
drink -0.23131 0.3444 0.073854 0.2147 -0.15864 0.79111 0.63264 -1.1512 0.18661 0.46972 -0.83496 -0.046808 -4.1954 -0.16974 -0.19815 0.84066 0.50736 -0.89801 -0.21212 0.14405 -0.5137 -0.15712 0.7332 0.15296 1.7708 0.39302 0.80624 0.20763 -0.045485 -0.52602 0.92341 1.0067 -0.68586 0.58056 -0.043132 -0.080081 -0.20999 0.28899 -0.015134 1.3092 -0.48238 0.10096 -1.1021 -0.76373 1.1166 0.051797 0.33781 0.39365 -0.84129 0.78706
baseball 1.2684 -0.65361 0.32461 -0.73529 0.094099 0.43974 1.4574 0.87126 -0.30209 -0.35603 0.77441 1.0992 -3.3871 0.58823 0.41334 0.060067 -0.3652 -0.39806 0.49086 0.5579 0.72381 1.0993 1.2485 -0.99494 -0.21865 0.58146 0.2662 -0.46592 -0.21201 -0.51518 0.49967 -0.75398 0.33286 -0.36016 0.92806 -0.7106 0.19718 0.14905 0.51612 1.1851 -0.36376 -0.26112 0.6633 -0.018821 0.69751 0.28982 0.25066 -0.30472 -0.045556 -0.041178
jaguar -1.6089 0.17319 -0.88122 0.083395 -0.71235 0.055274 -0.23307 0.030781 0.3816 -0.27701 0.32437 1.6847 -1.4063 0.55838 1.4074 -0.67116 -0.15338 0.51346 0.16027 1.0465 -7.099E-4 0.095129 0.14591 -0.6317 -0.23378 0.16789 -0.28984 0.30208 0.21679 -0.45089 0.093749 -0.44542 0.68694 -0.76036 0.56208 0.3641 0.20688 0.037683 -0.23104 0.26547 -0.20212 -0.35307 -0.22098 0.20737 -0.022942 0.96129 0.13067 0.32232 -0.01647 -0.0026548
trading 0.33625 -0.19762 -0.80058 -0.20669 1.1694 0.52066 0.026419 -0.49024 0.73049 -1.4011 0.17589 0.85682 -2.2663 0.11366 0.030058 -0.81966 0.43422 0.53742 0.79485 -0.57867 -0.044536 -0.41674 0.77492 -0.3671 -1.4205 0.5159 0.35156 -0.47627 -0.32186 -0.31672 0.45543 -0.51261 -0.36441 0.18912 0.80192 -0.55877 0.4177 0.85395 1.0504 -0.45243 -0.75893 -0.34529 0.75085 0.0055399 0.6474 -0.94122 -1.4975 0.43658 -0.11252 1.0317
viewer 0.21033 0.63443 -0.32423 0.22124 0.10606 -0.26256 0.96719 -1.1841 -0.46846 -0.26149 0.48614 -0.29994 -1.2713 -0.56768 0.46136 0.46929 0.65371 0.2491 1.0466 0.047275 -1.0497 -1.0728 0.51398 -0.82622 -0.63019 0.93451 -0.14498 -0.70354 -0.70378 0.87375 -0.1423 -0.12851 -0.031018 -0.2964 0.43894 0.07073 1.0635 -0.47651 -0.35615 -0.48011 0.31675 -0.20596 0.17216 0.075084 -0.4015 0.045087 -0.50606 -0.79193 -0.50057 -0.53902
hundred -0.2897 -0.29811 0.23255 0.81315 0.86524 -0.4888 0.55976 -0.67991 -1.0999 0.037002 0.68195 -0.87937 -2.6257 -0.20783 -0.89376 0.30693 -0.18562 -0.38564 -0.35225 0.48466 0.94799 0.90179 0.78628 -0.9223 0.079493 1.1897 -0.74152 -0.51938 0.25299 0.37457 1.1932 0.39855 -0.22963 2.4738 0.11047 1.1132 0.2674 -0.11761 -0.1284 -0.74275 0.10121 0.50579 -1.0708 -0.46933 -0.45608 -1.0182 -0.51615 0.15389 0.19196 1.7116
woman -0.68344 -0.15732 0.20477 0.51348 -0.4452 0.24924 0.90365 0.23955 -0.46274 0.5598 -1.1015 -0.12249 -4.2492 0.041175 0.7423 0.55151 -0.041298 -0.46402 0.87095 -0.52454 0.38639 -0.19028 -0.068765 -0.39335 0.57378 1.0176 -0.24217 0.032965 -0.13523 -0.15935 -0.20372 -0.29916 -0.0091943 -0.048512 0.31916 0.66313 0.097535 0.48647 0.10198 -1.5611 -0.65179 0.060939 0.17976 0.73439 0.37133 -0.25663 0.9713 0.52974 -0.30886 -0.054252
queen -1.1483 0.056701 0.45495 0.78913 0.12648 -0.26203 1.0416 0.81926 0.16787 -0.024409 -0.32818 -0.26686 -3.3949 -0.51973 0.099631 -0.19844 -0.25297 0.32921 -0.10087 0.62074 -0.07907 -0.26732 -0.40307 -0.28702 1.1004 0.12477 -0.44017 0.079431 0.41238 -0.43621 -0.14126 -0.51883 0.060997 -0.43023 -0.1929 -0.036752 0.51238 -0.042892 -0.30856 0.015481 -1.0621 -0.7495 -0.34737 0.64046 -0.29651 -0.19719 0.2932 -0.13418 0.1935 -0.4291
fuck 1.1221 0.28682 -0.29652 -0.044516 -0.40658 0.32875 0.6622 0.45951 0.22441 1.2502 0.19373 0.34485 -4.9612 -0.41572 -0.46988 -0.33256 -0.25575 -0.41407 -0.87668 0.27519 0.058876 0.43673 0.63528 -0.0047489 0.56757 -0.35729 0.60154 0.16301 -0.79231 -0.36772 -1.1619 0.29883 0.10849 0.076465 -0.52194 0.67599 -0.37948 0.051836 0.022846 0.22824 -0.74883 0.070938 0.048154 -0.28408 0.24504 -0.37984 0.81583 0.92748 0.29628 0.68776
skin -1.0216 -1.64 -0.87128 0.41138 -0.012099 0.32602 0.96817 0.23988 -0.066987 0.57199 -0.59926 -0.07257 -3.6338 0.2432 -0.29562 0.25573 0.68801 -0.56788 1.1839 -0.3666 -1.5056 0.11388 0.38137 -0.04735 -0.49814 0.68314 -0.62485 0.75342 -0.43225 0.52792 -0.31779 0.090707 -0.38435 -0.75598 -0.036155 -1.0222 -0.358 0.47063 -0.48676 0.95252 -0.6893 -0.56759 0.36616 0.22607 0.058782 -0.89793 0.65936 0.62964 0.17384 0.089152
tournament 0.8248 0.52949 0.80717 -1.0198 1.2793 0.92528 0.91272 0.43163 0.59271 -0.3419 0.22789 0.40436 -2.7139 0.94618 1.085 0.29584 0.090261 0.19497 -0.69078 0.10297 0.43353 0.36359 1.0697 -0.74096 -0.091634 0.65339 0.2353 -1.0048 -0.19234 -0.20798 0.89755 -0.84769 0.45154 -0.23424 0.7729 -0.92177 0.70828 -0.04348 0.44411 0.66426 -0.26698 0.014272 0.81859 0.47439 1.013 -0.04308 -0.28814 -1.1077 0.87382 0.41232
cell -0.56753 0.37966 -1.2672 0.72305 -0.75446 -0.40844 0.18725 -0.69347 0.89533 -0.69893 0.48537 -0.42505 -3.3178 0.093912 0.61189 -0.63066 0.24857 0.17016 -0.040933 0.16112 -1.2239 0.23488 0.6323 0.21874 -1.014 -0.42006 -0.6597 -0.45462 -0.10604 1.301 -0.53664 -0.53788 -0.28803 -0.74388 0.0047262 -0.31522 0.1854 0.49382 -0.65221 -0.15892 -0.72083 0.82705 -0.60798 -0.61462 0.19546 -0.59954 -0.13653 0.37637 0.08548 -0.043531
summer -0.40501 -0.56994 0.34398 -0.62409 0.2251 0.33885 1.7315 -0.052893 0.13674 -0.2342 -0.30211 -0.095979 -4.0078 1.4374 -0.59066 0.079438 -0.58191 0.49402 -0.93107 0.54646 0.072464 -0.10879 0.29887 0.065324 0.39564 0.30435 -0.033789 -0.04802 -0.01835 -0.84865 0.011937 -0.38531 -7.2592E-4 0.055903 0.30796 -0.45738 -0.27544 0.42904 0.46634 1.053 -1.3766 -0.078775 0.52374 0.2677 0.48676 0.42688 0.07281 0.058742 -0.95337 1.1409
crew -0.14368 0.13786 0.0074849 -0.63958 0.41438 0.23458 1.0607 0.33322 0.6911 -0.69597 -0.42758 0.91854 -3.0037 0.013896 0.54244 -0.036832 -0.9783 -0.34828 -0.48244 0.14477 -0.35398 0.15683 -0.058786 -0.56063 0.46431 0.29955 -0.28091 -0.18742 -0.1375 0.22358 -0.17573 -0.19132 0.0059418 -0.079127 0.26997 -0.21878 0.39896 -0.38095 -0.62659 0.20093 -1.0815 0.28641 0.15058 -0.31222 -0.60527 0.67973 0.39604 -0.47771 0.28014 -0.29547
defeat 0.69812 0.25185 0.60701 0.12913 -0.22499 0.8112 0.34962 0.40704 -0.75832 -0.028323 1.2588 -0.43256 -2.816 0.12813 0.67058 0.12698 0.57627 0.45724 1.2025 -0.943 0.13916 0.0036218 0.18101 -0.15308 0.63607 1.2493 0.93886 0.085497 -0.26137 0.52224 1.2023 -0.65905 0.29746 0.36119 0.91655 0.51865 -0.2601 -0.21481 -0.74029 0.32933 0.7416 -0.42343 1.0449 -0.16922 0.82752 0.081496 -0.23698 -0.19462 1.1228 1.1812
library 0.77205 0.31024 0.41227 -0.85006 0.3639 0.026442 1.319 -0.91739 0.47152 -0.35443 -0.16717 -0.26638 -3.2049 -0.031804 0.57751 -0.30059 0.43569 0.15635 -0.57918 0.11104 -0.48201 -0.93749 -0.48435 -0.71209 -0.33951 0.083907 0.053983 -0.64825 0.45589 0.21339 0.15747 -0.44963 0.05429 -0.72023 -0.32378 -0.68247 0.19741 0.7183 1.2626 -0.62068 0.17929 1.2605 -0.53961 -0.02353 0.73966 0.57186 0.21955 -0.31299 -0.44481 -0.18544
government 1.0831 0.56923 -0.15022 0.6801 -0.17523 0.45387 -0.39031 -0.0365 1.3457 -0.89172 -0.3449 -1.5059 -4.011 0.14854 1.4042 -0.68131 -0.7651 0.52774 0.87151 -0.68123 -0.58059 -0.59836 -0.134 0.20365 0.25274 0.9358 0.28429 0.17889 0.3325 0.20151 0.3537 -0.066213 0.33692 -0.032372 1.293 0.54729 -0.43793 0.83446 -0.0057264 -1.6403 0.4079 0.21784 0.049898 -0.41208 0.60961 -0.35091 -0.13493 0.33366 -0.18685 0.071299
world 0.14968 0.39511 0.0060037 0.30072 0.36198 0.4877 0.52916 0.21741 -0.31404 0.069926 0.071339 -0.31512 -4.9216 0.48873 -0.059583 -0.26738 -0.2778 0.67832 0.30105 -0.031749 0.36063 -0.47251 -0.22646 0.12877 0.24439 0.51575 -0.41108 -0.50409 0.75757 -0.15384 -0.23331 -1.1831 0.29457 0.34829 0.94679 -0.06382 0.48357 -0.5668 -0.08089 0.046397 -1.1265 -0.46418 0.0087983 0.018907 -0.049697 0.34804 0.29426 0.010255 -0.17227 0.42294
potato 0.43426 -0.7302 0.34242 0.38412 0.2371 0.12418 -0.65013 0.54374 0.33491 -0.58497 -0.90136 -0.24366 -2.592 -0.71432 -0.20473 0.054854 0.83763 -1.3451 0.71268 -0.23685 -0.64447 0.28356 0.67209 -0.26476 0.38951 0.84078 -0.71191 -0.55667 0.63164 -0.4135 0.014092 0.69092 -0.69511 -0.67334 -0.79544 -0.037994 0.66541 -0.71764 0.9689 0.85366 -0.79684 -0.92328 -0.5655 -0.3954 1.1147 0.71563 0.64303 0.0015066 -0.056196 0.032513
astronomer 0.22546 0.22261 0.50351 0.6478 -1.3042 0.10475 0.50247 0.14711 -0.21755 0.016565 -0.25764 -0.043674 -0.51297 -0.62898 0.99529 -0.11151 0.74596 -0.21458 0.87553 -0.21029 -0.026547 0.17726 -0.2986 -1.4847 -0.41015 1.2364 -0.241 -0.82056 -0.36479 0.52683 0.93312 -0.59371 0.72847 -0.30526 -0.79946 0.37677 1.0872 0.31773 0.83048 -0.52495 1.5902 -0.47578 -0.43218 1.5465 -0.01576 1.0808 -0.21474 -0.060182 -0.48096 -0.52057
morality 0.19335 -0.60373 -0.38161 0.76937 0.4843 1.1126 0.68796 -0.64338 0.25028 -6.9615E-4 -0.23176 -0.82167 -2.2339 -0.023495 0.34791 -0.7437 0.25432 0.69075 0.82066 0.094827 -0.061115 -0.19449 0.22297 0.079359 0.19121 0.54322 0.74391 0.11638 0.16878 0.31091 1.334 -0.31763 1.0265 -0.60135 -0.1851 -0.097047 -0.52252 0.67108 0.12746 -1.6057 2.0154 -0.40119 0.41668 -1.0076 -0.15848 0.16503 0.40814 0.26106 0.50035 -1.1415
nurse -0.32431 0.93457 -0.69623 -0.69448 -0.77231 -0.84619 1.1735 -0.23874 -0.17432 -0.05795 -0.62248 0.14195 -2.1229 0.08567 2.0801 0.65685 0.40863 -0.38271 -0.63009 -0.15571 -0.67342 0.54261 0.048102 -0.56143 0.074412 0.99423 0.65613 0.49207 0.38929 0.53677 -0.1446 -1.4653 -0.21652 -0.62326 -0.68321 -0.44654 0.042673 1.7315 0.28068 -1.078 -0.51895 1.1051 0.16003 1.0759 0.65754 -0.30705 0.79597 0.26399 -0.75147 -0.64114
prejudice -0.072572 0.20382 0.3683 1.0008 0.074214 0.90219 0.58413 -0.30955 -0.60818 0.15633 0.69919 -0.57179 -1.7487 -0.25054 0.15118 -0.5175 0.10259 -0.15327 0.98134 0.99478 -0.15222 -0.12047 0.11481 0.067721 0.61356 1.0569 -0.0035956 0.67241 -0.28032 -0.080137 1.1075 -0.18531 0.43166 -0.60697 -0.80393 -0.34108 -0.72501 0.24911 0.23718 -1.0313 1.0793 -0.73397 0.61853 -0.67317 0.17515 0.75849 -0.23983 -0.077535 0.0050101 -0.99656
man 0.454 0.091616 -0.013785 -0.82997 -0.96978 0.49015 0.31657 0.74712 -0.48305 0.61955 -0.29768 0.92822 -4.4227 0.12139 0.31704 0.48146 0.40892 0.04774 -0.40095 -1.1193 -0.32822 1.0673 -0.10623 0.28587 0.5852 -0.24609 0.20463 -0.8715 -0.47394 -0.80522 -0.0020135 0.56237 -0.20017 -0.10347 0.80586 -0.031987 -0.59742 -0.13249 -0.80784 -0.79229 -1.2715 0.46771 -0.22299 1.0151 -0.51008 0.01278 0.96641 0.49574 0.13395 0.37403
deployment -0.017932 0.50515 -1.0472 -0.26311 0.28199 0.15354 0.0052222 -0.36298 0.95825 -1.9224 -0.55857 -0.3714 -1.2669 0.28498 0.6595 0.060582 -0.51885 0.54871 -0.45034 -0.062651 -0.71278 0.68181 -0.1465 -0.037081 -0.21365 1.4545 -0.4026 0.17847 0.31701 0.72571 -0.25957 -0.72376 0.33918 -0.91578 0.91971 -0.21059 0.19037 0.39836 0.4342 -0.34323 0.84949 0.36391 0.33953 0.2711 0.46823 -0.1689 -0.29936 -0.070199 0.43393 0.49611
bread 0.096514 -0.91815 0.10391 0.37925 1.2179 0.20229 -1.0964 -0.090946 0.95416 0.12435 -0.50117 -0.51848 -3.5856 -0.38007 -0.27267 0.21875 0.16489 -0.47657 0.32149 -0.4431 -0.87398 0.35837 -0.092384 -0.36556 0.5093 1.0163 -0.11198 -0.54125 0.40585 -1.1845 0.09223 0.73042 -1.16 0.29849 -1.0551 -0.27697 0.41833 -0.12538 1.0575 1.002 -0.47673 -0.31654 -0.41436 -0.92424 1.2271 0.070457 0.89918 0.017346 0.45381 0.88836
television 0.22953 0.79028 0.40294 0.26269 0.47166 0.47448 0.87594 0.16962 0.1393 -0.90456 0.22 -1.1396 -2.9098 0.77969 0.87407 -0.59824 0.93111 0.36864 0.57149 0.53435 -0.92304 -0.84062 -0.12704 -0.15102 -0.26559 -0.52306 -0.68919 -0.017841 -0.94186 -0.31306 -0.21431 -0.72743 -0.28159 -0.56686 0.30023 -0.20327 1.0835 -0.76619 -0.13128 -0.36926 -0.054226 0.87508 0.088876 0.21866 0.23944 0.31761 0.45914 0.27744 -0.51877 -0.57054
lover -0.982 -0.14739 -0.97852 1.0213 -0.2172 0.38041 0.90707 -0.26056 -0.4494 0.16674 -0.84879 0.47873 -2.821 -0.75944 0.18998 0.53273 -0.098511 -0.201 0.48788 -0.013747 0.1326 0.69126 -0.0084318 0.33363 0.8574 0.78664 0.0081657 -0.74857 0.10861 -0.28628 0.11597 -0.76734 -0.49915 -0.26673 0.0059652 -0.20249 0.50832 -0.57613 0.17292 -0.25727 -0.72162 -0.17139 0.46737 0.7104 0.36827 0.43863 0.64588 0.21108 0.10605 -0.062254
change 0.26745 -0.29613 -0.97242 0.71563 0.38767 0.30552 0.83309 0.10712 0.22491 0.55813 -0.1455 -0.56913 -4.6849 0.36086 -0.66902 0.59814 -0.24224 0.61496 -0.57351 -0.24607 0.30679 -0.38237 0.15763 0.91956 -0.82313 0.16811 0.4613 0.69282 -0.20162 0.56426 0.12509 -0.251 -0.40769 -0.66441 0.99249 0.51714 -0.22228 -0.28267 0.74779 -0.13397 -0.040581 0.28163 0.56832 -0.44198 -0.21021 -0.67689 0.27507 0.50372 0.21966 0.0095443
health 0.62242 -0.098943 -1.1841 -0.60717 0.6107 0.45964 0.04981 -0.30617 -0.1385 -1.0849 -0.43252 -0.82632 -3.8537 1.1519 1.1274 0.2384 0.13834 0.34711 0.64812 -0.26921 -0.80392 -0.083139 -0.50516 0.49373 -0.0065138 1.0606 0.88466 1.0594 0.64881 0.63481 -0.24705 -1.2183 -0.6077 0.18938 0.58379 -0.68975 -0.36657 1.8019 0.47452 -0.55 -0.59363 -0.032542 0.2494 -0.19234 0.7138 -0.56718 0.45212 0.11385 -0.65603 -0.31967
computation 0.0011413 -0.025915 0.22505 0.14299 0.56408 0.054957 -0.11221 -0.99264 -0.01229 -0.98235 0.070401 -0.13279 -0.45345 0.45615 0.28648 0.21222 0.41129 0.47951 0.75789 0.19673 -1.1714 0.47396 0.62483 0.1203 -0.33077 0.86963 -0.89152 -0.14033 0.074796 0.1867 1.1245 -0.54255 -0.67958 -1.1274 -0.098964 -0.82968 -0.12429 0.11497 0.40398 -0.56025 1.1907 -0.0015318 0.30625 -0.55471 -0.81532 0.021326 -0.80368 1.0917 0.50748 -0.3156
virtuoso -0.72303 -0.17538 -0.28911 0.63591 0.55513 -0.01008 -0.2014 -0.46087 -0.37449 -0.83752 -0.12661 0.31961 -0.58358 -0.75466 0.96467 -0.024493 0.66698 0.69781 1.3324 -0.19338 -0.18437 1.2355 0.22483 -0.89335 -0.25866 0.24261 -0.60649 -0.84857 -0.36622 -0.51022 1.1847 -0.88156 -0.63569 -0.39216 0.042862 -0.28169 0.014527 -0.17003 0.57896 0.29965 -0.023373 0.41821 0.53508 0.25554 -0.14724 1.3326 0.10418 0.13209 -0.28787 -1.2308
century -0.079519 0.14862 0.52363 -0.30005 0.82217 -0.20098 -0.33464 -0.065329 0.11223 0.66857 0.21656 -0.98803 -2.3376 0.38378 0.64203 -0.48853 -0.33569 0.70334 -0.15954 0.38023 -0.76704 -0.33257 -0.16174 -1.0068 -0.12995 1.2083 -0.36401 -0.90085 0.26474 -0.20596 0.78384 -0.91039 0.34751 -0.52457 0.42129 0.93749 0.47451 0.11666 1.4343 -0.91951 -0.70614 -0.013682 -0.39546 -0.44274 -0.27918 0.18709 -0.4875 0.14616 -0.4413 0.28261
discovery 0.10533 0.74013 -0.52039 -0.19625 0.60401 0.40884 0.53747 -0.64633 0.14137 -1.0119 0.15831 0.10562 -2.5466 1.286 0.29274 -0.42246 0.90453 1.188 0.78776 0.2629 -0.20209 -0.46342 -0.45754 -0.22047 -0.37922 -0.35377 -0.81066 0.4829 0.3279 -0.046896 0.2936 -0.86098 0.30953 -0.69471 -0.030747 0.054063 0.14072 -0.30814 -0.10943 -0.50786 -0.071245 -0.20286 -0.021428 0.19975 -0.12251 0.93525 -0.15652 0.14804 -0.40373 -0.0274
report 1.13 0.77326 -0.052641 -0.76757 0.26173 -0.074573 0.54189 -0.19863 0.81083 -0.24285 0.3899 -0.63944 -3.2923 0.56079 0.63061 0.024452 0.075748 0.50834 0.56888 -0.802 -1.0218 -0.3964 0.054099 -0.47095 -1.093 0.31511 0.49593 0.12526 -0.22664 0.8525 -0.162 -0.070292 -0.38517 0.12152 0.81544 -0.21635 -0.10448 0.83598 0.53925 -1.2912 -0.59258 -0.32857 0.83879 0.49712 0.44649 -0.21311 -0.76211 -0.65352 -0.52676 0.15311
madhouse -0.32472 0.58788 -0.52588 -0.10043 0.33135 0.12917 0.54255 0.10727 -0.15259 -1.4168 0.21008 0.0099071 -0.79999 -0.32886 0.4463 -0.47629 0.56532 0.46305 0.037655 1.1501 0.3154 -0.69371 0.0044839 -0.46622 0.25896 0.9358 0.024757 0.20971 -0.16001 0.55155 0.55502 -0.22268 -0.15521 -0.36451 -1.0831 -0.53396 0.3255 -0.2507 -0.50872 0.58486 0.90061 -0.21437 -0.11134 0.19473 -0.0096104 1.3091 0.32734 -0.32623 0.058213 0.71067
entity -0.15174 0.25392 -0.87687 1.5316 0.78409 0.025888 0.3488 -0.49727 0.40434 -0.53922 -0.066991 -0.15651 -1.1793 -0.02808 1.1056 -0.7704 0.72413 0.70044 0.43159 -0.29548 0.10584 -0.013715 0.10334 -0.016754 -0.033397 1.2091 -0.11177 -0.39003 0.2425 1.0712 0.52458 -0.061127 0.41853 -1.01 0.25833 -0.25269 0.1167 -0.18921 -0.11881 -1.2508 0.91692 0.41232 0.3441 -0.94176 -0.53378 0.54292 0.087867 0.47689 -0.16253 -0.34868
opera -0.68217 0.42665 -0.65739 0.071518 -0.48873 0.19671 0.56504 -0.79951 1.3677 0.13516 -0.47281 0.28185 -1.8597 0.46403 0.36098 -1.3436 0.55988 0.16358 0.51795 0.79993 -0.75425 -0.14837 0.099587 -1.208 -0.11016 -0.53327 -0.41738 0.40934 0.1275 -0.25212 0.060437 -0.89106 -0.2494 -0.44557 0.3762 0.10014 0.62836 -0.69301 -0.66136 0.60697 -0.50517 0.4761 -0.72042 0.79147 0.037809 0.90196 -0.064766 -0.31288 -0.79181 0.091139
sign 0.16311 -0.18208 -0.54437 -0.1735 -0.2203 -0.58638 1.0932 0.016041 0.079896 0.23142 0.79152 0.25404 -3.7122 -0.79768 0.087924 0.41656 -0.40708 -0.28748 0.48368 -0.96723 -0.44636 -0.18498 -0.28195 -0.39871 -0.33928 0.731 0.98986 -0.21533 0.032187 0.089552 0.4264 -0.030601 0.2616 -0.45918 1.6384 0.22469 0.15106 0.29883 0.23304 0.023315 -0.49347 -0.44048 1.0709 -0.20174 0.6347 -0.068226 -0.32352 -0.36901 0.25051 0.0962
recognition 0.25106 0.65358 0.33139 0.50708 0.86208 0.23679 0.86926 -1.3215 -0.14432 -0.47957 -0.3138 -0.20083 -2.0797 -0.096433 1.2494 0.63628 -0.26154 0.03889 -0.081151 -0.29421 -0.7954 0.31775 0.16478 0.50024 -0.024215 1.6935 0.64428 0.27837 0.2385 0.22794 0.013068 -0.82369 -0.23193 -1.0777 1.3266 0.22166 0.39192 0.14265 -0.95495 -0.26796 1.023 -0.51612 0.25491 -0.53227 -0.27735 -0.56042 -0.12284 -0.17566 -0.27579 -0.29769
office 0.54025 0.32067 -0.044657 -0.44094 -0.0062136 -0.18759 0.79375 -0.14482 0.51899 -0.57375 0.12989 -0.030027 -3.3846 0.21735 0.90428 0.27725 0.20028 0.21253 -0.18832 -0.11677 -1.3321 -1.1168 -0.56918 -0.36639 -0.2211 0.19785 -0.022676 -0.31844 0.16178 0.15778 0.10258 -0.634 -0.30831 -0.69343 0.49264 -0.095051 -0.086554 0.78965 0.27251 -0.6928 -0.58548 1.4651 -0.30979 0.37894 1.127 0.076552 0.19522 -0.46839 -0.42557 0.020812
lad 0.1909 -0.12894 0.36698 -0.88362 -0.19673 -0.10413 0.1911 -0.19282 -0.36935 0.44391 -0.21428 0.061432 -3.0068 -0.089336 -0.034084 0.28116 0.68173 -0.74585 -0.67453 0.043355 -0.35198 0.19164 0.35441 0.19643 -0.23878 0.62583 0.32662 -0.87441 -0.35874 -0.95863 0.45989 0.75457 0.87032 0.25535 0.52547 1.3387 0.22766 -0.13758 -0.60145 0.45113 0.26036 0.057583 0.021583 1.4338 -0.11918 0.54373 0.36656 0.065086 0.25147 -0.68127
radio -0.24754 1.1775 0.093792 -0.49044 0.43543 0.67579 1.0151 -0.096104 0.39964 -0.64431 -0.23628 -0.40758 -3.2878 -0.67136 0.1934 -0.99101 0.5164 0.90682 0.096036 0.49845 -0.75863 -0.72199 -0.56715 -0.71492 0.69227 -1.6593 0.018702 0.056306 -0.68392 0.23004 -0.72174 -0.86654 -0.374 -0.019692 1.1377 -0.01953 0.68116 -0.72423 0.13691 0.58286 -1.3599 0.93137 -0.46 0.52075 -0.86724 0.81203 0.13649 -0.28118 -0.32991 -0.52785
smile -0.45864 -0.24194 0.14636 1.1556 -0.45323 -0.028691 1.5431 0.022711 -1.1888 0.81381 -0.23536 -0.39181 -3.621 -0.84961 -1.3086 0.74812 -0.4216 -0.51921 0.044759 -0.56737 0.20546 0.026383 -0.098557 1.7648 0.21778 0.47358 -0.76125 0.32891 0.47759 0.27344 -0.7091 -0.3156 -0.12709 -0.12897 0.49409 0.35549 0.6163 -0.17153 0.16845 0.62927 -1.1779 -0.1643 0.36648 0.2199 -0.08359 0.026037 0.33544 -0.21822 0.078041 0.10998
arrangement -0.49164 0.024853 0.13038 1.1242 0.91107 -0.18917 0.70592 -0.76666 0.40476 -0.89352 -0.23791 0.063417 -1.2955 0.099352 -0.049861 0.90917 0.60361 0.027153 -0.58217 -0.29436 -0.53664 0.26908 0.10177 0.15341 0.69901 0.73218 -0.19261 -0.3032 0.31498 -0.67177 0.79919 0.17126 -0.085305 -1.2134 0.80618 -1.0716 0.13432 0.35728 0.71439 0.087882 0.5552 0.29907 -0.27027 -0.39252 -0.15985 0.44498 0.28359 0.084227 -0.31365 -0.29868
credibility 0.45033 -0.27303 0.27619 0.28559 0.82912 0.5826 -0.43814 -0.69285 -0.072945 -0.41726 0.2924 -0.79342 -1.8123 -0.22772 0.66544 -0.20437 0.18604 0.53816 0.57647 -0.8329 -0.3266 0.24954 0.37883 0.98981 -1.0068 1.1451 0.34879 -0.0049949 -0.72832 0.19141 -0.14171 -0.45789 -0.1815 -0.1677 0.64581 0.10005 0.70694 0.21307 -0.35559 -1.0834 1.3568 -0.12285 0.7873 -0.92701 -0.044032 -0.86487 0.26031 0.034435 0.12142 0.1621
communication 0.77195 0.56843 -1.2288 0.72447 0.86424 1.38 0.76591 -0.94574 -0.76706 -0.34931 -0.23852 -0.57139 -2.5371 -0.049415 0.26846 0.24658 0.038733 0.47187 0.42327 -0.28496 -0.62916 -0.22601 -0.0034933 0.32546 -0.33506 0.13868 -0.12238 0.22201 -0.10426 0.22058 0.11819 -2.3746 -0.53448 -1.3039 0.63486 0.024865 -0.047756 0.68932 1.0501 -0.24549 0.2589 0.35396 0.57523 -0.53971 -0.25463 -0.92492 -0.048971 0.67801 0.3179 -0.33548
stock -0.3026 -0.48921 -0.62242 -0.22315 0.78851 -0.10106 0.24428 -0.11285 1.3372 -0.76358 0.12569 0.1097 -2.4559 0.579 0.26811 0.0076724 0.4594 0.22975 0.40587 -0.53603 -0.66146 -0.90787 0.40799 -0.27014 -1.6938 0.10516 -0.15696 -0.36789 -0.047104 -0.8568 -0.028182 0.30832 -0.30694 0.27398 1.4739 -1.0358 -0.14497 0.43658 0.83138 -0.084903 -1.4394 -0.30003 0.18853 -0.20787 0.46334 -1.1706 -0.75914 -0.36599 -0.11568 0.61336
credit 0.12583 0.62523 -0.61781 -0.35684 0.62835 -0.73451 0.86433 -0.76919 0.56922 -0.092863 0.18924 -0.40758 -3.0378 -0.016556 0.76511 0.33423 0.26563 -0.07037 -0.33035 -0.73698 -0.5943 -0.92648 0.61706 0.032197 -0.91331 0.73973 1.007 -0.20847 0.57793 -0.55219 -0.48211 -0.79079 -0.60845 -0.38166 0.92786 0.32963 -0.10394 0.55 0.052649 -0.86424 -0.43989 -0.081566 0.027622 -0.78275 0.20303 -1.6499 -0.59233 -0.35006 0.23905 0.27652
citizen 0.16415 0.4153 0.0081261 0.068808 -0.49234 -0.019632 0.54575 0.44317 0.50534 -0.52602 -0.96921 -0.42557 -2.1648 0.048352 1.2933 -0.38969 0.04463 0.32572 0.73675 0.47561 -0.4729 -0.26048 0.12761 -0.61538 -0.074055 1.002 0.49195 -0.49857 0.11345 0.25166 0.54315 -0.60702 0.70814 0.26671 0.98743 -0.23171 -0.036405 -0.037164 0.1754 -1.6566 0.24425 0.32078 0.16723 0.11454 0.11754 0.30189 0.19152 0.22052 -0.42268 -0.32386
terror 0.11015 1.174 0.16245 -0.036731 0.27412 0.58353 0.008264 -0.5346 0.68754 -1.1739 0.2468 -0.79683 -2.4065 0.41439 0.58836 -0.60301 -0.10432 0.0054798 0.52722 -0.41305 -0.95942 0.20536 -0.2608 -0.21398 0.63805 -1.6294 -1.3531 0.15066 -0.33015 0.080375 0.012196 -0.48347 0.36257 0.10211 -0.13018 -0.051352 -0.30665 -0.94091 -0.9976 -1.5504 -0.63872 -0.30457 0.21441 -0.19634 -0.062046 1.161 -0.19807 0.68958 0.31729 -0.3392
law 0.56655 0.55899 -0.13496 0.44151 -0.24604 0.22051 0.73232 0.24967 0.72399 0.13897 -0.2259 -0.39777 -3.5492 0.78628 1.5307 -0.23575 -0.042563 0.2911 -0.059501 0.61202 -0.030756 0.15142 -0.43041 0.30248 0.13771 0.21799 0.51553 0.15674 0.20162 0.80945 0.64049 0.020951 -0.16965 -0.69387 0.2682 -0.17015 -0.48356 1.4787 0.26399 -1.9413 -0.19576 0.13694 0.77466 -0.29114 0.59864 -0.41271 -0.33307 -0.1913 -0.015789 -0.40739
liability -0.03814 0.40288 -0.60763 0.36948 0.60977 -0.14171 0.27688 -0.63326 0.52663 -0.29362 1.285 -0.10709 -1.0703 -0.35862 2.0509 0.38209 0.61885 0.046298 0.48653 -0.028343 -0.45438 -0.26294 0.78814 0.89116 -0.5242 1.9515 0.51663 0.39027 -0.51842 -0.1707 0.50967 -0.47785 0.0039614 -0.41554 0.41284 0.33308 -0.34017 0.63486 -0.4272 -0.94908 0.94267 0.3261 0.68694 -0.45217 0.64237 -0.40742 -0.0019495 0.60621 -0.043163 -0.27493
equipment -0.13274 -0.1012 -0.58524 -0.75696 0.64376 0.23008 0.27 -0.90275 1.0799 -1.254 0.77718 0.89462 -2.5873 0.48892 1.3583 0.31923 0.27004 -0.43906 -0.17538 -0.21389 -0.95942 0.42419 0.66638 0.28878 -0.90418 0.96288 -0.40672 0.70847 0.65477 -0.44822 0.16758 -0.75424 -0.061058 -0.38334 1.1805 -0.9805 0.37397 0.88109 0.37777 -0.30303 0.57054 1.3563 -0.24338 -0.34106 0.19673 0.13532 0.29358 0.42379 -0.6903 -0.16498
film -0.25882 0.64706 0.27217 0.11538 0.33587 0.099188 0.2341 -0.3516 0.039778 0.85441 0.65757 0.1688 -2.96 1.2504 0.013681 -0.57809 0.95849 0.68209 -1.0803 0.89596 -0.37231 0.47602 -1.5046 -0.23787 -0.32529 -0.073678 -0.89634 0.035618 -0.763 -0.4175 0.41439 -0.074434 -1.2713 -0.51963 1.2948 -0.21986 0.56352 -1.5805 0.80514 -1.0714 -1.6835 -0.39574 -0.78012 0.88939 -0.12479 1.1655 -0.3172 -0.043253 -0.20975 -1.0379
admission -0.04642 0.76353 0.21766 0.096437 0.81952 -0.58724 1.2651 -1.4498 0.35308 -0.64272 0.14281 -0.59222 -1.4116 0.42118 0.57316 0.8671 0.20214 0.016921 -0.42731 -0.070893 -0.62088 -0.22958 0.44143 -0.39783 0.5514 0.60531 1.1693 -0.3874 -0.023389 -0.16772 1.0246 -0.39881 -0.08738 0.29604 0.84654 -0.4575 -0.72618 1.1607 0.40385 -0.81682 0.52895 0.91012 -0.019935 -0.5655 0.91078 -0.37458 0.083752 -1.1045 -0.13077 0.33813
tool 0.3174 0.25665 -0.95533 -0.15883 1.2649 0.22203 -0.029006 -0.83152 0.19996 -0.42172 0.093935 1.2542 -3.0665 -0.3479 0.14097 0.39051 0.75613 0.22276 0.75073 0.33906 -1.5064 0.20698 0.32493 -0.095633 -0.49747 0.65771 -0.40646 0.4245 0.17854 0.74327 0.48441 -0.24022 0.5054 -0.9989 0.7728 0.077289 0.73474 0.32994 -0.012297 -0.57261 -0.16893 0.67579 -0.15188 0.37691 0.44903 -0.58963 -0.089088 0.71211 -0.49214 -0.18217
professor 1.8169 0.20314 0.31157 -0.17341 0.25056 0.17703 0.0691 -0.084932 -0.29115 -1.0462 -0.45207 -0.072225 -2.836 -0.1482 0.15019 -0.28134 -0.25338 0.38876 -0.44241 -0.81938 -0.85026 1.2835 0.26775 -0.76862 -0.041954 -0.44479 1.1447 -0.24051 0.64885 0.17911 0.98261 -1.1598 0.049855 -1.425 -1.6791 1.0598 -0.053064 0.12027 -0.24842 -0.60133 -0.97171 0.82169 -0.51575 0.42451 -0.20189 -0.30762 -0.017997 0.16378 -1.0438 -1.252
governor 0.8694 -0.23579 0.72768 0.19143 -1.4961 -0.092688 -0.14831 0.9588 0.7036 -1.2119 -0.28832 -0.73337 -2.3734 -0.36919 1.8622 -0.021456 -0.12924 1.0627 0.77552 0.13017 0.083876 -0.27079 -0.57644 -0.67365 0.37941 0.83547 0.88844 0.18677 -0.41581 0.27068 0.55927 0.84896 -0.35397 0.17559 0.2605 1.26 -0.39456 1.2077 0.42094 -1.1451 0.48957 0.19782 0.14213 0.62012 0.1838 0.018469 -0.40845 -0.40668 -0.28851 0.81328
student 1.3585 0.59881 0.27722 -0.57829 -0.25024 0.25095 1.172 -0.4171 0.092532 -0.060945 -0.93035 -0.14666 -3.2181 0.58781 1.2178 0.28833 -0.32611 -0.097023 -0.15267 0.13582 -0.36401 0.2422 -0.030471 -0.67599 -0.22374 0.72874 0.83809 -0.89645 0.2871 0.29874 0.28302 -1.2236 0.42798 -0.41252 0.49556 -0.34607 0.15887 1.2539 0.38426 -1.3716 -0.60821 0.47658 -0.45158 0.28204 0.51198 -0.42911 0.03158 -0.0014423 -0.43061 -0.44253
fruit 0.0031071 -0.80285 -0.77317 0.50469 0.89423 0.90219 -0.53821 -0.52817 -0.12731 0.0016473 -0.66786 0.1926 -3.2961 0.34091 -0.47873 0.59462 1.0438 -0.22079 0.62558 -0.076996 -0.69564 0.085603 0.030264 -0.21562 0.53267 0.26031 -0.57479 -0.12539 0.35832 -0.98811 0.82293 0.35036 -1.0765 -0.13438 -0.40119 -0.34154 -0.21204 -0.76575 0.81553 1.0711 -0.1086 -0.90065 -1.4035 -0.54709 0.73617 0.29896 0.51953 0.33532 0.011005 0.75756
media 0.8266 0.79284 -0.22964 -0.39478 0.76085 0.84363 -0.163 -0.4512 -0.015054 -0.95684 -0.19052 -0.96125 -3.2675 0.34059 0.46647 -0.52805 0.36398 0.22837 1.003 -0.15717 -0.66287 -0.57905 -0.81818 0.12843 -0.7454 -1.2222 0.083904 -0.60501 -0.67931 0.055628 -0.44661 -0.41254 0.64933 0.11984 1.4179 0.22432 0.45962 0.58463 -0.069246 -0.73978 -1.4857 0.51656 -0.45771 0.070834 0.52025 -0.23918 -0.18991 0.81991 -1.016 -0.87574
racket 0.032379 0.36625 0.1283 0.14562 0.59356 0.4034 -0.17257 -0.16145 0.58361 -0.18572 0.57733 0.19872 -1.0881 0.12539 0.78974 -0.033924 0.32642 -0.51088 -0.24871 -0.25117 -0.60724 0.21554 1.2501 0.042675 -0.099459 1.1035 -0.17716 0.17782 -1.0508 -0.41992 1.0398 -0.43565 -0.10025 -0.94133 0.068361 -0.33699 0.50506 0.20986 0.3647 0.15995 0.7217 -0.34201 -0.34706 0.29372 0.7644 0.25189 0.051569 0.30944 0.82932 -0.04967
boy -0.28167 0.027067 -0.048971 0.015468 -0.33637 -0.11375 1.0637 1.1256 -0.084707 0.67873 -0.69194 0.9275 -3.9502 -0.32722 0.12405 -0.15327 -0.48521 -0.64267 -0.39637 -0.18579 -0.11003 0.68965 0.13908 -0.022884 0.28599 0.04664 -0.086384 -0.69967 -0.13398 -0.55529 -0.32481 0.39648 -0.2674 -0.22845 -0.11184 0.46401 0.18687 0.0057366 -0.2418 -0.22053 -1.6485 -0.22814 -0.10049 0.48452 -0.3324 0.14156 0.63765 0.11324 0.21678 0.10015
preservation -0.26709 0.19248 0.01957 -0.054721 1.7498 0.39118 0.22062 -0.79396 0.78747 -0.71628 -0.27486 0.25567 -1.3466 0.24246 1.3671 -0.39304 0.021366 1.1401 0.61544 0.59622 -0.41502 -0.19168 -0.69895 0.21549 0.53237 1.4443 -0.14974 0.46018 0.23132 0.2813 1.3164 -0.61713 0.27873 0.0050388 -0.090017 -0.093886 -0.13427 0.95325 0.11588 -0.8105 1.0989 -0.080371 -0.13932 -1.0261 -0.33252 0.64734 0.15626 0.15284 0.58874 -0.3123
vodka -0.19312 -0.92315 0.3232 0.74141 0.16461 1.3549 0.17268 -0.88181 0.49223 -0.25827 -0.68374 -0.69845 -2.7377 0.039556 -0.065159 0.4902 0.46059 -0.47865 0.13046 0.076279 -0.44745 0.099102 0.41399 -0.48915 1.3457 -0.84417 0.48046 0.10654 0.27008 -0.49155 0.48829 1.0699 -0.56486 -0.085042 -0.42762 0.26072 -0.27819 0.32274 -1.0068 1.5357 -0.55626 -0.76686 -1.7706 -0.65521 0.39119 -0.35648 -0.21228 0.28167 -0.44607 0.12093
oil -0.65122 -0.63462 0.0084039 -0.54344 0.50922 0.5374 -0.86081 -0.95366 1.2874 -0.80613 -0.50478 -0.6147 -3.4598 0.34504 1.4022 -0.12728 0.51204 0.10033 1.1524 -0.59934 -0.97476 -0.3209 0.44673 -0.064977 0.35662 0.86184 -0.56306 1.3931 0.46956 -0.0098107 0.0077611 0.78797 -0.74184 0.16238 0.79556 -0.47441 0.20325 1.61 0.41 0.16562 -0.71382 -0.60823 -0.53172 -0.2987 0.26404 -0.64526 -0.41987 0.51873 0.10563 0.71849
victim -0.60983 0.79706 0.13047 -0.18299 -0.36563 -0.39071 0.76338 0.27802 0.16412 0.013739 0.27326 -0.22481 -2.924 -0.16583 1.1928 0.71939 -0.17353 0.013739 0.68136 -0.6363 0.087324 0.44335 -0.3091 -0.42682 0.043401 1.0087 -0.58239 0.32579 -0.50799 1.0588 -0.093234 -0.66035 -0.048011 0.059042 -0.54905 0.53957 -0.38871 0.47272 -0.4493 -2.5678 0.52468 -0.47145 0.6934 -0.031548 0.32225 0.17994 0.45321 -0.13156 0.19374 0.43345
row 0.22004 0.2244 0.8701 -0.2185 0.18901 -0.29528 0.80123 0.50164 0.35306 -0.30665 0.88603 -0.62927 -3.2869 0.2086 0.54579 0.22521 -0.14669 -0.23041 -0.79143 -0.028477 -0.23003 -0.4135 0.81162 -0.70661 0.33933 0.65096 -0.77798 -0.60131 -0.25853 0.29539 0.42131 0.077318 0.12404 0.26256 0.34489 0.012237 0.16521 0.060196 0.10522 -0.084744 -0.036878 0.41397 -0.13741 -0.028896 0.4494 -0.14407 0.14507 -0.35308 0.21596 0.61016
possibility -0.37972 0.28809 0.20383 0.711 0.036152 0.42431 0.72773 -0.34894 0.33082 -0.67889 0.48728 -0.28395 -2.4299 0.38075 -0.23536 0.86338 1.2208 0.82411 0.43003 -0.60858 0.7582 -0.092506 0.15991 0.59735 -0.28546 1.4568 0.59672 -0.2533 -0.26868 -0.072308 0.67419 -0.59887 0.058994 -0.11547 0.30558 0.58772 -1.1305 0.054531 0.23803 -0.12843 0.33739 -0.49824 1.4638 -0.2234 -0.21118 0.18378 -0.63057 0.46939 0.14968 0.74736
consumer 0.25053 0.24332 -0.56558 0.69706 0.66473 0.49347 0.24533 -0.78533 0.53184 -0.98065 -0.53157 -0.81696 -2.3131 0.68754 1.1683 -0.12774 0.035894 1.1392 1.0038 0.06204 -0.76671 -1.4981 0.32695 0.42349 -0.88282 1.1161 0.55308 -0.019908 -0.51499 0.20785 0.10322 -1.0503 0.0081754 -0.051073 0.8529 -0.36534 0.27594 1.1165 0.0025076 -0.95682 -0.32239 -0.029179 -0.1948 -0.033576 0.14283 -0.74427 -0.20636 0.27204 -0.57255 0.054553
direction 0.04978 0.43118 0.094334 1.1951 -0.11597 -0.37758 0.87119 0.37091 0.20563 0.20305 0.6446 -1.2385 -3.371 0.37034 -0.90872 -0.11173 -0.53363 0.10233 -0.5214 0.39168 1.6731 -0.1711 0.3434 -0.37021 0.3647 -0.74017 -0.2831 -0.15495 0.011251 0.30413 -0.41412 -0.81748 0.07503 0.18298 1.1337 0.13645 0.85185 -1.0775 -1.1588 0.68223 -1.2348 -0.019855 -1.2434 0.46471 -0.48403 -0.1678 0.36805 0.14176 -0.42965 -1.0636
keyboard -0.042012 0.16598 -0.46623 0.64896 -0.48917 0.46147 0.97599 -0.60738 0.71383 0.35515 0.48101 0.73204 -2.4647 -0.87345 -0.14912 -0.69779 0.64867 -0.33419 0.41278 0.02098 -1.7995 0.68121 0.8524 -0.26417 -1.1922 0.10207 -1.1991 -0.38797 -0.067766 0.22418 -0.038578 -0.4691 0.38625 -1.7136 0.74859 -0.58833 0.6852 -0.50777 0.72719 0.24969 -0.10426 1.0057 -0.71042 -0.30539 0.074259 -0.30026 -0.54846 0.13477 0.36835 -0.2956
rooster 0.67339 0.38444 -0.18216 0.20581 -0.25462 -0.26643 -0.23871 -0.83126 -0.53287 -0.84745 -0.11968 1.0828 -1.6984 0.052013 -0.95751 -0.94905 0.38697 0.56657 -0.13775 -0.047487 -0.99946 0.75855 0.66429 -0.26794 1.3919 0.4436 -0.3324 -0.35986 -1.0068 0.036676 -0.05649 1.1338 0.64293 -1.2737 0.48496 -0.79707 0.066416 -0.076501 0.89908 0.67103 -0.19313 -0.42672 -1.1218 0.46575 -0.013455 0.37896 0.62995 0.34648 0.83874 0.67961
chance 0.1544 -0.733 -0.16207 0.10788 -0.0036056 -0.02943 0.9292 -0.1779 0.13883 -0.28244 0.14788 0.016723 -3.6464 0.15329 -0.27859 2.2327 0.042402 0.73993 -0.59517 0.092501 0.28799 -0.35445 0.43458 -0.018047 -0.61635 -0.28488 0.73479 -0.3422 0.13101 0.16494 0.77721 -0.14321 0.070131 0.41085 0.78025 0.7912 -0.25236 -1.1571 -1.0348 0.25419 -1.2661 -0.30155 -0.027472 0.18439 0.38513 -0.71152 -0.079725 -0.18441 0.35039 -0.042561
nature -0.27631 -0.66899 -0.89065 0.32857 0.042982 0.87972 1.0084 -0.86295 -0.43719 -0.028114 -0.87955 0.095167 -3.2204 0.23866 -0.050618 0.48169 -0.029378 0.15915 0.82152 -0.25532 0.30249 -1.3543 -0.21465 0.083609 0.064425 0.35262 -0.31641 1.0405 0.34491 0.077105 0.083209 -1.0112 -0.2406 -0.89169 0.40326 -0.15665 -0.68896 0.052345 0.88015 -0.27497 -0.073929 -1.1946 0.20847 0.17783 -0.41296 0.93013 0.68433 0.16135 0.058164 -0.18563
rabbi -0.54764 0.18563 -0.48796 0.72865 -1.7656 -0.19143 -0.4762 -0.12184 -1.2234 0.35959 -0.56129 -0.24481 -0.93868 0.1895 -0.028024 -0.46937 -0.1345 0.49401 0.30587 -0.2167 -0.93997 0.2901 -1.3233 -0.036254 0.0080987 -0.24256 0.62743 -0.63962 0.79061 0.12129 0.48332 0.72851 0.46729 0.36808 0.29807 1.185 0.0010506 0.83401 0.93746 -1.0253 0.55012 -0.49047 0.30751 0.75309 -0.2518 1.2361 0.12491 -0.82724 0.94338 -0.47159
doctor -0.47217 0.6159 -0.66014 -0.14621 -0.47972 -0.5676 0.45187 0.46459 -0.28348 -0.65841 0.37408 -0.64374 -3.3311 0.31332 0.20186 0.17146 0.64364 0.20896 0.032482 -0.18989 -0.89754 0.96161 -0.23398 -0.43608 0.06871 -0.85835 0.073738 -0.17046 0.5671 0.095173 -0.19376 -0.39519 0.10489 -0.21169 -1.0626 0.49754 0.069216 0.22753 0.032369 -0.64101 -0.50167 0.051807 0.33079 0.78594 1.3322 -0.070927 0.67263 0.23381 -0.79125 -0.68179
investor 0.20835 0.25144 -0.35759 0.09526 0.44684 0.073093 -0.3121 -0.52418 0.5464 -0.5612 -0.09059 0.084818 -1.2422 0.049253 1.2127 -0.085288 -0.30918 0.73959 1.0639 -0.69614 -0.58098 -0.6708 -0.71153 0.030759 -1.3634 1.2261 0.79987 -0.71904 -0.30295 -1.1402 0.59049 -1.0765 0.1406 0.27068 0.55383 0.15598 1.0311 0.55933 0.63035 -1.1764 -1.0107 0.012538 0.009474 0.29086 0.71089 0.061796 -0.60998 0.19497 -0.12095 0.24431
quarrel -0.36601 1.2471 -0.010163 0.77633 0.26212 0.52246 0.26678 -0.30569 -1.0141 -0.29246 -0.33652 -0.4639 -0.97439 -0.52769 -0.059621 0.28052 0.21729 -0.16744 0.74388 -0.82765 0.45171 -0.0086511 0.20472 0.37738 0.75478 1.0302 0.30349 -0.94679 -0.57398 -0.074583 1.3033 -0.26118 1.2069 0.53287 -1.5526 -0.36232 0.46619 -0.35744 0.87968 -1.0165 0.86993 0.51872 0.95601 -0.26007 0.83894 0.46926 -0.04362 -0.19703 1.6945 0.76709
chord -0.89225 0.11806 0.11197 -0.2464 0.39096 -0.2398 0.78134 -0.11071 -0.76865 -0.91736 0.69346 -0.065742 -1.6763 -0.3714 -0.2548 -0.18842 0.43175 0.017885 0.030562 0.17117 -0.15014 1.4607 0.82275 -0.14585 -0.842 0.36231 0.35688 0.49412 0.36061 1.0091 0.36132 -0.352 0.5178 -1.2967 0.10895 -0.39008 0.69227 -0.40002 1.09 0.92492 -0.29661 0.011382 -0.46043 -0.18178 -1.3805 -0.27786 -1.005 -0.17954 0.66698 -1.0023
accommodation -0.7471 0.13646 -0.77741 0.12714 0.50265 -0.53052 0.65001 -1.6412 0.46604 -0.89828 0.24462 -0.6273 -1.2207 0.82306 1.0783 0.42071 -0.09442 -0.072435 -1.0782 -0.04801 -0.020842 -1.3731 -0.9793 -0.54897 -0.25837 1.0726 0.55697 0.28414 0.01952 -1.6029 0.48007 0.090379 1.1553 -0.0089956 0.32963 -0.93359 0.16556 1.1562 -0.012784 -0.52983 0.36533 0.75543 0.37959 -0.37468 0.41098 -0.076141 0.037133 -0.29001 -0.26478 -0.12151
luxury -1.5847 -0.81365 -0.25536 0.43488 0.34075 -0.21412 0.30916 -1.0965 0.48163 -0.68415 -0.61827 0.51359 -2.5239 0.57944 1.1144 0.42599 0.16235 0.50277 0.054088 0.88849 -0.098681 -2.0025 -0.27051 -0.42234 -0.11924 1.258 -0.40164 0.5302 -0.0076436 -1.4103 0.35949 -0.37118 0.21062 0.24223 0.88886 -0.69986 0.48526 0.60582 0.21139 -0.47894 -0.92617 0.23928 0.080323 -0.56786 0.42497 0.02697 0.55274 0.30703 -0.073207 -0.059955
cock -0.49306 0.15822 0.34819 -0.33127 0.67898 -0.051063 0.59822 -0.26827 -0.15362 0.84546 -0.5836 0.20595 -3.0236 -1.354 -0.038846 -0.12202 0.15897 -1.5371 0.6215 -0.16838 -0.71917 0.22548 1.0646 -0.0072482 0.79303 1.2978 -0.85899 0.34143 -1.003 0.34163 -0.26474 -0.081358 0.34859 -0.33565 -0.51863 0.43766 0.99519 0.24789 -0.52114 -0.083023 -0.24895 -1.2618 -0.61655 1.279 1.4859 0.031478 0.74904 0.58125 0.71455 0.29582
defeating 0.10745 0.2489 1.7462 0.086651 0.46548 1.1821 -0.22447 0.22597 -0.43344 -0.62241 0.34842 -0.41589 -1.2 0.077666 0.39042 0.20346 0.82013 0.12944 0.81216 0.1806 0.65635 -0.12815 0.4688 -0.93039 -0.12839 1.2507 0.35695 -0.40169 -0.21033 0.37829 0.93947 -0.84695 0.001838 -0.1237 0.34548 0.13163 0.0060972 0.5117 -0.63945 -0.022863 0.89656 -0.51809 0.63279 -0.37489 0.11388 -0.049751 -0.59582 0.18016 0.96714 0.31174
territory -0.16718 -0.82172 -1.1139 0.53233 -0.20985 -0.27643 -0.33638 -0.57233 0.60935 -0.29638 0.41232 -0.0080555 -2.0909 0.057095 1.2899 -1.2041 0.46874 0.13906 0.11876 -0.89273 0.5748 -0.84077 0.036697 -0.097666 -0.92433 1.147 0.30931 -1.1173 0.65053 0.23223 0.42118 -1.0735 -0.16056 -0.4581 0.45321 -0.11521 -0.012091 0.35267 0.18994 -0.62536 0.9703 -0.44947 0.79607 -0.62734 0.46614 1.1269 0.089382 0.043086 0.26225 1.3737
reason 0.62204 0.0177 0.048378 0.52499 -0.22537 0.042506 1.393 0.18696 -0.17409 0.59255 0.12213 -0.40679 -4.5613 -0.32519 -0.37968 0.47543 -0.0069536 -0.018159 0.24212 -0.41228 0.3052 0.25954 0.32321 0.53426 0.063822 0.85721 0.27033 0.031276 -0.12249 0.058097 -0.32348 -0.24084 -0.17298 0.12239 -0.0050799 0.61737 -0.67049 -0.31226 0.21925 0.0045358 -0.21075 0.52563 0.62237 -0.69418 -0.40194 -0.35428 0.56877 0.3499 -0.44517 0.41701
nation 0.96886 -0.7512 -0.18463 -0.69042 0.21082 0.94664 0.40428 1.1857 0.31799 -0.31103 -0.37114 0.51241 -3.6333 0.033433 1.0272 -0.15657 -0.86105 0.69568 0.77049 0.3658 -0.11211 0.26227 0.056465 -0.17709 0.51058 0.93341 0.2437 -0.42085 -0.23487 0.89291 0.11984 -0.20589 -0.13381 0.57666 1.3524 -0.52887 0.13788 -0.39782 -0.44193 0.12962 0.063037 -1.0509 0.67052 -0.0095831 -0.24582 0.51421 0.83984 -0.75469 0.73612 0.43794
concert -0.80218 0.85212 0.59953 -0.29406 -0.1516 -0.45783 1.9044 0.49484 0.15965 -0.75986 0.0068082 -0.64506 -3.2774 0.59743 0.052896 0.62289 -0.63893 0.32934 -1.5253 0.32576 0.31578 -0.69224 -0.1324 -0.28168 0.7137 -0.36241 0.25554 -0.13999 -0.19218 -0.64751 0.068393 -0.69726 -1.055 -0.17552 1.842 -0.63773 -0.70969 -1.0974 0.79878 0.44246 -0.85374 -0.1883 -0.52714 0.75775 -0.89952 0.58795 0.4812 -1.0582 0.097738 0.057614
discipline -0.059245 0.0957 -0.22628 0.50189 0.44718 1.6069 0.26957 -0.95005 -0.86121 -0.10899 -0.20339 -0.10433 -2.117 0.24251 0.37332 0.82007 -0.18494 0.74179 0.22 -0.59518 -0.63732 0.7012 0.17696 0.44668 0.20051 0.64772 0.79439 0.46262 -0.076255 0.20031 0.90343 -1.5716 -0.11033 -0.10685 -0.039044 0.12022 -0.17635 0.61602 0.05539 -0.60697 0.998 -0.020804 0.33044 -0.3528 0.2205 -0.6024 0.085696 0.9396 0.81998 -0.99072
fighting 0.15705 1.0061 0.04273 0.031252 -0.39531 0.85742 0.77146 1.1966 -0.20788 -0.17179 0.06166 0.3079 -3.4946 0.36068 -0.088483 -0.56678 -0.62167 -1.0219 -0.13791 -0.55378 0.31823 0.45909 -0.039974 0.82364 0.45752 1.2579 -0.25047 -0.092461 0.031177 0.40517 -0.16039 -0.54247 0.034187 0.45969 0.23921 0.13804 -0.5629 0.032518 0.39411 -0.34823 -0.31667 -0.33322 0.65899 -0.19548 0.50753 0.3728 -0.37039 0.45858 0.84506 -0.3277
bank -0.01427 1.1553 -0.24253 -0.52361 -0.083878 -0.20846 -0.44441 -0.45582 0.81974 -0.17393 5.2026E-5 -0.29892 -2.7672 0.1305 0.95806 -0.83037 -0.2616 0.27601 -0.396 -0.9258 -0.84573 -1.1349 -0.53881 0.02246 0.0059331 0.81569 0.61051 -1.1131 -0.17137 -0.8358 -0.43627 -0.67748 -0.34462 -0.32618 1.2272 -0.34581 -0.16598 0.57901 0.62287 -0.83858 -1.5623 0.57505 -0.82433 -0.81512 0.27099 -0.58834 -0.032831 -0.49864 0.48296 0.95852
constellation -1.4499 -0.3805 -0.15794 1.1332 0.65485 0.083551 -0.18228 -0.82036 -0.48089 -0.71853 -0.12027 0.097037 -0.81466 0.81525 0.45638 -0.58166 0.32364 0.74341 0.94396 0.88315 0.73111 0.39496 0.46182 -0.2141 -0.45391 1.1953 -0.53578 0.2102 -0.12015 0.10127 0.88939 -1.1295 0.65641 -0.6753 -0.55686 -0.46973 0.33865 0.28628 0.71464 0.57269 -0.2447 -0.092885 -0.12562 0.11803 -0.43005 0.4781 0.26033 0.10077 0.56775 0.4279
championship 0.63824 0.0032009 1.3212 -0.83268 0.98743 0.49015 0.97442 1.0508 0.39588 -0.2689 0.49024 0.27277 -2.8832 0.80975 1.1724 0.0079772 0.10551 0.28507 0.020685 0.16869 0.65796 0.20325 1.7322 -0.72003 -0.17577 1.0044 0.4387 -0.84085 -0.41587 -0.11564 0.8604 -1.0495 0.064151 0.024789 1.3923 -0.47757 0.23995 -0.24162 0.11971 0.75676 -0.29533 -0.21278 0.99296 0.4212 0.74698 -0.02645 0.06342 -0.98884 1.0443 0.26223
exhibit -0.59075 0.52888 0.49154 -0.086321 1.1521 -0.035702 0.84441 -0.71676 -0.45649 -0.36119 0.078557 0.62453 -1.7519 0.7393 0.3333 0.19946 -0.32378 0.7723 0.65004 0.14852 0.087444 -0.83081 -0.41199 -0.30148 -0.39683 0.42559 -0.63286 0.56752 0.041184 -0.10147 0.82684 -0.398 0.28912 -1.2191 0.39551 -0.43893 -0.38594 0.22405 0.6271 -0.61194 0.67925 0.029745 0.38214 0.29849 -0.050663 0.63758 0.19235 -0.8346 -0.50924 -0.040583
proton -1.7449 0.38548 -0.43971 -0.1976 0.057812 0.33478 -0.22924 -0.4629 0.78677 -0.16505 -0.66236 -0.24852 -0.76634 -0.48649 1.0956 -0.57962 0.47369 0.33687 0.22181 -0.096832 -0.85061 0.38837 -0.067451 -1.0363 -0.36314 0.25026 -0.14277 0.11429 -0.10799 -0.36654 0.89971 -0.87364 0.47118 -0.96576 -0.48303 0.82649 0.65772 0.0049909 0.95485 -0.307 0.31658 -0.081272 -0.57449 -0.51428 0.052436 0.10714 -0.57824 0.055083 0.45225 -0.24487
alcohol -0.16059 0.53013 -0.71268 0.84234 -0.23518 1.634 0.57307 -1.2547 0.14136 -0.47563 -0.10989 -0.91403 -3.3 0.58331 0.43795 0.63924 0.46261 -0.45825 0.41922 0.0449 -0.39609 0.71145 -0.096793 0.27203 1.2933 -1.5832 0.47333 -0.24469 -0.046953 -0.64236 -0.43099 0.60861 -0.2387 0.75172 -0.070541 -0.6229 -0.63605 0.84241 -0.90837 0.1625 -0.2902 -0.13233 -0.96401 -0.78918 0.92149 -0.093795 0.33693 1.3915 -1.4167 0.13616
forecast 0.14415 -0.62865 -0.42373 1.29E-4 0.60306 0.73858 0.39368 -1.1307 0.35894 -1.331 -0.076747 -0.93986 -2.3196 0.72011 -0.0089821 0.097607 0.8103 1.3045 -0.050437 -0.30163 0.23402 -1.5531 0.76115 -0.74013 -0.27617 0.82808 0.29941 0.44141 -0.66503 1.1113 -0.18025 0.36879 0.77136 0.14139 0.096497 -0.37223 -1.3995 1.5612 0.96058 0.75785 -1.2242 -0.28298 1.3507 1.3832 -0.18542 -0.38558 -0.81086 -0.77381 -1.2136 1.31
hike -0.88155 -0.18329 -0.38875 -1.0677 0.72951 0.1786 0.15052 -0.77641 0.67877 -1.0866 -0.49887 -0.18904 -2.1633 0.77053 0.9333 0.86613 -0.23623 0.22845 -0.68263 0.10066 -0.15801 -1.3004 0.23289 0.23461 0.10454 0.96803 0.13393 0.67501 0.087708 0.40797 0.2558 0.67988 1.3654 -0.18377 0.039233 1.021 -0.10146 1.2134 0.26802 -0.66891 0.10512 -0.25654 -0.020817 -0.40796 0.72524 -0.19579 -0.64826 0.36573 -0.17552 1.3475
tiger -0.66328 -0.20277 0.053292 -0.84588 -0.88521 0.33978 0.091638 0.75493 -0.17271 -0.27334 -0.2191 1.1191 -2.9683 0.43467 0.14298 0.050389 0.17954 -0.29648 0.8697 0.082129 -0.21031 0.048515 1.0123 -0.82281 -0.13379 0.66666 -0.32843 -0.25909 0.19651 0.065407 0.43525 -0.032363 0.40109 -0.36795 0.051817 0.18117 0.19575 -0.18124 0.43646 -0.35335 -0.66418 -1.1492 -0.09182 0.5167 0.67065 0.73844 0.086122 -0.26979 0.40262 0.53409
flood 0.098564 -0.12545 -0.54853 -0.68677 -0.42904 -0.45188 0.84912 -1.0517 0.36863 -0.86182 0.40904 -0.67534 -2.7408 -0.13014 0.22306 0.48513 -0.26356 0.69804 0.50348 -0.64117 -0.54093 -0.34573 -0.46417 0.20756 -0.43439 0.054675 -0.17463 0.81906 -0.50651 1.1857 0.087247 -0.13098 0.013355 0.20127 0.63891 -0.37819 -1.1822 1.17 0.013038 -0.006952 -0.1124 -0.33443 0.30378 -0.10024 -0.51272 0.59767 -0.22029 -0.0073411 0.47237 1.7234
eye -0.71077 -0.35075 -0.19972 0.13835 -0.34037 -0.41139 0.99436 -0.26643 -0.26639 0.60467 0.08066 -0.003731 -3.7981 -0.021132 -0.59648 -0.13985 0.38573 -0.189 0.61866 -1.0225 -1.135 0.13375 0.43337 -0.015024 -0.015243 0.58293 -0.8633 0.70792 -0.2659 0.54302 -0.54548 -0.098515 0.11407 -1.0229 0.44107 0.14034 -0.59349 0.43542 0.27181 0.55835 -0.4826 -0.14403 0.13827 0.62529 0.4156 -0.42782 0.70738 0.0019695 0.51502 0.39076
deposit -0.42018 0.17632 -1.0519 -0.014832 0.95379 -0.65287 0.64975 -1.4623 1.384 -0.26355 0.7798 -0.24006 -1.6477 -0.12907 0.68377 0.44062 0.044258 0.16392 -0.65273 -0.73057 -0.67068 -0.46203 0.52405 0.063507 -0.66444 0.66655 1.3359 -0.76908 0.043496 -0.49669 0.30019 -0.019414 0.067921 0.29332 0.6387 -0.07548 0.34539 0.84975 -0.20046 0.0034262 0.24761 0.21883 -0.49236 -1.0069 0.93676 -1.2083 -0.70282 -0.46056 0.56964 1.0605
animal -0.26668 -0.30342 -1.2459 -0.32138 0.4847 -0.51001 0.49533 0.001643 0.34949 -0.80771 -0.091442 -0.005934 -3.4001 0.19406 0.66985 0.4412 0.16701 -0.65746 0.81624 -0.4936 -0.1281 0.62262 0.24348 -0.36106 -0.027284 -1.0055 -0.66727 0.28561 0.54071 -0.24145 -0.048604 -0.40494 0.33283 -0.49399 -0.2685 -0.49937 -0.61318 -0.41966 -0.7878 -1.0711 -1.0221 -0.92689 -0.0035014 -0.4739 0.42933 1.3282 1.2251 1.0163 -0.3 -0.70402
ministry 0.63259 0.57333 -0.31091 -0.14766 0.45144 0.41169 0.043097 -0.49803 0.36783 -1.2322 -0.92595 -0.7297 -2.4848 0.29673 0.79931 -0.39917 -0.75313 0.97597 0.35245 -0.73203 -1.0859 0.094392 -0.76162 -0.30276 0.6292 0.84268 0.25481 0.019683 0.6389 0.057748 0.26027 -0.86786 -0.14001 0.092787 1.0974 -0.036049 -0.017297 0.85866 0.40555 -1.0965 1.0623 0.43343 0.14919 0.2518 -0.062003 0.69184 0.56491 -0.29453 -0.012133 -0.10984
cup 0.31127 0.044764 1.199 0.15085 0.39145 0.50932 -0.14158 0.28108 0.6442 0.56567 0.4775 -0.44993 -3.2483 0.57085 0.97449 -0.051371 0.36235 0.017583 0.046956 -0.31487 -0.65357 -0.2059 0.66363 -0.30343 0.93997 1.0302 0.10451 -0.45251 -0.03246 -0.38338 0.78475 0.029097 0.11063 0.24939 1.1557 -0.089711 0.34538 0.054218 0.52953 2.0427 -1.7849 -0.51794 -0.32952 0.25546 0.95019 0.019411 -0.35995 -0.65694 0.86618 0.069309
shower -0.79655 0.077423 0.55616 -0.23598 -0.13643 0.30493 1.4458 -0.81176 -0.13424 0.43016 -0.80828 -0.0086331 -3.5516 0.3721 -0.50725 0.67963 0.23031 -0.38729 -0.97168 -0.22714 -1.0911 -0.47893 0.31813 0.17516 0.77774 0.1694 -0.57171 0.49443 -0.53443 0.6032 -0.58614 0.70635 0.090852 -0.46881 -0.48272 0.1812 0.35125 0.50038 0.73328 1.2158 -0.43289 0.8053 -0.35834 -0.073923 1.2845 -0.059948 0.51047 0.43031 -0.097046 0.44141
activity 0.23752 0.66312 -1.0887 -0.2877 0.42877 0.64316 1.026 -1.0234 -0.12168 -0.37465 0.27716 -0.02812 -2.6662 1.3816 -0.10939 0.34977 0.40424 0.23541 -0.26381 0.07715 -0.35771 -0.2139 0.20705 -0.033279 -0.52931 0.37118 -0.98316 -0.084173 -0.51707 0.73122 0.15043 -0.66655 0.1343 -0.50867 -0.033751 -0.67721 -0.082297 0.027621 0.50839 -1.1198 -0.23958 0.14361 0.39903 0.20554 0.75594 0.78515 -0.34756 0.39158 -0.47834 0.2694
jewel -1.0507 -0.33651 -0.078866 0.37669 -0.20369 -0.44505 0.05441 -0.34116 -0.083049 -0.55719 -0.508 0.70133 -1.8242 -0.74124 -0.049866 -0.0089306 0.46538 0.30128 0.74964 0.68462 -0.59256 -0.79094 0.7959 -0.031365 0.25541 0.53902 -0.57147 -0.18329 0.49129 -0.39582 0.57475 -0.11989 0.14276 -0.6432 -0.16793 -0.16174 -0.1698 -0.06007 0.25055 -0.37571 -0.15029 -0.51141 0.084207 0.057867 -0.77265 -0.015941 0.16174 -0.77122 0.73743 0.89388
association 1.1067 0.35803 -0.61819 -0.20478 0.81874 -0.13685 0.13942 0.11542 0.63833 -0.83394 -0.24694 0.22033 -2.2495 0.60093 1.4756 0.16585 -0.59291 0.077692 0.58567 -0.53031 -0.012456 -0.55535 -0.071315 -0.32014 0.16945 1.0643 0.38523 -0.5097 -0.31286 0.33585 0.87258 -1.3471 -0.60775 -0.10427 0.85937 -0.60544 0.15414 0.8698 0.82148 -0.59808 0.22764 -0.45819 -0.40885 0.80311 0.50993 0.0073661 0.40898 0.044652 0.065796 -0.84602
industry 0.37784 0.40627 -0.60537 -0.22577 1.8082 0.67427 -0.16606 -0.0056455 1.011 -1.2411 -0.32673 -0.21908 -3.4003 0.37462 1.3626 -0.50845 -0.12517 0.59592 0.48812 -0.37067 -0.46724 -0.46156 -0.13133 0.52846 -0.4093 1.4288 -0.025409 0.43752 -0.28179 -0.060958 0.19539 -0.601 -0.56455 0.14964 1.0219 -0.73457 0.77023 0.66667 0.1003 -0.84704 -0.24261 0.41857 -0.23836 0.2145 -0.34339 -0.17973 0.20772 0.31699 -0.86458 0.21979
aluminum -0.67004 -1.6114 0.84237 0.49198 -0.039876 -0.21845 -0.50977 -1.1191 0.77763 -0.23736 0.51318 0.72477 -1.9557 -1.0104 0.78526 -0.22231 0.78101 0.22596 0.74604 0.5001 -1.5483 0.067149 1.0136 -0.99258 -0.31459 0.6705 -0.96653 0.11418 -0.23339 0.36991 1.5255 0.2875 -0.024096 -0.11258 0.75356 -0.80121 0.23589 0.45542 0.72643 -0.0039048 -0.011519 0.99512 0.02135 -0.27323 0.94359 -0.58271 -0.23199 0.9886 0.43489 -0.10039
sun -0.75573 -0.52828 0.30743 0.019539 -0.4222 0.70299 0.88589 -0.087006 0.04506 0.14268 -0.24302 -0.43885 -3.7228 0.47387 -0.64369 -0.1077 0.19679 0.14414 0.15064 -0.45653 -0.056864 -0.69653 -0.34455 0.077462 0.31113 -0.070471 -0.42413 0.37894 0.036579 0.50443 0.32109 0.43442 0.19472 0.024113 0.7275 -0.21284 -0.49747 0.77904 0.51753 0.9235 -1.1371 0.024046 -0.19874 0.90253 0.076821 0.93196 -0.045672 -0.75582 -0.15585 0.95909
automobile -0.93894 0.25507 -1.2445 -0.11472 0.74737 -0.3093 -0.59511 -0.39053 0.77859 -0.28386 0.30286 0.048353 -1.2584 0.054179 1.4071 0.14553 0.0035849 0.51789 -0.035492 0.035324 0.2531 -0.36626 0.54168 -0.78467 -0.23406 0.68241 -0.59034 0.72991 -0.19241 -0.25306 0.37114 -0.73165 0.42459 -0.60466 0.80383 -0.35568 0.4006 0.38383 0.5408 -0.98796 0.24886 0.61219 -0.85283 -0.21267 -0.33583 0.16902 0.73794 0.96813 0.14401 -0.16634
secretary 0.48553 0.19319 0.41526 0.068818 -0.1979 -0.33352 -0.60437 0.47495 0.24521 -1.122 -0.8119 -0.79657 -2.0516 -0.73252 1.5056 0.43331 -0.71458 0.48241 0.045345 -0.61024 -1.2307 0.18708 0.092875 -0.74287 0.42532 1.0228 0.82834 0.38263 -0.26807 -0.26566 0.48457 -0.1556 -0.74966 -0.97618 0.18132 0.053438 0.58433 1.7781 0.68022 -1.5553 -0.32681 0.015897 0.57557 1.3043 0.91229 -0.31439 0.12309 0.20285 -0.66479 -0.61938
memorabilia -0.7084 -0.16311 0.063924 -0.4828 1.1891 -0.81043 0.28396 -0.49436 0.14225 -1.0007 1.2857 0.70512 -0.82634 0.31595 0.4937 0.45259 -0.25836 -0.077823 0.37649 0.63202 -0.26191 -0.10126 0.61279 -0.34087 -1.1175 1.0797 0.37088 -0.092767 -0.22892 -1.0604 0.69048 -0.10078 -0.19358 0.013967 0.62058 -0.76242 0.63246 -0.38874 -0.025867 -0.72353 0.90283 0.036517 -0.22716 -0.37254 -0.086912 0.88649 0.29886 -0.55978 -0.16643 -0.46421
dividend -0.5593 -0.4705 -0.33567 0.73781 1.1191 0.52042 -0.27618 -0.42537 0.81294 -1.7366 -0.90346 -0.18915 -0.81958 1.1081 0.38546 0.3892 0.0010205 0.96336 0.37003 -0.42879 -1.2569 -0.69401 0.84445 0.049431 -0.43962 1.1974 1.2094 -0.90487 -0.48348 0.29376 0.79229 0.061838 -0.10606 0.83441 0.78809 -0.25471 -0.27583 0.93305 0.50531 -0.61281 0.06469 -0.92117 0.0023686 -0.17971 0.61495 -1.611 -1.0222 -0.026363 -0.087475 1.0797
currency -0.11988 -0.011133 -0.95166 0.57525 1.0391 0.48694 -0.54704 -1.1944 1.0774 -0.51398 -0.75233 -1.0119 -2.2324 -0.37761 0.44291 -0.55543 0.0083682 1.145 1.3484 -0.86452 -0.31106 -0.48863 1.2654 -0.55803 -0.30472 0.88159 0.41201 -0.9512 0.24072 -1.0167 0.76621 -0.19295 0.60045 0.26264 1.4857 -0.29458 0.40224 0.18649 0.41077 -0.95166 0.59111 -0.4458 0.66576 -0.82072 -0.021381 -0.69772 -0.61224 0.45776 0.41106 1.2592
magician -0.70415 0.75989 -0.44576 0.01625 -0.0049502 -0.062014 0.81289 0.45762 -0.26783 -0.16874 0.52376 0.56326 -1.6284 -0.40045 0.3774 -0.064509 0.041177 0.21375 0.40023 0.48247 -0.23657 0.66423 0.26325 -0.24433 -0.081067 1.3324 -0.46297 -0.17558 -0.2821 0.12396 0.80848 -0.74267 0.22764 -0.79729 -0.17556 0.80692 0.75864 -0.77388 0.16831 -0.08313 0.38064 -0.38346 0.14253 0.72381 -0.11602 0.62303 -0.11867 -0.20432 -0.33853 -0.25386
galaxy -0.59019 -0.18259 -1.0371 0.70354 -0.56364 -0.093521 -0.036615 -0.32363 1.2943 0.20587 0.58756 0.4652 -2.3953 0.66477 -0.25773 -0.36383 0.19087 0.58306 0.43503 0.60024 -0.82538 -0.65797 0.39244 -1.0977 -0.87652 -0.36911 -0.61077 -0.29879 0.14192 -0.42769 -0.68909 -0.46986 0.3784 -0.86111 1.4005 -0.079353 0.31758 -1.1689 -0.7801 0.76843 -1.7467 -0.24924 -0.39452 -0.059933 0.48961 -0.56011 -0.56881 -0.56992 -0.17647 0.35609
