437 300
plane 0.022 0.0057 0.0282 0.008 0.0217 -4.0E-4 -0.0079 -0.0535 0.0124 -0.0047 0.0156 -0.0289 -0.0043 0.0314 -0.0051 -0.0206 0.0616 -0.0371 0.0312 0.0201 0.0062 0.0168 0.0175 0.0262 -0.0123 -0.0292 -0.0034 0.0185 -0.0135 0.0113 0.0056 0.0239 0.0302 -2.0E-4 -0.0133 0.0014 -0.0377 0.0017 0.0364 -0.0153 -0.0148 -0.0784 0.0141 -0.0143 -0.0323 0.001 0.0377 -0.0018 -0.0397 0.0038 0.0566 -0.0275 -0.0327 -0.0055 -0.0514 -0.0191 0.0039 -0.0422 -0.0456 0.0167 -0.0166 -0.05 0.081 0.0343 0.0441 0.0146 -0.0139 -0.0389 -0.0075 0.0351 0.0347 -0.0107 -6.0E-4 0.0013 -0.0055 0.0157 0.0091 -0.0268 0.0016 0.0021 -0.0195 -0.0373 0.0095 0.0353 -0.0318 -0.0412 0.0548 -0.0329 0.0216 0.033 0.0074 0.0216 -0.0497 -8.0E-4 0.0065 0.0399 0.0096 -0.0276 -0.0181 -0.0169 0.0486 0.0041 -0.0153 -0.0076 0.0067 -0.0664 0.0127 -0.0134 0.0227 0.0291 0.0417 0.0331 0.044 0.0238 0.0415 0.01 -0.0295 0.0169 -0.0265 -0.0207 0.0496 -0.0251 -0.046 2.0E-4 0.0141 -0.008 0.0646 -0.0636 0.0012 0.0418 0.0152 -0.0203 0.0089 -0.0109 0.0107 -0.0087 0.019 0.0143 0.0064 0.0421 -0.0071 0.0015 -0.0335 0.0086 -0.0188 0.01 -0.0103 -0.0281 -0.0364 1.0E-4 -1.0E-4 0.0314 -0.0641 -0.0183 0.0019 -0.0013 -0.0517 -0.0424 -0.0509 -0.0173 0.0166 -0.0081 -0.0122 -0.0174 -0.0395 0.0055 0.0389 0.0194 0.0123 0.0304 -0.0221 0.0144 -0.0341 -0.0212 0.0078 0.0249 -0.0155 0.0015 -0.0179 0.0179 -0.0081 0.0011 0.0078 -0.0434 0.0233 -0.0269 0.0013 0.0546 0.0133 -0.0514 0.0074 -0.0089 0.0049 0.0201 -0.0172 -0.0074 -0.0528 0.0219 -0.0052 -0.0091 -0.0797 0.0423 0.0068 -0.0224 0.025 0.008 -4.0E-4 -0.0258 -0.0091 -0.0242 0.0596 -0.0239 0.0223 -0.0016 -0.0045 0.0253 0.0107 0.0117 0.0187 -0.0137 -0.0171 0.0142 -0.0234 0.0466 -0.0272 0.0215 -0.0166 0.0236 -0.0207 -6.0E-4 -0.0174 -0.0415 -0.0368 -0.0038 -0.0011 -0.0373 -0.0098 0.0078 -0.0317 -0.0092 0.0393 -0.0298 0.0507 0.0112 -4.0E-4 -0.014 0.0244 0.0164 -0.0247 0.0121 0.0094 0.0047 -0.0194 0.0061 -0.0156 0.0214 -0.0036 0.0147 0.0277 -0.0031 -0.0032 0.0073 -0.0125 -0.0245 -0.0138 -0.0074 -0.0176 0.0032 -0.0495 0.0495 -0.0206 0.0501 -0.0589 -0.0228 0.0181 -0.0213 -0.0207 -0.0096 0.0151 -0.0251 0.0312 8.0E-4 -0.0131 0.0194 0.0166 -0.0205 -0.0019 -0.0017 -0.0013 -0.0216 -0.0088 -0.032 -0.028 -0.0384 -0.0238 0.0157 0.0315 -0.0132 0.0519 -0.0126
stupid -0.0165 0.0195 -0.0122 0.01 -0.0124 -0.0042 0.0049 -0.0386 -0.0208 0.008 0.0123 -0.0104 0.0137 -0.0187 -0.0048 -0.0215 0.0402 -0.0119 0.0191 -0.0123 -0.0 0.006 -0.019 0.038 -0.0332 0.0058 0.0263 -0.0158 0.0532 0.004 -0.0053 -0.0225 0.0043 -0.031 0.0209 -0.0105 0.03 -0.0078 -0.0029 0.0014 -0.0101 -0.0362 -0.0112 -0.0063 0.0017 0.0091 -0.0119 -0.005 0.0255 0.0075 0.0076 -0.0201 0.0316 -0.0097 0.0071 0.0117 0.002 -0.0206 -0.0383 0.0142 -0.0165 -0.0156 0.0222 0.0091 -0.0086 0.0199 0.0046 0.0243 0.0354 -6.0E-4 -0.0065 -0.0037 0.0107 -0.0021 0.0118 0.0128 -0.0027 -0.0258 -0.0138 0.0 -0.016 -0.0231 -0.0153 0.0658 0.0052 -0.0026 -0.0177 0.027 0.0142 -0.0047 0.0146 -0.0163 -0.0414 -0.0197 0.0259 0.0169 0.023 -0.014 0.0106 0.0196 -0.0026 0.009 0.0029 0.0034 -0.0161 -0.0545 0.0109 -0.0029 0.023 -0.0048 0.0022 0.0128 0.0211 -0.0146 0.0116 -0.0168 -0.022 -0.0282 -0.0324 -0.0102 0.0024 -0.001 -0.0186 -0.0224 0.0683 0.0127 0.0011 0.0011 -0.0427 0.0077 -0.0431 0.0339 0.0158 0.0041 0.0031 -0.0167 0.0014 0.0429 -0.0254 0.0116 0.009 -0.0396 0.0046 -0.0028 0.001 -0.0059 -0.0061 0.0196 0.018 -0.0148 0.0256 0.0382 -0.039 -0.015 -0.0106 -0.0115 0.0015 -0.0065 -0.0044 -0.0372 0.0046 -0.0123 -0.0179 -0.0283 0.007 -0.022 0.0029 0.019 -0.0069 0.0142 -0.0132 -0.0025 0.0166 0.0033 -0.0017 0.0423 0.0167 0.025 0.0303 -7.0E-4 0.004 0.0141 -0.0374 0.019 0.0159 -0.0036 -0.0082 0.0396 0.0228 0.008 0.0017 0.0294 0.0101 0.0096 -0.0079 0.0119 0.0046 0.0117 -0.0057 0.0198 -0.0613 0.036 0.014 -0.0191 -0.0067 0.0106 -0.0264 -0.0172 -0.0272 -0.021 0.0104 0.0046 0.009 0.0194 0.0416 -0.0186 -0.0118 -0.0133 -0.0412 -0.0144 -8.0E-4 0.0201 0.0099 0.0419 0.0028 -2.0E-4 0.014 0.0429 -0.0195 -0.0124 0.0172 -0.032 -0.019 -6.0E-4 0.0585 -0.0321 0.0064 4.0E-4 0.0028 -0.0178 0.0619 -0.0094 -0.0169 0.0195 -0.0661 -0.0041 0.0166 -0.0233 -0.0133 0.0146 -0.0205 0.011 0.0067 0.004 0.0127 0.0018 0.0082 -0.0327 0.024 0.0058 7.0E-4 0.007 0.0081 0.0118 0.0145 0.0183 -0.0274 0.0123 0.0229 0.0124 -0.0297 0.0418 -0.0406 -0.0107 0.0648 -0.0867 0.0086 0.0067 -0.0038 -0.0331 0.0154 0.0246 -0.0171 -0.0057 -0.0329 0.0158 1.0E-4 -0.0341 0.0092 -0.0016 0.0047 -0.0065 0.0166 0.0215 -0.0051 -0.0114 0.0038 0.0165 -3.0E-4 -0.0101
egg -0.0218 0.0186 0.0413 -0.0524 -0.0119 -0.0689 0.0038 -0.073 0.0164 0.0294 2.0E-4 0.0075 -0.0477 0.0024 -0.0113 -0.0111 -0.0413 0.0147 0.0265 0.0322 0.0249 0.1013 -0.0487 0.0099 0.0085 0.0627 -0.0124 0.0155 0.0372 0.0644 -0.0234 0.0321 -0.0052 0.0287 0.0109 -0.0156 -0.0324 -0.0751 0.0298 0.0383 0.0399 -0.1286 -0.0361 -0.0715 0.0519 0.0136 0.0048 -0.1055 -0.0328 -0.0016 0.0129 -0.0582 0.0461 0.0312 -0.0583 -0.0245 0.0679 -0.0132 -0.0452 -0.0213 -0.0272 -0.0894 0.1078 -0.0486 0.0705 0.0553 0.0379 7.0E-4 -0.0618 0.0173 -0.0139 0.0375 0.051 0.0239 -0.0344 0.0358 -0.1682 -0.0323 0.0222 -0.0062 -0.0762 -0.0865 -0.0289 0.0463 -0.036 0.0502 -0.0128 -0.0472 0.0043 0.02 -0.0398 0.0207 -0.0987 0.0039 -0.0135 0.1011 0.0912 0.0281 0.0145 -0.0453 -0.0174 -0.0478 0.0078 0.0722 0.0105 -0.1236 -0.0089 -0.0259 -0.1105 0.0501 -0.0766 0.0748 0.0402 -0.0319 0.074 -0.0912 0.0037 0.0287 -0.0494 0.0394 -0.0551 0.0304 0.0218 -0.0224 0.0392 0.0287 0.0524 -0.0955 -0.0065 0.0409 -0.0197 -0.0383 -0.0495 -0.0402 -0.0936 -0.0298 -0.0418 0.0362 0.0082 0.0124 0.042 0.0428 0.0449 -0.0391 0.0074 0.0097 0.0942 0.0305 -0.1025 -0.0614 -0.0412 0.0472 -0.0431 0.0026 0.0472 -0.0327 0.0481 -0.079 -0.0053 -0.0369 0.0227 0.0604 -0.0397 -0.0033 0.0654 -0.0151 -0.0302 0.0933 0.0603 -0.0576 -0.0279 0.0414 -0.1198 0.0086 -0.0356 0.0542 0.0569 -0.016 -0.0229 0.0134 -0.0169 -0.0343 -0.0202 -0.1247 -0.0806 -0.0491 0.1019 0.1166 0.01 -0.062 -0.0552 -0.0198 0.0129 -0.0658 0.0289 -0.0184 0.0661 -0.0251 -0.0058 -4.0E-4 -0.1072 0.049 0.0149 0.0723 -0.0034 -0.0016 -0.0208 -0.0699 0.0312 -0.0457 0.1161 0.0091 0.0467 0.0512 0.0217 -0.0267 0.0055 0.0505 0.0503 -0.0508 -0.0227 -0.062 -0.0703 0.0464 0.0049 -0.0175 0.0717 0.0143 -0.0173 0.0328 -0.0495 -0.038 -0.0282 -0.0017 0.0688 0.0322 -0.0192 0.0331 -0.0012 -0.0614 0.0428 -0.0095 -0.1211 -0.0258 -0.0085 -0.0209 0.0753 0.0232 0.015 0.0447 -0.078 -0.0402 -0.0098 -0.0239 -0.0114 0.0312 -0.0329 -0.017 0.0312 -0.0311 0.0369 -0.0024 0.0538 -0.0679 0.023 -0.0038 -0.0497 -0.0399 0.0372 0.051 0.0188 0.0815 -0.0793 -0.0304 0.0076 -0.0435 0.0887 -0.0534 0.0199 -0.0895 0.1161 0.0313 0.0699 -0.0718 -0.0301 -9.0E-4 -0.0651 0.0252 -0.0211 -0.0374 0.0053 0.0344 -0.0863 -0.0637 -0.0245 -0.06 -0.0131 -0.0595 -1.0E-4 0.041
year -0.0026 -0.0501 0.0225 -0.0219 0.0445 -0.0116 -0.0291 -0.0653 0.0837 -0.0258 -0.0209 0.005 0.0367 0.0099 0.0148 0.0566 0.0429 -0.0128 0.0094 0.0217 0.0108 0.0184 -0.0445 0.0645 0.0722 -0.0251 -0.0043 0.0043 -0.0024 0.027 2.0E-4 0.0055 -0.0105 -0.1311 -0.036 0.0039 0.008 0.0029 -0.0129 -0.0099 -0.0139 -0.0016 -0.0062 -0.0189 0.0173 0.0439 -0.0213 -0.0081 -0.0113 0.0195 0.0158 -0.016 -0.0261 0.015 -0.0379 -0.0018 0.006 0.0016 -0.031 -0.0094 0.0049 -0.0038 0.1195 0.0112 0.0047 -0.0379 0.0214 -0.022 0.0414 0.0074 -0.0536 -0.001 -0.0125 0.0178 0.0352 0.0195 0.0081 0.0293 -0.0029 0.0021 0.0056 -0.0203 0.0206 0.0637 -0.0473 -7.0E-4 0.0036 -0.001 -0.0256 -0.003 0.022 -0.0169 -0.0624 0.002 -0.0258 0.0295 -0.0021 0.0178 0.0254 0.0133 0.0354 -0.0151 0.0318 -0.0097 -0.0105 0.0195 0.0078 0.0135 0.0099 0.0131 -0.0041 -0.0066 0.0263 0.0133 0.011 -0.0313 0.024 -0.0327 -0.0203 0.0068 0.0193 0.0159 2.0E-4 0.0347 -0.0281 0.023 -0.0168 -0.0976 -0.0066 -0.0478 0.0077 0.0449 0.0067 -0.0271 -0.0064 -0.0072 0.0024 0.0491 0.0039 0.0091 0.0151 -0.0143 0.0061 -0.0178 -0.0117 -0.0109 0.0116 -0.0103 -0.0088 -0.001 0.0179 -0.0175 -0.0183 -0.0204 0.0131 -0.0071 0.0252 0.0142 -0.0092 -0.0063 0.0084 -0.0104 0.0175 0.0056 0.0084 -0.0251 -0.02 -0.0264 0.009 0.0355 0.0149 -0.0136 0.021 0.0157 -0.0031 0.0461 -0.026 -0.0027 2.0E-4 -0.0078 -0.0205 -0.0073 0.0154 0.0234 0.0064 -0.025 0.0243 0.0684 -0.0412 0.0117 -0.0366 0.0129 -0.0177 -0.0167 0.022 -0.0106 -0.0038 0.0031 0.013 -0.0148 -0.045 0.0386 -0.0172 -0.0163 -0.0061 0.0179 -0.0276 -0.0166 0.0161 -0.0471 0.0822 -0.0557 -0.0382 0.012 0.0254 -0.0504 0.0065 -0.004 0.0025 -0.0958 -0.0178 0.0115 0.0086 0.071 -0.0198 -0.0049 0.03 0.0316 0.004 -0.0177 -3.0E-4 -0.1292 -0.0191 0.0084 -0.0306 -0.0216 0.0248 -0.0214 6.0E-4 -0.032 0.0474 0.0067 0.0178 -0.0201 -0.0288 0.0102 -0.0145 -0.029 0.0012 0.0256 0.024 0.0051 0.0312 0.0181 -0.0458 -0.0172 0.0405 0.053 -0.0015 0.0427 0.0227 -3.0E-4 0.0055 -0.0896 -0.015 0.0012 0.0016 0.0214 0.0265 0.0217 0.035 0.0531 -0.0819 0.0015 0.0511 -0.0981 8.0E-4 0.009 0.0151 0.0304 -0.0777 -0.0137 0.0044 -0.0115 -0.0024 0.0076 -0.0365 -0.0434 -0.0201 0.0174 0.0165 0.04 -0.0115 0.0076 0.01 0.0037 -0.0186 -0.0096 0.0058 -0.0024
psychiatry 0.0137 -0.0271 0.0078 0.0084 0.0064 -0.0219 0.0155 -0.028 0.011 -0.0089 -0.0198 -0.0182 0.0319 -0.0161 -0.0217 -0.0115 0.0414 0.0107 0.0064 0.0111 -0.0148 0.0135 0.0104 0.0127 -0.0091 -0.0155 -0.0011 0.0105 -0.0067 0.0219 0.0185 -0.0102 -0.0067 -0.0014 0.011 0.0313 0.0084 -0.0152 0.0254 -0.0057 -0.0227 -0.041 0.0163 -0.017 0.0087 -8.0E-4 0.0088 0.0153 -0.0021 -0.0056 -0.0167 0.0088 -0.0058 0.0092 -0.0135 0.0051 -0.0055 0.0017 0.0015 0.0023 0.0099 -0.0202 0.0175 -0.0029 -0.0099 0.0118 0.0105 -0.0095 0.0042 0.0046 -0.0095 -0.007 0.0064 -0.0251 -0.0174 -0.0198 -6.0E-4 -0.0024 0.031 -0.0118 -0.0015 0.0157 -0.0372 0.0082 -0.0248 -0.0029 0.0483 -0.0028 0.0111 7.0E-4 0.0188 0.0191 -0.0306 0.0079 0.0106 0.0297 -9.0E-4 -0.0109 0.0042 0.0193 -0.001 0.0126 -0.0122 -0.0163 0.0038 -0.0226 0.0147 0.004 -0.0113 -0.0113 -0.0148 0.033 0.0041 0.009 0.0137 0.0155 0.0076 -0.0327 -0.0059 0.0062 0.0152 -2.0E-4 0.0018 -0.0031 0.0068 0.0093 -0.0143 -0.0172 0.0155 0.0488 -0.003 0.0061 0.002 -0.0165 0.023 -6.0E-4 -0.0201 0.0013 0.0058 2.0E-4 0.0124 -0.0205 -0.0432 0.0118 -0.012 0.0054 -0.0023 0.0074 0.0157 0.0102 0.0233 0.0162 -0.0099 -0.0193 -0.0041 0.0254 0.0079 0.0098 0.0297 0.0098 0.0154 -0.0031 -0.0265 0.0067 -0.042 -0.0035 0.0234 -0.0115 -0.0117 -0.0297 0.0059 -0.007 0.0105 0.001 0.0186 0.013 0.0022 0.0059 0.0011 -0.007 -0.0105 -0.004 -0.036 0.0015 0.0151 -0.0062 0.0205 0.0328 -0.0109 0.0189 0.0079 0.0305 -0.0129 -0.0026 -0.0014 -0.002 -0.0297 0.0014 -0.0122 -0.0043 -0.0495 -0.0116 -0.0123 0.0046 0.0097 -0.013 0.0087 -0.0234 -0.0229 0.0021 0.0286 0.0057 -0.0092 0.0048 0.0123 0.0186 -0.0091 -0.0097 -0.0044 -0.0259 -0.0102 0.0063 -0.0163 0.0276 -0.0078 0.0072 0.0112 0.0326 0.0154 -0.0121 -0.0049 -0.0095 -0.0105 -0.0042 0.0105 0.0075 0.0031 0.0036 0.0257 0.0025 -4.0E-4 -0.0034 -0.007 0.0212 0.0157 -0.021 -0.005 -0.0066 -0.006 0.015 0.0064 0.0172 -0.0126 -0.0311 -0.0035 0.005 0.0208 0.0127 0.0075 -0.0054 0.0297 -0.009 0.0295 0.0149 0.0024 -0.0088 0.0126 0.0102 0.0248 0.0135 0.0149 0.0165 -0.0274 2.0E-4 -0.0088 -0.0056 0.0066 0.0202 -0.0084 9.0E-4 0.0208 -0.0081 -0.017 -0.0183 -0.0094 0.0125 -0.0143 -0.0172 -0.0186 -0.0147 1.0E-4 -0.0172 6.0E-4 -0.0012 -0.0278 0.0243 0.0031 0.0288 -0.0107 0.0172
asylum -0.0487 -0.0304 0.0269 -0.0012 -0.0367 -0.0523 -0.0212 -0.0347 0.0195 -0.0082 -0.0191 -0.0159 0.0365 -0.0487 -0.0071 -0.0286 0.0237 -0.0303 0.0299 0.0538 -0.0269 -0.0148 0.0323 0.0334 -0.0101 0.0574 -0.0036 -0.0084 0.0046 0.0055 -0.0265 -0.025 -0.0412 -0.0327 0.0056 0.0437 0.0439 -0.0301 0.0385 0.004 -0.0205 -0.0676 0.0107 0.0363 -0.0356 0.0097 0.0177 0.0195 -0.0272 0.0191 -0.0266 0.0189 -0.0168 0.0125 -0.0458 0.0068 0.0094 -0.0459 -0.0029 0.0035 -0.0201 -0.042 0.0396 -0.0048 -0.0031 -0.0507 -3.0E-4 -0.061 -0.01 0.01 -0.0014 -0.0027 0.004 -0.0415 -0.0054 0.0333 -0.0082 -0.0136 0.0062 -0.0054 0.0031 0.0168 0.0449 0.0294 -0.0408 0.0171 0.0506 -0.0097 0.0125 -0.0085 -0.0245 0.037 -0.0432 0.0247 -0.0373 0.0267 -0.0021 -0.0231 -0.0145 0.008 0.0397 0.0074 -0.0057 -0.0182 0.0026 -0.0299 0.0339 -0.0218 -0.013 -0.0156 -0.0441 0.058 0.0372 0.0389 0.0217 -0.0195 0.0325 -0.0449 -0.0024 -0.0054 0.0246 -0.0329 -0.0052 -0.0321 0.0088 -0.0283 0.0163 -0.0471 -0.0373 0.0205 -0.0024 -0.0081 -0.0092 -0.0262 0.037 0.0249 -0.0111 0.003 0.0179 -0.018 0.0128 -0.0117 -0.002 0.039 1.0E-4 0.048 -0.0211 0.0564 -0.0116 0.0021 0.0134 0.0228 -0.0185 -0.0635 0.0403 0.0026 -0.0369 -0.0624 0.0152 0.0158 0.0385 7.0E-4 -0.0352 0.0084 -0.0566 -0.0098 0.0792 -0.0322 -0.0221 -0.0195 -0.022 -0.008 -0.0121 -0.024 0.0247 0.0204 -0.0035 -1.0E-4 0.0066 -0.0021 0.002 0.0167 0.0104 0.019 -0.0176 -0.0169 0.0063 0.0634 -0.0084 0.0133 0.0094 0.0213 0.0059 0.0116 -0.0272 0.0074 -0.0022 0.0115 0.0037 0.0049 -0.0718 0.0313 2.0E-4 -0.0228 -0.0594 -0.0548 0.0058 -0.0493 -0.0132 -0.0045 0.0605 -0.0034 0.004 0.0059 0.0164 0.0096 0.0251 0.0037 -0.0014 -0.0573 0.0048 -0.0386 -0.0241 0.0332 0.0134 0.0213 -0.0224 0.0297 0.019 -0.0075 -0.0388 -0.0211 -0.0098 -0.0295 0.0111 -0.0574 0.0364 -0.0249 0.0363 0.0139 -0.0042 0.0162 -0.0209 -0.0022 0.0036 -0.0389 0.0133 -0.0252 -0.053 0.0346 -0.0065 0.0012 -0.0148 -0.0855 -0.0114 -0.0038 -0.0209 0.0036 -0.0079 -0.001 -0.0114 0.0021 0.0541 -0.0119 0.0022 -0.0212 0.0091 -0.0164 0.0409 -0.0341 -0.0256 0.0417 -0.0445 1.0E-4 -0.0341 -0.008 0.0498 0.0104 0.0 -0.0123 0.061 -0.0194 0.0045 0.0334 0.0047 0.0585 -0.0023 0.0027 -0.0122 0.0239 0.0075 0.0215 0.0129 0.031 -0.0419 -0.0074 0.0018 0.0517 0.0266 0.0088
manslaughter -0.0113 0.0061 0.0099 0.0101 -0.0094 0.0167 0.0188 -0.0248 0.0025 0.0179 -1.0E-4 -0.019 0.0166 -0.0106 -0.0017 0.017 -0.0028 -0.0173 -0.007 -0.002 -0.0034 -0.0116 -9.0E-4 0.0055 0.0013 0.0052 0.0119 0.0203 -0.0039 0.0089 0.0228 -0.0231 8.0E-4 -0.0218 0.0082 0.0089 -0.0372 -0.0099 0.0164 0.0218 -0.0308 -0.0078 0.0024 0.0039 -0.0161 0.0253 0.0058 -0.0059 -0.0051 0.0199 -0.0096 0.0011 -0.0021 -0.0114 -0.0145 0.0161 0.0036 -0.0014 -0.0156 -0.0214 0.007 -0.0026 -0.0105 -0.0078 0.0194 -0.0038 0.0188 -0.0248 -0.0032 -0.0103 0.0179 -0.003 0.0248 0.0154 -0.0126 -0.0098 -0.0206 0.0053 -0.0141 -0.0016 0.0047 0.0021 -0.0155 0.0109 -0.0229 0.0101 0.0121 0.0158 -0.0068 0.0216 -0.0034 0.0168 -0.0185 -0.0154 -0.0028 0.0011 0.0197 0.0149 -0.0278 -0.0106 -0.0134 -0.0043 0.008 -0.0021 -0.0042 0.0157 0.0106 0.0031 0.0019 -0.0027 -0.0026 0.0193 0.0126 0.0134 0.0045 0.0153 -0.007 -0.0141 0.0017 -0.0052 -0.0291 -0.0012 -0.0131 -0.0181 0.0235 0.0142 -0.0021 -0.0163 -0.0087 0.0194 -0.0065 7.0E-4 -3.0E-4 -0.0083 -0.0196 0.0062 9.0E-4 0.0032 0.03 -0.0335 -0.0275 0.008 -0.0061 -0.0341 0.0038 -0.0027 0.0119 0.011 0.0154 8.0E-4 -0.0095 -0.0224 0.0112 -0.0155 0.0242 0.0194 -0.0192 0.0033 -0.0062 0.008 0.0231 0.023 -0.0292 0.0154 -0.0014 0.01 0.0024 0.0173 -0.0025 0.0144 0.0026 -0.0346 0.0109 0.0144 0.0011 0.0205 0.0039 -2.0E-4 0.0072 -0.0176 0.014 -0.0185 0.0055 0.0174 -0.0045 -0.0119 0.001 0.0518 0.0031 0.0139 -0.0065 0.0108 -0.0136 -0.0201 0.011 0.0126 -0.0011 -0.0041 0.0074 0.0113 -0.048 0.0184 -0.0093 -0.0013 0.0038 0.0236 -0.0153 0.0055 0.0189 -0.01 0.0166 0.0103 -0.017 -0.0064 0.0143 0.0036 -0.0167 -0.0051 7.0E-4 -0.0168 -0.0201 -0.0091 -0.0029 0.0183 -0.0022 -0.0019 -0.0291 0.0122 0.0012 -0.0024 -0.0047 -0.0042 -0.0102 -0.0098 0.0051 0.0127 -0.0104 0.0076 0.0097 -0.0103 0.0088 0.0122 -0.0292 0.0095 -0.0109 -0.0188 0.0145 -0.0129 -0.0084 0.0086 -0.0061 -0.0042 -0.0041 -0.0036 0.0264 0.0063 0.0147 0.0225 -0.0112 0.0015 -0.0169 -0.0016 0.0165 2.0E-4 -0.025 0.0119 -0.004 -3.0E-4 0.0196 -0.0042 -0.0248 0.0212 -0.0211 -1.0E-4 -0.0157 -0.0209 -0.0079 0.0203 0.0275 0.0119 0.0131 0.0259 -0.0114 -0.0114 0.01 0.0055 -0.0191 0.0134 0.0245 0.0025 0.0035 -0.0035 0.0088 -0.0067 -0.0061 -0.0215 0.005 0.0042 0.0157 0.0104
music 5.0E-4 -0.0393 -0.0105 0.0583 0.0241 -0.0173 0.0098 -0.0526 0.0428 0.0041 6.0E-4 -0.0315 0.0215 -0.0047 0.0241 0.0207 0.0787 0.0395 0.0157 0.016 -0.0171 -0.0216 7.0E-4 0.0253 -0.0144 0.0232 -1.0E-4 0.0312 0.0295 -0.0436 -0.0246 -0.0094 0.0129 -0.0326 0.0324 0.0122 0.0111 3.0E-4 0.0126 -0.0076 -0.0215 -0.0668 -0.0424 -0.0209 -0.0101 -0.0085 0.0348 -0.0348 0.0043 -0.0022 -0.0213 -0.0081 0.0137 0.0067 -0.0243 0.0542 -0.0206 0.0203 -0.0299 0.0144 -0.0114 -0.0254 0.0668 0.0299 0.0144 -0.0027 0.0028 0.0038 0.0146 0.0114 0.0124 0.0137 0.0138 0.0071 -0.0107 0.0318 0.0173 5.0E-4 0.0186 2.0E-4 -0.006 6.0E-4 -0.0342 0.0277 -0.036 -0.0202 4.0E-4 0.008 -0.0102 -0.0011 -0.0031 0.0165 -0.0639 0.0045 0.0093 0.0292 -0.001 0.0287 0.0166 0.0299 0.061 0.0277 0.0238 -0.0367 0.0096 -0.0587 -0.0218 0.0021 -6.0E-4 -0.0142 -0.0107 0.0354 0.0331 0.0074 -0.0154 0.004 0.0156 -0.003 -3.0E-4 -8.0E-4 -0.0197 -0.0068 -0.0469 -0.0241 0.0316 -0.0095 -0.0193 -0.0331 0.0105 0.0657 -9.0E-4 -6.0E-4 -0.0106 0.018 0.0261 -0.0051 0.0087 0.0281 0.0146 -0.0043 0.0033 0.0181 0.0323 0.0086 -0.0093 -0.0222 -0.0178 -0.0296 -0.006 -0.0014 0.029 0.0502 -9.0E-4 -0.0446 0.0118 -0.0049 -0.0135 0.0387 0.0318 -0.0099 0.0093 0.0227 -0.043 -0.0 0.0206 0.0258 0.0105 -0.0084 -0.0028 0.0383 0.0205 0.0206 0.0517 0.0029 0.0339 0.0236 -0.0094 0.0152 0.0049 -0.0579 -0.0176 0.0019 -0.0269 -0.028 -0.0117 -0.0171 -0.019 0.0495 -0.0071 -0.0121 -0.004 0.0457 0.0069 0.0208 -0.0212 0.0328 0.0196 -0.0159 0.0183 -0.0077 -0.0919 0.0223 -0.0182 -0.0318 0.0158 0.0074 0.026 -0.0151 -0.0191 0.0012 0.065 0.012 -0.0065 -0.0041 0.0087 0.001 0.0035 -0.0096 -0.0117 -0.005 0.0266 -9.0E-4 0.0124 0.064 0.013 0.0149 0.0406 0.042 -0.0098 -0.0142 0.0339 -0.0247 -0.0265 -0.0031 0.0128 0.0214 -0.0011 -0.0061 0.0164 -0.0308 0.0126 -0.0067 0.008 -0.0065 -0.022 -0.018 -0.0265 -0.004 1.0E-4 0.0157 0.0584 -0.0388 -0.0513 0.0099 -0.0221 0.0166 -0.0521 -5.0E-4 0.0076 -0.0042 0.0494 -0.0059 0.0606 0.0049 -0.0039 0.0228 9.0E-4 0.0076 0.0313 -0.0013 0.0349 0.0496 -0.0528 -0.0301 -0.0218 -0.0256 -0.0082 0.0177 -0.01 0.0458 0.0554 0.0179 0.015 -0.0275 -9.0E-4 -0.0225 0.008 0.0091 0.0061 0.0097 0.001 -0.0222 -0.0116 -0.0116 -0.0088 0.0144 0.0279 0.0049 0.0361 0.0
record -0.0033 -0.0056 -0.0257 0.0093 0.009 -0.0237 -0.0065 -0.0494 0.0056 -0.0163 -0.0234 -0.0182 0.0156 0.0284 0.0193 0.019 0.0361 -0.0213 0.0289 0.0136 0.0168 -0.007 -0.0239 0.026 -0.0236 0.0171 -0.0257 0.0162 -0.0041 -0.0202 -0.0149 0.0104 -0.0028 -0.0347 -0.0029 0.0046 0.0034 0.0322 0.0102 -0.0215 0.0127 -0.0541 -0.0029 0.0098 -0.0018 0.01 0.0077 0.0073 0.0027 0.0124 -0.0055 -0.002 0.0119 0.011 -0.0342 0.0518 -0.0335 -0.0016 -0.0354 -0.0179 0.0143 -0.0062 0.0538 -0.0383 0.0277 -0.021 0.0178 0.0438 0.0161 0.0193 -0.0193 0.0071 0.01 -0.0142 -0.0056 0.0211 -0.0184 -0.0328 0.0327 0.0192 0.0013 -0.0139 -0.021 0.0235 -0.0224 -0.0226 0.0167 -0.0154 -0.016 -0.0226 -7.0E-4 0.0107 -0.0428 0.0018 0.0048 0.0024 0.0053 0.0022 0.0585 0.0023 0.0016 -0.0552 0.0128 3.0E-4 0.0046 -0.0226 0.0013 -0.0062 0.0351 0.0294 0.0021 0.019 0.032 -0.0028 -0.0249 0.0131 0.0137 2.0E-4 -0.0195 0.0048 0.0069 0.0208 -0.0051 0.0049 0.0236 -0.0031 0.0015 -0.0285 0.0105 0.0399 0.0044 -0.022 0.0162 0.003 -0.0047 -0.0538 0.0026 0.0093 -0.0325 -0.0059 -0.0022 0.0083 0.0121 -0.0345 -0.0116 -0.0212 0.0085 -0.0316 -8.0E-4 -0.0123 -0.0069 0.0398 0.0046 -0.0403 -0.0015 0.0052 0.0152 0.001 0.0037 0.0072 0.0115 0.0173 -0.0234 0.0032 0.0211 -0.0039 -0.0059 0.0057 3.0E-4 1.0E-4 -0.0045 0.0136 0.0189 0.0095 -0.0015 0.0215 0.0048 -0.0013 -0.0253 0.0107 -0.0115 -0.0098 -0.0184 -0.0236 0.0092 -0.017 -0.0167 0.0232 -0.019 0.0246 -0.0076 0.0102 -0.0035 0.0046 -0.038 -0.0134 0.0108 -0.015 0.0018 -0.0079 -0.0626 0.0286 -0.0295 -0.0117 -0.0134 0.0054 -0.0023 -0.0246 -0.0209 -0.021 0.0426 -0.0272 -0.0156 -0.0096 -0.0201 -0.0303 -0.0088 -0.0127 -0.0088 -0.0077 0.0072 0.0222 0.0068 0.0504 0.0334 0.0272 0.0056 0.028 -0.0298 -0.0014 0.0347 -0.0322 -0.0211 -0.0164 0.0159 0.0094 0.0118 0.0149 0.0045 0.0214 0.0636 -0.0028 0.0082 0.0083 -0.0374 -0.033 0.0032 -0.0077 -0.03 -0.0117 0.029 -0.0039 0.0215 -8.0E-4 0.0 -0.0178 0.0096 0.0266 -0.004 0.0291 0.0168 -0.0174 0.0158 -0.0189 0.0017 -0.0249 0.0195 0.0128 -0.0126 -0.0166 0.0176 0.0414 -0.0546 -0.019 2.0E-4 0.0081 -0.0151 0.0041 -0.002 0.0062 0.0355 0.003 -2.0E-4 -0.0185 0.0111 0.0025 -0.0172 0.0103 -0.0112 0.003 0.0273 0.0069 0.0201 -0.007 -0.0113 -0.0045 -0.0254 -0.0132 0.0056 0.0104
energy 0.0171 -0.0374 0.0054 0.008 -0.0114 0.0123 0.0051 -0.0297 0.0589 0.0169 0.0025 0.0065 0.0274 1.0E-4 0.0014 -0.0128 0.0341 0.0529 0.0315 -0.0077 0.0052 0.0291 0.0033 0.0256 0.0064 -0.0373 -0.0046 0.013 0.021 -0.0014 0.0079 -0.0173 -0.0109 -0.0319 0.0169 0.0205 -9.0E-4 -0.0103 0.0049 0.0339 -0.026 -0.0525 -0.0026 -0.0011 -0.0116 -0.0316 -0.0157 -0.0032 -0.0145 -0.0141 0.0028 -0.0151 0.0106 0.0303 -0.027 0.0128 -0.0118 0.0027 -0.0035 0.0303 0.0286 -0.0116 0.0509 -0.0292 0.0103 0.0112 0.0208 -0.0377 -0.0209 0.0062 0.0218 -0.0058 0.0202 -0.015 -0.0238 0.0189 -0.0404 0.0024 -0.0109 -0.0164 -0.0518 -0.0199 -0.008 0.0161 0.0143 0.0171 -0.0055 -0.0241 0.043 -0.044 -0.0026 0.0125 -0.0503 0.002 -0.0265 0.0184 0.0153 -0.0085 0.0206 -0.0029 0.0088 0.0106 0.013 -0.0012 0.0194 -0.0337 -0.024 0.0221 0.0132 -0.0082 0.0203 0.0532 0.0299 -0.0244 0.0237 -0.0027 -0.0233 0.0247 -0.0272 -0.0082 -0.0166 0.0015 -0.017 -0.0417 0.0465 -0.0192 -0.023 -0.0417 0.0267 0.0312 0.002 -0.0259 0.0042 -6.0E-4 0.0109 -0.0082 0.0443 0.0232 0.004 0.0394 0.0345 -0.018 0.0253 0.0306 -0.0065 0.0061 0.0379 -0.0178 -0.0055 -0.0053 0.0362 0.0484 -0.051 -0.0405 0.0191 0.0046 -0.0051 -6.0E-4 -0.0245 -0.0016 0.0069 0.0186 -0.0513 0.0104 -0.0057 -0.0048 -0.0144 -0.0217 0.024 0.005 0.0153 0.0095 -0.0052 -0.0028 -0.0094 0.0315 -0.0237 0.0138 -0.0122 0.0258 -0.0337 0.0037 -0.0242 -0.0209 0.0085 -0.0615 -0.0239 0.05 0.0287 0.0341 0.0413 0.0124 0.0332 0.0346 0.0142 -0.0163 0.0257 -0.0026 -5.0E-4 0.0124 -0.0509 0.0039 0.0082 0.0195 0.021 0.0046 0.0095 0.0174 0.002 -0.019 0.0441 0.0013 -0.0227 0.0052 0.0267 0.022 0.032 0.0123 -4.0E-4 0.0033 -0.0191 0.0152 -0.0236 0.0317 0.0413 0.0159 0.0083 0.0354 0.0217 -0.0277 0.0124 -0.0118 -0.0496 -0.017 0.005 0.0055 -0.0036 0.0042 -0.0178 -0.0449 0.0055 -0.0025 0.0096 -0.0024 -0.0334 0.0184 0.006 -0.0327 0.0409 0.0276 0.0332 -0.0435 -0.0273 -0.0227 0.003 0.0047 -0.0064 0.0128 -0.0046 0.0469 -0.0291 -0.0209 -0.0069 -0.0035 -0.0069 0.0123 0.0155 0.0228 0.0078 -0.0045 0.0183 0.0383 -0.0492 -0.0257 0.003 -0.0255 0.0098 -0.0136 -0.0042 -0.0101 0.0568 0.0124 0.0043 0.0048 9.0E-4 0.0049 0.0053 0.0375 0.005 0.0095 0.0228 0.0553 -0.0138 -0.0265 0.0014 0.0112 3.0E-4 -0.0027 0.012 0.0101
announcement 0.011 0.0056 3.0E-4 0.0107 0.0051 0.0162 0.0084 -0.0339 -0.0015 6.0E-4 -0.006 -0.0114 -0.0019 0.0261 -0.0047 0.0101 1.0E-4 -0.0024 0.0105 -0.0081 0.0078 -4.0E-4 0.0077 0.0109 -0.0 -0.0089 -0.0084 -1.0E-4 0.0053 -0.008 -0.0101 3.0E-4 -0.0146 -0.0333 -9.0E-4 0.0024 -0.0119 0.0 0.005 -0.0143 -0.0095 -0.0205 -0.0214 -0.0028 0.0132 0.0421 -0.0064 -9.0E-4 0.0033 0.0027 0.002 -0.006 0.0072 -0.0077 -0.0042 0.0034 0.0126 -0.0017 -0.0146 0.0181 -0.0018 0.0159 0.0304 0.0195 0.0183 0.0146 0.0018 0.012 -0.0098 0.0082 -0.0018 0.0121 -0.0094 0.0028 0.004 0.0247 0.0039 -0.0122 -0.0067 0.0085 0.0065 0.0014 0.0035 0.0093 -0.0082 0.0126 -0.0126 -0.0047 -0.0047 -0.0095 -0.0151 -0.0067 -0.0241 -0.0129 0.002 0.0093 0.0071 -0.0054 0.0035 0.0165 -0.0174 9.0E-4 0.0086 0.0077 -0.0016 -0.0054 -0.009 -0.0071 -0.0132 -0.0042 -0.0053 0.0079 0.0196 0.0134 0.0067 -0.0169 -0.005 -0.0045 -0.0112 -0.0086 0.0045 0.0029 0.0068 0.0372 0.011 0.0143 -0.0066 0.0011 0.0011 0.0348 0.0054 -0.0089 -0.011 0.0069 -0.0032 0.002 -0.0036 0.0174 -0.0015 0.0158 0.0082 0.0029 0.0027 -0.0083 -0.0183 0.0173 -0.0173 -8.0E-4 -0.0045 -0.005 -0.0048 0.0035 -0.0069 -0.0137 0.007 0.0073 0.009 -0.0045 -0.0124 0.0063 0.0138 -0.0028 0.0039 6.0E-4 0.0017 0.0188 0.0042 0.0037 -0.0077 4.0E-4 0.0122 -0.0063 -0.0095 0.0133 0.0033 0.0045 0.0 -0.0024 -0.0265 -0.0049 -0.007 -0.0109 0.0161 6.0E-4 -0.0086 0.0039 0.0039 0.0152 0.0058 -0.0 -0.0185 0.021 -0.0194 -0.0047 -0.008 -0.001 -0.0151 -0.0085 -0.0116 -0.0062 -0.0283 0.037 0.0019 0.0112 -0.008 -0.002 0.0046 -0.0127 -0.012 -0.0151 0.028 0.0092 -0.0085 -0.0025 -0.0014 -0.0107 -0.0072 -0.0084 0.0056 -0.0245 -0.0012 -0.0179 -0.0036 0.0318 0.0164 -0.0031 -0.0182 0.0164 -0.0047 0.0069 -0.0093 -0.0484 2.0E-4 -0.0061 0.0221 -0.0106 -0.0018 -0.0195 -1.0E-4 -0.0089 0.0245 -0.0066 0.0098 -0.0024 -0.016 -0.0051 -0.0158 -0.0056 0.0104 3.0E-4 0.0297 -0.0104 0.022 -0.0049 9.0E-4 -0.0128 -0.0045 -0.0037 0.0197 -0.0039 -0.0104 0.0041 0.0041 -0.0059 0.0055 0.0071 0.0014 -0.0059 -9.0E-4 -0.0125 0.0081 0.014 -0.0358 0.0075 2.0E-4 -0.0091 -0.0072 0.0022 -0.008 -0.0028 0.0028 -0.0103 0.0055 0.0084 -0.0042 -0.0155 -0.006 0.0041 -0.0103 0.0014 0.0167 0.0022 0.0166 0.0027 0.0069 0.0077 0.0102 -0.0127 -8.0E-4 0.0118
mile -0.0276 -0.0508 0.02 0.036 0.0067 0.0763 -0.0331 -0.0473 0.0175 0.0176 -0.0177 -0.0784 -0.004 0.0169 -0.0065 -2.0E-4 0.0178 -0.0065 0.0156 -0.021 0.0142 -0.027 0.0527 0.0337 0.004 0.0095 0.0072 0.0322 0.0034 0.0175 -0.0459 0.0578 -0.0185 -0.1097 -0.0271 -0.0857 0.0392 0.0334 -0.0118 -0.0236 0.0264 -0.0439 -0.0038 -0.006 0.0124 -0.021 0.0173 -0.0386 -0.0643 0.0606 0.0595 0.0306 -0.0159 0.0247 -0.0717 0.0077 0.0243 0.0122 -0.0171 -0.0563 -0.0281 0.0372 0.0563 -0.0161 -0.0235 -0.0206 -0.0184 -0.0 -0.0093 -0.0349 0.0349 -0.0432 -0.0099 -0.0276 0.0538 0.0085 -0.0273 -0.0108 0.0085 0.0054 -0.0463 -0.1166 -0.0619 0.032 0.018 0.0459 0.004 0.0074 0.0028 -0.0415 0.0689 0.0187 -0.0595 0.0178 0.0271 0.0311 -0.0359 0.0079 0.0205 -0.0198 0.0496 -0.0085 -0.0156 -0.0321 -0.0115 5.0E-4 0.0429 -0.0105 0.0421 -0.0118 0.0078 0.0843 0.0364 -0.0376 0.0156 0.0162 -0.0087 0.0312 -0.0216 -0.0308 0.015 0.014 -0.0132 -0.0127 7.0E-4 -0.0066 -0.0296 -0.1562 0.0293 -0.0646 -0.0065 0.0567 0.0253 -0.0266 0.0031 -0.0479 0.0404 0.0074 -0.0044 -0.0242 -0.023 -0.1 0.0123 -0.0278 -0.085 0.0373 0.0254 -0.0274 -0.0544 -0.0512 0.0242 0.0113 -0.0179 -0.0041 0.0705 -0.0097 0.0468 -0.0485 -0.0241 -0.0098 0.015 -0.0421 0.0425 0.0165 -0.0099 -0.0029 0.0081 -0.0296 0.0198 0.0164 0.0096 0.0161 0.027 0.0745 0.0419 0.0478 0.0152 -0.0115 -0.0022 0.0406 7.0E-4 -0.0393 -0.0026 0.0215 -0.0293 0.0313 -0.0346 0.1054 0.0018 -0.0121 0.0154 -0.0469 0.0323 -0.0222 0.0075 0.006 -0.0375 0.048 -0.0214 -0.0182 -0.0392 -0.0266 0.0157 -0.018 0.022 -0.0212 -0.007 -0.0156 0.004 -0.0364 0.0998 -0.1017 -0.0583 1.0E-4 0.0094 -0.0149 -0.0042 -0.0058 0.02 -0.0711 -0.0078 -0.0053 0.0053 0.0532 -0.0444 0.0259 -0.0117 0.0485 -0.003 -0.0274 -0.012 -0.0411 0.0152 -0.0278 -0.0531 0.0035 0.0574 0.0187 0.0173 0.048 0.051 0.0323 0.0581 -0.0879 -0.0522 0.0043 0.0697 0.0349 -0.0176 0.0114 -0.0271 -0.008 -0.0235 0.009 0.0314 -0.0073 0.0142 -0.0051 0.0129 0.0284 0.0107 0.0361 -0.0189 -0.139 0.0386 -0.0231 -0.0146 -0.0139 0.0192 0.0344 0.0248 0.0711 -0.0605 -0.034 -0.0075 -0.0604 0.0206 -0.0217 0.0122 -0.037 -6.0E-4 0.0279 -0.0019 0.0357 -0.0135 -0.0172 -0.0016 0.0308 -0.011 0.0072 0.0674 -0.0055 -0.0229 -0.006 -0.0167 0.0303 -0.0174 -0.0061 -0.0345 -0.0095
airport -0.0106 -0.0266 0.0082 -0.0201 0.0011 0.0174 0.0347 -0.0422 0.0108 0.032 0.0233 -0.0369 -0.0247 0.0029 0.0112 0.0096 0.0459 -0.0049 0.0355 0.0183 0.039 -0.02 -0.0024 0.0226 -0.0032 -0.0019 0.0108 0.0139 -0.0145 9.0E-4 0.0292 0.0261 -0.0374 -0.0094 0.004 0.0239 -0.0017 0.0184 0.0138 -0.0196 -8.0E-4 -0.0496 0.0098 0.0089 0.005 -0.0048 0.0446 0.0147 -0.0459 0.0024 0.0216 -0.0179 2.0E-4 0.0067 -0.0342 -0.0043 -0.01 -0.0074 -0.0255 -0.0151 0.0105 -0.0286 0.0348 0.0311 0.0143 -4.0E-4 0.0242 -0.0456 -0.0092 0.0114 0.0371 0.0066 0.0051 -0.033 -0.0257 -0.027 -0.0112 -0.0047 -0.0153 0.0104 0.0061 0.0221 -0.0031 0.0296 -0.0031 -0.0146 -0.0024 -0.0335 -0.0129 9.0E-4 -0.0014 0.0128 -0.0401 0.0083 0.0301 0.0466 0.0016 -0.0104 -0.0033 -0.013 0.0328 0.0187 -0.0327 -0.0203 0.0118 -0.0438 -0.0206 -0.0071 -9.0E-4 0.0155 0.0025 0.0597 0.0344 0.025 0.0086 0.0021 -0.0287 -0.0301 -0.0037 0.012 0.0295 -0.0286 -0.0209 0.0224 0.0058 -0.007 -0.005 -0.0478 -0.0158 0.0201 0.0178 -0.0025 -0.0081 4.0E-4 0.0032 -0.0199 0.0129 0.0135 -0.0195 0.0089 -0.0117 -0.0017 0.0034 -0.0027 -0.0296 0.0217 -0.0159 -0.0265 -0.023 0.0 -0.0017 0.0165 -0.0134 -0.0056 0.0019 -0.0033 -0.0114 -0.0 -0.0499 0.0168 0.0039 -0.0292 -0.0091 -0.0082 -0.0195 -0.0088 0.0436 -0.0185 0.0277 0.0571 0.0088 0.0133 -0.0077 -0.0217 0.0144 0.0216 -0.0287 -0.0204 1.0E-4 0.0325 0.0095 -0.0043 0.0362 -0.0092 -0.0068 0.0081 0.0027 0.0427 0.0032 -0.0541 -0.0137 0.0218 -0.005 0.0166 0.0078 3.0E-4 -0.049 -5.0E-4 0.0016 -0.0306 -0.0633 0.0372 -0.0093 -0.0122 3.0E-4 0.0143 -0.0161 -0.0065 -0.0436 -0.0126 0.0463 -0.024 0.0037 0.0388 -0.0182 0.0149 0.0067 -0.0245 0.029 -0.029 0.0049 -0.028 0.0085 0.0392 -0.0239 0.0387 -0.0277 0.0116 0.0153 -0.0058 -0.0226 -0.0285 -0.0222 -0.0094 0.005 -0.0111 0.0126 0.0196 0.0125 0.0051 0.0292 -0.0185 0.0252 -0.0168 0.0069 -0.0027 0.0409 -0.0036 -0.0196 0.0019 -0.0119 -0.0158 -0.0063 -0.005 -0.0109 0.0141 0.0038 0.0092 0.0118 0.0107 -0.0104 0.0083 0.0102 -0.0264 0.001 -0.0244 -0.0461 -0.0105 0.0032 -0.0016 -0.0162 0.0314 -0.0519 -0.0031 -5.0E-4 -0.0119 -0.012 0.0135 0.0171 -0.0416 0.0224 -0.0284 -0.0172 0.0189 0.0062 -7.0E-4 -0.0122 -0.0171 -0.0135 -0.0243 0.0212 -0.0053 0.003 0.0072 -0.0033 0.005 0.0042 0.0177 0.0156 -0.0346
population 0.0077 -0.0091 -0.0017 9.0E-4 -0.0022 0.0091 -0.0082 -0.0216 0.0133 0.0055 -0.0058 -0.0139 -4.0E-4 -0.0029 -0.004 -0.0054 0.0122 -0.0011 0.0061 0.0184 0.0077 -0.0268 -0.0054 0.014 3.0E-4 -0.0117 -0.0098 -0.0083 0.006 0.014 -0.0057 0.0161 0.0054 -0.0065 -0.011 0.0152 0.003 -0.0039 0.0021 -0.006 -0.0065 -0.0257 0.0102 -0.0262 0.013 0.0014 -0.0121 -0.0027 -0.006 0.0183 0.007 -6.0E-4 -0.0039 -0.0045 2.0E-4 0.012 -0.0087 0.0133 -0.0073 -0.0029 0.0099 -0.006 0.036 0.0033 0.01 -0.0049 -0.0066 0.0056 0.0014 -0.0158 -0.0025 -0.0075 0.0103 -0.0198 0.0068 -0.0038 0.0011 0.0069 -0.0056 -0.0163 0.0052 0.0058 -0.0077 0.0175 0.0035 0.0138 -0.0084 -0.0046 -0.0031 0.0102 -0.0136 0.0141 -0.0171 -2.0E-4 -0.0262 0.027 -0.0036 0.0016 0.0123 0.015 0.0051 -0.0059 -0.0097 -0.0068 0.0148 -0.0223 1.0E-4 -0.0112 -0.0052 9.0E-4 -0.0175 0.0129 0.0258 -0.0059 0.003 0.0 0.0175 -0.0022 -0.0158 0.0123 -0.0035 0.0114 0.0029 -0.0115 0.0207 -0.0091 0.0032 -0.0423 -0.0087 0.0182 0.0069 -0.0149 0.0228 2.0E-4 0.0193 0.0178 0.0041 0.0244 0.0015 4.0E-4 -0.0115 -0.0148 0.0127 0.0131 0.0059 -0.0083 -0.0039 0.0141 -0.007 -0.002 0.0136 0.0202 -4.0E-4 -0.0191 0.0222 0.0078 0.0039 0.0153 -0.019 -0.009 -0.0114 0.0053 -0.0109 0.0181 -0.0039 0.0117 0.0021 -0.0061 -0.0058 6.0E-4 -0.0137 0.0099 0.0119 0.0086 -0.0107 0.0223 0.0126 -0.0015 -0.0028 0.0036 -0.0145 0.012 1.0E-4 0.0154 0.0065 -0.015 0.0123 0.022 -0.0144 1.0E-4 -0.0048 0.0038 -0.0059 8.0E-4 0.0267 -0.0016 -0.0122 0.0065 -0.0084 0.002 -0.0368 0.0025 -0.0024 0.0152 -0.0207 0.0153 5.0E-4 -0.0088 -0.0 -0.0084 0.0187 -0.0389 -0.0041 0.005 -0.0011 0.0111 -0.002 -8.0E-4 0.0195 0.0104 0.0024 -0.0108 -0.0067 0.0324 0.0016 -0.0021 0.0177 0.0067 6.0E-4 -0.0174 -0.0032 -0.0076 -0.0224 0.0085 0.013 0.0167 0.0 0.018 0.0056 -0.004 0.0204 0.0098 -0.006 0.0061 -0.0011 0.0139 0.0116 -0.0196 -0.0098 -0.0419 0.0198 -0.0127 -0.0068 -0.0377 0.0104 0.0133 -0.009 0.0152 0.0165 -0.0083 0.0096 -0.0163 0.0083 -0.0095 0.0017 0.007 -0.0073 0.0049 0.0202 0.009 -0.0106 0.013 -0.0297 -0.0036 0.005 8.0E-4 -5.0E-4 0.0098 -0.0162 -0.021 0.0143 -0.0039 -0.0088 0.0128 -0.0047 0.0287 -0.0121 -0.0049 0.0071 -0.005 -2.0E-4 0.0234 -0.0073 0.0016 0.0075 0.0022 0.0074 4.0E-4 -0.0031 0.0071
planning 0.0139 -0.0305 -0.0275 0.013 0.0028 -0.0016 -0.008 -0.033 1.0E-4 0.0072 0.0143 -0.007 -0.002 0.0263 0.0047 -0.0018 0.0343 -0.0042 0.0137 -0.0088 -0.0143 0.0215 -0.0044 0.0216 -1.0E-4 -0.0119 -0.0154 0.0068 -0.0013 0.0095 -1.0E-4 -0.0107 -0.0045 -0.0322 0.0129 0.0071 -0.0145 0.0082 -0.0021 -0.0257 -0.0052 -0.0453 -0.003 -0.0122 -0.0049 -0.0064 0.0129 -0.0079 -0.0033 -0.0094 0.0084 -0.0183 -0.0163 0.0072 -0.031 0.0076 -0.0074 -0.0141 -0.0079 0.0081 0.0079 0.0077 0.0243 0.0127 0.0102 8.0E-4 0.01 -0.0183 -0.0116 -0.0022 0.0108 0.0048 0.0051 -0.0119 0.0114 -0.0071 0.0084 -0.0209 -0.0145 0.0081 -0.0318 0.0021 -0.0148 0.0124 -0.0083 0.0093 0.0069 -0.0084 0.0106 -0.0052 -4.0E-4 0.0133 -0.0364 8.0E-4 -0.0012 0.0037 -0.0032 0.0173 -0.0035 0.0242 0.0173 -0.0017 -1.0E-4 -7.0E-4 0.0075 -0.0292 0.0047 0.0128 -0.0025 -8.0E-4 -0.0152 0.0058 0.0268 0.0118 0.0174 -0.0216 -0.0208 -0.0135 -0.0156 0.0021 -0.0048 0.0085 0.0026 0.0208 0.0301 0.019 0.0076 -0.0383 -0.0022 0.0589 0.0085 0.0034 0.0231 0.0056 -0.0143 0.011 0.0108 -0.0252 1.0E-4 0.0052 8.0E-4 -0.0113 -0.0136 0.0293 -0.0029 0.0035 -3.0E-4 0.0014 -0.002 2.0E-4 0.036 0.026 0.0064 -0.0522 0.0146 0.0116 0.0171 -8.0E-4 0.0099 -0.0143 0.0186 0.0036 -0.0206 0.0156 -0.0085 0.0065 0.0175 -0.0084 0.0215 0.0254 0.0307 0.0024 -0.0152 -0.0233 -0.0117 0.0241 0.0025 0.0018 -0.0205 0.0116 0.0106 -0.0131 0.0049 0.0167 0.0071 -0.0252 6.0E-4 0.0291 -0.0013 -0.0148 -0.015 0.0108 0.0134 -0.0077 0.0056 0.0027 0.0046 0.001 0.003 -0.0022 -0.0598 0.0302 0.0067 0.0227 -0.0231 0.0046 -0.0306 -0.0048 -0.0068 -0.0166 0.028 0.0139 0.0055 0.0043 -0.0101 -0.0057 0.018 -0.0206 -0.0075 -0.0279 -0.0226 -0.0147 0.0115 0.041 -0.001 -0.0025 -0.0024 0.0329 0.0021 0.005 -0.0076 -0.0259 -0.021 0.0041 0.0145 -2.0E-4 6.0E-4 0.0088 -0.0033 -0.0021 0.0351 0.0113 -0.0093 0.0037 -0.015 0.0105 -0.0139 -0.0125 0.0033 0.0178 0.027 -0.0035 -0.0068 -0.0063 0.0138 0.008 -0.0026 0.0148 0.0182 0.0355 0.0091 0.0038 -0.0276 0.0419 -0.0016 0.0015 -0.0195 0.0206 0.0038 -8.0E-4 -0.0037 0.0243 -0.048 -0.0125 -0.0127 -0.0142 -0.0055 -0.003 0.0052 0.0059 0.0148 -0.0078 -0.01 0.0036 0.0119 -0.0083 0.0176 -0.017 -0.0029 -0.0047 2.0E-4 0.0109 0.0015 -0.0021 0.0179 0.0031 -0.019 0.0085 -0.0096 -0.0011
canyon 0.008 -0.0452 -0.0188 0.0299 -0.0055 -0.0014 -0.0269 -0.0606 -0.0241 0.0297 -0.0093 -0.032 -0.0285 0.0231 -0.0253 0.0029 0.06 0.0106 0.0126 -9.0E-4 0.0028 -0.0242 -0.0104 0.0266 -4.0E-4 -0.0198 -0.0016 0.0249 -0.0089 0.0262 -0.0193 0.0241 0.0096 0.003 -0.0116 -0.0069 0.0557 -0.0132 -0.0072 -0.0124 0.0161 -0.0585 0.0257 -0.0379 -0.005 -0.0025 0.0018 0.0095 -0.0095 0.0145 0.0297 0.0281 0.0021 0.0036 -0.0506 -0.0177 0.02 -0.0124 -0.0088 0.0259 0.0195 0.0255 0.062 -0.0178 0.0074 0.004 -0.0057 -0.0029 0.0037 0.0207 0.0199 0.0085 -0.01 0.0109 0.0306 -0.0162 0.0353 -0.0155 -0.018 -0.0135 -0.0031 -0.0068 -0.0241 -0.0054 0.0079 -0.0344 0.0111 -0.0253 0.0199 -1.0E-4 0.0172 -4.0E-4 -0.0328 0.0068 0.002 0.0551 -0.0084 -0.0035 -0.0177 -0.0378 0.008 0.0025 0.0172 0.0428 0.0174 -0.0603 0.0225 -0.0128 -0.0126 -0.0032 0.0315 0.0182 0.0318 -0.0118 -0.0038 0.0017 0.0063 0.0162 -0.0224 0.0186 -0.0095 -0.018 -0.0103 8.0E-4 0.0048 -0.026 0.021 -0.0345 -0.0122 0.0284 0.0094 -0.0203 -0.01 0.0343 -0.0139 -5.0E-4 -0.0292 0.0094 -0.0312 0.0057 -0.0236 -0.0296 0.0151 0.0056 0.0083 -1.0E-4 -0.0164 0.009 -0.0045 -0.0425 -0.0101 0.0165 0.0039 0.0158 0.032 -0.0059 0.0029 -0.0137 0.0192 0.0171 3.0E-4 -0.0027 -0.0191 0.0125 0.0132 0.0041 -0.0188 -0.0208 -0.0048 0.0075 0.008 -0.035 0.029 0.0385 0.0185 0.0199 0.044 0.0253 -0.021 -0.0289 0.005 0.0026 -0.0098 -0.019 -0.0015 -0.0059 0.0254 0.0458 0.0301 -0.0158 0.048 -0.0111 -0.0183 0.0481 -0.0507 0.0435 -0.0209 -0.0065 0.0014 0.0103 -0.0852 -0.0019 -0.0257 0.0169 0.0615 -0.0237 -0.0181 0.0291 -0.0276 -0.0258 0.0487 -0.0167 0.0186 -0.0207 0.026 -0.0093 0.0228 -0.0 0.0357 -0.0307 -0.0065 -0.0175 -0.0387 0.0236 -0.0517 0.0195 -0.0118 0.0111 -0.0074 -0.0098 -0.0264 -0.0275 -0.0313 0.0381 -0.0103 0.0086 0.0043 0.0181 -0.0021 0.0082 0.0278 0.0357 0.0307 5.0E-4 0.012 0.037 0.0136 0.0424 -0.0289 0.0145 0.0023 -0.0156 0.0033 0.0133 0.0067 -0.0048 -0.0277 0.0257 0.0295 0.0223 0.0286 0.0386 -0.0185 -0.0294 0.026 -0.0163 0.0134 -9.0E-4 0.0555 0.0241 -0.0206 0.0264 -0.0584 -0.0042 0.0514 -0.0148 -0.0138 0.0314 0.0079 -0.0115 0.0066 0.0057 0.0165 0.0389 -0.0307 -0.0135 -0.0303 -0.0087 -0.0128 -0.0111 -0.0195 0.0224 -0.0082 -0.0079 0.0027 0.0065 0.0476 0.0081 -0.0027 0.0399
delay 0.004 0.0113 -0.0117 0.0218 -0.0048 0.0322 -0.0158 -0.0632 0.0221 0.0047 -0.0365 -0.0224 -0.0173 0.0525 0.0132 0.0012 0.0199 -0.011 0.0445 -0.0021 -0.0017 -0.007 -0.0132 0.0371 -0.0415 0.0044 0.0133 0.0384 -0.0017 -0.0229 -0.0153 0.0066 -0.0376 -0.0521 -0.0245 -0.0152 -4.0E-4 0.0267 -0.0152 0.0042 -0.0195 -0.0446 -0.0273 -0.0172 -0.026 0.0133 0.0116 0.0298 -0.0336 0.0329 -0.0418 -0.0254 -0.005 -0.0034 -0.0375 0.0139 0.0407 -0.0067 -0.0212 0.0188 -0.0047 0.0037 -0.0133 0.0043 -0.0021 0.0127 0.0154 -0.0047 -0.06 0.0126 -0.0091 0.0061 0.0333 -0.04 -0.0032 0.0144 0.028 -0.0446 -0.0328 -3.0E-4 -0.0264 -0.0263 -0.0321 0.0478 0.0164 0.0182 0.0021 -0.0078 -0.0404 -0.0166 0.0412 -0.0261 -0.0638 -0.0427 -0.0089 -7.0E-4 0.0029 -0.0124 -0.0201 -0.0062 9.0E-4 -0.032 0.0034 -0.0043 0.0361 -0.0111 -0.0089 -0.044 0.0107 0.0059 0.0053 0.036 0.0396 0.0489 0.0287 -0.0181 0.0235 0.0164 -0.0183 -0.0266 0.0305 0.003 0.0174 0.0628 0.062 0.0062 0.0132 -0.0795 0.0081 0.059 -0.0123 -0.0097 -0.0094 0.0141 0.0273 0.0102 -0.0096 -0.0389 0.0508 -0.0038 0.0369 -0.0233 -0.0063 -0.0269 -0.0199 -0.01 -0.0323 -0.0128 -0.0126 -0.003 0.0409 0.0364 -0.018 -0.0042 0.047 0.0089 0.0543 -0.0272 0.0212 -0.02 0.0179 0.0139 -0.0384 -0.043 0.0067 0.0274 0.025 0.0276 -0.0057 0.0081 0.0279 0.0267 0.011 -0.019 0.0199 0.0265 -0.0012 -0.013 -0.0131 0.0252 -0.029 -0.0062 0.0112 0.0111 -0.0306 -0.0428 -0.024 0.0563 0.0168 -0.0355 0.0147 0.0178 -0.0055 -0.0271 0.0152 0.0038 -7.0E-4 0.0087 0.074 0.0018 -0.1137 0.0263 -6.0E-4 0.0118 0.0204 0.0145 0.0115 -0.0252 -0.0157 -0.0346 0.0295 0.0135 0.0717 0.0188 0.0654 0.0075 0.0231 -0.021 0.0323 -0.0834 0.0053 0.0191 0.0073 0.0598 0.0321 -0.0197 -0.023 0.0409 -0.0146 0.0013 -0.0067 -0.0764 -0.0499 -0.0323 0.0824 -0.0482 0.0014 0.0083 0.0199 -0.0075 0.0841 0.0182 -0.0241 -0.0052 -0.0574 0.0105 0.0313 0.0071 0.0153 0.0018 -0.0261 0.0166 0.0494 0.0276 0.0125 -0.0114 0.0221 0.0397 -0.0033 -0.0084 -0.0136 0.0013 -0.0351 -0.0238 -0.0135 0.005 -0.0385 0.0039 -0.0161 -0.0073 0.0586 0.0355 -0.0765 -0.0275 0.0164 -0.0615 0.0423 0.0126 -0.0097 -0.0213 0.0292 -0.0066 0.0055 -0.0143 0.0039 -0.0025 -0.0122 0.0465 0.0246 -0.0235 -0.0143 -0.0259 -0.013 0.0042 0.0394 -0.0259 -0.0441 -0.0039 -0.0043 0.0282
size -0.0084 0.0341 -0.0192 -0.0187 -0.0346 -0.0093 0.0066 -0.0536 0.0418 -0.0113 -0.0032 -0.0346 0.0016 0.0197 0.0135 0.0122 0.0153 0.0144 0.0444 -0.0051 0.0461 -0.031 -0.005 0.0667 0.0151 -0.0122 -0.0185 -0.052 0.012 0.0241 -0.029 2.0E-4 0.0238 -0.0594 -0.0472 0.0034 0.0165 -0.0134 0.0123 0.008 0.0055 -0.0743 -0.0012 -0.0611 -0.0219 0.0158 0.0079 -0.0366 -0.015 0.0663 0.0017 -0.0352 0.0334 0.0043 -0.0346 0.0136 0.0296 0.0193 -0.0126 -0.0514 -0.0343 0.0019 0.1082 -0.0025 0.0738 0.0064 0.0122 0.0228 -0.0106 0.0015 0.0238 -0.0107 0.0236 -0.0133 -0.0051 -0.0125 -0.0215 -0.0108 0.0187 0.0119 -0.0461 -0.0461 0.0016 0.0378 0.0248 -0.0287 0.0138 -0.0221 6.0E-4 0.0113 0.0264 -0.0503 -0.0527 0.0029 -0.021 0.011 -0.0856 -0.0178 0.0484 0.0063 0.02 -0.0128 0.0757 0.006 0.0256 -0.0152 -0.0267 -0.0488 0.027 0.0327 0.0253 0.0426 0.0443 -4.0E-4 0.0217 -0.0157 0.0111 -0.0012 -0.0403 0.027 -0.0051 -0.0053 0.0146 -0.0211 0.0267 -0.0337 -0.024 -0.1116 0.0288 0.0621 -0.0075 -0.0797 0.0038 0.0023 -0.0131 -0.0529 -0.0245 0.0467 0.0098 -0.0046 -0.0098 0.0135 0.0216 0.0028 0.0326 -0.0037 0.0216 0.0011 -0.0137 -0.0326 -0.046 0.0318 0.0139 -0.0522 0.0356 0.0398 -0.0046 2.0E-4 0.0246 -0.0107 0.0043 -0.004 -0.0687 0.0372 0.034 -0.0087 0.0199 -0.0197 -0.0571 0.0285 -0.0103 0.0229 -0.0341 -0.0231 -0.0217 0.0737 -0.0376 0.0107 -0.0131 0.0148 0.0289 -0.0345 0.0329 0.0408 -0.0158 -0.087 7.0E-4 0.0707 0.0317 -0.029 0.0052 0.0028 -0.0086 -0.0602 0.0038 0.0053 -0.0487 0.0141 -0.0046 0.0254 -0.0888 -0.0243 0.0272 0.0374 0.0383 -0.0167 -0.0079 0.0121 9.0E-4 -0.0129 0.0908 -0.0693 -0.0573 0.0143 0.0651 -0.0044 0.0235 -0.0015 0.0163 0.0594 0.0269 0.0237 -0.0033 0.0605 0.0198 -0.0303 -0.0026 0.0276 -0.0148 -0.0223 -0.044 -0.0441 -0.0894 0.0294 0.015 0.004 0.0407 -0.0572 0.01 0.0291 0.0315 0.0015 -0.0141 -0.0077 -0.063 0.0373 0.0181 -0.045 0.0018 -0.1046 -0.0026 -0.0087 -0.0338 -0.0408 0.0055 -0.007 0.0034 0.0294 0.0298 -0.0225 -0.0256 -0.0543 0.0096 -0.0278 0.0246 0.0227 -0.0511 -0.0013 0.012 0.0666 -0.0113 0.0642 -0.08 -0.0398 0.0828 -0.0377 -0.0256 0.019 -0.0167 -0.0167 0.0149 0.0278 0.028 0.0384 0.0626 4.0E-4 -0.0271 0.0453 -0.0383 -0.013 -0.0694 0.032 0.0042 -0.0322 0.0713 -0.0321 -0.008 -0.0273 -0.0098 -0.0035
peace 0.011 -0.0433 6.0E-4 -0.0306 -0.0549 0.0074 -0.0078 -0.0479 0.0604 0.0465 -0.0021 -0.0486 -0.0099 0.0343 0.0265 -0.0114 0.069 -0.0225 0.0354 -0.0154 -0.0327 -0.0377 -0.009 0.0306 0.015 -0.002 -0.0071 -0.003 0.01 -0.002 0.0301 0.0223 -0.0439 -0.04 -0.0058 0.04 0.0028 0.0126 0.0417 0.0136 -0.0316 -0.0806 0.0012 -0.0113 -0.0033 -0.0419 -0.0046 0.0095 -0.0143 0.054 0.0121 -0.0021 -0.0088 -0.0165 -0.0581 -0.0027 -0.0342 -0.0034 -0.0228 0.0221 -0.0214 -0.0157 0.023 -0.0333 0.034 -0.0077 0.037 -0.0403 0.0183 -2.0E-4 -0.013 6.0E-4 -0.0038 -0.0508 0.0071 -0.0123 0.0152 -0.0134 0.0053 0.0369 0.0027 -0.0061 0.0175 0.0427 -0.008 0.0122 0.0148 -0.0221 -0.0242 -0.0195 -0.0054 0.0371 -0.06 0.001 0.0123 0.0154 -0.0024 0.0018 0.0441 -0.0327 0.0073 0.0187 0.0637 -0.0484 0.0067 -0.0573 0.0132 0.0249 -0.0443 -0.0118 -0.0416 0.0623 0.031 0.016 -0.0061 8.0E-4 0.0207 -0.0215 -0.0076 0.0039 -0.0146 -0.0088 -0.0416 0.0193 -4.0E-4 0.0149 0.0022 -0.0592 0.0081 0.0675 -0.0041 -0.0249 -0.0045 0.0541 -0.0094 -0.0096 0.0284 0.0041 -0.0161 0.0062 0.04 -0.023 0.0204 -0.0031 0.0166 0.0361 -0.0108 -0.0242 0.0124 -0.0045 0.0614 0.0329 0.0056 -0.041 -0.0011 -0.0238 -6.0E-4 0.006 -0.0053 -0.0556 0.0496 -0.0373 -0.0679 0.0104 -0.0548 -0.0182 -6.0E-4 0.0369 -0.0207 0.0278 -0.0114 -0.0022 0.026 -3.0E-4 -0.006 0.0244 0.0154 0.0091 -0.0083 -0.007 -0.0389 0.041 0.0341 -0.0199 -0.0078 0.0043 0.009 0.0599 0.0586 -0.0217 0.0286 0.0268 -0.0035 0.0145 0.0275 0.019 0.0393 0.0363 -0.0104 0.0403 -0.0837 0.0403 0.0123 -0.0317 -0.0277 -0.0223 0.0061 -0.0026 0.0624 0.0129 0.039 -0.0135 0.0052 0.0231 0.0267 -0.0062 0.0267 -0.034 1.0E-4 -0.0479 0.0369 0.001 -0.0029 0.05 0.0182 -0.0056 -0.016 0.0541 0.0086 -0.0392 0.0253 -0.0405 -0.0264 -0.0459 0.0176 -0.0081 -0.0411 -0.0277 -0.0077 0.0262 0.0395 0.027 -0.0306 -0.0132 -0.0262 0.0286 0.0166 -0.021 0.0126 0.0073 0.0466 -0.0018 -0.0169 0.0014 0.0102 7.0E-4 0.0175 0.0097 0.0291 -0.0537 -0.0127 0.0223 0.031 -0.0048 -0.0178 -0.01 0.0514 0.0233 -0.0049 -0.0183 0.0173 0.0364 -0.0622 -0.03 -0.0234 -0.0163 -0.0059 0.0073 0.0015 0.0052 0.0599 -0.0132 -0.0407 -0.0129 -0.003 -0.0086 -0.0179 0.0345 -0.0257 0.0412 0.0042 0.0169 -0.0147 -0.0128 -0.0043 0.0014 0.0591 0.0287 -0.0941 0.0183
science -0.0276 -0.0298 -0.0128 -0.0042 -0.0049 -0.0461 0.0099 -0.0409 0.0293 0.0166 -0.0093 -0.016 0.0094 5.0E-4 0.0096 -0.0146 0.0546 0.0248 0.0086 0.0087 -0.0129 0.0282 0.022 0.0247 -0.0158 -0.0109 -0.0034 0.0143 -8.0E-4 0.0011 0.014 -0.002 0.0284 -0.0229 0.0207 0.0171 0.01 -0.0187 0.0057 -0.0028 -0.0299 -0.0592 -0.0166 0.0115 0.0024 -0.0256 -0.0169 0.0103 -0.0094 0.0019 -0.0046 0.0253 0.009 -0.0061 -0.0164 0.0276 0.0099 0.0054 0.0134 0.025 0.0112 0.0184 0.0395 -0.0058 0.0218 -0.0096 -0.0061 0.0104 0.0131 0.0095 0.0252 -0.0098 0.0044 0.0112 0.0178 0.0235 0.0022 0.0042 0.0233 0.0012 -0.0173 0.0103 -0.0199 0.0169 -0.0234 0.0193 -7.0E-4 -0.0019 0.0082 0.0164 0.0221 0.0231 -0.0377 0.0051 0.019 0.0261 0.0334 0.0045 -0.0117 0.0212 -0.0116 -0.0038 0.0096 -0.0096 -0.0061 -0.0367 0.0202 0.0274 0.0294 -0.0059 -0.0256 0.0391 0.0122 0.0094 0.0053 0.0027 0.0105 -0.0075 -0.0195 0.008 -0.0091 -0.0076 -0.0308 -0.0084 0.0224 0.0088 -0.0469 -0.0279 -0.009 0.0575 -0.0033 0.0019 0.0061 0.0146 0.0101 -0.0151 0.0199 -0.0044 4.0E-4 -0.0032 0.019 -0.025 -0.0021 0.0065 -0.0102 -0.0172 -0.0269 0.0028 -0.0053 -0.0163 0.0312 0.0217 -2.0E-4 -0.0385 0.0034 0.0227 0.0197 0.0176 -0.0049 -0.0058 0.0153 0.0122 -0.0447 -0.0062 0.0104 0.0043 -0.0261 0.0182 0.0021 -0.0058 0.0149 -0.0092 -0.0061 -0.0055 0.0356 0.0267 -0.0034 0.0344 -0.0109 0.0116 4.0E-4 0.0132 0.0013 -0.0132 0.0024 -0.0195 0.0202 0.0481 0.0094 -1.0E-4 0.0059 0.0406 -0.0084 -0.0219 0.0055 -0.0015 -0.0413 -0.0031 -0.0057 -0.0037 -0.0614 -6.0E-4 0.008 -0.0163 0.0101 0.0079 0.0012 -0.0164 0.0103 7.0E-4 0.0467 0.0041 -0.0141 0.0049 0.0065 0.028 0.0063 -0.0159 -0.0201 -0.0125 -0.0079 0.0305 -0.0345 0.0407 -0.0029 0.0031 0.0269 0.0442 0.0102 -0.007 2.0E-4 -0.0148 -0.0189 0.0018 6.0E-4 0.0159 -0.0038 -0.0064 -0.0011 -0.0086 0.0122 -0.0228 0.012 0.0085 -6.0E-4 0.0279 -0.0104 -0.0079 -0.0049 0.0094 0.0306 0.017 0.011 -0.0173 0.0032 0.0125 -0.0063 0.0141 0.0167 0.007 -0.006 0.0167 0.0089 0.0053 -0.0029 -0.0038 0.017 0.0185 0.0359 0.0051 0.0227 0.0323 -0.0451 -0.0087 -0.0059 -0.0076 1.0E-4 4.0E-4 0.0059 -0.0236 0.0446 -0.0196 0.0025 -0.0172 -0.0143 -0.0017 -0.0128 -0.002 0.0043 -0.003 -0.0288 0.0114 -0.0105 -8.0E-4 -0.0178 0.0057 -0.0131 0.0057 0.0141 0.0059
dawn -0.027 -0.0672 0.0241 -0.0036 0.0049 0.0117 0.0451 -0.0745 0.0879 0.0193 0.0139 0.0134 -0.0155 0.0209 0.0272 -0.0295 0.0832 -0.0489 0.0294 0.0077 0.0039 0.0018 -0.0606 0.0045 -0.0069 0.0036 -0.0054 0.0041 0.0277 0.0116 0.0543 0.0249 -0.0325 -0.0412 -0.0237 0.017 0.0094 0.0019 0.0292 -0.0392 -0.0296 -0.0565 -0.048 -0.0075 0.0292 0.0584 0.0015 -0.0011 0.0078 -0.0272 -0.0041 0.0258 -0.0253 -0.0165 -0.0878 0.0168 0.0942 0.0109 -0.0361 -0.0456 -0.0088 0.0066 0.0364 -0.0397 -0.0087 0.054 -0.0622 -0.026 -0.004 0.0174 0.0125 0.0361 -0.0082 -0.004 -0.0393 -0.0063 -0.0138 -0.0105 -0.0468 0.0457 2.0E-4 -0.0254 0.0504 0.0186 -0.0564 0.0178 0.0105 -0.0215 0.0059 -0.0059 -0.0344 -0.0444 -0.0564 0.003 0.087 0.0157 0.0064 -0.0273 -0.0605 -0.0317 0.0074 -0.003 0.0481 -0.0015 -0.0299 -0.0154 -0.0136 0.01 0.0162 -0.0263 -0.0127 0.0384 0.0313 -0.0092 -0.0338 0.0093 -0.0082 0.0434 -0.0166 -0.0346 0.0061 0.0059 0.0043 0.0776 -0.0387 0.0417 0.0348 -0.103 -0.0063 0.0372 0.0211 0.0123 0.0016 0.0467 0.0236 -0.0899 0.0104 0.0137 0.0094 0.0637 0.0225 -0.0193 0.0392 0.0585 0.0249 0.0013 -0.0037 0.004 -0.0378 -0.0333 0.0191 0.0028 0.0243 -0.0148 0.0426 -0.008 -0.0152 -0.008 -0.0035 -0.0228 0.0323 -0.0242 -0.0227 0.026 -0.0246 -0.0383 -0.0388 -0.0103 -0.0098 0.0717 -0.031 -0.0419 0.0214 0.072 0.1038 0.0308 0.0484 0.0385 -0.006 -0.0155 -0.0484 0.0439 -0.0326 -0.0095 -0.0544 -0.0028 0.037 0.0718 -0.0236 0.0136 0.0257 -0.0175 -0.0645 0.0143 0.0447 -0.0129 -0.0065 0.0289 0.0061 -0.0037 -0.0852 0.1009 -0.013 0.0593 0.0454 -0.0074 0.1105 -0.0091 -0.0189 -0.0253 0.0725 -0.0205 0.0 -0.0029 0.045 0.005 -0.0289 0.0083 0.0124 -0.0793 0.0049 0.0219 -0.0549 0.0576 -0.033 -0.0228 0.0172 0.0549 0.0075 0.0117 -0.0113 -0.1281 -3.0E-4 0.0174 0.0507 -0.0206 -0.022 -0.0342 -0.0171 -0.0136 0.0599 0.0048 -0.0152 -0.0234 -0.0402 -0.0106 -0.0519 -0.0407 0.0138 -0.028 0.0488 -0.0249 0.0068 0.0312 0.0039 0.0342 -0.0046 0.0239 0.0415 0.0042 0.0052 0.0075 0.0585 -0.0482 0.0111 -0.0198 0.0389 0.025 0.0053 0.0175 -0.0025 0.0544 -0.0639 0.0016 0.005 -0.0418 0.0291 0.0015 -0.0135 0.0051 -0.0195 -0.0032 8.0E-4 -0.0239 -0.0061 -0.0084 -0.0336 -0.0327 0.0075 -0.0099 0.0493 -0.0045 -0.0224 -0.0838 5.0E-4 0.0062 0.0377 0.0103 0.0135 -0.0133
brother -0.0197 0.0018 0.0201 -0.0031 0.0074 -0.0155 0.006 -0.0372 -0.0054 -7.0E-4 -0.0066 0.0288 9.0E-4 -0.0033 -7.0E-4 -0.004 0.0135 -0.0209 -0.0069 -0.0074 0.0025 0.002 -0.0095 0.025 0.0083 0.0045 0.0031 -0.01 0.0134 -0.0024 -0.0079 -0.0175 -0.0076 -0.002 -0.0263 0.0042 -0.0164 0.0153 -0.003 -0.0111 -0.0232 -0.0163 -0.0028 -0.0055 -0.0139 0.0255 -0.0056 -1.0E-4 -0.0023 0.0156 0.0083 9.0E-4 0.0017 0.0103 0.0309 -0.0095 -0.0073 -0.0073 -0.0249 -0.0154 -8.0E-4 0.0019 0.0504 6.0E-4 -0.0045 -0.0166 -0.0023 -0.0138 0.0024 -0.0258 0.0168 -0.0281 0.028 -0.0112 0.0088 0.0131 0.0059 0.0064 6.0E-4 0.0064 -5.0E-4 0.0093 -0.0247 0.016 -1.0E-4 -0.0126 0.0258 0.0351 1.0E-4 -0.0074 -4.0E-4 0.0031 -0.063 -0.0311 0.0081 0.063 0.002 -0.0111 -0.0119 -0.0054 0.0257 -0.0058 0.0034 -0.0153 -0.0248 -0.0502 -0.0102 0.0 0.017 0.0334 -0.0428 0.0172 0.0227 -8.0E-4 0.0254 0.0071 0.0154 -0.0053 0.0145 -0.0116 -0.0065 0.0087 0.0014 -0.0199 0.0353 -0.0027 0.0021 -0.0319 0.0037 0.0207 -0.0117 0.0023 -0.0122 -0.0075 0.0042 0.0245 0.02 0.0482 0.041 0.0078 0.0064 0.0166 -0.002 -0.0147 -0.0068 0.0177 0.017 0.0054 -0.004 -0.0353 -0.001 0.0123 0.0069 -0.0315 -0.0082 -0.0145 0.0202 -0.0024 0.0198 -0.0282 0.0055 -0.0056 0.001 -0.0065 -0.0141 -0.003 -0.0165 0.0102 -0.0063 0.0233 0.0013 -0.0198 -0.0139 0.0045 -8.0E-4 0.0165 0.0396 0.0102 -0.0042 -0.0268 0.0267 -0.0346 0.0117 0.0132 -0.014 -0.0292 -0.0124 0.0439 0.0089 -0.0075 -0.0059 0.0623 -0.0469 0.0111 -0.0058 9.0E-4 0.0123 0.0178 -6.0E-4 0.0124 -0.0267 0.0238 -0.0285 -0.0097 0.0102 0.0027 -0.0121 -0.0072 0.008 -0.0162 0.0473 0.0031 0.0293 -0.0068 -0.0502 0.0027 -0.0058 -0.0231 -4.0E-4 0.0035 0.0162 -1.0E-4 5.0E-4 0.0419 0.0318 0.0144 -0.002 0.032 -0.0185 -0.0251 0.0159 -0.0182 -0.0235 -0.0115 -0.0121 0.009 -0.012 -0.0033 -0.0018 0.0104 0.0252 -0.0239 0.0072 0.0179 -0.0051 0.0012 -0.002 -0.0053 -0.0151 0.0373 0.0208 0.0012 0.005 0.0182 0.0424 -0.0245 -0.0027 4.0E-4 0.0019 -0.0021 -0.0309 -0.0027 -6.0E-4 0.0063 0.0249 0.0258 -0.0117 0.0347 -3.0E-4 -0.01 -0.0196 0.025 -0.0268 -0.0142 0.0265 -0.0123 -0.008 -0.0052 -4.0E-4 0.0166 0.022 -0.0082 0.0027 -0.0137 -0.0035 0.0067 -0.0039 -0.0365 0.005 0.0081 0.0029 0.0017 -0.0303 -0.0113 -0.0114 -0.0025 0.03 0.0011 8.0E-4 -0.0247
wine -0.0397 -0.0241 0.0123 -0.0182 0.0182 -0.018 0.0361 -0.0556 0.0356 0.0341 -0.0022 -0.0107 0.0155 -0.0411 0.0234 -0.0148 0.0658 -0.0331 0.013 0.0128 -0.02 0.0425 0.0021 0.0163 0.0295 -0.0679 0.0212 0.1116 0.0188 -0.0078 0.0019 0.0173 -0.0025 0.0 0.0373 -0.0188 0.0144 0.0348 -0.0221 0.0101 -0.0071 -0.082 -0.0413 8.0E-4 -0.0574 -0.0151 0.0108 -0.001 -0.0214 0.0465 -0.0414 -0.006 0.0458 -0.0287 -0.0531 0.0064 0.0158 -0.0121 -0.0492 -0.0307 0.0225 6.0E-4 0.0772 0.0323 -0.0025 0.0296 -0.0347 0.0179 0.0282 -0.0503 0.0429 -0.003 0.039 0.0288 -0.0063 -0.0183 -0.0308 -0.0023 0.0168 0.0537 -0.0378 -0.0468 -0.0277 0.0479 -0.0778 -0.0881 0.0758 -0.0298 -0.0585 -0.0153 0.0147 0.0257 -0.0712 -0.0159 -0.0133 0.0596 -0.0085 0.0791 0.0189 0.0165 -0.0575 -0.0231 -0.027 0.0285 0.0016 -0.0845 -0.0313 0.0544 1.0E-4 0.0368 0.0584 0.0609 0.0449 0.0368 0.0684 -0.0865 0.0382 -0.0548 -0.036 0.0529 -0.0198 0.015 0.0256 -0.0676 0.058 -0.0429 -0.0281 -0.0604 -0.0362 0.0516 0.0094 0.0099 -0.0374 -0.0205 -0.0014 -0.0392 -0.0433 0.0301 0.0439 0.0168 0.0655 -0.0429 -0.0093 -0.0229 0.0409 0.0047 0.009 0.0172 -0.0619 -0.0282 0.0126 0.0409 0.0924 -0.0121 -0.002 -0.0183 -0.035 0.0244 -0.0342 -0.011 0.0242 0.0174 -0.0377 -0.0469 0.0427 0.034 -0.0307 -0.0363 0.0136 -0.0218 0.0278 -0.052 -0.0162 0.0099 0.0262 0.0518 -0.0248 0.0328 -0.0102 -0.0284 -0.0232 0.0607 0.0276 -0.0753 -0.0105 -0.0238 0.022 0.0783 0.048 -0.0371 0.0055 0.0296 0.0045 0.0282 0.0403 0.0125 0.0408 0.0014 -0.0099 0.0056 -0.105 0.0204 -0.0126 -0.0221 -0.0023 0.0603 0.006 0.0354 -0.0015 -0.0258 0.0836 0.0046 0.0133 0.0062 0.0146 0.0175 -0.0374 0.014 0.0209 -0.0035 0.0194 -0.0324 0.0066 0.0578 -0.0084 -0.0114 -0.0218 0.0222 -0.0141 -0.0174 0.0017 -0.007 -0.0549 -0.0313 0.0016 -0.045 -0.0626 -0.0205 0.056 -0.0717 0.0258 0.0567 0.0062 -0.0153 -0.009 -0.0015 0.0187 0.0083 0.0358 -0.0158 0.0271 -0.0491 -0.0523 0.0191 -0.0093 -0.0252 -0.0333 -0.0146 -0.0038 0.0664 0.0162 -0.0082 0.0671 -0.022 -0.039 -0.06 0.0306 -0.0249 0.0409 0.0093 0.0271 0.0544 -0.0735 -0.016 -0.0304 -0.0248 -0.0176 0.0499 -0.0414 -0.0168 0.0671 0.0875 0.0022 -0.0318 -0.038 -0.0519 0.0114 0.0197 0.0216 -0.006 -0.0155 0.0493 -0.0319 0.0033 -0.02 0.0024 0.0266 -0.0175 -0.0468 -0.0164
object 0.0109 0.0207 -0.0053 -0.0088 -0.0139 -1.0E-4 0.0214 -0.0542 -0.0123 -0.0336 0.0017 -0.009 0.0158 0.0279 0.0025 0.0134 0.0157 0.0108 0.0393 0.0091 -0.006 -0.0095 0.0228 0.0353 -0.0039 -0.003 -0.0082 0.0136 -0.0061 -0.0052 0.0033 0.0165 0.0277 -0.0219 -0.0131 -0.019 -0.0054 -0.0095 -0.0244 0.0131 0.024 -0.0396 -0.0095 0.0038 -0.0394 0.0033 -0.0066 0.0038 0.0185 0.006 0.018 -0.0107 -0.0211 -0.0117 -0.0192 -0.011 0.0175 -0.0083 -0.0224 -0.0218 0.0106 -0.0303 0.0686 -0.0277 0.0117 0.0109 0.0068 0.0092 0.01 0.022 0.0083 0.0157 0.0213 -0.0022 0.0098 -0.0048 0.0217 -0.0071 0.0196 -0.021 -0.0198 -0.0014 -0.0187 0.0365 0.0156 -0.0103 0.0126 -0.011 -0.0103 0.0073 0.0054 -0.0032 -0.0488 -0.0172 0.0205 -0.005 -0.0157 -0.0148 0.0193 0.0078 -0.0029 0.003 0.0094 0.0291 0.0031 -0.0386 -0.0075 0.0312 0.0137 -0.0167 -0.0077 0.0238 0.0262 0.0236 -0.0093 0.0041 -0.0234 0.0032 -0.0246 0.0012 -0.0035 0.0066 -0.0254 -0.0306 0.0426 -0.0142 0.0043 -0.0328 0.0214 0.0448 -0.0115 -0.0144 0.0024 0.0107 -0.0092 -0.0241 -0.0227 0.0182 0.0046 -0.0041 -0.0319 -0.0043 0.011 -0.0449 -0.0217 0.004 -0.0075 0.0028 -0.0153 0.039 0.0248 0.0278 -0.0256 -0.0621 -0.0135 0.0113 -0.0302 -0.0112 -0.0102 -0.0145 0.0093 0.0131 -0.025 0.0135 0.012 -0.0052 0.0119 0.0138 -0.0147 -0.0205 -0.0067 -0.0204 -0.058 5.0E-4 -0.0211 0.0291 -0.0271 0.0037 -0.0162 -0.0064 -0.0181 0.0016 0.0095 0.0019 0.0103 -0.0408 0.0211 0.0378 0.0301 -0.0216 0.0064 0.0408 -0.0158 0.004 -0.0079 -0.0217 0.0088 0.0217 -0.0128 0.0071 -0.0711 0.0519 0.0116 -0.0191 0.0526 0.0053 0.0202 -0.0163 0.0082 -0.0178 0.0158 -9.0E-4 -0.0199 -0.0249 -0.0053 0.0069 0.0064 0.0122 0.0086 -0.0254 0.0044 -0.0112 0.0189 0.0451 0.0162 2.0E-4 0.024 0.0539 -0.0259 6.0E-4 -0.0302 -0.0371 -0.0418 -0.0334 0.0143 -0.0065 -0.0099 -0.0099 -0.0184 -0.0136 0.0529 -0.0018 -0.0162 0.0018 -0.0319 0.0115 0.0213 -0.003 -0.021 -0.0098 0.0178 -0.0141 0.0019 -5.0E-4 0.007 -0.0051 -0.0449 0.0074 -0.0101 0.0177 -0.0183 0.0114 0.0045 -0.0223 0.0035 -0.0219 -0.0284 0.0016 -0.0107 0.0072 0.0042 0.0618 -0.0476 -0.0342 0.0316 -0.024 -0.0043 -0.0127 0.0122 -0.0264 0.0258 -0.0223 -0.0146 -0.0402 -0.0112 -0.0083 -0.014 0.0045 0.016 0.0135 -0.0252 0.008 0.0061 -0.0131 0.0123 0.0329 -0.0333 0.0047 0.0064 0.0086
attitude 0.0126 -0.0093 0.0052 -0.0089 -0.0324 0.0063 7.0E-4 -0.0344 -0.0165 0.0155 -0.0071 -0.0137 0.0069 -5.0E-4 -0.0061 -0.0105 0.0249 0.021 0.0239 0.0214 -0.0112 0.0059 -0.0193 0.0129 -0.0354 0.0221 0.0032 0.0038 -0.0172 -0.0071 -0.0031 0.0135 0.0209 -0.0246 -0.0036 0.0103 -0.0017 -0.0123 0.0035 -0.0073 0.0045 -0.0516 -0.0029 0.0035 3.0E-4 -0.0123 -8.0E-4 -0.0121 -0.0066 -0.0098 -0.0144 -0.0255 0.0099 0.019 -0.009 0.0086 0.0291 0.0026 -0.0236 0.0115 0.0357 -0.0065 0.0464 -0.0228 0.005 -0.0164 0.0083 0.0105 0.0146 0.0075 0.0116 0.0033 0.0027 -0.0114 -0.0044 -0.0119 -0.0064 0.0147 -0.0057 0.0117 -0.0336 0.0064 0.0149 0.03 0.0087 -0.0145 0.008 0.0057 0.0044 -0.0174 0.0129 0.0203 -0.0365 -0.0101 0.011 0.0251 -0.0143 -0.0086 -0.0088 0.0041 0.0074 0.0056 0.0112 -0.0046 -0.0116 -0.0158 0.0117 4.0E-4 2.0E-4 0.0317 -0.0169 0.0241 0.0138 0.0024 5.0E-4 -0.0219 -0.0109 -0.0012 -0.0193 -0.0256 -2.0E-4 0.01 -0.0083 -0.0102 0.0388 -4.0E-4 0.007 -0.0183 0.0268 0.0454 -0.0152 -0.0184 0.001 -8.0E-4 -0.0217 -0.0136 -0.0188 0.0328 -0.0026 -0.0019 0.0011 -0.0289 0.0096 -0.0011 -0.0299 -0.0055 0.0102 1.0E-4 0.0286 -0.0054 0.0262 0.0144 -0.0237 -0.0277 -0.0259 0.0192 0.0016 0.0082 -0.0068 0.0078 0.0242 0.0179 -0.0328 0.0029 -0.0024 -0.0066 0.0052 0.0106 -0.0024 0.0108 -0.0113 -0.0076 -0.0057 -0.0013 0.0242 0.0205 -0.0119 0.0314 -0.0042 -0.0114 -0.0121 -0.0135 -0.0199 -0.0136 0.0211 -0.0461 -0.0026 0.0373 -0.0028 -0.0095 0.0052 0.0406 -0.0096 -0.0226 0.0123 0.0068 -0.0074 -0.0062 -0.0081 -0.0031 -0.0417 0.0034 0.0363 -0.0365 -0.0148 0.01 0.0062 -0.0042 -0.0021 -0.0029 0.0266 -0.0057 0.0079 0.0113 0.0187 -0.0042 -0.0219 0.0029 -0.0207 -0.0177 -0.0289 -0.0276 0.0104 0.0359 0.0275 -0.0019 0.0011 0.043 -0.0056 1.0E-4 0.0195 -0.0203 -0.031 -0.0215 0.0396 0.0091 0.0138 -0.0032 0.0205 0.0123 0.0133 0.0086 0.0223 0.0209 -0.0197 0.0124 -0.0057 -0.045 -0.0067 -0.0129 0.0483 -0.0047 -0.0037 -0.0087 0.0237 -0.0083 -0.0036 0.0112 0.0106 -0.0201 -0.0139 -0.0127 0.0042 -0.0062 -0.0081 0.0074 0.0087 0.0051 -0.0308 0.0143 -0.0104 0.032 -0.035 -0.0224 0.0587 -0.0214 -4.0E-4 0.0186 0.006 -0.0126 0.0383 -4.0E-4 0.0027 -0.0191 -0.0011 0.0044 0.0061 0.0142 0.0084 -0.0015 0.0039 0.0043 -0.003 0.0182 -0.0142 0.0018 -0.0023 0.0153 -0.0094 -0.0017
treatment -2.0E-4 -0.0034 0.0134 0.0244 -0.0053 -0.0078 -2.0E-4 -0.0292 -0.0106 -0.0075 0.0094 -0.0029 0.0312 -0.0165 -0.0018 -0.0096 0.024 0.0052 0.0238 0.0136 -0.002 0.002 0.0121 0.0189 -0.0053 -0.015 -0.0109 0.0111 0.0049 0.0307 -0.0233 -0.0041 -0.0191 -0.0383 0.0099 0.0112 -0.0041 -0.0056 0.0079 0.0056 0.0038 -0.0436 0.003 0.0093 -0.0018 -0.0061 0.0107 0.0217 -0.0085 -3.0E-4 -0.0131 7.0E-4 -0.0101 -0.0099 -0.0189 -0.0177 0.0011 -0.0037 -0.0028 0.0011 0.0044 -0.0052 0.0398 -0.0032 -0.0098 -0.015 0.0098 -0.0156 0.0039 -0.0074 -0.011 0.0088 0.0023 -0.0199 -0.0169 -0.0025 -0.0085 0.0015 -0.0018 -0.018 0.002 0.0013 0.0143 0.0205 -0.0173 0.0153 0.029 -0.0037 -0.0046 -0.0085 0.0025 0.002 -0.0264 0.0049 -0.0053 0.0123 0.0023 0.0061 -0.0074 0.0058 -0.0019 -0.0015 -0.002 0.0186 -0.001 -0.0184 0.0045 -0.0181 -0.0076 0.0043 -0.003 0.01 0.0194 0.0248 0.0166 0.0024 0.0045 -0.0017 -0.025 -0.0042 -0.0013 0.0143 0.0053 -1.0E-4 0.0266 -0.0045 -5.0E-4 -0.0252 0.0043 0.0387 0.0012 -0.0041 -0.0072 -0.0144 -0.009 0.008 -0.0012 0.0082 0.0257 -0.0011 0.0075 -0.0075 -0.0074 0.0101 -0.0127 -0.0051 -0.0034 0.0067 0.0156 0.0017 0.0089 0.0158 0.0139 -0.0413 -0.0056 0.0028 -0.0 -0.0048 0.0262 -0.0064 0.0166 -6.0E-4 -0.0177 0.0182 0.0024 -0.0095 0.0043 -0.013 -0.0131 -0.021 0.0163 0.0071 -0.0019 0.006 0.0144 0.0205 -0.0226 -0.0038 -0.0124 -0.0059 -0.0045 0.0197 0.0089 0.0252 0.0177 -0.0177 0.0132 0.0256 -0.0111 0.0119 0.0126 0.0161 -0.0027 -0.0151 -0.0221 -0.0012 -0.0116 -0.0039 -0.0018 -0.0021 -0.0544 0.0263 0.0015 -0.0083 0.0061 -0.0183 0.0081 -3.0E-4 -0.0095 -0.0038 0.0409 0.0074 0.0136 0.0303 0.0082 0.0111 0.0212 -0.0012 -0.0206 -0.0351 -0.0114 0.003 -8.0E-4 0.0244 0.0035 0.0193 -0.0066 0.0215 -0.0046 0.0079 0.0028 -0.0231 -0.0172 -0.0184 0.0254 0.0157 -0.0078 0.01 0.0131 -0.0072 0.012 -0.0066 0.0042 -0.0072 -0.0183 0.0121 0.0073 -0.0142 0.0061 0.0013 0.0068 0.0073 0.0135 0.0088 0.0023 -0.0062 -1.0E-4 0.0103 0.0046 -0.0123 -0.0169 -0.0042 -0.002 -0.0033 0.0044 -0.0192 -0.0151 0.0094 -0.0101 0.0283 -0.0029 0.0172 -0.0394 -0.0199 -0.0192 -0.0072 0.0136 0.0153 -0.017 -0.0068 0.0307 -0.005 -0.0112 0.0063 0.0064 0.0217 0.0033 0.0122 -0.0036 0.0021 -0.0019 -0.0028 -0.0113 -0.0029 -0.0018 -0.0088 0.0046 4.0E-4 -0.0027 -0.0012
flight -0.0168 -0.0138 0.0051 -0.024 0.0036 -0.0041 0.0223 -0.0502 0.021 0.0435 0.0335 -0.0461 -0.0334 0.0093 0.0096 -0.0057 0.0404 -0.0211 0.0275 0.0559 0.018 0.0157 -0.0253 0.0199 -0.03 -0.015 0.0064 0.0104 -0.0172 -0.0057 0.0376 0.0129 -0.0046 -0.0377 0.0021 0.0203 -0.0235 -0.0091 0.0121 -0.0109 -0.0192 -0.0387 0.0505 -0.0223 -0.0527 0.0137 0.0534 -0.0033 -0.0355 -0.0132 0.0094 0.0284 -0.0158 -0.0372 -0.0426 0.0021 0.0075 -0.0193 -0.0212 0.0216 0.0181 -0.009 0.0584 0.0138 0.0163 0.0037 -0.0084 -0.0236 -0.0065 0.0016 0.0056 0.0251 0.0016 0.005 -1.0E-4 0.0274 -0.0084 -0.0195 -0.0292 0.0158 -0.0169 -0.0154 -0.0198 0.0259 -0.0091 -0.0256 0.0171 -0.0115 4.0E-4 -0.0141 0.002 0.0391 -0.0456 0.01 0.0026 0.027 -0.0192 -0.0161 0.0039 -0.0204 0.023 0.0263 0.0087 0.021 0.0053 -0.0341 -0.0264 -0.0226 0.0186 0.0229 0.0297 0.014 0.039 0.037 0.0235 -0.0108 0.002 -7.0E-4 -0.028 0.0084 0.0395 -0.0093 -0.033 0.0279 0.0206 -0.0198 0.0466 -0.0598 0.004 0.0329 -0.0204 0.0096 0.0035 0.0114 -0.0051 -0.0146 0.0134 0.0145 0.0011 0.0016 0.0157 0.0111 -0.0153 -0.0118 -0.0211 5.0E-4 -0.0071 -0.026 -0.0255 -0.0075 0.0117 0.0377 -0.0437 -0.0397 0.0209 0.0011 -0.0336 -0.004 -0.0428 -0.013 0.0195 0.0238 -0.0177 -0.0199 -0.0123 0.0422 0.0243 0.0032 0.0243 0.0243 0.0158 -0.003 -0.007 -0.0049 0.0322 0.0179 -0.0115 -0.0166 -0.0068 0.0466 0.0222 -0.0074 -0.009 -0.0331 -0.0104 -0.0251 -0.0299 0.0282 -0.0365 -0.0264 0.0095 0.0012 0.0034 -0.0319 0.0077 3.0E-4 -0.0347 0.0246 -0.0055 -0.0209 -0.0628 0.049 0.0084 -0.0178 -0.0131 0.0038 -0.0154 -0.0112 -0.01 -0.0113 0.0691 -0.023 0.0018 -0.0056 0.0088 0.01 0.0023 0.007 0.0043 -0.0258 -0.0241 -0.0066 -0.0259 0.0518 -0.009 -0.0012 -0.0197 0.0244 -0.0028 -0.011 -0.004 -0.0309 -0.0098 0.0038 0.0096 -0.0227 0.0 0.0131 -0.0044 0.0112 0.0172 0.0056 0.0282 -0.012 -0.0179 0.0039 0.0254 -0.0148 -0.0296 0.0018 0.0361 -0.0018 -0.0187 0.0047 0.0063 0.0134 0.0231 0.025 0.0289 0.0149 0.011 0.0047 0.0071 -0.0216 0.0059 -0.0076 0.0014 0.0118 -0.0098 0.0099 -0.0062 0.0436 -0.0485 -0.0108 -0.0043 -0.0117 6.0E-4 -0.0072 0.0159 -0.059 0.0376 -0.0381 0.0128 3.0E-4 0.0174 -0.0159 -0.0369 0.0031 -0.0144 -0.0295 0.0234 -0.0095 -0.0274 -0.0109 -0.0348 0.0127 0.0276 0.0114 0.0422 0.0279
forest 0.0252 -0.0191 -0.0242 0.0137 -0.0104 -0.0316 -0.0025 -0.0412 0.0186 0.0087 -0.006 -0.0316 -0.0029 -0.0026 0.023 0.0361 0.0556 -0.0203 0.0142 -0.0013 -0.0129 -0.0355 -0.0064 0.0347 0.0102 -0.0558 -0.0159 0.0253 -0.0112 -0.0146 0.0206 0.0143 -0.0164 -4.0E-4 0.0025 -0.0026 0.0214 -0.008 -0.0021 -0.0142 0.0275 -0.0684 -0.006 -0.026 -0.0116 -0.0158 0.0286 -0.0106 -0.0154 0.0084 0.0028 0.0304 -0.0227 -0.0091 -0.032 -0.0671 -0.0315 -0.0168 -0.0215 -0.0066 0.0154 -0.0416 0.0541 0.0089 0.0124 -0.0208 0.0374 -0.0137 0.0019 0.0246 0.0234 -0.0203 0.0052 0.0398 -0.0013 0.0078 -0.0143 -0.0045 0.006 -0.0014 -0.0106 -0.0142 0.016 0.0126 -3.0E-4 -0.0148 0.0018 -0.0173 0.0088 -0.0256 -0.0141 0.0141 -0.0432 0.0025 0.0102 0.0396 0.0319 0.024 0.0114 0.0394 0.0085 0.0063 0.0136 0.0158 0.0176 -0.0668 0.0377 -0.0026 -0.0063 -0.013 -0.0128 0.0398 0.0246 0.0114 -0.0162 0.0425 -0.0111 0.0124 -0.0204 -0.0279 -0.0099 0.0166 -0.0163 -0.0145 0.0178 -0.0299 -0.0037 -0.0566 0.0084 0.0449 0.0231 0.001 -0.0048 0.026 0.0077 -0.0082 0.0219 0.0146 0.0133 0.0156 -0.0402 -0.0304 -0.005 0.0031 -0.0052 -0.0014 0.0019 0.0096 0.0019 -0.0524 0.0116 0.0324 -0.0015 -0.0197 0.0799 0.0036 -0.0078 -0.0107 0.0054 -0.0064 0.0042 -0.0078 -0.02 0.0048 -0.0062 -0.0137 -0.0021 -0.0052 0.0046 0.0534 -0.0046 -0.0197 -9.0E-4 0.0125 -0.0116 0.0272 0.0117 0.021 -0.0219 -9.0E-4 0.0015 0.0218 0.0037 0.0055 -0.0258 -1.0E-4 0.004 0.0391 -0.01 -0.0143 0.0073 0.0062 -0.0011 0.0155 0.003 -0.0071 -0.0159 -0.0087 -0.01 0.0109 -0.079 -0.0024 -0.0345 -0.004 0.0299 0.0269 0.016 0.0066 0.0022 0.0029 0.0527 -0.0163 -0.0163 -0.0049 0.0113 -0.0259 0.0214 -0.0122 0.0244 -0.0293 0.0052 7.0E-4 -0.0287 0.0296 -0.0041 -0.0136 0.0074 0.0279 0.0018 -0.0178 0.037 -0.023 -0.0247 0.0132 -0.0054 0.0022 -0.0256 0.0282 0.0308 -0.0144 0.0164 0.0319 0.0016 0.0172 -0.025 0.0312 -0.0098 0.0093 -5.0E-4 0.0106 -0.0135 -0.0277 -0.0246 -0.0406 -0.0146 0.039 0.0078 0.0107 0.0275 -0.0023 -0.006 -0.0019 -0.0288 -0.0115 0.0045 -0.0085 0.012 0.0063 -0.0115 -0.0213 -0.0286 0.0301 -0.0503 -0.028 0.0156 -0.0249 -0.0047 0.0056 -0.0227 -0.0109 0.0416 -0.0192 -0.011 0.0086 -0.0147 0.0145 -0.006 -0.0176 -0.009 -0.0099 -0.0379 0.0236 -0.0118 -0.0049 -0.0106 -0.0016 -0.0077 0.0116 0.033 -0.0075
abuse -4.0E-4 -2.0E-4 -0.0223 -0.009 -0.0367 -0.0166 -0.0202 -0.0364 0.0502 0.002 -0.0066 -0.0061 0.0241 -0.0038 -9.0E-4 -0.0464 0.0345 0.0218 0.0277 0.0098 -0.0015 0.0116 0.0153 0.0145 -0.0339 -0.0077 -0.0169 -0.0154 0.0149 -0.0116 0.0106 0.0101 -0.0609 -0.0299 -0.0118 0.0017 -0.0187 0.0044 -0.0188 0.002 8.0E-4 -0.0322 -9.0E-4 0.0258 -0.0016 0.031 0.0164 0.0341 0.0049 -0.0019 0.0248 0.0265 0.0407 -0.0082 -0.0406 -0.0286 0.0053 -0.0268 -0.0416 -0.0089 0.0138 -0.0383 0.0297 0.0032 -0.0272 0.0054 0.0192 -0.0141 0.0478 -0.0053 -0.0168 0.0127 0.0212 -0.0084 -0.0029 -0.0071 0.008 0.0253 0.0158 -0.0706 -0.0229 0.009 -0.0587 0.0589 0.0044 0.0163 0.0103 0.0132 0.0257 -0.0329 -0.0184 0.0175 -0.0432 -0.0245 0.0187 -0.0294 0.0063 0.0245 0.0076 -0.011 -0.0066 -0.0116 -0.0079 -0.0354 0.0504 -0.0163 0.0205 -0.0364 -0.0046 -0.006 0.0077 0.0395 0.0374 -0.0225 -0.0022 -0.0126 -0.0024 -0.0185 -0.0216 0.0153 -0.0109 -0.0093 0.0402 -0.039 0.0757 0.0194 0.0227 -0.059 0.0099 0.0766 -0.0256 -0.0386 -0.0179 0.021 0.0273 -0.0503 -0.0684 0.017 0.0198 -0.0201 0.016 3.0E-4 -0.0135 -0.0205 0.0246 0.0387 0.023 0.004 0.0013 0.0093 0.0179 0.0407 -0.0039 -0.0544 0.0226 -0.0148 0.0234 0.0352 0.0153 0.0249 0.0199 0.0336 -0.0791 -0.0153 -0.0159 -0.0085 0.0395 -0.0164 -0.0288 -0.0654 -0.0115 0.0214 0.0371 0.0037 0.0184 0.0582 0.0012 0.028 -9.0E-4 0.004 0.0132 0.0102 -0.0609 0.0533 -0.0069 -0.0441 0.0251 0.0667 -0.0023 0.0086 -0.0052 0.0184 -0.0432 -0.0187 -0.0081 -0.0127 -0.02 -5.0E-4 -0.0055 0.0214 -0.0964 0.0398 -0.0163 -0.0377 0.0222 -0.0327 0.0386 -0.0023 0.0392 -0.0033 0.0544 0.0296 -0.0022 0.0067 0.0852 0.0185 -0.0161 0.0214 0.0218 -0.0483 -0.0161 -0.0534 -0.0299 0.0565 0.0128 -0.006 -0.0272 0.0568 -0.0136 -0.0129 0.0104 -0.0162 -0.0441 -0.037 0.0373 0.009 -0.0173 0.0039 0.0226 -0.0735 0.0294 -0.0327 0.0109 -0.0171 -0.0231 -0.0151 0.0061 -0.053 -0.0222 0.0294 -0.0446 0.0222 -0.0201 -0.0334 0.033 -0.0013 0.022 0.0275 -0.0311 0.0208 -0.014 -0.0321 0.0108 0.0024 0.0274 -0.0568 -0.0096 0.0059 0.0279 0.009 -0.0661 0.0414 -0.0611 -0.0316 0.01 -0.0508 0.0042 0.0351 -0.0077 0.044 0.0459 -0.0321 -0.0298 -0.0076 -0.0144 0.0393 -0.0315 0.0586 -0.011 -0.0168 0.0192 -0.007 -0.0376 0.0164 -0.0269 0.0453 -0.0167 -0.0142 0.0273 -0.0082
criterion 0.0202 -0.0073 -0.0037 -0.0071 -0.0189 0.0078 0.0047 -0.0326 -0.0163 -0.0106 -0.0079 0.0049 0.0247 -0.0046 0.0039 0.0107 0.003 0.0105 0.0139 -0.0199 0.0126 -0.0088 0.021 0.0073 0.0135 0.0111 -0.0051 0.0201 0.0184 -0.0062 -0.0031 0.0187 0.0074 -0.034 -0.0194 0.0127 -0.0191 0.0124 -0.0112 0.0238 0.0023 -0.0359 -0.0204 0.0183 -0.008 0.0014 0.007 -0.0049 0.0219 0.0062 0.0185 0.0084 -0.0012 -0.0161 -0.0015 -0.0069 0.0306 0.0136 -0.0348 -0.004 -0.0199 -0.0143 0.0377 0.017 0.0137 -0.0099 -0.0072 0.0123 0.0025 -0.0162 0.0275 0.0141 -0.0086 -0.0232 0.0155 0.0073 -0.007 -0.0174 0.0131 0.0083 0.0127 -1.0E-4 0.0143 0.0295 0.0074 -0.0029 0.0182 0.0036 -0.0087 0.0213 0.0067 -0.0275 -0.0356 -0.0132 -0.0108 0.0068 -0.022 -0.0057 -0.004 0.0317 0.0135 -0.0112 -0.0091 5.0E-4 -0.041 -0.0233 0.0226 0.0149 -0.0059 0.0294 0.0361 0.0154 0.0232 -0.0379 0.0078 -0.007 0.0064 0.0246 -0.0087 -0.0158 -0.0222 -0.0156 -0.02 0.0067 0.0275 -0.0223 -0.0029 -0.0181 -0.0079 0.0426 0.0114 -0.001 -0.0019 -0.0021 -0.0129 0.0391 -0.0038 0.0238 0.003 0.0174 -0.0103 -0.0036 -5.0E-4 -0.0277 -0.0035 0.0021 -0.0085 -0.001 0.002 0.0344 0.0229 0.0061 0.0073 -0.0224 0.0252 0.0263 -0.0036 0.008 0.0045 0.0134 -0.0093 0.0111 -0.0205 0.0121 0.0159 -2.0E-4 0.0232 -0.0086 -0.005 -0.0094 -0.0075 1.0E-4 -0.0087 0.0028 -0.0092 0.0164 -0.0028 0.015 -0.0132 -3.0E-4 3.0E-4 0.0034 0.0053 -0.0129 -0.0035 -0.0132 0.0073 0.0348 -0.0159 0.0018 0.0065 0.0454 -0.0164 -0.0205 4.0E-4 -2.0E-4 0.0022 7.0E-4 -0.0291 0.0157 -0.0519 0.0104 0.0014 -0.0023 0.0022 -0.0094 0.0089 -0.0187 0.0074 -0.0071 0.0139 3.0E-4 -0.0113 0.009 -0.0228 0.017 0.0099 -0.0214 -0.0254 -0.0329 -0.0039 0.0095 -0.0084 0.0264 0.0428 0.009 0.0229 0.0223 0.0208 -0.0066 -0.0061 -0.0572 -0.0126 0.0026 -0.0094 0.0046 -0.0091 -0.0148 0.0149 0.0217 0.0231 0.0092 -0.0012 0.0057 -0.0078 0.0044 0.0321 -0.0083 -0.027 -3.0E-4 -0.0027 0.027 0.0193 -0.013 0.0166 -0.0036 0.0104 0.0254 0.005 -0.0102 -0.0116 -0.027 0.0123 -0.0106 0.0041 0.003 -0.0182 -0.0017 0.014 0.0025 0.0209 0.0315 -0.0232 -0.0084 0.0344 -0.0113 0.0091 0.0129 -0.0055 -0.0172 0.0241 0.0141 -0.0147 0.0014 0.0157 -0.01 -0.024 0.0206 -0.0184 -0.0155 -4.0E-4 -0.0179 0.0196 -0.0172 0.0166 -0.0013 -0.008 -0.0202 -0.0148 0.0122
sea -0.0359 -0.0171 0.0736 0.0071 0.0388 -0.016 -0.0407 -0.0892 0.0152 0.0872 -0.0031 -0.0478 -0.0532 -0.0232 0.0023 -0.0355 0.0796 -0.0669 0.0317 0.0407 -1.0E-4 -0.015 3.0E-4 0.0268 0.0177 -0.0331 -0.0124 -0.0218 0.0153 -0.0506 0.0026 0.0419 0.0664 -0.0038 0.0159 -0.0023 0.0845 -0.0482 0.0926 -0.034 0.0079 -0.1419 0.0363 0.0581 -4.0E-4 0.0152 -0.0385 -0.0798 -0.0408 0.0324 0.0438 -0.0531 0.0488 0.0162 -0.0749 0.0248 0.0157 0.0125 -0.0348 -0.0121 -0.0205 0.0068 0.0708 -0.0453 -0.01 0.0063 -0.0046 -0.0788 0.0069 -0.0355 0.0414 -0.0124 0.0366 0.0373 0.0326 -0.0881 -0.0357 -0.0372 -0.0214 -0.0166 -0.0293 -0.0692 0.0164 0.0312 -0.0042 0.0561 0.0337 -0.0303 -0.049 -0.0558 -0.0653 -0.0017 -0.0822 0.0289 0.0344 0.0592 0.0042 0.0392 -0.0156 -0.0193 0.0247 -0.031 0.073 0.017 0.0579 -0.0974 -0.022 0.0333 -0.0042 0.0012 0.0145 0.0842 0.057 -0.019 0.0093 0.0522 0.0017 0.0269 -0.0489 0.0462 0.0174 0.0247 -0.0038 -0.065 -0.0015 0.0159 0.0409 -0.1095 -0.081 0.0653 -0.0508 0.0119 -0.0033 -0.0191 0.046 -0.0157 0.0456 0.0469 -0.0084 0.0529 -0.0802 -0.0416 -0.0121 0.0163 0.0364 0.0176 0.0229 -0.019 -0.0515 -0.017 -0.0301 0.0573 0.0122 0.0343 0.011 -0.0354 -0.0424 -0.0542 -0.0383 -0.0082 0.021 -0.0364 -0.04 0.0042 -0.0058 0.0424 0.0463 -0.0255 0.007 0.0378 -0.063 -7.0E-4 -0.0514 -0.0463 0.0074 0.041 -0.0152 -0.0092 -0.0385 0.0069 0.022 0.0161 0.0387 -0.0779 -0.018 -0.0216 -0.0283 0.076 -0.0345 0.0218 -0.0025 5.0E-4 -0.0112 -0.046 -0.0857 0.0226 3.0E-4 0.0865 0.006 0.0504 -0.1655 0.0254 0.006 -0.0105 0.0312 0.0511 0.0291 -0.0229 0.0137 -0.0074 0.1127 -0.0407 -0.0081 0.0298 0.0353 -0.0333 0.0076 0.0161 0.0655 -0.0922 0.007 0.0035 -0.0254 0.0831 -0.0464 0.0318 -0.0043 0.0584 -0.0276 -0.0669 -0.0398 -0.0338 -0.0539 0.0086 0.0082 -0.0195 -0.0445 0.062 0.0435 -0.0421 0.0605 0.0361 0.0113 -0.0546 -0.0345 0.0215 -0.0379 0.0215 0.0304 0.0402 0.0326 -0.0439 -0.0122 -0.0102 0.0159 0.0243 -0.0252 0.0397 0.0849 -0.015 -0.007 0.0545 0.0064 -0.0345 -0.0381 -0.0443 0.0169 -0.0084 0.046 0.0015 -0.0701 0.0671 -0.0782 -0.026 0.0419 -0.052 -0.0175 0.0328 0.0394 0.0039 0.0919 -0.0256 0.0228 -0.0383 0.0058 0.0117 6.0E-4 -0.0116 0.0125 -0.0044 0.0038 0.0795 -0.0314 -0.0542 -0.0412 -0.0333 0.0099 0.0581 -0.0029 0.0015
dollar 0.0133 -0.0249 -0.0099 0.0183 0.0065 0.026 -0.0029 -0.0456 0.0235 0.0199 -0.0238 0.0182 -0.0083 -0.0079 -0.0203 0.0323 0.0021 -0.0161 0.0178 -0.0091 -0.0029 -0.0038 -0.0128 0.0111 0.0218 -0.0119 -0.0023 0.0094 0.0431 0.0047 -0.0087 0.0095 -0.0067 -0.0228 -0.006 -0.0064 0.0194 -0.0092 -0.016 0.0049 -0.0019 -0.023 -0.0266 0.0199 0.0232 0.0254 0.0072 -6.0E-4 -0.0071 0.0306 0.0067 0.0277 -0.0134 0.023 8.0E-4 -8.0E-4 0.0282 -0.0019 -0.0206 -0.0206 -0.0273 -0.0124 0.0792 0.0176 -0.0518 0.0148 -0.0123 0.0017 0.0041 -0.0072 0.005 -0.0121 0.0155 -0.0091 0.0068 0.005 -0.002 0.0133 0.0094 -0.0282 0.0024 -0.0402 -0.0158 0.0213 -0.0223 -0.0294 -0.032 -0.0209 -0.0219 -0.0175 -0.0256 -0.0211 -0.051 0.0059 -0.0182 0.0317 -0.0018 -0.0115 0.0191 -0.0108 -3.0E-4 0.008 0.0026 -0.0237 -0.0184 -0.0342 0.0109 -0.0141 0.0123 -0.0014 0.0483 0.0169 0.0216 -0.0144 0.0144 -0.0217 -0.0232 0.0026 -0.037 0.0129 -0.0014 -0.0082 0.0031 -0.0301 0.0462 0.0212 -0.0038 -0.0728 -0.0091 -0.0091 0.0116 0.0069 0.0092 0.0108 -0.0108 0.0029 -0.0142 0.0531 0.0224 0.0039 0.0317 0.0082 -0.0188 0.02 -0.035 -0.0123 0.0221 -0.018 0.0264 -0.0324 0.0014 0.0386 -0.035 -0.017 -0.0213 -0.0209 0.0041 -0.0363 -0.0046 -0.0075 0.0212 0.0112 0.0018 -0.0018 -0.0147 -0.023 -0.0107 -0.0416 0.0124 0.011 -0.0281 0.0029 0.007 0.013 -0.0462 0.0175 -0.0317 0.0099 -0.0066 0.0243 -0.034 0.0048 -0.0499 -0.014 -0.0222 -0.0382 -0.0048 0.0438 0.0424 -0.0183 -0.0224 -0.0011 0.0386 -0.0409 -0.0111 -0.0677 -0.0219 0.0149 -0.0075 -0.0142 -0.0334 0.0012 0.0108 0.014 0.0091 -0.0156 0.0188 -0.0206 0.0277 -0.0257 0.0758 -0.0279 -0.0267 -0.0415 0.0089 -0.0173 0.0138 0.0282 0.0343 -0.0271 0.0203 0.0142 -0.0051 0.033 0.02 0.0498 -0.023 0.0136 0.0256 -0.0212 -0.0192 -0.0537 -0.0215 -0.05 0.0042 -0.0013 -0.0061 0.0091 0.0098 0.0217 0.0118 -0.0133 -0.0107 -0.0064 -0.0467 0.011 0.0039 -0.0092 0.0176 -0.0139 8.0E-4 -0.0181 0.0154 -0.0125 0.0079 -0.0021 -0.0011 -0.0141 0.0147 0.0065 0.0117 1.0E-4 0.0051 -0.051 0.036 0.0265 0.0222 -0.0191 0.0231 0.0549 -0.0061 0.0402 -0.0537 -0.0272 -0.01 -0.055 0.0078 -0.0067 0.0327 -0.0173 0.0452 0.0296 0.0037 -0.0112 -0.0166 -0.0015 0.0275 0.0273 -0.046 -0.0103 4.0E-4 7.0E-4 0.0161 0.031 -0.0053 -0.0451 0.0113 -0.0325 -0.0263 -0.0082
example 0.0029 -0.0072 0.0153 -0.0013 -0.0233 -8.0E-4 -0.003 -0.0482 -0.0327 -0.0159 -0.002 -0.0119 0.0049 0.004 -0.0027 0.0162 -0.0235 0.0124 0.0289 0.0035 0.0034 0.014 -0.014 0.012 -0.0019 -0.0052 0.0068 0.0068 0.0046 0.0024 -0.0048 -0.0076 -0.0036 -0.0644 0.0 -0.0205 -0.0074 -0.0012 -0.0062 0.0102 1.0E-4 -0.0035 -0.0122 -0.0231 -0.0147 0.0205 0.0074 -0.0083 0.0131 -0.0016 0.0073 0.0073 -0.0051 -0.0196 0.0144 0.0109 0.026 0.0056 -0.0052 -0.0075 -0.02 -0.0043 0.0307 -0.0027 0.0293 -0.0055 0.0105 0.0084 0.0156 -0.0014 0.0029 -0.0068 -0.0054 -0.01 0.002 -0.0149 -0.0089 -0.0254 -0.0076 0.0 0.0156 0.0191 -0.0079 0.0297 0.0075 -0.0029 -0.0137 -0.003 -0.0035 0.0098 0.0101 0.0094 -0.0196 -0.0305 0.0067 0.0253 0.0036 -0.0045 0.0189 0.0036 5.0E-4 -0.0251 -0.0058 0.0062 -0.0332 -0.0015 0.0095 0.0012 0.026 0.0044 0.0023 0.0381 0.0212 -0.0159 0.0109 -0.0057 -0.0187 0.0028 -0.0264 -0.0079 0.0079 6.0E-4 2.0E-4 -0.023 0.0211 -0.0091 -0.0085 -0.0265 -0.0037 0.027 -0.0133 0.0062 -0.0111 0.0135 -0.0215 0.0082 -0.0068 0.0188 0.0171 -0.0077 -6.0E-4 -0.0076 -0.0039 0.0198 -0.0036 -0.0122 -0.0062 0.0022 -0.002 -0.0191 0.0204 -0.0032 0.0037 -0.0261 -0.0145 -0.008 -0.0161 0.0153 -0.0049 -9.0E-4 -0.0022 0.0053 8.0E-4 -0.0078 0.0202 0.0082 0.0082 0.0022 -4.0E-4 0.0034 0.0067 -0.0012 0.0109 0.0094 -0.0173 0.0163 -0.0373 0.0129 -0.0103 0.0181 0.0034 -0.0084 -0.0036 -0.0209 0.0116 -0.0076 -0.0072 0.0348 0.0035 -0.009 0.004 0.0534 -0.0374 -0.014 -0.0098 -0.0103 0.0057 -0.0 -0.0342 0.0025 -0.0165 0.0507 -0.0058 -0.006 0.0014 -5.0E-4 0.0122 -0.0102 9.0E-4 -0.0069 0.0163 0.0047 -0.0085 -1.0E-4 -0.0088 0.0083 0.0019 0.005 -0.0048 -0.0109 -0.0037 -0.0039 1.0E-4 0.0551 0.019 -0.0032 0.0013 0.0494 -0.0105 0.0342 -0.0071 -0.0581 0.007 -0.0021 0.0173 0.0221 0.0167 -0.007 0.0084 -0.0131 0.0247 0.0012 0.0125 -0.0046 -0.0173 -0.0139 2.0E-4 -0.0035 0.0199 0.0172 0.0214 0.0073 -0.0077 0.0069 -7.0E-4 -0.013 0.0109 0.0374 0.0015 0.013 -0.0088 -0.0066 -0.0021 -0.0306 0.0087 -0.0076 0.0105 -0.0092 0.0019 -0.0085 -0.0051 0.0505 -0.0396 -0.0105 0.0235 -0.0261 -0.0022 -7.0E-4 0.0159 -0.0011 -0.0096 -0.0122 -0.0209 0.0015 -0.0032 0.0029 -0.0092 -0.006 -0.0028 0.0042 -0.0038 0.0077 0.0034 -0.0067 0.0113 0.002 -3.0E-4 0.0125 0.0173 0.003
journal 0.0032 -0.0322 0.0311 -0.0293 0.026 -0.0306 0.0049 -0.0438 0.0244 -0.0127 -5.0E-4 -0.0438 -0.0034 0.0043 0.0051 0.0121 0.0383 -0.0261 0.0151 -0.0176 -0.0064 0.0173 0.0122 0.0314 -0.0022 0.0272 -0.0078 0.038 0.0149 0.0276 0.0201 0.0045 0.0127 -0.0395 0.0183 0.0146 0.0242 -0.0088 0.0115 0.0145 0.0011 -0.0276 -0.013 -0.0068 -5.0E-4 0.0135 0.0223 0.0115 -1.0E-4 -0.0107 0.0148 -0.0063 -0.0142 -0.0045 -0.0059 0.0088 -0.0141 0.0047 -0.003 0.0365 0.0184 0.0086 0.0432 -5.0E-4 0.0397 0.0252 0.0109 0.0198 -0.0055 0.0156 -0.0134 0.0075 -0.0061 -0.0105 0.0375 -0.0048 -0.03 -0.0069 0.0097 8.0E-4 0.0021 -3.0E-4 -0.0077 -0.0138 -0.0213 -0.0087 0.0049 -0.0119 0.0124 -0.0083 0.026 0.0237 -0.0242 0.0084 0.013 0.0214 -0.0023 0.0046 0.0256 -0.0181 -0.0113 0.0021 0.0138 -0.0278 -0.0038 -0.0394 -0.0063 0.0024 0.0156 -0.0151 0.0078 0.0298 0.0127 0.0091 -0.0432 0.0136 0.0095 -0.0423 -0.0078 0.0182 0.0241 0.009 -0.0111 0.004 0.0108 -0.0404 -0.0163 -0.0165 0.0159 0.0397 -0.0119 0.008 -7.0E-4 -0.0114 0.0375 -0.0031 0.0141 0.0263 0.0264 0.0115 0.0104 -0.0126 -0.0079 -0.0344 -0.0247 -0.0288 -0.0074 0.0213 0.0167 -0.0187 0.005 0.0468 0.0114 -0.0331 0.0348 0.0195 0.0182 0.0097 0.0087 0.013 0.0137 0.0305 -0.0167 -0.0048 -0.0272 -0.0117 0.0042 0.0017 0.002 -0.0185 -0.0197 0.0054 0.0019 -0.0022 0.0056 0.0066 -0.0281 -0.0129 0.002 -0.0116 1.0E-4 0.0065 -8.0E-4 -0.0043 -0.0294 0.0093 0.0205 0.0142 -0.0114 -0.0012 -0.0237 0.033 0.0204 -0.022 -0.0021 -0.0186 0.0011 -0.0031 -0.0159 -0.0014 -0.0551 0.0285 -0.0073 -0.0056 -0.0061 0.0154 -0.0195 -0.0012 -0.017 -0.0051 0.0597 -0.0049 -0.0212 -0.0196 -0.0154 0.0035 -0.0075 -0.0104 0.0195 0.0389 -0.0135 0.0352 -0.0199 0.0441 8.0E-4 0.0104 0.0051 0.0029 6.0E-4 -0.0107 0.0123 -0.0436 1.0E-4 0.0243 -0.0072 -0.0113 0.011 0.0123 0.0345 -0.0108 0.0221 0.0039 0.0268 0.004 -0.0189 0.0215 -0.0264 -0.0021 0.0072 -0.0014 0.0296 0.0079 0.0227 -0.0209 -0.0208 -0.0557 -0.0179 -0.0137 -0.0067 -0.0013 -0.0107 0.0211 -0.0011 -0.023 -0.0219 -6.0E-4 0.0053 0.0133 0.0062 0.0255 0.0202 0.039 -0.0369 0.0013 -0.0118 -0.0368 -0.008 0.0078 0.009 0.0177 0.0258 0.0044 0.0256 -0.0327 0.0092 0.0056 -0.0116 -0.0098 -0.023 0.0104 0.0036 0.0242 0.0086 -0.0023 -0.0045 -0.0123 0.0153 0.0022 -0.0341 0.0269
laundering 0.011 0.0035 -0.0092 -0.03 0.0021 -9.0E-4 0.0158 -0.0208 -0.0043 -0.0066 -0.0169 -0.0042 -0.0402 -0.0242 0.0018 -0.0022 0.01 0.011 -0.0078 0.0098 -0.0066 0.0117 -0.0098 0.0109 0.019 0.0364 0.0011 -0.0121 0.0046 0.0065 -8.0E-4 -0.0072 -0.0189 -0.0107 0.0113 -0.0043 -0.0097 0.0038 0.001 0.0091 0.0081 -0.0145 0.0191 2.0E-4 0.005 0.006 0.0113 0.0109 0.0058 0.0037 -0.0234 0.0076 -6.0E-4 0.0074 -0.0129 -0.0011 -0.0078 -0.0016 -0.0109 -0.0053 -0.0155 -0.0048 0.0118 -0.014 -0.007 -0.0031 0.0311 -0.002 0.0216 -0.0049 0.0088 -7.0E-4 0.0131 -1.0E-4 0.0085 0.0033 0.0016 0.0045 -0.0248 -0.016 -9.0E-4 -0.0122 -0.0127 0.0134 -0.0058 0.0157 0.0016 0.0068 0.0234 -0.0066 -0.0144 -0.0056 -0.023 -0.0123 0.017 0.0083 -0.0115 -0.0176 -0.0146 -0.0085 -0.0128 -0.0131 -0.0143 -0.0176 0.003 -0.014 -0.0186 -0.0188 0.0013 -0.0034 0.0243 0.0189 0.0174 -0.0337 -0.0142 -0.0166 -0.0062 -0.0104 -0.0163 -0.0053 0.0046 -0.0184 0.0164 -0.0238 0.0247 -0.019 -0.0258 -0.0451 -0.0077 0.0249 0.0029 -0.0225 0.0127 -0.0143 0.0327 0.0095 -0.0154 -0.0055 0.0302 -0.0057 0.027 0.0449 -8.0E-4 0.0012 0.0034 0.0147 0.0061 -0.0186 -0.0016 -0.0084 0.0048 -0.0016 0.0196 -0.0349 -0.0176 -0.0032 -0.0175 -0.0057 0.0338 0.014 0.022 0.0026 -0.0491 0.0306 0.0015 0.0038 0.0078 -0.0219 0.0053 0.0191 0.0103 -5.0E-4 -0.0143 0.0024 -0.0116 0.0282 -0.0182 0.0199 -0.0153 -0.0085 -0.0274 0.0282 0.0227 -0.0073 -0.028 -0.0057 -1.0E-4 0.0448 5.0E-4 -0.0025 0.0023 -0.0087 -0.0078 -0.0081 0.0013 0.0084 0.0045 0.0039 -0.0089 -0.0272 -0.0514 0.016 0.0209 0.0035 0.0132 -0.0089 0.017 -0.029 0.0258 0.0094 0.0296 0.0204 0.0013 -0.0251 0.0148 -0.0106 -0.0337 0.0244 -0.0056 -0.0361 -0.0207 -0.0265 -0.0017 0.0144 -0.0243 0.0205 -0.0051 0.0128 0.0062 -0.001 -0.0142 -0.0171 -0.0178 -0.0251 -0.0031 7.0E-4 -0.0082 0.0158 -0.0088 -0.0201 0.0095 -0.0185 0.0095 -0.0043 -0.0271 0.0316 0.0032 -0.0069 0.0123 0.0455 0.0059 0.0107 -0.0086 0.0118 0.0135 0.025 0.0165 0.0053 -0.031 0.0328 -0.0039 0.0139 0.0057 0.0408 -0.0109 -0.0032 -0.0112 0.0143 -0.0099 0.0023 -0.022 0.0115 -0.023 0.0082 -0.0193 -0.0163 0.0139 0.0016 -0.0109 -0.0283 -0.0046 0.0166 0.0091 -0.0073 9.0E-4 0.0071 -0.0013 0.0117 0.013 -1.0E-4 0.0066 0.002 -0.0185 0.0127 -0.0283 -0.0085 9.0E-4 -0.0076 -0.0196 -0.028
hotel 0.0136 -0.0338 -0.0247 -0.0023 0.0104 0.005 0.0434 -0.0422 0.0177 0.0213 0.0357 -0.0524 -0.0032 -0.0177 -0.021 0.0232 0.0801 -0.0331 0.0207 0.0012 0.0301 -0.0051 -0.0127 0.0348 -0.019 -0.0041 -0.0091 0.0195 -0.0123 0.0019 -0.0217 0.0196 -0.0065 -0.014 0.0022 0.0284 0.0049 0.0528 -0.0232 0.0288 0.0065 -0.0802 -0.0066 0.0086 0.02 -0.0038 0.0217 0.0121 -0.0298 0.013 0.0449 -6.0E-4 -0.0081 0.0031 -0.0482 0.0051 -0.0271 -0.0482 -0.0361 -0.0273 0.0194 0.0039 0.0446 -0.0027 0.0441 0.0803 -0.0047 -0.0541 -0.0248 -0.0018 -0.005 -0.0152 0.0056 0.0021 0.0483 -0.0409 -0.0185 -0.0145 -0.032 0.0116 -0.0055 0.0023 0.014 -7.0E-4 -0.0413 -0.0314 0.01 -0.0374 -0.0141 -0.0028 -0.0235 -5.0E-4 -0.052 0.0063 0.0035 0.0723 -0.0076 -0.022 0.008 -0.0172 0.007 0.0882 -0.0298 -0.0293 0.0061 -0.0668 0.0091 -0.0338 2.0E-4 0.0262 -0.0023 0.0812 0.0491 0.0287 9.0E-4 -0.0303 -0.0129 -0.008 -0.0139 0.0248 0.0171 -0.0035 -0.0162 0.0086 0.0021 0.0136 0.0123 -0.0525 -0.0244 0.0367 0.0336 -5.0E-4 -0.0323 -0.0465 -0.0365 0.0219 0.0137 0.0195 -0.0344 -0.0269 0.0174 -0.0183 -0.0061 -0.0254 -0.0189 0.0019 5.0E-4 -0.0043 0.0071 0.0082 -0.0102 0.0275 0.0162 -0.0351 1.0E-4 -0.0015 -0.0165 0.0095 -0.011 0.0302 0.0269 4.0E-4 -0.0212 0.0197 0.0106 0.0113 0.0011 -0.0306 0.013 0.0655 0.018 -0.0098 -0.018 0.0092 0.0295 0.0134 -0.0658 -0.0047 -0.0362 0.0339 0.0068 -0.0137 0.0299 -0.0193 -0.0364 0.0026 0.0015 0.055 0.0102 -0.0232 -0.006 0.0237 -9.0E-4 0.0103 0.0191 -0.003 0.0151 -0.0245 0.0013 -0.0116 -0.0889 0.0394 -0.0517 -0.0207 0.0461 -0.0195 -0.0385 -0.028 -0.0365 -0.0244 0.0604 -0.0317 -0.0069 -0.0 -0.0199 0.0066 -0.0049 0.0248 0.036 -0.011 0.0086 -0.002 0.005 0.0449 -0.0262 0.0151 -0.0295 0.0084 -0.0242 -0.0034 -0.0117 -0.0394 -0.013 -0.0036 -0.0134 -0.0507 -0.01 0.0405 0.0506 0.0039 0.0508 -0.0018 0.0382 -0.0256 0.005 0.017 0.0473 0.0215 0.0041 0.0266 -0.0208 -0.0196 -0.0501 -0.0131 -0.0015 0.0046 -0.0679 0.0212 0.0088 0.0698 0.0169 -0.0147 0.0107 -0.0205 0.0096 -0.0095 -0.0284 0.0028 -0.0092 0.0052 -0.0561 0.0389 -0.0592 -0.0123 0.0057 -0.0129 0.0226 0.0159 0.0408 -0.0042 0.0291 -0.0129 -0.0134 0.0025 -0.0182 0.0144 -0.018 -0.0275 0.0046 0.0017 0.0127 0.0515 0.0096 0.0015 -0.0041 0.0206 0.0258 0.0626 -0.0099 -0.0349
term 0.0197 -0.0599 -0.0307 0.0208 -0.0017 -0.0568 0.0038 -0.0692 0.0667 -0.0265 0.0064 -0.002 -0.0235 0.0278 -0.0252 0.0265 0.031 0.0144 0.0496 -0.0113 0.0069 0.0154 0.0282 0.0138 0.0192 -0.0432 -0.0312 0.0249 -0.0065 0.0327 0.0322 -0.0133 -0.0262 -0.073 -0.0261 -0.0234 0.0083 0.0378 0.0272 -0.0075 -0.0031 -0.0232 -0.0315 -0.0296 -0.0037 0.0119 -0.0208 -0.0213 0.0348 0.0063 -0.0061 -0.0223 -0.0334 -0.0037 -0.0256 -0.0161 0.0226 -0.0284 -0.0295 -0.0118 0.0153 0.0214 0.1197 -0.0487 -0.0311 -0.0221 0.0324 -0.0185 -0.0128 -4.0E-4 -0.0137 9.0E-4 -0.049 -0.0116 0.0259 0.0206 -0.0582 0.01 -0.0036 -7.0E-4 0.0294 -0.0194 -9.0E-4 0.0185 -0.0266 0.0358 -0.0245 -0.0063 -0.0459 0.0349 -0.0108 -0.033 -0.0409 -0.0165 0.0471 0.0475 -0.0179 -0.0041 -0.0094 -0.0027 0.0237 0.0121 0.0312 -0.0426 -0.0609 -0.0515 -0.0342 0.0063 0.016 -0.0289 -0.0276 -0.0209 0.0238 -0.0102 -0.0581 0.0402 -0.0045 -0.0192 -0.0344 0.0621 -0.0377 -0.0378 0.0256 -0.0129 0.0334 0.0072 -0.0216 -0.0438 -0.0452 0.0405 -0.0113 -0.0254 -0.0282 -0.0155 -0.0451 0.0209 -0.0288 0.0443 0.0557 -0.003 0.0041 -0.032 0.0187 9.0E-4 -0.0096 -0.0292 0.0028 -0.0223 0.0025 -0.014 0.0321 0.0386 -0.0486 -0.0521 0.0193 0.0234 -0.0433 0.0109 -0.0538 0.0128 -0.0143 0.0486 -0.0251 -0.0537 0.0183 -0.0404 0.0029 -0.0442 0.0108 -0.024 -0.0095 -0.0439 0.0037 0.0094 -0.0209 0.0363 0.0201 0.0175 0.004 -0.0022 -0.0279 0.011 -0.0161 0.0124 0.0324 -0.0196 -0.0478 0.0543 -0.0125 0.008 0.0015 0.0533 -0.0058 -0.0011 -0.0216 -0.0178 7.0E-4 0.0116 -0.0513 0.0136 -0.0811 0.0309 0.0179 -0.0275 0.0222 -0.0486 -0.0357 -0.0037 -0.0387 -0.0238 0.0873 -4.0E-4 0.0169 -0.014 0.0207 0.0522 -0.0269 -0.0015 0.0095 -0.0648 -0.024 -0.0208 0.0295 0.0827 0.0021 0.0194 0.0027 0.0509 0.023 0.0152 0.0254 -0.0745 -0.0326 0.0148 0.0178 0.0304 0.012 -0.0131 0.0026 -0.0455 0.0577 -9.0E-4 -0.0129 0.0261 -0.0577 9.0E-4 -0.0104 -0.0332 -0.0238 0.0161 0.0039 0.0414 0.0206 0.0181 0.0052 -0.0386 0.0321 0.0078 0.0048 -0.0129 0.0371 -0.0351 -0.0237 -0.0482 0.022 0.0051 9.0E-4 -0.0262 0.0238 -0.0093 0.0289 0.0633 -0.0532 -0.009 0.0298 -0.0553 0.036 0.024 -0.0286 -0.0086 0.0569 0.0271 -0.0641 -0.0157 -0.0185 -0.0039 -0.0486 0.0027 0.0147 0.0075 0.03 -0.0343 0.0262 -0.0491 -0.008 0.005 -0.0379 -0.0251 -0.0551 0.0122
listing 0.0153 -0.0219 0.0226 0.0156 0.0019 0.0059 -0.0282 -0.0463 -0.0138 -2.0E-4 -0.0022 -0.0268 -0.0027 0.021 0.0108 0.0124 0.0018 -0.0192 0.0171 -0.0152 0.0044 -0.0244 0.0045 0.0179 0.0015 -0.0221 -0.0176 0.004 0.0292 0.0172 -0.0064 -0.0074 -0.0238 -0.0419 0.0245 -0.0082 -0.0222 -0.0061 -0.0072 -0.0074 0.0042 -0.0287 -0.0085 -0.0045 0.0058 0.0163 -9.0E-4 0.0103 -0.0055 0.0031 -0.024 0.009 -0.0 -0.0269 -0.0053 0.024 -0.0169 0.0389 -0.0116 -0.0039 -0.0164 0.007 0.0426 -0.0059 -0.0022 -0.0129 0.0044 0.0346 0.0041 -0.0032 0.0022 -0.0023 0.0133 -0.0213 0.0255 -0.0034 -0.0202 -0.035 0.0051 0.0073 0.0239 -0.0118 -0.0096 0.0223 -0.0192 -0.0155 0.0022 -0.0113 -0.0041 -1.0E-4 -0.0129 -0.0049 -0.0132 0.0098 -0.0016 0.0072 0.0155 0.0119 0.0244 0.0136 -0.0113 0.0014 -0.0065 -0.0021 -0.0074 -0.029 0.0141 -0.001 7.0E-4 0.0015 0.0151 0.0129 0.0168 0.0063 0.005 -0.009 -0.018 -0.0246 -0.0189 -0.0106 -0.0056 -0.0115 0.0106 0.0093 0.0 -0.0031 -0.0125 -0.0271 0.0188 0.0554 -0.0023 0.0017 0.0015 0.0053 -0.002 0.024 -0.0116 0.0333 0.0044 0.0104 -0.0173 0.0015 -0.013 -0.0019 -0.0106 -0.001 -0.0051 -0.0169 0.0221 -5.0E-4 -0.0057 0.019 -0.0164 -0.0362 0.019 0.0182 5.0E-4 0.0214 0.011 0.0071 -0.0121 -0.0181 0.0019 -0.0026 0.0329 0.0198 -0.0018 -0.0083 -0.0228 -0.001 -0.0066 -0.0017 0.0286 0.0018 -0.0114 0.0257 -0.0147 -0.0103 -0.0033 -0.0013 0.0202 -9.0E-4 0.0283 -0.0028 0.0228 -4.0E-4 -0.0224 0.0279 -0.0092 -0.0055 -0.0222 0.0237 -0.025 -0.0042 -0.0013 0.0176 0.012 -0.0055 -0.0473 0.0041 -0.0577 0.0299 -0.0186 -0.0092 0.0175 -0.0089 -0.0071 2.0E-4 0.0141 -0.0031 0.0311 0.0034 0.0049 -0.0024 -0.0146 -0.0088 0.0095 0.0243 0.0181 -0.0086 0.0062 0.0107 0.006 0.0482 0.0067 0.0136 -0.0052 0.0315 0.0122 -0.0025 -0.0061 -0.029 -0.0091 0.0018 0.0099 -0.0375 0.0228 -0.0122 0.0082 0.012 0.0404 -0.0088 0.0083 0.0051 -0.062 -0.0145 -0.0062 0.0118 -0.0136 -0.009 0.0066 -0.0168 0.0092 0.0018 0.0115 -0.0329 -0.0165 0.0053 0.0256 0.0367 0.0065 -0.0074 0.016 0.007 -0.0193 -0.0228 -0.0121 -0.0082 -0.0 -0.0039 -0.0016 0.037 -0.0288 -0.0165 0.0023 -0.0149 -0.0073 0.0066 -0.0031 -0.02 0.0094 4.0E-4 0.0413 0.0199 0.0283 -0.005 -0.028 0.023 -0.0246 -0.0175 0.0068 -0.0014 0.0275 0.0118 0.0034 0.015 -0.0028 -0.0012 0.014 -0.0127
chemistry -0.0289 -0.0107 -0.0041 0.0023 0.0056 -0.0268 0.0227 -0.0273 0.0232 0.0093 0.0012 -0.0146 0.0194 0.0082 0.0057 7.0E-4 0.0409 0.032 0.0184 -0.0077 0.0186 0.0282 0.0191 0.0186 -0.0088 -0.035 -0.0074 -0.0158 -0.0 0.0111 0.013 -0.0023 0.014 -0.0129 0.0095 0.0164 -0.0014 -0.0029 -0.0128 -0.0101 -0.011 -0.0553 0.0027 -0.0166 0.0111 -0.0104 0.0011 -0.0087 -0.0018 0.0128 -0.0053 0.0079 0.005 0.0119 -0.0146 0.0012 -0.0021 0.0186 -0.0077 0.0105 0.0127 0.0198 0.0299 0.0182 0.0125 -0.0027 0.0231 0.007 0.0054 -0.0123 0.0157 -0.0024 0.0055 -0.0152 0.0098 -0.0132 -0.0204 -0.0107 -0.0012 -0.0025 -0.0141 0.0049 -0.015 0.0191 -0.0235 0.0187 0.0259 -0.0088 0.0129 -0.0018 0.0229 0.0071 -0.0298 0.0103 0.0083 0.0372 0.0194 0.0237 0.0086 0.0091 0.0037 0.0068 0.0042 0.0118 1.0E-4 -0.0222 -0.0051 0.0086 0.0172 -0.002 0.0063 0.0258 0.0099 -9.0E-4 -0.0024 -0.0086 0.0199 -0.0144 -0.012 -0.012 -0.0068 -0.0063 -0.0058 -0.0105 0.0144 0.0085 -0.0305 -0.014 -0.0097 0.0488 -0.0049 0.0013 -0.0339 -0.0019 0.0084 0.0028 0.0161 0.0016 0.0147 -0.0168 0.0098 0.012 0.0093 0.0046 0.0173 0.0091 -0.0022 -0.0062 2.0E-4 0.006 0.0098 0.0254 0.0196 -0.0181 -7.0E-4 0.0239 -0.0038 0.0117 0.0094 0.0036 0.0076 -0.0096 -0.0343 -0.0071 0.0221 -0.0051 -0.0239 -0.0075 0.0163 -0.0107 0.01 -0.0137 -0.0054 0.0064 0.0268 0.0177 -0.0157 0.0283 -0.0021 -0.0144 -0.0114 0.0049 0.0043 -0.0162 0.0199 -0.0245 0.0085 0.0356 -9.0E-4 0.0107 0.0144 0.0307 -0.0151 -0.009 -0.014 -0.0024 -0.0079 -0.0023 -0.0019 0.0024 -0.0453 -0.0142 -0.0091 -0.0198 -0.0072 0.001 -0.0069 -0.0047 -0.0057 -0.0051 0.0462 0.0141 0.0082 0.0115 0.0141 0.0061 -1.0E-4 0.0202 -0.0235 -0.0149 0.012 0.0058 -0.0301 0.0281 -0.0038 0.007 0.0222 0.0334 0.0039 -0.0109 0.0144 -0.0104 -0.0208 0.0072 -0.0019 -0.0037 0.0095 6.0E-4 -0.0251 -0.0084 0.0034 0.0012 0.0167 0.0036 0.0145 0.0168 -0.0348 -0.0047 0.0168 0.0219 0.0138 -0.0146 -0.0106 -0.0032 0.0148 0.006 0.0115 0.0187 0.0166 -0.0018 0.0071 0.0194 -3.0E-4 0.0132 -0.02 -0.0118 -0.0151 0.0132 0.0064 0.0049 0.0066 0.0207 -0.0349 -0.0081 0.0012 -0.0012 -0.0121 0.0208 0.0304 -0.009 0.0327 -0.0049 -0.0103 -0.0206 -0.0191 -0.0136 -0.0072 -0.0027 -0.0105 0.001 -0.009 0.0246 -0.0217 5.0E-4 -0.027 -0.0036 0.0293 -0.0043 0.0141 2.0E-4
seafood -0.0541 -0.0146 -0.0031 0.0149 0.0056 -0.015 -0.0224 -0.0414 0.0036 0.0441 -0.0317 0.003 -0.0285 -0.015 -0.0245 -0.0115 0.0412 0.0176 0.0136 0.0195 0.0153 0.0022 -0.013 0.0202 4.0E-4 -0.0164 -0.0236 0.0265 0.0269 0.0131 0.0036 -0.0156 0.0256 -0.0056 0.027 0.01 -0.0085 0.0347 0.0483 0.0209 3.0E-4 -0.0543 -0.0168 0.0391 0.0184 -0.0279 -0.0109 -0.0139 -0.006 -0.009 -0.0102 -0.0019 0.0225 -0.0023 -0.0346 0.0 0.0248 0.0315 -0.0135 -0.0468 -0.0225 0.0013 0.0405 -0.0044 -0.0031 0.0177 0.0027 -0.0122 0.0108 -0.0176 0.014 -0.0306 0.0292 0.0095 0.0043 -0.0273 -0.0208 -0.0054 0.0063 0.0052 -0.0177 -0.0105 0.0061 0.0041 -0.0083 0.0098 -0.013 -0.0172 -0.0015 -0.0078 -0.0022 0.0155 -0.0404 -0.0044 -0.0284 0.0352 0.0454 0.0495 0.012 -0.0176 -0.0451 -0.0232 -0.0098 -0.0107 0.0032 -0.0441 -0.0461 0.0347 -0.022 -0.0058 0.0107 0.0323 0.0258 0.0198 -0.0072 0.0201 -0.0092 0.0398 -0.0244 0.0174 -0.0225 0.0312 -0.0078 -0.0416 0.0489 0.0076 -0.0105 -0.0434 -0.0204 0.0362 0.0101 0.0059 0.0176 -0.0327 -0.0401 5.0E-4 -0.0057 0.0092 -0.0038 0.0089 0.0114 0.0166 -0.0061 -0.0023 0.0088 -0.034 -0.0057 -0.0076 -0.0201 -0.0023 0.0161 0.0368 0.0312 -0.0197 0.0282 -0.0083 -0.0218 0.0154 -0.0082 0.005 0.0089 0.0278 -0.0284 -0.0215 0.0153 0.0146 -9.0E-4 -0.0155 0.0117 0.0298 0.0226 0.0106 0.012 -0.0316 -0.0077 0.0277 4.0E-4 -0.0076 -0.0418 0.0054 0.011 -0.0073 0.0741 -0.0579 0.0189 -0.0295 0.0062 0.0479 -0.0355 0.0031 -0.0063 0.023 0.0146 -0.0155 0.0017 0.0039 0.038 0.0127 0.0049 0.0109 -0.072 0.0101 -0.0283 -0.0233 0.0094 0.0208 4.0E-4 -0.0349 0.0032 -0.0046 0.0434 -0.0095 0.0181 0.0252 0.0224 -0.03 -0.0012 0.0093 0.0051 -7.0E-4 -0.0137 -0.0138 -0.0284 0.0544 -0.0078 0.039 -0.019 0.0228 -0.007 -0.0204 -0.023 -0.0037 -0.039 0.0042 0.0073 -0.012 -0.0177 0.0217 0.0317 -0.0398 0.0071 -0.0169 -0.0157 -0.0557 -0.0169 0.0039 -0.0097 0.0018 0.0202 -0.0169 0.0018 -0.0445 -0.0376 -0.0259 -0.0084 0.0077 -0.0238 -0.0095 0.002 0.0085 0.005 0.0211 0.0293 0.0037 -0.0057 0.0279 -0.0033 -0.0172 0.0086 -0.0101 -0.0086 0.0344 -0.039 -0.0205 -0.0207 -0.0219 -0.0155 0.0109 -0.0212 0.0106 0.0501 0.0328 0.0032 0.0159 -0.01 0.0064 0.0046 0.0077 0.0203 -0.0358 0.0043 0.0687 -0.0137 -0.0013 -0.0098 -0.0327 -0.0263 0.0074 -0.0215 -0.0291
CD -0.0139 0.0589 -0.1567 0.0616 -0.016 -0.0198 0.0154 -0.1131 0.0186 -0.0086 -0.1047 -0.0389 -0.0122 -0.0385 0.0338 -0.0562 0.1067 0.1593 0.0431 -0.0881 -0.0961 -0.0475 -0.016 0.0762 0.0584 0.0035 -0.0133 0.1118 0.0036 0.0493 0.0365 -0.0659 -0.081 -0.0503 0.0308 0.0192 -0.0857 -0.0534 0.0943 0.063 0.0088 -0.0939 -0.0342 -0.0618 -0.0257 0.0389 -0.0119 -0.0087 -0.0027 -0.0018 0.0052 -0.08 -0.0241 -0.1286 -0.0818 0.1797 -0.074 -0.04 -0.0633 0.0616 0.0191 -0.1056 0.1634 0.0507 0.0283 -0.0373 0.0097 0.0484 0.0632 0.0264 -0.0438 -0.0069 -0.0235 0.0 -0.0124 0.0515 -0.0165 -0.0744 0.1547 0.0054 0.0086 -0.056 -0.0242 -0.0023 -0.078 -0.0326 0.0527 -0.0675 0.0012 -0.1401 -0.0085 0.0526 -0.0858 0.0451 0.0273 0.1072 0.1392 0.0026 0.0077 -0.0352 0.0282 0.062 0.0078 -0.0587 -0.0654 -0.0946 0.0295 -0.0324 -0.019 -0.0349 -0.0161 0.0234 0.07 0.0395 0.0203 0.0266 0.1139 -0.032 0.0602 -0.0341 0.044 -0.0361 -0.0403 -0.0446 -6.0E-4 -0.1344 0.0191 -0.0493 0.099 0.0376 -0.0545 -0.0249 0.0544 0.1017 -0.0454 -0.0941 0.0511 0.0058 -0.0071 -0.0521 -0.0489 0.1968 0.0266 -0.0662 -0.1391 -0.0776 -0.0865 0.0629 -0.0661 -0.0143 -0.0136 0.0506 0.031 -0.0725 -0.001 0.0576 0.007 0.1242 0.0386 -3.0E-4 -0.0248 0.0234 -0.0427 0.0096 0.0099 -0.0083 0.0174 -0.0079 0.0585 0.1161 0.0527 0.0904 0.1418 -0.0656 -0.0678 0.0402 -0.0371 -0.1146 -0.0272 -0.1 0.0088 0.0406 -0.0444 -0.0257 -0.0251 0.0314 -0.0993 0.1566 -0.0049 0.0461 0.0496 0.0417 -0.0413 0.0196 0.0578 0.0924 0.0264 -0.0518 -0.0059 0.0194 -0.1037 0.1715 0.027 -0.0525 0.0297 -0.0212 -0.0082 0.0856 -0.1074 -0.049 0.1878 -0.0777 0.0181 0.001 -0.0173 -0.0902 -0.0083 0.086 0.0036 -0.0341 0.1445 0.0714 0.0906 0.1299 0.0017 0.0652 0.1533 4.0E-4 0.0083 -0.0177 0.1013 -0.1229 0.0083 -0.093 0.0353 0.0015 0.0649 -0.0023 0.0585 -0.0284 0.0624 0.0223 0.0409 -0.0861 0.0388 -0.0528 0.0142 0.03 0.0503 -0.0091 0.0497 -0.0832 -0.0621 -0.0164 -0.0228 -0.0336 0.0748 -0.0115 0.086 0.0612 0.0455 -0.0292 0.0904 -0.1248 -0.0187 -0.0052 -0.0555 -0.048 0.0012 -0.0291 0.0545 0.1231 -0.0978 -0.0016 -0.0399 -0.007 -0.0451 0.079 -0.071 -0.0308 0.048 0.1342 0.0022 -0.0348 -0.0098 -0.0666 -0.033 -0.0022 -0.1118 -0.0222 0.0189 -0.0318 -0.0413 -0.0315 0.0744 0.0039 0.028 -0.1413 0.1472 0.0733
mind -0.0172 2.0E-4 -1.0E-4 3.0E-4 -0.0804 -0.021 -0.0138 -0.0696 -0.0315 -0.0054 -0.0058 -0.0469 0.0203 -0.0082 -0.0103 -0.0221 0.0316 -0.0087 0.0346 0.0269 -0.0316 0.003 0.0377 0.0233 -3.0E-4 -0.0088 0.0158 0.0108 -0.043 0.0102 0.0314 0.003 -0.0085 -0.0122 -0.0403 -0.0195 -0.0124 -0.006 0.0246 0.0391 0.0222 -0.0686 -0.0604 -0.0097 -0.0137 -0.0662 0.0163 0.0192 0.004 -0.0044 0.0616 -0.0192 0.0112 0.0039 -0.0299 0.0373 0.0263 -0.0036 -0.0626 0.0126 0.016 0.0064 0.0615 -0.0059 0.0033 -0.027 0.0162 0.008 -0.0256 0.0286 0.0185 0.0185 0.0449 -0.0127 -0.0073 -0.025 0.0038 -0.0013 -0.0195 0.0192 -0.0494 -0.0229 0.0038 0.0557 0.0268 -0.0257 -0.0116 -0.0268 0.0245 -0.0622 0.0434 0.0391 -0.0783 -0.0107 -0.0247 0.0307 0.0019 -0.0194 0.0715 0.0306 0.0248 0.0343 0.043 -0.0099 0.0329 -0.0675 7.0E-4 0.0345 -0.009 -0.0114 -0.0559 0.0523 0.0208 -0.0121 -0.0178 0.0046 -0.0339 -0.043 -0.0235 0.0141 -0.0029 -0.0085 -0.0447 0.0316 0.0022 0.0164 -6.0E-4 -0.0719 -0.0022 0.0767 -0.0458 0.0065 0.015 0.0295 -0.0024 -0.0386 0.0188 0.0353 -0.0061 0.0111 0.0372 -0.0264 0.0014 0.0186 0.0521 -0.0176 -0.0018 -0.0175 0.025 0.043 0.0196 0.021 0.0248 -0.0704 -0.012 0.0029 -0.0126 -0.011 0.011 3.0E-4 0.0176 -0.0014 -0.0086 0.002 0.0125 -0.0101 0.0015 -0.0082 -0.0205 0.0112 -0.0098 -0.0182 -0.0365 3.0E-4 0.0497 0.0225 0.0136 0.0244 0.0019 -8.0E-4 -0.0093 -0.0154 0.0048 -0.0453 0.0282 -0.0542 0.0353 0.0706 0.0368 0.0135 0.0192 0.0309 -0.0379 0.0022 0.0237 -5.0E-4 0.0141 0.0212 -0.0269 0.0294 -0.0868 0.0448 0.0013 -0.0142 0.0247 -0.0315 -0.0218 -0.0039 0.0146 -0.0037 -0.0063 0.005 -0.0084 -0.0344 -0.0314 -0.005 0.0144 -0.0252 -0.0036 -0.0038 -0.0247 0.0099 -0.0161 0.0694 0.0528 -0.0294 -0.0044 0.0904 0.0052 -0.0297 0.0032 -0.0644 -0.0519 -0.0456 0.0253 0.0156 0.0099 -0.0115 -0.0055 -0.0124 0.0952 0.0014 -0.0151 0.0144 -0.0335 -0.0207 0.0064 -0.0679 -0.0335 -0.0211 0.0697 -0.0039 -0.0076 -0.0258 0.0419 0.0066 -0.0 -0.013 -0.002 0.025 -0.0053 -0.0028 0.0074 -0.0348 -0.0191 0.0301 0.0171 0.0528 0.0096 -0.0148 -0.0033 0.0646 -0.0735 -0.0418 0.1004 -0.0504 -4.0E-4 0.0253 0.0103 0.0012 0.0117 0.0202 0.059 -0.0599 0.0164 -0.0024 0.0467 -0.02 -0.014 0.0486 0.0068 -0.0021 -0.0318 -0.033 -0.003 -0.0171 0.0134 0.0266 -0.0571 0.0292
sex 0.0178 -0.0042 0.0413 0.0293 0.0081 0.0352 0.0041 -0.0717 0.1217 0.0744 0.0316 0.0251 0.034 -0.0254 -0.0747 -0.0564 0.0525 -0.0028 0.0389 0.043 0.0721 0.0202 0.0479 0.0387 -0.0348 -0.0194 6.0E-4 -0.0162 0.0376 0.0113 0.0192 0.0908 -0.0294 -0.0341 0.04 0.0116 0.0045 -0.0347 -0.0433 0.103 -0.0085 -0.0978 -0.0612 -0.0238 0.0236 -0.0149 0.0446 -0.0447 -0.0246 0.0339 -0.0232 -0.0229 0.0629 -0.0154 -0.0536 0.0418 0.0427 -0.0308 -0.0295 -0.0326 -0.0667 0.0098 0.1265 -0.0266 0.0252 -2.0E-4 0.0081 0.014 0.0059 -0.0061 0.0432 0.0665 0.0318 0.0101 0.0176 0.03 -0.0028 -5.0E-4 -0.0198 0.0069 -0.0111 -1.0E-4 -0.0378 0.0253 -0.0651 -0.0172 0.0362 0.0046 -0.0187 0.0222 -0.0013 0.0293 -0.0997 0.0193 0.049 0.0304 0.0353 0.0623 0.0472 0.0719 0.0231 0.0074 -0.0356 -0.0528 0.0195 -0.0628 0.0379 0.0053 -0.0366 0.004 0.0394 0.0278 0.0645 0.02 -0.0139 0.0012 0.0225 0.0655 -0.0535 0.0992 0.0745 0.0975 0.0763 -0.0372 0.054 -7.0E-4 0.0139 -0.1044 -0.0065 0.0888 -0.0345 -0.0586 0.0393 -0.064 -0.0681 -0.0554 -0.0419 0.0206 0.027 -0.0218 0.0384 0.0254 0.052 0.0452 0.0249 -0.0546 -0.0431 -0.0397 0.0473 0.0082 0.0103 0.0848 -0.031 -0.0702 0.0012 0.0297 -0.0382 0.0269 0.0737 0.0251 0.0492 0.0258 -0.1063 0.0237 0.0023 -0.0196 0.0199 0.0328 -0.0278 -0.0498 -0.0112 -0.0437 0.0559 0.0097 0.0098 0.0728 -0.001 0.0647 -0.0201 -0.0517 0.0323 0.0251 -0.0349 0.0402 0.0093 -0.1049 0.012 0.0946 -0.0373 0.0836 0.0082 0.0302 0.0011 0.0083 0.0559 -0.0209 -0.0178 0.0062 -0.0092 0.0225 -0.1279 0.0964 -0.0207 -0.0588 0.0504 0.0365 0.0167 -0.0394 0.0836 -0.0092 0.1155 0.0214 0.02 0.0309 0.0869 -0.0255 -0.0219 -0.0056 -0.0175 -0.0592 0.0267 -0.0227 -0.051 0.1005 0.0145 -0.0892 0.0211 0.0526 -0.027 -0.0207 -0.0133 -0.0515 -0.101 -0.0957 0.0345 -0.0136 0.0376 -0.0126 -0.009 -0.065 0.0206 -0.0667 -0.0996 -0.0313 -0.0468 0.0393 0.0099 -0.0119 -0.0285 0.0324 0.0287 -0.0095 -0.0451 -0.0612 0.0191 -0.0515 -0.0483 0.0156 0.0845 -0.0366 -0.0035 0.0205 0.0396 0.001 0.0145 -0.0072 -0.0555 0.0142 0.0146 0.0758 0.0035 0.0748 -0.0912 -0.0425 -0.0165 -0.045 0.0067 -0.0124 -0.0443 -0.0847 0.1098 0.0494 0.0204 -0.0169 0.0048 0.0819 -0.0504 0.024 -0.0015 0.006 0.0099 0.0149 -0.1047 -0.0084 -0.0297 0.0711 0.0456 0.021 0.0015 -0.0878
food -0.0367 -0.0319 -0.0094 -0.0157 0.0222 0.0014 -0.017 -0.0643 0.0615 0.036 -0.0069 0.0099 -0.0136 0.0062 0.0123 -0.0374 0.0676 0.0287 0.0292 0.0194 0.0296 0.0219 0.0318 0.0094 -0.0251 -0.0104 -0.0194 0.0256 0.0333 -0.0286 0.0404 4.0E-4 0.0423 -0.0298 0.0443 -0.0031 0.0254 0.0176 0.0179 0.0196 -0.0261 -0.0938 0.0055 -0.0123 0.0497 -0.053 0.0076 -0.0514 -0.0171 5.0E-4 -0.0179 0.038 0.0537 -0.0521 -0.0454 0.0307 -0.0123 -0.0282 -0.0382 -0.051 -0.0192 -0.0668 0.0802 0.0179 0.0198 0.028 0.05 -0.0348 -0.0094 -0.0153 0.0186 0.0049 0.0467 -0.0267 -0.0127 0.0099 -0.0116 -0.0259 0.0038 0.0034 -0.0209 -0.0266 0.009 0.036 -0.0369 0.0214 -0.0088 -0.031 0.0055 0.0073 0.0042 0.0119 -0.0726 0.0068 -0.0487 0.0356 0.021 0.0596 0.004 -0.0173 0.0031 -0.0071 0.006 -0.0016 0.0084 -0.0791 -0.0878 0.0213 0.0617 0.0187 0.0071 0.0677 0.0366 0.0354 0.027 -0.0307 -0.0126 0.0153 -0.0396 -0.0268 -0.0297 0.0263 -0.0211 -0.0564 0.0505 -0.0431 -0.0343 -0.0664 0.0354 0.0537 0.0176 -0.015 0.0349 -0.0368 0.032 0.0092 -0.0632 0.0166 0.0112 0.0238 0.028 -0.0301 -0.0069 -0.0111 -0.0043 -0.0073 0.0186 0.0305 -0.0043 -0.0088 0.0389 0.0572 -0.0131 -0.0429 0.052 -0.018 -0.054 0.0146 6.0E-4 -0.0085 0.0295 -0.0177 -0.0584 0.0247 0.0136 0.0296 -0.0295 -0.0316 0.0612 0.0212 0.0194 -0.0273 0.0073 -3.0E-4 -0.0154 0.0411 -0.0297 0.0459 -0.0156 -0.0278 -0.0145 -0.0011 0.0282 -0.0998 -0.0162 -0.0409 0.024 0.088 -0.0384 -0.067 0.02 0.0422 0.036 -0.0255 0.0267 0.0103 -0.0102 -0.0273 0.0104 0.0101 -0.1035 0.0329 -0.005 -0.0479 -0.016 0.0237 -0.0097 -0.0311 0.0149 -0.004 0.0755 0.0036 -0.0014 0.0075 0.0251 0.0106 0.0289 0.0063 -0.0098 -0.016 0.0036 -0.0099 -0.0432 0.0679 0.0382 0.0128 0.0161 0.0371 -0.0108 -0.0158 -0.0312 -0.0238 -0.0518 -0.042 -0.017 -0.0069 -0.0284 0.0027 0.0172 -0.0765 0.0123 0.0103 0.0043 -0.0238 -0.0407 0.0474 0.0215 -0.0039 -0.002 0.0198 0.0018 -0.0309 -0.0366 8.0E-4 -0.0126 0.0145 -0.0062 0.0087 -5.0E-4 0.0495 0.0111 -0.0156 0.0402 -0.0088 0.0215 0.0229 0.0181 -0.0141 -0.0205 0.019 -0.0065 0.0421 -0.061 -0.0402 -0.0413 -0.029 -0.0236 -0.0288 -0.0301 0.0193 0.0916 0.0178 -0.0053 0.016 -0.0101 0.0681 -0.0269 0.0371 0.0283 -0.0061 0.0126 0.0524 -0.0303 -0.0255 -0.0109 -0.0221 0.0082 0.0241 -0.0487 0.016
precedent -0.0102 -0.0069 -0.0032 0.011 -0.0108 -0.018 0.0073 -0.0369 -0.0084 0.0068 0.0043 -0.0096 0.0031 0.0131 -0.0078 0.0187 0.012 0.005 0.0207 -0.0013 -0.0022 -0.0044 -0.0089 0.0198 0.0047 0.009 -0.0029 0.019 0.0074 0.0043 0.0019 -0.012 -0.0047 -0.0372 0.0032 -0.013 2.0E-4 -0.0033 -0.0043 -0.0037 0.0015 -0.0248 -0.0082 0.0055 -0.009 0.0016 0.0036 0.0161 0.0193 0.0021 0.0181 0.0081 -0.0137 0.0232 -2.0E-4 0.0175 0.031 0.021 -0.027 -0.0072 -0.0086 0.0078 0.0237 -0.0186 0.0247 -0.0223 0.0061 0.0073 0.0099 0.0028 -0.0025 0.0118 -0.0039 6.0E-4 0.007 -0.0086 0.0021 -0.0227 -4.0E-4 -0.011 0.0064 0.0129 0.0091 0.0142 -0.0167 0.017 -0.0013 0.0053 -0.004 5.0E-4 0.0204 -0.0069 -0.026 -0.0141 0.0012 1.0E-4 -0.0086 -0.0138 0.0392 0.0039 0.0085 -0.0152 8.0E-4 -0.0125 -0.0112 -0.0189 0.0109 -0.0074 -0.0053 0.0145 0.0035 0.0244 0.0144 -0.0186 -0.0012 -0.005 0.0084 -0.0103 -0.0126 -0.0127 0.0114 0.0036 0.0226 0.013 0.0138 0.0115 -0.0011 -0.018 -0.0112 0.0238 -0.0111 0.0033 -0.0248 0.0191 -0.0163 0.0067 -0.0305 0.0258 0.0039 -0.0103 2.0E-4 -0.0147 0.0054 -0.0132 0.002 -0.0036 0.0178 0.001 0.0051 -0.0109 0.0109 0.0065 0.0077 -0.0111 0.0085 0.0368 0.0012 -0.0027 0.0131 0.0041 -0.0016 0.0036 -0.0062 0.0075 0.0115 0.0018 0.0202 0.0099 -0.0075 -0.0052 -0.0046 0.0057 0.0092 -0.0082 -0.022 0.008 -0.0116 0.0403 -0.0019 0.0098 0.0052 -0.0133 -0.0017 -0.0272 0.0038 -0.0025 0.006 0.0302 0.008 -2.0E-4 -0.0203 0.0409 -0.0069 -0.0106 -0.0245 0.0029 -0.0015 7.0E-4 -0.0284 0.0096 -0.0517 0.0207 -0.0054 -0.0073 -0.0263 -0.0055 0.0284 0.0018 3.0E-4 3.0E-4 0.0197 0.0101 -6.0E-4 0.0096 -0.0048 0.0077 0.0031 -0.0319 0.0038 -0.04 0.0061 0.003 -0.0043 0.0301 0.0356 0.0285 -0.0051 0.024 -0.0171 -0.0134 -0.0076 -0.0494 -0.0097 0.0084 0.0032 -0.007 -0.001 0.0148 0.0223 0.0208 0.0359 -0.0148 0.0118 -0.0015 -0.0348 -0.0176 -0.0119 0.0103 -0.0108 0.0074 0.0085 0.0019 0.006 0.0166 -0.0059 0.0123 0.0039 0.0195 0.0127 0.0306 0.0062 -0.0149 -0.0054 -0.0141 0.0089 0.0165 0.005 0.0261 -0.0156 -0.0078 0.0142 0.0329 -0.0328 -0.0137 0.0295 -0.0242 -0.0108 0.0146 -0.0017 -0.0111 0.0111 -0.0031 -0.0202 -0.0055 -0.0049 -0.0025 0.0015 0.0149 0.01 0.0238 0.0206 -0.0137 0.0261 -0.0028 0.0129 -7.0E-4 -0.0092 -8.0E-4 0.0162 0.0139
